svm_type c_svc
kernel_type linear
nr_class 2
total_sv 12
rho 1.64209
label 23 -1
nr_sv 6 6
SV
2.991419454134068e-07 1:255 2:255 3:195 4:183 5:200 6:223 7:244 8:254 9:253 10:247 11:254 12:254 13:254 14:249 15:245 16:239 17:222 18:215 19:255 20:255 21:255 22:255 23:203 24:186 25:197 26:219 27:241 28:254 29:254 30:247 31:245 32:241 33:238 34:236 35:237 36:239 37:231 38:225 39:255 40:255 41:255 42:255 43:191 44:167 45:176 46:201 47:230 48:247 49:253 50:246 51:233 52:216 53:205 54:205 55:217 56:230 57:231 58:231 59:255 60:255 61:255 62:255 63:171 64:138 65:151 66:182 67:215 68:235 69:245 70:240 71:222 72:188 73:169 74:168 75:184 76:210 77:227 78:232 79:255 80:255 81:255 82:255 83:154 84:113 85:130 86:166 87:202 88:228 89:236 90:231 91:210 92:168 93:137 94:132 95:155 96:190 97:216 98:231 99:255 100:255 101:255 102:255 103:145 104:96 105:114 106:154 107:192 108:220 109:227 110:218 111:193 112:154 113:115 114:107 115:137 116:178 117:208 118:228 119:255 120:255 121:255 122:255 123:140 124:87 125:104 126:146 127:181 128:200 129:204 130:196 131:176 132:141 133:101 134:95 135:128 136:172 137:204 138:227 139:255 140:255 141:255 142:255 143:140 144:82 145:98 146:138 147:164 148:167 149:163 150:162 151:159 152:129 153:89 154:87 155:122 156:166 157:200 158:227 159:255 160:255 161:255 162:255 163:139 164:79 165:90 166:125 167:142 168:133 169:120 170:125 171:134 172:113 173:78 174:77 175:115 176:162 177:197 178:226 179:255 180:255 181:255 182:255 183:136 184:74 185:79 186:105 187:114 188:96 189:74 190:83 191:103 192:94 193:69 194:71 195:111 196:161 197:195 198:222 199:255 200:255 201:255 202:255 203:134 204:70 205:61 206:73 207:76 208:58 209:45 210:54 211:74 212:70 213:60 214:68 215:110 216:163 217:201 218:227 219:255 220:255 221:255 222:255 223:130 224:62 225:46 226:49 227:48 228:33 229:23 230:31 231:57 232:59 233:52 234:66 235:112 236:167 237:201 238:222 239:255 240:255 241:255 242:255 243:130 244:54 245:31 246:29 247:25 248:14 249:9 250:19 251:42 252:48 253:47 254:64 255:114 256:170 257:200 258:217 259:255 260:255 261:255 262:255 263:136 264:55 265:22 266:13 267:12 268:9 269:9 270:13 271:28 272:32 273:39 274:66 275:117 276:169 277:196 278:213 279:255 280:255 281:255 282:255 283:142 284:60 285:19 286:6 287:9 288:18 289:22 290:18 291:19 292:21 293:32 294:67 295:123 296:173 297:192 298:204 299:255 300:255 301:255 302:255 303:147 304:64 305:19 306:5 307:18 308:38 309:46 310:37 311:20 312:14 313:27 314:72 315:131 316:176 317:188 318:195 319:255 320:255 321:255 322:255 323:152 324:69 325:23 326:14 327:38 328:69 329:80 330:64 331:30 332:13 333:29 334:79 335:136 336:173 337:177 338:185 339:255 340:255 341:255 342:255 343:160 344:81 345:40 346:37 347:66 348:105 349:120 350:91 351:47 352:25 353:40 354:86 355:138 356:165 357:157 358:167 359:255 360:255 361:255 362:255 363:174 364:107 365:75 366:75 367:103 368:142 369:153 370:125 371:73 372:51 373:60 374:99 375:138 376:153 377:133 378:140 379:255 380:255 381:255 382:255 383:193 384:147 385:127 386:127 387:146 388:170 389:177 390:158 391:124 392:98 393:101 394:121 395:137 396:133 397:102 398:113 399:255 400:255 
4.854227243232468e-06 1:255 2:255 3:161 4:136 5:159 6:187 7:208 8:226 9:240 10:248 11:248 12:252 13:255 14:255 15:254 16:247 17:235 18:235 19:255 20:255 21:255 22:255 23:198 24:184 25:194 26:206 27:220 28:234 29:247 30:248 31:248 32:249 33:249 34:252 35:247 36:240 37:237 38:238 39:255 40:255 41:255 42:255 43:212 44:198 45:200 46:209 47:221 48:234 49:249 50:252 51:252 52:243 53:235 54:230 55:225 56:223 57:226 58:236 59:255 60:255 61:255 62:255 63:208 64:187 65:185 66:193 67:207 68:222 69:239 70:249 71:244 72:231 73:218 74:206 75:197 76:198 77:208 78:225 79:255 80:255 81:255 82:255 83:195 84:160 85:153 86:166 87:189 88:210 89:227 90:239 91:235 92:219 93:202 94:178 95:162 96:166 97:185 98:215 99:255 100:255 101:255 102:255 103:181 104:134 105:123 106:140 107:172 108:201 109:220 110:231 111:228 112:212 113:189 114:155 115:130 116:133 117:161 118:205 119:255 120:255 121:255 122:255 123:171 124:120 125:104 126:120 127:158 128:194 129:214 130:224 131:218 132:206 133:180 134:142 135:110 136:111 137:145 138:198 139:255 140:255 141:255 142:255 143:171 144:114 145:91 146:106 147:149 148:184 149:200 150:208 151:202 152:193 153:168 154:131 155:98 156:100 157:139 158:195 159:255 160:255 161:255 162:255 163:176 164:113 165:87 166:100 167:138 168:169 169:178 170:176 171:173 172:170 173:149 174:117 175:90 176:94 177:133 178:191 179:255 180:255 181:255 182:255 183:178 184:111 185:82 186:92 187:122 188:141 189:141 190:132 191:127 192:132 193:125 194:101 195:80 196:87 197:125 198:187 199:255 200:255 201:255 202:255 203:181 204:116 205:80 206:79 207:101 208:117 209:105 210:85 211:83 212:90 213:99 214:88 215:72 216:81 217:121 218:184 219:255 220:255 221:255 222:255 223:182 224:116 225:76 226:66 227:76 228:80 229:69 230:54 231:50 232:61 233:71 234:69 235:66 236:81 237:120 238:182 239:255 240:255 241:255 242:255 243:183 244:120 245:74 246:51 247:48 248:47 249:39 250:30 251:29 252:38 253:50 254:55 255:58 256:76 257:117 258:182 259:255 260:255 261:255 262:255 263:189 264:125 265:72 266:39 267:28 268:23 269:18 270:12 271:12 272:25 273:36 274:42 275:50 276:72 277:115 278:179 279:255 280:255 281:255 282:255 283:195 284:134 285:77 286:34 287:14 288:9 289:8 290:9 291:12 292:19 293:26 294:32 295:43 296:72 297:117 298:180 299:255 300:255 301:255 302:255 303:201 304:144 305:85 306:36 307:10 308:5 309:15 310:21 311:25 312:22 313:21 314:24 315:37 316:72 317:123 318:185 319:255 320:255 321:255 322:255 323:206 324:152 325:90 326:37 327:11 328:10 329:31 330:46 331:49 332:37 333:22 334:19 335:32 336:72 337:129 338:189 339:255 340:255 341:255 342:255 343:208 344:157 345:95 346:40 347:14 348:20 349:50 350:81 351:86 352:62 353:31 354:17 355:30 356:73 357:131 358:190 359:255 360:255 361:255 362:255 363:212 364:162 365:103 366:54 367:34 368:47 369:86 370:119 371:124 372:94 373:57 374:36 375:42 376:80 377:130 378:186 379:255 380:255 381:255 382:255 383:219 384:180 385:131 386:86 387:68 388:85 389:124 390:149 391:152 392:128 393:91 394:66 395:66 396:95 397:131 398:176 399:255 400:255 
8.295792888201882e-06 1:255 2:255 3:218 4:199 5:196 6:199 7:207 8:221 9:234 10:242 11:250 12:253 13:251 14:246 15:238 16:228 17:220 18:225 19:255 20:255 21:255 22:255 23:234 24:211 25:192 26:181 27:182 28:198 29:221 30:237 31:246 32:252 33:251 34:242 35:222 36:198 37:181 38:196 39:255 40:255 41:255 42:255 43:233 44:203 45:171 46:151 47:150 48:168 49:198 50:227 51:240 52:245 53:243 54:229 55:199 56:165 57:143 58:169 59:255 60:255 61:255 62:255 63:228 64:188 65:150 66:123 67:120 68:146 69:178 70:214 71:232 72:238 73:232 74:213 75:177 76:138 77:111 78:143 79:255 80:255 81:255 82:255 83:220 84:178 85:137 86:106 87:103 88:131 89:166 90:204 91:224 92:228 93:219 94:198 95:163 96:121 97:90 98:124 99:255 100:255 101:255 102:255 103:215 104:174 105:132 106:98 107:94 108:120 109:156 110:190 111:207 112:206 113:197 114:180 115:152 116:114 117:81 118:114 119:255 120:255 121:255 122:255 123:211 124:172 125:131 126:97 127:89 128:111 129:145 130:169 131:175 132:170 133:165 134:158 135:141 136:109 137:77 138:109 139:255 140:255 141:255 142:255 143:206 144:170 145:133 146:98 147:87 148:105 149:134 150:146 151:137 152:128 153:127 154:131 155:125 156:101 157:71 158:106 159:255 160:255 161:255 162:255 163:204 164:169 165:135 166:100 167:84 168:97 169:118 170:124 171:103 172:88 173:89 174:103 175:105 176:86 177:63 178:103 179:255 180:255 181:255 182:255 183:207 184:171 185:137 186:98 187:77 188:85 189:95 190:92 191:70 192:53 193:55 194:72 195:82 196:72 197:55 198:100 199:255 200:255 201:255 202:255 203:215 204:180 205:142 206:100 207:72 208:68 209:72 210:66 211:45 212:26 213:26 214:44 215:57 216:54 217:46 218:95 219:255 220:255 221:255 222:255 223:228 224:195 225:154 226:105 227:68 228:53 229:50 230:41 231:26 232:13 233:11 234:23 235:32 236:33 237:34 238:93 239:255 240:255 241:255 242:255 243:235 244:207 245:165 246:115 247:69 248:38 249:25 250:23 251:19 252:16 253:14 254:13 255:16 256:20 257:29 258:92 259:255 260:255 261:255 262:255 263:240 264:218 265:177 266:124 267:73 268:32 269:13 270:16 271:24 272:32 273:27 274:17 275:9 276:10 277:22 278:92 279:255 280:255 281:255 282:255 283:244 284:226 285:186 286:132 287:80 288:36 289:13 290:21 291:44 292:61 293:55 294:36 295:14 296:4 297:17 298:92 299:255 300:255 301:255 302:255 303:248 304:232 305:192 306:140 307:89 308:44 309:23 310:39 311:71 312:94 313:89 314:63 315:29 316:9 317:17 318:94 319:255 320:255 321:255 322:255 323:252 324:237 325:198 326:149 327:101 328:58 329:42 330:65 331:99 332:123 333:121 334:95 335:57 336:31 337:32 338:100 339:255 340:255 341:255 342:255 343:254 344:242 345:208 346:163 347:118 348:83 349:75 350:97 351:130 352:150 353:150 354:131 355:98 356:71 357:65 358:118 359:255 360:255 361:255 362:255 363:254 364:247 365:222 366:185 367:148 368:126 369:121 370:138 371:158 372:182 373:182 374:165 375:141 376:119 377:108 378:146 379:255 380:255 381:255 382:255 383:255 384:249 385:236 386:213 387:187 388:168 389:165 390:174 391:190 392:211 393:215 394:203 395:181 396:160 397:147 398:170 399:255 400:255 
8.193923132047506e-06 1:255 2:255 3:220 4:215 5:230 6:242 7:248 8:251 9:252 10:255 11:251 12:244 13:238 14:235 15:237 16:237 17:219 18:206 19:255 20:255 21:255 22:255 23:202 24:185 25:202 26:227 27:244 28:252 29:254 30:254 31:245 32:229 33:210 34:204 35:213 36:226 37:223 38:219 39:255 40:255 41:255 42:255 43:184 44:159 45:173 46:206 47:237 48:248 49:255 50:251 51:238 52:200 53:175 54:170 55:184 56:209 57:222 58:225 59:255 60:255 61:255 62:255 63:163 64:129 65:148 66:187 67:223 68:243 69:249 70:245 71:224 72:180 73:144 74:139 75:161 76:194 77:217 78:230 79:255 80:255 81:255 82:255 83:148 84:107 85:126 86:166 87:206 88:235 89:239 90:234 91:208 92:165 93:124 94:117 95:146 96:186 97:213 98:232 99:255 100:255 101:255 102:255 103:143 104:93 105:110 106:150 107:188 108:212 109:217 110:210 111:188 112:149 113:106 114:101 115:135 116:181 117:212 118:233 119:255 120:255 121:255 122:255 123:139 124:83 125:99 126:139 127:167 128:177 129:178 130:175 131:166 132:133 133:91 134:88 135:127 136:176 137:211 138:236 139:255 140:255 141:255 142:255 143:135 144:75 145:86 146:122 147:143 148:138 149:129 150:138 151:142 152:120 153:83 154:79 155:119 156:171 157:209 158:236 159:255 160:255 161:255 162:255 163:134 164:71 165:71 166:96 167:109 168:94 169:79 170:92 171:109 172:102 173:73 174:73 175:113 176:168 177:209 178:235 179:255 180:255 181:255 182:255 183:134 184:66 185:57 186:69 187:71 188:57 189:46 190:54 191:79 192:81 193:65 194:69 195:112 196:168 197:207 198:231 199:255 200:255 201:255 202:255 203:134 204:63 205:47 206:50 207:46 208:30 209:22 210:32 211:57 212:63 213:57 214:65 215:110 216:168 217:204 218:226 219:255 220:255 221:255 222:255 223:141 224:61 225:32 226:28 227:24 228:13 229:10 230:18 231:36 232:51 233:50 234:63 235:110 236:168 237:202 238:221 239:255 240:255 241:255 242:255 243:148 244:63 245:24 246:12 247:10 248:9 249:10 250:16 251:26 252:35 253:39 254:63 255:118 256:174 257:201 258:216 259:255 260:255 261:255 262:255 263:154 264:70 265:22 266:5 267:8 268:17 269:24 270:24 271:21 272:23 273:30 274:69 275:128 276:180 277:199 278:208 279:255 280:255 281:255 282:255 283:159 284:75 285:23 286:4 287:15 288:39 289:52 290:45 291:24 292:15 293:24 294:71 295:133 296:179 297:190 298:198 299:255 300:255 301:255 302:255 303:162 304:80 305:27 306:10 307:29 308:66 309:90 310:75 311:40 312:16 313:22 314:67 315:130 316:171 317:173 318:183 319:255 320:255 321:255 322:255 323:166 324:89 325:39 326:27 327:53 328:97 329:129 330:109 331:69 332:32 333:30 334:68 335:122 336:157 337:153 338:162 339:255 340:255 341:255 342:255 343:176 344:109 345:67 346:61 347:91 348:135 349:159 350:143 351:108 352:67 353:59 354:84 355:118 356:138 357:127 358:136 359:255 360:255 361:255 362:255 363:195 364:147 365:122 366:120 367:141 368:170 369:184 370:180 371:150 372:118 373:104 374:109 375:121 376:121 377:96 378:111 379:255 380:255 381:255 382:255 383:218 384:186 385:171 386:170 387:183 388:207 389:223 390:214 391:184 392:165 393:148 394:135 395:122 396:97 397:64 398:98 399:255 400:255 
1.811790566675157e-06 1:255 2:255 3:150 4:135 5:165 6:196 7:223 8:244 9:255 10:255 11:252 12:252 13:248 14:242 15:236 16:226 17:206 18:201 19:255 20:255 21:255 22:255 23:186 24:174 25:193 26:214 27:233 28:248 29:255 30:252 31:248 32:248 33:247 34:239 35:234 36:231 37:217 38:211 39:255 40:255 41:255 42:255 43:203 44:189 45:198 46:213 47:230 48:245 49:253 50:251 51:242 52:237 53:230 54:221 55:221 56:228 57:225 58:224 59:255 60:255 61:255 62:255 63:198 64:173 65:177 66:194 67:216 68:237 69:249 70:248 71:234 72:214 73:197 74:186 75:192 76:210 77:222 78:230 79:255 80:255 81:255 82:255 83:180 84:141 85:145 86:169 87:201 88:228 89:243 90:242 91:222 92:192 93:161 94:147 95:158 96:186 97:212 98:231 99:255 100:255 101:255 102:255 103:162 104:113 105:117 106:148 107:188 108:219 109:235 110:234 111:211 112:176 113:133 114:115 115:131 116:167 117:200 118:227 119:255 120:255 121:255 122:255 123:153 124:98 125:100 126:134 127:175 128:207 129:223 130:221 131:201 132:163 133:119 134:96 135:114 136:155 137:192 138:221 139:255 140:255 141:255 142:255 143:154 144:95 145:92 146:123 147:163 148:192 149:202 150:197 151:184 152:151 153:111 154:89 155:105 156:146 157:186 158:219 159:255 160:255 161:255 162:255 163:158 164:96 165:84 166:110 167:150 168:172 169:169 170:160 171:157 172:138 173:103 174:81 175:96 176:138 177:180 178:216 179:255 180:255 181:255 182:255 183:162 184:95 185:78 186:100 187:131 188:140 189:126 190:113 191:122 192:118 193:92 194:72 195:88 196:132 197:175 198:211 199:255 200:255 201:255 202:255 203:164 204:93 205:68 206:84 207:108 208:104 209:81 210:66 211:86 212:97 213:78 214:63 215:82 216:129 217:177 218:216 219:255 220:255 221:255 222:255 223:164 224:90 225:61 226:67 227:81 228:74 229:50 230:37 231:61 232:72 233:65 234:58 235:79 236:127 237:177 238:217 239:255 240:255 241:255 242:255 243:165 244:90 245:53 246:47 247:53 248:45 249:28 250:21 251:37 252:54 253:52 254:52 255:78 256:125 257:173 258:212 259:255 260:255 261:255 262:255 263:170 264:97 265:51 266:32 267:28 268:22 269:13 270:11 271:24 272:36 273:38 274:47 275:76 276:122 277:168 278:208 279:255 280:255 281:255 282:255 283:177 284:106 285:54 286:23 287:12 288:8 289:9 290:13 291:18 292:24 293:27 294:42 295:74 296:119 297:163 298:205 299:255 300:255 301:255 302:255 303:183 304:117 305:61 306:21 307:5 308:7 309:17 310:27 311:23 312:19 313:18 314:35 315:73 316:120 317:162 318:202 319:255 320:255 321:255 322:255 323:189 324:126 325:68 326:23 327:7 328:19 329:39 330:53 331:42 332:22 333:12 334:29 335:72 336:124 337:163 338:199 339:255 340:255 341:255 342:255 343:194 344:134 345:74 346:29 347:15 348:34 349:68 350:86 351:69 352:36 353:17 354:29 355:73 356:126 357:161 358:193 359:255 360:255 361:255 362:255 363:201 364:145 365:86 366:40 367:27 368:52 369:97 370:122 371:101 372:60 373:33 374:36 375:76 376:126 377:152 378:179 379:255 380:255 381:255 382:255 383:211 384:163 385:108 386:66 387:58 388:84 389:130 390:151 391:135 392:92 393:63 394:60 395:88 396:126 397:140 398:162 399:255 400:255 
8.939229398541616e-06 1:255 2:255 3:224 4:196 5:196 6:213 7:232 8:247 9:253 10:255 11:254 12:249 13:235 14:216 15:201 16:206 17:225 18:241 19:255 20:255 21:255 22:255 23:201 24:165 25:159 26:176 27:208 28:241 29:251 30:253 31:252 32:243 33:219 34:184 35:165 36:174 37:202 38:234 39:255 40:255 41:255 42:255 43:189 44:137 45:121 46:143 47:188 48:229 49:246 50:251 51:249 52:236 53:198 54:150 55:126 56:144 57:187 58:229 59:255 60:255 61:255 62:255 63:178 64:120 65:98 66:117 67:166 68:212 69:236 70:242 71:240 72:226 73:184 74:132 75:105 76:121 77:172 78:226 79:255 80:255 81:255 82:255 83:172 84:112 85:87 86:102 87:147 88:193 89:216 90:215 91:210 92:201 93:171 94:122 95:92 96:107 97:160 98:222 99:255 100:255 101:255 102:255 103:170 104:110 105:84 106:93 107:133 108:171 109:182 110:170 111:165 112:166 113:149 114:109 115:84 116:101 117:156 118:220 119:255 120:255 121:255 122:255 123:171 124:111 125:81 126:86 127:117 128:141 129:138 130:119 131:117 132:129 133:121 134:94 135:78 136:98 137:154 138:218 139:255 140:255 141:255 142:255 143:174 144:112 145:77 146:75 147:94 148:104 149:94 150:73 151:73 152:91 153:96 154:81 155:72 156:94 157:150 158:216 159:255 160:255 161:255 162:255 163:176 164:113 165:72 166:60 167:70 168:75 169:62 170:41 171:41 172:63 173:72 174:66 175:64 176:90 177:148 178:215 179:255 180:255 181:255 182:255 183:181 184:115 185:68 186:44 187:42 188:44 189:35 190:26 191:26 192:38 193:48 194:48 195:54 196:85 197:144 198:211 199:255 200:255 201:255 202:255 203:184 204:119 205:67 206:35 207:28 208:26 209:19 210:9 211:13 212:25 213:35 214:37 215:48 216:85 217:149 218:216 219:255 220:255 221:255 222:255 223:188 224:126 225:70 226:29 227:11 228:7 229:10 230:8 231:12 232:17 233:21 234:28 235:45 236:88 237:154 238:219 239:255 240:255 241:255 242:255 243:194 244:137 245:79 246:31 247:6 248:4 249:16 250:25 251:28 252:20 253:13 254:18 255:43 256:93 257:159 258:220 259:255 260:255 261:255 262:255 263:200 264:150 265:92 266:39 267:11 268:11 269:30 270:48 271:51 272:34 273:16 274:15 275:41 276:94 277:160 278:218 279:255 280:255 281:255 282:255 283:207 284:165 285:106 286:49 287:22 288:25 289:51 290:80 291:83 292:58 293:31 294:23 295:44 296:94 297:153 298:208 299:255 300:255 301:255 302:255 303:217 304:178 305:121 306:65 307:39 308:47 309:81 310:118 311:126 312:94 313:60 314:42 315:57 316:99 317:148 318:197 319:255 320:255 321:255 322:255 323:226 324:192 325:145 326:96 327:71 328:81 329:119 330:157 331:169 332:139 333:101 334:79 335:86 336:117 337:151 338:189 339:255 340:255 341:255 342:255 343:234 344:212 345:182 346:145 347:124 348:132 349:162 350:193 351:204 352:185 353:151 354:132 355:131 356:145 357:155 358:177 359:255 360:255 361:255 362:255 363:245 364:236 365:219 366:196 367:182 368:185 369:199 370:223 371:232 372:221 373:198 374:184 375:175 376:166 377:145 378:153 379:255 380:255 381:255 382:255 383:250 384:246 385:240 386:231 387:224 388:224 389:232 390:239 391:242 392:239 393:228 394:218 395:194 396:160 397:123 398:134 399:255 400:255 
-3.48513924879708e-06 1:255 2:255 3:197 4:181 5:190 6:200 7:211 8:223 9:230 10:230 11:230 12:236 13:239 14:244 15:251 16:254 17:252 18:249 19:255 20:255 21:255 22:255 23:220 24:209 25:214 26:218 27:217 28:213 29:206 30:200 31:195 32:196 33:203 34:211 35:228 36:246 37:254 38:253 39:255 40:255 41:255 42:255 43:237 44:231 45:227 46:220 47:210 48:195 49:177 50:164 51:158 52:156 53:165 54:179 55:201 56:227 57:247 58:254 59:255 60:255 61:255 62:255 63:246 64:244 65:235 66:218 67:196 68:171 69:149 70:129 71:120 72:118 73:129 74:150 75:176 76:207 77:235 78:251 79:255 80:255 81:255 82:255 83:252 84:248 85:238 86:214 87:182 88:151 89:122 90:95 91:79 92:78 93:95 94:124 95:155 96:188 97:221 98:245 99:255 100:255 101:255 102:255 103:255 104:250 105:232 106:203 107:169 108:134 109:99 110:63 111:39 112:38 113:64 114:102 115:139 116:174 117:207 118:237 119:255 120:255 121:255 122:255 123:255 124:247 125:223 126:189 127:154 128:117 129:79 130:39 131:14 132:13 133:39 134:84 135:126 136:163 137:198 138:233 139:255 140:255 141:255 142:255 143:253 144:240 145:212 146:176 147:139 148:99 149:60 150:26 151:12 152:10 153:25 154:67 155:112 156:153 157:194 158:232 159:255 160:255 161:255 162:255 163:248 164:228 165:197 166:161 167:124 168:85 169:49 170:28 171:30 172:23 173:24 174:55 175:99 176:143 177:186 178:227 179:255 180:255 181:255 182:255 183:241 184:216 185:184 186:148 187:109 188:68 189:40 190:50 191:63 192:58 193:36 194:48 195:86 196:131 197:173 198:215 199:255 200:255 201:255 202:255 203:233 204:206 205:173 206:136 207:97 208:62 209:51 210:69 211:89 212:85 213:62 214:44 215:69 216:115 217:158 218:204 219:255 220:255 221:255 222:255 223:230 224:198 225:163 226:127 227:89 228:55 229:53 230:81 231:104 232:98 233:73 234:45 235:57 236:98 237:139 238:189 239:255 240:255 241:255 242:255 243:223 244:189 245:154 246:115 247:72 248:39 249:46 250:76 251:97 252:93 253:68 254:38 255:42 256:80 257:125 258:177 259:255 260:255 261:255 262:255 263:216 264:178 265:141 266:100 267:54 268:19 269:24 270:48 271:69 272:63 273:39 274:18 275:22 276:60 277:110 278:168 279:255 280:255 281:255 282:255 283:206 284:164 285:127 286:84 287:40 288:8 289:9 290:24 291:38 292:35 293:17 294:5 295:10 296:43 297:93 298:158 299:255 300:255 301:255 302:255 303:196 304:151 305:113 306:70 307:32 308:17 309:26 310:40 311:48 312:46 313:34 314:19 315:12 316:32 317:77 318:147 319:255 320:255 321:255 322:255 323:190 324:142 325:103 326:61 327:36 328:44 329:68 330:87 331:96 332:93 333:81 334:57 335:32 336:30 337:61 338:136 339:255 340:255 341:255 342:255 343:189 344:141 345:104 346:69 347:59 348:82 349:109 350:129 351:140 352:138 353:126 354:102 355:69 356:46 357:54 358:124 359:255 360:255 361:255 362:255 363:196 364:153 365:123 366:103 367:102 368:120 369:143 370:163 371:172 372:170 373:158 374:135 375:108 376:83 377:73 378:124 379:255 380:255 381:255 382:255 383:206 384:172 385:149 386:135 387:135 388:147 389:166 390:187 391:198 392:196 393:180 394:160 395:138 396:118 397:103 398:135 399:255 400:255 
-4.285048864268834e-06 1:255 2:255 3:211 4:203 5:215 6:227 7:236 8:243 9:248 10:252 11:254 12:255 13:254 14:253 15:251 16:250 17:249 18:249 19:255 20:255 21:255 22:255 23:221 24:206 25:208 26:216 27:227 28:237 29:243 30:248 31:250 32:246 33:241 34:235 35:232 36:234 37:239 38:245 39:255 40:255 41:255 42:255 43:217 44:187 45:176 46:185 47:205 48:225 49:237 50:245 51:245 52:235 53:219 54:204 55:199 56:207 57:221 58:238 59:255 60:255 61:255 62:255 63:201 64:157 65:136 66:142 67:172 68:207 69:229 70:240 71:239 72:221 73:188 74:160 75:152 76:167 77:197 78:230 79:255 80:255 81:255 82:255 83:188 84:130 85:99 86:102 87:137 88:186 89:223 90:236 91:231 92:206 93:159 94:121 95:110 96:132 97:175 98:220 99:255 100:255 101:255 102:255 103:181 104:114 105:76 106:76 107:114 108:170 109:214 110:228 111:220 112:188 113:133 114:91 115:81 116:107 117:156 118:210 119:255 120:255 121:255 122:255 123:177 124:107 125:64 126:61 127:98 128:153 129:196 130:215 131:207 132:170 133:114 134:71 135:63 136:91 137:143 138:203 139:255 140:255 141:255 142:255 143:175 144:104 145:57 146:46 147:76 148:127 149:168 150:192 151:184 152:150 153:99 154:58 155:51 156:82 157:138 158:199 159:255 160:255 161:255 162:255 163:171 164:100 165:47 166:27 167:51 168:93 169:128 170:150 171:146 172:114 173:72 174:38 175:39 176:77 177:133 178:195 179:255 180:255 181:255 182:255 183:168 184:96 185:42 186:16 187:24 188:51 189:81 190:94 191:92 192:67 193:37 194:19 195:31 196:74 197:136 198:200 199:255 200:255 201:255 202:255 203:164 204:89 205:36 206:8 207:6 208:17 209:35 210:52 211:47 212:28 213:14 214:7 215:23 216:71 217:136 218:200 219:255 220:255 221:255 222:255 223:168 224:95 225:39 226:7 227:5 228:15 229:31 230:45 231:38 232:22 233:8 234:4 235:22 236:67 237:131 238:200 239:255 240:255 241:255 242:255 243:169 244:96 245:41 246:11 247:14 248:34 249:59 250:78 251:74 252:52 253:24 254:11 255:24 256:66 257:130 258:200 259:255 260:255 261:255 262:255 263:169 264:96 265:43 266:20 267:36 268:72 269:105 270:128 271:121 272:90 273:53 274:25 275:30 276:71 277:134 278:201 279:255 280:255 281:255 282:255 283:169 284:96 285:45 286:30 287:57 288:102 289:144 290:168 291:158 292:123 293:78 294:38 295:37 296:78 297:139 298:203 299:255 300:255 301:255 302:255 303:170 304:99 305:49 306:38 307:70 308:118 309:166 310:191 311:181 312:145 313:93 314:47 315:43 316:82 317:141 318:203 319:255 320:255 321:255 322:255 323:174 324:104 325:57 326:47 327:77 328:129 329:177 330:203 331:195 332:159 333:103 334:55 335:48 336:83 337:138 338:196 339:255 340:255 341:255 342:255 343:181 344:114 345:73 346:63 347:90 348:144 349:191 350:211 351:204 352:168 353:113 354:71 355:60 356:86 357:132 358:186 359:255 360:255 361:255 362:255 363:190 364:136 365:102 366:94 367:120 368:166 369:206 370:221 371:214 372:178 373:134 374:97 375:83 376:96 377:125 378:175 379:255 380:255 381:255 382:255 383:211 384:173 385:143 386:136 387:157 388:191 389:220 390:230 391:224 392:200 393:165 394:131 395:114 396:115 397:121 398:157 399:255 400:255 
-2.859363712807447e-06 1:255 2:255 3:215 4:209 5:221 6:232 7:240 8:245 9:252 10:255 11:255 12:255 13:253 14:251 15:249 16:246 17:245 18:250 19:255 20:255 21:255 22:255 23:227 24:220 25:224 26:229 27:234 28:238 29:244 30:249 31:251 32:249 33:245 34:242 35:238 36:235 37:237 38:244 39:255 40:255 41:255 42:255 43:227 44:213 45:209 46:210 47:215 48:222 49:231 50:238 51:242 52:241 53:235 54:228 55:219 56:214 57:218 58:233 59:255 60:255 61:255 62:255 63:218 64:191 65:176 66:170 67:174 68:187 69:209 70:224 71:233 72:232 73:223 74:210 75:191 76:180 77:188 78:217 79:255 80:255 81:255 82:255 83:209 84:172 85:141 86:122 87:122 88:141 89:176 90:205 91:221 92:222 93:210 94:187 95:162 96:151 97:161 98:198 99:255 100:255 101:255 102:255 103:202 104:158 105:117 106:84 107:77 108:97 109:137 110:178 111:205 112:211 113:198 114:171 115:139 116:125 117:138 118:183 119:255 120:255 121:255 122:255 123:199 124:149 125:101 126:62 127:49 128:64 129:100 130:148 131:185 132:198 133:187 134:161 135:124 136:103 137:119 138:174 139:255 140:255 141:255 142:255 143:198 144:142 145:88 146:49 147:34 148:40 149:70 150:116 151:161 152:182 153:173 154:149 155:113 156:92 157:109 158:170 159:255 160:255 161:255 162:255 163:197 164:137 165:83 166:42 167:22 168:22 169:42 170:81 171:131 172:154 173:154 174:132 175:102 176:88 177:107 178:168 179:255 180:255 181:255 182:255 183:199 184:144 185:91 186:48 187:25 188:19 189:27 190:51 191:86 192:117 193:127 194:112 195:85 196:76 197:99 198:161 199:255 200:255 201:255 202:255 203:202 204:149 205:98 206:52 207:25 208:17 209:19 210:27 211:51 212:76 213:89 214:84 215:66 216:63 217:87 218:150 219:255 220:255 221:255 222:255 223:204 224:153 225:100 226:56 227:34 228:30 229:34 230:29 231:28 232:42 233:53 234:52 235:44 236:51 237:81 238:147 239:255 240:255 241:255 242:255 243:202 244:151 245:99 246:60 247:50 248:57 249:61 250:48 251:25 252:23 253:25 254:24 255:26 256:39 257:72 258:143 259:255 260:255 261:255 262:255 263:198 264:145 265:96 266:65 267:66 268:84 269:94 270:80 271:46 272:25 273:13 274:10 275:13 276:29 277:66 278:142 279:255 280:255 281:255 282:255 283:197 284:143 285:97 286:73 287:81 288:107 289:125 290:116 291:80 292:41 293:15 294:5 295:6 296:24 297:65 298:142 299:255 300:255 301:255 302:255 303:197 304:145 305:100 306:78 307:90 308:120 309:148 310:147 311:119 312:70 313:29 314:9 315:6 316:22 317:61 318:138 319:255 320:255 321:255 322:255 323:198 324:148 325:102 326:79 327:94 328:132 329:164 330:172 331:154 332:106 333:53 334:20 335:9 336:20 337:55 338:133 339:255 340:255 341:255 342:255 343:203 344:152 345:106 346:85 347:106 348:149 349:179 350:196 351:179 352:140 353:85 354:43 355:22 356:26 357:58 358:135 359:255 360:255 361:255 362:255 363:209 364:164 365:125 366:108 367:127 368:166 369:197 370:212 371:202 372:174 373:132 374:91 375:65 376:63 377:87 378:150 379:255 380:255 381:255 382:255 383:217 384:184 385:164 386:157 387:167 388:190 389:211 390:224 391:223 392:207 393:179 394:155 395:134 396:124 397:132 398:173 399:255 400:255 
-9.940383323073107e-06 1:255 2:255 3:178 4:167 5:191 6:214 7:229 8:239 9:247 10:253 11:255 12:255 13:254 14:252 15:250 16:248 17:246 18:248 19:255 20:255 21:255 22:255 23:200 24:192 25:206 26:220 27:229 28:235 29:243 30:250 31:252 32:250 33:246 34:242 35:239 36:237 37:237 38:243 39:255 40:255 41:255 42:255 43:215 44:206 45:210 46:215 47:221 48:227 49:234 50:242 51:245 52:243 53:237 54:231 55:226 56:223 57:225 58:235 59:255 60:255 61:255 62:255 63:219 64:203 65:197 66:195 67:198 68:206 69:219 70:232 71:237 72:234 73:226 74:213 75:199 76:192 77:196 78:216 79:255 80:255 81:255 82:255 83:212 84:187 85:172 86:163 87:163 88:173 89:191 90:214 91:227 92:225 93:211 94:188 95:167 96:157 97:163 98:194 99:255 100:255 101:255 102:255 103:205 104:168 105:141 106:121 107:118 108:132 109:155 110:187 111:209 112:211 113:193 114:166 115:140 116:127 117:136 118:179 119:255 120:255 121:255 122:255 123:199 124:154 125:114 126:83 127:76 128:90 129:116 130:153 131:183 132:188 133:174 134:150 135:122 136:106 137:116 138:168 139:255 140:255 141:255 142:255 143:195 144:146 145:100 146:63 147:50 148:55 149:79 150:118 151:153 152:165 153:159 154:137 155:108 156:90 157:99 158:155 159:255 160:255 161:255 162:255 163:196 164:147 165:98 166:55 167:33 168:32 169:49 170:83 171:123 172:145 173:148 174:126 175:92 176:72 177:84 178:147 179:255 180:255 181:255 182:255 183:200 184:152 185:103 186:56 187:26 188:16 189:22 190:43 191:89 192:114 193:118 194:110 195:83 196:66 197:80 198:144 199:255 200:255 201:255 202:255 203:204 204:157 205:107 206:60 207:29 208:13 209:10 210:23 211:55 212:74 213:87 214:78 215:64 216:60 217:75 218:138 219:255 220:255 221:255 222:255 223:206 224:162 225:117 226:71 227:40 228:26 229:21 230:21 231:33 232:41 233:51 234:48 235:40 236:40 237:58 238:126 239:255 240:255 241:255 242:255 243:211 244:168 245:122 246:79 247:51 248:44 249:46 250:40 251:31 252:25 253:29 254:27 255:19 256:22 257:47 258:118 259:255 260:255 261:255 262:255 263:215 264:172 265:127 266:86 267:62 268:64 269:76 270:73 271:51 272:30 273:20 274:13 275:8 276:14 277:40 278:112 279:255 280:255 281:255 282:255 283:218 284:175 285:132 286:92 287:72 288:80 289:100 290:102 291:83 292:52 293:27 294:11 295:4 296:10 297:33 298:107 299:255 300:255 301:255 302:255 303:220 304:180 305:138 306:100 307:82 308:91 309:114 310:128 311:116 312:85 313:48 314:20 315:6 316:7 317:24 318:99 319:255 320:255 321:255 322:255 323:223 324:186 325:144 326:107 327:88 328:96 329:124 330:149 331:145 332:119 333:80 334:41 335:16 336:8 337:19 338:93 339:255 340:255 341:255 342:255 343:226 344:191 345:151 346:113 347:92 348:101 349:132 350:161 351:166 352:147 353:114 354:75 355:40 356:23 357:29 358:98 359:255 360:255 361:255 362:255 363:228 364:195 365:160 366:128 367:108 368:113 369:140 370:170 371:183 372:172 373:148 374:115 375:80 376:56 377:53 378:112 379:255 380:255 381:255 382:255 383:229 384:199 385:170 386:142 387:124 388:128 389:157 390:184 391:201 392:198 393:178 394:155 395:128 396:107 397:100 398:141 399:255 400:255 
-1.340776110973245e-06 1:255 2:255 3:193 4:186 5:202 6:218 7:233 8:243 9:250 10:252 11:255 12:255 13:255 14:252 15:249 16:240 17:219 18:209 19:255 20:255 21:255 22:255 23:204 24:194 25:202 26:211 27:223 28:239 29:248 30:250 31:249 32:245 33:245 34:247 35:247 36:243 37:227 38:219 39:255 40:255 41:255 42:255 43:201 44:182 45:185 46:193 47:207 48:227 49:239 50:243 51:231 52:214 53:210 54:218 55:230 56:237 57:232 58:229 59:255 60:255 61:255 62:255 63:181 64:150 65:152 66:163 67:183 68:209 69:229 70:229 71:203 72:179 73:171 74:183 75:204 76:224 77:231 78:232 79:255 80:255 81:255 82:255 83:159 84:112 85:111 86:129 87:156 88:187 89:210 90:208 91:177 92:150 93:139 94:153 95:180 96:210 97:227 98:233 99:255 100:255 101:255 102:255 103:144 104:82 105:73 106:93 107:127 108:164 109:188 110:189 111:159 112:126 113:112 114:128 115:162 116:200 117:224 118:236 119:255 120:255 121:255 122:255 123:133 124:64 125:47 126:61 127:98 128:140 129:168 130:173 131:145 132:107 133:88 134:110 135:153 136:195 137:224 138:241 139:255 140:255 141:255 142:255 143:128 144:54 145:31 146:38 147:70 148:112 149:147 150:156 151:135 152:94 153:72 154:103 155:149 156:192 157:225 158:244 159:255 160:255 161:255 162:255 163:124 164:47 165:20 166:19 167:42 168:83 169:127 170:140 171:124 172:80 173:65 174:101 175:148 176:190 177:221 178:240 179:255 180:255 181:255 182:255 183:119 184:42 185:15 186:9 187:25 188:59 189:98 190:121 191:106 192:72 193:64 194:101 195:147 196:187 197:217 198:238 199:255 200:255 201:255 202:255 203:124 204:48 205:19 206:11 207:16 208:35 209:66 210:86 211:82 212:64 213:61 214:100 215:147 216:186 217:214 218:235 219:255 220:255 221:255 222:255 223:125 224:49 225:22 226:14 227:18 228:27 229:37 230:54 231:58 232:48 233:54 234:95 235:145 236:185 237:213 238:232 239:255 240:255 241:255 242:255 243:126 244:53 245:35 246:36 247:40 248:36 249:27 250:31 251:32 252:30 253:45 254:90 255:142 256:184 257:211 258:228 259:255 260:255 261:255 262:255 263:128 264:58 265:48 266:61 267:68 268:54 269:31 270:16 271:13 272:15 273:36 274:87 275:141 276:181 277:204 278:221 279:255 280:255 281:255 282:255 283:129 284:63 285:59 286:84 287:101 288:84 289:49 290:18 291:5 292:6 293:31 294:86 295:140 296:178 297:196 298:211 299:255 300:255 301:255 302:255 303:130 304:68 305:72 306:103 307:127 308:116 309:77 310:36 311:8 312:4 313:30 314:84 315:136 316:172 317:187 318:201 319:255 320:255 321:255 322:255 323:133 324:73 325:81 326:116 327:142 328:140 329:109 330:61 331:18 332:6 333:28 334:80 335:131 336:166 337:177 338:190 339:255 340:255 341:255 342:255 343:138 344:79 345:89 346:126 347:158 348:161 349:133 350:87 351:35 352:14 353:29 354:76 355:127 356:160 357:164 358:175 359:255 360:255 361:255 362:255 363:146 364:94 365:106 366:142 367:173 368:180 369:154 370:117 371:64 372:36 373:45 374:83 375:127 376:153 377:149 378:162 379:255 380:255 381:255 382:255 383:163 384:118 385:125 386:156 387:190 388:201 389:179 390:145 391:102 392:74 393:78 394:107 395:133 396:142 397:129 398:143 399:255 400:255 
-1.048339391419232e-05 1:255 2:255 3:164 4:147 5:167 6:192 7:220 8:241 9:249 10:255 11:255 12:252 13:246 14:235 15:224 16:222 17:225 18:233 19:255 20:255 21:255 22:255 23:169 24:148 25:163 26:185 27:214 28:241 29:251 30:255 31:253 32:246 33:223 34:202 35:192 36:195 37:209 38:229 39:255 40:255 41:255 42:255 43:152 44:117 45:131 46:157 47:190 48:225 49:248 50:249 51:242 52:215 53:183 54:162 55:154 56:162 57:185 58:218 59:255 60:255 61:255 62:255 63:131 64:84 65:95 66:125 67:162 68:201 69:237 70:244 71:221 72:181 73:144 74:121 75:115 76:131 77:164 78:206 79:255 80:255 81:255 82:255 83:118 84:61 85:68 86:99 87:139 88:181 89:221 90:229 91:197 92:155 93:114 94:86 95:85 96:110 97:149 98:198 99:255 100:255 101:255 102:255 103:116 104:50 105:49 106:78 107:122 108:167 109:202 110:208 111:178 112:133 113:91 114:64 115:70 116:102 117:146 118:198 119:255 120:255 121:255 122:255 123:121 124:48 125:37 126:62 127:108 128:153 129:184 130:188 131:159 132:114 133:73 134:54 135:68 136:107 137:154 138:204 139:255 140:255 141:255 142:255 143:128 144:54 145:34 146:51 147:92 148:135 149:165 150:165 151:137 152:96 153:60 154:51 155:73 156:116 157:164 158:212 159:255 160:255 161:255 162:255 163:138 164:68 165:38 166:40 167:72 168:112 169:141 170:143 171:114 172:78 173:50 174:53 175:84 176:128 177:176 178:223 179:255 180:255 181:255 182:255 183:148 184:80 185:41 186:32 187:57 188:91 189:118 190:119 191:97 192:62 193:40 194:60 195:99 196:144 197:191 198:233 199:255 200:255 201:255 202:255 203:162 204:97 205:50 206:27 207:42 208:76 209:100 210:102 211:82 212:50 213:44 214:72 215:117 216:162 217:205 218:242 219:255 220:255 221:255 222:255 223:175 224:112 225:64 226:32 227:27 228:48 229:73 230:76 231:56 232:38 233:51 234:87 235:136 236:184 237:222 238:246 239:255 240:255 241:255 242:255 243:187 244:126 245:77 246:36 247:18 248:27 249:42 250:42 251:28 252:26 253:58 254:102 255:150 256:196 257:230 258:247 259:255 260:255 261:255 262:255 263:198 264:140 265:91 266:44 267:14 268:13 269:19 270:19 271:12 272:21 273:68 274:120 275:167 276:206 277:232 278:244 279:255 280:255 281:255 282:255 283:209 284:157 285:107 286:55 287:17 288:7 289:8 290:8 291:8 292:31 293:80 294:135 295:183 296:220 297:236 298:239 299:255 300:255 301:255 302:255 303:221 304:175 305:123 306:70 307:28 308:7 309:4 310:4 311:11 312:46 313:95 314:147 315:197 316:231 317:235 318:231 319:255 320:255 321:255 322:255 323:233 324:191 325:141 326:90 327:45 328:14 329:7 330:9 331:26 332:66 333:116 334:164 335:207 336:231 337:224 338:218 339:255 340:255 341:255 342:255 343:244 344:208 345:162 346:114 347:67 348:32 349:22 350:27 351:58 352:95 353:142 354:183 355:211 356:221 357:205 358:199 359:255 360:255 361:255 362:255 363:249 364:226 365:186 366:142 367:104 368:76 369:61 370:66 371:94 372:126 373:164 374:198 375:211 376:203 377:177 378:175 379:255 380:255 381:255 382:255 383:252 384:243 385:214 386:177 387:148 388:128 389:115 390:116 391:135 392:161 393:187 394:204 395:198 396:175 397:144 398:153 399:255 400:255 
