svm_type c_svc
kernel_type linear
nr_class 2
total_sv 13
rho 1.86609
label 3 -1
nr_sv 6 7
SV
5.498990131883229e-06 1:255 2:255 3:73 4:30 5:64 6:100 7:135 8:175 9:216 10:240 11:250 12:251 13:251 14:251 15:238 16:221 17:200 18:197 19:255 20:255 21:255 22:255 23:117 24:81 25:98 26:126 27:159 28:190 29:223 30:239 31:241 32:241 33:241 34:247 35:243 36:230 37:211 38:209 39:255 40:255 41:255 42:255 43:151 44:125 45:139 46:159 47:184 48:203 49:214 50:214 51:214 52:208 53:207 54:213 55:215 56:209 57:200 58:211 59:255 60:255 61:255 62:255 63:183 64:165 65:179 66:194 67:203 68:200 69:182 70:171 71:164 72:159 73:156 74:157 75:161 76:166 77:172 78:198 79:255 80:255 81:255 82:255 83:215 84:203 85:207 86:209 87:198 88:172 89:146 90:126 91:116 92:109 93:103 94:102 95:109 96:121 97:138 98:181 99:255 100:255 101:255 102:255 103:232 104:225 105:214 106:195 107:169 108:135 109:110 110:83 111:73 112:65 113:59 114:59 115:69 116:86 117:111 118:164 119:255 120:255 121:255 122:255 123:233 124:220 125:197 126:162 127:128 128:99 129:73 130:48 131:38 132:38 133:37 134:42 135:52 136:70 137:96 138:152 139:255 140:255 141:255 142:255 143:227 144:198 145:163 146:125 147:91 148:65 149:41 150:30 151:32 152:41 153:53 154:62 155:68 156:78 157:99 158:152 159:255 160:255 161:255 162:255 163:216 164:175 165:134 166:97 167:65 168:36 169:25 170:34 171:58 172:75 173:93 174:102 175:107 176:112 177:126 178:172 179:255 180:255 181:255 182:255 183:211 184:164 185:120 186:78 187:41 188:18 189:23 190:53 191:86 192:110 193:134 194:147 195:154 196:159 197:171 198:203 199:255 200:255 201:255 202:255 203:211 204:156 205:106 206:60 207:22 208:9 209:30 210:67 211:105 212:148 213:183 214:203 215:214 216:221 217:229 218:241 219:255 220:255 221:255 222:255 223:199 224:144 225:96 226:51 227:18 228:12 229:45 230:86 231:122 232:166 233:211 234:231 235:241 236:247 237:249 238:253 239:255 240:255 241:255 242:255 243:192 244:138 245:91 246:48 247:19 248:19 249:54 250:96 251:136 252:175 253:213 254:234 255:246 256:251 257:251 258:253 259:255 260:255 261:255 262:255 263:187 264:133 265:88 266:46 267:20 268:22 269:60 270:100 271:142 272:177 273:212 274:233 275:246 276:252 277:254 278:254 279:255 280:255 281:255 282:255 283:188 284:135 285:89 286:45 287:16 288:17 289:54 290:97 291:133 292:173 293:211 294:229 295:239 296:248 297:254 298:255 299:255 300:255 301:255 302:255 303:191 304:141 305:97 306:51 307:16 308:10 309:37 310:81 311:115 312:157 313:192 314:209 315:217 316:223 317:230 318:240 319:255 320:255 321:255 322:255 323:193 324:149 325:110 326:65 327:25 328:6 329:20 330:57 331:91 332:126 333:149 334:165 335:171 336:171 337:176 338:203 339:255 340:255 341:255 342:255 343:197 344:158 345:123 346:82 347:41 348:12 349:11 350:34 351:59 352:85 353:99 354:108 355:111 356:112 357:117 358:158 359:255 360:255 361:255 362:255 363:196 364:165 365:136 366:100 367:66 368:32 369:13 370:14 371:27 372:46 373:56 374:63 375:70 376:73 377:78 378:129 379:255 380:255 381:255 382:255 383:191 384:169 385:154 386:125 387:92 388:65 389:41 390:18 391:12 392:17 393:27 394:37 395:45 396:53 397:58 398:109 399:255 400:255 
6.08688553877653e-06 1:255 2:255 3:187 4:174 5:189 6:203 7:205 8:193 9:178 10:174 11:172 12:175 13:187 14:207 15:221 16:230 17:227 18:222 19:255 20:255 21:255 22:255 23:208 24:200 25:197 26:184 27:167 28:148 29:131 30:119 31:117 32:124 33:139 34:163 35:192 36:219 37:234 38:237 39:255 40:255 41:255 42:255 43:218 44:195 45:176 46:149 47:122 48:100 49:80 50:72 51:70 52:75 53:90 54:117 55:155 56:198 57:231 58:248 59:255 60:255 61:255 62:255 63:208 64:173 65:140 66:105 67:77 68:56 69:42 70:42 71:46 72:50 73:61 74:88 75:130 76:180 77:225 78:251 79:255 80:255 81:255 82:255 83:192 84:145 85:104 86:64 87:39 88:29 89:28 90:43 91:52 92:59 93:65 94:86 95:124 96:173 97:219 98:247 99:255 100:255 101:255 102:255 103:174 104:117 105:71 106:34 107:18 108:23 109:41 110:67 111:83 112:93 113:98 114:112 115:141 116:181 117:219 118:244 119:255 120:255 121:255 122:255 123:155 124:90 125:45 126:15 127:12 128:32 129:69 130:102 131:127 132:139 133:145 134:155 135:174 136:202 137:230 138:246 139:255 140:255 141:255 142:255 143:138 144:65 145:25 146:6 147:15 148:49 149:98 150:141 151:173 152:185 153:191 154:197 155:209 156:227 157:243 158:252 159:255 160:255 161:255 162:255 163:130 164:49 165:13 166:4 167:25 168:72 169:126 170:175 171:210 172:220 173:225 174:225 175:232 176:243 177:252 178:255 179:255 180:255 181:255 182:255 183:127 184:45 185:12 186:7 187:34 188:89 189:145 190:195 191:233 192:240 193:248 194:244 195:246 196:252 197:255 198:255 199:255 200:255 201:255 202:255 203:128 204:49 205:16 206:12 207:40 208:93 209:150 210:200 211:238 212:252 213:255 214:251 215:250 216:250 217:250 218:251 219:255 220:255 221:255 222:255 223:133 224:56 225:19 226:11 227:38 228:89 229:142 230:189 231:223 232:236 233:238 234:233 235:230 236:233 237:235 238:236 239:255 240:255 241:255 242:255 243:137 244:62 245:23 246:10 247:31 248:74 249:121 250:168 251:197 252:209 253:205 254:201 255:205 256:214 257:218 258:225 259:255 260:255 261:255 262:255 263:143 264:72 265:32 266:12 267:22 268:56 269:96 270:134 271:163 272:171 273:166 274:164 275:171 276:186 277:196 278:212 279:255 280:255 281:255 282:255 283:158 284:93 285:51 286:21 287:16 288:36 289:67 290:95 291:118 292:123 293:119 294:119 295:132 296:157 297:177 298:200 299:255 300:255 301:255 302:255 303:176 304:119 305:77 306:41 307:21 308:22 309:39 310:59 311:74 312:74 313:73 314:77 315:99 316:135 317:162 318:189 319:255 320:255 321:255 322:255 323:191 324:145 325:108 326:71 327:44 328:29 329:28 330:37 331:44 332:42 333:47 334:61 335:89 336:127 337:150 338:175 339:255 340:255 341:255 342:255 343:203 344:171 345:142 346:109 347:81 348:60 349:48 350:43 351:41 352:43 353:56 354:76 355:104 356:132 357:139 358:157 359:255 360:255 361:255 362:255 363:218 364:194 365:175 366:150 367:123 368:103 369:88 370:80 371:73 372:80 373:93 374:107 375:126 376:136 377:121 378:135 379:255 380:255 381:255 382:255 383:230 384:219 385:207 386:186 387:165 388:149 389:134 390:122 391:120 392:126 393:136 394:143 395:142 396:125 397:93 398:114 399:255 400:255 
1.800590471077448e-06 1:255 2:255 3:218 4:215 5:223 6:223 7:215 8:201 9:188 10:180 11:184 12:199 13:216 14:231 15:237 16:221 17:186 18:182 19:255 20:255 21:255 22:255 23:238 24:224 25:204 26:180 27:165 28:155 29:141 30:137 31:141 32:155 33:168 34:191 35:216 36:220 37:196 38:190 39:255 40:255 41:255 42:255 43:235 44:202 45:169 46:141 47:120 48:103 49:89 50:87 51:93 52:105 53:125 54:154 55:186 56:210 57:206 58:201 59:255 60:255 61:255 62:255 63:209 64:167 65:131 66:100 67:75 68:56 69:48 70:50 71:53 72:65 73:90 74:125 75:160 76:194 77:207 78:208 79:255 80:255 81:255 82:255 83:185 84:132 85:91 86:57 87:38 88:29 89:31 90:40 91:42 92:54 93:76 94:110 95:145 96:182 97:202 98:210 99:255 100:255 101:255 102:255 103:163 104:100 105:57 106:28 107:20 108:27 109:44 110:61 111:66 112:73 113:87 114:114 115:146 116:182 117:202 118:210 119:255 120:255 121:255 122:255 123:139 124:69 125:33 126:17 127:24 128:46 129:77 130:100 131:110 132:113 133:119 134:136 135:163 136:197 137:211 138:213 139:255 140:255 141:255 142:255 143:118 144:40 145:16 146:16 147:40 148:79 149:114 150:139 151:153 152:156 153:161 154:171 155:195 156:221 157:223 158:219 159:255 160:255 161:255 162:255 163:101 164:24 165:9 166:23 167:60 168:108 169:148 170:172 171:189 172:194 173:200 174:212 175:229 176:241 177:232 178:223 179:255 180:255 181:255 182:255 183:93 184:15 185:5 186:29 187:77 188:129 189:169 190:204 191:226 192:236 193:242 194:245 195:248 196:247 197:233 198:222 199:255 200:255 201:255 202:255 203:89 204:13 205:9 206:38 207:86 208:134 209:179 210:226 211:241 212:247 213:252 214:254 215:254 216:249 217:229 218:216 219:255 220:255 221:255 222:255 223:92 224:16 225:10 226:39 227:87 228:134 229:180 230:230 231:247 232:252 233:254 234:254 235:252 236:241 237:216 238:204 239:255 240:255 241:255 242:255 243:95 244:18 245:8 246:31 247:77 248:129 249:174 250:228 251:244 252:246 253:242 254:241 255:241 256:232 257:204 258:191 259:255 260:255 261:255 262:255 263:105 264:26 265:9 266:21 267:60 268:111 269:159 270:197 271:206 272:203 273:200 274:204 275:214 276:215 277:191 278:183 279:255 280:255 281:255 282:255 283:118 284:39 285:13 286:15 287:42 288:85 289:125 290:150 291:159 292:154 293:156 294:165 295:182 296:190 297:174 298:175 299:255 300:255 301:255 302:255 303:133 304:58 305:25 306:16 307:28 308:56 309:84 310:102 311:111 312:109 313:115 314:133 315:155 316:165 317:155 318:167 319:255 320:255 321:255 322:255 323:154 324:88 325:49 326:27 327:23 328:33 329:50 330:61 331:67 332:70 333:82 334:109 335:136 336:143 337:133 338:156 339:255 340:255 341:255 342:255 343:177 344:122 345:85 346:56 347:40 348:35 349:35 350:42 351:50 352:55 353:71 354:101 355:124 356:122 357:108 358:143 359:255 360:255 361:255 362:255 363:198 364:157 365:127 366:101 367:81 368:67 369:56 370:59 371:70 372:75 373:86 374:105 375:113 376:99 377:83 378:128 379:255 380:255 381:255 382:255 383:229 384:191 385:163 386:140 387:119 388:107 389:102 390:100 391:102 392:106 393:110 394:107 395:93 396:75 397:67 398:116 399:255 400:255 
3.125778361323778e-07 1:255 2:255 3:215 4:194 5:191 6:191 7:191 8:188 9:178 10:168 11:159 12:159 13:166 14:183 15:202 16:211 17:193 18:183 19:255 20:255 21:255 22:255 23:239 24:226 25:209 26:187 27:164 28:145 29:126 30:116 31:104 32:107 33:120 34:139 35:162 36:183 37:186 38:191 39:255 40:255 41:255 42:255 43:247 44:233 45:201 46:160 47:125 48:97 49:77 50:65 51:55 52:62 53:75 54:95 55:126 56:157 57:175 58:197 59:255 60:255 61:255 62:255 63:248 64:223 65:176 66:127 67:88 68:58 69:36 70:23 71:25 72:32 73:45 74:67 75:101 76:139 77:168 78:199 79:255 80:255 81:255 82:255 83:244 84:200 85:145 86:96 87:56 88:27 89:12 90:13 91:27 92:37 93:45 94:65 95:95 96:134 97:168 98:203 99:255 100:255 101:255 102:255 103:229 104:174 105:119 106:72 107:33 108:9 109:9 110:33 111:56 112:68 113:74 114:87 115:111 116:144 117:179 118:214 119:255 120:255 121:255 122:255 123:215 124:158 125:102 126:56 127:21 128:6 129:24 130:62 131:92 132:109 133:115 134:125 135:142 136:169 137:196 138:222 139:255 140:255 141:255 142:255 143:215 144:152 145:94 146:47 147:15 148:12 149:46 150:85 151:125 152:152 153:161 154:167 155:180 156:197 157:209 158:222 159:255 160:255 161:255 162:255 163:216 164:153 165:91 166:41 167:14 168:20 169:60 170:104 171:151 172:190 173:204 174:206 175:211 176:221 177:222 178:222 179:255 180:255 181:255 182:255 183:223 184:156 185:91 186:42 187:16 188:27 189:68 190:119 191:170 192:219 193:234 194:236 195:236 196:235 197:227 198:223 199:255 200:255 201:255 202:255 203:233 204:165 205:95 206:46 207:23 208:32 209:70 210:122 211:177 212:226 213:243 214:245 215:245 216:242 217:234 218:233 219:255 220:255 221:255 222:255 223:234 224:169 225:104 226:55 227:26 228:32 229:68 230:117 231:170 232:220 233:242 234:248 235:248 236:243 237:235 238:234 239:255 240:255 241:255 242:255 243:234 244:175 245:113 246:62 247:28 248:25 249:54 250:98 251:148 252:186 253:222 254:236 255:235 256:226 257:212 258:214 259:255 260:255 261:255 262:255 263:226 264:181 265:127 266:74 267:35 268:20 269:39 270:72 271:112 272:144 273:167 274:178 275:181 276:183 277:181 278:196 279:255 280:255 281:255 282:255 283:214 284:187 285:147 286:94 287:50 288:23 289:21 290:44 291:73 292:98 293:109 294:115 295:123 296:138 297:151 298:179 299:255 300:255 301:255 302:255 303:210 304:203 305:175 306:121 307:73 308:37 309:18 310:21 311:40 312:55 313:61 314:69 315:83 316:107 317:129 318:165 319:255 320:255 321:255 322:255 323:224 324:228 325:210 326:159 327:105 328:67 329:38 330:19 331:25 332:30 333:35 334:46 335:67 336:94 337:113 338:151 339:255 340:255 341:255 342:255 343:245 344:248 345:241 346:204 347:151 348:108 349:74 350:50 351:41 352:39 353:41 354:54 355:76 356:96 357:101 358:133 359:255 360:255 361:255 362:255 363:253 364:252 365:251 366:241 367:209 368:159 369:121 370:95 371:83 372:78 373:81 374:89 375:100 376:101 377:87 378:115 379:255 380:255 381:255 382:255 383:255 384:255 385:254 386:252 387:245 388:221 389:174 390:142 391:133 392:127 393:131 394:128 395:119 396:99 397:69 398:95 399:255 400:255 
2.665471638245037e-06 1:255 2:255 3:224 4:217 5:221 6:229 7:239 8:244 9:242 10:230 11:215 12:206 13:205 14:213 15:228 16:243 17:252 18:254 19:255 20:255 21:255 22:255 23:233 24:235 25:242 26:240 27:233 28:220 29:200 30:183 31:169 32:163 33:162 34:168 35:182 36:201 37:225 38:248 39:255 40:255 41:255 42:255 43:223 44:229 45:235 46:222 47:202 48:180 49:156 50:137 51:113 52:100 53:99 54:107 55:132 56:162 57:195 58:230 59:255 60:255 61:255 62:255 63:214 64:216 65:213 66:192 67:167 68:137 69:103 70:83 71:64 72:63 73:62 74:69 75:90 76:127 77:170 78:213 79:255 80:255 81:255 82:255 83:209 84:201 85:191 86:164 87:130 88:89 89:57 90:49 91:56 92:69 93:77 94:82 95:94 96:124 97:164 98:205 99:255 100:255 101:255 102:255 103:205 104:188 105:171 106:135 107:90 108:50 109:36 110:50 111:85 112:110 113:124 114:128 115:133 116:150 117:178 118:213 119:255 120:255 121:255 122:255 123:202 124:176 125:152 126:107 127:57 128:32 129:39 130:78 131:127 132:153 133:169 134:174 135:176 136:186 137:206 138:232 139:255 140:255 141:255 142:255 143:199 144:165 145:134 146:85 147:40 148:31 149:52 150:110 151:155 152:179 153:196 154:206 155:211 156:220 157:235 158:249 159:255 160:255 161:255 162:255 163:194 164:155 165:113 166:62 167:28 168:33 169:68 170:132 171:167 172:193 173:211 174:224 175:233 176:242 177:250 178:254 179:255 180:255 181:255 182:255 183:190 184:150 185:103 186:52 187:23 188:30 189:75 190:140 191:173 192:198 193:218 194:231 195:241 196:248 197:252 198:255 199:255 200:255 201:255 202:255 203:186 204:146 205:99 206:47 207:18 208:27 209:73 210:140 211:176 212:198 213:218 214:228 215:238 216:247 217:252 218:254 219:255 220:255 221:255 222:255 223:180 224:136 225:89 226:38 227:11 228:20 229:66 230:135 231:170 232:193 233:207 234:219 235:229 236:238 237:246 238:250 239:255 240:255 241:255 242:255 243:172 244:125 245:78 246:32 247:10 248:15 249:50 250:113 251:157 252:179 253:188 254:194 255:203 256:216 257:228 258:240 259:255 260:255 261:255 262:255 263:167 264:119 265:77 266:33 267:9 268:8 269:33 270:81 271:130 272:151 273:162 274:166 275:173 276:186 277:200 278:220 279:255 280:255 281:255 282:255 283:164 284:118 285:83 286:43 287:14 288:6 289:17 290:45 291:78 292:101 293:113 294:118 295:131 296:152 297:172 298:199 299:255 300:255 301:255 302:255 303:162 304:121 305:94 306:56 307:25 308:10 309:8 310:18 311:30 312:47 313:57 314:63 315:83 316:117 317:146 318:180 319:255 320:255 321:255 322:255 323:160 324:124 325:105 326:75 327:44 328:23 329:12 330:9 331:12 332:18 333:24 334:32 335:54 336:90 337:118 338:159 339:255 340:255 341:255 342:255 343:156 344:123 345:115 346:98 347:73 348:48 349:35 350:24 351:20 352:22 353:28 354:39 355:59 356:80 357:91 358:132 359:255 360:255 361:255 362:255 363:145 364:114 365:116 366:112 367:101 368:85 369:72 370:59 371:50 372:53 373:61 374:69 375:74 376:75 377:67 378:106 379:255 380:255 381:255 382:255 383:131 384:99 385:108 386:114 387:115 388:110 389:103 390:95 391:95 392:100 393:101 394:92 395:80 396:65 397:45 398:86 399:255 400:255 
4.150930756338446e-07 1:255 2:255 3:167 4:142 5:154 6:176 7:197 8:204 9:203 10:196 11:196 12:193 13:193 14:193 15:195 16:201 17:213 18:230 19:255 20:255 21:255 22:255 23:202 24:185 25:187 26:185 27:180 28:175 29:166 30:152 31:146 32:138 33:136 34:142 35:150 36:163 37:182 38:212 39:255 40:255 41:255 42:255 43:227 44:209 45:193 46:172 47:152 48:132 49:113 50:101 51:90 52:82 53:81 54:91 55:105 56:125 57:152 58:194 59:255 60:255 61:255 62:255 63:237 64:214 65:181 66:144 67:114 68:89 69:67 70:55 71:48 72:46 73:47 74:59 75:77 76:101 77:133 78:184 79:255 80:255 81:255 82:255 83:239 84:203 85:156 86:112 87:77 88:50 89:34 90:31 91:37 92:46 93:53 94:64 95:78 96:99 97:131 98:185 99:255 100:255 101:255 102:255 103:232 104:185 105:130 106:84 107:48 108:20 109:16 110:32 111:55 112:75 113:91 114:102 115:110 116:124 117:152 118:197 119:255 120:255 121:255 122:255 123:215 124:164 125:110 126:63 127:28 128:9 129:19 130:50 131:85 132:115 133:137 134:152 135:158 136:167 137:185 138:214 139:255 140:255 141:255 142:255 143:197 144:142 145:92 146:48 147:19 148:13 149:37 150:73 151:113 152:152 153:178 154:195 155:200 156:204 157:212 158:227 159:255 160:255 161:255 162:255 163:194 164:133 165:82 166:40 167:15 168:17 169:50 170:91 171:138 172:178 173:208 174:220 175:223 176:226 177:228 178:235 179:255 180:255 181:255 182:255 183:194 184:134 185:81 186:39 187:17 188:23 189:60 190:99 191:153 192:200 193:222 194:231 195:237 196:241 197:242 198:244 199:255 200:255 201:255 202:255 203:208 204:142 205:85 206:40 207:12 208:19 209:60 210:106 211:159 212:206 213:232 214:244 215:250 216:252 217:252 218:253 219:255 220:255 221:255 222:255 223:216 224:154 225:96 226:48 227:19 228:23 229:60 230:100 231:147 232:197 233:227 234:242 235:250 236:253 237:251 238:250 239:255 240:255 241:255 242:255 243:219 244:164 245:107 246:58 247:25 248:21 249:48 250:88 251:129 252:173 253:209 254:230 255:237 256:236 257:231 258:234 259:255 260:255 261:255 262:255 263:226 264:177 265:120 266:70 267:33 268:17 269:31 270:62 271:99 272:136 273:171 274:190 275:192 276:185 277:182 278:203 279:255 280:255 281:255 282:255 283:237 284:197 285:144 286:93 287:50 288:18 289:13 290:31 291:63 292:95 293:119 294:134 295:134 296:127 297:128 298:166 299:255 300:255 301:255 302:255 303:244 304:218 305:173 306:122 307:75 308:34 309:11 310:10 311:30 312:53 313:68 314:77 315:79 316:80 317:90 318:141 319:255 320:255 321:255 322:255 323:244 324:231 325:200 326:153 327:105 328:64 329:33 330:13 331:17 332:24 333:33 334:38 335:46 336:59 337:78 338:135 339:255 340:255 341:255 342:255 343:245 344:238 345:223 346:190 347:145 348:104 349:70 350:47 351:36 352:30 353:33 354:38 355:49 356:68 357:92 358:145 359:255 360:255 361:255 362:255 363:250 364:248 365:244 366:227 367:194 368:156 369:121 370:98 371:81 372:71 373:73 374:80 375:90 376:103 377:118 378:159 379:255 380:255 381:255 382:255 383:255 384:255 385:254 386:248 387:235 388:211 389:176 390:151 391:138 392:121 393:118 394:130 395:139 396:142 397:139 398:162 399:255 400:255 
-9.806826739095284e-07 1:255 2:255 3:211 4:200 5:207 6:217 7:227 8:238 9:247 10:241 11:234 12:234 13:245 14:249 15:252 16:254 17:254 18:254 19:255 20:255 21:255 22:255 23:228 24:222 25:231 26:237 27:237 28:232 29:225 30:216 31:207 32:205 33:209 34:215 35:221 36:227 37:234 38:246 39:255 40:255 41:255 42:255 43:241 44:241 45:245 46:242 47:231 48:216 49:196 50:173 51:163 52:157 53:159 54:164 55:173 56:190 57:210 58:231 59:255 60:255 61:255 62:255 63:248 64:247 65:243 66:230 67:209 68:180 69:144 70:112 71:100 72:92 73:95 74:100 75:111 76:137 77:173 78:210 79:255 80:255 81:255 82:255 83:251 84:243 85:232 86:210 87:173 88:128 89:90 90:61 91:55 92:55 93:64 94:71 95:79 96:98 97:133 98:189 99:255 100:255 101:255 102:255 103:248 104:233 105:212 106:176 107:126 108:81 109:56 110:51 111:59 112:70 113:84 114:92 115:94 116:103 117:128 118:183 119:255 120:255 121:255 122:255 123:240 124:219 125:185 126:134 127:82 128:54 129:53 130:77 131:105 132:121 133:136 134:141 135:140 136:144 137:161 138:197 139:255 140:255 141:255 142:255 143:228 144:199 145:153 146:97 147:56 148:47 149:75 150:111 151:150 152:167 153:176 154:179 155:178 156:181 157:191 158:215 159:255 160:255 161:255 162:255 163:218 164:179 165:121 166:64 167:38 168:52 169:94 170:143 171:158 172:169 173:168 174:169 175:174 176:181 177:194 178:217 179:255 180:255 181:255 182:255 183:213 184:164 185:103 186:46 187:28 188:61 189:106 190:146 191:147 192:128 193:117 194:115 195:124 196:141 197:166 198:207 199:255 200:255 201:255 202:255 203:209 204:148 205:86 206:34 207:25 208:67 209:114 210:145 211:121 212:88 213:63 214:53 215:60 216:80 217:118 218:182 219:255 220:255 221:255 222:255 223:209 224:145 225:77 226:27 227:29 228:82 229:128 230:151 231:133 232:93 233:58 234:32 235:20 236:40 237:93 238:167 239:255 240:255 241:255 242:255 243:205 244:145 245:80 246:32 247:35 248:86 249:138 250:169 251:165 252:136 253:91 254:45 255:16 256:21 257:68 258:155 259:255 260:255 261:255 262:255 263:207 264:154 265:93 266:40 267:33 268:76 269:131 270:170 271:181 272:167 273:124 274:73 275:27 276:17 277:59 278:148 279:255 280:255 281:255 282:255 283:211 284:165 285:106 286:49 287:28 288:56 289:107 290:154 291:171 292:166 293:128 294:78 295:30 296:19 297:61 298:146 299:255 300:255 301:255 302:255 303:217 304:179 305:128 306:70 307:34 308:37 309:74 310:114 311:132 312:130 313:103 314:57 315:19 316:18 317:61 318:146 319:255 320:255 321:255 322:255 323:226 324:199 325:160 326:106 327:59 328:38 329:42 330:61 331:74 332:75 333:60 334:28 335:7 336:16 337:60 338:146 339:255 340:255 341:255 342:255 343:237 344:219 345:193 346:151 347:105 348:68 349:36 350:29 351:29 352:28 353:20 354:11 355:8 356:27 357:72 358:150 359:255 360:255 361:255 362:255 363:250 364:237 365:221 366:198 367:164 368:122 369:87 370:59 371:36 372:30 373:28 374:29 375:36 376:61 377:104 378:168 379:255 380:255 381:255 382:255 383:254 384:254 385:247 386:230 387:207 388:180 389:153 390:126 391:99 392:90 393:88 394:91 395:97 396:119 397:147 398:182 399:255 400:255 
-1.620824410957176e-06 1:255 2:255 3:207 4:177 5:163 6:151 7:147 8:154 9:158 10:165 11:165 12:165 13:169 14:182 15:199 16:217 17:226 18:231 19:255 20:255 21:255 22:255 23:197 24:159 25:132 26:111 27:100 28:100 29:105 30:109 31:113 32:115 33:123 34:138 35:163 36:192 37:214 38:231 39:255 40:255 41:255 42:255 43:191 44:142 45:106 46:79 47:64 48:59 49:60 50:61 51:67 52:69 53:75 54:94 55:127 56:167 57:202 58:228 59:255 60:255 61:255 62:255 63:191 64:142 65:103 66:71 67:50 68:36 69:25 70:24 71:30 72:37 73:53 74:75 75:110 76:155 77:195 78:227 79:255 80:255 81:255 82:255 83:201 84:159 85:123 86:88 87:60 88:35 89:12 90:7 91:14 92:33 93:56 94:82 95:119 96:162 97:198 98:228 99:255 100:255 101:255 102:255 103:211 104:181 105:153 106:120 107:85 108:47 109:16 110:7 111:21 112:52 113:82 114:113 115:149 116:185 117:213 118:234 119:255 120:255 121:255 122:255 123:220 124:198 125:178 126:148 127:108 128:61 129:24 130:11 131:37 132:75 133:117 134:152 135:183 136:210 137:230 138:242 139:255 140:255 141:255 142:255 143:228 144:212 145:193 146:163 147:121 148:71 149:27 150:14 151:49 152:94 153:143 154:183 155:211 156:229 157:240 158:245 159:255 160:255 161:255 162:255 163:237 164:225 165:208 166:177 167:129 168:74 169:33 170:20 171:57 172:108 173:158 174:202 175:228 176:243 177:247 178:244 179:255 180:255 181:255 182:255 183:251 184:240 185:218 186:182 187:132 188:73 189:30 190:23 191:60 192:114 193:167 194:209 195:236 196:247 197:245 198:240 199:255 200:255 201:255 202:255 203:251 204:245 205:220 206:177 207:123 208:70 209:32 210:27 211:62 212:121 213:179 214:221 215:243 216:251 217:249 218:245 219:255 220:255 221:255 222:255 223:246 224:239 225:216 226:172 227:117 228:66 229:31 230:30 231:69 232:124 233:182 234:228 235:249 236:254 237:251 238:247 239:255 240:255 241:255 242:255 243:237 244:225 245:202 246:161 247:110 248:60 249:26 250:28 251:73 252:129 253:184 254:227 255:249 256:254 257:246 258:237 259:255 260:255 261:255 262:255 263:229 264:208 265:183 266:145 267:99 268:53 269:23 270:31 271:74 272:125 273:174 274:212 275:234 276:243 277:234 278:224 279:255 280:255 281:255 282:255 283:215 284:181 285:151 286:117 287:77 288:38 289:13 290:26 291:66 292:111 293:150 294:183 295:208 296:221 297:215 298:214 299:255 300:255 301:255 302:255 303:196 304:147 305:112 306:81 307:50 308:20 309:4 310:14 311:50 312:84 313:115 314:147 315:178 316:194 317:195 318:208 319:255 320:255 321:255 322:255 323:179 324:119 325:80 326:51 327:27 328:10 329:2 330:7 331:32 332:54 333:82 334:116 335:151 336:170 337:177 338:199 339:255 340:255 341:255 342:255 343:172 344:111 345:75 346:47 347:27 348:18 349:13 350:15 351:25 352:42 353:66 354:97 355:129 356:149 357:158 358:186 359:255 360:255 361:255 362:255 363:185 364:132 365:98 366:76 367:65 368:56 369:48 370:48 371:47 372:58 373:72 374:94 375:113 376:125 377:136 378:174 379:255 380:255 381:255 382:255 383:205 384:164 385:137 386:122 387:115 388:105 389:96 390:91 391:89 392:91 393:94 394:101 395:104 396:109 397:118 398:156 399:255 400:255 
-2.014602503072637e-06 1:255 2:255 3:195 4:182 5:196 6:213 7:228 8:237 9:243 10:243 11:243 12:233 13:227 14:225 15:225 16:225 17:218 18:217 19:255 20:255 21:255 22:255 23:208 24:194 25:196 26:199 27:208 28:222 29:233 30:232 31:214 32:199 33:189 34:188 35:199 36:215 37:224 38:230 39:255 40:255 41:255 42:255 43:211 44:184 45:168 46:162 47:175 48:202 49:218 50:205 51:179 52:151 53:139 54:143 55:168 56:201 57:221 58:233 59:255 60:255 61:255 62:255 63:204 64:160 65:130 66:121 67:143 68:179 69:196 70:176 71:139 72:104 73:92 74:108 75:148 76:190 77:217 78:235 79:255 80:255 81:255 82:255 83:195 84:137 85:96 86:89 87:118 88:154 89:169 90:142 91:96 92:69 93:68 94:99 95:145 96:189 97:220 98:239 99:255 100:255 101:255 102:255 103:187 104:124 105:79 106:70 107:99 108:132 109:140 110:110 111:65 112:50 113:71 114:111 115:157 116:199 117:228 118:243 119:255 120:255 121:255 122:255 123:182 124:118 125:74 126:60 127:82 128:112 129:110 130:81 131:49 132:50 133:90 134:134 135:176 136:214 137:238 138:246 139:255 140:255 141:255 142:255 143:177 144:112 145:67 146:50 147:63 148:83 149:78 150:51 151:42 152:67 153:113 154:160 155:198 156:227 157:244 158:246 159:255 160:255 161:255 162:255 163:175 164:107 165:58 166:36 167:40 168:48 169:44 170:33 171:52 172:97 173:140 174:182 175:217 176:240 177:246 178:246 179:255 180:255 181:255 182:255 183:175 184:104 185:50 186:20 187:15 188:18 189:20 190:28 191:65 192:122 193:165 194:197 195:228 196:247 197:250 198:249 199:255 200:255 201:255 202:255 203:178 204:105 205:44 206:9 207:5 208:9 209:11 210:29 211:81 212:132 213:174 214:205 215:233 216:250 217:253 218:253 219:255 220:255 221:255 222:255 223:175 224:104 225:46 226:13 227:6 228:4 229:6 230:23 231:78 232:130 233:174 234:210 235:239 236:253 237:254 238:253 239:255 240:255 241:255 242:255 243:175 244:104 245:46 246:14 247:8 248:7 249:9 250:17 251:58 252:111 253:162 254:203 255:237 256:253 257:249 258:243 259:255 260:255 261:255 262:255 263:181 264:112 265:53 266:18 267:14 268:21 269:23 270:18 271:39 272:87 273:137 274:185 275:224 276:245 277:237 278:225 279:255 280:255 281:255 282:255 283:185 284:118 285:59 286:25 287:28 288:43 289:47 290:33 291:29 292:61 293:107 294:157 295:199 296:223 297:216 298:207 299:255 300:255 301:255 302:255 303:185 304:118 305:61 306:32 307:44 308:69 309:77 310:59 311:36 312:42 313:75 314:122 315:167 316:193 317:187 318:186 319:255 320:255 321:255 322:255 323:185 324:117 325:62 326:38 327:57 328:93 329:109 330:90 331:56 332:38 333:51 334:90 335:134 336:160 337:153 338:161 339:255 340:255 341:255 342:255 343:190 344:123 345:69 346:48 347:70 348:113 349:136 350:120 351:86 352:56 353:50 354:74 355:108 356:128 357:120 358:139 359:255 360:255 361:255 362:255 363:203 364:141 365:92 366:75 367:96 368:134 369:161 370:151 371:127 372:98 373:79 374:88 375:103 376:104 377:88 378:113 379:255 380:255 381:255 382:255 383:217 384:175 385:141 386:126 387:135 388:159 389:179 390:174 391:161 392:139 393:125 394:116 395:107 396:86 397:54 398:89 399:255 400:255 
-1.746568138885643e-06 1:255 2:255 3:192 4:179 5:195 6:209 7:221 8:232 9:239 10:245 11:238 12:231 13:230 14:230 15:230 16:226 17:215 18:217 19:255 20:255 21:255 22:255 23:209 24:192 25:192 26:197 27:206 28:221 29:232 30:238 31:212 32:203 33:192 34:190 35:198 36:211 37:220 38:228 39:255 40:255 41:255 42:255 43:212 44:184 45:166 46:162 47:178 48:203 49:218 50:211 51:181 52:155 53:140 54:144 55:167 56:199 57:221 58:235 59:255 60:255 61:255 62:255 63:204 64:160 65:129 66:122 67:144 68:179 69:198 70:180 71:141 72:109 73:92 74:108 75:147 76:191 77:223 78:240 79:255 80:255 81:255 82:255 83:194 84:136 85:96 86:89 87:118 88:154 89:172 90:146 91:100 92:72 93:67 94:98 95:145 96:191 97:224 98:242 99:255 100:255 101:255 102:255 103:184 104:122 105:78 106:70 107:98 108:130 109:139 110:111 111:68 112:52 113:70 114:110 115:157 116:200 117:229 118:245 119:255 120:255 121:255 122:255 123:177 124:115 125:72 126:59 127:79 128:105 129:105 130:79 131:49 132:51 133:89 134:133 135:176 136:213 137:237 138:248 139:255 140:255 141:255 142:255 143:173 144:110 145:65 146:47 147:60 148:77 149:72 150:51 151:43 152:67 153:112 154:159 155:196 156:225 157:242 158:248 159:255 160:255 161:255 162:255 163:174 164:107 165:60 166:34 167:36 168:45 169:40 170:34 171:54 172:97 173:139 174:180 175:216 176:241 177:249 178:248 179:255 180:255 181:255 182:255 183:179 184:109 185:56 186:23 187:13 188:14 189:20 190:34 191:70 192:123 193:168 194:203 195:232 196:249 197:251 198:248 199:255 200:255 201:255 202:255 203:179 204:104 205:45 206:14 207:8 208:8 209:11 210:27 211:88 212:137 213:180 214:210 215:237 216:252 217:253 218:251 219:255 220:255 221:255 222:255 223:174 224:101 225:45 226:13 227:6 228:3 229:5 230:22 231:76 232:131 233:179 234:211 235:237 236:252 237:254 238:254 239:255 240:255 241:255 242:255 243:177 244:107 245:50 246:16 247:7 248:7 249:8 250:17 251:60 252:115 253:164 254:203 255:235 256:252 257:250 258:245 259:255 260:255 261:255 262:255 263:180 264:113 265:57 266:21 267:14 268:19 269:23 270:18 271:40 272:89 273:138 274:185 275:225 276:245 277:237 278:226 279:255 280:255 281:255 282:255 283:184 284:118 285:61 286:26 287:27 288:44 289:47 290:33 291:28 292:61 293:107 294:156 295:199 296:224 297:215 298:206 299:255 300:255 301:255 302:255 303:185 304:120 305:63 306:33 307:43 308:70 309:77 310:59 311:35 312:42 313:75 314:121 315:166 316:192 317:186 318:185 319:255 320:255 321:255 322:255 323:186 324:120 325:65 326:41 327:58 328:92 329:109 330:88 331:56 332:38 333:51 334:90 335:133 336:159 337:152 338:161 339:255 340:255 341:255 342:255 343:191 344:124 345:70 346:50 347:74 348:113 349:135 350:121 351:85 352:56 353:51 354:75 355:109 356:128 357:120 358:138 359:255 360:255 361:255 362:255 363:200 364:139 365:91 366:75 367:95 368:133 369:160 370:156 371:127 372:98 373:78 374:88 375:103 376:104 377:88 378:113 379:255 380:255 381:255 382:255 383:213 384:169 385:138 386:125 387:135 388:160 389:179 390:181 391:163 392:139 393:128 394:117 395:107 396:88 397:58 398:89 399:255 400:255 
-5.99381948295713e-06 1:255 2:255 3:159 4:130 5:133 6:140 7:148 8:157 9:172 10:188 11:208 12:223 13:213 14:209 15:192 16:174 17:162 18:176 19:255 20:255 21:255 22:255 23:164 24:128 25:119 26:113 27:117 28:132 29:156 30:180 31:190 32:192 33:205 34:209 35:206 36:195 37:174 38:180 39:255 40:255 41:255 42:255 43:164 44:116 45:95 46:82 47:84 48:103 49:135 50:165 51:179 52:180 53:189 54:203 55:216 56:213 57:188 58:182 59:255 60:255 61:255 62:255 63:163 64:105 65:73 66:53 67:55 68:77 69:116 70:156 71:171 72:172 73:179 74:199 75:218 76:218 77:194 78:188 79:255 80:255 81:255 82:255 83:160 84:99 85:60 86:36 87:36 88:63 89:104 90:147 91:168 92:173 93:181 94:200 95:218 96:218 97:197 98:194 99:255 100:255 101:255 102:255 103:158 104:96 105:55 106:27 107:27 108:57 109:98 110:142 111:175 112:190 113:201 114:212 115:221 116:218 117:198 118:197 119:255 120:255 121:255 122:255 123:156 124:93 125:52 126:23 127:23 128:53 129:95 130:143 131:192 132:213 133:227 134:228 135:226 136:218 137:199 138:200 139:255 140:255 141:255 142:255 143:153 144:90 145:50 146:21 147:20 148:52 149:96 150:145 151:206 152:230 153:239 154:236 155:230 156:220 157:206 158:208 159:255 160:255 161:255 162:255 163:151 164:88 165:49 166:19 167:18 168:52 169:98 170:149 171:208 172:236 173:245 174:243 175:237 176:231 177:222 178:222 179:255 180:255 181:255 182:255 183:154 184:88 185:46 186:16 187:17 188:54 189:102 190:153 191:221 192:238 193:245 194:249 195:248 196:244 197:234 198:232 199:255 200:255 201:255 202:255 203:154 204:87 205:42 206:13 207:17 208:55 209:104 210:159 211:222 212:243 213:252 214:255 215:255 216:248 217:229 218:221 219:255 220:255 221:255 222:255 223:151 224:83 225:41 226:14 227:21 228:62 229:109 230:159 231:222 232:243 233:253 234:255 235:253 236:246 237:223 238:206 239:255 240:255 241:255 242:255 243:149 244:82 245:40 246:17 247:26 248:65 249:110 250:157 251:210 252:237 253:249 254:251 255:249 256:241 257:215 258:199 259:255 260:255 261:255 262:255 263:147 264:79 265:39 266:17 267:28 268:64 269:106 270:146 271:181 272:214 273:230 274:236 275:240 276:237 277:210 278:193 279:255 280:255 281:255 282:255 283:145 284:75 285:35 286:14 287:25 288:60 289:94 290:125 291:147 292:170 293:183 294:193 295:216 296:226 297:198 298:182 299:255 300:255 301:255 302:255 303:144 304:73 305:31 306:10 307:18 308:45 309:71 310:93 311:108 312:118 313:129 314:148 315:180 316:194 317:169 318:167 319:255 320:255 321:255 322:255 323:146 324:74 325:32 326:9 327:9 328:24 329:42 330:57 331:64 332:73 333:91 334:119 335:147 336:156 337:137 338:149 339:255 340:255 341:255 342:255 343:151 344:83 345:44 346:19 347:10 348:15 349:24 350:30 351:31 352:43 353:66 354:97 355:125 356:133 357:111 358:128 359:255 360:255 361:255 362:255 363:161 364:101 365:68 366:46 367:35 368:33 369:35 370:31 371:30 372:40 373:61 374:86 375:107 376:107 377:82 378:106 379:255 380:255 381:255 382:255 383:173 384:120 385:95 386:80 387:72 388:68 389:64 390:57 391:55 392:63 393:75 394:88 395:94 396:83 397:58 398:92 399:255 400:255 
-3.234984436701251e-06 1:255 2:255 3:182 4:168 5:193 6:217 7:231 8:240 9:243 10:243 11:236 12:236 13:238 14:245 15:252 16:255 17:255 18:255 19:255 20:255 21:255 22:255 23:214 24:208 25:218 26:222 27:217 28:210 29:200 30:192 31:184 32:194 33:205 34:222 35:238 36:247 37:252 38:255 39:255 40:255 41:255 42:255 43:233 44:225 45:220 46:205 47:183 48:161 49:138 50:128 51:124 52:134 53:155 54:178 55:208 56:233 57:248 58:255 59:255 60:255 61:255 62:255 63:240 64:226 65:203 66:171 67:138 68:107 69:84 70:72 71:71 72:82 73:104 74:130 75:164 76:204 77:236 78:252 79:255 80:255 81:255 82:255 83:239 84:214 85:177 86:135 87:96 88:63 89:39 90:39 91:39 92:44 93:60 94:86 95:123 96:169 97:214 98:243 99:255 100:255 101:255 102:255 103:234 104:196 105:150 106:104 107:66 108:43 109:43 110:54 111:52 112:45 113:38 114:51 115:86 116:135 117:185 118:228 119:255 120:255 121:255 122:255 123:227 124:179 125:126 126:80 127:53 128:56 129:88 130:104 131:101 132:80 133:49 134:32 135:57 136:106 137:157 138:210 139:255 140:255 141:255 142:255 143:220 144:166 145:110 146:65 147:55 148:87 149:125 150:153 151:150 152:119 153:80 154:37 155:38 156:80 157:135 158:197 159:255 160:255 161:255 162:255 163:211 164:152 165:97 166:59 167:61 168:106 169:156 170:191 171:192 172:154 173:107 174:53 175:28 176:58 177:120 178:186 179:255 180:255 181:255 182:255 183:205 184:141 185:86 186:53 187:63 188:116 189:166 190:203 191:212 192:176 193:128 194:74 195:31 196:42 197:105 198:180 199:255 200:255 201:255 202:255 203:201 204:138 205:80 206:44 207:56 208:112 209:169 210:212 211:226 212:198 213:146 214:85 215:32 216:37 217:96 218:170 219:255 220:255 221:255 222:255 223:206 224:142 225:77 226:38 227:51 228:110 229:169 230:218 231:234 232:206 233:152 234:90 235:32 236:32 237:88 238:164 239:255 240:255 241:255 242:255 243:210 244:145 245:77 246:32 247:41 248:102 249:164 250:212 251:232 252:203 253:149 254:83 255:28 256:32 257:90 258:166 259:255 260:255 261:255 262:255 263:217 264:154 265:85 266:31 267:31 268:91 269:147 270:193 271:211 272:182 273:131 274:64 275:19 276:35 277:98 278:175 279:255 280:255 281:255 282:255 283:225 284:169 285:102 286:41 287:26 288:70 289:118 290:159 291:175 292:147 293:103 294:42 295:14 296:47 297:114 298:183 299:255 300:255 301:255 302:255 303:236 304:186 305:124 306:65 307:31 308:42 309:81 310:113 311:126 312:105 313:66 314:23 315:23 316:71 317:134 318:195 319:255 320:255 321:255 322:255 323:245 324:205 325:151 326:95 327:47 328:24 329:42 330:64 331:72 332:56 333:29 334:19 335:50 336:103 337:155 338:207 339:255 340:255 341:255 342:255 343:248 344:225 345:180 346:127 347:76 348:38 349:24 350:30 351:34 352:23 353:23 354:46 355:87 356:134 357:172 358:207 359:255 360:255 361:255 362:255 363:250 364:239 365:210 366:167 367:124 368:86 369:59 370:44 371:44 372:52 373:72 374:98 375:129 376:159 377:177 378:198 379:255 380:255 381:255 382:255 383:251 384:247 385:235 386:210 387:175 388:139 389:111 390:102 391:101 392:104 393:118 394:143 395:162 396:175 397:174 398:181 399:255 400:255 
-1.188127045265103e-06 1:255 2:255 3:143 4:112 5:130 6:151 7:167 8:180 9:196 10:202 11:202 12:202 13:202 14:214 15:224 16:219 17:199 18:197 19:255 20:255 21:255 22:255 23:169 24:135 25:129 26:127 27:130 28:136 29:145 30:149 31:145 32:139 33:137 34:150 35:165 36:176 37:179 38:197 39:255 40:255 41:255 42:255 43:174 44:127 45:110 46:100 47:94 48:94 49:95 50:96 51:92 52:88 53:92 54:104 55:117 56:138 57:162 58:196 59:255 60:255 61:255 62:255 63:162 64:110 65:85 66:68 67:61 68:56 69:54 70:52 71:50 72:51 73:57 74:68 75:86 76:113 77:145 78:192 79:255 80:255 81:255 82:255 83:153 84:99 85:72 86:50 87:37 88:29 89:23 90:19 91:21 92:26 93:36 94:51 95:74 96:104 97:140 98:193 99:255 100:255 101:255 102:255 103:157 104:104 105:76 106:53 107:35 108:19 109:8 110:3 111:6 112:19 113:37 114:56 115:81 116:114 117:155 118:204 119:255 120:255 121:255 122:255 123:172 124:126 125:97 126:73 127:55 128:31 129:9 130:2 131:8 132:30 133:58 134:80 135:106 136:143 137:184 138:224 139:255 140:255 141:255 142:255 143:188 144:156 145:134 146:108 147:81 148:49 149:18 150:3 151:15 152:48 153:82 154:114 155:149 156:185 157:217 158:241 159:255 160:255 161:255 162:255 163:196 164:181 165:172 166:143 167:102 168:60 169:27 170:6 171:20 172:56 173:99 174:149 175:195 176:228 177:243 178:245 179:255 180:255 181:255 182:255 183:205 184:203 185:199 186:170 187:126 188:75 189:32 190:9 191:23 192:58 193:109 194:171 195:225 196:250 197:248 198:245 199:255 200:255 201:255 202:255 203:205 204:212 205:216 206:184 207:132 208:80 209:39 210:12 211:27 212:65 213:119 214:190 215:239 216:255 217:250 218:245 219:255 220:255 221:255 222:255 223:205 224:213 225:217 226:185 227:134 228:83 229:39 230:12 231:27 232:65 233:122 234:192 235:240 236:255 237:250 238:245 239:255 240:255 241:255 242:255 243:205 244:210 245:212 246:181 247:134 248:84 249:40 250:14 251:24 252:65 253:123 254:193 255:238 256:251 257:245 258:241 259:255 260:255 261:255 262:255 263:205 264:209 265:211 266:180 267:134 268:85 269:41 270:15 271:26 272:62 273:120 274:187 275:233 276:247 277:239 278:235 279:255 280:255 281:255 282:255 283:208 284:215 285:220 286:187 287:136 288:86 289:43 290:15 291:28 292:64 293:119 294:178 295:225 296:242 297:228 298:220 299:255 300:255 301:255 302:255 303:215 304:227 305:233 306:197 307:139 308:87 309:44 310:17 311:31 312:67 313:120 314:174 315:219 316:234 317:212 318:200 319:255 320:255 321:255 322:255 323:221 324:235 325:242 326:204 327:142 328:89 329:47 330:20 331:34 332:71 333:122 334:173 335:213 336:220 337:191 338:181 339:255 340:255 341:255 342:255 343:223 344:237 345:245 346:207 347:144 348:92 349:53 350:28 351:43 352:79 353:128 354:172 355:202 356:198 357:163 358:162 359:255 360:255 361:255 362:255 363:230 364:239 365:240 366:204 367:147 368:97 369:63 370:48 371:60 372:93 373:136 374:173 375:185 376:169 377:133 378:139 379:255 380:255 381:255 382:255 383:233 384:240 385:240 386:207 387:155 388:110 389:86 390:65 391:76 392:103 393:146 394:169 395:168 396:140 397:100 398:119 399:255 400:255 
