svm_type c_svc
kernel_type linear
nr_class 2
total_sv 22
rho 5.45659
label 4 -1
nr_sv 8 14
SV
4.52851214918223e-05 1:255 2:255 3:227 4:199 5:184 6:176 7:173 8:178 9:185 10:187 11:203 12:230 13:245 14:249 15:251 16:253 17:254 18:254 19:255 20:255 21:255 22:255 23:218 24:179 25:144 26:121 27:114 28:114 29:117 30:124 31:144 32:171 33:206 34:232 35:243 36:249 37:252 38:253 39:255 40:255 41:255 42:255 43:208 44:152 45:102 46:67 47:53 48:53 49:55 50:72 51:89 52:112 53:145 54:183 55:219 56:240 57:248 58:251 59:255 60:255 61:255 62:255 63:201 64:137 65:76 66:32 67:20 68:35 69:49 70:66 71:68 72:68 73:89 74:126 75:171 76:214 77:240 78:248 79:255 80:255 81:255 82:255 83:193 84:127 85:64 86:22 87:24 88:57 89:84 90:96 91:85 92:63 93:57 94:81 95:124 96:179 97:226 98:246 99:255 100:255 101:255 102:255 103:186 104:118 105:55 106:22 107:41 108:90 109:128 110:141 111:121 112:85 113:51 114:54 115:90 116:148 117:207 118:244 119:255 120:255 121:255 122:255 123:184 124:113 125:48 126:23 127:55 128:116 129:165 130:184 131:160 132:112 133:64 134:42 135:67 136:123 137:188 138:239 139:255 140:255 141:255 142:255 143:184 144:113 145:50 146:28 147:66 148:134 149:194 150:216 151:194 152:138 153:84 154:40 155:50 156:103 157:172 158:233 159:255 160:255 161:255 162:255 163:183 164:114 165:55 166:38 167:79 168:147 169:210 170:235 171:221 172:161 173:99 174:40 175:39 176:92 177:165 178:230 179:255 180:255 181:255 182:255 183:179 184:110 185:47 186:34 187:84 188:154 189:215 190:241 191:232 192:175 193:106 194:49 195:44 196:89 197:159 198:227 199:255 200:255 201:255 202:255 203:179 204:103 205:37 206:26 207:78 208:147 209:210 210:241 211:232 212:171 213:105 214:49 215:48 216:97 217:165 218:227 219:255 220:255 221:255 222:255 223:179 224:109 225:46 226:31 227:76 228:140 229:201 230:235 231:221 232:158 233:91 234:37 235:46 236:102 237:170 238:230 239:255 240:255 241:255 242:255 243:179 244:112 245:54 246:39 247:78 248:134 249:184 250:203 251:184 252:130 253:72 254:30 255:50 256:111 257:178 258:236 259:255 260:255 261:255 262:255 263:182 264:114 265:56 266:35 267:64 268:115 269:151 270:158 271:134 272:89 273:47 274:34 275:69 276:131 277:191 278:235 279:255 280:255 281:255 282:255 283:189 284:119 285:54 286:20 287:35 288:76 289:106 290:107 291:80 292:44 293:31 294:51 295:98 296:157 297:203 298:230 299:255 300:255 301:255 302:255 303:195 304:127 305:61 306:17 307:11 308:33 309:58 310:59 311:37 312:27 313:41 314:80 315:133 316:185 317:212 318:219 319:255 320:255 321:255 322:255 323:205 324:144 325:87 326:44 327:23 328:24 329:40 330:47 331:39 332:55 333:84 334:121 335:168 336:206 337:209 338:204 339:255 340:255 341:255 342:255 343:224 344:177 345:132 346:99 347:78 348:71 349:76 350:87 351:97 352:115 353:141 354:170 355:197 356:205 357:188 358:189 359:255 360:255 361:255 362:255 363:246 364:222 365:189 366:162 367:146 368:139 369:138 370:146 371:159 372:177 373:191 374:204 375:203 376:180 377:150 378:166 379:255 380:255 381:255 382:255 383:255 384:250 385:243 386:231 387:219 388:207 389:195 390:205 391:222 392:226 393:224 394:211 395:183 396:142 397:111 398:145 399:255 400:255 
8.119997982616097e-06 1:255 2:255 3:193 4:180 5:194 6:210 7:225 8:234 9:240 10:243 11:244 12:247 13:248 14:250 15:252 16:254 17:254 18:252 19:255 20:255 21:255 22:255 23:220 24:210 25:213 26:219 27:225 28:229 29:234 30:236 31:237 32:240 33:243 34:246 35:250 36:253 37:254 38:253 39:255 40:255 41:255 42:255 43:228 44:216 45:212 46:207 47:201 48:200 49:201 50:202 51:203 52:214 53:224 54:233 55:240 56:244 57:247 58:250 59:255 60:255 61:255 62:255 63:226 64:205 65:186 66:167 67:149 68:132 69:120 70:120 71:127 72:146 73:168 74:190 75:208 76:222 77:234 78:243 79:255 80:255 81:255 82:255 83:217 84:184 85:153 86:114 87:77 88:55 89:43 90:45 91:50 92:62 93:82 94:113 95:149 96:183 97:208 98:231 99:255 100:255 101:255 102:255 103:211 104:172 105:133 106:82 107:35 108:17 109:11 110:15 111:15 112:18 113:27 114:47 115:85 116:129 117:171 118:213 119:255 120:255 121:255 122:255 123:212 124:173 125:133 126:81 127:38 128:24 129:21 130:27 131:30 132:30 133:26 134:26 135:41 136:77 137:128 138:189 139:255 140:255 141:255 142:255 143:216 144:179 145:141 146:93 147:56 148:47 149:55 150:68 151:76 152:76 153:61 154:43 155:34 156:48 157:91 158:164 159:255 160:255 161:255 162:255 163:220 164:185 165:147 166:103 167:71 168:74 169:101 170:129 171:139 172:137 173:119 174:87 175:57 176:50 177:77 178:148 179:255 180:255 181:255 182:255 183:220 184:185 185:150 186:109 187:79 188:83 189:119 190:145 191:164 192:171 193:155 194:127 195:92 196:70 197:78 198:139 199:255 200:255 201:255 202:255 203:220 204:186 205:151 206:114 207:89 208:90 209:120 210:153 211:179 212:184 213:174 214:151 215:113 216:80 217:78 218:139 219:255 220:255 221:255 222:255 223:220 224:190 225:158 226:121 227:93 228:90 229:120 230:153 231:180 232:189 233:178 234:154 235:119 236:84 237:76 238:134 239:255 240:255 241:255 242:255 243:226 244:198 245:165 246:130 247:103 248:96 249:119 250:148 251:175 252:185 253:176 254:153 255:116 256:82 257:73 258:127 259:255 260:255 261:255 262:255 263:230 264:203 265:172 266:136 267:107 268:96 269:110 270:139 271:163 272:175 273:166 274:142 275:103 276:71 277:68 278:125 279:255 280:255 281:255 282:255 283:233 284:206 285:173 286:134 287:99 288:80 289:90 290:120 291:144 292:154 293:144 294:119 295:84 296:61 297:68 298:130 299:255 300:255 301:255 302:255 303:234 304:209 305:175 306:132 307:86 308:55 309:56 310:77 311:95 312:106 313:98 314:79 315:58 316:53 317:71 318:136 319:255 320:255 321:255 322:255 323:234 324:212 325:180 326:134 327:79 328:33 329:23 330:27 331:32 332:44 333:44 334:38 335:37 336:51 337:81 338:146 339:255 340:255 341:255 342:255 343:236 344:217 345:187 346:142 347:82 348:24 349:8 350:3 351:3 352:8 353:16 354:24 355:40 356:70 357:108 358:163 359:255 360:255 361:255 362:255 363:241 364:226 365:201 366:161 367:103 368:41 369:11 370:6 371:6 372:11 373:27 374:47 375:75 376:112 377:143 378:180 379:255 380:255 381:255 382:255 383:244 384:235 385:219 386:188 387:148 388:101 389:45 390:26 391:29 392:45 393:82 394:114 395:138 396:155 397:167 398:193 399:255 400:255 
2.869507190374148e-05 1:255 2:255 3:204 4:188 5:194 6:206 7:216 8:220 9:223 10:226 11:226 12:229 13:232 14:238 15:247 16:253 17:254 18:255 19:255 20:255 21:255 22:255 23:229 24:216 25:210 26:199 27:189 28:184 29:180 30:179 31:174 32:184 33:192 34:206 35:220 36:234 37:247 38:254 39:255 40:255 41:255 42:255 43:237 44:223 45:200 46:172 47:149 48:133 49:125 50:118 51:116 52:123 53:133 54:149 55:167 56:190 57:217 58:241 59:255 60:255 61:255 62:255 63:246 64:224 65:185 66:143 67:108 68:80 69:64 70:61 71:67 72:71 73:79 74:95 75:115 76:141 77:175 78:214 79:255 80:255 81:255 82:255 83:251 84:223 85:175 86:123 87:74 88:36 89:28 90:45 91:61 92:66 93:64 94:64 95:73 96:96 97:129 98:181 99:255 100:255 101:255 102:255 103:248 104:217 105:167 106:112 107:59 108:21 109:32 110:68 111:91 112:97 113:89 114:73 115:60 116:63 117:87 118:150 119:255 120:255 121:255 122:255 123:243 124:211 125:161 126:108 127:57 128:28 129:56 130:99 131:127 132:137 133:128 134:106 135:73 136:48 137:54 138:123 139:255 140:255 141:255 142:255 143:242 144:210 145:162 146:110 147:60 148:38 149:76 150:118 151:154 152:169 153:162 154:134 155:94 156:51 157:33 158:101 159:255 160:255 161:255 162:255 163:245 164:213 165:165 166:114 167:65 168:45 169:84 170:127 171:170 172:190 173:185 174:158 175:115 176:62 177:29 178:88 179:255 180:255 181:255 182:255 183:251 184:222 185:171 186:115 187:65 188:45 189:84 190:129 191:175 192:203 193:195 194:169 195:126 196:73 197:32 198:78 199:255 200:255 201:255 202:255 203:251 204:224 205:175 206:118 207:67 208:44 209:80 210:127 211:175 212:203 213:201 214:174 215:133 216:76 217:26 218:72 219:255 220:255 221:255 222:255 223:251 224:224 225:176 226:121 227:67 228:35 229:71 230:124 231:171 232:205 233:202 234:174 235:131 236:71 237:19 238:67 239:255 240:255 241:255 242:255 243:251 244:228 245:182 246:126 247:72 248:42 249:70 250:122 251:169 252:203 253:201 254:172 255:124 256:61 257:11 258:65 259:255 260:255 261:255 262:255 263:251 264:231 265:188 266:131 267:77 268:49 269:69 270:116 271:157 272:185 273:183 274:152 275:106 276:47 277:9 278:73 279:255 280:255 281:255 282:255 283:252 284:235 285:194 286:138 287:83 288:48 289:54 290:101 291:133 292:150 293:144 294:117 295:72 296:28 297:19 298:95 299:255 300:255 301:255 302:255 303:252 304:237 305:198 306:142 307:84 308:37 309:29 310:66 311:94 312:103 313:90 314:66 315:36 316:24 317:47 318:123 319:255 320:255 321:255 322:255 323:247 324:234 325:197 326:143 327:84 328:32 329:12 330:27 331:45 332:50 333:40 334:29 335:30 336:52 337:89 338:151 339:255 340:255 341:255 342:255 343:242 344:230 345:198 346:150 347:99 348:52 349:25 350:21 351:21 352:22 353:29 354:44 355:70 356:103 357:136 358:182 359:255 360:255 361:255 362:255 363:243 364:234 365:208 366:169 367:130 368:97 369:80 370:65 371:66 372:72 373:87 374:103 375:126 376:152 377:177 378:208 379:255 380:255 381:255 382:255 383:251 384:241 385:225 386:198 387:169 388:148 389:137 390:127 391:131 392:138 393:144 394:156 395:174 396:194 397:210 398:225 399:255 400:255 
2.65321247828937e-05 1:255 2:255 3:186 4:163 5:167 6:180 7:197 8:211 9:223 10:223 11:226 12:229 13:234 14:239 15:247 16:252 17:254 18:255 19:255 20:255 21:255 22:255 23:218 24:199 25:195 26:195 27:193 28:190 29:188 30:188 31:189 32:196 33:204 34:219 35:233 36:245 37:253 38:255 39:255 40:255 41:255 42:255 43:236 44:220 45:203 46:182 47:162 48:148 49:141 50:139 51:139 52:147 53:156 54:174 55:197 56:222 57:242 58:251 59:255 60:255 61:255 62:255 63:243 64:226 65:196 66:158 67:125 68:104 69:92 70:91 71:91 72:99 73:111 74:127 75:150 76:182 77:214 78:239 79:255 80:255 81:255 82:255 83:247 84:228 85:188 86:138 87:92 88:57 89:47 90:52 91:59 92:66 93:74 94:83 95:104 96:137 97:174 98:215 99:255 100:255 101:255 102:255 103:251 104:228 105:182 106:126 107:71 108:30 109:31 110:54 111:71 112:75 113:71 114:61 115:67 116:94 117:133 118:187 119:255 120:255 121:255 122:255 123:252 124:226 125:177 126:118 127:59 128:23 129:43 130:90 131:117 132:118 133:100 134:70 135:49 136:57 137:94 138:163 139:255 140:255 141:255 142:255 143:250 144:223 145:172 146:111 147:51 148:20 149:56 150:117 151:153 152:159 153:134 154:98 155:55 156:33 157:59 158:143 159:255 160:255 161:255 162:255 163:250 164:221 165:170 166:111 167:54 168:27 169:72 170:129 171:171 172:187 173:164 174:125 175:68 176:26 177:38 178:127 179:255 180:255 181:255 182:255 183:249 184:221 185:172 186:116 187:62 188:37 189:82 190:136 191:180 192:197 193:179 194:137 195:80 196:31 197:32 198:118 199:255 200:255 201:255 202:255 203:245 204:221 205:177 206:120 207:66 208:42 209:82 210:136 211:180 212:203 213:188 214:150 215:94 216:39 217:28 218:109 219:255 220:255 221:255 222:255 223:245 224:221 225:177 226:121 227:66 228:42 229:82 230:137 231:184 232:204 233:192 234:154 235:96 236:39 237:27 238:109 239:255 240:255 241:255 242:255 243:248 244:227 245:181 246:123 247:65 248:35 249:74 250:136 251:181 252:203 253:189 254:147 255:88 256:33 257:24 258:109 259:255 260:255 261:255 262:255 263:250 264:232 265:188 266:128 267:67 268:32 269:67 270:131 271:174 272:196 273:179 274:136 275:74 276:23 277:25 278:115 279:255 280:255 281:255 282:255 283:251 284:236 285:193 286:132 287:69 288:31 289:61 290:121 291:159 292:173 293:152 294:113 295:54 296:14 297:34 298:129 299:255 300:255 301:255 302:255 303:249 304:234 305:192 306:131 307:67 308:24 309:46 310:98 311:129 312:134 313:114 314:76 315:32 316:19 317:57 318:145 319:255 320:255 321:255 322:255 323:243 324:226 325:187 326:129 327:65 328:15 329:23 330:59 331:82 332:83 333:69 334:42 335:27 336:47 337:95 338:164 339:255 340:255 341:255 342:255 343:239 344:221 345:185 346:131 347:70 348:19 349:12 350:25 351:38 352:42 353:39 354:38 355:55 356:94 357:138 358:188 359:255 360:255 361:255 362:255 363:236 364:224 365:192 366:143 367:92 368:54 369:42 370:36 371:45 372:55 373:62 374:81 375:109 376:141 377:172 378:206 379:255 380:255 381:255 382:255 383:237 384:230 385:209 386:168 387:128 388:108 389:105 390:98 391:101 392:107 393:116 394:132 395:156 396:181 397:195 398:210 399:255 400:255 
7.091845905105427e-06 1:255 2:255 3:161 4:143 5:174 6:207 7:233 8:247 9:250 10:253 11:253 12:255 13:255 14:252 15:248 16:240 17:224 18:221 19:255 20:255 21:255 22:255 23:184 24:168 25:187 26:208 27:222 28:230 29:232 30:234 31:237 32:242 33:249 34:250 35:250 36:245 37:234 38:231 39:255 40:255 41:255 42:255 43:197 44:173 45:174 46:180 47:185 48:189 49:190 50:197 51:207 52:218 53:229 54:238 55:245 56:246 57:240 58:238 59:255 60:255 61:255 62:255 63:192 64:155 65:140 66:133 67:131 68:132 69:135 70:145 71:159 72:175 73:199 74:219 75:234 76:243 77:243 78:242 79:255 80:255 81:255 82:255 83:179 84:126 85:98 86:84 87:79 88:77 89:76 90:86 91:103 92:125 93:158 94:192 95:219 96:236 97:240 98:241 99:255 100:255 101:255 102:255 103:168 104:101 105:58 106:36 107:38 108:46 109:44 110:43 111:50 112:79 113:115 114:157 115:197 116:225 117:234 118:239 119:255 120:255 121:255 122:255 123:160 124:88 125:33 126:11 127:31 128:55 129:59 130:47 131:33 132:43 133:77 134:120 135:168 136:207 137:226 138:237 139:255 140:255 141:255 142:255 143:155 144:81 145:30 146:25 147:64 148:97 149:107 150:96 151:65 152:27 153:46 154:86 155:137 156:186 157:218 158:235 159:255 160:255 161:255 162:255 163:153 164:77 165:34 166:43 167:96 168:137 169:151 170:142 171:102 172:52 173:27 174:61 175:117 176:172 177:211 178:233 179:255 180:255 181:255 182:255 183:156 184:83 185:44 186:55 187:107 188:155 189:180 190:170 191:138 192:82 193:34 194:52 195:105 196:160 197:202 198:229 199:255 200:255 201:255 202:255 203:160 204:85 205:47 206:62 207:116 208:167 209:199 210:192 211:151 212:95 213:43 214:50 215:99 216:155 217:197 218:228 219:255 220:255 221:255 222:255 223:157 224:79 225:44 226:64 227:121 228:173 229:206 230:201 231:157 232:101 233:49 234:48 235:91 236:147 237:194 238:227 239:255 240:255 241:255 242:255 243:152 244:70 245:37 246:62 247:123 248:176 249:209 250:204 251:156 252:99 253:41 254:39 255:85 256:145 257:192 258:225 259:255 260:255 261:255 262:255 263:146 264:64 265:31 266:57 267:120 268:173 269:206 270:197 271:150 272:92 273:33 274:39 275:91 276:151 277:194 278:224 279:255 280:255 281:255 282:255 283:143 284:59 285:25 286:51 287:115 288:164 289:189 290:175 291:131 292:80 293:28 294:46 295:103 296:159 297:196 298:222 299:255 300:255 301:255 302:255 303:141 304:51 305:15 306:43 307:104 308:147 309:160 310:143 311:101 312:53 313:29 314:63 315:119 316:168 317:197 318:215 319:255 320:255 321:255 322:255 323:140 324:46 325:9 326:30 327:81 328:115 329:119 330:101 331:64 332:29 333:44 334:91 335:140 336:179 337:194 338:202 339:255 340:255 341:255 342:255 343:143 344:56 345:14 346:16 347:45 348:68 349:69 350:53 351:32 352:39 353:77 354:124 355:164 356:187 357:184 358:185 359:255 360:255 361:255 362:255 363:153 364:80 365:34 366:14 367:22 368:35 369:37 370:24 371:42 372:77 373:114 374:152 375:182 376:188 377:165 378:166 379:255 380:255 381:255 382:255 383:170 384:109 385:78 386:64 387:61 388:62 389:66 390:73 391:87 392:124 393:153 394:177 395:189 396:176 397:139 398:143 399:255 400:255 
9.718061660008521e-06 1:255 2:255 3:209 4:205 5:216 6:222 7:226 8:230 9:234 10:239 11:244 12:248 13:254 14:255 15:255 16:250 17:236 18:229 19:255 20:255 21:255 22:255 23:209 24:189 25:187 26:188 27:190 28:193 29:199 30:211 31:218 32:226 33:238 34:250 35:255 36:250 37:238 38:234 39:255 40:255 41:255 42:255 43:191 44:155 45:139 46:133 47:135 48:139 49:143 50:154 51:167 52:183 53:213 54:236 55:250 56:252 57:242 58:238 59:255 60:255 61:255 62:255 63:169 64:114 65:88 66:78 67:80 68:84 69:90 70:97 71:112 72:137 73:173 74:212 75:237 76:247 77:245 78:241 79:255 80:255 81:255 82:255 83:153 84:80 85:43 86:37 87:50 88:63 89:68 90:62 91:63 92:92 93:131 94:175 95:213 96:237 97:246 98:247 99:255 100:255 101:255 102:255 103:145 104:62 105:26 106:32 107:61 108:82 109:85 110:68 111:50 112:58 113:93 114:136 115:185 116:224 117:244 118:251 119:255 120:255 121:255 122:255 123:141 124:56 125:30 126:52 127:94 128:121 129:124 130:105 131:71 132:45 133:63 134:106 135:158 136:207 137:239 138:249 139:255 140:255 141:255 142:255 143:137 144:51 145:33 146:68 147:120 148:154 149:162 150:141 151:99 152:53 153:46 154:81 155:135 156:190 157:229 158:245 159:255 160:255 161:255 162:255 163:132 164:48 165:38 166:79 167:133 168:172 169:186 170:165 171:120 172:68 173:40 174:65 175:122 176:182 177:222 178:238 179:255 180:255 181:255 182:255 183:132 184:41 185:29 186:78 187:144 188:189 189:208 190:188 191:146 192:80 193:36 194:53 195:111 196:175 197:217 198:236 199:255 200:255 201:255 202:255 203:136 204:50 205:39 206:83 207:144 208:191 209:215 210:202 211:154 212:86 213:26 214:37 215:98 216:170 217:219 218:238 219:255 220:255 221:255 222:255 223:136 224:50 225:43 226:87 227:141 228:185 229:213 230:202 231:155 232:93 233:38 234:45 235:97 236:164 237:214 238:236 239:255 240:255 241:255 242:255 243:133 244:49 245:41 246:82 247:136 248:181 249:209 250:188 251:148 252:87 253:39 254:52 255:107 256:169 257:212 258:232 259:255 260:255 261:255 262:255 263:129 264:40 265:29 266:72 267:130 268:169 269:184 270:164 271:121 272:63 273:33 274:59 275:115 276:173 277:209 278:225 279:255 280:255 281:255 282:255 283:125 284:32 285:15 286:55 287:109 288:141 289:144 290:125 291:78 292:31 293:32 294:73 295:129 296:178 297:202 298:210 299:255 300:255 301:255 302:255 303:125 304:31 305:6 306:32 307:72 308:94 309:89 310:71 311:36 312:22 313:53 314:103 315:151 316:188 317:193 318:192 319:255 320:255 321:255 322:255 323:131 324:39 325:8 326:15 327:33 328:43 329:36 330:31 331:29 332:52 333:94 334:139 335:176 336:195 337:180 338:175 339:255 340:255 341:255 342:255 343:146 344:66 345:34 346:27 347:29 348:27 349:27 350:45 351:70 352:103 353:136 354:169 355:192 356:190 357:157 358:155 359:255 360:255 361:255 362:255 363:171 364:118 365:94 366:85 367:83 368:80 369:84 370:106 371:121 372:149 373:173 374:195 375:194 376:169 377:129 378:133 379:255 380:255 381:255 382:255 383:200 384:162 385:147 386:143 387:143 388:143 389:145 390:157 391:168 392:187 393:201 394:198 395:176 396:138 397:89 398:102 399:255 400:255 
3.647096188840264e-05 1:255 2:255 3:178 4:168 5:195 6:217 7:233 8:247 9:251 10:255 11:255 12:255 13:255 14:252 15:248 16:237 17:214 18:209 19:255 20:255 21:255 22:255 23:204 24:192 25:203 26:215 27:222 28:228 29:235 30:241 31:241 32:241 33:246 34:252 35:252 36:244 37:228 38:223 39:255 40:255 41:255 42:255 43:211 44:190 45:183 46:181 47:184 48:190 49:198 50:209 51:213 52:220 53:231 54:243 55:249 56:247 57:237 58:231 59:255 60:255 61:255 62:255 63:202 64:163 65:142 66:132 67:131 68:135 69:141 70:147 71:159 72:177 73:202 74:225 75:238 76:244 77:240 78:235 79:255 80:255 81:255 82:255 83:186 84:130 85:97 86:79 87:75 88:77 89:81 90:86 91:103 92:128 93:161 94:195 95:220 96:235 97:240 98:240 99:255 100:255 101:255 102:255 103:172 104:107 105:60 106:35 107:37 108:48 109:52 110:53 111:59 112:79 113:115 114:157 115:196 116:224 117:237 118:245 119:255 120:255 121:255 122:255 123:163 124:96 125:42 126:19 127:38 128:64 129:69 130:62 131:48 132:47 133:74 134:117 135:165 136:207 137:232 138:246 139:255 140:255 141:255 142:255 143:159 144:90 145:41 146:33 147:69 148:101 149:113 150:104 151:77 152:47 153:49 154:83 155:131 156:183 157:223 158:241 159:255 160:255 161:255 162:255 163:157 164:86 165:42 166:47 167:91 168:131 169:155 170:147 171:114 172:69 173:39 174:59 175:106 176:163 177:211 178:235 179:255 180:255 181:255 182:255 183:155 184:85 185:47 186:56 187:104 188:150 189:183 190:181 191:141 192:95 193:46 194:41 195:84 196:144 197:195 198:230 199:255 200:255 201:255 202:255 203:157 204:86 205:47 206:56 207:108 208:161 209:198 210:202 211:159 212:110 213:53 214:34 215:69 216:129 217:184 218:228 219:255 220:255 221:255 222:255 223:164 224:89 225:42 226:52 227:108 228:163 229:205 230:211 231:175 232:122 233:62 234:37 235:66 236:123 237:179 238:225 239:255 240:255 241:255 242:255 243:167 244:94 245:44 246:49 247:105 248:160 249:207 250:216 251:185 252:128 253:68 254:34 255:61 256:121 257:177 258:222 259:255 260:255 261:255 262:255 263:170 264:97 265:42 266:44 267:98 268:153 269:200 270:211 271:177 272:122 273:60 274:33 275:63 276:122 277:177 278:221 279:255 280:255 281:255 282:255 283:171 284:97 285:41 286:35 287:84 288:138 289:179 290:186 291:148 292:102 293:45 294:36 295:74 296:129 297:178 298:219 299:255 300:255 301:255 302:255 303:171 304:97 305:39 306:26 307:64 308:113 309:142 310:140 311:109 312:67 313:31 314:46 315:89 316:138 317:177 318:211 319:255 320:255 321:255 322:255 323:173 324:100 325:39 326:14 327:37 328:72 329:90 330:80 331:57 332:30 333:32 334:66 335:111 336:152 337:178 338:201 339:255 340:255 341:255 342:255 343:178 344:109 345:47 346:9 347:7 348:22 349:35 350:25 351:12 352:24 353:58 354:98 355:140 356:173 357:182 358:192 359:255 360:255 361:255 362:255 363:187 364:125 365:72 366:32 367:14 368:13 369:14 370:19 371:32 372:67 373:101 374:139 375:170 376:187 377:177 378:179 379:255 380:255 381:255 382:255 383:204 384:153 385:113 386:87 387:73 388:65 389:67 390:79 391:92 392:118 393:146 394:172 395:188 396:185 397:158 398:158 399:255 400:255 
2.694665968927291e-05 1:255 2:255 3:145 4:127 5:168 6:207 7:230 8:242 9:244 10:241 11:238 12:244 13:250 14:254 15:255 16:251 17:239 18:233 19:255 20:255 21:255 22:255 23:182 24:177 25:202 26:218 27:225 28:229 29:232 30:232 31:231 32:235 33:245 34:253 35:255 36:253 37:244 38:238 39:255 40:255 41:255 42:255 43:213 44:203 45:205 46:205 47:204 48:200 49:198 50:205 51:209 52:219 53:231 54:243 55:250 56:251 57:245 58:242 59:255 60:255 61:255 62:255 63:221 64:193 65:174 66:161 67:152 68:144 69:141 70:147 71:158 72:173 73:195 74:220 75:237 76:244 77:244 78:244 79:255 80:255 81:255 82:255 83:214 84:169 85:130 86:106 87:95 88:90 89:88 90:90 91:99 92:116 93:143 94:179 95:213 96:232 97:238 98:243 99:255 100:255 101:255 102:255 103:202 104:144 105:91 106:54 107:42 108:47 109:56 110:56 111:57 112:66 113:92 114:130 115:174 116:210 117:229 118:240 119:255 120:255 121:255 122:255 123:192 124:127 125:65 126:21 127:14 128:36 129:59 130:63 131:54 132:45 133:55 134:86 135:130 136:179 137:216 138:235 139:255 140:255 141:255 142:255 143:187 144:123 145:60 146:17 147:24 148:66 149:96 150:109 151:92 152:63 153:41 154:55 155:97 156:150 157:198 158:230 159:255 160:255 161:255 162:255 163:182 164:122 165:64 166:23 167:36 168:95 169:132 170:153 171:136 172:97 173:56 174:39 175:69 176:123 177:178 178:228 179:255 180:255 181:255 182:255 183:184 184:123 185:65 186:28 187:47 188:108 189:160 190:193 191:175 192:128 193:81 194:34 195:48 196:106 197:168 198:225 199:255 200:255 201:255 202:255 203:188 204:128 205:67 206:26 207:45 208:115 209:173 210:212 211:204 212:152 213:94 214:34 215:40 216:96 217:158 218:218 219:255 220:255 221:255 222:255 223:190 224:130 225:71 226:29 227:44 228:110 229:167 230:212 231:209 232:160 233:104 234:47 235:43 236:86 237:147 238:210 239:255 240:255 241:255 242:255 243:189 244:132 245:78 246:37 247:45 248:104 249:160 250:207 251:208 252:162 253:110 254:54 255:44 256:81 257:138 258:200 259:255 260:255 261:255 262:255 263:188 264:134 265:86 266:42 267:42 268:99 269:154 270:200 271:202 272:159 273:107 274:51 275:42 276:80 277:135 278:197 279:255 280:255 281:255 282:255 283:191 284:138 285:90 286:41 287:34 288:92 289:146 290:187 291:188 292:147 293:96 294:42 295:42 296:86 297:140 298:199 299:255 300:255 301:255 302:255 303:195 304:143 305:90 306:36 307:25 308:77 309:130 310:164 311:161 312:124 313:75 314:32 315:48 316:99 317:149 318:202 319:255 320:255 321:255 322:255 323:200 324:148 325:91 326:34 327:15 328:53 329:104 330:129 331:121 332:89 333:49 334:33 335:64 336:115 337:160 338:205 339:255 340:255 341:255 342:255 343:206 344:151 345:95 346:38 347:7 348:27 349:69 350:84 351:70 352:49 353:35 354:55 355:95 356:137 357:171 358:206 359:255 360:255 361:255 362:255 363:214 364:160 365:103 366:45 367:9 368:11 369:31 370:45 371:33 372:32 373:56 374:90 375:129 376:164 377:181 378:198 379:255 380:255 381:255 382:255 383:223 384:172 385:119 386:69 387:34 388:26 389:35 390:50 391:64 392:77 393:99 394:128 395:159 396:184 397:184 398:184 399:255 400:255 
-1.937037188081895e-05 1:255 2:255 3:176 4:161 5:175 6:187 7:197 8:200 9:195 10:202 11:208 12:211 13:222 14:235 15:244 16:248 17:240 18:233 19:255 20:255 21:255 22:255 23:187 24:162 25:160 26:160 27:160 28:156 29:151 30:158 31:163 32:169 33:177 34:198 35:223 36:238 37:238 38:238 39:255 40:255 41:255 42:255 43:172 44:134 45:125 46:119 47:114 48:109 49:106 50:109 51:111 52:122 53:131 54:159 55:193 56:221 57:235 58:239 59:255 60:255 61:255 62:255 63:158 64:109 65:91 66:78 67:71 68:67 69:65 70:63 71:66 72:76 73:93 74:124 75:164 76:203 77:226 78:235 79:255 80:255 81:255 82:255 83:153 84:96 85:72 86:55 87:43 88:38 89:35 90:28 91:25 92:38 93:66 94:103 95:147 96:189 97:217 98:233 99:255 100:255 101:255 102:255 103:157 104:103 105:77 106:60 107:49 108:42 109:34 110:16 111:4 112:16 113:49 114:92 115:138 116:183 117:217 118:236 119:255 120:255 121:255 122:255 123:173 124:129 125:105 126:90 127:85 128:76 129:57 130:30 131:8 132:9 133:42 134:85 135:133 136:183 137:223 138:244 139:255 140:255 141:255 142:255 143:198 144:163 145:145 146:134 147:125 148:110 149:83 150:56 151:20 152:11 153:39 154:81 155:129 156:183 157:228 158:250 159:255 160:255 161:255 162:255 163:223 164:202 165:190 166:180 167:162 168:136 169:110 170:69 171:29 172:15 173:38 174:78 175:124 176:177 177:224 178:250 179:255 180:255 181:255 182:255 183:244 184:237 185:227 186:215 187:198 188:164 189:117 190:73 191:32 192:16 193:37 194:76 195:120 196:172 197:222 198:250 199:255 200:255 201:255 202:255 203:252 204:251 205:244 206:232 207:209 208:169 209:122 210:77 211:35 212:16 213:31 214:71 215:125 216:183 217:229 218:250 219:255 220:255 221:255 222:255 223:254 224:254 225:252 226:242 227:216 228:171 229:125 230:81 231:46 232:21 233:34 234:73 235:123 236:179 237:225 238:250 239:255 240:255 241:255 242:255 243:253 244:254 245:251 246:242 247:218 248:175 249:126 250:83 251:44 252:20 253:35 254:73 255:120 256:173 257:219 258:243 259:255 260:255 261:255 262:255 263:244 264:237 265:232 266:222 267:202 268:169 269:123 270:80 271:36 272:13 273:29 274:69 275:117 276:170 277:215 278:240 279:255 280:255 281:255 282:255 283:221 284:201 285:191 286:181 287:165 288:142 289:110 290:70 291:29 292:10 293:30 294:72 295:121 296:171 297:210 298:233 299:255 300:255 301:255 302:255 303:197 304:160 305:145 306:134 307:120 308:103 309:82 310:49 311:19 312:13 313:39 314:81 315:129 316:174 317:203 318:222 319:255 320:255 321:255 322:255 323:181 324:131 325:107 326:92 327:79 328:63 329:45 330:22 331:8 332:18 333:52 334:94 335:140 336:176 337:195 338:213 339:255 340:255 341:255 342:255 343:172 344:117 345:85 346:64 347:49 348:33 349:18 350:7 351:11 352:34 353:71 354:113 355:153 356:181 357:191 358:209 359:255 360:255 361:255 362:255 363:179 364:124 365:89 366:65 367:46 368:29 369:25 370:28 371:42 372:71 373:105 374:142 375:172 376:186 377:188 378:205 379:255 380:255 381:255 382:255 383:197 384:146 385:114 386:90 387:71 388:63 389:61 390:70 391:80 392:108 393:128 394:157 395:177 396:180 397:178 398:198 399:255 400:255 
-7.514066619828244e-06 1:255 2:255 3:89 4:47 5:63 6:88 7:129 8:172 9:205 10:218 11:218 12:226 13:237 14:245 15:244 16:240 17:230 18:222 19:255 20:255 21:255 22:255 23:122 24:85 25:95 26:113 27:138 28:163 29:177 30:188 31:188 32:189 33:199 34:211 35:219 36:226 37:230 38:232 39:255 40:255 41:255 42:255 43:155 44:118 45:115 46:117 47:124 48:132 49:137 50:143 51:143 52:143 53:152 54:167 55:185 56:206 57:224 58:236 59:255 60:255 61:255 62:255 63:178 64:140 65:121 66:104 67:93 68:90 69:92 70:94 71:92 72:94 73:106 74:124 75:152 76:188 77:218 78:237 79:255 80:255 81:255 82:255 83:188 84:145 85:114 86:86 87:67 88:59 89:57 90:52 91:51 92:52 93:67 94:88 95:123 96:172 97:216 98:241 99:255 100:255 101:255 102:255 103:191 104:145 105:110 106:78 107:56 108:46 109:38 110:27 111:25 112:22 113:35 114:61 115:102 116:155 117:207 118:241 119:255 120:255 121:255 122:255 123:199 124:154 125:117 126:86 127:66 128:54 129:45 130:33 131:25 132:12 133:15 134:46 135:89 136:140 137:193 138:236 139:255 140:255 141:255 142:255 143:213 144:174 145:139 146:113 147:96 148:83 149:77 150:70 151:47 152:19 153:12 154:40 155:84 156:133 157:185 158:230 159:255 160:255 161:255 162:255 163:225 164:199 165:176 166:155 167:137 168:126 169:117 170:105 171:68 172:28 173:12 174:36 175:79 176:128 177:176 178:218 179:255 180:255 181:255 182:255 183:244 184:233 185:218 186:199 187:179 188:166 189:153 190:120 191:80 192:40 193:17 194:33 195:73 196:120 197:165 198:210 199:255 200:255 201:255 202:255 203:254 204:253 205:249 206:236 207:217 208:195 209:170 210:138 211:94 212:47 213:19 214:30 215:69 216:117 217:164 218:210 219:255 220:255 221:255 222:255 223:254 224:254 225:253 226:246 227:230 228:210 229:186 230:149 231:101 232:52 233:17 234:27 235:67 236:117 237:164 238:210 239:255 240:255 241:255 242:255 243:254 244:251 245:249 246:245 247:235 248:217 249:189 250:150 251:102 252:57 253:19 254:22 255:60 256:114 257:167 258:215 259:255 260:255 261:255 262:255 263:251 264:249 265:248 266:244 267:235 268:220 269:193 270:150 271:105 272:61 273:22 274:22 275:57 276:109 277:161 278:212 279:255 280:255 281:255 282:255 283:252 284:249 285:242 286:230 287:219 288:208 289:186 290:147 291:103 292:59 293:21 294:21 295:55 296:105 297:158 298:210 299:255 300:255 301:255 302:255 303:249 304:242 305:220 306:196 307:183 308:174 309:157 310:128 311:87 312:45 313:13 314:18 315:54 316:107 317:162 318:213 319:255 320:255 321:255 322:255 323:238 324:219 325:186 326:153 327:137 328:127 329:114 330:93 331:65 332:29 333:7 334:21 335:62 336:116 337:170 338:217 339:255 340:255 341:255 342:255 343:223 344:192 345:156 346:120 347:97 348:86 349:73 350:58 351:44 352:16 353:9 354:37 355:79 356:128 357:177 358:219 359:255 360:255 361:255 362:255 363:208 364:178 365:143 366:104 367:74 368:57 369:48 370:35 371:18 372:8 373:23 374:56 375:98 376:142 377:180 378:213 379:255 380:255 381:255 382:255 383:194 384:171 385:145 386:107 387:76 388:52 389:39 390:32 391:21 392:26 393:53 394:89 395:128 396:163 397:180 398:194 399:255 400:255 
-1.388269790575705e-06 1:255 2:255 3:185 4:157 5:146 6:137 7:137 8:149 9:166 10:187 11:204 12:219 13:242 14:249 15:234 16:211 17:194 18:203 19:255 20:255 21:255 22:255 23:188 24:154 25:131 26:106 27:95 28:108 29:139 30:170 31:190 32:217 33:242 34:252 35:249 36:233 37:209 38:207 39:255 40:255 41:255 42:255 43:187 44:145 45:110 46:73 47:56 48:73 49:109 50:159 51:182 52:216 53:242 54:253 55:252 56:246 57:228 58:215 59:255 60:255 61:255 62:255 63:184 64:136 65:97 66:58 67:38 68:52 69:92 70:145 71:179 72:216 73:242 74:253 75:252 76:249 77:237 78:226 79:255 80:255 81:255 82:255 83:182 84:131 85:88 86:49 87:31 88:43 89:85 90:135 91:178 92:221 93:246 94:254 95:252 96:249 97:240 98:230 99:255 100:255 101:255 102:255 103:182 104:128 105:81 106:39 107:23 108:40 109:82 110:132 111:178 112:225 113:250 114:253 115:250 116:246 117:235 118:230 119:255 120:255 121:255 122:255 123:180 124:126 125:77 126:32 127:15 128:37 129:82 130:135 131:181 132:226 133:248 134:250 135:246 136:237 137:225 138:226 139:255 140:255 141:255 142:255 143:176 144:123 145:77 146:32 147:14 148:34 149:80 150:135 151:182 152:223 153:241 154:245 155:238 156:226 157:213 158:216 159:255 160:255 161:255 162:255 163:174 164:119 165:75 166:36 167:20 168:37 169:79 170:131 171:177 172:213 173:230 174:233 175:233 176:222 177:204 178:212 179:255 180:255 181:255 182:255 183:172 184:118 185:75 186:38 187:22 188:36 189:75 190:126 191:172 192:200 193:226 194:232 195:232 196:228 197:214 198:213 199:255 200:255 201:255 202:255 203:174 204:123 205:75 206:31 207:16 208:31 209:71 210:122 211:169 212:194 213:216 214:223 215:223 216:222 217:216 218:217 219:255 220:255 221:255 222:255 223:168 224:112 225:71 226:32 227:14 228:27 229:65 230:119 231:167 232:187 233:195 234:197 235:199 236:204 237:205 238:213 239:255 240:255 241:255 242:255 243:167 244:109 245:70 246:33 247:12 248:23 249:59 250:103 251:153 252:171 253:176 254:178 255:182 256:188 257:192 258:206 259:255 260:255 261:255 262:255 263:170 264:115 265:71 266:29 267:8 268:16 269:49 270:87 271:123 272:138 273:143 274:149 275:160 276:173 277:179 278:196 279:255 280:255 281:255 282:255 283:172 284:118 285:72 286:27 287:4 288:10 289:33 290:60 291:87 292:96 293:100 294:107 295:127 296:152 297:165 298:185 299:255 300:255 301:255 302:255 303:172 304:120 305:76 306:32 307:7 308:4 309:16 310:33 311:52 312:56 313:60 314:71 315:95 316:127 317:145 318:170 319:255 320:255 321:255 322:255 323:175 324:126 325:87 326:46 327:18 328:8 329:10 330:24 331:30 332:32 333:37 334:55 335:78 336:106 337:122 338:148 339:255 340:255 341:255 342:255 343:182 344:138 345:103 346:67 347:41 348:30 349:27 350:34 351:36 352:38 353:46 354:60 355:77 356:95 357:98 358:126 359:255 360:255 361:255 362:255 363:189 364:159 365:130 366:99 367:79 368:68 369:64 370:66 371:66 372:71 373:77 374:83 375:87 376:86 377:75 378:109 379:255 380:255 381:255 382:255 383:196 384:171 385:159 386:139 387:121 388:114 389:110 390:104 391:104 392:110 393:106 394:104 395:96 396:81 397:58 398:89 399:255 400:255 
-3.523547112039334e-06 1:255 2:255 3:181 4:152 5:145 6:138 7:139 8:152 9:176 10:198 11:231 12:244 13:251 14:248 15:239 16:216 17:191 18:200 19:255 20:255 21:255 22:255 23:195 24:159 25:136 26:112 27:97 28:108 29:142 30:175 31:215 32:247 33:254 34:253 35:242 36:216 37:195 38:209 39:255 40:255 41:255 42:255 43:198 44:153 45:113 46:82 47:70 48:77 49:104 50:152 51:198 52:245 53:255 54:254 55:247 56:233 57:219 58:221 59:255 60:255 61:255 62:255 63:198 64:147 65:100 66:61 67:44 68:53 69:86 70:137 71:184 72:238 73:252 74:253 75:248 76:239 77:226 78:224 79:255 80:255 81:255 82:255 83:196 84:143 85:95 86:52 87:30 88:39 89:78 90:128 91:172 92:214 93:241 94:248 95:242 96:236 97:230 98:232 99:255 100:255 101:255 102:255 103:192 104:139 105:91 106:48 107:24 108:31 109:71 110:122 111:165 112:190 113:221 114:236 115:236 116:235 117:238 118:242 119:255 120:255 121:255 122:255 123:184 124:130 125:85 126:45 127:22 128:25 129:63 130:115 131:161 132:183 133:204 134:220 135:230 136:238 137:244 138:247 139:255 140:255 141:255 142:255 143:175 144:119 145:75 146:38 147:20 148:26 149:60 150:109 151:159 152:184 153:200 154:214 155:227 156:237 157:240 158:241 159:255 160:255 161:255 162:255 163:171 164:112 165:66 166:26 167:9 168:22 169:60 170:114 171:164 172:194 173:212 174:227 175:231 176:230 177:224 178:222 179:255 180:255 181:255 182:255 183:169 184:111 185:66 186:26 187:7 188:16 189:55 190:119 191:169 192:208 193:229 194:234 195:223 196:214 197:207 198:211 199:255 200:255 201:255 202:255 203:169 204:113 205:72 206:37 207:17 208:23 209:61 210:119 211:172 212:208 213:236 214:243 215:237 216:218 217:200 218:211 219:255 220:255 221:255 222:255 223:169 224:113 225:73 226:37 227:19 228:28 229:64 230:114 231:165 232:194 233:214 234:229 235:234 236:219 237:196 238:204 239:255 240:255 241:255 242:255 243:173 244:118 245:75 246:35 247:15 248:23 249:55 250:102 251:149 252:172 253:183 254:193 255:204 256:204 257:192 258:201 259:255 260:255 261:255 262:255 263:177 264:126 265:82 266:36 267:9 268:15 269:46 270:88 271:125 272:140 273:146 274:155 275:170 276:181 277:182 278:195 279:255 280:255 281:255 282:255 283:181 284:130 285:85 286:38 287:8 288:10 289:36 290:59 291:89 292:97 293:101 294:109 295:130 296:153 297:164 298:185 299:255 300:255 301:255 302:255 303:184 304:131 305:85 306:40 307:11 308:5 309:20 310:35 311:51 312:57 313:59 314:70 315:93 316:124 317:144 318:172 319:255 320:255 321:255 322:255 323:183 324:132 325:88 326:46 327:19 328:10 329:14 330:26 331:29 332:34 333:37 334:51 335:73 336:103 337:126 338:162 339:255 340:255 341:255 342:255 343:181 344:136 345:98 346:62 347:40 348:33 349:32 350:33 351:38 352:40 353:43 354:54 355:72 356:93 357:108 358:150 359:255 360:255 361:255 362:255 363:182 364:144 365:117 366:91 367:76 368:64 369:59 370:63 371:71 372:74 373:76 374:80 375:85 376:87 377:87 378:131 379:255 380:255 381:255 382:255 383:188 384:162 385:151 386:134 387:116 388:100 389:97 390:101 391:105 392:109 393:110 394:104 395:92 396:80 397:77 398:124 399:255 400:255 
-1.478963240625485e-05 1:255 2:255 3:159 4:130 5:133 6:140 7:148 8:157 9:172 10:188 11:208 12:223 13:213 14:209 15:192 16:174 17:162 18:176 19:255 20:255 21:255 22:255 23:164 24:128 25:119 26:113 27:117 28:132 29:156 30:180 31:190 32:192 33:205 34:209 35:206 36:195 37:174 38:180 39:255 40:255 41:255 42:255 43:164 44:116 45:95 46:82 47:84 48:103 49:135 50:165 51:179 52:180 53:189 54:203 55:216 56:213 57:188 58:182 59:255 60:255 61:255 62:255 63:163 64:105 65:73 66:53 67:55 68:77 69:116 70:156 71:171 72:172 73:179 74:199 75:218 76:218 77:194 78:188 79:255 80:255 81:255 82:255 83:160 84:99 85:60 86:36 87:36 88:63 89:104 90:147 91:168 92:173 93:181 94:200 95:218 96:218 97:197 98:194 99:255 100:255 101:255 102:255 103:158 104:96 105:55 106:27 107:27 108:57 109:98 110:142 111:175 112:190 113:201 114:212 115:221 116:218 117:198 118:197 119:255 120:255 121:255 122:255 123:156 124:93 125:52 126:23 127:23 128:53 129:95 130:143 131:192 132:213 133:227 134:228 135:226 136:218 137:199 138:200 139:255 140:255 141:255 142:255 143:153 144:90 145:50 146:21 147:20 148:52 149:96 150:145 151:206 152:230 153:239 154:236 155:230 156:220 157:206 158:208 159:255 160:255 161:255 162:255 163:151 164:88 165:49 166:19 167:18 168:52 169:98 170:149 171:208 172:236 173:245 174:243 175:237 176:231 177:222 178:222 179:255 180:255 181:255 182:255 183:154 184:88 185:46 186:16 187:17 188:54 189:102 190:153 191:221 192:238 193:245 194:249 195:248 196:244 197:234 198:232 199:255 200:255 201:255 202:255 203:154 204:87 205:42 206:13 207:17 208:55 209:104 210:159 211:222 212:243 213:252 214:255 215:255 216:248 217:229 218:221 219:255 220:255 221:255 222:255 223:151 224:83 225:41 226:14 227:21 228:62 229:109 230:159 231:222 232:243 233:253 234:255 235:253 236:246 237:223 238:206 239:255 240:255 241:255 242:255 243:149 244:82 245:40 246:17 247:26 248:65 249:110 250:157 251:210 252:237 253:249 254:251 255:249 256:241 257:215 258:199 259:255 260:255 261:255 262:255 263:147 264:79 265:39 266:17 267:28 268:64 269:106 270:146 271:181 272:214 273:230 274:236 275:240 276:237 277:210 278:193 279:255 280:255 281:255 282:255 283:145 284:75 285:35 286:14 287:25 288:60 289:94 290:125 291:147 292:170 293:183 294:193 295:216 296:226 297:198 298:182 299:255 300:255 301:255 302:255 303:144 304:73 305:31 306:10 307:18 308:45 309:71 310:93 311:108 312:118 313:129 314:148 315:180 316:194 317:169 318:167 319:255 320:255 321:255 322:255 323:146 324:74 325:32 326:9 327:9 328:24 329:42 330:57 331:64 332:73 333:91 334:119 335:147 336:156 337:137 338:149 339:255 340:255 341:255 342:255 343:151 344:83 345:44 346:19 347:10 348:15 349:24 350:30 351:31 352:43 353:66 354:97 355:125 356:133 357:111 358:128 359:255 360:255 361:255 362:255 363:161 364:101 365:68 366:46 367:35 368:33 369:35 370:31 371:30 372:40 373:61 374:86 375:107 376:107 377:82 378:106 379:255 380:255 381:255 382:255 383:173 384:120 385:95 386:80 387:72 388:68 389:64 390:57 391:55 392:63 393:75 394:88 395:94 396:83 397:58 398:92 399:255 400:255 
-2.598484312033452e-06 1:255 2:255 3:140 4:118 5:147 6:179 7:208 8:230 9:237 10:246 11:253 12:253 13:253 14:253 15:253 16:254 17:255 18:255 19:255 20:255 21:255 22:255 23:174 24:158 25:177 26:201 27:221 28:231 29:239 30:246 31:253 32:253 33:249 34:247 35:245 36:242 37:242 38:247 39:255 40:255 41:255 42:255 43:203 44:194 45:202 46:211 47:221 48:228 49:234 50:238 51:244 52:245 53:241 54:237 55:231 56:225 57:224 58:235 59:255 60:255 61:255 62:255 63:221 64:205 65:199 66:196 67:197 68:202 69:211 70:226 71:235 72:236 73:233 74:217 75:198 76:186 77:184 78:204 79:255 80:255 81:255 82:255 83:223 84:198 85:177 86:162 87:157 88:158 89:173 90:197 91:218 92:228 93:221 94:197 95:169 96:150 97:146 98:176 99:255 100:255 101:255 102:255 103:216 104:182 105:152 106:126 107:112 108:112 109:129 110:160 111:190 112:207 113:203 114:181 115:151 116:125 117:117 118:156 119:255 120:255 121:255 122:255 123:211 124:171 125:134 126:99 127:76 128:73 129:90 130:124 131:158 132:179 133:184 134:169 135:140 136:109 137:95 138:140 139:255 140:255 141:255 142:255 143:213 144:171 145:130 146:86 147:53 148:44 149:58 150:90 151:129 152:157 153:169 154:159 155:133 156:100 157:83 158:131 159:255 160:255 161:255 162:255 163:221 164:177 165:131 166:83 167:42 168:27 169:34 170:57 171:100 172:135 173:152 174:147 175:124 176:93 177:78 178:129 179:255 180:255 181:255 182:255 183:227 184:183 185:135 186:87 187:48 188:24 189:19 190:34 191:66 192:105 193:129 194:128 195:112 196:86 197:70 198:119 199:255 200:255 201:255 202:255 203:227 204:184 205:140 206:93 207:49 208:24 209:17 210:19 211:40 212:71 213:93 214:102 215:92 216:72 217:60 218:109 219:255 220:255 221:255 222:255 223:229 224:191 225:147 226:99 227:55 228:30 229:25 230:24 231:21 232:36 233:58 234:71 235:68 236:54 237:45 238:100 239:255 240:255 241:255 242:255 243:232 244:196 245:152 246:103 247:62 248:42 249:41 250:44 251:35 252:33 253:42 254:46 255:43 256:35 257:34 258:95 259:255 260:255 261:255 262:255 263:231 264:196 265:155 266:109 267:71 268:56 269:63 270:75 271:68 272:48 273:38 274:29 275:21 276:17 277:21 278:87 279:255 280:255 281:255 282:255 283:224 284:193 285:157 286:113 287:77 288:65 289:80 290:103 291:103 292:78 293:49 294:25 295:12 296:7 297:10 298:77 299:255 300:255 301:255 302:255 303:220 304:191 305:157 306:113 307:77 308:67 309:93 310:125 311:133 312:112 313:74 314:40 315:15 316:4 317:5 318:71 319:255 320:255 321:255 322:255 323:220 324:191 325:157 326:114 327:78 328:71 329:103 330:140 331:154 332:138 333:105 334:66 335:28 336:6 337:5 338:71 339:255 340:255 341:255 342:255 343:220 344:192 345:159 346:119 347:87 348:79 349:109 350:144 351:166 352:158 353:134 354:95 355:49 356:18 357:11 358:74 359:255 360:255 361:255 362:255 363:221 364:194 365:163 366:126 367:94 368:85 369:115 370:150 371:177 372:176 373:160 374:128 375:84 376:49 377:35 378:90 379:255 380:255 381:255 382:255 383:227 384:199 385:170 386:137 387:107 388:100 389:125 390:161 391:194 392:199 393:190 394:163 395:131 396:103 397:89 398:131 399:255 400:255 
-3.132537375718757e-05 1:255 2:255 3:192 4:186 5:206 6:221 7:230 8:233 9:235 10:239 11:240 12:245 13:251 14:254 15:254 16:253 17:247 18:243 19:255 20:255 21:255 22:255 23:224 24:216 25:214 26:211 27:207 28:201 29:197 30:198 31:207 32:224 33:238 34:247 35:252 36:251 37:248 38:246 39:255 40:255 41:255 42:255 43:236 44:224 45:204 46:181 47:163 48:147 49:139 50:141 51:153 52:176 53:201 54:225 55:241 56:247 57:248 58:248 59:255 60:255 61:255 62:255 63:236 64:211 65:178 66:143 67:113 68:94 69:87 70:91 71:99 72:123 73:154 74:190 75:221 76:239 77:247 78:250 79:255 80:255 81:255 82:255 83:228 84:187 85:143 86:101 87:67 88:50 89:52 90:60 91:62 92:79 93:107 94:146 95:189 96:222 97:241 98:250 99:255 100:255 101:255 102:255 103:212 104:158 105:107 106:64 107:41 108:44 109:57 110:64 111:60 112:52 113:67 114:103 115:151 116:197 117:230 118:246 119:255 120:255 121:255 122:255 123:195 124:129 125:75 126:42 127:46 128:77 129:98 130:102 131:85 132:52 133:41 134:67 135:114 136:168 137:213 138:240 139:255 140:255 141:255 142:255 143:181 144:107 145:50 146:39 147:74 148:116 149:142 150:145 151:119 152:76 153:32 154:37 155:82 156:141 157:194 158:233 159:255 160:255 161:255 162:255 163:164 164:88 165:39 166:46 167:97 168:143 169:175 170:179 171:150 172:97 173:37 174:19 175:59 176:125 177:184 178:229 179:255 180:255 181:255 182:255 183:153 184:68 185:29 186:52 187:113 188:164 189:196 190:205 191:174 192:118 193:46 194:12 195:44 196:113 197:178 198:226 199:255 200:255 201:255 202:255 203:148 204:63 205:28 206:56 207:122 208:173 209:208 210:221 211:191 212:131 213:60 214:15 215:40 216:109 217:176 218:226 219:255 220:255 221:255 222:255 223:148 224:63 225:31 226:60 227:122 228:174 229:210 230:223 231:197 232:140 233:77 234:22 235:40 236:105 237:169 238:223 239:255 240:255 241:255 242:255 243:151 244:71 245:34 246:53 247:111 248:166 249:206 250:223 251:193 252:139 253:79 254:24 255:39 256:101 257:164 258:219 259:255 260:255 261:255 262:255 263:155 264:80 265:38 266:46 267:97 268:149 269:190 270:208 271:179 272:129 273:70 274:24 275:43 276:105 277:165 278:216 279:255 280:255 281:255 282:255 283:163 284:91 285:39 286:33 287:76 288:126 289:163 290:177 291:154 292:110 293:52 294:22 295:55 296:118 297:172 298:215 299:255 300:255 301:255 302:255 303:177 304:105 305:44 306:20 307:47 308:94 309:125 310:134 311:114 312:78 313:31 314:29 315:74 316:134 317:179 318:213 319:255 320:255 321:255 322:255 323:192 324:126 325:65 326:22 327:20 328:52 329:78 330:87 331:69 332:43 333:24 334:51 335:101 336:151 337:181 338:204 339:255 340:255 341:255 342:255 343:209 344:154 345:101 346:50 347:18 348:21 349:40 350:50 351:38 352:30 353:45 354:84 355:132 356:168 357:178 358:190 359:255 360:255 361:255 362:255 363:232 364:191 365:143 366:98 367:64 368:45 369:39 370:46 371:47 372:62 373:91 374:125 375:159 376:176 377:166 378:172 379:255 380:255 381:255 382:255 383:243 384:224 385:189 386:150 387:120 388:101 389:92 390:96 391:102 392:114 393:139 394:165 395:177 396:169 397:141 398:146 399:255 400:255 
-1.641550538054605e-05 1:255 2:255 3:184 4:174 5:196 6:216 7:230 8:239 9:242 10:242 11:236 12:236 13:241 14:246 15:251 16:254 17:254 18:254 19:255 20:255 21:255 22:255 23:214 24:210 25:220 26:222 27:217 28:210 29:201 30:197 31:184 32:195 33:205 34:225 35:240 36:249 37:254 38:255 39:255 40:255 41:255 42:255 43:233 44:228 45:221 46:204 47:182 48:160 49:142 50:132 51:126 52:134 53:155 54:179 55:205 56:231 57:248 58:254 59:255 60:255 61:255 62:255 63:240 64:227 65:203 66:170 67:137 68:107 69:84 70:73 71:74 72:82 73:104 74:129 75:162 76:202 77:235 78:250 79:255 80:255 81:255 82:255 83:237 84:213 85:177 86:135 87:96 88:63 89:43 90:41 91:42 92:43 93:59 94:86 95:123 96:168 97:213 98:242 99:255 100:255 101:255 102:255 103:231 104:194 105:149 106:103 107:67 108:47 109:48 110:56 111:55 112:44 113:37 114:49 115:86 116:135 117:185 118:227 119:255 120:255 121:255 122:255 123:225 124:176 125:123 126:78 127:54 128:61 129:88 130:104 131:101 132:79 133:48 134:31 135:56 136:105 137:157 138:210 139:255 140:255 141:255 142:255 143:218 144:163 145:107 146:64 147:55 148:86 149:123 150:150 151:150 152:118 153:79 154:37 155:38 156:79 157:134 158:197 159:255 160:255 161:255 162:255 163:211 164:152 165:97 166:58 167:61 168:105 169:152 170:186 171:194 172:155 173:107 174:51 175:26 176:57 177:120 178:187 179:255 180:255 181:255 182:255 183:206 184:141 185:85 186:53 187:63 188:114 189:167 190:209 191:219 192:182 193:127 194:68 195:27 196:44 197:108 198:181 199:255 200:255 201:255 202:255 203:201 204:137 205:79 206:43 207:56 208:115 209:170 210:219 211:231 212:200 213:142 214:83 215:31 216:36 217:96 218:169 219:255 220:255 221:255 222:255 223:205 224:139 225:76 226:34 227:46 228:111 229:169 230:220 231:235 232:205 233:149 234:88 235:31 236:32 237:91 238:166 239:255 240:255 241:255 242:255 243:211 244:144 245:77 246:31 247:39 248:102 249:163 250:212 251:228 252:201 253:145 254:80 255:25 256:32 257:94 258:168 259:255 260:255 261:255 262:255 263:217 264:154 265:85 266:32 267:32 268:91 269:145 270:187 271:207 272:180 273:128 274:58 275:15 276:35 277:102 278:177 279:255 280:255 281:255 282:255 283:225 284:168 285:101 286:43 287:28 288:70 289:119 290:154 291:172 292:146 293:101 294:39 295:10 296:45 297:115 298:185 299:255 300:255 301:255 302:255 303:235 304:185 305:123 306:65 307:32 308:42 309:83 310:112 311:125 312:104 313:64 314:23 315:22 316:68 317:131 318:194 319:255 320:255 321:255 322:255 323:244 324:206 325:152 326:96 327:47 328:23 329:41 330:63 331:71 332:57 333:30 334:22 335:51 336:102 337:152 338:203 339:255 340:255 341:255 342:255 343:249 344:227 345:184 346:131 347:77 348:36 349:24 350:31 351:32 352:26 353:27 354:51 355:91 356:134 357:170 358:204 359:255 360:255 361:255 362:255 363:250 364:239 365:213 366:170 367:124 368:87 369:62 370:53 371:43 372:52 373:73 374:99 375:132 376:162 377:175 378:192 379:255 380:255 381:255 382:255 383:254 384:247 385:234 386:210 387:175 388:141 389:116 390:105 391:99 392:105 393:121 394:146 395:171 396:186 397:178 398:182 399:255 400:255 
-1.686405408700858e-05 1:255 2:255 3:182 4:168 5:193 6:217 7:231 8:240 9:243 10:243 11:236 12:236 13:238 14:245 15:252 16:255 17:255 18:255 19:255 20:255 21:255 22:255 23:214 24:208 25:218 26:222 27:217 28:210 29:200 30:192 31:184 32:194 33:205 34:222 35:238 36:247 37:252 38:255 39:255 40:255 41:255 42:255 43:233 44:225 45:220 46:205 47:183 48:161 49:138 50:128 51:124 52:134 53:155 54:178 55:208 56:233 57:248 58:255 59:255 60:255 61:255 62:255 63:240 64:226 65:203 66:171 67:138 68:107 69:84 70:72 71:71 72:82 73:104 74:130 75:164 76:204 77:236 78:252 79:255 80:255 81:255 82:255 83:239 84:214 85:177 86:135 87:96 88:63 89:39 90:39 91:39 92:44 93:60 94:86 95:123 96:169 97:214 98:243 99:255 100:255 101:255 102:255 103:234 104:196 105:150 106:104 107:66 108:43 109:43 110:54 111:52 112:45 113:38 114:51 115:86 116:135 117:185 118:228 119:255 120:255 121:255 122:255 123:227 124:179 125:126 126:80 127:53 128:56 129:88 130:104 131:101 132:80 133:49 134:32 135:57 136:106 137:157 138:210 139:255 140:255 141:255 142:255 143:220 144:166 145:110 146:65 147:55 148:87 149:125 150:153 151:150 152:119 153:80 154:37 155:38 156:80 157:135 158:197 159:255 160:255 161:255 162:255 163:211 164:152 165:97 166:59 167:61 168:106 169:156 170:191 171:192 172:154 173:107 174:53 175:28 176:58 177:120 178:186 179:255 180:255 181:255 182:255 183:205 184:141 185:86 186:53 187:63 188:116 189:166 190:203 191:212 192:176 193:128 194:74 195:31 196:42 197:105 198:180 199:255 200:255 201:255 202:255 203:201 204:138 205:80 206:44 207:56 208:112 209:169 210:212 211:226 212:198 213:146 214:85 215:32 216:37 217:96 218:170 219:255 220:255 221:255 222:255 223:206 224:142 225:77 226:38 227:51 228:110 229:169 230:218 231:234 232:206 233:152 234:90 235:32 236:32 237:88 238:164 239:255 240:255 241:255 242:255 243:210 244:145 245:77 246:32 247:41 248:102 249:164 250:212 251:232 252:203 253:149 254:83 255:28 256:32 257:90 258:166 259:255 260:255 261:255 262:255 263:217 264:154 265:85 266:31 267:31 268:91 269:147 270:193 271:211 272:182 273:131 274:64 275:19 276:35 277:98 278:175 279:255 280:255 281:255 282:255 283:225 284:169 285:102 286:41 287:26 288:70 289:118 290:159 291:175 292:147 293:103 294:42 295:14 296:47 297:114 298:183 299:255 300:255 301:255 302:255 303:236 304:186 305:124 306:65 307:31 308:42 309:81 310:113 311:126 312:105 313:66 314:23 315:23 316:71 317:134 318:195 319:255 320:255 321:255 322:255 323:245 324:205 325:151 326:95 327:47 328:24 329:42 330:64 331:72 332:56 333:29 334:19 335:50 336:103 337:155 338:207 339:255 340:255 341:255 342:255 343:248 344:225 345:180 346:127 347:76 348:38 349:24 350:30 351:34 352:23 353:23 354:46 355:87 356:134 357:172 358:207 359:255 360:255 361:255 362:255 363:250 364:239 365:210 366:167 367:124 368:86 369:59 370:44 371:44 372:52 373:72 374:98 375:129 376:159 377:177 378:198 379:255 380:255 381:255 382:255 383:251 384:247 385:235 386:210 387:175 388:139 389:111 390:102 391:101 392:104 393:118 394:143 395:162 396:175 397:174 398:181 399:255 400:255 
-3.59690694754051e-05 1:255 2:255 3:233 4:229 5:231 6:232 7:233 8:230 9:225 10:222 11:222 12:232 13:240 14:247 15:251 16:254 17:255 18:255 19:255 20:255 21:255 22:255 23:245 24:240 25:232 26:219 27:204 28:189 29:181 30:175 31:177 32:189 33:206 34:221 35:235 36:246 37:251 38:254 39:255 40:255 41:255 42:255 43:249 44:240 45:218 46:187 47:154 48:129 49:120 50:114 51:117 52:128 53:149 54:176 55:205 56:228 57:244 58:252 59:255 60:255 61:255 62:255 63:246 64:224 65:186 66:141 67:101 68:74 69:62 70:66 71:67 72:75 73:97 74:125 75:159 76:197 77:229 78:248 79:255 80:255 81:255 82:255 83:233 84:196 85:147 86:97 87:58 88:40 89:47 90:61 91:63 92:59 93:59 94:80 95:114 96:159 97:204 98:236 99:255 100:255 101:255 102:255 103:216 104:168 105:116 106:67 107:40 108:47 109:75 110:91 111:93 112:77 113:51 114:48 115:76 116:124 117:176 118:220 119:255 120:255 121:255 122:255 123:201 124:144 125:92 126:54 127:49 128:83 129:121 130:137 131:134 132:109 133:70 134:34 135:45 136:93 137:150 138:207 139:255 140:255 141:255 142:255 143:184 144:122 145:71 146:50 147:71 148:117 149:162 150:184 151:176 152:141 153:94 154:39 155:27 156:67 157:129 158:194 159:255 160:255 161:255 162:255 163:171 164:103 165:53 166:46 167:88 168:142 169:191 170:214 171:206 172:169 173:114 174:51 175:23 176:52 177:115 178:184 179:255 180:255 181:255 182:255 183:162 184:88 185:37 186:43 187:102 188:161 189:210 190:231 191:218 192:185 193:129 194:60 195:17 196:38 197:104 198:178 199:255 200:255 201:255 202:255 203:156 204:78 205:27 206:39 207:105 208:169 209:215 210:236 211:231 212:198 213:140 214:74 215:23 216:32 217:93 218:169 219:255 220:255 221:255 222:255 223:156 224:80 225:31 226:39 227:102 228:165 229:213 230:240 231:236 232:204 233:142 234:69 235:19 236:25 237:82 238:164 239:255 240:255 241:255 242:255 243:158 244:83 245:32 246:36 247:92 248:152 249:201 250:227 251:222 252:193 253:135 254:62 255:16 256:28 257:85 258:164 259:255 260:255 261:255 262:255 263:170 264:100 265:45 266:32 267:71 268:127 269:174 270:200 271:197 272:169 273:115 274:51 275:16 276:38 277:100 278:172 279:255 280:255 281:255 282:255 283:184 284:121 285:65 286:34 287:49 288:94 289:134 290:159 291:154 292:128 293:82 294:34 295:21 296:58 297:118 298:183 299:255 300:255 301:255 302:255 303:200 304:145 305:93 306:49 307:34 308:56 309:86 310:105 311:100 312:74 313:41 314:21 315:41 316:88 317:140 318:195 319:255 320:255 321:255 322:255 323:217 324:174 325:128 326:79 327:42 328:32 329:44 330:53 331:48 332:28 333:21 334:36 335:75 336:123 337:165 338:206 339:255 340:255 341:255 342:255 343:232 344:204 345:165 346:122 347:83 348:52 349:39 350:36 351:28 352:31 353:49 354:83 355:119 356:156 357:185 358:210 359:255 360:255 361:255 362:255 363:248 364:233 365:207 366:172 367:137 368:112 369:96 370:86 371:82 372:93 373:109 374:134 375:164 376:186 377:192 378:202 379:255 380:255 381:255 382:255 383:254 384:250 385:239 386:218 387:193 388:170 389:155 390:150 391:145 392:153 393:166 394:182 395:197 396:198 397:181 398:184 399:255 400:255 
-4.198731007673194e-06 1:255 2:255 3:125 4:95 5:123 6:156 7:188 8:216 9:231 10:237 11:237 12:237 13:239 14:244 15:248 16:248 17:237 18:228 19:255 20:255 21:255 22:255 23:150 24:129 25:148 26:171 27:194 28:209 29:221 30:221 31:215 32:224 33:235 34:241 35:249 36:253 37:246 38:239 39:255 40:255 41:255 42:255 43:181 44:161 45:168 46:176 47:183 48:189 49:195 50:195 51:193 52:205 53:222 54:237 55:249 56:254 57:252 58:249 59:255 60:255 61:255 62:255 63:205 64:179 65:166 66:159 67:156 68:154 69:156 70:156 71:160 72:169 73:193 74:218 75:237 76:248 77:252 78:253 79:255 80:255 81:255 82:255 83:214 84:177 85:148 86:129 87:119 88:114 89:113 90:113 91:119 92:128 93:153 94:177 95:204 96:226 97:241 98:251 99:255 100:255 101:255 102:255 103:211 104:165 105:128 106:98 107:77 108:68 109:68 110:68 111:75 112:85 113:110 114:131 115:160 116:194 117:223 118:243 119:255 120:255 121:255 122:255 123:205 124:156 125:113 126:71 127:39 128:29 129:33 130:36 131:41 132:47 133:67 134:89 135:119 136:158 137:198 138:231 139:255 140:255 141:255 142:255 143:198 144:147 145:102 146:53 147:17 148:15 149:31 150:41 151:41 152:33 153:34 154:53 155:87 156:127 157:171 158:219 159:255 160:255 161:255 162:255 163:192 164:141 165:95 166:46 167:17 168:27 169:58 170:77 171:77 172:57 173:32 174:32 175:65 176:112 177:158 178:209 179:255 180:255 181:255 182:255 183:191 184:138 185:88 186:41 187:20 188:41 189:85 190:105 191:105 192:89 193:52 194:29 195:51 196:99 197:147 198:200 199:255 200:255 201:255 202:255 203:190 204:140 205:95 206:47 207:21 208:44 209:92 210:114 211:115 212:98 213:61 214:35 215:52 216:94 217:143 218:200 219:255 220:255 221:255 222:255 223:187 224:139 225:96 226:47 227:20 228:41 229:86 230:107 231:109 232:92 233:57 234:40 235:62 236:104 237:150 238:203 239:255 240:255 241:255 242:255 243:187 244:139 245:96 246:44 247:12 248:27 249:65 250:87 251:88 252:68 253:46 254:47 255:76 256:118 257:163 258:211 259:255 260:255 261:255 262:255 263:187 264:140 265:97 266:42 267:6 268:11 269:33 270:55 271:57 272:48 273:48 274:67 275:97 276:135 277:176 278:216 279:255 280:255 281:255 282:255 283:187 284:141 285:98 286:42 287:4 288:4 289:17 290:40 291:50 292:52 293:70 294:94 295:122 296:158 297:194 298:225 299:255 300:255 301:255 302:255 303:188 304:142 305:98 306:42 307:5 308:9 309:32 310:60 311:75 312:83 313:107 314:128 315:155 316:185 317:210 318:232 319:255 320:255 321:255 322:255 323:192 324:145 325:99 326:44 327:10 328:23 329:65 330:96 331:117 332:127 333:150 334:169 335:190 336:208 337:218 338:230 339:255 340:255 341:255 342:255 343:196 344:149 345:103 346:49 347:19 348:42 349:92 350:125 351:158 352:171 353:194 354:208 355:217 356:223 357:221 358:225 359:255 360:255 361:255 362:255 363:196 364:154 365:111 366:62 367:37 368:61 369:109 370:152 371:192 372:212 373:229 374:236 375:234 376:228 377:216 378:216 379:255 380:255 381:255 382:255 383:200 384:159 385:119 386:78 387:56 388:71 389:115 390:159 391:208 392:236 393:248 394:245 395:240 396:229 397:210 398:209 399:255 400:255 
-1.671380729925832e-05 1:255 2:255 3:146 4:116 5:133 6:163 7:200 8:230 9:244 10:249 11:249 12:249 13:252 14:254 15:255 16:254 17:244 18:235 19:255 20:255 21:255 22:255 23:176 24:152 25:160 26:172 27:189 28:207 29:212 30:217 31:217 32:217 33:231 34:245 35:252 36:253 37:249 38:244 39:255 40:255 41:255 42:255 43:201 44:177 45:168 46:162 47:163 48:167 49:168 50:169 51:169 52:175 53:195 54:218 55:232 56:241 57:245 58:246 59:255 60:255 61:255 62:255 63:213 64:180 65:154 66:134 67:123 68:120 69:118 70:118 71:121 72:128 73:150 74:174 75:196 76:216 77:230 78:241 79:255 80:255 81:255 82:255 83:211 84:169 85:133 86:100 87:78 88:70 89:62 90:62 91:72 92:82 93:107 94:131 95:158 96:187 97:211 98:232 99:255 100:255 101:255 102:255 103:206 104:158 105:115 106:72 107:38 108:25 109:20 110:21 111:29 112:42 113:68 114:92 115:120 116:155 117:190 118:223 119:255 120:255 121:255 122:255 123:201 124:151 125:105 126:56 127:18 128:6 129:16 130:23 131:25 132:28 133:39 134:58 135:89 136:129 137:170 138:214 139:255 140:255 141:255 142:255 143:196 144:147 145:101 146:52 147:18 148:18 149:44 150:66 151:68 152:50 153:30 154:36 155:69 156:113 157:156 158:205 159:255 160:255 161:255 162:255 163:194 164:146 165:100 166:51 167:23 168:36 169:74 170:103 171:106 172:78 173:45 174:29 175:52 176:98 177:146 178:196 179:255 180:255 181:255 182:255 183:194 184:146 185:100 186:51 187:28 188:52 189:95 190:122 191:123 192:100 193:64 194:33 195:44 196:88 197:137 198:191 199:255 200:255 201:255 202:255 203:194 204:146 205:97 206:48 207:28 208:52 209:94 210:119 211:115 212:94 213:62 214:39 215:50 216:91 217:140 218:193 219:255 220:255 221:255 222:255 223:197 224:147 225:97 226:44 227:17 228:35 229:71 230:97 231:94 232:68 233:47 234:47 235:70 236:107 237:151 238:202 239:255 240:255 241:255 242:255 243:198 244:149 245:100 246:46 247:11 248:16 249:39 250:58 251:58 252:46 253:45 254:61 255:89 256:127 257:169 258:212 259:255 260:255 261:255 262:255 263:205 264:154 265:104 266:48 267:9 268:7 269:20 270:35 271:46 272:50 273:64 274:87 275:117 276:153 277:189 278:224 279:255 280:255 281:255 282:255 283:212 284:160 285:108 286:53 287:13 288:13 289:37 290:51 291:71 292:81 293:98 294:124 295:153 296:184 297:210 298:230 299:255 300:255 301:255 302:255 303:218 304:165 305:111 306:57 307:23 308:33 309:71 310:93 311:112 312:125 313:139 314:165 315:192 316:212 317:223 318:230 319:255 320:255 321:255 322:255 323:222 324:167 325:110 326:59 327:36 328:56 329:98 330:133 331:154 332:170 333:185 334:207 335:225 336:230 337:225 338:226 339:255 340:255 341:255 342:255 343:220 344:165 345:109 346:64 347:48 348:70 349:116 350:160 351:192 352:211 353:226 354:239 355:244 356:237 357:222 358:219 359:255 360:255 361:255 362:255 363:215 364:164 365:116 366:76 367:61 368:81 369:125 370:173 371:217 372:240 373:244 374:247 375:244 376:232 377:210 378:206 379:255 380:255 381:255 382:255 383:215 384:171 385:128 386:92 387:81 388:103 389:138 390:180 391:223 392:240 393:243 394:243 395:235 396:216 397:189 398:187 399:255 400:255 
-2.93815115600737e-06 1:255 2:255 3:226 4:213 5:212 6:216 7:224 8:235 9:245 10:253 11:255 12:255 13:254 14:250 15:246 16:245 17:248 18:251 19:255 20:255 21:255 22:255 23:228 24:204 25:181 26:171 27:179 28:201 29:229 30:248 31:253 32:251 33:242 34:225 35:208 36:206 37:221 38:240 39:255 40:255 41:255 42:255 43:218 44:177 45:140 46:118 47:128 48:164 49:205 50:239 51:248 52:243 53:217 54:181 55:150 56:146 57:172 58:212 59:255 60:255 61:255 62:255 63:204 64:150 65:108 66:85 67:91 68:128 69:183 70:230 71:244 72:236 73:191 74:136 75:103 76:101 77:130 78:189 79:255 80:255 81:255 82:255 83:195 84:136 85:90 86:62 87:66 88:109 89:169 90:224 91:240 92:226 93:173 94:113 95:75 96:75 97:109 98:175 99:255 100:255 101:255 102:255 103:193 104:131 105:80 106:46 107:51 108:101 109:161 110:217 111:236 112:216 113:163 114:106 115:61 116:59 117:101 118:170 119:255 120:255 121:255 122:255 123:193 124:129 125:73 126:37 127:44 128:95 129:154 130:212 131:231 132:208 133:156 134:98 135:51 136:51 137:97 138:168 139:255 140:255 141:255 142:255 143:193 144:126 145:67 146:30 147:39 148:90 149:150 150:207 151:225 152:200 153:148 154:90 155:45 156:49 157:96 158:166 159:255 160:255 161:255 162:255 163:194 164:127 165:67 166:30 167:37 168:86 169:146 170:202 171:226 172:200 173:138 174:80 175:40 176:46 177:94 178:165 179:255 180:255 181:255 182:255 183:199 184:133 185:70 186:30 187:37 188:86 189:147 190:209 191:231 192:201 193:139 194:77 195:35 196:38 197:83 198:157 199:255 200:255 201:255 202:255 203:203 204:135 205:72 206:32 207:37 208:86 209:147 210:209 211:234 212:211 213:153 214:87 215:38 216:35 217:76 218:153 219:255 220:255 221:255 222:255 223:199 224:133 225:72 226:32 227:37 228:86 229:147 230:209 231:231 232:212 233:154 234:87 235:31 236:26 237:74 238:153 239:255 240:255 241:255 242:255 243:199 244:133 245:72 246:32 247:37 248:84 249:138 250:197 251:222 252:196 253:136 254:76 255:25 256:23 257:74 258:153 259:255 260:255 261:255 262:255 263:202 264:136 265:75 266:35 267:33 268:69 269:117 270:169 271:185 272:167 273:114 274:57 275:18 276:27 277:80 278:156 279:255 280:255 281:255 282:255 283:209 284:145 285:84 286:40 287:26 288:48 289:88 290:122 291:131 292:119 293:81 294:40 295:19 296:42 297:97 298:168 299:255 300:255 301:255 302:255 303:219 304:163 305:103 306:52 307:22 308:23 309:50 310:69 311:75 312:65 313:44 314:28 315:33 316:66 317:119 318:182 319:255 320:255 321:255 322:255 323:228 324:186 325:131 326:78 327:37 328:15 329:22 330:32 331:34 332:30 333:27 334:37 335:61 336:99 337:144 338:196 339:255 340:255 341:255 342:255 343:235 344:207 345:164 346:120 347:79 348:45 349:35 350:34 351:35 352:39 353:49 354:75 355:103 356:138 357:172 358:206 359:255 360:255 361:255 362:255 363:242 364:229 365:204 366:169 367:131 368:102 369:93 370:86 371:90 372:96 373:102 374:123 375:150 376:171 377:178 378:195 379:255 380:255 381:255 382:255 383:247 384:241 385:236 386:218 387:188 388:163 389:154 390:145 391:145 392:154 393:161 394:174 395:187 396:183 397:165 398:177 399:255 400:255 
-1.525078101922635e-05 1:255 2:255 3:176 4:161 5:185 6:209 7:226 8:238 9:245 10:250 11:254 12:255 13:254 14:251 15:247 16:244 17:245 18:250 19:255 20:255 21:255 22:255 23:208 24:194 25:200 26:209 27:220 28:230 29:240 30:248 31:251 32:254 33:250 34:239 35:224 36:214 37:214 38:229 39:255 40:255 41:255 42:255 43:220 44:192 45:176 46:170 47:174 48:191 49:221 50:237 51:248 52:247 53:235 54:205 55:175 56:157 57:158 58:190 59:255 60:255 61:255 62:255 63:214 64:172 65:139 66:123 67:126 68:146 69:184 70:225 71:241 72:239 73:213 74:172 75:132 76:110 77:110 78:155 79:255 80:255 81:255 82:255 83:203 84:152 85:110 86:85 87:86 88:111 89:154 90:210 91:234 92:234 93:197 94:150 95:105 96:78 97:80 98:136 99:255 100:255 101:255 102:255 103:197 104:142 105:97 106:66 107:62 108:90 109:137 110:195 111:230 112:229 113:189 114:138 115:91 116:61 117:61 118:124 119:255 120:255 121:255 122:255 123:199 124:144 125:97 126:62 127:54 128:79 129:124 130:183 131:226 132:224 133:184 134:132 135:86 136:53 137:48 138:114 139:255 140:255 141:255 142:255 143:203 144:148 145:101 146:62 147:49 148:74 149:115 150:172 151:221 152:221 153:180 154:132 155:87 156:49 157:41 158:110 159:255 160:255 161:255 162:255 163:203 164:152 165:104 166:61 167:46 168:68 169:112 170:163 171:215 172:218 173:180 174:136 175:89 176:46 177:32 178:102 179:255 180:255 181:255 182:255 183:203 184:152 185:104 186:58 187:38 188:62 189:110 190:160 191:208 192:214 193:183 194:138 195:89 196:46 197:31 198:100 199:255 200:255 201:255 202:255 203:206 204:157 205:109 206:61 207:36 208:54 209:102 210:153 211:198 212:210 213:178 214:138 215:93 216:48 217:29 218:95 219:255 220:255 221:255 222:255 223:206 224:157 225:109 226:62 227:30 228:40 229:95 230:146 231:192 232:209 233:185 234:144 235:99 236:53 237:26 238:89 239:255 240:255 241:255 242:255 243:203 244:157 245:112 246:63 247:29 248:37 249:88 250:134 251:184 252:204 253:189 254:153 255:107 256:56 257:21 258:77 259:255 260:255 261:255 262:255 263:205 264:162 265:116 266:65 267:26 268:27 269:73 270:120 271:167 272:191 273:179 274:145 275:101 276:49 277:13 278:72 279:255 280:255 281:255 282:255 283:212 284:169 285:121 286:67 287:24 288:16 289:53 290:103 291:144 292:166 293:156 294:126 295:83 296:36 297:9 298:72 299:255 300:255 301:255 302:255 303:222 304:180 305:130 306:77 307:30 308:7 309:27 310:74 311:110 312:125 313:119 314:94 315:55 316:22 317:16 318:87 319:255 320:255 321:255 322:255 323:231 324:197 325:152 326:101 327:52 328:13 329:9 330:35 331:62 332:75 333:71 334:54 335:31 336:24 337:43 338:116 339:255 340:255 341:255 342:255 343:238 344:219 345:183 346:137 347:91 348:48 349:21 350:17 351:26 352:41 353:39 354:36 355:42 356:62 357:91 358:149 359:255 360:255 361:255 362:255 363:242 364:234 365:212 366:177 367:138 368:103 369:77 370:59 371:52 372:57 373:61 374:75 375:93 376:113 377:137 378:181 379:255 380:255 381:255 382:255 383:247 384:241 385:235 386:217 387:186 388:154 389:136 390:119 391:112 392:112 393:117 394:129 395:144 396:162 397:180 398:209 399:255 400:255 
