svm_type c_svc
kernel_type linear
nr_class 2
total_sv 16
rho 1.61251
label 12 -1
nr_sv 9 7
SV
2.62686242460826e-06 1:255 2:255 3:159 4:130 5:133 6:140 7:148 8:157 9:172 10:188 11:208 12:223 13:213 14:209 15:192 16:174 17:162 18:176 19:255 20:255 21:255 22:255 23:164 24:128 25:119 26:113 27:117 28:132 29:156 30:180 31:190 32:192 33:205 34:209 35:206 36:195 37:174 38:180 39:255 40:255 41:255 42:255 43:164 44:116 45:95 46:82 47:84 48:103 49:135 50:165 51:179 52:180 53:189 54:203 55:216 56:213 57:188 58:182 59:255 60:255 61:255 62:255 63:163 64:105 65:73 66:53 67:55 68:77 69:116 70:156 71:171 72:172 73:179 74:199 75:218 76:218 77:194 78:188 79:255 80:255 81:255 82:255 83:160 84:99 85:60 86:36 87:36 88:63 89:104 90:147 91:168 92:173 93:181 94:200 95:218 96:218 97:197 98:194 99:255 100:255 101:255 102:255 103:158 104:96 105:55 106:27 107:27 108:57 109:98 110:142 111:175 112:190 113:201 114:212 115:221 116:218 117:198 118:197 119:255 120:255 121:255 122:255 123:156 124:93 125:52 126:23 127:23 128:53 129:95 130:143 131:192 132:213 133:227 134:228 135:226 136:218 137:199 138:200 139:255 140:255 141:255 142:255 143:153 144:90 145:50 146:21 147:20 148:52 149:96 150:145 151:206 152:230 153:239 154:236 155:230 156:220 157:206 158:208 159:255 160:255 161:255 162:255 163:151 164:88 165:49 166:19 167:18 168:52 169:98 170:149 171:208 172:236 173:245 174:243 175:237 176:231 177:222 178:222 179:255 180:255 181:255 182:255 183:154 184:88 185:46 186:16 187:17 188:54 189:102 190:153 191:221 192:238 193:245 194:249 195:248 196:244 197:234 198:232 199:255 200:255 201:255 202:255 203:154 204:87 205:42 206:13 207:17 208:55 209:104 210:159 211:222 212:243 213:252 214:255 215:255 216:248 217:229 218:221 219:255 220:255 221:255 222:255 223:151 224:83 225:41 226:14 227:21 228:62 229:109 230:159 231:222 232:243 233:253 234:255 235:253 236:246 237:223 238:206 239:255 240:255 241:255 242:255 243:149 244:82 245:40 246:17 247:26 248:65 249:110 250:157 251:210 252:237 253:249 254:251 255:249 256:241 257:215 258:199 259:255 260:255 261:255 262:255 263:147 264:79 265:39 266:17 267:28 268:64 269:106 270:146 271:181 272:214 273:230 274:236 275:240 276:237 277:210 278:193 279:255 280:255 281:255 282:255 283:145 284:75 285:35 286:14 287:25 288:60 289:94 290:125 291:147 292:170 293:183 294:193 295:216 296:226 297:198 298:182 299:255 300:255 301:255 302:255 303:144 304:73 305:31 306:10 307:18 308:45 309:71 310:93 311:108 312:118 313:129 314:148 315:180 316:194 317:169 318:167 319:255 320:255 321:255 322:255 323:146 324:74 325:32 326:9 327:9 328:24 329:42 330:57 331:64 332:73 333:91 334:119 335:147 336:156 337:137 338:149 339:255 340:255 341:255 342:255 343:151 344:83 345:44 346:19 347:10 348:15 349:24 350:30 351:31 352:43 353:66 354:97 355:125 356:133 357:111 358:128 359:255 360:255 361:255 362:255 363:161 364:101 365:68 366:46 367:35 368:33 369:35 370:31 371:30 372:40 373:61 374:86 375:107 376:107 377:82 378:106 379:255 380:255 381:255 382:255 383:173 384:120 385:95 386:80 387:72 388:68 389:64 390:57 391:55 392:63 393:75 394:88 395:94 396:83 397:58 398:92 399:255 400:255 
3.05129595639323e-06 1:255 2:255 3:170 4:138 5:139 6:143 7:147 8:154 9:165 10:180 11:191 12:214 13:225 14:241 15:251 16:253 17:252 18:251 19:255 20:255 21:255 22:255 23:196 24:174 25:167 26:155 27:138 28:125 29:125 30:134 31:160 32:194 33:220 34:241 35:252 36:255 37:254 38:253 39:255 40:255 41:255 42:255 43:204 44:185 45:170 46:141 47:111 48:92 49:85 50:95 51:122 52:167 53:209 54:236 55:249 56:252 57:250 58:251 59:255 60:255 61:255 62:255 63:201 64:182 65:162 66:127 67:92 68:66 69:54 70:68 71:97 72:145 73:193 74:227 75:242 76:245 77:243 78:244 79:255 80:255 81:255 82:255 83:189 84:170 85:153 86:118 87:81 88:50 89:35 90:50 91:85 92:128 93:180 94:218 95:235 96:238 97:237 98:240 99:255 100:255 101:255 102:255 103:173 104:157 105:145 106:112 107:75 108:43 109:27 110:41 111:77 112:117 113:171 114:211 115:232 116:238 117:238 118:242 119:255 120:255 121:255 122:255 123:160 124:147 125:141 126:109 127:74 128:41 129:25 130:37 131:72 132:113 133:168 134:207 135:230 136:242 137:244 138:247 139:255 140:255 141:255 142:255 143:154 144:143 145:140 146:110 147:74 148:41 149:24 150:36 151:70 152:110 153:165 154:203 155:225 156:239 157:246 158:249 159:255 160:255 161:255 162:255 163:152 164:140 165:142 166:114 167:76 168:41 169:23 170:35 171:67 172:107 173:158 174:193 175:216 176:229 177:236 178:244 179:255 180:255 181:255 182:255 183:152 184:143 185:145 186:118 187:80 188:43 189:22 190:31 191:63 192:102 193:149 194:187 195:210 196:222 197:229 198:240 199:255 200:255 201:255 202:255 203:155 204:148 205:151 206:121 207:80 208:43 209:19 210:28 211:62 212:98 213:145 214:180 215:201 216:214 217:223 218:234 219:255 220:255 221:255 222:255 223:170 224:160 225:156 226:125 227:82 228:42 229:16 230:24 231:59 232:96 233:140 234:176 235:196 236:206 237:213 238:228 239:255 240:255 241:255 242:255 243:187 244:175 245:163 246:128 247:84 248:43 249:15 250:20 251:56 252:92 253:132 254:168 255:187 256:195 257:201 258:218 259:255 260:255 261:255 262:255 263:204 264:188 265:172 266:133 267:86 268:44 269:11 270:13 271:45 272:81 273:113 274:141 275:158 276:169 277:178 278:201 279:255 280:255 281:255 282:255 283:216 284:199 285:179 286:138 287:88 288:47 289:11 290:8 291:29 292:61 293:85 294:103 295:117 296:127 297:138 298:174 299:255 300:255 301:255 302:255 303:223 304:206 305:184 306:141 307:91 308:49 309:13 310:4 311:13 312:33 313:51 314:62 315:73 316:84 317:98 318:147 319:255 320:255 321:255 322:255 323:227 324:210 325:186 326:144 327:94 328:53 329:17 330:3 331:3 332:9 333:20 334:27 335:37 336:52 337:71 338:129 339:255 340:255 341:255 342:255 343:227 344:210 345:188 346:149 347:103 348:65 349:33 350:14 351:10 352:10 353:13 354:17 355:25 356:39 357:57 358:117 359:255 360:255 361:255 362:255 363:228 364:211 365:195 366:164 367:126 368:94 369:66 370:48 371:40 372:37 373:39 374:41 375:45 376:54 377:64 378:115 379:255 380:255 381:255 382:255 383:234 384:221 385:206 386:186 387:160 388:126 389:104 390:92 391:84 392:82 393:80 394:79 395:79 396:78 397:73 398:115 399:255 400:255 
6.111876144152192e-08 1:255 2:255 3:164 4:138 5:140 6:137 7:130 8:122 9:122 10:135 11:160 12:189 13:201 14:203 15:203 16:205 17:210 18:226 19:255 20:255 21:255 22:255 23:176 24:150 25:145 26:130 27:108 28:91 29:89 30:103 31:127 32:160 33:188 34:195 35:200 36:208 37:215 38:226 39:255 40:255 41:255 42:255 43:183 44:156 45:141 46:117 47:90 48:67 49:60 50:74 51:102 52:140 53:178 54:198 55:209 56:216 57:221 58:229 59:255 60:255 61:255 62:255 63:191 64:166 65:144 66:110 67:78 68:50 69:38 70:50 71:84 72:123 73:172 74:206 75:221 76:226 77:227 78:234 79:255 80:255 81:255 82:255 83:200 84:179 85:154 86:113 87:74 88:42 89:25 90:38 91:74 92:114 93:170 94:212 95:233 96:238 97:236 98:238 99:255 100:255 101:255 102:255 103:203 104:186 105:162 106:119 107:77 108:41 109:20 110:31 111:66 112:109 113:165 114:214 115:241 116:249 117:245 118:243 119:255 120:255 121:255 122:255 123:200 124:185 125:163 126:123 127:81 128:43 129:19 130:26 131:60 132:104 133:155 134:211 135:244 136:254 137:251 138:247 139:255 140:255 141:255 142:255 143:194 144:182 145:163 146:125 147:85 148:46 149:19 150:20 151:54 152:97 153:146 154:204 155:241 156:253 157:251 158:249 159:255 160:255 161:255 162:255 163:191 164:181 165:166 166:130 167:91 168:50 169:19 170:16 171:49 172:92 173:141 174:198 175:234 176:249 177:254 178:254 179:255 180:255 181:255 182:255 183:191 184:186 185:174 186:137 187:97 188:55 189:21 190:14 191:45 192:88 193:138 194:193 195:231 196:249 197:254 198:254 199:255 200:255 201:255 202:255 203:191 204:191 205:184 206:145 207:100 208:60 209:24 210:13 211:39 212:82 213:131 214:191 215:231 216:249 217:254 218:255 219:255 220:255 221:255 222:255 223:185 224:191 225:189 226:149 227:103 228:62 229:26 230:13 231:37 232:78 233:127 234:177 235:216 236:234 237:240 238:248 239:255 240:255 241:255 242:255 243:182 244:188 245:188 246:152 247:107 248:65 249:28 250:10 251:35 252:72 253:111 254:146 255:176 256:193 257:203 258:224 259:255 260:255 261:255 262:255 263:177 264:181 265:189 266:157 267:110 268:68 269:31 270:7 271:26 272:59 273:86 274:111 275:129 276:138 277:147 278:182 279:255 280:255 281:255 282:255 283:176 284:182 285:194 286:165 287:116 288:71 289:32 290:5 291:12 292:37 293:57 294:73 295:83 296:90 297:101 298:149 299:255 300:255 301:255 302:255 303:183 304:192 305:204 306:175 307:125 308:77 309:36 310:4 311:3 312:15 313:28 314:38 315:46 316:54 317:68 318:127 319:255 320:255 321:255 322:255 323:197 324:206 325:216 326:187 327:136 328:89 329:48 330:15 331:5 332:6 333:13 334:21 335:29 336:38 337:52 338:116 339:255 340:255 341:255 342:255 343:213 344:222 345:229 346:204 347:156 348:104 349:67 350:40 351:23 352:23 353:27 354:33 355:41 356:49 357:60 358:117 359:255 360:255 361:255 362:255 363:227 364:236 365:240 366:222 367:183 368:129 369:93 370:74 371:62 372:61 373:65 374:69 375:74 376:78 377:80 378:125 379:255 380:255 381:255 382:255 383:236 384:246 385:249 386:234 387:203 388:160 389:131 390:113 391:103 392:102 393:105 394:107 395:108 396:104 397:95 398:129 399:255 400:255 
8.787917771730696e-07 1:255 2:255 3:153 4:126 5:136 6:149 7:167 8:187 9:193 10:196 11:204 12:211 13:222 14:225 15:225 16:225 17:220 18:223 19:255 20:255 21:255 22:255 23:175 24:149 25:148 26:145 27:143 28:146 29:156 30:165 31:187 32:197 33:205 34:212 35:214 36:222 37:229 38:231 39:255 40:255 41:255 42:255 43:181 44:152 45:138 46:123 47:112 48:108 49:114 50:126 51:156 52:177 53:191 54:202 55:209 56:221 57:232 58:237 59:255 60:255 61:255 62:255 63:183 64:147 65:125 66:101 67:80 68:71 69:81 70:100 71:128 72:156 73:181 74:198 75:208 76:221 77:233 78:239 79:255 80:255 81:255 82:255 83:187 84:144 85:116 86:87 87:62 88:49 89:59 90:81 91:108 92:141 93:175 94:200 95:217 96:230 97:236 98:239 99:255 100:255 101:255 102:255 103:192 104:148 105:115 106:82 107:53 108:37 109:43 110:66 111:98 112:133 113:173 114:206 115:228 116:239 117:240 118:242 119:255 120:255 121:255 122:255 123:198 124:154 125:119 126:82 127:49 128:29 129:32 130:55 131:93 132:128 133:172 134:211 135:234 136:243 137:244 138:245 139:255 140:255 141:255 142:255 143:201 144:157 145:121 146:84 147:49 148:25 149:27 150:52 151:90 152:123 153:171 154:211 155:234 156:245 157:247 158:247 159:255 160:255 161:255 162:255 163:195 164:158 165:126 166:89 167:53 168:26 169:26 170:50 171:87 172:119 173:169 174:210 175:234 176:245 177:250 178:251 179:255 180:255 181:255 182:255 183:195 184:161 185:129 186:92 187:58 188:32 189:25 190:48 191:85 192:118 193:162 194:208 195:235 196:247 197:253 198:254 199:255 200:255 201:255 202:255 203:202 204:164 205:129 206:92 207:57 208:28 209:21 210:42 211:81 212:117 213:162 214:208 215:238 216:251 217:254 218:255 219:255 220:255 221:255 222:255 223:207 224:169 225:132 226:94 227:58 228:28 229:20 230:42 231:81 232:114 233:156 234:198 235:233 236:251 237:254 238:255 239:255 240:255 241:255 242:255 243:210 244:175 245:139 246:99 247:62 248:31 249:24 250:46 251:81 252:114 253:155 254:192 255:223 256:243 257:250 258:252 259:255 260:255 261:255 262:255 263:209 264:176 265:142 266:103 267:68 268:37 269:25 270:41 271:73 272:107 273:144 274:174 275:197 276:212 277:225 278:239 279:255 280:255 281:255 282:255 283:208 284:176 285:143 286:107 287:71 288:38 289:17 290:27 291:57 292:90 293:118 294:138 295:152 296:165 297:179 298:206 299:255 300:255 301:255 302:255 303:209 304:179 305:147 306:110 307:73 308:35 309:9 310:12 311:32 312:59 313:78 314:91 315:101 316:113 317:128 318:167 319:255 320:255 321:255 322:255 323:213 324:186 325:153 326:114 327:74 328:34 329:7 330:4 331:9 332:25 333:35 334:45 335:55 336:68 337:87 338:141 339:255 340:255 341:255 342:255 343:221 344:195 345:161 346:121 347:82 348:43 349:12 350:4 351:3 352:5 353:9 354:16 355:26 356:41 357:64 358:127 359:255 360:255 361:255 362:255 363:234 364:206 365:173 366:135 367:97 368:62 369:31 370:18 371:13 372:17 373:20 374:26 375:36 376:49 377:66 378:124 379:255 380:255 381:255 382:255 383:245 384:217 385:184 386:151 387:121 388:94 389:74 390:66 391:59 392:59 393:64 394:69 395:75 396:82 397:89 398:134 399:255 400:255 
3.062499620407025e-07 1:255 2:255 3:127 4:86 5:95 6:110 7:135 8:164 9:182 10:190 11:181 12:180 13:188 14:191 15:191 16:186 17:174 18:186 19:255 20:255 21:255 22:255 23:151 24:117 25:118 26:127 27:143 28:158 29:166 30:172 31:180 32:188 33:204 34:219 35:216 36:200 37:182 38:189 39:255 40:255 41:255 42:255 43:170 44:137 45:124 46:113 47:112 48:118 49:132 50:159 51:170 52:201 53:226 54:231 55:220 56:210 57:196 58:197 59:255 60:255 61:255 62:255 63:178 64:144 65:117 66:91 67:79 68:80 69:94 70:129 71:163 72:205 73:228 74:231 75:227 76:218 77:203 78:204 79:255 80:255 81:255 82:255 83:178 84:137 85:104 86:71 87:55 88:54 89:71 90:105 91:156 92:194 93:215 94:220 95:220 96:216 97:209 98:216 99:255 100:255 101:255 102:255 103:174 104:129 105:94 106:60 107:41 108:39 109:60 110:94 111:148 112:181 113:206 114:212 115:212 116:216 117:220 118:229 119:255 120:255 121:255 122:255 123:173 124:126 125:91 126:57 127:35 128:34 129:55 130:89 131:141 132:175 133:204 134:216 135:218 136:225 137:233 138:239 139:255 140:255 141:255 142:255 143:172 144:123 145:89 146:56 147:34 148:33 149:54 150:87 151:136 152:174 153:207 154:227 155:233 156:238 157:242 158:245 159:255 160:255 161:255 162:255 163:168 164:119 165:86 166:55 167:33 168:31 169:53 170:87 171:136 172:172 173:215 174:236 175:245 176:249 177:250 178:249 179:255 180:255 181:255 182:255 183:168 184:118 185:85 186:53 187:29 188:25 189:48 190:87 191:136 192:164 193:202 194:235 195:249 196:252 197:253 198:252 199:255 200:255 201:255 202:255 203:159 204:113 205:84 206:50 207:25 208:22 209:48 210:87 211:136 212:173 213:217 214:241 215:251 216:254 217:255 218:254 219:255 220:255 221:255 222:255 223:159 224:113 225:83 226:48 227:21 228:19 229:54 230:89 231:142 232:183 233:226 234:244 235:248 236:250 237:250 238:250 239:255 240:255 241:255 242:255 243:166 244:116 245:83 246:48 247:22 248:23 249:57 250:95 251:150 252:199 253:232 254:241 255:242 256:242 257:240 258:239 259:255 260:255 261:255 262:255 263:171 264:118 265:81 266:46 267:24 268:27 269:58 270:96 271:148 272:185 273:223 274:233 275:233 276:233 277:228 278:227 279:255 280:255 281:255 282:255 283:173 284:118 285:79 286:45 287:25 288:28 289:55 290:87 291:129 292:163 293:194 294:206 295:220 296:232 297:227 298:223 299:255 300:255 301:255 302:255 303:171 304:114 305:76 306:41 307:19 308:21 309:47 310:73 311:100 312:130 313:151 314:168 315:190 316:213 317:219 318:216 319:255 320:255 321:255 322:255 323:165 324:108 325:73 326:37 327:12 328:10 329:29 330:54 331:68 332:87 333:103 334:124 335:145 336:172 337:190 338:199 339:255 340:255 341:255 342:255 343:163 344:108 345:74 346:39 347:13 348:4 349:8 350:24 351:33 352:47 353:59 354:78 355:104 356:134 357:151 358:174 359:255 360:255 361:255 362:255 363:175 364:119 365:83 366:51 367:23 368:6 369:4 370:6 371:8 372:18 373:33 374:54 375:78 376:103 377:115 378:145 379:255 380:255 381:255 382:255 383:183 384:131 385:95 386:66 387:45 388:29 389:19 390:15 391:15 392:15 393:28 394:46 395:67 396:88 397:95 398:127 399:255 400:255 
3.14943426397522e-08 1:255 2:255 3:124 4:80 5:87 6:103 7:124 8:149 9:179 10:199 11:208 12:223 13:226 14:226 15:226 16:226 17:220 18:221 19:255 20:255 21:255 22:255 23:142 24:107 25:114 26:122 27:130 28:143 29:156 30:180 31:191 32:209 33:212 34:212 35:219 36:226 37:225 38:231 39:255 40:255 41:255 42:255 43:159 44:128 45:127 46:125 47:121 48:116 49:117 50:131 51:151 52:179 53:197 54:201 55:208 56:219 57:227 58:236 59:255 60:255 61:255 62:255 63:168 64:140 65:132 66:117 67:101 68:88 69:82 70:90 71:115 72:147 73:178 74:194 75:204 76:218 77:231 78:240 79:255 80:255 81:255 82:255 83:175 84:146 85:131 86:107 87:84 88:65 89:54 90:64 91:90 92:125 93:166 94:191 95:209 96:224 97:233 98:242 99:255 100:255 101:255 102:255 103:182 104:152 105:133 106:104 107:74 108:49 109:35 110:48 111:76 112:113 113:157 114:191 115:217 116:231 117:235 118:242 119:255 120:255 121:255 122:255 123:189 124:163 125:141 126:106 127:71 128:41 129:26 130:39 131:70 132:105 133:150 134:197 135:225 136:237 137:240 138:244 139:255 140:255 141:255 142:255 143:196 144:177 145:150 146:110 147:73 148:41 149:23 150:34 151:65 152:100 153:149 154:204 155:234 156:243 157:246 158:248 159:255 160:255 161:255 162:255 163:194 164:178 165:154 166:113 167:75 168:43 169:22 170:31 171:62 172:97 173:147 174:203 175:236 176:247 177:250 178:252 179:255 180:255 181:255 182:255 183:186 184:172 185:153 186:113 187:76 188:42 189:17 190:26 191:60 192:93 193:139 194:200 195:236 196:247 197:251 198:254 199:255 200:255 201:255 202:255 203:195 204:176 205:156 206:119 207:80 208:46 209:16 210:18 211:54 212:91 213:139 214:200 215:236 216:247 217:251 218:254 219:255 220:255 221:255 222:255 223:204 224:187 225:163 226:122 227:83 228:49 229:16 230:18 231:52 232:90 233:139 234:200 235:236 236:249 237:254 238:255 239:255 240:255 241:255 242:255 243:206 244:193 245:171 246:129 247:87 248:50 249:19 250:13 251:49 252:87 253:135 254:191 255:231 256:248 257:252 258:254 259:255 260:255 261:255 262:255 263:202 264:193 265:177 266:135 267:90 268:52 269:19 270:12 271:46 272:83 273:129 274:177 275:218 276:239 277:243 278:246 279:255 280:255 281:255 282:255 283:192 284:185 285:177 286:139 287:95 288:56 289:24 290:12 291:42 292:76 293:113 294:146 295:173 296:190 297:200 298:219 299:255 300:255 301:255 302:255 303:186 304:180 305:178 306:144 307:98 308:59 309:27 310:10 311:32 312:62 313:87 314:105 315:118 316:129 317:143 318:180 319:255 320:255 321:255 322:255 323:189 324:184 325:183 326:148 327:99 328:61 329:27 330:7 331:17 332:40 333:57 334:67 335:75 336:85 337:98 338:146 339:255 340:255 341:255 342:255 343:198 344:193 345:188 346:150 347:103 348:65 349:30 350:5 351:4 352:15 353:26 354:33 355:42 356:54 357:69 358:125 359:255 360:255 361:255 362:255 363:208 364:205 365:196 366:157 367:110 368:72 369:37 370:9 371:5 372:8 373:10 374:16 375:26 376:38 377:55 378:117 379:255 380:255 381:255 382:255 383:221 384:220 385:211 386:172 387:124 388:86 389:58 390:34 391:25 392:29 393:32 394:35 395:39 396:50 397:65 398:119 399:255 400:255 
2.397807341619188e-06 1:255 2:255 3:137 4:93 5:97 6:109 7:119 8:130 9:146 10:163 11:191 12:207 13:216 14:220 15:226 16:236 17:238 18:237 19:255 20:255 21:255 22:255 23:160 24:131 25:131 26:127 27:120 28:113 29:117 30:128 31:157 32:183 33:205 34:216 35:225 36:236 37:238 38:237 39:255 40:255 41:255 42:255 43:174 44:151 45:145 46:125 47:100 48:83 49:79 50:90 51:122 52:154 53:188 54:211 55:225 56:236 57:238 58:237 59:255 60:255 61:255 62:255 63:181 64:163 65:152 66:118 67:81 68:58 69:49 70:63 71:93 72:134 73:172 74:202 75:223 76:236 77:238 78:237 79:255 80:255 81:255 82:255 83:188 84:169 85:154 86:115 87:73 88:46 89:33 90:45 91:78 92:122 93:162 94:200 95:227 96:240 97:241 98:241 99:255 100:255 101:255 102:255 103:194 104:173 105:156 106:117 107:73 108:41 109:26 110:37 111:72 112:118 113:164 114:207 115:236 116:246 117:246 118:246 119:255 120:255 121:255 122:255 123:200 124:180 125:160 126:121 127:78 128:42 129:23 130:34 131:69 132:118 133:171 134:218 135:244 136:252 137:251 138:250 139:255 140:255 141:255 142:255 143:210 144:187 145:164 146:125 147:82 148:45 149:22 150:31 151:67 152:116 153:176 154:224 155:248 156:254 157:255 158:255 159:255 160:255 161:255 162:255 163:215 164:189 165:164 166:126 167:83 168:46 169:22 170:30 171:61 172:110 173:172 174:221 175:244 176:251 177:254 178:254 179:255 180:255 181:255 182:255 183:215 184:190 185:164 186:127 187:86 188:50 189:22 190:29 191:57 192:102 193:155 194:203 195:234 196:247 197:250 198:251 199:255 200:255 201:255 202:255 203:221 204:203 205:177 206:136 207:94 208:55 209:27 210:23 211:52 212:92 213:144 214:192 215:222 216:236 217:243 218:248 219:255 220:255 221:255 222:255 223:226 224:207 225:183 226:146 227:101 228:59 229:27 230:16 231:41 232:80 233:131 234:178 235:209 236:222 237:230 238:245 239:255 240:255 241:255 242:255 243:227 244:211 245:190 246:152 247:106 248:62 249:29 250:14 251:34 252:70 253:113 254:149 255:176 256:193 257:206 258:227 259:255 260:255 261:255 262:255 263:219 264:209 265:194 266:160 267:115 268:66 269:33 270:12 271:25 272:56 273:86 274:111 275:129 276:144 277:158 278:191 279:255 280:255 281:255 282:255 283:202 284:201 285:201 286:171 287:123 288:72 289:37 290:11 291:12 292:36 293:54 294:72 295:84 296:94 297:106 298:151 299:255 300:255 301:255 302:255 303:182 304:187 305:202 306:179 307:131 308:81 309:42 310:11 311:4 312:14 313:23 314:34 315:45 316:54 317:66 318:123 319:255 320:255 321:255 322:255 323:162 324:166 325:194 326:182 327:139 328:91 329:51 330:16 331:3 332:3 333:6 334:11 335:20 336:31 337:47 338:113 339:255 340:255 341:255 342:255 343:149 344:149 345:185 346:183 347:147 348:104 349:64 350:35 351:17 352:15 353:16 354:20 355:26 356:37 357:53 358:115 359:255 360:255 361:255 362:255 363:152 364:147 365:179 366:184 367:159 368:124 369:88 370:67 371:55 372:51 373:52 374:57 375:63 376:70 377:79 378:128 379:255 380:255 381:255 382:255 383:164 384:158 385:183 386:188 387:174 388:151 389:127 390:109 391:99 392:91 393:96 394:98 395:99 396:105 397:111 398:149 399:255 400:255 
3.452494804621392e-09 1:255 2:255 3:147 4:111 5:116 6:123 7:134 8:161 9:200 10:226 11:226 12:226 13:226 14:216 15:202 16:178 17:149 18:163 19:255 20:255 21:255 22:255 23:160 24:129 25:127 26:124 27:123 28:127 29:139 30:163 31:198 32:211 33:213 34:203 35:185 36:172 37:164 38:179 39:255 40:255 41:255 42:255 43:173 44:141 45:129 46:111 47:95 48:88 49:96 50:122 51:153 52:192 53:199 54:185 55:174 56:179 57:182 58:190 59:255 60:255 61:255 62:255 63:180 64:142 65:120 66:95 67:72 68:61 69:69 70:92 71:127 72:172 73:191 74:190 75:187 76:190 77:187 78:192 79:255 80:255 81:255 82:255 83:188 84:147 85:116 86:84 87:56 88:41 89:48 90:78 91:114 92:157 93:194 94:198 95:195 96:195 97:191 98:202 99:255 100:255 101:255 102:255 103:200 104:158 105:119 106:79 107:47 108:28 109:37 110:72 111:107 112:156 113:208 114:214 115:205 116:199 117:195 118:210 119:255 120:255 121:255 122:255 123:214 124:168 125:121 126:78 127:43 128:23 129:35 130:67 131:103 132:161 133:223 134:236 135:224 136:209 137:201 138:214 139:255 140:255 141:255 142:255 143:219 144:168 145:119 146:76 147:41 148:20 149:33 150:64 151:102 152:161 153:228 154:247 155:237 156:224 157:217 158:225 159:255 160:255 161:255 162:255 163:212 164:162 165:114 166:73 167:40 168:19 169:29 170:64 171:102 172:161 173:227 174:246 175:242 176:237 177:233 178:233 179:255 180:255 181:255 182:255 183:223 184:172 185:118 186:74 187:39 188:17 189:29 190:65 191:104 192:162 193:221 194:244 195:242 196:237 197:233 198:233 199:255 200:255 201:255 202:255 203:233 204:181 205:124 206:76 207:38 208:17 209:30 210:69 211:109 212:181 213:226 214:247 215:249 216:242 217:228 218:223 219:255 220:255 221:255 222:255 223:240 224:185 225:124 226:76 227:37 228:17 229:34 230:72 231:116 232:195 233:236 234:251 235:253 236:241 237:217 238:212 239:255 240:255 241:255 242:255 243:235 244:179 245:122 246:75 247:36 248:17 249:35 250:74 251:118 252:197 253:241 254:254 255:253 256:244 257:221 258:210 259:255 260:255 261:255 262:255 263:226 264:169 265:116 266:72 267:34 268:16 269:35 270:73 271:118 272:197 273:239 274:249 275:249 276:240 277:221 278:218 279:255 280:255 281:255 282:255 283:222 284:165 285:112 286:68 287:32 288:13 289:29 290:68 291:108 292:159 293:187 294:197 295:198 296:203 297:207 298:215 299:255 300:255 301:255 302:255 303:227 304:168 305:111 306:65 307:29 308:10 309:19 310:52 311:86 312:105 313:117 314:127 315:137 316:154 317:171 318:192 319:255 320:255 321:255 322:255 323:236 324:174 325:113 326:67 327:30 328:7 329:9 330:27 331:54 332:61 333:68 334:82 335:99 336:120 337:133 338:162 339:255 340:255 341:255 342:255 343:244 344:185 345:121 346:74 347:38 348:10 349:2 350:8 351:23 352:27 353:38 354:55 355:74 356:97 357:111 358:142 359:255 360:255 361:255 362:255 363:253 364:205 365:139 366:87 367:54 368:27 369:9 370:8 371:12 372:16 373:23 374:40 375:63 376:84 377:91 378:124 379:255 380:255 381:255 382:255 383:255 384:236 385:170 386:105 387:73 388:55 389:46 390:38 391:38 392:35 393:37 394:50 395:66 396:76 397:74 398:114 399:255 400:255 
3.314073456087463e-07 1:255 2:255 3:128 4:93 5:116 6:139 7:156 8:176 9:193 10:193 11:193 12:205 13:220 14:213 15:207 16:201 17:189 18:200 19:255 20:255 21:255 22:255 23:150 24:122 25:133 26:143 27:151 28:161 29:175 30:183 31:192 32:205 33:209 34:208 35:207 36:206 37:200 38:207 39:255 40:255 41:255 42:255 43:162 44:133 45:132 46:126 47:123 48:129 49:146 50:163 51:183 52:195 53:197 54:197 55:202 56:213 57:219 58:226 59:255 60:255 61:255 62:255 63:167 64:130 65:114 66:100 67:94 68:95 69:112 70:138 71:163 72:176 73:183 74:190 75:201 76:215 77:224 78:232 79:255 80:255 81:255 82:255 83:169 84:122 85:95 86:75 87:66 88:67 89:85 90:115 91:147 92:167 93:178 94:189 95:201 96:215 97:224 98:232 99:255 100:255 101:255 102:255 103:170 104:117 105:84 106:56 107:41 108:45 109:69 110:101 111:140 112:170 113:188 114:202 115:211 116:219 117:224 118:232 119:255 120:255 121:255 122:255 123:173 124:118 125:81 126:48 127:26 128:29 129:59 130:93 131:134 132:174 133:205 134:222 135:227 136:227 137:227 138:234 139:255 140:255 141:255 142:255 143:176 144:119 145:81 146:48 147:25 148:25 149:56 150:89 151:125 152:171 153:214 154:233 155:237 156:237 157:236 158:239 159:255 160:255 161:255 162:255 163:180 164:121 165:81 166:48 167:25 168:24 169:52 170:87 171:118 172:162 173:217 174:243 175:249 176:249 177:243 178:239 179:255 180:255 181:255 182:255 183:180 184:123 185:82 186:48 187:23 188:21 189:51 190:86 191:118 192:162 193:217 194:243 195:249 196:249 197:244 198:239 199:255 200:255 201:255 202:255 203:180 204:128 205:88 206:47 207:17 208:14 209:44 210:80 211:118 212:162 213:211 214:240 215:249 216:249 217:249 218:250 219:255 220:255 221:255 222:255 223:180 224:128 225:88 226:49 227:21 228:16 229:43 230:80 231:123 232:171 233:213 234:240 235:251 236:253 237:252 238:251 239:255 240:255 241:255 242:255 243:182 244:129 245:89 246:52 247:25 248:20 249:48 250:80 251:119 252:165 253:216 254:245 255:254 256:254 257:254 258:253 259:255 260:255 261:255 262:255 263:182 264:129 265:90 266:55 267:28 268:21 269:49 270:80 271:114 272:155 273:211 274:242 275:251 276:251 277:251 278:252 279:255 280:255 281:255 282:255 283:187 284:136 285:93 286:55 287:26 288:18 289:43 290:74 291:106 292:144 293:183 294:206 295:215 296:222 297:229 298:240 299:255 300:255 301:255 302:255 303:191 304:141 305:98 306:57 307:25 308:12 309:31 310:63 311:95 312:119 313:137 314:147 315:157 316:170 317:188 318:217 319:255 320:255 321:255 322:255 323:191 324:142 325:101 326:62 327:28 328:8 329:18 330:47 331:74 332:82 333:88 334:94 335:105 336:119 337:141 338:189 339:255 340:255 341:255 342:255 343:193 344:145 345:106 346:68 347:32 348:6 349:8 350:24 351:41 352:46 353:49 354:56 355:69 356:85 357:107 358:162 359:255 360:255 361:255 362:255 363:202 364:154 365:111 366:73 367:39 368:12 369:5 370:9 371:14 372:19 373:24 374:38 375:50 376:69 377:91 378:140 379:255 380:255 381:255 382:255 383:219 384:169 385:120 386:82 387:56 388:39 389:23 390:23 391:23 392:31 393:41 394:46 395:52 396:70 397:87 398:131 399:255 400:255 
-9.126194367288054e-07 1:255 2:255 3:227 4:217 5:213 6:203 7:190 8:183 9:184 10:193 11:206 12:225 13:236 14:245 15:251 16:253 17:246 18:239 19:255 20:255 21:255 22:255 23:236 24:220 25:202 26:180 27:160 28:150 29:148 30:155 31:170 32:195 33:222 34:240 35:250 36:254 37:251 38:246 39:255 40:255 41:255 42:255 43:238 44:214 45:187 46:158 47:130 48:110 49:103 50:113 51:138 52:167 53:202 54:232 55:248 56:254 57:253 58:250 59:255 60:255 61:255 62:255 63:236 64:207 65:175 66:140 67:102 68:68 69:52 70:68 71:103 72:143 73:181 74:218 75:241 76:249 77:249 78:249 79:255 80:255 81:255 82:255 83:229 84:197 85:161 86:121 87:75 88:32 89:16 90:30 91:73 92:121 93:162 94:202 95:231 96:245 97:247 98:246 99:255 100:255 101:255 102:255 103:222 104:184 105:147 106:104 107:54 108:13 109:4 110:10 111:50 112:101 113:146 114:187 115:219 116:239 117:243 118:243 119:255 120:255 121:255 122:255 123:216 124:174 125:134 126:88 127:42 128:14 129:12 130:12 131:34 132:81 133:131 134:172 135:207 136:231 137:239 138:241 139:255 140:255 141:255 142:255 143:207 144:165 145:122 146:73 147:38 148:32 149:37 150:31 151:29 152:66 153:117 154:160 155:196 156:224 157:235 158:239 159:255 160:255 161:255 162:255 163:198 164:152 165:106 166:61 167:44 168:60 169:73 170:62 171:35 172:56 173:104 174:149 175:187 176:217 177:231 178:237 179:255 180:255 181:255 182:255 183:192 184:140 185:91 186:50 187:48 188:84 189:103 190:84 191:46 192:43 193:87 194:137 195:178 196:210 197:228 198:234 199:255 200:255 201:255 202:255 203:183 204:128 205:77 206:44 207:55 208:93 209:112 210:94 211:50 212:24 213:60 214:117 215:166 216:202 217:221 218:230 219:255 220:255 221:255 222:255 223:173 224:112 225:59 226:30 227:44 228:78 229:96 230:83 231:43 232:16 233:48 234:103 235:152 236:190 237:209 238:221 239:255 240:255 241:255 242:255 243:164 244:96 245:45 246:17 247:26 248:52 249:69 250:57 251:24 252:8 253:34 254:87 255:138 256:174 257:191 258:207 259:255 260:255 261:255 262:255 263:154 264:83 265:38 266:16 267:22 268:38 269:49 270:37 271:14 272:4 273:20 274:68 275:120 276:157 277:173 278:193 279:255 280:255 281:255 282:255 283:141 284:71 285:40 286:36 287:50 288:62 289:66 290:55 291:34 292:14 293:16 294:55 295:104 296:142 297:157 298:179 299:255 300:255 301:255 302:255 303:133 304:67 305:55 306:71 307:95 308:107 309:109 310:100 311:78 312:44 313:26 314:49 315:92 316:127 317:138 318:164 319:255 320:255 321:255 322:255 323:137 324:81 325:83 326:109 327:135 328:147 329:149 330:143 331:123 332:88 333:54 334:58 335:87 336:112 337:116 338:144 339:255 340:255 341:255 342:255 343:156 344:112 345:120 346:144 347:166 348:179 349:181 350:175 351:155 352:128 353:97 354:86 355:93 356:101 357:94 358:122 359:255 360:255 361:255 362:255 363:179 364:150 365:157 366:172 367:190 368:204 369:208 370:198 371:181 372:159 373:136 374:121 375:108 376:92 377:68 378:98 379:255 380:255 381:255 382:255 383:205 384:183 385:187 386:200 387:214 388:221 389:219 390:210 391:200 392:180 393:162 394:137 395:109 396:79 397:44 398:77 399:255 400:255 
-8.418594221420096e-07 1:255 2:255 3:182 4:166 5:180 6:195 7:206 8:210 9:211 10:218 11:227 12:243 13:253 14:255 15:245 16:218 17:186 18:191 19:255 20:255 21:255 22:255 23:204 24:195 25:200 26:199 27:195 28:189 29:185 30:193 31:203 32:226 33:247 34:252 35:244 36:224 37:198 38:198 39:255 40:255 41:255 42:255 43:227 44:220 45:210 46:192 47:175 48:163 49:155 50:162 51:175 52:194 53:219 54:240 55:242 56:231 57:213 58:210 59:255 60:255 61:255 62:255 63:239 64:225 65:202 66:174 67:150 68:131 69:122 70:127 71:142 72:165 73:193 74:226 75:244 76:243 77:230 78:223 79:255 80:255 81:255 82:255 83:242 84:218 85:188 86:156 87:125 88:97 89:84 90:87 91:107 92:139 93:172 94:211 95:239 96:247 97:240 98:235 99:255 100:255 101:255 102:255 103:238 104:208 105:175 106:141 107:103 108:68 109:48 110:46 111:74 112:117 113:153 114:191 115:223 116:239 117:239 118:238 119:255 120:255 121:255 122:255 123:232 124:198 125:163 126:126 127:86 128:48 129:23 130:19 131:49 132:95 133:136 134:173 135:207 136:230 137:235 138:237 139:255 140:255 141:255 142:255 143:225 144:188 145:152 146:113 147:70 148:34 149:12 150:13 151:32 152:75 153:120 154:160 155:197 156:226 157:239 158:243 159:255 160:255 161:255 162:255 163:216 164:178 165:142 166:100 167:57 168:28 169:21 170:20 171:22 172:63 173:108 174:150 175:189 176:226 177:247 178:249 179:255 180:255 181:255 182:255 183:210 184:167 185:130 186:88 187:49 188:37 189:50 190:45 191:32 192:50 193:98 194:142 195:180 196:223 197:252 198:253 199:255 200:255 201:255 202:255 203:205 204:159 205:117 206:74 207:51 208:59 209:76 210:72 211:45 212:44 213:84 214:128 215:169 216:215 217:249 218:255 219:255 220:255 221:255 222:255 223:198 224:150 225:103 226:58 227:45 228:73 229:95 230:89 231:54 232:36 233:69 234:116 235:158 236:201 237:238 238:253 239:255 240:255 241:255 242:255 243:191 244:138 245:91 246:50 247:44 248:76 249:98 250:92 251:56 252:25 253:52 254:101 255:145 256:187 257:226 258:249 259:255 260:255 261:255 262:255 263:182 264:125 265:78 266:39 267:33 268:62 269:81 270:75 271:45 272:17 273:40 274:87 275:133 276:173 277:207 278:231 279:255 280:255 281:255 282:255 283:172 284:113 285:64 286:25 287:16 288:34 289:50 290:46 291:24 292:8 293:25 294:70 295:119 296:160 297:187 298:212 299:255 300:255 301:255 302:255 303:163 304:100 305:52 306:18 307:10 308:20 309:34 310:33 311:14 312:4 313:13 314:55 315:106 316:146 317:169 318:196 319:255 320:255 321:255 322:255 323:154 324:86 325:45 326:28 327:34 328:46 329:55 330:53 331:35 332:18 333:12 334:44 335:91 336:132 337:153 338:180 339:255 340:255 341:255 342:255 343:148 344:79 345:54 346:59 347:81 348:96 349:101 350:96 351:81 352:53 353:26 354:39 355:78 356:117 357:136 358:166 359:255 360:255 361:255 362:255 363:147 364:90 365:81 366:97 367:121 368:136 369:141 370:137 371:121 372:91 373:60 374:55 375:79 376:108 377:120 378:150 379:255 380:255 381:255 382:255 383:159 384:115 385:112 386:128 387:149 388:163 389:170 390:166 391:147 392:126 393:98 394:83 395:89 396:102 397:103 398:134 399:255 400:255 
-1.717549850521983e-07 1:255 2:255 3:124 4:94 5:117 6:149 7:186 8:223 9:247 10:255 11:252 12:252 13:254 14:253 15:248 16:231 17:206 18:206 19:255 20:255 21:255 22:255 23:152 24:134 25:153 26:175 27:198 28:209 29:213 30:214 31:214 32:209 33:218 34:237 35:249 36:246 37:233 38:229 39:255 40:255 41:255 42:255 43:183 44:172 45:185 46:190 47:187 48:178 49:170 50:164 51:157 52:155 53:165 54:185 55:215 56:238 57:243 58:244 59:255 60:255 61:255 62:255 63:207 64:193 65:190 66:179 67:161 68:141 69:126 70:113 71:104 72:106 73:115 74:131 75:162 76:196 77:220 78:238 79:255 80:255 81:255 82:255 83:217 84:197 85:179 86:153 87:127 88:103 89:83 90:71 91:62 92:68 93:74 94:87 95:114 96:151 97:187 98:221 99:255 100:255 101:255 102:255 103:219 104:188 105:156 106:122 107:91 108:67 109:43 110:38 111:39 112:51 113:55 114:64 115:89 116:126 117:166 118:209 119:255 120:255 121:255 122:255 123:212 124:168 125:128 126:91 127:60 128:35 129:21 130:26 131:42 132:59 133:67 134:72 135:90 136:123 137:163 138:209 139:255 140:255 141:255 142:255 143:195 144:142 145:102 146:66 147:34 148:17 149:25 150:47 151:72 152:87 153:99 154:104 155:115 156:139 157:175 158:217 159:255 160:255 161:255 162:255 163:183 164:124 165:79 166:40 167:16 168:19 169:44 170:75 171:108 172:122 173:134 174:143 175:153 176:170 177:194 178:227 179:255 180:255 181:255 182:255 183:176 184:116 185:69 186:29 187:12 188:28 189:66 190:105 191:139 192:161 193:171 194:179 195:191 196:206 197:222 198:239 199:255 200:255 201:255 202:255 203:171 204:108 205:58 206:19 207:9 208:33 209:78 210:122 211:162 212:194 213:209 214:220 215:224 216:228 217:232 218:239 219:255 220:255 221:255 222:255 223:165 224:100 225:51 226:16 227:10 228:41 229:94 230:142 231:183 232:217 233:236 234:242 235:237 236:237 237:245 238:251 239:255 240:255 241:255 242:255 243:164 244:99 245:50 246:16 247:13 248:45 249:97 250:143 251:187 252:225 253:246 254:247 255:236 256:236 257:248 258:254 259:255 260:255 261:255 262:255 263:167 264:102 265:54 266:19 267:12 268:39 269:86 270:130 271:175 272:221 273:237 274:235 275:225 276:227 277:243 278:254 279:255 280:255 281:255 282:255 283:176 284:112 285:63 286:24 287:11 288:31 289:72 290:115 291:157 292:195 293:207 294:202 295:196 296:202 297:222 298:242 299:255 300:255 301:255 302:255 303:185 304:124 305:75 306:33 307:11 308:21 309:54 310:92 311:130 312:154 313:165 314:158 315:152 316:163 317:186 318:216 319:255 320:255 321:255 322:255 323:194 324:138 325:90 326:48 327:17 328:11 329:31 330:61 331:94 332:112 333:120 334:112 335:107 336:120 337:147 338:189 339:255 340:255 341:255 342:255 343:212 344:159 345:113 346:73 347:37 348:12 349:13 350:34 351:57 352:72 353:77 354:72 355:73 356:90 357:120 358:171 359:255 360:255 361:255 362:255 363:235 364:188 365:140 366:97 367:58 368:28 369:18 370:20 371:31 372:41 373:45 374:51 375:59 376:80 377:106 378:154 379:255 380:255 381:255 382:255 383:248 384:214 385:168 386:126 387:91 388:64 389:50 390:35 391:32 392:37 393:43 394:51 395:63 396:85 397:106 398:149 399:255 400:255 
-6.213633459695166e-07 1:255 2:255 3:161 4:143 5:170 6:202 7:224 8:232 9:232 10:232 11:234 12:232 13:227 14:222 15:220 16:210 17:184 18:182 19:255 20:255 21:255 22:255 23:184 24:174 25:196 26:210 27:209 28:200 29:189 30:184 31:185 32:184 33:188 34:197 35:207 36:211 37:197 38:195 39:255 40:255 41:255 42:255 43:206 44:195 45:202 46:196 47:180 48:163 49:148 50:141 51:138 52:140 53:146 54:160 55:180 56:198 57:201 58:206 59:255 60:255 61:255 62:255 63:216 64:199 65:186 66:167 67:145 68:122 69:104 70:96 71:90 72:95 73:102 74:121 75:145 76:173 77:193 78:211 79:255 80:255 81:255 82:255 83:213 84:183 85:159 86:132 87:104 88:80 89:59 90:51 91:52 92:61 93:70 94:89 95:117 96:153 97:186 98:216 99:255 100:255 101:255 102:255 103:201 104:160 105:128 106:95 107:65 108:44 109:31 110:31 111:45 112:56 113:65 114:77 115:105 116:145 117:186 118:223 119:255 120:255 121:255 122:255 123:186 124:137 125:98 126:61 127:36 128:25 129:30 130:48 131:69 132:80 133:84 134:92 135:115 136:151 137:194 138:232 139:255 140:255 141:255 142:255 143:172 144:113 145:71 146:36 147:18 148:26 149:51 150:85 151:106 152:115 153:118 154:128 155:145 156:175 157:211 158:239 159:255 160:255 161:255 162:255 163:163 164:96 165:48 166:17 167:14 168:37 169:80 170:118 171:147 172:156 173:163 174:171 175:189 176:216 177:236 178:244 179:255 180:255 181:255 182:255 183:152 184:79 185:32 186:6 187:14 188:51 189:100 190:148 191:183 192:201 193:207 194:220 195:234 196:244 197:247 198:247 199:255 200:255 201:255 202:255 203:141 204:68 205:24 206:6 207:24 208:65 209:118 210:168 211:216 212:230 213:236 214:244 215:251 216:254 217:251 218:247 219:255 220:255 221:255 222:255 223:136 224:60 225:24 226:11 227:29 228:73 229:126 230:174 231:222 232:243 233:250 234:252 235:253 236:253 237:250 238:247 239:255 240:255 241:255 242:255 243:135 244:59 245:24 246:12 247:30 248:73 249:123 250:166 251:212 252:237 253:248 254:250 255:248 256:246 257:244 258:244 259:255 260:255 261:255 262:255 263:138 264:65 265:26 266:11 267:24 268:62 269:112 270:155 271:193 272:222 273:229 274:230 275:231 276:234 277:234 278:236 279:255 280:255 281:255 282:255 283:147 284:76 285:33 286:10 287:15 288:47 289:96 290:139 291:169 292:187 293:188 294:186 295:188 296:199 297:211 298:223 299:255 300:255 301:255 302:255 303:157 304:90 305:45 306:15 307:11 308:33 309:72 310:110 311:135 312:145 313:142 314:135 315:139 316:159 317:181 318:205 319:255 320:255 321:255 322:255 323:167 324:107 325:65 326:31 327:16 328:21 329:43 330:71 331:95 332:104 333:100 334:94 335:104 336:130 337:153 338:184 339:255 340:255 341:255 342:255 343:179 344:128 345:92 346:56 347:29 348:18 349:22 350:39 351:58 352:63 353:60 354:64 355:80 356:109 357:131 358:163 359:255 360:255 361:255 362:255 363:195 364:156 365:123 366:87 367:56 368:32 369:25 370:30 371:34 372:38 373:40 374:53 375:75 376:102 377:115 378:147 379:255 380:255 381:255 382:255 383:209 384:180 385:155 386:122 387:91 388:70 389:52 390:49 391:49 392:51 393:55 394:70 395:88 396:103 397:103 398:131 399:255 400:255 
-3.232156137011076e-06 1:255 2:255 3:192 4:165 5:162 6:165 7:168 8:169 9:170 10:162 11:162 12:167 13:171 14:180 15:200 16:218 17:218 18:222 19:255 20:255 21:255 22:255 23:192 24:151 25:133 26:124 27:120 28:118 29:117 30:113 31:113 32:113 33:122 34:138 35:164 36:189 37:204 38:222 39:255 40:255 41:255 42:255 43:183 44:129 45:98 46:80 47:74 48:72 49:68 50:67 51:64 52:67 53:80 54:103 55:137 56:173 57:198 58:222 59:255 60:255 61:255 62:255 63:175 64:117 65:80 66:57 67:45 68:33 69:27 70:27 71:28 72:38 73:57 74:86 75:124 76:165 77:197 78:222 79:255 80:255 81:255 82:255 83:180 84:124 85:87 86:61 87:42 88:23 89:9 90:8 91:17 92:36 93:60 94:90 95:132 96:176 97:207 98:227 99:255 100:255 101:255 102:255 103:191 104:145 105:114 106:87 107:60 108:32 109:9 110:5 111:28 112:56 113:85 114:116 115:156 116:195 117:218 118:230 119:255 120:255 121:255 122:255 123:204 124:170 125:147 126:121 127:86 128:45 129:13 130:8 131:47 132:83 133:120 134:151 135:183 136:211 137:226 138:232 139:255 140:255 141:255 142:255 143:220 144:194 145:173 146:145 147:104 148:56 149:20 150:13 151:57 152:105 153:149 154:180 155:205 156:226 157:235 158:239 159:255 160:255 161:255 162:255 163:237 164:220 165:195 166:159 167:115 168:67 169:33 170:22 171:64 172:118 173:165 174:201 175:222 176:235 177:245 178:251 179:255 180:255 181:255 182:255 183:251 184:236 185:210 186:170 187:121 188:71 189:34 190:33 191:71 192:123 193:171 194:209 195:230 196:242 197:251 198:253 199:255 200:255 201:255 202:255 203:251 204:240 205:214 206:173 207:123 208:70 209:30 210:25 211:70 212:127 213:179 214:220 215:243 216:252 217:253 218:251 219:255 220:255 221:255 222:255 223:251 224:240 225:216 226:178 227:130 228:78 229:37 230:32 231:71 232:127 233:182 234:225 235:248 236:255 237:251 238:246 239:255 240:255 241:255 242:255 243:252 244:244 245:222 246:183 247:131 248:79 249:39 250:36 251:72 252:125 253:180 254:222 255:245 256:251 257:246 258:241 259:255 260:255 261:255 262:255 263:247 264:234 265:211 266:173 267:123 268:74 269:35 270:29 271:68 272:121 273:170 274:207 275:228 276:239 277:239 278:237 279:255 280:255 281:255 282:255 283:237 284:214 285:185 286:149 287:106 288:61 289:27 290:21 291:58 292:104 293:144 294:176 295:199 296:219 297:226 298:228 299:255 300:255 301:255 302:255 303:223 304:187 305:150 306:113 307:78 308:43 309:15 310:13 311:43 312:76 313:107 314:136 315:164 316:191 317:203 318:211 319:255 320:255 321:255 322:255 323:210 324:161 325:116 326:77 327:49 328:26 329:6 330:5 331:23 332:47 333:69 334:98 335:131 336:163 337:177 338:188 339:255 340:255 341:255 342:255 343:202 344:147 345:98 346:60 347:36 348:20 349:10 350:9 351:18 352:32 353:48 354:76 355:111 356:144 357:154 358:168 359:255 360:255 361:255 362:255 363:204 364:152 365:106 366:72 367:55 368:48 369:39 370:40 371:47 372:52 373:63 374:83 375:110 376:131 377:133 378:152 379:255 380:255 381:255 382:255 383:215 384:171 385:136 386:110 387:94 388:88 389:84 390:89 391:89 392:93 393:98 394:107 395:119 396:120 397:109 398:137 399:255 400:255 
-2.611042905500041e-06 1:255 2:255 3:164 4:160 5:189 6:214 7:234 8:246 9:243 10:228 11:228 12:228 13:242 14:246 15:240 16:226 17:201 18:194 19:255 20:255 21:255 22:255 23:192 24:184 25:199 26:211 27:218 28:217 29:208 30:203 31:203 32:209 33:226 34:241 35:245 36:239 37:217 38:206 39:255 40:255 41:255 42:255 43:206 44:192 45:192 46:188 47:180 48:169 49:162 50:158 51:158 52:177 53:199 54:223 55:243 56:250 57:235 58:221 59:255 60:255 61:255 62:255 63:204 64:180 65:165 66:144 67:125 68:114 69:108 70:106 71:109 72:129 73:165 74:199 75:228 76:247 77:243 78:231 79:255 80:255 81:255 82:255 83:193 84:152 85:123 86:96 87:76 88:66 89:63 90:64 91:70 92:89 93:133 94:176 95:213 96:239 97:242 98:235 99:255 100:255 101:255 102:255 103:177 104:120 105:84 106:58 107:48 108:50 109:55 110:57 111:63 112:82 113:121 114:165 115:208 116:236 117:243 118:241 119:255 120:255 121:255 122:255 123:158 124:93 125:55 126:38 127:46 128:67 129:80 130:89 131:94 132:108 133:137 134:174 135:212 136:239 137:248 138:250 139:255 140:255 141:255 142:255 143:145 144:72 145:38 146:34 147:56 148:87 149:110 150:129 151:140 152:147 153:168 154:194 155:223 156:245 157:254 158:254 159:255 160:255 161:255 162:255 163:139 164:65 165:32 166:28 167:51 168:89 169:118 170:145 171:164 172:175 173:188 174:207 175:231 176:249 177:254 178:254 179:255 180:255 181:255 182:255 183:144 184:69 185:31 186:19 187:33 188:61 189:91 190:117 191:145 192:165 193:181 194:204 195:225 196:243 197:250 198:248 199:255 200:255 201:255 202:255 203:161 204:91 205:44 206:16 207:11 208:22 209:40 210:70 211:99 212:122 213:155 214:184 215:213 216:239 217:247 218:240 219:255 220:255 221:255 222:255 223:186 224:122 225:76 226:42 227:22 228:17 229:20 230:30 231:45 232:70 233:103 234:149 235:191 236:223 237:235 238:236 239:255 240:255 241:255 242:255 243:207 244:160 245:122 246:89 247:64 248:45 249:30 250:23 251:16 252:34 253:64 254:111 255:163 256:207 257:226 258:227 259:255 260:255 261:255 262:255 263:217 264:184 265:159 266:135 267:111 268:88 269:67 270:37 271:10 272:12 273:34 274:81 275:140 276:190 277:211 278:217 279:255 280:255 281:255 282:255 283:213 284:184 285:170 286:157 287:140 288:120 289:95 290:58 291:18 292:5 293:17 294:62 295:123 296:174 297:192 298:204 299:255 300:255 301:255 302:255 303:199 304:160 305:146 306:142 307:137 308:123 309:99 310:64 311:22 312:5 313:13 314:55 315:115 316:163 317:176 318:186 319:255 320:255 321:255 322:255 323:178 324:127 325:108 326:103 327:103 328:97 329:78 330:47 331:14 332:4 333:18 334:64 335:119 336:157 337:158 338:165 339:255 340:255 341:255 342:255 343:161 344:105 345:80 346:67 347:63 348:58 349:44 350:24 351:11 352:12 353:40 354:87 355:131 356:151 357:138 358:148 359:255 360:255 361:255 362:255 363:160 364:103 365:73 366:54 367:44 368:35 369:31 370:23 371:30 372:44 373:81 374:120 375:145 376:145 377:117 378:130 379:255 380:255 381:255 382:255 383:177 384:125 385:99 386:79 387:64 388:59 389:55 390:61 391:74 392:95 393:123 394:144 395:147 396:126 397:88 398:109 399:255 400:255 
-1.297684173925444e-06 1:255 2:255 3:176 4:161 5:185 6:209 7:226 8:238 9:245 10:250 11:254 12:255 13:254 14:251 15:247 16:244 17:245 18:250 19:255 20:255 21:255 22:255 23:208 24:194 25:200 26:209 27:220 28:230 29:240 30:248 31:251 32:254 33:250 34:239 35:224 36:214 37:214 38:229 39:255 40:255 41:255 42:255 43:220 44:192 45:176 46:170 47:174 48:191 49:221 50:237 51:248 52:247 53:235 54:205 55:175 56:157 57:158 58:190 59:255 60:255 61:255 62:255 63:214 64:172 65:139 66:123 67:126 68:146 69:184 70:225 71:241 72:239 73:213 74:172 75:132 76:110 77:110 78:155 79:255 80:255 81:255 82:255 83:203 84:152 85:110 86:85 87:86 88:111 89:154 90:210 91:234 92:234 93:197 94:150 95:105 96:78 97:80 98:136 99:255 100:255 101:255 102:255 103:197 104:142 105:97 106:66 107:62 108:90 109:137 110:195 111:230 112:229 113:189 114:138 115:91 116:61 117:61 118:124 119:255 120:255 121:255 122:255 123:199 124:144 125:97 126:62 127:54 128:79 129:124 130:183 131:226 132:224 133:184 134:132 135:86 136:53 137:48 138:114 139:255 140:255 141:255 142:255 143:203 144:148 145:101 146:62 147:49 148:74 149:115 150:172 151:221 152:221 153:180 154:132 155:87 156:49 157:41 158:110 159:255 160:255 161:255 162:255 163:203 164:152 165:104 166:61 167:46 168:68 169:112 170:163 171:215 172:218 173:180 174:136 175:89 176:46 177:32 178:102 179:255 180:255 181:255 182:255 183:203 184:152 185:104 186:58 187:38 188:62 189:110 190:160 191:208 192:214 193:183 194:138 195:89 196:46 197:31 198:100 199:255 200:255 201:255 202:255 203:206 204:157 205:109 206:61 207:36 208:54 209:102 210:153 211:198 212:210 213:178 214:138 215:93 216:48 217:29 218:95 219:255 220:255 221:255 222:255 223:206 224:157 225:109 226:62 227:30 228:40 229:95 230:146 231:192 232:209 233:185 234:144 235:99 236:53 237:26 238:89 239:255 240:255 241:255 242:255 243:203 244:157 245:112 246:63 247:29 248:37 249:88 250:134 251:184 252:204 253:189 254:153 255:107 256:56 257:21 258:77 259:255 260:255 261:255 262:255 263:205 264:162 265:116 266:65 267:26 268:27 269:73 270:120 271:167 272:191 273:179 274:145 275:101 276:49 277:13 278:72 279:255 280:255 281:255 282:255 283:212 284:169 285:121 286:67 287:24 288:16 289:53 290:103 291:144 292:166 293:156 294:126 295:83 296:36 297:9 298:72 299:255 300:255 301:255 302:255 303:222 304:180 305:130 306:77 307:30 308:7 309:27 310:74 311:110 312:125 313:119 314:94 315:55 316:22 317:16 318:87 319:255 320:255 321:255 322:255 323:231 324:197 325:152 326:101 327:52 328:13 329:9 330:35 331:62 332:75 333:71 334:54 335:31 336:24 337:43 338:116 339:255 340:255 341:255 342:255 343:238 344:219 345:183 346:137 347:91 348:48 349:21 350:17 351:26 352:41 353:39 354:36 355:42 356:62 357:91 358:149 359:255 360:255 361:255 362:255 363:242 364:234 365:212 366:177 367:138 368:103 369:77 370:59 371:52 372:57 373:61 374:75 375:93 376:113 377:137 378:181 379:255 380:255 381:255 382:255 383:247 384:241 385:235 386:217 387:186 388:154 389:136 390:119 391:112 392:112 393:117 394:129 395:144 396:162 397:180 398:209 399:255 400:255 
