svm_type c_svc
kernel_type linear
nr_class 2
total_sv 28
rho 5.91532
label 2 -1
nr_sv 9 19
SV
1.531311587050996e-06 1:255 2:255 3:221 4:206 5:204 6:204 7:206 8:208 9:210 10:211 11:217 12:226 13:236 14:248 15:255 16:255 17:246 18:236 19:255 20:255 21:255 22:255 23:214 24:184 25:170 26:164 27:162 28:165 29:167 30:172 31:180 32:199 33:217 34:232 35:245 36:252 37:247 38:241 39:255 40:255 41:255 42:255 43:202 44:157 45:128 46:112 47:109 48:111 49:115 50:120 51:132 52:154 53:184 54:211 55:231 56:244 57:246 58:242 59:255 60:255 61:255 62:255 63:193 64:136 65:91 66:68 67:72 68:84 69:87 70:87 71:91 72:109 73:146 74:188 75:218 76:237 77:246 78:246 79:255 80:255 81:255 82:255 83:189 84:125 85:71 86:50 87:68 88:92 89:95 90:85 91:64 92:73 93:115 94:167 95:206 96:231 97:243 98:248 99:255 100:255 101:255 102:255 103:186 104:118 105:64 106:53 107:84 108:113 109:117 110:96 111:54 112:53 113:97 114:154 115:200 116:230 117:243 118:248 119:255 120:255 121:255 122:255 123:184 124:112 125:57 126:54 127:92 128:121 129:124 130:95 131:48 132:43 133:94 134:154 135:202 136:234 137:247 138:249 139:255 140:255 141:255 142:255 143:181 144:108 145:49 146:37 147:71 148:101 149:103 150:71 151:29 152:37 153:98 154:162 155:208 156:237 157:250 158:251 159:255 160:255 161:255 162:255 163:178 164:103 165:39 166:11 167:28 168:57 169:62 170:28 171:9 172:33 173:103 174:168 175:211 176:237 177:248 178:248 179:255 180:255 181:255 182:255 183:175 184:97 185:33 186:4 187:7 188:14 189:16 190:5 191:2 192:22 193:98 194:165 195:206 196:232 197:245 198:248 199:255 200:255 201:255 202:255 203:175 204:97 205:36 206:10 207:19 208:35 209:40 210:24 211:9 212:23 213:85 214:148 215:194 216:222 217:235 218:240 219:255 220:255 221:255 222:255 223:175 224:97 225:44 226:34 227:61 228:92 229:97 230:82 231:41 232:28 233:71 234:134 235:186 236:218 237:229 238:235 239:255 240:255 241:255 242:255 243:173 244:99 245:51 246:52 247:94 248:128 249:136 250:118 251:74 252:37 253:62 254:119 255:176 256:213 257:224 258:229 259:255 260:255 261:255 262:255 263:172 264:97 265:50 266:59 267:107 268:140 269:151 270:127 271:83 272:36 273:54 274:111 275:171 276:208 277:216 278:220 279:255 280:255 281:255 282:255 283:170 284:91 285:42 286:49 287:95 288:127 289:135 290:110 291:61 292:24 293:50 294:111 295:171 296:205 297:205 298:207 299:255 300:255 301:255 302:255 303:169 304:86 305:32 306:29 307:65 308:95 309:98 310:72 311:31 312:20 313:61 314:124 315:176 316:200 317:190 318:190 319:255 320:255 321:255 322:255 323:175 324:96 325:42 326:24 327:41 328:65 329:67 330:46 331:32 332:45 333:93 334:147 335:183 336:190 337:167 338:167 339:255 340:255 341:255 342:255 343:191 344:132 345:84 346:57 347:58 348:70 349:74 350:71 351:78 352:100 353:134 354:168 355:182 356:170 357:134 358:138 359:255 360:255 361:255 362:255 363:211 364:173 365:145 366:128 367:123 368:125 369:129 370:134 371:141 372:156 373:172 374:180 375:170 376:139 377:95 378:111 379:255 380:255 381:255 382:255 383:230 384:210 385:195 386:183 387:177 388:175 389:180 390:184 391:187 392:191 393:188 394:175 395:147 396:106 397:59 398:83 399:255 400:255 
1.41563464356589e-05 1:255 2:255 3:161 4:139 5:158 6:180 7:205 8:230 9:241 10:244 11:245 12:249 13:250 14:253 15:255 16:255 17:253 18:251 19:255 20:255 21:255 22:255 23:193 24:176 25:192 26:209 27:221 28:232 29:236 30:239 31:239 32:241 33:243 34:248 35:253 36:254 37:253 38:251 39:255 40:255 41:255 42:255 43:226 44:214 45:214 46:216 47:215 48:212 49:208 50:205 51:201 52:214 53:221 54:231 55:239 56:243 57:245 58:248 59:255 60:255 61:255 62:255 63:238 64:226 65:209 66:193 67:183 68:175 69:167 70:162 71:160 72:170 73:179 74:189 75:199 76:213 77:230 78:242 79:255 80:255 81:255 82:255 83:239 84:221 85:193 86:165 87:145 88:127 89:115 90:110 91:110 92:114 93:123 94:136 95:153 96:177 97:205 98:232 99:255 100:255 101:255 102:255 103:237 104:210 105:177 106:142 107:104 108:70 109:57 110:61 111:67 112:69 113:68 114:80 115:108 116:144 117:178 118:215 119:255 120:255 121:255 122:255 123:235 124:201 125:166 126:124 127:69 128:24 129:25 130:51 131:68 132:66 133:49 134:41 135:69 136:117 137:159 138:200 139:255 140:255 141:255 142:255 143:233 144:199 145:163 146:116 147:56 148:15 149:36 150:86 151:109 152:102 153:76 154:40 155:48 156:96 157:147 158:196 159:255 160:255 161:255 162:255 163:234 164:202 165:167 166:121 167:63 168:29 169:59 170:106 171:128 172:125 173:99 174:56 175:47 176:85 177:141 178:195 179:255 180:255 181:255 182:255 183:235 184:206 185:174 186:129 187:74 188:39 189:56 190:94 191:115 192:111 193:88 194:52 195:56 196:99 197:147 198:197 199:255 200:255 201:255 202:255 203:233 204:208 205:176 206:132 207:78 208:32 209:28 210:63 211:76 212:74 213:40 214:24 215:51 216:103 217:151 218:198 219:255 220:255 221:255 222:255 223:229 224:212 225:180 226:133 227:71 228:12 229:7 230:16 231:28 232:19 233:8 234:5 235:37 236:92 237:144 238:194 239:255 240:255 241:255 242:255 243:225 244:206 245:179 246:136 247:74 248:14 249:7 250:23 251:49 252:47 253:18 254:6 255:21 256:67 257:126 258:185 259:255 260:255 261:255 262:255 263:222 264:207 265:182 266:140 267:87 268:37 269:32 270:67 271:94 272:100 273:77 274:51 275:33 276:52 277:104 278:170 279:255 280:255 281:255 282:255 283:220 284:208 285:185 286:145 287:98 288:59 289:63 290:102 291:130 292:138 293:125 294:92 295:52 296:49 297:90 298:159 299:255 300:255 301:255 302:255 303:220 304:208 305:186 306:146 307:101 308:67 309:76 310:112 311:141 312:150 313:140 314:105 315:59 316:49 317:86 318:157 319:255 320:255 321:255 322:255 323:216 324:204 325:183 326:144 327:98 328:59 329:59 330:101 331:128 332:134 333:123 334:90 335:50 336:48 337:91 338:162 339:255 340:255 341:255 342:255 343:208 344:197 345:181 346:146 347:97 348:46 349:29 350:69 351:93 352:96 353:82 354:57 355:38 356:56 357:106 358:171 359:255 360:255 361:255 362:255 363:205 364:197 365:184 366:152 367:107 368:55 369:22 370:32 371:51 372:51 373:43 374:43 375:61 376:93 377:131 378:183 379:255 380:255 381:255 382:255 383:209 384:207 385:195 386:161 387:126 388:94 389:70 390:60 391:60 392:52 393:67 394:87 395:113 396:138 397:159 398:192 399:255 400:255 
2.240082865898756e-05 1:255 2:255 3:225 4:218 5:223 6:227 7:227 8:227 9:228 10:234 11:234 12:234 13:239 14:243 15:245 16:243 17:229 18:220 19:255 20:255 21:255 22:255 23:217 24:197 25:190 26:186 27:185 28:188 29:191 30:196 31:203 32:206 33:216 34:226 35:236 36:240 37:232 38:227 39:255 40:255 41:255 42:255 43:201 44:168 45:153 46:142 47:137 48:145 49:149 50:153 51:162 52:175 53:193 54:207 55:225 56:238 57:235 58:233 59:255 60:255 61:255 62:255 63:189 64:138 65:106 66:89 67:90 68:98 69:104 70:108 71:119 72:141 73:164 74:188 75:212 76:231 77:237 78:237 79:255 80:255 81:255 82:255 83:180 84:116 85:73 86:60 87:70 88:84 89:90 90:82 91:83 92:102 93:136 94:171 95:200 96:226 97:242 98:244 99:255 100:255 101:255 102:255 103:176 104:103 105:61 106:56 107:79 108:101 109:108 110:87 111:66 112:73 113:111 114:156 115:194 116:227 117:247 118:248 119:255 120:255 121:255 122:255 123:172 124:95 125:51 126:56 127:91 128:120 129:128 130:100 131:61 132:59 133:96 134:148 135:195 136:232 137:250 138:250 139:255 140:255 141:255 142:255 143:169 144:86 145:36 146:42 147:84 148:116 149:122 150:91 151:49 152:54 153:102 154:154 155:198 156:235 157:254 158:252 159:255 160:255 161:255 162:255 163:166 164:76 165:23 166:21 167:54 168:82 169:83 170:58 171:24 172:56 173:119 174:169 175:209 176:240 177:255 178:255 179:255 180:255 181:255 182:255 183:162 184:68 185:17 186:4 187:15 188:33 189:30 190:15 191:11 192:59 193:127 194:177 195:215 196:243 197:255 198:255 199:255 200:255 201:255 202:255 203:162 204:68 205:17 206:3 207:6 208:13 209:15 210:11 211:11 212:59 213:124 214:173 215:210 216:238 217:249 218:249 219:255 220:255 221:255 222:255 223:162 224:75 225:25 226:19 227:40 228:60 229:60 230:46 231:23 232:51 233:103 234:155 235:198 236:230 237:238 238:231 239:255 240:255 241:255 242:255 243:162 244:80 245:35 246:41 247:79 248:106 249:112 250:88 251:49 252:40 253:85 254:142 255:188 256:221 257:227 258:220 259:255 260:255 261:255 262:255 263:154 264:74 265:43 266:63 267:107 268:134 269:136 270:105 271:61 272:32 273:74 274:133 275:181 276:211 277:214 278:214 279:255 280:255 281:255 282:255 283:148 284:65 285:36 286:60 287:106 288:132 289:133 290:100 291:49 292:23 293:69 294:130 295:179 296:204 297:201 298:204 299:255 300:255 301:255 302:255 303:145 304:60 305:24 306:39 307:78 308:100 309:102 310:75 311:28 312:20 313:75 314:136 315:180 316:199 317:188 318:189 319:255 320:255 321:255 322:255 323:150 324:69 325:26 326:24 327:45 328:60 329:64 330:50 331:27 332:42 333:101 334:152 335:186 336:192 337:170 338:170 339:255 340:255 341:255 342:255 343:167 344:97 345:58 346:43 347:45 348:52 349:59 350:61 351:64 352:95 353:140 354:174 355:188 356:178 357:145 358:148 359:255 360:255 361:255 362:255 363:187 364:141 365:120 366:109 367:106 368:105 369:106 370:113 371:127 372:149 373:170 374:180 375:174 376:152 377:116 378:127 379:255 380:255 381:255 382:255 383:214 384:187 385:174 386:166 387:161 388:158 389:158 390:161 391:169 392:182 393:186 394:175 395:155 396:119 397:77 398:104 399:255 400:255 
1.113841231356971e-05 1:255 2:255 3:176 4:150 5:153 6:164 7:182 8:206 9:234 10:248 11:255 12:255 13:255 14:255 15:255 16:252 17:245 18:244 19:255 20:255 21:255 22:255 23:200 24:181 25:183 26:188 27:196 28:209 29:221 30:229 31:234 32:237 33:241 34:244 35:248 36:247 37:243 38:244 39:255 40:255 41:255 42:255 43:217 44:203 45:200 46:196 47:194 48:194 49:195 50:196 51:193 52:198 53:203 54:210 55:220 56:227 57:232 58:241 59:255 60:255 61:255 62:255 63:229 64:214 65:202 66:186 67:171 68:164 69:159 70:155 71:151 72:158 73:164 74:172 75:185 76:200 77:214 78:232 79:255 80:255 81:255 82:255 83:237 84:218 85:197 86:172 87:147 88:126 89:112 90:106 91:106 92:114 93:120 94:133 95:152 96:173 97:194 98:221 99:255 100:255 101:255 102:255 103:242 104:220 105:191 106:159 107:126 108:90 109:64 110:62 111:69 112:79 113:83 114:94 115:118 116:147 117:176 118:211 119:255 120:255 121:255 122:255 123:245 124:223 125:189 126:150 127:109 128:67 129:37 130:49 131:66 132:74 133:68 134:64 135:85 136:123 137:160 138:202 139:255 140:255 141:255 142:255 143:247 144:227 145:190 146:147 147:101 148:54 149:38 150:74 151:96 152:97 153:76 154:52 155:65 156:105 157:147 158:195 159:255 160:255 161:255 162:255 163:245 164:225 165:189 166:145 167:94 168:45 169:44 170:91 171:112 172:110 173:87 174:51 175:56 176:96 177:143 178:194 179:255 180:255 181:255 182:255 183:237 184:215 185:182 186:142 187:90 188:37 189:27 190:79 191:108 192:99 193:77 194:37 195:45 196:95 197:146 198:196 199:255 200:255 201:255 202:255 203:233 204:207 205:176 206:138 207:83 208:24 209:10 210:34 211:73 212:69 213:40 214:20 215:50 216:106 217:155 218:204 219:255 220:255 221:255 222:255 223:233 224:207 225:176 226:138 227:83 228:22 229:3 230:8 231:21 232:21 233:12 234:8 235:47 236:106 237:156 238:204 239:255 240:255 241:255 242:255 243:236 244:210 245:177 246:138 247:83 248:22 249:3 250:10 251:35 252:39 253:22 254:11 255:42 256:96 257:145 258:194 259:255 260:255 261:255 262:255 263:241 264:216 265:180 266:139 267:81 268:19 269:14 270:52 271:78 272:83 273:68 274:36 275:37 276:79 277:132 278:184 279:255 280:255 281:255 282:255 283:240 284:217 285:182 286:141 287:85 288:29 289:35 290:87 291:115 292:124 293:110 294:69 295:38 296:61 297:120 298:180 299:255 300:255 301:255 302:255 303:238 304:217 305:184 306:143 307:93 308:45 309:51 310:98 311:132 312:143 313:126 314:85 315:43 316:55 317:113 318:176 319:255 320:255 321:255 322:255 323:243 324:222 325:187 326:146 327:98 328:50 329:49 330:93 331:122 332:132 333:116 334:75 335:41 336:58 337:109 338:169 339:255 340:255 341:255 342:255 343:251 344:230 345:193 346:150 347:99 348:46 349:31 350:71 351:94 352:100 353:84 354:50 355:36 356:66 357:111 358:163 359:255 360:255 361:255 362:255 363:255 364:236 365:198 366:153 367:102 368:47 369:19 370:42 371:71 372:67 373:47 374:32 375:51 376:93 377:125 378:164 379:255 380:255 381:255 382:255 383:255 384:239 385:203 386:161 387:119 388:73 389:45 390:50 391:72 392:67 393:53 394:65 395:89 396:121 397:145 398:173 399:255 400:255 
8.949667396734652e-06 1:255 2:255 3:231 4:222 5:219 6:217 7:217 8:216 9:213 10:217 11:218 12:228 13:235 14:247 15:254 16:255 17:254 18:254 19:255 20:255 21:255 22:255 23:232 24:208 25:184 26:168 27:161 28:158 29:160 30:164 31:168 32:177 33:199 34:224 35:240 36:249 37:252 38:250 39:255 40:255 41:255 42:255 43:222 44:183 45:147 46:120 47:105 48:104 49:106 50:109 51:112 52:122 53:151 54:186 55:218 56:238 57:245 58:249 59:255 60:255 61:255 62:255 63:211 64:164 65:117 66:72 67:48 68:56 69:71 70:71 71:59 72:70 73:105 74:149 75:191 76:223 77:239 78:248 79:255 80:255 81:255 82:255 83:202 84:153 85:102 86:48 87:24 88:47 89:73 90:74 91:51 92:41 93:73 94:118 95:165 96:207 97:234 98:246 99:255 100:255 101:255 102:255 103:200 104:149 105:95 106:42 107:29 108:65 109:94 110:96 111:74 112:39 113:58 114:102 115:150 116:197 117:230 118:246 119:255 120:255 121:255 122:255 123:203 124:149 125:89 126:37 127:33 128:76 129:105 130:107 131:87 132:43 133:56 134:100 135:150 136:197 137:233 138:248 139:255 140:255 141:255 142:255 143:205 144:151 145:84 146:28 147:21 148:61 149:95 150:98 151:72 152:33 153:58 154:106 155:160 156:208 157:239 158:250 159:255 160:255 161:255 162:255 163:202 164:148 165:84 166:28 167:9 168:28 169:62 170:65 171:35 172:13 173:54 174:113 175:170 176:215 177:243 178:254 179:255 180:255 181:255 182:255 183:199 184:144 185:84 186:30 187:5 188:11 189:20 190:19 191:5 192:4 193:52 194:110 195:167 196:214 197:242 198:253 199:255 200:255 201:255 202:255 203:197 204:142 205:84 206:32 207:12 208:25 209:44 210:36 211:12 212:7 213:37 214:94 215:150 216:200 217:237 218:249 219:255 220:255 221:255 222:255 223:195 224:139 225:76 226:30 227:34 228:71 229:94 230:94 231:70 232:31 233:29 234:77 235:135 236:189 237:228 238:243 239:255 240:255 241:255 242:255 243:194 244:134 245:68 246:27 247:45 248:99 249:132 250:133 251:110 252:66 253:33 254:68 255:126 256:182 257:222 258:240 259:255 260:255 261:255 262:255 263:193 264:136 265:71 266:31 267:50 268:104 269:137 270:142 271:115 272:76 273:35 274:63 275:121 276:178 277:218 278:237 279:255 280:255 281:255 282:255 283:191 284:137 285:74 286:31 287:43 288:88 289:115 290:121 291:100 292:65 293:44 294:74 295:126 296:177 297:210 298:227 299:255 300:255 301:255 302:255 303:191 304:136 305:76 306:31 307:30 308:58 309:78 310:84 311:70 312:58 313:66 314:101 315:142 316:179 317:198 318:209 319:255 320:255 321:255 322:255 323:196 324:144 325:92 326:52 327:41 328:49 329:61 330:65 331:61 332:74 333:100 334:133 335:163 336:184 337:185 338:191 339:255 340:255 341:255 342:255 343:212 344:167 345:128 346:101 347:89 348:88 349:91 350:93 351:102 352:117 353:140 354:163 355:182 356:185 357:167 358:173 359:255 360:255 361:255 362:255 363:232 364:199 365:171 366:153 367:143 368:140 369:146 370:150 371:156 372:165 373:174 374:190 375:192 376:174 377:141 378:149 379:255 380:255 381:255 382:255 383:245 384:234 385:219 386:202 387:190 388:187 389:194 390:202 391:207 392:207 393:209 394:203 395:180 396:149 397:112 398:123 399:255 400:255 
2.219036698502463e-05 1:255 2:255 3:177 4:158 5:181 6:202 7:218 8:238 9:251 10:253 11:255 12:255 13:254 14:252 15:250 16:242 17:223 18:218 19:255 20:255 21:255 22:255 23:202 24:189 25:196 26:204 27:212 28:221 29:229 30:236 31:236 32:242 33:243 34:247 35:249 36:248 37:237 38:229 39:255 40:255 41:255 42:255 43:213 44:195 45:190 46:187 47:188 48:192 49:194 50:198 51:205 52:212 53:220 54:228 55:238 56:246 57:243 58:237 59:255 60:255 61:255 62:255 63:214 64:181 65:165 66:157 67:152 68:151 69:151 70:152 71:162 72:171 73:189 74:206 75:222 76:239 77:245 78:242 79:255 80:255 81:255 82:255 83:210 84:168 85:138 86:119 87:109 88:104 89:103 90:105 91:114 92:128 93:154 94:178 95:203 96:227 97:240 98:245 99:255 100:255 101:255 102:255 103:205 104:160 105:119 106:86 107:70 108:69 109:73 110:75 111:79 112:94 113:118 114:149 115:184 116:215 117:233 118:245 119:255 120:255 121:255 122:255 123:202 124:153 125:107 126:66 127:50 128:62 129:76 130:76 131:70 132:69 133:87 134:125 135:168 136:204 137:228 138:245 139:255 140:255 141:255 142:255 143:201 144:150 145:98 146:55 147:50 148:82 149:100 150:99 151:81 152:51 153:66 154:108 155:154 156:194 157:225 158:246 159:255 160:255 161:255 162:255 163:197 164:145 165:93 166:49 167:50 168:94 169:116 170:113 171:86 172:38 173:49 174:99 175:148 176:191 177:228 178:251 179:255 180:255 181:255 182:255 183:193 184:140 185:82 186:38 187:42 188:82 189:101 190:93 191:65 192:25 193:47 194:102 195:155 196:196 197:229 198:250 199:255 200:255 201:255 202:255 203:191 204:138 205:76 206:26 207:19 208:40 209:57 210:50 211:16 212:9 213:56 214:115 215:167 216:205 217:229 218:245 219:255 220:255 221:255 222:255 223:186 224:134 225:74 226:23 227:7 228:15 229:23 230:14 231:3 232:4 233:51 234:114 235:168 236:205 237:227 238:239 239:255 240:255 241:255 242:255 243:189 244:132 245:69 246:21 247:10 248:23 249:43 250:43 251:16 252:6 253:42 254:101 255:157 256:198 257:221 258:235 259:255 260:255 261:255 262:255 263:191 264:131 265:70 266:28 267:33 268:67 269:88 270:89 271:65 272:25 273:30 274:82 275:140 276:186 277:215 278:229 279:255 280:255 281:255 282:255 283:188 284:132 285:76 286:42 287:58 288:102 289:126 290:126 291:100 292:42 293:24 294:70 295:128 296:178 297:209 298:224 299:255 300:255 301:255 302:255 303:188 304:134 305:81 306:50 307:69 308:113 309:140 310:138 311:105 312:45 313:20 314:65 315:125 316:175 317:202 318:216 319:255 320:255 321:255 322:255 323:191 324:137 325:82 326:48 327:62 328:104 329:125 330:119 331:88 332:36 333:19 334:67 335:127 336:173 337:193 338:204 339:255 340:255 341:255 342:255 343:194 344:140 345:87 346:45 347:44 348:76 349:89 350:81 351:56 352:24 353:32 354:83 355:134 356:169 357:178 358:186 359:255 360:255 361:255 362:255 363:198 364:146 365:96 366:53 367:37 368:47 369:56 370:41 371:27 372:29 373:67 374:112 375:144 376:161 377:158 378:171 379:255 380:255 381:255 382:255 383:203 384:157 385:115 386:87 387:76 388:72 389:71 390:66 391:66 392:85 393:111 394:137 395:152 396:154 397:139 398:152 399:255 400:255 
6.175276332078554e-06 1:255 2:255 3:230 4:222 5:222 6:222 7:219 8:213 9:207 10:204 11:208 12:220 13:226 14:233 15:241 16:249 17:253 18:254 19:255 20:255 21:255 22:255 23:237 24:227 25:212 26:195 27:184 28:174 29:167 30:160 31:165 32:172 33:182 34:195 35:208 36:224 37:240 38:248 39:255 40:255 41:255 42:255 43:238 44:222 45:200 46:173 47:150 48:133 49:120 50:114 51:115 52:125 53:138 54:152 55:169 56:191 57:216 58:238 59:255 60:255 61:255 62:255 63:238 64:216 65:187 66:154 67:119 68:85 69:66 70:74 71:78 72:86 73:91 74:105 75:131 76:160 77:189 78:223 79:255 80:255 81:255 82:255 83:239 84:213 85:179 86:141 87:98 88:59 89:46 90:67 91:78 92:80 93:72 94:75 95:97 96:133 97:171 98:213 99:255 100:255 101:255 102:255 103:241 104:213 105:177 106:135 107:91 108:57 109:57 110:84 111:101 112:100 113:82 114:67 115:78 116:115 117:161 118:206 119:255 120:255 121:255 122:255 123:245 124:216 125:179 126:137 127:92 128:60 129:68 130:96 131:118 132:116 133:92 134:66 135:72 136:110 137:155 138:202 139:255 140:255 141:255 142:255 143:248 144:222 145:182 146:139 147:92 148:52 149:56 150:86 151:108 152:103 153:77 154:51 155:66 156:111 157:156 158:203 159:255 160:255 161:255 162:255 163:250 164:226 165:183 166:135 167:82 168:31 169:26 170:52 171:68 172:60 173:37 174:26 175:57 176:111 177:158 178:206 179:255 180:255 181:255 182:255 183:250 184:226 185:183 186:135 187:79 188:19 189:3 190:6 191:12 192:12 193:5 194:9 195:49 196:106 197:157 198:205 199:255 200:255 201:255 202:255 203:250 204:231 205:188 206:134 207:72 208:13 209:2 210:6 211:12 212:12 213:7 214:11 215:43 216:96 217:146 218:194 219:255 220:255 221:255 222:255 223:253 224:233 225:189 226:137 227:78 228:20 229:13 230:32 231:62 232:68 233:56 234:33 235:36 236:73 237:123 238:180 239:255 240:255 241:255 242:255 243:254 244:234 245:192 246:141 247:86 248:36 249:36 250:75 251:104 252:113 253:96 254:68 255:45 256:61 257:108 258:171 259:255 260:255 261:255 262:255 263:254 264:235 265:194 266:145 267:92 268:44 269:47 270:90 271:121 272:130 273:115 274:84 275:51 276:54 277:98 278:166 279:255 280:255 281:255 282:255 283:250 284:232 285:194 286:149 287:97 288:44 289:39 290:74 291:106 292:115 293:103 294:71 295:41 296:51 297:97 298:166 299:255 300:255 301:255 302:255 303:245 304:230 305:196 306:153 307:102 308:45 309:23 310:41 311:66 312:73 313:63 314:43 315:35 316:61 317:110 318:171 319:255 320:255 321:255 322:255 323:244 324:231 325:202 326:161 327:113 328:61 329:29 330:23 331:34 332:39 333:35 334:40 335:59 336:94 337:135 338:182 339:255 340:255 341:255 342:255 343:245 344:235 345:210 346:174 347:136 348:100 349:75 350:58 351:58 352:58 353:67 354:87 355:112 356:139 357:164 358:197 359:255 360:255 361:255 362:255 363:248 364:243 365:224 366:195 367:170 368:152 369:141 370:134 371:134 372:136 373:142 374:149 375:159 376:171 377:184 378:206 379:255 380:255 381:255 382:255 383:255 384:255 385:245 386:226 387:207 388:191 389:181 390:178 391:178 392:179 393:187 394:192 395:195 396:196 397:194 398:206 399:255 400:255 
1.765620176095045e-05 1:255 2:255 3:229 4:223 5:226 6:227 7:229 8:232 9:234 10:237 11:237 12:240 13:245 14:247 15:250 16:252 17:253 18:254 19:255 20:255 21:255 22:255 23:243 24:235 25:226 26:211 27:199 28:194 29:191 30:190 31:190 32:194 33:198 34:206 35:220 36:236 37:246 38:251 39:255 40:255 41:255 42:255 43:247 44:231 45:208 46:182 47:164 48:155 49:148 50:146 51:143 52:148 53:153 54:160 55:176 56:198 57:221 58:244 59:255 60:255 61:255 62:255 63:246 64:223 65:190 66:158 67:129 68:104 69:93 70:92 71:90 72:92 73:98 74:110 75:134 76:162 77:191 78:225 79:255 80:255 81:255 82:255 83:244 84:219 85:181 86:140 87:96 88:56 89:44 90:61 91:71 92:72 93:69 94:68 95:90 96:128 97:168 98:210 99:255 100:255 101:255 102:255 103:240 104:214 105:176 106:130 107:78 108:34 109:32 110:68 111:89 112:91 113:77 114:57 115:62 116:99 117:150 118:200 119:255 120:255 121:255 122:255 123:235 124:209 125:174 126:128 127:76 128:35 129:44 130:87 131:116 132:119 133:96 134:65 135:57 136:86 137:138 138:195 139:255 140:255 141:255 142:255 143:231 144:205 145:173 146:129 147:76 148:33 149:42 150:87 151:120 152:122 153:95 154:61 155:56 156:90 157:141 158:195 159:255 160:255 161:255 162:255 163:224 164:202 165:173 166:131 167:74 168:23 169:23 170:62 171:86 172:87 173:67 174:41 175:51 176:97 177:149 178:198 179:255 180:255 181:255 182:255 183:217 184:196 185:174 186:133 187:76 188:19 189:5 190:14 191:36 192:34 193:18 194:10 195:36 196:90 197:144 198:194 199:255 200:255 201:255 202:255 203:218 204:202 205:178 206:136 207:76 208:15 209:1 210:3 211:10 212:14 213:8 214:6 215:23 216:68 217:125 218:183 219:255 220:255 221:255 222:255 223:224 224:213 225:187 226:141 227:78 228:15 229:6 230:24 231:62 232:75 233:70 234:46 235:30 236:53 237:107 238:175 239:255 240:255 241:255 242:255 243:225 244:215 245:190 246:143 247:84 248:26 249:19 250:67 251:108 252:128 253:121 254:90 255:52 256:45 257:84 258:160 259:255 260:255 261:255 262:255 263:227 264:216 265:191 266:147 267:90 268:37 269:30 270:86 271:130 272:146 273:140 274:106 275:64 276:49 277:79 278:153 279:255 280:255 281:255 282:255 283:231 284:219 285:193 286:150 287:96 288:43 289:30 290:82 291:120 292:132 293:127 294:99 295:64 296:56 297:88 298:159 299:255 300:255 301:255 302:255 303:238 304:226 305:197 306:154 307:100 308:43 309:20 310:51 311:83 312:96 313:90 314:73 315:58 316:66 317:104 318:169 319:255 320:255 321:255 322:255 323:246 324:233 325:202 326:160 327:109 328:52 329:19 330:22 331:45 332:59 333:60 334:58 335:67 336:92 337:128 338:180 339:255 340:255 341:255 342:255 343:251 344:240 345:209 346:169 347:128 348:84 349:51 350:44 351:51 352:60 353:71 354:87 355:106 356:132 357:160 358:194 359:255 360:255 361:255 362:255 363:254 364:249 365:225 366:188 367:156 368:134 369:114 370:110 371:110 372:117 373:125 374:141 375:155 376:172 377:189 378:209 379:255 380:255 381:255 382:255 383:255 384:252 385:242 386:217 387:190 388:176 389:165 390:165 391:165 392:168 393:177 394:185 395:195 396:209 397:215 398:220 399:255 400:255 
8.913357504142651e-06 1:255 2:255 3:242 4:234 5:232 6:227 7:223 8:223 9:223 10:225 11:231 12:234 13:239 14:245 15:250 16:253 17:254 18:255 19:255 20:255 21:255 22:255 23:238 24:210 25:188 26:177 27:170 28:169 29:169 30:170 31:174 32:179 33:186 34:209 35:231 36:245 37:252 38:254 39:255 40:255 41:255 42:255 43:219 44:182 45:151 46:130 47:119 48:113 49:117 50:122 51:128 52:132 53:146 54:170 55:197 56:226 57:246 58:252 59:255 60:255 61:255 62:255 63:205 64:164 65:126 66:91 67:70 68:71 69:83 70:91 71:90 72:91 73:110 74:132 75:164 76:206 77:239 78:250 79:255 80:255 81:255 82:255 83:202 84:156 85:110 86:64 87:43 88:59 89:83 90:94 91:87 92:75 93:81 94:107 95:144 96:188 97:226 98:247 99:255 100:255 101:255 102:255 103:202 104:153 105:102 106:52 107:36 108:64 109:98 110:111 111:102 112:72 113:61 114:88 115:132 116:177 117:218 118:246 119:255 120:255 121:255 122:255 123:202 124:153 125:101 126:51 127:35 128:63 129:100 130:112 131:100 132:63 133:45 134:74 135:124 136:177 137:221 138:248 139:255 140:255 141:255 142:255 143:202 144:153 145:102 146:50 147:28 148:46 149:74 150:85 151:68 152:41 153:32 154:74 155:128 156:181 157:225 158:250 159:255 160:255 161:255 162:255 163:202 164:153 165:95 166:39 167:11 168:16 169:29 170:33 171:24 172:10 173:20 174:73 175:131 176:180 177:220 178:248 179:255 180:255 181:255 182:255 183:204 184:149 185:89 186:32 187:3 188:4 189:10 190:11 191:8 192:3 193:10 194:59 195:118 196:167 197:209 198:245 199:255 200:255 201:255 202:255 203:202 204:153 205:95 206:37 207:6 208:11 209:28 210:44 211:37 212:18 213:13 214:41 215:94 216:147 217:197 218:241 219:255 220:255 221:255 222:255 223:198 224:152 225:102 226:51 227:27 228:44 229:81 230:105 231:103 232:72 233:42 234:43 235:85 236:139 237:190 238:238 239:255 240:255 241:255 242:255 243:202 244:154 245:101 246:51 247:36 248:70 249:114 250:134 251:126 252:104 253:62 254:40 255:71 256:128 257:180 258:225 259:255 260:255 261:255 262:255 263:206 264:158 265:102 266:47 267:34 268:76 269:122 270:138 271:127 272:108 273:58 274:33 275:63 276:122 277:176 278:221 279:255 280:255 281:255 282:255 283:205 284:159 285:106 286:51 287:31 288:61 289:101 290:119 291:110 292:84 293:46 294:36 295:73 296:130 297:181 298:225 299:255 300:255 301:255 302:255 303:206 304:162 305:113 306:59 307:30 308:39 309:62 310:78 311:76 312:60 313:49 314:62 315:102 316:147 317:187 318:227 319:255 320:255 321:255 322:255 323:214 324:171 325:125 326:78 327:47 328:42 329:47 330:59 331:67 332:73 333:81 334:106 335:139 336:169 337:196 338:226 339:255 340:255 341:255 342:255 343:229 344:189 345:151 346:119 347:96 348:88 349:89 350:98 351:111 352:125 353:133 354:152 355:173 356:193 357:210 358:228 359:255 360:255 361:255 362:255 363:242 364:216 365:189 366:168 367:153 368:149 369:150 370:157 371:166 372:174 373:180 374:192 375:204 376:211 377:214 378:226 379:255 380:255 381:255 382:255 383:251 384:242 385:231 386:213 387:196 388:192 389:196 390:202 391:209 392:221 393:229 394:231 395:224 396:208 397:197 398:215 399:255 400:255 
-1.309452494805858e-05 1:255 2:255 3:187 4:172 5:183 6:196 7:214 8:232 9:238 10:242 11:242 12:238 13:242 14:247 15:251 16:254 17:251 18:247 19:255 20:255 21:255 22:255 23:208 24:196 25:205 26:218 27:228 28:228 29:223 30:219 31:213 32:212 33:220 34:233 35:243 36:250 37:252 38:249 39:255 40:255 41:255 42:255 43:224 44:220 45:225 46:223 47:214 48:203 49:193 50:185 51:180 52:181 53:192 54:207 55:229 56:248 57:253 58:253 59:255 60:255 61:255 62:255 63:233 64:230 65:227 66:213 67:193 68:174 69:160 70:148 71:145 72:149 73:164 74:183 75:211 76:237 77:252 78:255 79:255 80:255 81:255 82:255 83:238 84:232 85:219 86:196 87:171 88:147 89:125 90:106 91:97 92:111 93:133 94:160 95:190 96:223 97:248 98:255 99:255 100:255 101:255 102:255 103:239 104:229 105:210 106:181 107:152 108:120 109:84 110:57 111:45 112:68 113:102 114:138 115:172 116:207 117:236 118:250 119:255 120:255 121:255 122:255 123:238 124:222 125:200 126:171 127:136 128:93 129:46 130:18 131:10 132:30 133:72 134:118 135:157 136:191 137:220 138:243 139:255 140:255 141:255 142:255 143:233 144:212 145:189 146:159 147:119 148:70 149:22 150:2 151:2 152:10 153:50 154:101 155:145 156:180 157:211 158:239 159:255 160:255 161:255 162:255 163:223 164:200 165:176 166:143 167:100 168:54 169:20 170:8 171:8 172:11 173:44 174:91 175:136 176:172 177:204 178:235 179:255 180:255 181:255 182:255 183:214 184:187 185:162 186:128 187:87 188:48 189:29 190:33 191:33 192:29 193:44 194:83 195:126 196:165 197:196 198:225 199:255 200:255 201:255 202:255 203:209 204:177 205:148 206:110 207:71 208:48 209:60 210:74 211:67 212:59 213:55 214:79 215:116 216:154 217:187 218:218 219:255 220:255 221:255 222:255 223:204 224:168 225:135 226:92 227:54 228:48 229:78 230:100 231:99 232:79 233:60 234:71 235:103 236:142 237:177 238:213 239:255 240:255 241:255 242:255 243:198 244:159 245:121 246:74 247:40 248:45 249:82 250:107 251:108 252:83 253:51 254:51 255:86 256:131 257:168 258:208 259:255 260:255 261:255 262:255 263:188 264:144 265:102 266:55 267:26 268:35 269:70 270:94 271:94 272:72 273:40 274:36 275:71 276:119 277:159 278:201 279:255 280:255 281:255 282:255 283:180 284:131 285:87 286:40 287:14 288:20 289:45 290:66 291:64 292:43 293:22 294:20 295:56 296:107 297:149 298:193 299:255 300:255 301:255 302:255 303:173 304:117 305:70 306:29 307:11 308:18 309:35 310:51 311:45 312:25 313:11 314:11 315:45 316:95 317:137 318:184 319:255 320:255 321:255 322:255 323:164 324:103 325:56 326:28 327:29 328:45 329:61 330:72 331:64 332:44 333:24 334:16 335:38 336:80 337:123 338:175 339:255 340:255 341:255 342:255 343:159 344:97 345:58 346:48 347:68 348:93 349:111 350:117 351:111 352:92 353:61 354:39 355:39 356:68 357:108 358:163 359:255 360:255 361:255 362:255 363:164 364:108 365:83 366:85 367:109 368:131 369:150 370:155 371:150 372:131 373:108 374:80 375:61 376:67 377:94 378:150 379:255 380:255 381:255 382:255 383:173 384:128 385:116 386:124 387:142 388:160 389:174 390:183 391:177 392:162 393:140 394:114 395:92 396:84 397:91 398:140 399:255 400:255 
-7.2642213753252e-06 1:255 2:255 3:212 4:204 5:215 6:229 7:241 8:239 9:228 10:212 11:204 12:211 13:218 14:234 15:245 16:250 17:254 18:255 19:255 20:255 21:255 22:255 23:226 24:221 25:229 26:233 27:226 28:208 29:192 30:177 31:169 32:174 33:185 34:200 35:224 36:244 37:253 38:255 39:255 40:255 41:255 42:255 43:232 44:228 45:229 46:221 47:202 48:178 49:157 50:140 51:130 52:135 53:147 54:169 55:197 56:228 57:249 58:254 59:255 60:255 61:255 62:255 63:238 64:232 65:225 66:208 67:183 68:154 69:126 70:104 71:87 72:93 73:113 74:141 75:174 76:213 77:244 78:253 79:255 80:255 81:255 82:255 83:243 84:234 85:218 86:195 87:167 88:135 89:100 90:71 91:44 92:50 93:81 94:118 95:156 96:196 97:233 98:252 99:255 100:255 101:255 102:255 103:245 104:233 105:211 106:183 107:152 108:117 109:78 110:39 111:16 112:21 113:56 114:100 115:140 116:180 117:220 118:250 119:255 120:255 121:255 122:255 123:245 124:231 125:207 126:173 127:138 128:101 129:60 130:18 131:9 132:11 133:41 134:83 135:125 136:166 137:207 138:243 139:255 140:255 141:255 142:255 143:246 144:230 145:201 146:163 147:125 148:87 149:47 150:20 151:21 152:17 153:31 154:67 155:109 156:149 157:190 158:230 159:255 160:255 161:255 162:255 163:250 164:226 165:191 166:152 167:110 168:68 169:38 170:42 171:52 172:38 173:32 174:53 175:92 176:134 177:175 178:218 179:255 180:255 181:255 182:255 183:250 184:219 185:179 186:138 187:95 188:57 189:42 190:62 191:77 192:70 193:46 194:45 195:78 196:124 197:165 198:210 199:255 200:255 201:255 202:255 203:248 204:212 205:169 206:129 207:88 208:55 209:52 210:80 211:94 212:88 213:64 214:46 215:67 216:111 217:153 218:201 219:255 220:255 221:255 222:255 223:242 224:203 225:159 226:117 227:73 228:41 229:47 230:78 231:95 232:92 233:67 234:41 235:55 236:96 237:139 238:190 239:255 240:255 241:255 242:255 243:230 244:189 245:148 246:103 247:54 248:22 249:31 250:63 251:77 252:72 253:46 254:24 255:37 256:79 257:124 258:178 259:255 260:255 261:255 262:255 263:214 264:173 265:135 266:88 267:38 268:7 269:13 270:34 271:44 272:37 273:20 274:8 275:20 276:60 277:109 278:167 279:255 280:255 281:255 282:255 283:201 284:156 285:118 286:71 287:28 288:9 289:16 290:32 291:40 292:32 293:18 294:7 295:11 296:43 297:91 298:155 299:255 300:255 301:255 302:255 303:190 304:141 305:102 306:60 307:33 308:36 309:51 310:70 311:76 312:69 313:53 314:36 315:22 316:37 317:77 318:143 319:255 320:255 321:255 322:255 323:182 324:133 325:97 326:65 327:58 328:78 329:100 330:119 331:126 332:120 333:104 334:82 335:54 336:47 337:71 338:136 339:255 340:255 341:255 342:255 343:184 344:139 345:111 346:92 347:94 348:115 349:138 350:155 351:163 352:159 353:144 354:122 355:92 356:72 357:76 358:133 359:255 360:255 361:255 362:255 363:198 364:161 365:141 366:132 367:136 368:149 369:167 370:186 371:194 372:192 373:175 374:152 375:128 376:106 377:96 378:136 379:255 380:255 381:255 382:255 383:214 384:190 385:176 386:168 387:169 388:180 389:194 390:209 391:219 392:213 393:196 394:172 395:150 396:129 397:114 398:147 399:255 400:255 
-1.575742779836771e-06 1:255 2:255 3:230 4:218 5:213 6:203 7:191 8:183 9:182 10:191 11:204 12:225 13:236 14:245 15:248 16:248 17:243 18:239 19:255 20:255 21:255 22:255 23:237 24:220 25:203 26:180 27:160 28:150 29:149 30:154 31:170 32:195 33:222 34:237 35:245 36:250 37:251 38:248 39:255 40:255 41:255 42:255 43:236 44:213 45:187 46:159 47:132 48:111 49:103 50:112 51:137 52:167 53:201 54:227 55:244 56:253 57:253 58:252 59:255 60:255 61:255 62:255 63:231 64:204 65:174 66:140 67:103 68:70 69:52 70:65 71:101 72:143 73:181 74:217 75:242 76:253 77:253 78:251 79:255 80:255 81:255 82:255 83:227 84:195 85:161 86:120 87:74 88:33 89:17 90:27 91:71 92:121 93:163 94:203 95:233 96:249 97:250 98:247 99:255 100:255 101:255 102:255 103:223 104:186 105:148 106:102 107:52 108:13 109:4 110:8 111:48 112:101 113:146 114:187 115:221 116:243 117:247 118:244 119:255 120:255 121:255 122:255 123:218 124:177 125:135 126:87 127:41 128:14 129:13 130:12 131:32 132:82 133:131 134:172 135:209 136:235 137:242 138:242 139:255 140:255 141:255 142:255 143:209 144:166 145:121 146:72 147:38 148:31 149:38 150:32 151:31 152:66 153:117 154:159 155:195 156:223 157:236 158:240 159:255 160:255 161:255 162:255 163:200 164:154 165:106 166:60 167:42 168:59 169:73 170:64 171:39 172:55 173:103 174:148 175:186 176:217 177:232 178:238 179:255 180:255 181:255 182:255 183:192 184:141 185:91 186:51 187:49 188:81 189:102 190:85 191:47 192:44 193:86 194:135 195:177 196:210 197:228 198:234 199:255 200:255 201:255 202:255 203:183 204:128 205:77 206:43 207:54 208:93 209:112 210:95 211:50 212:26 213:60 214:116 215:164 216:201 217:220 218:227 219:255 220:255 221:255 222:255 223:173 224:112 225:59 226:29 227:41 228:78 229:96 230:82 231:43 232:14 233:45 234:101 235:152 236:189 237:207 238:219 239:255 240:255 241:255 242:255 243:164 244:96 245:45 246:17 247:25 248:53 249:69 250:57 251:24 252:7 253:32 254:85 255:138 256:175 257:191 258:207 259:255 260:255 261:255 262:255 263:153 264:81 265:34 266:13 267:21 268:37 269:50 270:40 271:14 272:5 273:21 274:70 275:122 276:158 277:174 278:193 279:255 280:255 281:255 282:255 283:141 284:69 285:37 286:34 287:48 288:59 289:67 290:57 291:36 292:17 293:17 294:56 295:106 296:143 297:157 298:179 299:255 300:255 301:255 302:255 303:134 304:68 305:56 306:72 307:95 308:105 309:108 310:100 311:80 312:47 313:27 314:49 315:93 316:127 317:138 318:163 319:255 320:255 321:255 322:255 323:138 324:83 325:85 326:111 327:137 328:148 329:148 330:143 331:123 332:89 333:55 334:59 335:88 336:113 337:117 338:145 339:255 340:255 341:255 342:255 343:156 344:113 345:121 346:144 347:166 348:180 349:181 350:175 351:156 352:127 353:97 354:86 355:94 356:102 357:94 358:122 359:255 360:255 361:255 362:255 363:179 364:150 365:157 366:172 367:190 368:205 369:211 370:201 371:181 372:159 373:136 374:120 375:108 376:92 377:67 378:98 379:255 380:255 381:255 382:255 383:206 384:183 385:187 386:200 387:214 388:223 389:226 390:216 391:200 392:180 393:163 394:139 395:110 396:80 397:45 398:76 399:255 400:255 
-6.639292622608945e-08 1:255 2:255 3:158 4:137 5:149 6:169 7:201 8:230 9:241 10:244 11:246 12:248 13:248 14:251 15:252 16:253 17:253 18:253 19:255 20:255 21:255 22:255 23:198 24:182 25:188 26:198 27:213 28:227 29:232 30:235 31:235 32:236 33:239 34:242 35:245 36:250 37:254 38:255 39:255 40:255 41:255 42:255 43:224 44:210 45:203 46:196 47:191 48:188 49:187 50:188 51:188 52:193 53:203 54:217 55:229 56:240 57:249 58:253 59:255 60:255 61:255 62:255 63:231 64:213 65:190 66:169 67:153 68:135 69:129 70:129 71:129 72:140 73:152 74:169 75:186 76:210 77:235 78:247 79:255 80:255 81:255 82:255 83:229 84:201 85:170 86:137 87:105 88:76 89:69 90:72 91:77 92:93 93:105 94:119 95:138 96:167 97:202 98:231 99:255 100:255 101:255 102:255 103:227 104:191 105:154 106:112 107:65 108:30 109:29 110:45 111:62 112:75 113:78 114:79 115:94 116:121 117:156 118:203 119:255 120:255 121:255 122:255 123:228 124:189 125:145 126:96 127:46 128:16 129:28 130:63 131:86 132:92 133:83 134:64 135:61 136:80 137:114 138:171 139:255 140:255 141:255 142:255 143:232 144:190 145:141 146:87 147:41 148:28 149:61 150:104 151:122 152:127 153:115 154:84 155:52 156:50 157:80 158:147 159:255 160:255 161:255 162:255 163:233 164:188 165:137 166:83 167:40 168:39 169:89 170:130 171:155 172:161 173:149 174:116 175:69 176:38 177:51 178:130 179:255 180:255 181:255 182:255 183:234 184:192 185:140 186:86 187:47 188:48 189:100 190:144 191:166 192:179 193:166 194:137 195:94 196:49 197:36 198:108 199:255 200:255 201:255 202:255 203:238 204:203 205:151 206:94 207:50 208:48 209:100 210:148 211:178 212:200 213:191 214:161 215:116 216:61 217:29 218:93 219:255 220:255 221:255 222:255 223:241 224:209 225:158 226:100 227:55 228:46 229:96 230:148 231:185 232:209 233:205 234:170 235:124 236:66 237:27 238:89 239:255 240:255 241:255 242:255 243:242 244:212 245:162 246:104 247:56 248:46 249:95 250:146 251:186 252:216 253:211 254:175 255:126 256:65 257:21 258:81 259:255 260:255 261:255 262:255 263:242 264:215 265:168 266:108 267:53 268:37 269:87 270:139 271:181 272:209 273:204 274:169 275:121 276:59 277:16 278:78 279:255 280:255 281:255 282:255 283:242 284:217 285:171 286:109 287:49 288:28 289:76 290:132 291:170 292:194 293:184 294:150 295:100 296:43 297:16 298:86 299:255 300:255 301:255 302:255 303:239 304:212 305:169 306:110 307:50 308:21 309:62 310:117 311:149 312:167 313:152 314:120 315:69 316:24 317:24 318:106 319:255 320:255 321:255 322:255 323:234 324:206 325:166 326:112 327:51 328:15 329:39 330:84 331:116 332:126 333:109 334:80 335:41 336:22 337:48 338:132 339:255 340:255 341:255 342:255 343:229 344:201 345:165 346:115 347:54 348:8 349:10 350:38 351:69 352:76 353:64 354:44 355:35 356:52 357:90 358:156 359:255 360:255 361:255 362:255 363:224 364:200 365:170 366:126 367:72 368:24 369:10 370:14 371:29 372:38 373:42 374:49 375:72 376:102 377:134 378:185 379:255 380:255 381:255 382:255 383:224 384:208 385:180 386:141 387:106 388:78 389:54 390:54 391:60 392:77 393:92 394:102 395:121 396:147 397:175 398:211 399:255 400:255 
-5.028543855501378e-07 1:255 2:255 3:189 4:173 5:181 6:188 7:192 8:195 9:204 10:219 11:229 12:230 13:214 14:215 15:227 16:235 17:233 18:236 19:255 20:255 21:255 22:255 23:211 24:192 25:185 26:175 27:164 28:164 29:168 30:175 31:184 32:178 33:174 34:182 35:196 36:216 37:232 38:239 39:255 40:255 41:255 42:255 43:224 44:195 45:165 46:139 47:122 48:116 49:119 50:121 51:123 52:121 53:124 54:135 55:163 56:196 57:222 58:240 59:255 60:255 61:255 62:255 63:223 64:186 65:145 66:105 67:79 68:69 69:68 70:68 71:70 72:71 73:76 74:96 75:132 76:176 77:215 78:243 79:255 80:255 81:255 82:255 83:224 84:181 85:132 86:85 87:49 88:34 89:36 90:40 91:46 92:49 93:57 94:83 95:122 96:169 97:215 98:246 99:255 100:255 101:255 102:255 103:227 104:180 105:125 106:73 107:34 108:21 109:32 110:48 111:58 112:67 113:79 114:102 115:139 116:185 117:226 118:249 119:255 120:255 121:255 122:255 123:225 124:176 125:119 126:65 127:29 128:24 129:48 130:78 131:93 132:105 133:118 134:139 135:169 136:208 137:239 138:251 139:255 140:255 141:255 142:255 143:221 144:171 145:113 146:59 147:27 148:28 149:63 150:100 151:120 152:129 153:138 154:162 155:187 156:218 157:245 158:252 159:255 160:255 161:255 162:255 163:222 164:170 165:110 166:55 167:23 168:25 169:57 170:89 171:109 172:115 173:126 174:151 175:181 176:218 177:247 178:254 179:255 180:255 181:255 182:255 183:228 184:175 185:112 186:54 187:17 188:9 189:30 190:55 191:63 192:68 193:92 194:120 195:162 196:211 197:245 198:254 199:255 200:255 201:255 202:255 203:236 204:182 205:116 206:56 207:16 208:3 209:8 210:26 211:29 212:40 213:64 214:102 215:152 216:207 217:246 218:255 219:255 220:255 221:255 222:255 223:236 224:180 225:113 226:55 227:16 228:3 229:12 230:39 231:51 232:60 233:79 234:111 235:158 236:212 237:248 238:255 239:255 240:255 241:255 242:255 243:230 244:174 245:108 246:50 247:15 248:15 249:46 250:77 251:96 252:107 253:120 254:149 255:185 256:224 257:250 258:254 259:255 260:255 261:255 262:255 263:227 264:170 265:106 266:49 267:17 268:26 269:70 270:110 271:134 272:154 273:165 274:182 275:208 276:235 277:249 278:252 279:255 280:255 281:255 282:255 283:232 284:175 285:107 286:49 287:18 288:31 289:77 290:121 291:144 292:163 293:176 294:187 295:204 296:228 297:245 298:249 299:255 300:255 301:255 302:255 303:236 304:181 305:111 306:51 307:18 308:25 309:66 310:100 311:121 312:133 313:146 314:157 315:177 316:207 317:231 318:242 319:255 320:255 321:255 322:255 323:236 324:183 325:118 326:59 327:20 328:15 329:41 330:61 331:77 332:88 333:97 334:112 335:143 336:181 337:207 338:226 339:255 340:255 341:255 342:255 343:237 344:188 345:129 346:73 347:32 348:17 349:23 350:33 351:39 352:52 353:61 354:82 355:117 356:159 357:185 358:199 359:255 360:255 361:255 362:255 363:241 364:200 365:147 366:98 367:65 368:47 369:41 370:41 371:43 372:53 373:64 374:84 375:115 376:150 377:160 378:170 379:255 380:255 381:255 382:255 383:245 384:210 385:168 386:134 387:111 388:95 389:86 390:83 391:83 392:92 393:105 394:117 395:131 396:137 397:126 398:145 399:255 400:255 
-1.846422357350934e-05 1:255 2:255 3:203 4:187 5:193 6:198 7:202 8:212 9:220 10:225 11:219 12:224 13:229 14:235 15:245 16:253 17:254 18:252 19:255 20:255 21:255 22:255 23:224 24:207 25:193 26:178 27:166 28:158 29:160 30:166 31:166 32:173 33:178 34:187 35:205 36:227 37:244 38:252 39:255 40:255 41:255 42:255 43:233 44:204 45:171 46:142 47:120 48:102 49:97 50:99 51:105 52:113 53:121 54:135 55:162 56:197 57:231 58:252 59:255 60:255 61:255 62:255 63:233 64:196 65:151 66:109 67:78 68:59 69:52 70:54 71:64 72:71 73:79 74:97 75:130 76:177 77:222 78:249 79:255 80:255 81:255 82:255 83:227 84:187 85:136 86:86 87:48 88:30 89:29 90:40 91:54 92:62 93:69 94:91 95:124 96:172 97:222 98:250 99:255 100:255 101:255 102:255 103:220 104:178 105:125 106:71 107:33 108:19 109:30 110:53 111:70 112:85 113:93 114:113 115:144 116:186 117:229 118:253 119:255 120:255 121:255 122:255 123:217 124:173 125:118 126:64 127:29 128:22 129:45 130:72 131:98 132:117 133:127 134:143 135:171 136:206 137:238 138:255 139:255 140:255 141:255 142:255 143:213 144:170 145:116 146:62 147:28 148:22 149:48 150:76 151:112 152:127 153:136 154:157 155:183 156:214 157:242 158:254 159:255 160:255 161:255 162:255 163:212 164:166 165:113 166:60 167:24 168:15 169:34 170:66 171:90 172:106 173:118 174:141 175:172 176:208 177:240 178:252 179:255 180:255 181:255 182:255 183:212 184:171 185:117 186:60 187:22 188:7 189:17 190:36 191:54 192:65 193:76 194:110 195:153 196:198 197:231 198:247 199:255 200:255 201:255 202:255 203:212 204:173 205:121 206:60 207:17 208:3 209:5 210:13 211:25 212:45 213:63 214:97 215:144 216:190 217:223 218:243 219:255 220:255 221:255 222:255 223:214 224:177 225:125 226:62 227:17 228:4 229:10 230:29 231:48 232:58 233:74 234:108 235:153 236:198 237:230 238:246 239:255 240:255 241:255 242:255 243:217 244:181 245:127 246:64 247:21 248:9 249:26 250:63 251:91 252:103 253:117 254:141 255:171 256:207 257:237 258:247 259:255 260:255 261:255 262:255 263:220 264:184 265:130 266:67 267:24 268:17 269:48 270:92 271:123 272:140 273:153 274:168 275:188 276:216 277:240 278:250 279:255 280:255 281:255 282:255 283:225 284:188 285:133 286:68 287:23 288:19 289:55 290:100 291:133 292:146 293:154 294:166 295:185 296:211 297:237 298:249 299:255 300:255 301:255 302:255 303:231 304:193 305:136 306:71 307:24 308:14 309:41 310:82 311:107 312:118 313:125 314:139 315:160 316:193 317:225 318:242 319:255 320:255 321:255 322:255 323:237 324:198 325:141 326:79 327:30 328:10 329:22 330:49 331:65 332:77 333:87 334:100 335:128 336:170 337:205 338:228 339:255 340:255 341:255 342:255 343:241 344:205 345:151 346:92 347:45 348:23 349:23 350:31 351:49 352:54 353:61 354:73 355:107 356:151 357:180 358:205 359:255 360:255 361:255 362:255 363:244 364:215 365:168 366:114 367:74 368:60 369:56 370:58 371:64 372:67 373:73 374:85 375:111 376:141 377:156 378:179 379:255 380:255 381:255 382:255 383:252 384:230 385:195 386:156 387:124 388:110 389:105 390:105 391:108 392:111 393:115 394:123 395:132 396:138 397:133 398:155 399:255 400:255 
-1.501920232326753e-06 1:255 2:255 3:116 4:73 5:89 6:112 7:146 8:196 9:234 10:248 11:255 12:255 13:255 14:255 15:253 16:250 17:246 18:246 19:255 20:255 21:255 22:255 23:147 24:114 25:127 26:149 27:173 28:198 29:222 30:234 31:235 32:235 33:235 34:229 35:231 36:235 37:239 38:246 39:255 40:255 41:255 42:255 43:186 44:167 45:171 46:175 47:175 48:173 49:179 50:182 51:177 52:174 53:174 54:177 55:183 56:199 57:223 58:243 59:255 60:255 61:255 62:255 63:215 64:203 65:196 66:174 67:148 68:131 69:124 70:121 71:119 72:117 73:118 74:124 75:132 76:152 77:192 78:233 79:255 80:255 81:255 82:255 83:222 84:214 85:196 86:155 87:113 88:87 89:75 90:68 91:69 92:71 93:73 94:79 95:90 96:114 97:161 98:221 99:255 100:255 101:255 102:255 103:216 104:212 105:187 106:137 107:89 108:53 109:36 110:31 111:34 112:43 113:48 114:55 115:69 116:95 117:146 118:214 119:255 120:255 121:255 122:255 123:209 124:206 125:178 126:124 127:75 128:34 129:14 130:15 131:25 132:42 133:49 134:60 135:74 136:99 137:149 138:216 139:255 140:255 141:255 142:255 143:202 144:199 145:172 146:117 147:66 148:26 149:9 150:19 151:44 152:64 153:75 154:85 155:101 156:124 157:169 158:228 159:255 160:255 161:255 162:255 163:196 164:192 165:168 166:114 167:62 168:23 169:12 170:31 171:63 172:89 173:105 174:115 175:129 176:157 177:200 178:238 179:255 180:255 181:255 182:255 183:187 184:182 185:161 186:111 187:62 188:24 189:15 190:39 191:68 192:99 193:112 194:121 195:143 196:177 197:214 198:242 199:255 200:255 201:255 202:255 203:175 204:172 205:156 206:109 207:62 208:23 209:9 210:21 211:55 212:72 213:87 214:102 215:117 216:147 217:194 218:238 219:255 220:255 221:255 222:255 223:167 224:164 225:154 226:109 227:62 228:22 229:4 230:8 231:25 232:44 233:56 234:67 235:87 236:118 237:164 238:222 239:255 240:255 241:255 242:255 243:170 244:168 245:157 246:112 247:65 248:22 249:3 250:4 251:14 252:24 253:38 254:49 255:68 256:101 257:151 258:214 259:255 260:255 261:255 262:255 263:173 264:174 265:164 266:118 267:68 268:25 269:5 270:9 271:25 272:38 273:48 274:58 275:77 276:111 277:161 278:220 279:255 280:255 281:255 282:255 283:177 284:180 285:168 286:120 287:69 288:29 289:11 290:25 291:50 292:69 293:81 294:88 295:104 296:139 297:187 298:233 299:255 300:255 301:255 302:255 303:181 304:181 305:168 306:119 307:69 308:31 309:18 310:43 311:78 312:102 313:122 314:134 315:149 316:181 317:218 318:244 319:255 320:255 321:255 322:255 323:183 324:183 325:167 326:117 327:67 328:30 329:22 330:55 331:99 332:134 333:163 334:182 335:201 336:222 337:239 338:247 339:255 340:255 341:255 342:255 343:184 344:188 345:174 346:120 347:67 348:32 349:24 350:61 351:108 352:162 353:200 354:220 355:234 356:242 357:240 358:239 359:255 360:255 361:255 362:255 363:188 364:194 365:183 366:131 367:76 368:40 369:32 370:66 371:114 372:177 373:223 374:241 375:248 376:246 377:232 378:226 379:255 380:255 381:255 382:255 383:191 384:199 385:195 386:147 387:93 388:59 389:54 390:75 391:121 392:195 393:238 394:250 395:249 396:241 397:218 398:208 399:255 400:255 
-4.650862046360587e-06 1:255 2:255 3:124 4:78 5:87 6:105 7:134 8:177 9:224 10:249 11:255 12:255 13:255 14:251 15:246 16:242 17:237 18:237 19:255 20:255 21:255 22:255 23:158 24:123 25:127 26:146 27:174 28:201 29:221 30:234 31:242 32:236 33:230 34:225 35:223 36:222 37:223 38:232 39:255 40:255 41:255 42:255 43:206 44:185 45:184 46:184 47:183 48:182 49:183 50:186 51:188 52:186 53:180 54:177 55:180 56:187 57:199 58:223 59:255 60:255 61:255 62:255 63:240 64:230 65:216 66:188 67:158 68:138 69:130 70:126 71:127 72:131 73:129 74:129 75:132 76:142 77:166 78:210 79:255 80:255 81:255 82:255 83:252 84:248 85:221 86:172 87:122 88:91 89:79 90:72 91:76 92:81 93:82 94:85 95:90 96:106 97:140 98:194 99:255 100:255 101:255 102:255 103:246 104:241 105:209 106:151 107:94 108:56 109:37 110:31 111:36 112:41 113:45 114:52 115:64 116:87 117:125 118:184 119:255 120:255 121:255 122:255 123:229 124:222 125:192 126:135 127:78 128:36 129:12 130:9 131:17 132:26 133:34 134:46 135:62 136:87 137:126 138:187 139:255 140:255 141:255 142:255 143:209 144:202 145:178 146:126 147:72 148:27 149:6 150:9 151:27 152:44 153:59 154:72 155:83 156:106 157:147 158:201 159:255 160:255 161:255 162:255 163:192 164:188 165:171 166:123 167:72 168:28 169:10 170:20 171:54 172:72 173:90 174:103 175:119 176:143 177:180 178:224 179:255 180:255 181:255 182:255 183:180 184:176 185:165 186:122 187:73 188:32 189:15 190:29 191:67 192:92 193:110 194:122 195:142 196:172 197:209 198:244 199:255 200:255 201:255 202:255 203:174 204:170 205:159 206:115 207:67 208:28 209:12 210:26 211:60 212:78 213:96 214:113 215:128 216:156 217:203 218:244 219:255 220:255 221:255 222:255 223:169 224:167 225:158 226:114 227:67 228:27 229:7 230:16 231:37 232:56 233:70 234:78 235:96 236:128 237:174 238:224 239:255 240:255 241:255 242:255 243:165 244:166 245:162 246:120 247:70 248:26 249:3 250:6 251:20 252:32 253:43 254:56 255:73 256:104 257:151 258:209 259:255 260:255 261:255 262:255 263:167 264:166 265:163 266:122 267:73 268:29 269:6 270:7 271:20 272:36 273:46 274:58 275:73 276:101 277:148 278:207 279:255 280:255 281:255 282:255 283:175 284:172 285:164 286:122 287:73 288:32 289:12 290:18 291:42 292:59 293:73 294:86 295:99 296:124 297:168 298:219 299:255 300:255 301:255 302:255 303:186 304:183 305:168 306:122 307:74 308:34 309:19 310:36 311:69 312:93 313:109 314:125 315:144 316:170 317:205 318:238 319:255 320:255 321:255 322:255 323:199 324:193 325:171 326:123 327:75 328:36 329:24 330:53 331:91 332:127 333:149 334:171 335:194 336:218 337:239 338:251 339:255 340:255 341:255 342:255 343:213 344:201 345:173 346:125 347:77 348:38 349:28 350:63 351:109 352:155 353:193 354:217 355:233 356:245 357:250 358:251 359:255 360:255 361:255 362:255 363:228 364:214 365:182 366:131 367:82 368:46 369:36 370:70 371:114 372:175 373:221 374:237 375:241 376:243 377:242 378:239 379:255 380:255 381:255 382:255 383:231 384:220 385:193 386:144 387:95 388:62 389:51 390:74 391:122 392:190 393:231 394:240 395:235 396:231 397:221 398:215 399:255 400:255 
-8.734433594641369e-07 1:255 2:255 3:134 4:97 5:104 6:116 7:131 8:146 9:157 10:178 11:192 12:213 13:232 14:243 15:248 16:248 17:239 18:233 19:255 20:255 21:255 22:255 23:158 24:129 25:134 26:132 27:125 28:123 29:127 30:146 31:178 32:203 33:230 34:245 35:252 36:254 37:247 38:240 39:255 40:255 41:255 42:255 43:182 44:156 45:147 46:127 47:107 48:96 49:95 50:113 51:149 52:190 53:227 54:248 55:254 56:252 57:241 58:235 59:255 60:255 61:255 62:255 63:196 64:167 65:143 66:113 67:86 68:67 69:65 70:85 71:121 72:174 73:218 74:242 75:246 76:239 77:229 78:229 79:255 80:255 81:255 82:255 83:195 84:167 85:138 86:102 87:70 88:45 89:41 90:66 91:105 92:160 93:208 94:234 95:235 96:229 97:225 98:230 99:255 100:255 101:255 102:255 103:189 104:164 105:136 106:97 107:61 108:32 109:27 110:56 111:98 112:148 113:198 114:228 115:236 116:235 117:234 118:237 119:255 120:255 121:255 122:255 123:182 124:160 125:137 126:97 127:59 128:26 129:19 130:51 131:93 132:141 133:190 134:225 135:243 136:248 137:246 138:245 139:255 140:255 141:255 142:255 143:173 144:156 145:139 146:100 147:60 148:25 149:14 150:47 151:90 152:137 153:185 154:222 155:242 156:251 157:251 158:251 159:255 160:255 161:255 162:255 163:165 164:153 165:141 166:104 167:65 168:27 169:15 170:44 171:88 172:133 173:179 174:212 175:233 176:243 177:245 178:247 179:255 180:255 181:255 182:255 183:162 184:155 185:144 186:106 187:69 188:34 189:18 190:42 191:83 192:120 193:168 194:197 195:211 196:225 197:236 198:241 199:255 200:255 201:255 202:255 203:166 204:158 205:148 206:111 207:71 208:35 209:17 210:36 211:79 212:116 213:163 214:188 215:198 216:209 217:221 218:234 219:255 220:255 221:255 222:255 223:174 224:166 225:154 226:113 227:71 228:33 229:13 230:32 231:72 232:110 233:162 234:191 235:202 236:206 237:206 238:217 239:255 240:255 241:255 242:255 243:187 244:175 245:159 246:118 247:72 248:31 249:8 250:24 251:65 252:106 253:155 254:186 255:196 256:196 257:196 258:210 259:255 260:255 261:255 262:255 263:197 264:181 265:162 266:121 267:75 268:35 269:7 270:18 271:58 272:99 273:137 274:160 275:170 276:174 277:178 278:201 279:255 280:255 281:255 282:255 283:208 284:190 285:166 286:124 287:79 288:39 289:9 290:12 291:48 292:82 293:107 294:122 295:129 296:134 297:142 298:178 299:255 300:255 301:255 302:255 303:219 304:200 305:171 306:128 307:83 308:41 309:10 310:6 311:31 312:57 313:73 314:81 315:85 316:91 317:105 318:152 319:255 320:255 321:255 322:255 323:227 324:206 325:177 326:134 327:87 328:44 329:12 330:2 331:13 332:32 333:41 334:45 335:48 336:59 337:79 338:135 339:255 340:255 341:255 342:255 343:227 344:207 345:185 346:143 347:94 348:54 349:21 350:7 351:9 352:17 353:22 354:24 355:29 356:42 357:61 358:123 359:255 360:255 361:255 362:255 363:227 364:211 365:194 366:156 367:108 368:72 369:44 370:29 371:29 372:30 373:31 374:32 375:39 376:49 377:60 378:115 379:255 380:255 381:255 382:255 383:227 384:217 385:204 386:172 387:131 388:98 389:79 390:66 391:63 392:61 393:63 394:65 395:67 396:70 397:73 398:119 399:255 400:255 
-7.074768134986928e-06 1:255 2:255 3:171 4:161 5:185 6:210 7:231 8:243 9:251 10:255 11:255 12:251 13:250 14:253 15:255 16:255 17:252 18:248 19:255 20:255 21:255 22:255 23:200 24:192 25:206 26:220 27:232 28:240 29:247 30:248 31:247 32:244 33:242 34:240 35:241 36:243 37:245 38:248 39:255 40:255 41:255 42:255 43:217 44:205 45:207 46:213 47:221 48:229 49:237 50:239 51:237 52:232 53:226 54:221 55:222 56:228 57:233 58:241 59:255 60:255 61:255 62:255 63:221 64:201 65:192 66:191 67:196 68:206 69:220 70:230 71:225 72:213 73:199 74:189 75:190 76:199 77:213 78:232 79:255 80:255 81:255 82:255 83:216 84:183 85:162 86:152 87:155 88:174 89:199 90:212 91:205 92:184 93:161 94:143 95:146 96:164 97:188 98:221 99:255 100:255 101:255 102:255 103:208 104:165 105:127 106:103 107:107 108:135 109:170 110:187 111:179 112:154 113:117 114:93 115:98 116:127 117:167 118:210 119:255 120:255 121:255 122:255 123:203 124:152 125:99 126:64 127:64 128:94 129:132 130:158 131:149 132:121 133:74 134:52 135:58 136:95 137:149 138:200 139:255 140:255 141:255 142:255 143:199 144:142 145:88 146:48 147:38 148:60 149:92 150:122 151:114 152:84 153:46 154:29 155:36 156:74 157:130 158:190 159:255 160:255 161:255 162:255 163:193 164:136 165:83 166:41 167:26 168:35 169:58 170:76 171:75 172:56 173:31 174:16 175:24 176:60 177:114 178:182 179:255 180:255 181:255 182:255 183:188 184:129 185:73 186:31 187:15 188:17 189:32 190:41 191:37 192:31 193:13 194:6 195:16 196:48 197:100 198:173 199:255 200:255 201:255 202:255 203:183 204:120 205:68 206:32 207:16 208:10 209:14 210:17 211:14 212:7 213:3 214:4 215:11 216:38 217:90 218:169 219:255 220:255 221:255 222:255 223:177 224:112 225:64 226:37 227:29 228:26 229:18 230:9 231:6 232:11 233:16 234:21 235:21 236:37 237:85 238:164 239:255 240:255 241:255 242:255 243:175 244:109 245:64 246:48 247:52 248:50 249:34 250:21 251:17 252:28 253:44 254:49 255:40 256:40 257:75 258:155 259:255 260:255 261:255 262:255 263:176 264:111 265:73 266:66 267:78 268:82 269:68 270:50 271:45 272:57 273:74 274:73 275:59 276:52 277:76 278:151 279:255 280:255 281:255 282:255 283:177 284:115 285:83 286:82 287:105 288:120 289:114 290:95 291:89 292:98 293:110 294:101 295:77 296:63 297:81 298:150 299:255 300:255 301:255 302:255 303:177 304:119 305:89 306:93 307:124 308:150 309:155 310:144 311:138 312:141 313:143 314:127 315:94 316:70 317:83 318:148 319:255 320:255 321:255 322:255 323:179 324:122 325:93 326:99 327:134 328:166 329:182 330:183 331:179 332:177 333:168 334:147 335:107 336:76 337:83 338:145 339:255 340:255 341:255 342:255 343:182 344:126 345:97 346:105 347:142 348:178 349:199 350:208 351:207 352:201 353:189 354:161 355:118 356:83 357:81 358:140 359:255 360:255 361:255 362:255 363:187 364:134 365:104 366:111 367:150 368:186 369:210 370:223 371:223 372:217 373:200 374:171 375:131 376:94 377:83 378:137 379:255 380:255 381:255 382:255 383:197 384:150 385:118 386:121 387:157 388:193 389:218 390:231 391:231 392:227 393:211 394:187 395:154 396:117 397:97 398:142 399:255 400:255 
-1.494943936218309e-07 1:255 2:255 3:171 4:157 5:183 6:211 7:229 8:237 9:242 10:242 11:245 12:247 13:252 14:254 15:254 16:254 17:251 18:248 19:255 20:255 21:255 22:255 23:206 24:195 25:207 26:217 27:220 28:216 29:213 30:210 31:218 32:225 33:232 34:238 35:243 36:250 37:254 38:253 39:255 40:255 41:255 42:255 43:233 44:222 45:215 46:204 47:189 48:172 49:160 50:158 51:163 52:175 53:196 54:213 55:229 56:242 57:251 58:255 59:255 60:255 61:255 62:255 63:243 64:228 65:205 66:174 67:144 68:119 69:101 70:98 71:104 72:120 73:145 74:174 75:201 76:226 77:245 78:255 79:255 80:255 81:255 82:255 83:241 84:217 85:178 86:134 87:96 88:70 89:50 90:48 91:53 92:68 93:92 94:126 95:165 96:204 97:233 98:249 99:255 100:255 101:255 102:255 103:230 104:192 105:144 106:96 107:60 108:40 109:38 110:44 111:41 112:34 113:44 114:79 115:125 116:173 117:215 118:242 119:255 120:255 121:255 122:255 123:214 124:163 125:111 126:68 127:43 128:47 129:70 130:83 131:71 132:40 133:18 134:37 135:83 136:139 137:192 138:233 139:255 140:255 141:255 142:255 143:197 144:138 145:85 146:48 147:46 148:82 149:116 150:132 151:115 152:81 153:29 154:14 155:50 156:109 157:168 158:221 159:255 160:255 161:255 162:255 163:177 164:114 165:63 166:39 167:61 168:111 169:154 170:177 171:159 172:117 173:64 174:18 175:34 176:90 177:149 178:208 179:255 180:255 181:255 182:255 183:170 184:101 185:50 186:39 187:77 188:133 189:183 190:209 191:197 192:149 193:88 194:28 195:23 196:71 197:134 198:197 199:255 200:255 201:255 202:255 203:164 204:94 205:43 206:37 207:81 208:140 209:196 210:225 211:216 212:164 213:108 214:44 215:23 216:58 217:120 218:188 219:255 220:255 221:255 222:255 223:164 224:94 225:43 226:36 227:82 228:142 229:197 230:227 231:222 232:180 233:122 234:60 235:27 236:51 237:113 238:182 239:255 240:255 241:255 242:255 243:167 244:99 245:40 246:31 247:79 248:137 249:191 250:222 251:223 252:187 253:129 254:68 255:29 256:52 257:116 258:184 259:255 260:255 261:255 262:255 263:172 264:106 265:49 266:31 267:68 268:125 269:175 270:206 271:207 272:181 273:126 274:65 275:32 276:58 277:123 278:189 279:255 280:255 281:255 282:255 283:180 284:120 285:67 286:34 287:49 288:102 289:149 290:178 291:183 292:159 293:109 294:50 295:33 296:69 297:132 298:195 299:255 300:255 301:255 302:255 303:194 304:141 305:89 306:39 307:29 308:71 309:112 310:141 311:147 312:123 313:80 314:31 315:35 316:84 317:142 318:200 319:255 320:255 321:255 322:255 323:210 324:167 325:118 326:61 327:26 328:36 329:66 330:93 331:100 332:82 333:48 334:25 335:50 336:102 337:154 338:205 339:255 340:255 341:255 342:255 343:225 344:194 345:152 346:102 347:54 348:24 349:32 350:47 351:56 352:48 353:33 354:46 355:82 356:126 357:166 358:206 359:255 360:255 361:255 362:255 363:238 364:217 365:184 366:142 367:102 368:68 369:47 370:36 371:38 372:45 373:62 374:86 375:120 376:155 377:175 378:196 379:255 380:255 381:255 382:255 383:245 384:237 385:218 386:186 387:151 388:119 389:99 390:84 391:82 392:88 393:106 394:130 395:156 396:175 397:171 398:177 399:255 400:255 
-1.019993773884798e-05 1:255 2:255 3:192 4:186 5:206 6:221 7:230 8:233 9:235 10:239 11:240 12:245 13:251 14:254 15:254 16:253 17:247 18:243 19:255 20:255 21:255 22:255 23:224 24:216 25:214 26:211 27:207 28:201 29:197 30:198 31:207 32:224 33:238 34:247 35:252 36:251 37:248 38:246 39:255 40:255 41:255 42:255 43:236 44:224 45:204 46:181 47:163 48:147 49:139 50:141 51:153 52:176 53:201 54:225 55:241 56:247 57:248 58:248 59:255 60:255 61:255 62:255 63:236 64:211 65:178 66:143 67:113 68:94 69:87 70:91 71:99 72:123 73:154 74:190 75:221 76:239 77:247 78:250 79:255 80:255 81:255 82:255 83:228 84:187 85:143 86:101 87:67 88:50 89:52 90:60 91:62 92:79 93:107 94:146 95:189 96:222 97:241 98:250 99:255 100:255 101:255 102:255 103:212 104:158 105:107 106:64 107:41 108:44 109:57 110:64 111:60 112:52 113:67 114:103 115:151 116:197 117:230 118:246 119:255 120:255 121:255 122:255 123:195 124:129 125:75 126:42 127:46 128:77 129:98 130:102 131:85 132:52 133:41 134:67 135:114 136:168 137:213 138:240 139:255 140:255 141:255 142:255 143:181 144:107 145:50 146:39 147:74 148:116 149:142 150:145 151:119 152:76 153:32 154:37 155:82 156:141 157:194 158:233 159:255 160:255 161:255 162:255 163:164 164:88 165:39 166:46 167:97 168:143 169:175 170:179 171:150 172:97 173:37 174:19 175:59 176:125 177:184 178:229 179:255 180:255 181:255 182:255 183:153 184:68 185:29 186:52 187:113 188:164 189:196 190:205 191:174 192:118 193:46 194:12 195:44 196:113 197:178 198:226 199:255 200:255 201:255 202:255 203:148 204:63 205:28 206:56 207:122 208:173 209:208 210:221 211:191 212:131 213:60 214:15 215:40 216:109 217:176 218:226 219:255 220:255 221:255 222:255 223:148 224:63 225:31 226:60 227:122 228:174 229:210 230:223 231:197 232:140 233:77 234:22 235:40 236:105 237:169 238:223 239:255 240:255 241:255 242:255 243:151 244:71 245:34 246:53 247:111 248:166 249:206 250:223 251:193 252:139 253:79 254:24 255:39 256:101 257:164 258:219 259:255 260:255 261:255 262:255 263:155 264:80 265:38 266:46 267:97 268:149 269:190 270:208 271:179 272:129 273:70 274:24 275:43 276:105 277:165 278:216 279:255 280:255 281:255 282:255 283:163 284:91 285:39 286:33 287:76 288:126 289:163 290:177 291:154 292:110 293:52 294:22 295:55 296:118 297:172 298:215 299:255 300:255 301:255 302:255 303:177 304:105 305:44 306:20 307:47 308:94 309:125 310:134 311:114 312:78 313:31 314:29 315:74 316:134 317:179 318:213 319:255 320:255 321:255 322:255 323:192 324:126 325:65 326:22 327:20 328:52 329:78 330:87 331:69 332:43 333:24 334:51 335:101 336:151 337:181 338:204 339:255 340:255 341:255 342:255 343:209 344:154 345:101 346:50 347:18 348:21 349:40 350:50 351:38 352:30 353:45 354:84 355:132 356:168 357:178 358:190 359:255 360:255 361:255 362:255 363:232 364:191 365:143 366:98 367:64 368:45 369:39 370:46 371:47 372:62 373:91 374:125 375:159 376:176 377:166 378:172 379:255 380:255 381:255 382:255 383:243 384:224 385:189 386:150 387:120 388:101 389:92 390:96 391:102 392:114 393:139 394:165 395:177 396:169 397:141 398:146 399:255 400:255 
-4.905924444642754e-06 1:255 2:255 3:204 4:195 5:212 6:229 7:240 8:245 9:247 10:254 11:254 12:254 13:254 14:249 15:242 16:226 17:206 18:210 19:255 20:255 21:255 22:255 23:220 24:205 25:200 26:196 27:195 28:197 29:201 30:207 31:211 32:225 33:237 34:241 35:239 36:230 37:214 38:216 39:255 40:255 41:255 42:255 43:221 44:189 45:167 46:153 47:147 48:148 49:149 50:154 51:162 52:179 53:200 54:214 55:225 56:228 57:219 58:219 59:255 60:255 61:255 62:255 63:215 64:169 65:129 66:103 67:94 68:92 69:93 70:97 71:109 72:135 73:160 74:186 75:206 76:220 77:224 78:227 79:255 80:255 81:255 82:255 83:208 84:152 85:100 86:64 87:51 88:54 89:61 90:62 91:71 92:94 93:124 94:156 95:186 96:213 97:226 98:232 99:255 100:255 101:255 102:255 103:201 104:141 105:85 106:46 107:37 108:53 109:67 110:66 111:58 112:62 113:89 114:127 115:168 116:205 117:226 118:235 119:255 120:255 121:255 122:255 123:196 124:135 125:80 126:45 127:48 128:77 129:96 130:93 131:66 132:45 133:61 134:105 135:153 136:195 137:222 138:236 139:255 140:255 141:255 142:255 143:193 144:129 145:75 146:47 147:59 148:95 149:122 150:114 151:79 152:43 153:53 154:96 155:146 156:191 157:220 158:237 159:255 160:255 161:255 162:255 163:191 164:125 165:65 166:38 167:56 168:96 169:123 170:111 171:75 172:41 173:54 174:100 175:153 176:200 177:229 178:243 179:255 180:255 181:255 182:255 183:194 184:126 185:60 186:22 187:35 188:74 189:91 190:81 191:53 192:31 193:60 194:116 195:169 196:214 197:241 198:247 199:255 200:255 201:255 202:255 203:191 204:122 205:53 206:13 207:11 208:25 209:39 210:33 211:20 212:34 213:80 214:133 215:191 216:235 217:253 218:254 219:255 220:255 221:255 222:255 223:185 224:122 225:59 226:15 227:3 228:6 229:10 230:11 231:11 232:52 233:111 234:160 235:210 236:245 237:255 238:254 239:255 240:255 241:255 242:255 243:189 244:124 245:60 246:17 247:5 248:8 249:14 250:10 251:16 252:60 253:120 254:169 255:215 256:246 257:252 258:249 259:255 260:255 261:255 262:255 263:193 264:126 265:60 266:19 267:18 268:41 269:49 270:31 271:19 272:53 273:107 274:157 275:204 276:237 277:245 278:244 279:255 280:255 281:255 282:255 283:192 284:124 285:59 286:24 287:37 288:75 289:87 290:61 291:25 292:36 293:83 294:137 295:187 296:224 297:237 298:236 299:255 300:255 301:255 302:255 303:187 304:120 305:59 306:33 307:57 308:100 309:118 310:92 311:44 312:26 313:61 314:117 315:168 316:206 317:219 318:220 319:255 320:255 321:255 322:255 323:184 324:120 325:66 326:48 327:77 328:118 329:140 330:122 331:72 332:33 333:49 334:98 335:148 336:182 337:191 338:199 339:255 340:255 341:255 342:255 343:188 344:130 345:83 346:68 347:94 348:135 349:155 350:145 351:102 352:59 353:50 354:83 355:128 356:157 357:163 358:180 359:255 360:255 361:255 362:255 363:201 364:152 365:111 366:97 367:120 368:158 369:178 370:162 371:135 372:92 373:74 374:89 375:120 376:139 377:141 378:167 379:255 380:255 381:255 382:255 383:217 384:175 385:149 386:143 387:156 388:180 389:197 390:190 391:156 392:134 393:114 394:113 395:119 396:119 397:113 398:145 399:255 400:255 
-5.322766084184174e-07 1:255 2:255 3:208 4:192 5:195 6:208 7:222 8:226 9:232 10:236 11:242 12:248 13:244 14:247 15:251 16:251 17:243 18:239 19:255 20:255 21:255 22:255 23:226 24:206 25:196 26:191 27:184 28:176 29:178 30:189 31:196 32:202 33:206 34:223 35:238 36:247 37:248 38:244 39:255 40:255 41:255 42:255 43:231 44:206 45:179 46:155 47:138 48:127 49:132 50:137 51:144 52:153 53:162 54:186 55:214 56:234 57:245 58:249 59:255 60:255 61:255 62:255 63:230 64:201 65:165 66:123 67:90 68:77 69:83 70:89 71:91 72:100 73:113 74:144 75:180 76:213 77:239 78:251 79:255 80:255 81:255 82:255 83:225 84:195 85:154 86:104 87:60 88:40 89:48 90:58 91:58 92:65 93:79 94:105 95:143 96:186 97:225 98:251 99:255 100:255 101:255 102:255 103:225 104:192 105:149 106:97 107:49 108:27 109:47 110:62 111:64 112:63 113:64 114:79 115:116 116:163 117:209 118:246 119:255 120:255 121:255 122:255 123:230 124:193 125:147 126:93 127:47 128:32 129:66 130:89 131:97 132:80 133:61 134:65 135:98 136:146 137:196 138:239 139:255 140:255 141:255 142:255 143:227 144:190 145:143 146:87 147:40 148:33 149:77 150:108 151:123 152:93 153:61 154:56 155:83 156:130 157:184 158:234 159:255 160:255 161:255 162:255 163:221 164:186 165:140 166:77 167:26 168:26 169:72 170:108 171:123 172:90 173:49 174:45 175:79 176:131 177:185 178:233 179:255 180:255 181:255 182:255 183:221 184:182 185:137 186:77 187:25 188:15 189:39 190:78 191:85 192:66 193:37 194:51 195:98 196:154 197:204 198:239 199:255 200:255 201:255 202:255 203:221 204:187 205:144 206:83 207:27 208:5 209:10 210:20 211:30 212:25 213:35 214:71 215:121 216:171 217:217 218:250 219:255 220:255 221:255 222:255 223:228 224:191 225:141 226:78 227:23 228:2 229:4 230:8 231:10 232:14 233:44 234:93 235:142 236:191 237:234 238:252 239:255 240:255 241:255 242:255 243:223 244:182 245:133 246:72 247:20 248:5 249:11 250:14 251:12 252:13 253:40 254:95 255:149 256:199 257:239 258:254 259:255 260:255 261:255 262:255 263:218 264:176 265:128 266:69 267:21 268:14 269:38 270:57 271:48 272:23 273:31 274:79 275:135 276:190 277:235 278:255 279:255 280:255 281:255 282:255 283:219 284:179 285:130 286:72 287:28 288:28 289:69 290:93 291:83 292:50 293:32 294:64 295:119 296:174 297:221 298:250 299:255 300:255 301:255 302:255 303:225 304:186 305:136 306:79 307:37 308:42 309:91 310:121 311:114 312:80 313:43 314:55 315:100 316:151 317:195 318:232 319:255 320:255 321:255 322:255 323:232 324:193 325:142 326:86 327:49 328:55 329:102 330:144 331:141 332:105 333:62 334:52 335:81 336:127 337:168 338:209 339:255 340:255 341:255 342:255 343:238 344:200 345:150 346:98 347:66 348:74 349:116 350:158 351:161 352:131 353:89 354:62 355:74 356:115 357:154 358:191 359:255 360:255 361:255 362:255 363:243 364:211 365:166 366:119 367:93 368:104 369:144 370:183 371:190 372:157 373:114 374:90 375:91 376:117 377:143 378:175 379:255 380:255 381:255 382:255 383:255 384:233 385:189 386:153 387:143 388:146 389:162 390:198 391:204 392:179 393:153 394:135 395:127 396:130 397:135 398:163 399:255 400:255 
-6.748302110434941e-06 1:255 2:255 3:205 4:198 5:216 6:228 7:234 8:242 9:246 10:251 11:251 12:251 13:247 14:249 15:246 16:234 17:216 18:212 19:255 20:255 21:255 22:255 23:218 24:204 25:201 26:197 27:193 28:194 29:196 30:204 31:207 32:219 33:230 34:239 35:240 36:232 37:218 38:215 39:255 40:255 41:255 42:255 43:219 44:185 45:165 46:153 47:145 48:142 49:143 50:151 51:160 52:174 53:199 54:217 55:227 56:228 57:219 58:218 59:255 60:255 61:255 62:255 63:213 64:166 65:127 66:102 67:91 68:87 69:88 70:96 71:109 72:132 73:160 74:187 75:207 76:220 77:221 78:223 79:255 80:255 81:255 82:255 83:206 84:150 85:97 86:61 87:48 88:50 89:60 90:63 91:72 92:92 93:120 94:154 95:186 96:212 97:224 98:230 99:255 100:255 101:255 102:255 103:201 104:140 105:82 106:42 107:34 108:50 109:67 110:67 111:59 112:61 113:86 114:126 115:168 116:203 117:223 118:234 119:255 120:255 121:255 122:255 123:196 124:135 125:76 126:40 127:45 128:75 129:98 130:94 131:67 132:47 133:62 134:106 135:153 136:193 137:221 138:236 139:255 140:255 141:255 142:255 143:194 144:132 145:73 146:42 147:55 148:96 149:127 150:117 151:79 152:43 153:53 154:95 155:146 156:193 157:223 158:238 159:255 160:255 161:255 162:255 163:194 164:130 165:68 166:37 167:53 168:97 169:127 170:113 171:76 172:39 173:50 174:98 175:154 176:202 177:231 178:242 179:255 180:255 181:255 182:255 183:194 184:129 185:63 186:23 187:35 188:74 189:91 190:81 191:54 192:33 193:57 194:115 195:171 196:215 197:240 198:248 199:255 200:255 201:255 202:255 203:191 204:124 205:55 206:13 207:11 208:26 209:41 210:35 211:21 212:31 213:78 214:133 215:188 216:231 217:251 218:254 219:255 220:255 221:255 222:255 223:187 224:122 225:60 226:16 227:3 228:6 229:10 230:11 231:11 232:53 233:111 234:162 235:210 236:243 237:254 238:254 239:255 240:255 241:255 242:255 243:189 244:123 245:61 246:17 247:4 248:8 249:14 250:10 251:16 252:61 253:121 254:170 255:215 256:245 257:253 258:253 259:255 260:255 261:255 262:255 263:193 264:123 265:55 266:15 267:18 268:41 269:50 270:33 271:19 272:54 273:108 274:160 275:207 276:238 277:247 278:247 279:255 280:255 281:255 282:255 283:192 284:122 285:56 286:22 287:38 288:76 289:88 290:62 291:26 292:38 293:84 294:140 295:190 296:226 297:238 298:238 299:255 300:255 301:255 302:255 303:187 304:120 305:62 306:35 307:56 308:101 309:119 310:92 311:48 312:31 313:66 314:121 315:170 316:207 317:220 318:223 319:255 320:255 321:255 322:255 323:184 324:122 325:70 326:49 327:74 328:119 329:141 330:123 331:76 332:41 333:58 334:103 335:149 336:183 337:193 338:202 339:255 340:255 341:255 342:255 343:189 344:132 345:84 346:68 347:94 348:134 349:155 350:146 351:101 352:60 353:56 354:87 355:129 356:159 357:166 358:182 359:255 360:255 361:255 362:255 363:202 364:153 365:112 366:97 367:119 368:155 369:172 370:162 371:133 372:92 373:75 374:89 375:120 376:139 377:139 378:166 379:255 380:255 381:255 382:255 383:218 384:175 385:149 386:144 387:155 388:176 389:198 390:193 391:156 392:131 393:111 394:112 395:122 396:119 397:109 398:143 399:255 400:255 
-1.436144469048305e-05 1:255 2:255 3:206 4:201 5:216 6:232 7:243 8:247 9:251 10:251 11:241 12:238 13:240 14:248 15:252 16:254 17:255 18:255 19:255 20:255 21:255 22:255 23:232 24:230 25:231 26:228 27:225 28:219 29:208 30:203 31:191 32:185 33:189 34:202 35:219 36:237 37:249 38:253 39:255 40:255 41:255 42:255 43:245 44:235 45:225 46:210 47:187 48:160 49:143 50:127 51:122 52:121 53:126 54:145 55:173 56:204 57:233 58:249 59:255 60:255 61:255 62:255 63:240 64:220 65:191 66:159 67:129 68:102 69:82 70:70 71:69 72:72 73:77 74:97 75:132 76:175 77:216 78:244 79:255 80:255 81:255 82:255 83:227 84:191 85:149 86:109 87:79 88:59 89:47 90:51 91:60 92:62 93:67 94:85 95:118 96:164 97:210 98:242 99:255 100:255 101:255 102:255 103:211 104:159 105:112 106:76 107:51 108:42 109:53 110:72 111:87 112:89 113:96 114:111 115:137 116:176 117:217 118:245 119:255 120:255 121:255 122:255 123:196 124:134 125:87 126:55 127:39 128:46 129:77 130:102 131:123 132:128 133:137 134:153 135:172 136:199 137:230 138:250 139:255 140:255 141:255 142:255 143:188 144:124 145:76 146:42 147:31 148:47 149:78 150:106 151:134 152:146 153:159 154:180 155:200 156:219 157:238 158:252 159:255 160:255 161:255 162:255 163:189 164:127 165:78 166:38 167:18 168:23 169:50 170:78 171:100 172:121 173:140 174:169 175:197 176:220 177:239 178:251 179:255 180:255 181:255 182:255 183:201 184:148 185:100 186:53 187:20 188:8 189:14 190:24 191:48 192:68 193:88 194:121 195:156 196:190 197:222 198:244 199:255 200:255 201:255 202:255 203:218 204:178 205:133 206:89 207:53 208:25 209:11 210:7 211:14 212:25 213:42 214:74 215:105 216:143 217:188 218:228 219:255 220:255 221:255 222:255 223:230 224:205 225:174 226:139 227:104 228:71 229:48 230:37 231:23 232:15 233:20 234:35 235:63 236:99 237:142 238:200 239:255 240:255 241:255 242:255 243:239 244:224 245:206 246:184 247:157 248:131 249:111 250:92 251:68 252:41 253:23 254:18 255:30 256:64 257:113 258:176 259:255 260:255 261:255 262:255 263:238 264:225 265:213 266:201 267:190 268:178 269:166 270:139 271:112 272:75 273:36 274:14 275:16 276:44 277:92 278:163 279:255 280:255 281:255 282:255 283:230 284:207 285:187 286:176 287:176 288:179 289:175 290:156 291:128 292:88 293:40 294:11 295:8 296:36 297:88 298:162 299:255 300:255 301:255 302:255 303:218 304:178 305:146 306:128 307:128 308:135 309:137 310:128 311:104 312:66 313:29 314:9 315:11 316:44 317:99 318:169 319:255 320:255 321:255 322:255 323:209 324:158 325:117 326:91 327:80 328:81 329:81 330:77 331:60 332:33 333:19 334:18 335:35 336:72 337:121 338:181 339:255 340:255 341:255 342:255 343:211 344:161 345:118 346:85 347:66 348:56 349:48 350:46 351:37 352:30 353:36 354:51 355:78 356:112 357:150 358:198 359:255 360:255 361:255 362:255 363:227 364:189 365:153 366:124 367:101 368:86 369:72 370:67 371:67 372:73 373:87 374:104 375:128 376:151 377:171 378:205 379:255 380:255 381:255 382:255 383:242 384:223 385:204 386:183 387:160 388:142 389:133 390:127 391:127 392:137 393:145 394:159 395:174 396:186 397:185 398:195 399:255 400:255 
-3.803005362824667e-06 1:255 2:255 3:170 4:160 5:183 6:204 7:224 8:237 9:241 10:245 11:250 12:246 13:249 14:252 15:253 16:254 17:255 18:255 19:255 20:255 21:255 22:255 23:203 24:196 25:208 26:220 27:227 28:228 29:223 30:222 31:217 32:221 33:229 34:237 35:243 36:248 37:252 38:254 39:255 40:255 41:255 42:255 43:228 44:217 45:212 46:206 47:198 48:187 49:177 50:170 51:163 52:169 53:178 54:188 55:205 56:226 57:243 58:252 59:255 60:255 61:255 62:255 63:237 64:218 65:196 66:173 67:151 68:131 69:115 70:106 71:100 72:106 73:118 74:134 75:159 76:191 77:223 78:246 79:255 80:255 81:255 82:255 83:229 84:199 85:165 86:131 87:101 88:76 89:61 90:57 91:59 92:66 93:77 94:96 95:124 96:162 97:206 98:241 99:255 100:255 101:255 102:255 103:215 104:172 105:130 106:93 107:64 108:44 109:42 110:50 111:59 112:69 113:78 114:93 115:117 116:154 117:199 118:237 119:255 120:255 121:255 122:255 123:201 124:148 125:102 126:66 127:45 128:42 129:58 130:79 131:92 132:102 133:112 134:122 135:139 136:167 137:203 138:236 139:255 140:255 141:255 142:255 143:191 144:134 145:86 146:50 147:38 148:51 149:76 150:107 151:125 152:136 153:145 154:157 155:171 156:189 157:213 158:239 159:255 160:255 161:255 162:255 163:189 164:131 165:83 166:45 167:28 168:38 169:68 170:100 171:120 172:144 173:158 174:170 175:184 176:200 177:218 178:238 179:255 180:255 181:255 182:255 183:197 184:142 185:92 186:47 187:21 188:19 189:32 190:59 191:85 192:107 193:124 194:148 195:170 196:191 197:213 198:234 199:255 200:255 201:255 202:255 203:212 204:163 205:119 206:74 207:35 208:14 209:9 210:14 211:30 212:56 213:74 214:100 215:129 216:161 217:193 218:223 219:255 220:255 221:255 222:255 223:237 224:198 225:153 226:114 227:77 228:41 229:18 230:15 231:14 232:21 233:29 234:52 235:87 236:123 237:159 238:205 239:255 240:255 241:255 242:255 243:246 244:226 245:195 246:161 247:129 248:98 249:76 250:54 251:38 252:22 253:13 254:21 255:44 256:82 257:125 258:180 259:255 260:255 261:255 262:255 263:250 264:241 265:226 266:205 267:179 268:156 269:137 270:108 271:85 272:52 273:22 274:10 275:16 276:45 277:92 278:161 279:255 280:255 281:255 282:255 283:247 284:235 285:224 286:211 287:197 288:185 289:173 290:151 291:124 292:83 293:37 294:11 295:6 296:25 297:69 298:147 299:255 300:255 301:255 302:255 303:236 304:213 305:194 306:181 307:175 308:174 309:169 310:156 311:132 312:88 313:41 314:12 315:5 316:21 317:63 318:142 319:255 320:255 321:255 322:255 323:222 324:187 325:157 326:138 327:130 328:131 329:130 330:119 331:103 332:68 333:34 334:13 335:10 336:31 337:74 338:147 339:255 340:255 341:255 342:255 343:214 344:171 345:132 346:103 347:88 348:80 349:78 350:72 351:59 352:45 353:27 354:22 355:30 356:56 357:98 358:163 359:255 360:255 361:255 362:255 363:221 364:181 365:138 366:99 367:73 368:60 369:53 370:51 371:44 372:41 373:42 374:57 375:75 376:101 377:135 378:181 379:255 380:255 381:255 382:255 383:235 384:203 385:170 386:139 387:113 388:95 389:81 390:81 391:81 392:88 393:98 394:111 395:125 396:145 397:164 398:191 399:255 400:255 
-2.727230273113748e-06 1:255 2:255 3:223 4:209 5:208 6:212 7:219 8:228 9:236 10:242 11:249 12:253 13:255 14:254 15:250 16:244 17:240 18:242 19:255 20:255 21:255 22:255 23:228 24:212 25:201 26:197 27:205 28:220 29:231 30:242 31:249 32:253 33:253 34:248 35:239 36:230 37:226 38:233 39:255 40:255 41:255 42:255 43:219 44:193 45:174 46:163 47:175 48:203 49:225 50:238 51:247 52:250 53:249 54:239 55:219 56:198 57:191 58:210 59:255 60:255 61:255 62:255 63:209 64:173 65:144 66:129 67:143 68:177 69:212 70:233 71:243 72:246 73:242 74:229 75:198 76:165 77:151 78:182 79:255 80:255 81:255 82:255 83:203 84:162 85:126 86:106 87:120 88:161 89:202 90:228 91:236 92:239 93:234 94:215 95:179 96:138 97:120 98:159 99:255 100:255 101:255 102:255 103:199 104:156 105:118 106:94 107:108 108:151 109:193 110:217 111:223 112:224 113:220 114:203 115:166 116:123 117:101 118:145 119:255 120:255 121:255 122:255 123:196 124:153 125:112 126:87 127:100 128:140 129:176 130:194 131:195 132:194 133:194 134:184 135:153 136:111 137:90 138:137 139:255 140:255 141:255 142:255 143:194 144:151 145:108 146:82 147:93 148:129 149:152 150:157 151:151 152:147 153:155 154:154 155:133 156:98 157:81 158:133 159:255 160:255 161:255 162:255 163:194 164:151 165:105 166:77 167:86 168:113 169:126 170:117 171:105 172:101 173:115 174:125 175:116 176:89 177:77 178:132 179:255 180:255 181:255 182:255 183:194 184:151 185:104 186:70 187:70 188:88 189:95 190:76 191:58 192:59 193:83 194:101 195:98 196:78 197:71 198:128 199:255 200:255 201:255 202:255 203:194 204:151 205:101 206:63 207:57 208:62 209:60 210:43 211:30 212:31 213:53 214:71 215:72 216:64 217:68 218:128 219:255 220:255 221:255 222:255 223:194 224:151 225:101 226:58 227:41 228:38 229:33 230:25 231:17 232:22 233:35 234:48 235:52 236:51 237:63 238:128 239:255 240:255 241:255 242:255 243:196 244:153 245:104 246:58 247:33 248:24 249:17 250:12 251:10 252:12 253:22 254:31 255:33 256:38 257:61 258:134 259:255 260:255 261:255 262:255 263:201 264:159 265:115 266:65 267:28 268:13 269:12 270:18 271:19 272:19 273:17 274:16 275:20 276:32 277:65 278:144 279:255 280:255 281:255 282:255 283:207 284:168 285:127 286:73 287:28 288:10 289:15 290:32 291:42 292:40 293:26 294:13 295:12 296:29 297:70 298:151 299:255 300:255 301:255 302:255 303:210 304:177 305:137 306:81 307:33 308:17 309:28 310:55 311:77 312:73 313:49 314:24 315:13 316:29 317:76 318:155 319:255 320:255 321:255 322:255 323:214 324:186 325:146 326:90 327:47 328:35 329:53 330:89 331:116 332:113 333:82 334:47 335:27 336:38 337:82 338:159 339:255 340:255 341:255 342:255 343:222 344:197 345:159 346:110 347:74 348:68 349:88 350:129 351:155 352:152 353:121 354:82 355:57 356:62 357:98 358:166 359:255 360:255 361:255 362:255 363:231 364:212 365:183 366:148 367:124 368:121 369:139 370:169 371:192 372:188 373:162 374:130 375:106 376:106 377:130 378:176 379:255 380:255 381:255 382:255 383:239 384:228 385:213 386:192 387:175 388:173 389:189 390:209 391:220 392:217 393:200 394:177 395:160 396:154 397:158 398:186 399:255 400:255 
-1.461519959016621e-05 1:255 2:255 3:151 4:119 5:128 6:150 7:181 8:213 9:248 10:253 11:255 12:253 13:249 14:247 15:247 16:245 17:235 18:228 19:255 20:255 21:255 22:255 23:163 24:128 25:131 26:145 27:168 28:200 29:241 30:253 31:255 32:251 33:242 34:224 35:216 36:216 37:215 38:223 39:255 40:255 41:255 42:255 43:162 44:119 45:112 46:119 47:139 48:169 49:210 50:246 51:251 52:242 53:210 54:185 55:173 56:173 57:180 58:203 59:255 60:255 61:255 62:255 63:154 64:100 65:85 66:86 67:103 68:136 69:175 70:213 71:224 72:206 73:172 74:143 75:127 76:128 77:145 78:184 79:255 80:255 81:255 82:255 83:143 84:84 85:64 86:59 87:73 88:104 89:144 90:182 91:190 92:167 93:130 94:103 95:88 96:93 97:118 98:172 99:255 100:255 101:255 102:255 103:140 104:80 105:53 106:40 107:49 108:77 109:116 110:154 111:157 112:131 113:94 114:69 115:61 116:74 117:108 118:170 119:255 120:255 121:255 122:255 123:148 124:88 125:53 126:30 127:30 128:55 129:92 130:124 131:124 132:98 133:67 134:47 135:49 136:73 137:114 138:176 139:255 140:255 141:255 142:255 143:161 144:103 145:65 146:33 147:21 148:37 149:72 150:95 151:89 152:70 153:44 154:36 155:52 156:87 157:130 158:186 159:255 160:255 161:255 162:255 163:176 164:124 165:83 166:44 167:20 168:23 169:48 170:65 171:59 172:41 173:28 174:40 175:70 176:110 177:153 178:201 179:255 180:255 181:255 182:255 183:189 184:144 185:107 186:64 187:28 188:13 189:22 190:34 191:28 192:18 193:23 194:49 195:90 196:138 197:183 198:223 199:255 200:255 201:255 202:255 203:195 204:162 205:133 206:89 207:44 208:14 209:6 210:10 211:10 212:11 213:29 214:66 215:113 216:160 217:204 218:241 219:255 220:255 221:255 222:255 223:201 224:176 225:152 226:111 227:63 228:23 229:4 230:2 231:4 232:17 233:48 234:90 235:134 236:176 237:213 238:242 239:255 240:255 241:255 242:255 243:209 244:190 245:169 246:128 247:81 248:40 249:9 250:2 251:7 252:36 253:72 254:116 255:158 256:194 257:223 258:242 259:255 260:255 261:255 262:255 263:222 264:210 265:189 266:147 267:100 268:57 269:20 270:7 271:19 272:56 273:97 274:141 275:179 276:207 277:223 278:234 279:255 280:255 281:255 282:255 283:229 284:226 285:205 286:164 287:117 288:69 289:30 290:12 291:31 292:72 293:119 294:161 295:195 296:220 297:225 298:226 299:255 300:255 301:255 302:255 303:235 304:236 305:216 306:176 307:129 308:77 309:38 310:18 311:42 312:83 313:134 314:175 315:210 316:232 317:225 318:216 319:255 320:255 321:255 322:255 323:242 324:241 325:220 326:183 327:136 328:81 329:43 330:23 331:51 332:91 333:144 334:187 335:222 336:235 337:215 338:203 339:255 340:255 341:255 342:255 343:242 344:240 345:221 346:187 347:143 348:88 349:47 350:29 351:56 352:102 353:153 354:194 355:224 356:225 357:195 358:187 359:255 360:255 361:255 362:255 363:242 364:238 365:226 366:195 367:150 368:98 369:57 370:42 371:66 372:113 373:159 374:190 375:208 376:200 377:166 378:166 379:255 380:255 381:255 382:255 383:246 384:246 385:242 386:213 387:163 388:114 389:77 390:65 391:86 392:123 393:162 394:186 395:190 396:171 397:134 398:141 399:255 400:255 
