svm_type c_svc
kernel_type linear
nr_class 2
total_sv 23
rho 4.84718
label 11 -1
nr_sv 9 14
SV
1.376401420443318e-06 1:255 2:255 3:253 4:253 5:253 6:252 7:253 8:254 9:255 10:251 11:240 12:226 13:208 14:194 15:185 16:178 17:173 18:194 19:255 20:255 21:255 22:255 23:244 24:237 25:229 26:224 27:228 28:238 29:245 30:234 31:215 32:196 33:175 34:166 35:175 36:190 37:199 38:215 39:255 40:255 41:255 42:255 43:232 44:207 45:185 46:176 47:187 48:209 49:223 50:208 51:177 52:150 53:127 54:130 55:149 56:178 57:203 58:221 59:255 60:255 61:255 62:255 63:214 64:170 65:138 66:129 67:144 68:171 69:193 70:173 71:136 72:103 73:88 74:100 75:131 76:170 77:201 78:220 79:255 80:255 81:255 82:255 83:197 84:140 85:104 86:94 87:111 88:141 89:156 90:139 91:100 92:64 93:66 94:91 95:132 96:177 97:205 98:221 99:255 100:255 101:255 102:255 103:184 104:124 105:86 106:74 107:89 108:114 109:122 110:106 111:69 112:45 113:64 114:102 115:150 116:192 117:215 118:227 119:255 120:255 121:255 122:255 123:181 124:119 125:80 126:63 127:70 128:88 129:93 130:73 131:46 132:47 133:78 134:122 135:170 136:209 137:226 138:235 139:255 140:255 141:255 142:255 143:184 144:120 145:77 146:53 147:52 148:65 149:63 150:48 151:36 152:62 153:99 154:145 155:190 156:222 157:236 158:242 159:255 160:255 161:255 162:255 163:183 164:120 165:72 166:41 167:32 168:34 169:30 170:26 171:41 172:80 173:127 174:177 175:214 176:235 177:245 178:248 179:255 180:255 181:255 182:255 183:179 184:118 185:72 186:37 187:20 188:16 189:15 190:24 191:59 192:105 193:155 194:197 195:225 196:239 197:245 198:248 199:255 200:255 201:255 202:255 203:184 204:121 205:73 206:34 207:11 208:4 209:5 210:20 211:66 212:117 213:167 214:206 215:226 216:235 217:241 218:248 219:255 220:255 221:255 222:255 223:189 224:130 225:80 226:37 227:11 228:4 229:3 230:12 231:51 232:96 233:141 234:187 235:216 236:230 237:241 238:252 239:255 240:255 241:255 242:255 243:196 244:137 245:85 246:39 247:11 248:5 249:5 250:9 251:34 252:74 253:122 254:167 255:200 256:222 257:239 258:253 259:255 260:255 261:255 262:255 263:197 264:139 265:85 266:38 267:13 268:13 269:17 270:18 271:25 272:48 273:91 274:135 275:177 276:211 277:236 278:253 279:255 280:255 281:255 282:255 283:199 284:140 285:84 286:38 287:17 288:25 289:37 290:37 291:27 292:31 293:63 294:102 295:145 296:189 297:226 298:247 299:255 300:255 301:255 302:255 303:199 304:143 305:88 306:41 307:23 308:39 309:64 310:66 311:49 312:31 313:43 314:73 315:112 316:158 317:204 318:236 319:255 320:255 321:255 322:255 323:196 324:145 325:94 326:48 327:32 328:54 329:86 330:98 331:80 332:50 333:36 334:54 335:87 336:130 337:177 338:222 339:255 340:255 341:255 342:255 343:194 344:146 345:101 346:60 347:47 348:71 349:103 350:124 351:109 352:84 353:58 354:59 355:82 356:117 357:161 358:211 359:255 360:255 361:255 362:255 363:197 364:150 365:112 366:84 367:76 368:95 369:126 370:147 371:145 372:124 373:102 374:94 375:107 376:135 377:171 378:215 379:255 380:255 381:255 382:255 383:194 384:155 385:136 386:118 387:114 388:130 389:149 390:182 391:187 392:169 393:149 394:141 395:148 396:172 397:203 398:230 399:255 400:255 
4.665166959136774e-06 1:255 2:255 3:255 4:254 5:251 6:243 7:231 8:223 9:225 10:239 11:248 12:245 13:234 14:212 15:195 16:187 17:190 18:212 19:255 20:255 21:255 22:255 23:255 24:251 25:233 26:206 27:180 28:164 29:171 30:197 31:213 32:214 33:194 34:167 35:144 36:139 37:151 38:185 39:255 40:255 41:255 42:255 43:253 44:243 45:216 46:176 47:137 48:115 49:127 50:156 51:178 52:174 53:150 54:119 55:97 56:97 57:118 58:170 59:255 60:255 61:255 62:255 63:252 64:239 65:202 66:154 67:110 68:85 69:92 70:117 71:144 72:138 73:112 74:82 75:65 76:73 77:105 78:168 79:255 80:255 81:255 82:255 83:251 84:234 85:196 86:143 87:94 88:65 89:64 90:88 91:111 92:106 93:83 94:55 95:52 96:76 97:116 98:175 99:255 100:255 101:255 102:255 103:249 104:231 105:192 106:138 107:86 108:51 109:42 110:65 111:82 112:78 113:56 114:41 115:55 116:96 117:143 118:195 119:255 120:255 121:255 122:255 123:246 124:230 125:192 126:138 127:84 128:42 129:25 130:41 131:53 132:49 133:35 134:44 135:75 136:123 137:175 138:221 139:255 140:255 141:255 142:255 143:246 144:231 145:195 146:141 147:84 148:38 149:15 150:19 151:23 152:25 153:29 154:58 155:103 156:154 157:203 158:238 159:255 160:255 161:255 162:255 163:251 164:237 165:200 166:146 167:86 168:33 169:10 170:7 171:12 172:17 173:33 174:74 175:125 176:177 177:219 178:243 179:255 180:255 181:255 182:255 183:252 184:238 185:201 186:147 187:85 188:28 189:7 190:2 191:8 192:17 193:48 194:92 195:140 196:185 197:221 198:242 199:255 200:255 201:255 202:255 203:247 204:235 205:200 206:146 207:86 208:33 209:7 210:1 211:8 212:20 213:49 214:92 215:136 216:180 217:217 218:239 219:255 220:255 221:255 222:255 223:245 224:234 225:200 226:148 227:91 228:37 229:9 230:3 231:10 232:17 233:37 234:74 235:121 236:168 237:202 238:225 239:255 240:255 241:255 242:255 243:243 244:233 245:202 246:151 247:95 248:45 249:13 250:11 251:19 252:24 253:31 254:59 255:100 256:142 257:178 258:215 259:255 260:255 261:255 262:255 263:240 264:229 265:201 266:153 267:98 268:50 269:19 270:21 271:41 272:46 273:40 274:48 275:75 276:112 277:149 278:194 279:255 280:255 281:255 282:255 283:230 284:222 285:203 286:156 287:101 288:55 289:28 290:39 291:67 292:73 293:61 294:48 295:55 296:83 297:119 298:173 299:255 300:255 301:255 302:255 303:218 304:214 305:203 306:161 307:106 308:61 309:36 310:63 311:93 312:101 313:86 314:63 315:52 316:64 317:94 318:152 319:255 320:255 321:255 322:255 323:203 324:200 325:198 326:166 327:115 328:71 329:54 330:84 331:119 332:129 333:117 334:91 335:67 336:65 337:84 338:142 339:255 340:255 341:255 342:255 343:178 344:177 345:188 346:168 347:128 348:93 349:88 350:107 351:143 352:158 353:155 354:127 355:102 356:93 357:102 358:154 359:255 360:255 361:255 362:255 363:154 364:146 365:169 366:167 367:147 368:129 369:127 370:146 371:173 372:195 373:193 374:171 375:154 376:145 377:145 378:180 379:255 380:255 381:255 382:255 383:133 384:121 385:150 386:167 387:173 388:170 389:172 390:186 391:202 392:220 393:223 394:213 395:204 396:198 397:196 398:215 399:255 400:255 
1.379555407571801e-06 1:255 2:255 3:243 4:246 5:252 6:252 7:249 8:251 9:255 10:255 11:249 12:244 13:237 14:213 15:177 16:139 17:107 18:131 19:255 20:255 21:255 22:255 23:240 24:240 25:240 26:233 27:225 28:226 29:232 30:238 31:240 32:237 33:230 34:212 35:189 36:163 37:139 38:157 39:255 40:255 41:255 42:255 43:235 44:226 45:213 46:196 47:183 48:183 49:199 50:214 51:226 52:222 53:207 54:192 55:179 56:170 57:163 58:181 59:255 60:255 61:255 62:255 63:230 64:208 65:182 66:152 67:134 68:138 69:166 70:192 71:204 72:192 73:167 74:149 75:144 76:150 77:164 78:196 79:255 80:255 81:255 82:255 83:227 84:194 85:155 86:117 87:96 88:103 89:134 90:168 91:173 92:151 93:121 94:101 95:102 96:123 97:154 98:199 99:255 100:255 101:255 102:255 103:226 104:185 105:137 106:93 107:70 108:79 109:112 110:141 111:136 112:109 113:77 114:63 115:75 116:108 117:148 118:199 119:255 120:255 121:255 122:255 123:224 124:178 125:128 126:81 127:54 128:64 129:97 130:114 131:100 132:72 133:44 134:46 135:74 136:114 137:158 138:205 139:255 140:255 141:255 142:255 143:220 144:173 145:124 146:77 147:46 148:50 149:75 150:85 151:70 152:43 153:35 154:56 155:95 156:139 157:181 158:219 159:255 160:255 161:255 162:255 163:217 164:169 165:119 166:70 167:35 168:30 169:46 170:50 171:35 172:31 173:51 174:88 175:130 176:170 177:206 178:235 179:255 180:255 181:255 182:255 183:214 184:166 185:116 186:65 187:26 188:13 189:15 190:15 191:16 192:43 193:81 194:121 195:160 196:193 197:221 198:246 199:255 200:255 201:255 202:255 203:212 204:162 205:111 206:60 207:22 208:8 209:5 210:6 211:17 212:64 213:111 214:153 215:187 216:213 217:235 218:250 219:255 220:255 221:255 222:255 223:212 224:162 225:111 226:59 227:20 228:5 229:2 230:8 231:33 232:82 233:130 234:170 235:201 236:225 237:243 238:254 239:255 240:255 241:255 242:255 243:212 244:159 245:107 246:57 247:20 248:5 249:3 250:10 251:33 252:83 253:129 254:171 255:203 256:226 257:245 258:255 259:255 260:255 261:255 262:255 263:209 264:156 265:105 266:56 267:21 268:9 269:8 270:12 271:29 272:68 273:112 274:156 275:192 276:221 277:243 278:255 279:255 280:255 281:255 282:255 283:204 284:151 285:101 286:53 287:23 288:17 289:24 290:26 291:28 292:55 293:94 294:138 295:179 296:213 297:239 298:253 299:255 300:255 301:255 302:255 303:200 304:146 305:95 306:49 307:28 308:35 309:48 310:50 311:39 312:44 313:73 314:115 315:160 316:201 317:231 318:248 319:255 320:255 321:255 322:255 323:196 324:141 325:90 326:48 327:37 328:58 329:77 330:78 331:59 332:40 333:54 334:91 335:137 336:182 337:218 338:242 339:255 340:255 341:255 342:255 343:193 344:138 345:89 346:53 347:49 348:75 349:105 350:109 351:80 352:51 353:48 354:72 355:112 356:157 357:200 358:234 359:255 360:255 361:255 362:255 363:187 364:139 365:100 366:72 367:73 368:98 369:127 370:137 371:112 372:73 373:52 374:60 375:91 376:137 377:186 378:228 379:255 380:255 381:255 382:255 383:185 384:145 385:120 386:104 387:107 388:128 389:157 390:170 391:142 392:109 393:81 394:78 395:95 396:131 397:177 398:221 399:255 400:255 
4.215220691345977e-06 1:255 2:255 3:254 4:250 5:244 6:243 7:248 8:251 9:255 10:255 11:249 12:230 13:215 14:204 15:206 16:216 17:224 18:234 19:255 20:255 21:255 22:255 23:241 24:216 25:196 26:189 27:196 28:215 29:234 30:236 31:218 32:192 33:173 34:165 35:172 36:194 37:224 38:247 39:255 40:255 41:255 42:255 43:226 44:184 45:151 46:138 47:147 48:173 49:202 50:205 51:177 52:147 53:125 54:121 55:137 56:168 57:207 58:242 59:255 60:255 61:255 62:255 63:209 64:158 65:115 66:94 67:105 68:140 69:172 70:172 71:135 72:100 73:83 74:88 75:118 76:158 77:200 78:237 79:255 80:255 81:255 82:255 83:199 84:141 85:92 86:69 87:79 88:112 89:137 90:132 91:97 92:66 93:62 94:81 95:121 96:165 97:203 98:234 99:255 100:255 101:255 102:255 103:195 104:133 105:83 106:56 107:62 108:87 109:102 110:93 111:68 112:50 113:61 114:94 115:139 116:183 117:214 118:231 119:255 120:255 121:255 122:255 123:192 124:131 125:80 126:47 127:44 128:63 129:72 130:63 131:49 132:52 133:76 134:118 135:163 136:204 137:223 138:228 139:255 140:255 141:255 142:255 143:190 144:128 145:75 146:38 147:28 148:36 149:43 150:41 151:42 152:68 153:106 154:147 155:188 156:218 157:223 158:220 159:255 160:255 161:255 162:255 163:187 164:125 165:68 166:28 167:14 168:14 169:18 170:27 171:51 172:92 173:137 174:176 175:212 176:232 177:223 178:214 179:255 180:255 181:255 182:255 183:184 184:120 185:62 186:23 187:8 188:6 189:13 190:28 191:68 192:117 193:165 194:208 195:237 196:244 197:225 198:211 199:255 200:255 201:255 202:255 203:182 204:115 205:56 206:16 207:3 208:3 209:12 210:28 211:71 212:128 213:181 214:228 215:249 216:249 217:227 218:207 219:255 220:255 221:255 222:255 223:182 224:110 225:50 226:13 227:4 228:5 229:11 230:22 231:68 232:122 233:175 234:223 235:247 236:247 237:223 238:205 239:255 240:255 241:255 242:255 243:178 244:109 245:52 246:17 247:9 248:10 249:14 250:20 251:52 252:100 253:151 254:200 255:235 256:247 257:228 258:210 259:255 260:255 261:255 262:255 263:172 264:107 265:55 266:21 267:14 268:18 269:24 270:25 271:39 272:75 273:117 274:163 275:209 276:236 277:230 278:218 279:255 280:255 281:255 282:255 283:166 284:106 285:58 286:27 287:25 288:38 289:47 290:45 291:38 292:54 293:86 294:131 295:177 296:214 297:225 298:224 299:255 300:255 301:255 302:255 303:159 304:105 305:62 306:34 307:39 308:62 309:78 310:73 311:52 312:47 313:65 314:103 315:146 316:186 317:211 318:225 319:255 320:255 321:255 322:255 323:152 324:105 325:70 326:45 327:56 328:87 329:110 330:105 331:80 332:58 333:58 334:81 335:120 336:162 337:195 338:225 339:255 340:255 341:255 342:255 343:151 344:110 345:84 346:66 347:80 348:113 349:141 350:142 351:116 352:85 353:70 354:78 355:110 356:150 357:189 358:227 359:255 360:255 361:255 362:255 363:159 364:123 365:105 366:95 367:112 368:144 369:171 370:178 371:153 372:123 373:101 374:104 375:127 376:160 377:197 378:233 379:255 380:255 381:255 382:255 383:173 384:146 385:141 386:139 387:151 388:177 389:203 390:215 391:189 392:166 393:149 394:148 395:160 396:188 397:221 398:244 399:255 400:255 
3.483162414459652e-06 1:255 2:255 3:223 4:226 5:242 6:250 7:253 8:253 9:253 10:253 11:255 12:255 13:254 14:250 15:228 16:199 17:174 18:181 19:255 20:255 21:255 22:255 23:227 24:228 25:235 26:233 27:225 28:216 29:213 30:224 31:236 32:247 33:249 34:236 35:213 36:193 37:179 38:192 39:255 40:255 41:255 42:255 43:231 44:230 45:227 46:212 47:192 48:175 49:169 50:178 51:200 52:218 53:221 54:207 55:183 56:163 57:156 58:181 59:255 60:255 61:255 62:255 63:244 64:236 65:220 66:196 67:167 68:138 69:123 70:132 71:162 72:185 73:187 74:167 75:140 76:121 77:119 78:158 79:255 80:255 81:255 82:255 83:250 84:244 85:221 86:187 87:149 88:109 89:88 90:95 91:128 92:155 93:153 94:127 95:100 96:87 97:92 98:142 99:255 100:255 101:255 102:255 103:250 104:248 105:224 106:183 107:137 108:92 109:64 110:69 111:103 112:127 113:119 114:91 115:68 116:66 117:84 118:141 119:255 120:255 121:255 122:255 123:250 124:245 125:221 126:180 127:133 128:85 129:49 130:51 131:85 132:98 133:86 134:64 135:51 136:62 137:91 138:152 139:255 140:255 141:255 142:255 143:250 144:239 145:214 146:177 147:131 148:79 149:41 150:36 151:63 152:70 153:58 154:49 155:55 156:77 157:111 158:170 159:255 160:255 161:255 162:255 163:250 164:238 165:213 166:175 167:127 168:71 169:29 170:22 171:35 172:41 173:39 174:49 175:73 176:105 177:139 178:187 179:255 180:255 181:255 182:255 183:250 184:233 185:207 186:171 187:122 188:65 189:21 190:8 191:19 192:23 193:35 194:64 195:100 196:138 197:172 198:207 199:255 200:255 201:255 202:255 203:250 204:233 205:206 206:167 207:118 208:63 209:18 210:4 211:8 212:18 213:43 214:81 215:124 216:164 217:194 218:216 219:255 220:255 221:255 222:255 223:250 224:233 225:203 226:162 227:112 228:59 229:12 230:3 231:8 232:18 233:43 234:85 235:131 236:173 237:201 238:222 239:255 240:255 241:255 242:255 243:242 244:229 245:202 246:161 247:111 248:58 249:11 250:3 251:8 252:14 253:35 254:77 255:125 256:168 257:199 258:223 259:255 260:255 261:255 262:255 263:231 264:222 265:200 266:161 267:111 268:58 269:12 270:7 271:11 272:17 273:27 274:63 275:106 276:148 277:184 278:215 279:255 280:255 281:255 282:255 283:219 284:212 285:198 286:161 287:111 288:59 289:17 290:15 291:23 292:29 293:29 294:48 295:80 296:120 297:160 298:202 299:255 300:255 301:255 302:255 303:205 304:199 305:192 306:157 307:109 308:60 309:22 310:27 311:49 312:55 313:44 314:40 315:55 316:89 317:130 318:182 319:255 320:255 321:255 322:255 323:189 324:182 325:182 326:152 327:106 328:61 329:29 330:42 331:80 332:88 333:70 334:46 335:41 336:61 337:98 338:160 339:255 340:255 341:255 342:255 343:171 344:164 345:174 346:152 347:110 348:69 349:45 350:64 351:102 352:118 353:101 354:68 355:45 356:47 357:75 358:142 359:255 360:255 361:255 362:255 363:153 364:148 365:168 366:159 367:128 368:95 369:81 370:92 371:124 372:147 373:133 374:103 375:76 376:64 377:77 378:137 379:255 380:255 381:255 382:255 383:139 384:130 385:161 386:168 387:153 388:131 389:119 390:133 391:155 392:174 393:167 394:145 395:120 396:106 397:109 398:152 399:255 400:255 
1.165904771320911e-05 1:255 2:255 3:254 4:255 5:254 6:251 7:242 8:229 9:224 10:229 11:231 12:235 13:226 14:204 15:183 16:170 17:172 18:203 19:255 20:255 21:255 22:255 23:254 24:252 25:244 26:221 27:191 28:176 29:184 30:200 31:206 32:204 33:178 34:152 35:134 36:132 37:151 38:195 39:255 40:255 41:255 42:255 43:253 44:245 45:217 46:172 47:134 48:123 49:135 50:158 51:180 52:162 53:130 54:101 55:87 56:97 57:128 58:181 59:255 60:255 61:255 62:255 63:251 64:236 65:192 66:137 67:96 68:80 69:94 70:125 71:146 72:127 73:93 74:64 75:61 76:84 77:122 78:178 79:255 80:255 81:255 82:255 83:250 84:229 85:178 86:119 87:75 88:54 89:67 90:95 91:112 92:96 93:67 94:47 95:56 96:89 97:132 98:188 99:255 100:255 101:255 102:255 103:249 104:227 105:175 106:117 107:70 108:41 109:47 110:71 111:82 112:69 113:48 114:45 115:68 116:108 117:153 118:204 119:255 120:255 121:255 122:255 123:248 124:226 125:178 126:120 127:70 128:32 129:27 130:47 131:54 132:48 133:41 134:56 135:92 136:136 137:178 138:219 139:255 140:255 141:255 142:255 143:248 144:226 145:180 146:123 147:67 148:23 149:13 150:20 151:29 152:31 153:48 154:77 155:120 156:167 157:206 158:234 159:255 160:255 161:255 162:255 163:248 164:226 165:180 166:124 167:68 168:18 169:4 170:7 171:13 172:22 173:56 174:98 175:149 176:195 177:224 178:241 179:255 180:255 181:255 182:255 183:247 184:226 185:182 186:126 187:68 188:19 189:4 190:2 191:11 192:25 193:64 194:113 195:162 196:205 197:231 198:240 199:255 200:255 201:255 202:255 203:245 204:229 205:188 206:130 207:73 208:27 209:7 210:4 211:11 212:21 213:59 214:104 215:153 216:195 217:221 218:236 219:255 220:255 221:255 222:255 223:245 224:229 225:188 226:132 227:76 228:31 229:8 230:8 231:11 232:21 233:52 234:88 235:126 236:168 237:203 238:227 239:255 240:255 241:255 242:255 243:243 244:229 245:190 246:135 247:80 248:34 249:13 250:14 251:20 252:26 253:40 254:64 255:99 256:141 257:180 258:216 259:255 260:255 261:255 262:255 263:238 264:226 265:194 266:141 267:84 268:39 269:17 270:28 271:44 272:45 273:40 274:50 275:74 276:110 277:152 278:201 279:255 280:255 281:255 282:255 283:223 284:217 285:195 286:144 287:87 288:44 289:27 290:52 291:75 292:73 293:57 294:45 295:54 296:83 297:122 298:179 299:255 300:255 301:255 302:255 303:208 304:204 305:192 306:147 307:91 308:52 309:43 310:77 311:105 312:108 313:85 314:57 315:49 316:65 317:98 318:159 319:255 320:255 321:255 322:255 323:192 324:189 325:189 326:154 327:102 328:67 329:65 330:100 331:135 332:146 333:119 334:87 335:67 336:70 337:94 338:154 339:255 340:255 341:255 342:255 343:167 344:168 345:182 346:162 347:125 348:98 349:98 350:130 351:167 352:182 353:160 354:129 355:106 356:103 357:120 358:167 359:255 360:255 361:255 362:255 363:148 364:142 365:169 366:169 367:152 368:142 369:145 370:168 371:202 372:218 373:206 374:183 375:161 376:152 377:164 378:199 379:255 380:255 381:255 382:255 383:126 384:108 385:143 386:169 387:182 388:187 389:193 390:204 391:234 392:246 393:243 394:233 395:222 396:216 397:216 398:226 399:255 400:255 
2.661716063000268e-05 1:255 2:255 3:253 4:252 5:251 6:250 7:251 8:254 9:255 10:254 11:247 12:243 13:226 14:207 15:193 16:185 17:179 18:196 19:255 20:255 21:255 22:255 23:248 24:239 25:229 26:226 27:234 28:246 29:249 30:250 31:243 32:215 33:197 34:188 35:187 36:194 37:205 38:224 39:255 40:255 41:255 42:255 43:239 44:211 45:186 46:178 47:189 48:210 49:230 50:233 51:207 52:173 53:155 54:152 55:161 56:183 57:212 58:237 59:255 60:255 61:255 62:255 63:221 64:178 65:147 66:137 67:145 68:169 69:196 70:196 71:163 72:136 73:114 74:116 75:135 76:168 77:207 78:239 79:255 80:255 81:255 82:255 83:206 84:154 85:116 86:100 87:108 88:135 89:158 90:155 91:126 92:99 93:83 94:90 95:119 96:161 97:202 98:234 99:255 100:255 101:255 102:255 103:196 104:140 105:95 106:72 107:80 108:107 109:126 110:118 111:94 112:67 113:64 114:82 115:119 116:163 117:202 118:230 119:255 120:255 121:255 122:255 123:191 124:133 125:84 126:56 127:58 128:81 129:98 130:88 131:67 132:53 133:63 134:94 135:135 136:177 137:207 138:227 139:255 140:255 141:255 142:255 143:190 144:131 145:81 146:46 147:39 148:54 149:67 150:64 151:52 152:58 153:82 154:118 155:160 156:198 157:215 158:222 159:255 160:255 161:255 162:255 163:188 164:128 165:77 166:39 167:22 168:27 169:40 170:41 171:45 172:71 173:109 174:144 175:183 176:217 177:225 178:221 179:255 180:255 181:255 182:255 183:184 184:122 185:70 186:30 187:14 188:14 189:18 190:25 191:53 192:88 193:131 194:173 195:211 196:235 197:229 198:216 199:255 200:255 201:255 202:255 203:180 204:117 205:62 206:22 207:7 208:5 209:13 210:25 211:61 212:112 213:156 214:194 215:227 216:242 217:226 218:210 219:255 220:255 221:255 222:255 223:177 224:111 225:58 226:22 227:6 228:3 229:10 230:23 231:61 232:114 233:162 234:205 235:234 236:240 237:221 238:209 239:255 240:255 241:255 242:255 243:177 244:110 245:58 246:22 247:6 248:4 249:9 250:20 251:54 252:103 253:150 254:194 255:228 256:239 257:222 258:212 259:255 260:255 261:255 262:255 263:180 264:113 265:59 266:23 267:9 268:9 269:14 270:20 271:41 272:83 273:128 274:173 275:214 276:236 277:227 278:217 279:255 280:255 281:255 282:255 283:186 284:118 285:61 286:25 287:14 288:19 289:25 290:28 291:34 292:63 293:99 294:142 295:187 296:221 297:228 298:224 299:255 300:255 301:255 302:255 303:189 304:123 305:66 306:29 307:22 308:37 309:50 310:48 311:40 312:49 313:74 314:112 315:155 316:195 317:219 318:229 319:255 320:255 321:255 322:255 323:189 324:126 325:72 326:35 327:33 328:59 329:80 330:79 331:60 332:49 333:58 334:87 335:127 336:169 337:202 338:226 339:255 340:255 341:255 342:255 343:187 344:129 345:79 346:45 347:48 348:81 349:106 350:109 351:89 352:66 353:55 354:71 355:107 356:149 357:186 358:221 359:255 360:255 361:255 362:255 363:180 364:131 365:95 366:71 367:75 368:103 369:136 370:141 371:125 372:95 373:78 374:80 375:104 376:142 377:182 378:220 379:255 380:255 381:255 382:255 383:177 384:139 385:114 386:98 387:106 388:133 389:158 390:171 391:152 392:130 393:113 394:111 395:124 396:151 397:189 398:229 399:255 400:255 
3.026946962786574e-05 1:255 2:255 3:217 4:231 5:249 6:254 7:255 8:255 9:252 10:245 11:245 12:249 13:250 14:235 15:208 16:177 17:145 18:155 19:255 20:255 21:255 22:255 23:231 24:240 25:251 26:250 27:244 28:236 29:230 30:225 31:225 32:232 33:231 34:218 35:200 36:177 37:154 38:172 39:255 40:255 41:255 42:255 43:239 44:242 45:243 46:229 47:213 48:204 49:198 50:198 51:202 52:206 53:205 54:196 55:179 56:163 57:153 58:175 59:255 60:255 61:255 62:255 63:241 64:238 65:227 66:205 67:184 68:169 69:162 70:166 71:173 72:180 73:177 74:169 75:150 76:134 77:132 78:168 79:255 80:255 81:255 82:255 83:245 84:235 85:215 86:187 87:157 88:133 89:124 90:130 91:148 92:159 93:154 94:136 95:118 96:107 97:111 98:156 99:255 100:255 101:255 102:255 103:248 104:233 105:207 106:174 107:137 108:104 109:89 110:100 111:124 112:136 113:127 114:105 115:86 116:82 117:97 118:149 119:255 120:255 121:255 122:255 123:249 124:231 125:201 126:165 127:125 128:86 129:64 130:77 131:100 132:109 133:97 134:77 135:62 136:68 137:97 138:155 139:255 140:255 141:255 142:255 143:251 144:232 145:199 146:160 147:117 148:74 149:48 150:57 151:79 152:86 153:71 154:54 155:53 156:75 157:113 158:171 159:255 160:255 161:255 162:255 163:251 164:232 165:198 166:157 167:112 168:67 169:38 170:39 171:53 172:56 173:47 174:44 175:60 176:93 177:133 178:186 179:255 180:255 181:255 182:255 183:247 184:230 185:198 186:155 187:107 188:62 189:30 190:24 191:30 192:33 193:34 194:48 195:81 196:122 197:163 198:206 199:255 200:255 201:255 202:255 203:242 204:222 205:195 206:155 207:106 208:57 209:23 210:13 211:15 212:17 213:30 214:62 215:100 216:139 217:178 218:216 219:255 220:255 221:255 222:255 223:240 224:221 225:191 226:151 227:106 228:56 229:17 230:7 231:7 232:12 233:32 234:72 235:117 236:158 237:196 238:228 239:255 240:255 241:255 242:255 243:237 244:218 245:192 246:156 247:108 248:56 249:16 250:4 251:2 252:9 253:30 254:74 255:121 256:162 257:199 258:230 259:255 260:255 261:255 262:255 263:235 264:216 265:193 266:157 267:110 268:58 269:19 270:5 271:2 272:7 273:25 274:65 275:108 276:148 277:185 278:220 279:255 280:255 281:255 282:255 283:229 284:213 285:192 286:158 287:111 288:60 289:22 290:8 291:7 292:10 293:22 294:51 295:89 296:130 297:168 298:208 299:255 300:255 301:255 302:255 303:221 304:207 305:191 306:159 307:113 308:62 309:24 310:13 311:16 312:20 313:24 314:39 315:68 316:106 317:146 318:194 319:255 320:255 321:255 322:255 323:214 324:202 325:189 326:159 327:115 328:67 329:29 330:22 331:31 332:37 333:36 334:38 335:52 336:81 337:119 338:174 339:255 340:255 341:255 342:255 343:204 344:193 345:186 346:159 347:118 348:72 349:39 350:38 351:53 352:66 353:62 354:51 355:49 356:65 357:96 358:155 359:255 360:255 361:255 362:255 363:187 364:180 365:178 366:156 367:124 368:84 369:55 370:62 371:85 372:100 373:95 374:76 375:62 376:63 377:83 378:143 379:255 380:255 381:255 382:255 383:179 384:163 385:167 386:156 387:130 388:97 389:82 390:93 391:109 392:128 393:122 394:107 395:91 396:83 397:92 398:143 399:255 400:255 
4.836768438735064e-06 1:255 2:255 3:248 4:250 5:252 6:252 7:253 8:254 9:255 10:251 11:239 12:233 13:213 14:186 15:160 16:142 17:131 18:158 19:255 20:255 21:255 22:255 23:246 24:245 25:247 26:247 27:249 28:253 29:254 30:251 31:242 32:236 33:220 34:204 35:192 36:183 37:179 38:197 39:255 40:255 41:255 42:255 43:242 44:236 45:232 46:230 47:233 48:242 49:245 50:244 51:235 52:214 53:198 54:186 55:181 56:189 57:204 58:225 59:255 60:255 61:255 62:255 63:232 64:206 65:187 66:179 67:188 68:210 69:226 70:225 71:204 72:173 73:156 74:148 75:151 76:172 77:205 78:236 79:255 80:255 81:255 82:255 83:215 84:173 85:142 86:128 87:139 88:167 89:187 90:189 91:163 92:129 93:112 94:109 95:123 96:155 97:195 98:232 99:255 100:255 101:255 102:255 103:198 104:149 105:112 106:94 107:101 108:128 109:151 110:153 111:123 112:95 113:79 114:86 115:112 116:150 117:189 118:224 119:255 120:255 121:255 122:255 123:189 124:135 125:94 126:70 127:74 128:101 129:125 130:122 131:92 132:68 133:63 134:82 135:118 136:159 137:193 138:221 139:255 140:255 141:255 142:255 143:187 144:132 145:87 146:54 147:53 148:81 149:96 150:89 151:69 152:48 153:62 154:92 155:132 156:175 157:202 158:219 159:255 160:255 161:255 162:255 163:191 164:134 165:86 166:47 167:37 168:57 169:72 170:61 171:45 172:49 173:78 174:114 175:154 176:192 177:211 178:218 179:255 180:255 181:255 182:255 183:190 184:136 185:84 186:41 187:24 188:28 189:35 190:35 191:37 192:70 193:101 194:137 195:180 196:213 197:216 198:215 199:255 200:255 201:255 202:255 203:186 204:132 205:81 206:36 207:14 208:14 209:17 210:25 211:51 212:86 213:128 214:169 215:206 216:227 217:219 218:211 219:255 220:255 221:255 222:255 223:183 224:130 225:81 226:35 227:10 228:6 229:11 230:22 231:59 232:99 233:141 234:186 235:220 236:233 237:219 238:209 239:255 240:255 241:255 242:255 243:182 244:130 245:81 246:33 247:6 248:3 249:7 250:21 251:53 252:97 253:142 254:191 255:224 256:234 257:219 258:210 259:255 260:255 261:255 262:255 263:188 264:134 265:83 266:34 267:6 268:4 269:8 270:17 271:37 272:83 273:129 274:176 275:213 276:230 277:221 278:214 279:255 280:255 281:255 282:255 283:193 284:138 285:86 286:37 287:10 288:10 289:15 290:20 291:27 292:61 293:101 294:146 295:188 296:216 297:220 298:219 299:255 300:255 301:255 302:255 303:199 304:142 305:90 306:42 307:16 308:20 309:32 310:36 311:30 312:41 313:71 314:110 315:152 316:190 317:210 318:221 319:255 320:255 321:255 322:255 323:204 324:148 325:95 326:47 327:23 328:35 329:58 330:64 331:50 332:35 333:49 334:80 335:117 336:156 337:187 338:215 339:255 340:255 341:255 342:255 343:202 344:149 345:100 346:53 347:30 348:49 349:83 350:94 351:83 352:52 353:39 354:58 355:91 356:125 357:160 358:204 359:255 360:255 361:255 362:255 363:192 364:145 365:103 366:60 367:40 368:61 369:99 370:121 371:109 372:84 373:53 374:52 375:73 376:106 377:143 378:190 379:255 380:255 381:255 382:255 383:182 384:144 385:111 386:77 387:68 388:87 389:119 390:143 391:141 392:110 393:88 394:77 395:83 396:106 397:138 398:185 399:255 400:255 
-3.141852183592147e-06 1:255 2:255 3:248 4:250 5:254 6:255 7:252 8:241 9:227 10:214 11:210 12:218 13:228 14:237 15:232 16:215 17:200 18:211 19:255 20:255 21:255 22:255 23:248 24:250 25:253 26:248 27:232 28:207 29:191 30:176 31:172 32:177 33:192 34:208 35:220 36:223 37:221 38:229 39:255 40:255 41:255 42:255 43:250 44:250 45:247 46:230 47:203 48:175 49:150 50:131 51:126 52:134 53:155 54:180 55:201 56:219 57:231 58:241 59:255 60:255 61:255 62:255 63:251 64:246 65:234 66:212 67:180 68:145 69:113 70:87 71:75 72:90 73:118 74:153 75:185 76:212 77:232 78:246 79:255 80:255 81:255 82:255 83:249 84:239 85:220 86:194 87:160 88:120 89:82 90:43 91:30 92:47 93:84 94:129 95:170 96:205 97:233 98:250 99:255 100:255 101:255 102:255 103:246 104:231 105:209 106:179 107:143 108:101 109:57 110:15 111:6 112:17 113:60 114:111 115:157 116:197 117:231 118:251 119:255 120:255 121:255 122:255 123:244 124:224 125:199 126:167 127:129 128:85 129:40 130:11 131:3 132:7 133:45 134:97 135:146 136:188 137:223 138:249 139:255 140:255 141:255 142:255 143:244 144:219 145:189 146:154 147:113 148:73 149:34 150:19 151:11 152:8 153:36 154:84 155:135 156:178 157:214 158:242 159:255 160:255 161:255 162:255 163:243 164:213 165:180 166:142 167:102 168:66 169:40 170:42 171:33 172:22 173:33 174:75 175:125 176:170 177:206 178:236 179:255 180:255 181:255 182:255 183:235 184:207 185:172 186:131 187:90 188:60 189:58 190:73 191:67 192:45 193:38 194:66 195:111 196:157 197:195 198:228 199:255 200:255 201:255 202:255 203:222 204:191 205:157 206:115 207:78 208:61 209:74 210:88 211:88 212:62 213:36 214:53 215:96 216:143 217:183 218:219 219:255 220:255 221:255 222:255 223:212 224:176 225:141 226:100 227:66 228:55 229:75 230:94 231:92 232:63 233:31 234:40 235:82 236:132 237:174 238:213 239:255 240:255 241:255 242:255 243:203 244:163 245:125 246:82 247:46 248:39 249:62 250:82 251:81 252:48 253:20 254:25 255:65 256:116 257:161 258:206 259:255 260:255 261:255 262:255 263:195 264:148 265:108 266:63 267:29 268:23 269:39 270:53 271:51 272:26 273:9 274:14 275:51 276:101 277:147 278:198 279:255 280:255 281:255 282:255 283:187 284:135 285:92 286:49 287:21 288:20 289:30 290:40 291:37 292:18 293:7 294:9 295:39 296:87 297:135 298:189 299:255 300:255 301:255 302:255 303:177 304:122 305:80 306:47 307:36 308:46 309:56 310:63 311:60 312:46 313:29 314:20 315:36 316:77 317:126 318:183 319:255 320:255 321:255 322:255 323:168 324:111 325:75 326:58 327:69 328:91 329:105 330:111 331:106 332:95 333:72 334:48 335:46 336:75 337:120 338:178 339:255 340:255 341:255 342:255 343:162 344:110 345:85 346:81 347:101 348:128 349:148 350:156 351:153 352:136 353:112 354:84 355:69 356:83 357:120 358:177 359:255 360:255 361:255 362:255 363:159 364:117 365:108 366:114 367:134 368:160 369:182 370:193 371:191 372:173 373:146 374:120 375:104 376:108 377:133 378:183 379:255 380:255 381:255 382:255 383:159 384:130 385:135 386:146 387:164 388:184 389:203 390:219 391:214 392:199 393:177 394:154 395:141 396:142 397:159 398:197 399:255 400:255 
-1.631165977179159e-06 1:255 2:255 3:236 4:242 5:252 6:254 7:255 8:253 9:248 10:242 11:249 12:253 13:252 14:237 15:211 16:184 17:163 18:176 19:255 20:255 21:255 22:255 23:239 24:244 25:250 26:251 27:246 28:233 29:216 30:208 31:211 32:217 33:226 34:229 35:222 36:204 37:187 38:198 39:255 40:255 41:255 42:255 43:244 44:246 45:246 46:238 47:221 48:200 49:182 50:171 51:171 52:178 53:190 54:204 55:214 56:213 57:207 58:218 59:255 60:255 61:255 62:255 63:249 64:245 65:237 66:219 67:195 68:169 69:147 70:132 71:130 72:138 73:155 74:178 75:198 76:211 77:219 78:232 79:255 80:255 81:255 82:255 83:248 84:239 85:223 86:201 87:174 88:143 89:113 90:89 91:82 92:96 93:122 94:153 95:181 96:205 97:223 98:238 99:255 100:255 101:255 102:255 103:243 104:230 105:210 106:185 107:156 108:120 109:83 110:45 111:35 112:53 113:89 114:129 115:167 116:198 117:223 118:242 119:255 120:255 121:255 122:255 123:239 124:220 125:198 126:172 127:140 128:102 129:58 130:16 131:7 132:21 133:62 134:110 135:154 136:190 137:220 138:245 139:255 140:255 141:255 142:255 143:235 144:212 145:189 146:162 147:128 148:87 149:42 150:10 151:2 152:7 153:45 154:96 155:142 156:179 157:214 158:244 159:255 160:255 161:255 162:255 163:232 164:206 165:180 166:151 167:115 168:74 169:37 170:17 171:8 172:6 173:35 174:84 175:131 176:170 177:205 178:239 179:255 180:255 181:255 182:255 183:231 184:202 185:173 186:141 187:105 188:68 189:41 190:37 191:28 192:19 193:35 194:76 195:122 196:161 197:197 198:231 199:255 200:255 201:255 202:255 203:223 204:195 205:165 206:129 207:92 208:64 209:57 210:72 211:64 212:39 213:36 214:66 215:111 216:152 217:186 218:219 219:255 220:255 221:255 222:255 223:216 224:184 225:153 226:116 227:79 228:60 229:73 230:87 231:83 232:59 233:37 234:60 235:102 236:143 237:178 238:213 239:255 240:255 241:255 242:255 243:207 244:172 245:139 246:102 247:67 248:55 249:77 250:93 251:93 252:63 253:34 254:46 255:87 256:132 257:169 258:206 259:255 260:255 261:255 262:255 263:200 264:161 265:126 266:85 267:49 268:39 269:62 270:83 271:83 272:52 273:25 274:31 275:70 276:117 277:157 278:200 279:255 280:255 281:255 282:255 283:192 284:147 285:110 286:66 287:30 288:23 289:37 290:54 291:51 292:30 293:12 294:17 295:54 296:103 297:145 298:192 299:255 300:255 301:255 302:255 303:183 304:134 305:94 306:50 307:20 308:18 309:27 310:36 311:31 312:18 313:8 314:9 315:41 316:89 317:133 318:184 319:255 320:255 321:255 322:255 323:174 324:121 325:81 326:45 327:30 328:38 329:51 330:56 331:51 332:39 333:26 334:16 335:34 336:77 337:123 338:178 339:255 340:255 341:255 342:255 343:165 344:110 345:75 346:54 347:60 348:82 349:99 350:106 351:99 352:88 353:65 354:41 355:41 356:73 357:117 358:173 359:255 360:255 361:255 362:255 363:159 364:107 365:83 366:77 367:95 368:121 369:140 370:146 371:142 372:129 373:107 374:79 375:65 376:82 377:118 378:172 379:255 380:255 381:255 382:255 383:158 384:114 385:105 386:108 387:125 388:150 389:171 390:181 391:172 392:158 393:136 394:113 395:99 396:104 397:127 398:176 399:255 400:255 
-1.327617382288356e-08 1:255 2:255 3:234 4:239 5:249 6:254 7:255 8:255 9:252 10:245 11:245 12:249 13:250 14:240 15:214 16:184 17:163 18:176 19:255 20:255 21:255 22:255 23:239 24:244 25:251 26:252 27:248 28:239 29:223 30:209 31:207 32:215 33:227 34:233 35:221 36:200 37:186 38:197 39:255 40:255 41:255 42:255 43:243 44:246 45:248 46:241 47:223 48:201 49:186 50:173 51:169 52:177 53:190 54:205 55:213 56:211 57:205 58:215 59:255 60:255 61:255 62:255 63:245 64:243 65:238 66:221 67:196 68:169 69:148 70:134 71:129 72:138 73:155 74:177 75:197 76:210 77:217 78:229 79:255 80:255 81:255 82:255 83:242 84:235 85:224 86:203 87:175 88:144 89:114 90:91 91:81 92:96 93:121 94:151 95:179 96:203 97:222 98:237 99:255 100:255 101:255 102:255 103:240 104:227 105:210 106:187 107:157 108:122 109:84 110:48 111:36 112:54 113:88 114:128 115:164 116:195 117:222 118:242 119:255 120:255 121:255 122:255 123:240 124:221 125:199 126:172 127:142 128:104 129:61 130:19 131:10 132:21 133:62 134:109 135:151 136:186 137:218 138:245 139:255 140:255 141:255 142:255 143:239 144:215 145:190 146:162 147:127 148:88 149:45 150:13 151:3 152:7 153:45 154:95 155:141 156:179 157:214 158:243 159:255 160:255 161:255 162:255 163:233 164:208 165:181 166:149 167:112 168:74 169:38 170:17 171:10 172:8 173:35 174:84 175:132 176:171 177:206 178:238 179:255 180:255 181:255 182:255 183:229 184:202 185:174 186:140 187:103 188:67 189:43 190:43 191:33 192:19 193:29 194:74 195:121 196:162 197:197 198:228 199:255 200:255 201:255 202:255 203:227 204:197 205:167 206:130 207:90 208:60 209:57 210:74 211:68 212:45 213:34 214:64 215:110 216:152 217:186 218:220 219:255 220:255 221:255 222:255 223:216 224:183 225:153 226:116 227:79 228:61 229:71 230:89 231:86 232:60 233:37 234:55 235:98 236:141 237:175 238:212 239:255 240:255 241:255 242:255 243:207 244:171 245:139 246:102 247:69 248:56 249:74 250:95 251:91 252:63 253:31 254:41 255:84 256:130 257:167 258:206 259:255 260:255 261:255 262:255 263:199 264:159 265:125 266:85 267:51 268:43 269:63 270:84 271:82 272:53 273:23 274:25 275:65 276:115 277:156 278:200 279:255 280:255 281:255 282:255 283:192 284:148 285:110 286:67 287:33 288:25 289:40 290:58 291:53 292:31 293:12 294:12 295:49 296:101 297:145 298:193 299:255 300:255 301:255 302:255 303:184 304:135 305:96 306:53 307:23 308:18 309:28 310:38 311:33 312:19 313:7 314:6 315:36 316:86 317:133 318:185 319:255 320:255 321:255 322:255 323:175 324:123 325:83 326:47 327:32 328:39 329:51 330:54 331:50 332:41 333:24 334:13 335:31 336:74 337:123 338:178 339:255 340:255 341:255 342:255 343:166 344:112 345:76 346:54 347:60 348:82 349:99 350:104 351:99 352:90 353:64 354:39 355:40 356:72 357:116 358:172 359:255 360:255 361:255 362:255 363:160 364:109 365:83 366:77 367:95 368:121 369:140 370:147 371:143 372:131 373:108 374:79 375:65 376:81 377:117 378:170 379:255 380:255 381:255 382:255 383:158 384:114 385:104 386:108 387:126 388:152 389:172 390:181 391:177 392:160 393:139 394:115 395:98 396:101 397:125 398:175 399:255 400:255 
-1.323009371219234e-05 1:255 2:255 3:253 4:254 5:254 6:253 7:250 8:246 9:247 10:252 11:252 12:247 13:239 14:209 15:166 16:125 17:93 18:120 19:255 20:255 21:255 22:255 23:253 24:253 25:253 26:248 27:239 28:233 29:232 30:228 31:222 32:216 33:213 34:203 35:187 36:160 37:130 38:152 39:255 40:255 41:255 42:255 43:249 44:248 45:246 46:239 47:227 48:211 49:198 50:180 51:170 52:164 53:162 54:164 55:167 56:165 57:164 58:191 59:255 60:255 61:255 62:255 63:246 64:243 65:238 66:224 67:200 68:172 69:150 70:128 71:117 72:111 73:110 74:115 75:126 76:141 77:164 78:205 79:255 80:255 81:255 82:255 83:242 84:234 85:222 86:195 87:160 88:129 89:104 90:83 91:70 92:63 93:66 94:72 95:86 96:109 97:141 98:194 99:255 100:255 101:255 102:255 103:239 104:222 105:196 106:158 107:119 108:90 109:65 110:46 111:37 112:34 113:39 114:43 115:59 116:85 117:119 118:176 119:255 120:255 121:255 122:255 123:233 124:205 125:167 126:124 127:86 128:55 129:31 130:24 131:28 132:36 133:43 134:45 135:58 136:81 137:112 138:168 139:255 140:255 141:255 142:255 143:224 144:184 145:140 146:98 147:61 148:29 149:13 150:26 151:48 152:66 153:78 154:82 155:89 156:101 157:122 158:172 159:255 160:255 161:255 162:255 163:216 164:167 165:119 166:76 167:41 168:18 169:20 170:51 171:83 172:106 173:122 174:129 175:131 176:137 177:151 178:187 179:255 180:255 181:255 182:255 183:209 184:155 185:105 186:59 187:22 188:10 189:36 190:76 191:115 192:145 193:170 194:183 195:184 196:186 197:192 198:207 199:255 200:255 201:255 202:255 203:199 204:141 205:93 206:51 207:21 208:18 209:51 210:95 211:142 212:185 213:208 214:219 215:222 216:219 217:209 218:213 219:255 220:255 221:255 222:255 223:198 224:138 225:88 226:44 227:17 228:23 229:62 230:106 231:154 232:199 233:223 234:232 235:237 236:234 237:220 238:216 239:255 240:255 241:255 242:255 243:193 244:134 245:87 246:44 247:15 248:22 249:64 250:109 251:158 252:201 253:221 254:232 255:237 256:232 257:217 258:215 259:255 260:255 261:255 262:255 263:191 264:132 265:87 266:44 267:14 268:18 269:61 270:102 271:149 272:195 273:215 274:222 275:226 276:224 277:212 278:214 279:255 280:255 281:255 282:255 283:191 284:135 285:90 286:47 287:14 288:12 289:48 290:89 291:128 292:168 293:188 294:197 295:203 296:204 297:197 298:205 299:255 300:255 301:255 302:255 303:193 304:142 305:99 306:55 307:19 308:7 309:29 310:68 311:102 312:130 313:148 314:157 315:162 316:165 317:167 318:190 319:255 320:255 321:255 322:255 323:197 324:153 325:114 326:71 327:32 328:9 329:12 330:41 331:72 332:93 333:106 334:112 335:114 336:119 337:132 338:175 339:255 340:255 341:255 342:255 343:201 344:167 345:133 346:92 347:55 348:25 349:9 350:17 351:39 352:54 353:65 354:71 355:76 356:87 357:108 358:162 359:255 360:255 361:255 362:255 363:196 364:174 365:154 366:120 367:84 368:52 369:27 370:16 371:20 372:27 373:35 374:40 375:55 376:76 377:104 378:160 379:255 380:255 381:255 382:255 383:185 384:177 385:173 386:149 387:117 388:87 389:65 390:50 391:37 392:36 393:40 394:48 395:63 396:86 397:116 398:171 399:255 400:255 
-6.030974963635915e-06 1:255 2:255 3:218 4:228 5:244 6:247 7:247 8:247 9:247 10:250 11:247 12:241 13:236 14:220 15:200 16:179 17:158 18:173 19:255 20:255 21:255 22:255 23:228 24:233 25:238 26:237 27:235 28:229 29:224 30:218 31:217 32:211 33:200 34:192 35:185 36:178 37:172 38:191 39:255 40:255 41:255 42:255 43:230 44:231 45:230 46:215 47:200 48:188 49:174 50:164 51:157 52:149 53:142 54:137 55:137 56:142 57:152 58:185 59:255 60:255 61:255 62:255 63:233 64:229 65:214 66:185 67:157 68:136 69:120 70:108 71:98 72:92 73:89 74:87 75:90 76:101 77:121 78:169 79:255 80:255 81:255 82:255 83:238 84:227 85:199 86:158 87:120 88:92 89:70 90:59 91:50 92:47 93:49 94:53 95:61 96:77 97:103 98:157 99:255 100:255 101:255 102:255 103:238 104:220 105:186 106:140 107:96 108:62 109:35 110:25 111:21 112:29 113:38 114:48 115:60 116:79 117:106 118:159 119:255 120:255 121:255 122:255 123:233 124:212 125:179 126:132 127:86 128:46 129:18 130:12 131:24 132:43 133:59 134:73 135:87 136:105 137:129 138:176 139:255 140:255 141:255 142:255 143:231 144:211 145:180 146:134 147:85 148:43 149:15 150:19 151:48 152:72 153:92 154:110 155:126 156:143 157:162 158:196 159:255 160:255 161:255 162:255 163:236 164:214 165:184 166:139 167:90 168:48 169:19 170:28 171:60 172:90 173:112 174:134 175:153 176:169 177:182 178:208 179:255 180:255 181:255 182:255 183:240 184:220 185:189 186:143 187:93 188:51 189:19 190:23 191:56 192:85 193:103 194:120 195:135 196:149 197:167 198:201 199:255 200:255 201:255 202:255 203:240 204:220 205:189 206:145 207:98 208:54 209:17 210:12 211:34 212:55 213:70 214:82 215:91 216:104 217:126 218:176 219:255 220:255 221:255 222:255 223:236 224:214 225:186 226:149 227:105 228:59 229:19 230:4 231:9 232:19 233:35 234:46 235:57 236:75 237:105 238:163 239:255 240:255 241:255 242:255 243:231 244:211 245:190 246:156 247:112 248:66 249:22 250:2 251:3 252:10 253:24 254:39 255:52 256:73 257:105 258:163 259:255 260:255 261:255 262:255 263:222 264:207 265:193 266:162 267:118 268:72 269:27 270:3 271:7 272:25 273:45 274:63 275:78 276:98 277:129 278:179 279:255 280:255 281:255 282:255 283:213 284:203 285:194 286:166 287:124 288:78 289:35 290:8 291:19 292:48 293:76 294:101 295:121 296:144 297:172 298:211 299:255 300:255 301:255 302:255 303:202 304:198 305:195 306:170 307:130 308:83 309:41 310:14 311:31 312:65 313:101 314:137 315:168 316:194 317:218 318:238 319:255 320:255 321:255 322:255 323:185 324:184 325:193 326:174 327:136 328:89 329:46 330:20 331:36 332:73 333:115 334:162 335:203 336:232 337:245 338:250 339:255 340:255 341:255 342:255 343:163 344:158 345:181 346:176 347:143 348:96 349:54 350:26 351:39 352:75 353:122 354:176 355:222 356:246 357:251 358:252 359:255 360:255 361:255 362:255 363:141 364:129 365:161 366:170 367:146 368:101 369:63 370:37 371:45 372:79 373:128 374:189 375:233 376:250 377:253 378:254 379:255 380:255 381:255 382:255 383:121 384:99 385:134 386:154 387:142 388:105 389:72 390:48 391:51 392:88 393:138 394:201 395:241 396:253 397:254 398:255 399:255 400:255 
-1.025045766462967e-05 1:255 2:255 3:223 4:240 5:251 6:248 7:233 8:196 9:164 10:160 11:165 12:174 13:176 14:176 15:176 16:169 17:155 18:173 19:255 20:255 21:255 22:255 23:246 24:247 25:229 26:197 27:169 28:147 29:125 30:125 31:147 32:160 33:183 34:197 35:201 36:195 37:182 38:192 39:255 40:255 41:255 42:255 43:250 44:228 45:194 46:160 47:131 48:105 49:89 50:91 51:112 52:145 53:182 54:204 55:225 56:224 57:204 58:213 59:255 60:255 61:255 62:255 63:250 64:215 65:173 66:136 67:101 68:71 69:58 70:65 71:91 72:127 73:169 74:217 75:245 76:245 77:225 78:218 79:255 80:255 81:255 82:255 83:250 84:212 85:165 86:124 87:86 88:53 89:34 90:47 91:77 92:115 93:162 94:223 95:252 96:252 97:233 98:218 99:255 100:255 101:255 102:255 103:252 104:213 105:163 106:120 107:82 108:46 109:24 110:38 111:70 112:111 113:167 114:227 115:253 116:252 117:233 118:218 119:255 120:255 121:255 122:255 123:253 124:213 125:163 126:120 127:80 128:44 129:23 130:35 131:70 132:116 133:179 134:235 135:254 136:251 137:234 138:220 139:255 140:255 141:255 142:255 143:243 144:206 145:161 146:119 147:80 148:44 149:23 150:35 151:71 152:125 153:188 154:237 155:250 156:248 157:239 158:230 159:255 160:255 161:255 162:255 163:220 164:186 165:154 166:119 167:80 168:44 169:23 170:35 171:73 172:124 173:188 174:233 175:248 176:248 177:248 178:250 179:255 180:255 181:255 182:255 183:208 184:174 185:148 186:116 187:80 188:43 189:23 190:35 191:70 192:117 193:185 194:233 195:248 196:248 197:248 198:250 199:255 200:255 201:255 202:255 203:208 204:171 205:146 206:116 207:78 208:39 209:23 210:35 211:70 212:111 213:174 214:229 215:248 216:248 217:248 218:250 219:255 220:255 221:255 222:255 223:208 224:171 225:146 226:113 227:72 228:35 229:17 230:35 231:70 232:111 233:163 234:224 235:248 236:248 237:248 238:250 239:255 240:255 241:255 242:255 243:208 244:171 245:142 246:109 247:70 248:33 249:15 250:35 251:70 252:116 253:172 254:209 255:236 256:248 257:248 258:250 259:255 260:255 261:255 262:255 263:200 264:168 265:141 266:107 267:70 268:33 269:14 270:30 271:66 272:108 273:157 274:189 275:206 276:216 277:221 278:229 279:255 280:255 281:255 282:255 283:189 284:163 285:141 286:107 287:70 288:32 289:11 290:25 291:60 292:95 293:124 294:150 295:163 296:170 297:180 298:206 299:255 300:255 301:255 302:255 303:179 304:155 305:141 306:110 307:69 308:30 309:8 310:15 311:43 312:73 313:86 314:102 315:117 316:125 317:140 318:185 319:255 320:255 321:255 322:255 323:163 324:143 325:139 326:111 327:69 328:30 329:5 330:4 331:18 332:38 333:48 334:60 335:74 336:88 337:108 338:163 339:255 340:255 341:255 342:255 343:143 344:128 345:131 346:107 347:72 348:34 349:8 350:2 351:6 352:11 353:22 354:31 355:45 356:65 357:89 358:146 359:255 360:255 361:255 362:255 363:131 364:106 365:116 366:107 367:82 368:50 369:25 370:13 371:14 372:17 373:25 374:30 375:41 376:63 377:92 378:149 379:255 380:255 381:255 382:255 383:110 384:85 385:102 386:103 387:92 388:72 389:59 390:51 391:51 392:54 393:59 394:61 395:70 396:87 397:114 398:168 399:255 400:255 
-1.057942733170265e-06 1:255 2:255 3:248 4:251 5:251 6:250 7:250 8:251 9:253 10:255 11:255 12:247 13:237 14:226 15:203 16:173 17:139 18:146 19:255 20:255 21:255 22:255 23:248 24:247 25:244 26:242 27:242 28:244 29:248 30:253 31:251 32:243 33:235 34:229 35:218 36:202 37:180 38:185 39:255 40:255 41:255 42:255 43:243 44:237 45:233 46:229 47:229 48:232 49:237 50:241 51:239 52:234 53:228 54:222 55:218 56:213 57:204 58:211 59:255 60:255 61:255 62:255 63:238 64:224 65:213 66:202 67:198 68:205 69:217 70:227 71:226 72:218 73:209 74:199 75:197 76:201 77:205 78:219 79:255 80:255 81:255 82:255 83:232 84:209 85:186 86:165 87:157 88:168 89:186 90:208 91:208 92:191 93:175 94:161 95:160 96:170 97:186 98:213 99:255 100:255 101:255 102:255 103:227 104:194 105:156 106:123 107:111 108:122 109:149 110:181 111:183 112:164 113:134 114:112 115:111 116:133 117:164 118:202 119:255 120:255 121:255 122:255 123:223 124:184 125:135 126:90 127:69 128:79 129:113 130:152 131:158 132:135 133:95 134:68 135:68 136:100 137:145 138:192 139:255 140:255 141:255 142:255 143:219 144:177 145:127 146:75 147:44 148:49 149:80 150:120 151:134 152:100 153:62 154:43 155:48 156:81 157:129 158:186 159:255 160:255 161:255 162:255 163:214 164:171 165:119 166:64 167:31 168:29 169:47 170:76 171:89 172:68 173:44 174:31 175:40 176:76 177:124 178:181 179:255 180:255 181:255 182:255 183:211 184:165 185:110 186:55 187:22 188:12 189:21 190:39 191:44 192:36 193:22 194:21 195:36 196:71 197:118 198:179 199:255 200:255 201:255 202:255 203:206 204:157 205:98 206:45 207:18 208:9 209:6 210:12 211:16 212:16 213:12 214:14 215:29 216:62 217:109 218:174 219:255 220:255 221:255 222:255 223:202 224:151 225:92 226:45 227:24 228:14 229:4 230:3 231:5 232:10 233:13 234:17 235:26 236:54 237:99 238:164 239:255 240:255 241:255 242:255 243:202 244:144 245:87 246:49 247:36 248:32 249:20 250:11 251:9 252:17 253:27 254:29 255:31 256:51 257:90 258:155 259:255 260:255 261:255 262:255 263:202 264:143 265:88 266:56 267:52 268:53 269:43 270:25 271:22 272:37 273:50 274:49 275:43 276:53 277:87 278:153 279:255 280:255 281:255 282:255 283:202 284:147 285:97 286:68 287:71 288:81 289:74 290:53 291:51 292:68 293:80 294:73 295:57 296:57 297:87 298:153 299:255 300:255 301:255 302:255 303:200 304:151 305:106 306:83 307:92 308:111 309:117 310:101 311:98 312:109 313:114 314:97 315:69 316:63 317:90 318:153 319:255 320:255 321:255 322:255 323:198 324:151 325:110 326:94 327:111 328:138 329:155 330:151 331:147 332:148 333:142 334:114 335:80 336:71 337:94 338:154 339:255 340:255 341:255 342:255 343:197 344:151 345:112 346:98 347:123 348:160 349:179 350:186 351:183 352:175 353:160 354:124 355:88 356:78 357:100 358:158 359:255 360:255 361:255 362:255 363:197 364:152 365:116 366:104 367:130 368:173 369:203 370:212 371:208 372:200 373:172 374:129 375:94 376:86 377:110 378:169 379:255 380:255 381:255 382:255 383:195 384:157 385:124 386:117 387:147 388:184 389:213 390:227 391:223 392:208 393:177 394:136 395:102 396:96 397:121 398:176 399:255 400:255 
-1.187269318714028e-06 1:255 2:255 3:245 4:246 5:249 6:251 7:254 8:254 9:255 10:254 11:254 12:254 13:250 14:239 15:224 16:204 17:183 18:191 19:255 20:255 21:255 22:255 23:244 24:241 25:239 26:238 27:239 28:243 29:245 30:246 31:249 32:247 33:243 34:236 35:229 36:221 37:211 38:217 39:255 40:255 41:255 42:255 43:238 44:230 45:222 46:216 47:217 48:223 49:232 50:237 51:242 52:236 53:231 54:225 55:222 56:221 57:222 58:230 59:255 60:255 61:255 62:255 63:229 64:207 65:189 66:174 67:173 68:191 69:210 70:226 71:232 72:226 73:213 74:197 75:192 76:202 77:216 78:232 79:255 80:255 81:255 82:255 83:220 84:176 85:146 86:126 87:123 88:145 89:173 90:208 91:217 92:211 93:183 94:157 95:151 96:170 97:200 98:227 99:255 100:255 101:255 102:255 103:210 104:153 105:110 106:83 107:78 108:100 109:139 110:182 111:196 112:189 113:152 114:120 115:118 116:147 117:186 118:220 119:255 120:255 121:255 122:255 123:202 124:145 125:92 126:56 127:47 128:65 129:108 130:153 131:174 132:164 133:131 134:96 135:99 136:136 137:179 138:216 139:255 140:255 141:255 142:255 143:198 144:141 145:85 146:46 147:33 148:41 149:73 150:123 151:154 152:144 153:116 154:82 155:86 156:126 157:173 158:216 159:255 160:255 161:255 162:255 163:196 164:137 165:82 166:40 167:22 168:26 169:49 170:91 171:128 172:130 173:101 174:72 175:77 176:120 177:172 178:216 179:255 180:255 181:255 182:255 183:194 184:136 185:81 186:40 187:19 188:15 189:29 190:65 191:108 192:113 193:86 194:64 195:75 196:116 197:166 198:213 199:255 200:255 201:255 202:255 203:193 204:128 205:72 206:37 207:22 208:12 209:17 210:43 211:75 212:79 213:64 214:52 215:71 216:114 217:160 218:207 219:255 220:255 221:255 222:255 223:191 224:127 225:76 226:45 227:35 228:30 229:21 230:22 231:44 232:51 233:43 234:38 235:62 236:110 237:159 238:204 239:255 240:255 241:255 242:255 243:188 244:126 245:78 246:54 247:50 248:46 249:33 250:17 251:19 252:24 253:23 254:31 255:61 256:110 257:159 258:204 259:255 260:255 261:255 262:255 263:187 264:122 265:78 266:61 267:65 268:68 269:53 270:28 271:10 272:9 273:9 274:23 275:62 276:114 277:161 278:204 279:255 280:255 281:255 282:255 283:187 284:121 285:79 286:69 287:84 288:99 289:86 290:48 291:15 292:5 293:3 294:17 295:61 296:117 297:163 298:204 299:255 300:255 301:255 302:255 303:183 304:119 305:82 306:81 307:106 308:125 309:115 310:76 311:32 312:8 313:3 314:17 315:61 316:119 317:168 318:208 319:255 320:255 321:255 322:255 323:177 324:115 325:85 326:93 327:124 328:142 329:141 330:106 331:57 332:21 333:8 334:22 335:64 336:121 337:171 338:212 339:255 340:255 341:255 342:255 343:175 344:115 345:85 346:96 347:133 348:162 349:169 350:134 351:83 352:41 353:18 354:29 355:71 356:125 357:172 358:209 359:255 360:255 361:255 362:255 363:177 364:123 365:96 366:105 367:144 368:181 369:188 370:160 371:113 372:69 373:41 374:44 375:83 376:137 377:181 378:212 379:255 380:255 381:255 382:255 383:187 384:142 385:125 386:129 387:157 388:197 389:205 390:190 391:141 392:109 393:76 394:72 395:105 396:153 397:189 398:218 399:255 400:255 
-5.374533022055681e-06 1:255 2:255 3:251 4:252 5:254 6:254 7:254 8:253 9:249 10:246 11:240 12:240 13:245 14:241 15:233 16:223 17:209 18:209 19:255 20:255 21:255 22:255 23:249 24:243 25:232 26:221 27:215 28:211 29:205 30:201 31:200 32:209 33:219 34:225 35:232 36:239 37:240 38:242 39:255 40:255 41:255 42:255 43:244 44:223 45:197 46:175 47:162 48:156 49:154 50:150 51:153 52:162 53:175 54:191 55:213 56:236 57:250 58:253 59:255 60:255 61:255 62:255 63:236 64:201 65:160 66:128 67:109 68:100 69:100 70:97 71:98 72:107 73:126 74:152 75:182 76:216 77:244 78:255 79:255 80:255 81:255 82:255 83:226 84:184 85:137 86:95 87:66 88:56 89:57 90:54 91:51 92:53 93:74 94:110 95:150 96:193 97:231 98:251 99:255 100:255 101:255 102:255 103:217 104:175 105:129 106:79 107:44 108:42 109:54 110:53 111:44 112:29 113:35 114:72 115:120 116:170 117:214 118:244 119:255 120:255 121:255 122:255 123:214 124:172 125:126 126:75 127:44 128:55 129:81 130:88 131:74 132:39 133:21 134:48 135:97 136:151 137:200 138:236 139:255 140:255 141:255 142:255 143:218 144:173 145:124 146:75 147:52 148:70 149:102 150:111 151:101 152:57 153:23 154:41 155:91 156:146 157:193 158:231 159:255 160:255 161:255 162:255 163:217 164:173 165:122 166:73 167:49 168:67 169:100 170:109 171:100 172:58 173:27 174:48 175:96 176:147 177:192 178:227 179:255 180:255 181:255 182:255 183:213 184:171 185:122 186:68 187:35 188:43 189:69 190:78 191:68 192:35 193:27 194:62 195:111 196:157 197:196 198:230 199:255 200:255 201:255 202:255 203:218 204:173 205:118 206:61 207:25 208:16 209:22 210:28 211:14 212:9 213:37 214:87 215:138 216:181 217:212 218:232 219:255 220:255 221:255 222:255 223:218 224:173 225:122 226:63 227:20 228:8 229:6 230:5 231:3 232:6 233:52 234:104 235:154 236:196 237:223 238:238 239:255 240:255 241:255 242:255 243:211 244:167 245:120 246:64 247:21 248:13 249:14 250:11 251:4 252:8 253:55 254:109 255:161 256:204 257:230 258:241 259:255 260:255 261:255 262:255 263:206 264:161 265:115 266:64 267:32 268:36 269:51 270:44 271:20 272:11 273:47 274:100 275:153 276:197 277:226 278:240 279:255 280:255 281:255 282:255 283:203 284:158 285:115 286:69 287:46 288:61 289:88 290:86 291:55 292:24 293:38 294:84 295:135 296:180 297:213 298:236 299:255 300:255 301:255 302:255 303:201 304:156 305:116 306:73 307:54 308:77 309:110 310:117 311:94 312:49 313:35 314:66 315:113 316:158 317:198 318:231 319:255 320:255 321:255 322:255 323:198 324:153 325:113 326:73 327:58 328:86 329:123 330:141 331:124 332:81 333:47 334:57 335:95 336:141 337:186 338:224 339:255 340:255 341:255 342:255 343:196 344:150 345:111 346:76 347:69 348:99 349:138 350:165 351:151 352:112 353:74 354:66 355:92 356:136 357:180 358:221 359:255 360:255 361:255 362:255 363:192 364:153 365:123 366:96 367:92 368:121 369:157 370:181 371:175 372:137 373:109 374:96 375:110 376:143 377:184 378:224 379:255 380:255 381:255 382:255 383:187 384:160 385:141 386:124 387:124 388:141 389:174 390:198 391:198 392:174 393:150 394:138 395:148 396:170 397:201 398:239 399:255 400:255 
-2.857832955714274e-06 1:255 2:255 3:242 4:231 5:231 6:239 7:247 8:252 9:254 10:255 11:254 12:246 13:223 14:200 15:191 16:193 17:199 18:215 19:255 20:255 21:255 22:255 23:212 24:182 25:177 26:188 27:207 28:229 29:247 30:251 31:248 32:225 33:190 34:162 35:151 36:160 37:183 38:215 39:255 40:255 41:255 42:255 43:180 44:135 45:123 46:132 47:158 48:195 49:227 50:246 51:233 52:193 53:149 54:117 55:107 56:121 57:154 58:203 59:255 60:255 61:255 62:255 63:158 64:103 65:85 66:90 67:117 68:158 69:199 70:221 71:209 72:163 73:115 74:81 75:74 76:94 77:133 78:189 79:255 80:255 81:255 82:255 83:154 84:92 85:65 86:63 87:88 88:128 89:170 90:195 91:180 92:136 93:91 94:58 95:54 96:82 97:125 98:183 99:255 100:255 101:255 102:255 103:161 104:95 105:58 106:47 107:67 108:107 109:150 110:175 111:160 112:117 113:75 114:44 115:49 116:82 117:126 118:183 119:255 120:255 121:255 122:255 123:170 124:105 125:62 126:40 127:52 128:92 129:134 130:159 131:147 132:105 133:63 134:37 135:51 136:89 137:130 138:184 139:255 140:255 141:255 142:255 143:180 144:117 145:70 146:38 147:41 148:78 149:118 150:145 151:134 152:93 153:54 154:37 155:57 156:99 157:139 158:186 159:255 160:255 161:255 162:255 163:189 164:129 165:78 166:40 167:32 168:61 169:105 170:128 171:121 172:83 173:46 174:38 175:65 176:111 177:151 178:192 179:255 180:255 181:255 182:255 183:199 184:144 185:92 186:44 187:22 188:44 189:88 190:112 191:105 192:71 193:38 194:42 195:78 196:127 197:166 198:199 199:255 200:255 201:255 202:255 203:211 204:158 205:105 206:53 207:22 208:29 209:66 210:88 211:83 212:56 213:35 214:54 215:97 216:145 217:179 218:206 219:255 220:255 221:255 222:255 223:219 224:173 225:121 226:67 227:27 228:17 229:38 230:59 231:58 232:38 233:38 234:67 235:113 236:158 237:188 238:211 239:255 240:255 241:255 242:255 243:224 244:185 245:137 246:84 247:38 248:12 249:16 250:27 251:31 252:27 253:41 254:79 255:128 256:172 257:196 258:214 259:255 260:255 261:255 262:255 263:229 264:198 265:155 266:103 267:53 268:16 269:7 270:9 271:13 272:19 273:47 274:91 275:140 276:182 277:203 278:217 279:255 280:255 281:255 282:255 283:231 284:207 285:171 286:122 287:70 288:26 289:5 290:3 291:6 292:19 293:57 294:103 295:152 296:192 297:211 298:222 299:255 300:255 301:255 302:255 303:233 304:216 305:186 306:141 307:90 308:42 309:8 310:2 311:6 312:26 313:70 314:119 315:167 316:205 317:221 318:228 319:255 320:255 321:255 322:255 323:236 324:226 325:203 326:162 327:113 328:64 329:22 330:6 331:13 332:41 333:87 334:139 335:186 336:218 337:230 338:235 339:255 340:255 341:255 342:255 343:241 344:236 345:220 346:186 347:140 348:92 349:53 350:28 351:36 352:66 353:109 354:161 355:205 356:231 357:239 358:242 359:255 360:255 361:255 362:255 363:244 364:239 365:231 366:208 367:170 368:129 369:99 370:81 371:84 372:105 373:141 374:189 375:228 376:245 377:246 378:245 379:255 380:255 381:255 382:255 383:239 384:230 385:231 386:223 387:199 388:173 389:149 390:137 391:139 392:155 393:182 394:219 395:243 396:252 397:252 398:250 399:255 400:255 
-6.102772855263145e-06 1:255 2:255 3:248 4:240 5:234 6:234 7:241 8:249 9:253 10:255 11:253 12:249 13:242 14:231 15:222 16:220 17:225 18:236 19:255 20:255 21:255 22:255 23:235 24:215 25:203 26:205 27:220 28:240 29:251 30:254 31:251 32:246 33:230 34:209 35:190 36:189 37:206 38:229 39:255 40:255 41:255 42:255 43:220 44:181 45:159 46:165 47:194 48:228 49:246 50:251 51:248 52:238 53:215 54:178 55:148 56:147 57:174 58:217 59:255 60:255 61:255 62:255 63:210 64:159 65:128 66:135 67:174 68:218 69:241 70:246 71:243 72:231 73:204 74:158 75:118 76:113 77:149 78:204 79:255 80:255 81:255 82:255 83:205 84:149 85:112 86:117 87:161 88:208 89:230 90:232 91:226 92:217 93:190 94:143 95:100 96:95 97:131 98:190 99:255 100:255 101:255 102:255 103:203 104:144 105:104 106:107 107:148 108:189 109:205 110:200 111:193 112:188 113:169 114:128 115:90 116:87 117:120 118:179 119:255 120:255 121:255 122:255 123:201 124:140 125:99 126:100 127:131 128:160 129:167 130:153 131:146 132:147 133:140 134:113 135:84 136:83 137:115 138:174 139:255 140:255 141:255 142:255 143:199 144:136 145:94 146:88 147:110 148:129 149:123 150:101 151:94 152:105 153:110 154:96 155:77 156:80 157:111 158:171 159:255 160:255 161:255 162:255 163:198 164:133 165:88 166:74 167:86 168:97 169:85 170:61 171:54 172:66 173:80 174:78 175:68 176:76 177:109 178:169 179:255 180:255 181:255 182:255 183:195 184:129 185:80 186:60 187:62 188:65 189:53 190:31 191:28 192:46 193:60 194:61 195:59 196:71 197:106 198:167 199:255 200:255 201:255 202:255 203:189 204:122 205:72 206:44 207:36 208:35 209:28 210:15 211:15 212:28 213:46 214:51 215:53 216:69 217:107 218:171 219:255 220:255 221:255 222:255 223:190 224:123 225:67 226:33 227:20 228:16 229:10 230:4 231:8 232:19 233:31 234:36 235:46 236:72 237:116 238:177 239:255 240:255 241:255 242:255 243:200 244:132 245:70 246:27 247:8 248:6 249:8 250:11 251:16 252:16 253:21 254:28 255:43 256:77 257:125 258:184 259:255 260:255 261:255 262:255 263:203 264:141 265:79 266:29 267:6 268:8 269:18 270:31 271:33 272:22 273:20 274:24 275:43 276:84 277:136 278:192 279:255 280:255 281:255 282:255 283:200 284:144 285:84 286:33 287:12 288:20 289:40 290:60 291:60 292:42 293:26 294:25 295:46 296:92 297:146 298:199 299:255 300:255 301:255 302:255 303:194 304:142 305:88 306:41 307:24 308:38 309:69 310:98 311:96 312:69 313:43 314:35 315:54 316:99 317:153 318:206 319:255 320:255 321:255 322:255 323:188 324:143 325:100 326:61 327:48 328:66 329:105 330:137 331:132 332:104 333:73 334:59 335:74 336:112 337:162 338:214 339:255 340:255 341:255 342:255 343:188 344:153 345:125 346:98 347:91 348:112 349:151 350:174 351:170 352:150 353:118 354:102 355:112 356:143 357:183 358:224 359:255 360:255 361:255 362:255 363:195 364:169 365:159 366:150 367:152 368:169 369:199 370:213 371:213 372:199 373:172 374:160 375:165 376:188 377:216 378:237 379:255 380:255 381:255 382:255 383:198 384:179 385:187 386:196 387:203 388:215 389:227 390:234 391:238 392:229 393:217 394:212 395:215 396:225 397:237 398:247 399:255 400:255 
-6.106991894689904e-06 1:255 2:255 3:235 4:217 5:207 6:209 7:224 8:241 9:252 10:255 11:254 12:251 13:240 14:222 15:206 16:204 17:215 18:232 19:255 20:255 21:255 22:255 23:225 24:186 25:159 26:166 27:199 28:230 29:248 30:254 31:252 32:246 33:227 34:191 35:159 36:154 37:181 38:223 39:255 40:255 41:255 42:255 43:211 44:159 45:122 46:128 47:171 48:218 49:241 50:249 51:249 52:240 53:215 54:166 55:122 56:119 57:157 58:209 59:255 60:255 61:255 62:255 63:204 64:143 65:103 66:109 67:156 68:204 69:230 70:238 71:238 72:227 73:199 74:150 75:106 76:103 77:142 78:198 79:255 80:255 81:255 82:255 83:200 84:137 85:97 86:103 87:147 88:192 89:214 90:217 91:213 92:204 93:174 94:129 95:95 96:98 97:134 98:190 99:255 100:255 101:255 102:255 103:199 104:135 105:95 106:98 107:134 108:169 109:180 110:176 111:170 112:166 113:145 114:109 115:85 116:94 117:131 118:186 119:255 120:255 121:255 122:255 123:197 124:135 125:93 126:89 127:114 128:136 129:135 130:120 131:116 132:119 133:116 134:96 135:78 136:88 137:127 138:186 139:255 140:255 141:255 142:255 143:195 144:132 145:88 146:75 147:91 148:106 149:96 150:73 151:67 152:79 153:87 154:81 155:73 156:84 157:123 158:185 159:255 160:255 161:255 162:255 163:194 164:126 165:79 166:63 167:68 168:72 169:59 170:40 171:36 172:53 173:69 174:68 175:64 176:80 177:121 178:182 179:255 180:255 181:255 182:255 183:190 184:119 185:69 186:48 187:46 188:43 189:32 190:19 191:22 192:35 193:51 194:53 195:54 196:75 197:123 198:190 199:255 200:255 201:255 202:255 203:195 204:122 205:66 206:37 207:27 208:22 209:15 210:6 211:9 212:22 213:33 214:38 215:47 216:79 217:134 218:198 219:255 220:255 221:255 222:255 223:195 224:124 225:68 226:29 227:9 228:6 229:8 230:14 231:15 232:12 233:19 234:26 235:42 236:84 237:142 238:200 239:255 240:255 241:255 242:255 243:191 244:129 245:73 246:28 247:7 248:5 249:17 250:27 251:26 252:16 253:10 254:19 255:44 256:92 257:150 258:204 259:255 260:255 261:255 262:255 263:187 264:131 265:76 266:31 267:13 268:17 269:38 270:52 271:47 272:29 273:16 274:21 275:49 276:99 277:155 278:206 279:255 280:255 281:255 282:255 283:181 284:132 285:81 286:38 287:24 288:35 289:66 290:89 291:77 292:51 293:29 294:29 295:56 296:106 297:161 298:210 299:255 300:255 301:255 302:255 303:176 304:134 305:91 306:51 307:42 308:62 309:102 310:128 311:117 312:84 313:53 314:45 315:69 316:116 317:169 318:217 319:255 320:255 321:255 322:255 323:175 324:140 325:111 326:82 327:79 328:104 329:145 330:168 331:164 332:127 333:94 334:83 335:100 336:140 337:185 338:224 339:255 340:255 341:255 342:255 343:180 344:154 345:145 346:136 347:139 348:158 349:189 350:209 351:204 352:176 353:150 354:141 355:152 356:181 357:212 358:234 359:255 360:255 361:255 362:255 363:189 364:171 365:180 366:189 367:197 368:208 369:221 370:230 371:229 372:220 373:206 374:199 375:207 376:221 377:234 378:246 379:255 380:255 381:255 382:255 383:186 384:163 385:185 386:211 387:223 388:231 389:237 390:244 391:244 392:241 393:235 394:233 395:237 396:243 397:247 398:251 399:255 400:255 
-1.941455263537442e-05 1:255 2:255 3:255 4:255 5:254 6:253 7:251 8:250 9:249 10:245 11:240 12:232 13:216 14:195 15:174 16:155 17:143 18:168 19:255 20:255 21:255 22:255 23:253 24:251 25:246 26:242 27:243 28:247 29:250 30:249 31:240 32:228 33:215 34:197 35:181 36:173 37:174 38:198 39:255 40:255 41:255 42:255 43:241 44:224 45:209 46:203 47:207 48:220 49:232 50:238 51:233 52:214 53:188 54:167 55:154 56:157 57:172 58:200 59:255 60:255 61:255 62:255 63:223 64:187 65:160 66:147 67:153 68:173 69:196 70:213 71:210 72:185 73:149 74:125 75:118 76:129 77:153 78:191 79:255 80:255 81:255 82:255 83:206 84:157 85:121 86:100 87:101 88:125 89:153 90:177 91:175 92:144 93:107 94:85 95:85 96:105 97:136 98:183 99:255 100:255 101:255 102:255 103:201 104:146 105:105 106:75 107:66 108:85 109:112 110:135 111:135 112:106 113:73 114:56 115:67 116:98 117:135 118:184 119:255 120:255 121:255 122:255 123:207 124:153 125:109 126:72 127:50 128:54 129:74 130:94 131:94 132:74 133:49 134:45 135:70 136:110 137:149 138:195 139:255 140:255 141:255 142:255 143:215 144:169 145:126 146:85 147:50 148:33 149:38 150:56 151:56 152:43 153:35 154:51 155:85 156:128 157:170 158:209 159:255 160:255 161:255 162:255 163:224 164:188 165:148 166:103 167:61 168:31 169:16 170:22 171:22 172:19 173:33 174:62 175:104 176:151 177:190 178:219 179:255 180:255 181:255 182:255 183:233 184:209 185:176 186:134 187:90 188:48 189:14 190:8 191:8 192:14 193:49 194:91 195:137 196:179 197:208 198:227 199:255 200:255 201:255 202:255 203:239 204:221 205:195 206:158 207:114 208:67 209:21 210:8 211:8 212:21 213:62 214:112 215:161 216:199 217:219 218:232 219:255 220:255 221:255 222:255 223:246 224:230 225:208 226:174 227:130 228:81 229:32 230:8 231:8 232:29 233:75 234:124 235:173 236:209 237:227 238:238 239:255 240:255 241:255 242:255 243:248 244:235 245:213 246:177 247:132 248:84 249:34 250:10 251:10 252:29 253:74 254:120 255:168 256:207 257:230 258:243 259:255 260:255 261:255 262:255 263:248 264:233 265:207 266:167 267:120 268:70 269:26 270:9 271:9 272:21 273:59 274:102 275:151 276:194 277:222 278:239 279:255 280:255 281:255 282:255 283:245 284:227 285:194 286:149 287:99 288:54 289:18 290:12 291:14 292:18 293:41 294:79 295:125 296:171 297:206 298:230 299:255 300:255 301:255 302:255 303:241 304:218 305:177 306:124 307:76 308:40 309:24 310:34 311:39 312:33 313:34 314:59 315:97 316:141 317:182 318:220 319:255 320:255 321:255 322:255 323:232 324:200 325:153 326:100 327:56 328:34 329:46 330:70 331:77 332:63 333:43 334:46 335:71 336:109 337:154 338:206 339:255 340:255 341:255 342:255 343:216 344:175 345:128 346:80 347:47 348:44 349:72 350:104 351:113 352:95 353:64 354:47 355:55 356:87 357:131 358:188 359:255 360:255 361:255 362:255 363:196 364:151 365:109 366:68 367:48 368:63 369:100 370:138 371:144 372:126 373:92 374:69 375:65 376:83 377:119 378:177 379:255 380:255 381:255 382:255 383:183 384:138 385:106 386:79 387:72 388:92 389:124 390:165 391:175 392:162 393:127 394:102 395:92 396:100 397:127 398:181 399:255 400:255 
-1.210223721273628e-05 1:255 2:255 3:255 4:255 5:254 6:253 7:252 8:251 9:249 10:252 11:252 12:246 13:241 14:226 15:207 16:195 17:189 18:203 19:255 20:255 21:255 22:255 23:251 24:244 25:232 26:221 27:220 28:227 29:237 30:244 31:244 32:238 33:221 34:201 35:183 36:177 37:184 38:209 39:255 40:255 41:255 42:255 43:239 44:214 45:188 46:168 47:165 48:177 49:201 50:222 51:228 52:210 53:181 54:153 55:137 56:141 57:161 58:199 59:255 60:255 61:255 62:255 63:224 64:186 65:148 66:120 67:113 68:128 69:160 70:187 71:195 72:171 73:136 74:106 75:96 76:109 77:140 78:189 79:255 80:255 81:255 82:255 83:216 84:171 85:125 86:90 87:76 88:88 89:118 90:147 91:156 92:128 93:94 94:69 95:70 96:94 97:133 98:187 99:255 100:255 101:255 102:255 103:218 104:173 105:124 106:82 107:59 108:59 109:80 110:107 111:114 112:89 113:61 114:47 115:63 116:99 117:141 118:192 119:255 120:255 121:255 122:255 123:225 124:186 125:140 126:95 127:60 128:43 129:50 130:69 131:71 132:56 133:38 134:44 135:74 136:117 137:159 138:201 139:255 140:255 141:255 142:255 143:233 144:203 145:165 146:120 147:74 148:41 149:28 150:35 151:35 152:27 153:31 154:56 155:96 156:141 157:180 158:214 159:255 160:255 161:255 162:255 163:240 164:218 165:188 166:145 167:96 168:51 169:20 170:12 171:12 172:16 173:40 174:78 175:123 176:166 177:200 178:226 179:255 180:255 181:255 182:255 183:246 184:234 185:208 186:169 187:122 188:74 189:32 190:8 191:6 192:17 193:55 194:100 195:147 196:189 197:217 198:235 199:255 200:255 201:255 202:255 203:250 204:242 205:220 206:187 207:144 208:92 209:45 210:12 211:6 212:23 213:64 214:115 215:164 216:203 217:226 218:238 219:255 220:255 221:255 222:255 223:248 224:241 225:223 226:193 227:151 228:99 229:47 230:13 231:5 232:23 233:64 234:113 235:162 236:202 237:226 238:239 239:255 240:255 241:255 242:255 243:246 244:238 245:217 246:185 247:141 248:89 249:43 250:9 251:2 252:16 253:51 254:97 255:146 256:188 257:215 258:234 259:255 260:255 261:255 262:255 263:242 264:229 265:204 266:167 267:121 268:71 269:27 270:5 271:3 272:12 273:36 274:75 275:118 276:159 277:193 278:222 279:255 280:255 281:255 282:255 283:236 284:215 285:185 286:142 287:95 288:51 289:18 290:12 291:16 292:18 293:26 294:52 295:87 296:128 297:167 298:207 299:255 300:255 301:255 302:255 303:229 304:199 305:161 306:115 307:70 308:36 309:25 310:39 311:48 312:43 313:32 314:35 315:58 316:95 317:137 318:189 319:255 320:255 321:255 322:255 323:219 324:181 325:137 326:91 327:54 328:37 329:50 330:78 331:91 332:81 333:56 334:36 335:41 336:69 337:109 338:170 339:255 340:255 341:255 342:255 343:204 344:161 345:118 346:76 347:52 348:57 349:85 350:116 351:131 352:118 353:90 354:58 355:49 356:64 357:97 358:159 359:255 360:255 361:255 362:255 363:187 364:146 365:112 366:81 367:71 368:86 369:117 370:152 371:172 372:157 373:127 374:97 375:79 376:83 377:106 378:161 379:255 380:255 381:255 382:255 383:171 384:136 385:117 386:100 387:102 388:124 389:153 390:186 391:200 392:193 393:167 394:141 395:124 396:121 397:135 398:179 399:255 400:255 
