svm_type c_svc
kernel_type linear
nr_class 2
total_sv 21
rho 6.52415
label 18 -1
nr_sv 5 16
SV
1.754879185996809e-05 1:255 2:255 3:250 4:253 5:255 6:252 7:250 8:255 9:255 10:255 11:255 12:255 13:245 14:219 15:179 16:140 17:113 18:139 19:255 20:255 21:255 22:255 23:248 24:247 25:245 26:241 27:238 28:236 29:237 30:243 31:244 32:247 33:246 34:231 35:206 36:178 37:154 38:169 39:255 40:255 41:255 42:255 43:244 44:234 45:227 46:218 47:208 48:205 49:209 50:218 51:224 52:228 53:237 54:237 55:226 56:213 57:201 58:208 59:255 60:255 61:255 62:255 63:234 64:211 65:191 66:173 67:162 68:158 69:162 70:168 71:178 72:193 73:216 74:229 75:233 76:231 77:226 78:230 79:255 80:255 81:255 82:255 83:219 84:182 85:151 86:129 87:115 88:109 89:110 90:113 91:129 92:150 93:177 94:204 95:222 96:231 97:232 98:236 99:255 100:255 101:255 102:255 103:204 104:157 105:120 106:91 107:72 108:63 109:61 110:59 111:75 112:102 113:133 114:168 115:198 116:219 117:227 118:232 119:255 120:255 121:255 122:255 123:193 124:140 125:98 126:63 127:43 128:39 129:38 130:27 131:30 132:54 133:92 134:131 135:170 136:202 137:217 138:225 139:255 140:255 141:255 142:255 143:185 144:131 145:86 146:51 147:43 148:56 149:60 150:44 151:23 152:23 153:56 154:103 155:146 156:184 157:205 158:215 159:255 160:255 161:255 162:255 163:182 164:125 165:79 166:52 167:57 168:81 169:94 170:81 171:44 172:17 173:36 174:84 175:132 176:172 177:190 178:204 179:255 180:255 181:255 182:255 183:178 184:120 185:72 186:46 187:60 188:92 189:109 190:101 191:63 192:21 193:24 194:74 195:126 196:165 197:184 198:201 199:255 200:255 201:255 202:255 203:173 204:115 205:65 206:37 207:45 208:72 209:90 210:83 211:54 212:27 213:40 214:87 215:133 216:168 217:186 218:201 219:255 220:255 221:255 222:255 223:171 224:109 225:57 226:23 227:21 228:32 229:41 230:35 231:23 232:31 233:64 234:103 235:143 236:175 237:185 238:197 239:255 240:255 241:255 242:255 243:169 244:105 245:52 246:17 247:9 248:10 249:10 250:9 251:11 252:45 253:91 254:130 255:164 256:188 257:189 258:194 259:255 260:255 261:255 262:255 263:166 264:98 265:45 266:15 267:13 268:15 269:6 270:3 271:7 272:56 273:110 274:151 275:184 276:202 277:195 278:195 279:255 280:255 281:255 282:255 283:165 284:97 285:50 286:31 287:39 288:45 289:32 290:11 291:8 292:57 293:116 294:161 295:195 296:212 297:202 298:198 299:255 300:255 301:255 302:255 303:162 304:97 305:61 306:54 307:72 308:85 309:72 310:36 311:16 312:54 313:110 314:157 315:194 316:213 317:203 318:198 319:255 320:255 321:255 322:255 323:157 324:93 325:66 326:71 327:96 328:114 329:106 330:70 331:33 332:52 333:98 334:144 335:183 336:205 337:197 338:194 339:255 340:255 341:255 342:255 343:153 344:87 345:66 346:81 347:113 348:131 349:127 350:97 351:55 352:51 353:88 354:132 355:170 356:194 357:189 358:189 359:255 360:255 361:255 362:255 363:153 364:89 365:72 366:91 367:124 368:146 369:145 370:118 371:75 372:53 373:79 374:120 375:162 376:189 377:187 378:188 379:255 380:255 381:255 382:255 383:164 384:110 385:95 386:108 387:139 388:163 389:165 390:138 391:100 392:67 393:78 394:116 395:157 396:185 397:185 398:190 399:255 400:255 
2.02521943608528e-05 1:255 2:255 3:247 4:248 5:250 6:250 7:252 8:255 9:255 10:255 11:255 12:251 13:232 14:201 15:163 16:130 17:107 18:134 19:255 20:255 21:255 22:255 23:247 24:248 25:247 26:245 27:245 28:246 29:246 30:246 31:250 32:250 33:243 34:225 35:197 36:166 37:143 38:163 39:255 40:255 41:255 42:255 43:242 44:234 45:229 46:223 47:218 48:217 49:221 50:226 51:229 52:233 53:236 54:234 55:223 56:206 57:189 58:199 59:255 60:255 61:255 62:255 63:233 64:210 65:196 66:186 67:177 68:176 69:180 70:185 71:192 72:200 73:215 74:226 75:231 76:229 77:223 78:229 79:255 80:255 81:255 82:255 83:216 84:182 85:160 86:145 87:135 88:132 89:133 90:135 91:148 92:158 93:180 94:200 95:218 96:230 97:237 98:244 99:255 100:255 101:255 102:255 103:201 104:159 105:128 106:105 107:91 108:83 109:82 110:81 111:94 112:114 113:141 114:167 115:192 116:216 117:231 118:241 119:255 120:255 121:255 122:255 123:194 124:146 125:108 126:74 127:52 128:42 129:40 130:36 131:43 132:69 133:103 134:134 135:163 136:193 137:216 138:233 139:255 140:255 141:255 142:255 143:192 144:141 145:99 146:59 147:35 148:35 149:39 150:33 151:26 152:29 153:61 154:102 155:140 156:172 157:200 158:226 159:255 160:255 161:255 162:255 163:192 164:140 165:93 166:54 167:42 168:61 169:84 170:78 171:50 172:18 173:28 174:72 175:120 176:160 177:190 178:217 179:255 180:255 181:255 182:255 183:192 184:140 185:93 186:54 187:52 188:86 189:102 190:101 191:77 192:22 193:18 194:62 195:114 196:156 197:185 198:213 199:255 200:255 201:255 202:255 203:188 204:138 205:97 206:61 207:57 208:86 209:99 210:98 211:77 212:27 213:25 214:70 215:119 216:159 217:190 218:218 219:255 220:255 221:255 222:255 223:188 224:138 225:97 226:59 227:42 228:55 229:71 230:61 231:43 232:22 233:51 234:94 235:132 236:165 237:193 238:218 239:255 240:255 241:255 242:255 243:191 244:139 245:94 246:49 247:22 248:21 249:22 250:18 251:13 252:29 253:73 254:115 255:150 256:177 257:197 258:218 259:255 260:255 261:255 262:255 263:192 264:137 265:87 266:42 267:16 268:8 269:4 270:2 271:4 272:38 273:86 274:127 275:161 276:185 277:201 278:221 279:255 280:255 281:255 282:255 283:187 284:132 285:86 286:47 287:25 288:18 289:15 290:7 291:6 292:40 293:88 294:132 295:166 296:188 297:204 298:226 299:255 300:255 301:255 302:255 303:180 304:127 305:88 306:55 307:42 308:47 309:50 310:36 311:18 312:33 313:81 314:127 315:163 316:188 317:204 318:226 319:255 320:255 321:255 322:255 323:177 324:124 325:87 326:58 327:57 328:81 329:92 330:77 331:39 332:29 333:69 334:115 335:153 336:182 337:202 338:223 339:255 340:255 341:255 342:255 343:177 344:124 345:87 346:61 347:67 348:101 349:117 350:105 351:66 352:37 353:60 354:101 355:138 356:171 357:197 358:222 359:255 360:255 361:255 362:255 363:178 364:125 365:88 366:65 367:74 368:109 369:135 370:130 371:94 372:59 373:49 374:78 375:120 376:160 377:190 378:218 379:255 380:255 381:255 382:255 383:176 384:129 385:97 386:79 387:88 388:119 389:144 390:145 391:124 392:83 393:52 394:71 395:112 396:153 397:186 398:218 399:255 400:255 
1.795481591785828e-06 1:255 2:255 3:220 4:231 5:247 6:250 7:250 8:251 9:254 10:255 11:254 12:254 13:254 14:249 15:230 16:200 17:171 18:179 19:255 20:255 21:255 22:255 23:225 24:233 25:247 26:248 27:245 28:242 29:242 30:242 31:242 32:237 33:243 34:246 35:241 36:222 37:196 38:200 39:255 40:255 41:255 42:255 43:230 44:234 45:242 46:237 47:224 48:212 49:204 50:202 51:200 52:200 53:207 54:216 55:227 56:230 57:220 58:221 59:255 60:255 61:255 62:255 63:232 64:231 65:227 66:210 67:192 68:177 69:163 70:156 71:153 72:156 73:166 74:179 75:194 76:207 77:217 78:230 79:255 80:255 81:255 82:255 83:232 84:224 85:209 86:184 87:159 88:139 89:121 90:109 91:102 92:108 93:119 94:137 95:155 96:175 97:197 98:223 99:255 100:255 101:255 102:255 103:229 104:215 105:194 106:163 107:130 108:99 109:74 110:59 111:51 112:54 113:64 114:89 115:118 116:145 117:171 118:207 119:255 120:255 121:255 122:255 123:227 124:208 125:185 126:150 127:109 128:69 129:37 130:27 131:26 132:24 133:25 134:46 135:80 136:116 137:149 138:194 139:255 140:255 141:255 142:255 143:228 144:207 145:182 146:145 147:101 148:59 149:31 150:37 151:50 152:45 153:29 154:25 155:47 156:87 157:131 158:184 159:255 160:255 161:255 162:255 163:233 164:208 165:180 166:144 167:99 168:59 169:44 170:68 171:86 172:84 173:64 174:33 175:29 176:64 177:112 178:170 179:255 180:255 181:255 182:255 183:238 184:210 185:178 186:141 187:99 188:60 189:51 190:81 191:101 192:100 193:76 194:36 195:27 196:59 197:107 198:165 199:255 200:255 201:255 202:255 203:238 204:207 205:173 206:137 207:94 208:56 209:44 210:70 211:86 212:83 213:62 214:31 215:38 216:74 217:115 218:171 219:255 220:255 221:255 222:255 223:238 224:207 225:173 226:137 227:92 228:46 229:20 230:34 231:45 232:37 233:24 234:24 235:51 236:93 237:135 238:186 239:255 240:255 241:255 242:255 243:238 244:209 245:175 246:136 247:90 248:43 249:9 250:11 251:13 252:8 253:7 254:26 255:66 256:111 257:147 258:192 259:255 260:255 261:255 262:255 263:238 264:211 265:178 266:137 267:88 268:39 269:9 270:9 271:9 272:4 273:5 274:30 275:77 276:123 277:156 278:197 279:255 280:255 281:255 282:255 283:234 284:210 285:180 286:138 287:89 288:43 289:25 290:39 291:43 292:30 293:13 294:30 295:75 296:122 297:157 298:198 299:255 300:255 301:255 302:255 303:226 304:204 305:177 306:137 307:90 308:51 309:48 310:75 311:89 312:69 313:36 314:31 315:64 316:111 317:150 318:194 319:255 320:255 321:255 322:255 323:217 324:195 325:170 326:133 327:88 328:55 329:65 330:99 331:119 332:103 333:68 334:38 335:54 336:97 337:141 338:190 339:255 340:255 341:255 342:255 343:209 344:187 345:164 346:127 347:86 348:59 349:74 350:115 351:133 352:128 353:95 354:55 355:50 356:83 357:127 358:181 359:255 360:255 361:255 362:255 363:198 364:179 365:161 366:128 367:91 368:67 369:82 370:121 371:145 372:143 373:120 374:82 375:61 376:73 377:108 378:167 379:255 380:255 381:255 382:255 383:191 384:172 385:162 386:138 387:106 388:83 389:94 390:128 391:160 392:165 393:138 394:104 395:81 396:82 397:107 398:163 399:255 400:255 
7.993085115174108e-06 1:255 2:255 3:241 4:236 5:244 6:251 7:251 8:251 9:251 10:252 11:255 12:255 13:255 14:252 15:227 16:189 17:154 18:162 19:255 20:255 21:255 22:255 23:241 24:239 25:243 26:245 27:244 28:243 29:243 30:243 31:243 32:245 33:250 34:251 35:238 36:211 37:181 38:184 39:255 40:255 41:255 42:255 43:237 44:235 45:238 46:234 47:225 48:215 49:212 50:211 51:211 52:213 53:224 54:232 55:235 56:228 57:209 58:206 59:255 60:255 61:255 62:255 63:234 64:229 65:223 66:211 67:197 68:184 69:176 70:171 71:171 72:176 73:187 74:199 75:212 76:221 77:221 78:222 79:255 80:255 81:255 82:255 83:230 84:219 85:206 86:183 87:162 88:147 89:135 90:129 91:129 92:133 93:143 94:158 95:179 96:198 97:211 98:224 99:255 100:255 101:255 102:255 103:228 104:211 105:191 106:160 107:130 108:108 109:90 110:83 111:83 112:87 113:97 114:116 115:143 116:168 117:190 118:217 119:255 120:255 121:255 122:255 123:228 124:205 125:178 126:143 127:106 128:73 129:50 130:44 131:46 132:48 133:52 134:72 135:104 136:137 137:168 138:206 139:255 140:255 141:255 142:255 143:229 144:202 145:169 146:131 147:90 148:50 149:29 150:35 151:40 152:39 153:26 154:32 155:66 156:109 157:147 158:193 159:255 160:255 161:255 162:255 163:233 164:202 165:165 166:125 167:84 168:49 169:40 170:64 171:75 172:69 173:39 174:19 175:40 176:85 177:129 178:182 179:255 180:255 181:255 182:255 183:232 184:198 185:160 186:121 187:82 188:53 189:59 190:87 191:98 192:92 193:57 194:25 195:32 196:72 197:119 198:175 199:255 200:255 201:255 202:255 203:228 204:196 205:159 206:119 207:74 208:39 209:52 210:82 211:96 212:89 213:56 214:29 215:38 216:78 217:121 218:174 219:255 220:255 221:255 222:255 223:228 224:196 225:158 226:116 227:68 228:30 229:32 230:52 231:68 232:55 233:31 234:25 235:51 236:93 237:132 238:182 239:255 240:255 241:255 242:255 243:231 244:197 245:158 246:113 247:62 248:20 249:14 250:19 251:25 252:15 253:12 254:31 255:71 256:114 257:149 258:192 259:255 260:255 261:255 262:255 263:230 264:196 265:157 266:111 267:59 268:17 269:9 270:9 271:6 272:2 273:7 274:43 275:91 276:132 277:163 278:200 279:255 280:255 281:255 282:255 283:223 284:191 285:154 286:109 287:60 288:23 289:23 290:33 291:21 292:9 293:10 294:49 295:99 296:142 297:173 298:206 299:255 300:255 301:255 302:255 303:217 304:185 305:149 306:107 307:62 308:34 309:50 310:71 311:59 312:32 313:19 314:49 315:97 316:141 317:174 318:207 319:255 320:255 321:255 322:255 323:212 324:178 325:144 326:103 327:66 328:51 329:79 330:101 331:97 332:66 333:33 334:48 335:89 336:132 337:166 338:203 339:255 340:255 341:255 342:255 343:206 344:171 345:138 346:99 347:70 348:69 349:97 350:118 351:120 352:97 353:54 354:48 355:79 356:120 357:155 358:196 359:255 360:255 361:255 362:255 363:200 364:164 365:134 366:99 367:74 368:76 369:105 370:133 371:139 372:117 373:82 374:56 375:71 376:109 377:146 378:190 379:255 380:255 381:255 382:255 383:195 384:162 385:136 386:105 387:83 388:84 389:115 390:143 391:150 392:134 393:103 394:71 395:70 396:98 397:136 398:185 399:255 400:255 
4.391315620615036e-05 1:255 2:255 3:236 4:245 5:254 6:254 7:249 8:244 9:248 10:248 11:242 12:242 13:247 14:252 15:253 16:248 17:233 18:226 19:255 20:255 21:255 22:255 23:244 24:249 25:253 26:244 27:226 28:211 29:206 30:203 31:199 32:197 33:204 34:216 35:231 36:242 37:246 38:246 39:255 40:255 41:255 42:255 43:245 44:241 45:232 46:212 47:187 48:168 49:157 50:151 51:148 52:148 53:156 54:172 55:192 56:217 57:239 58:250 59:255 60:255 61:255 62:255 63:239 64:227 65:207 66:176 67:141 68:115 69:102 70:95 71:94 72:94 73:103 74:123 75:149 76:181 77:212 78:236 79:255 80:255 81:255 82:255 83:232 84:215 85:188 86:148 87:106 88:71 89:51 90:48 91:53 92:49 93:51 94:74 95:105 96:143 97:183 98:220 99:255 100:255 101:255 102:255 103:229 104:208 105:177 106:132 107:84 108:48 109:34 110:48 111:58 112:50 113:33 114:38 115:69 116:113 117:160 118:208 119:255 120:255 121:255 122:255 123:231 124:209 125:175 126:127 127:76 128:43 129:51 130:81 131:97 132:89 133:51 134:28 135:46 136:93 137:145 138:198 139:255 140:255 141:255 142:255 143:237 144:214 145:179 146:131 147:79 148:49 149:67 150:94 151:122 152:110 153:76 154:37 155:38 156:81 157:137 158:194 159:255 160:255 161:255 162:255 163:240 164:215 165:179 166:131 167:81 168:52 169:63 170:91 171:117 172:106 173:77 174:38 175:40 176:82 177:136 178:195 179:255 180:255 181:255 182:255 183:236 184:213 185:179 186:131 187:78 188:40 189:41 190:71 191:81 192:78 193:46 194:27 195:51 196:100 197:150 198:201 199:255 200:255 201:255 202:255 203:236 204:216 205:181 206:134 207:79 208:31 209:12 210:19 211:25 212:20 213:13 214:27 215:70 216:120 217:165 218:210 219:255 220:255 221:255 222:255 223:240 224:219 225:186 226:139 227:84 228:33 229:7 230:5 231:6 232:5 233:5 234:40 235:92 236:142 237:182 238:218 239:255 240:255 241:255 242:255 243:241 244:224 245:192 246:143 247:88 248:40 249:14 250:13 251:13 252:7 253:6 254:43 255:96 256:147 257:187 258:220 259:255 260:255 261:255 262:255 263:241 264:230 265:199 266:147 267:93 268:51 269:33 270:53 271:57 272:39 273:19 274:34 275:79 276:131 277:175 278:213 279:255 280:255 281:255 282:255 283:238 284:231 285:203 286:152 287:97 288:58 289:51 290:84 291:101 292:78 293:39 294:26 295:58 296:110 297:158 298:205 299:255 300:255 301:255 302:255 303:229 304:223 305:200 306:153 307:99 308:59 309:58 310:98 311:128 312:111 313:68 314:31 315:41 316:86 317:137 318:193 319:255 320:255 321:255 322:255 323:216 324:209 325:193 326:151 327:99 328:60 329:62 330:106 331:143 332:135 333:99 334:51 335:37 336:65 337:116 338:178 339:255 340:255 341:255 342:255 343:203 344:195 345:186 346:151 347:102 348:67 349:73 350:114 351:151 352:153 353:126 354:81 355:53 356:64 357:105 358:170 359:255 360:255 361:255 362:255 363:185 364:177 365:178 366:152 367:113 368:85 369:92 370:130 371:163 372:175 373:154 374:116 375:91 376:89 377:112 378:173 379:255 380:255 381:255 382:255 383:164 384:155 385:167 386:156 387:132 388:115 389:124 390:152 391:183 392:193 393:181 394:156 395:137 396:134 397:147 398:189 399:255 400:255 
-3.474273570496714e-06 1:255 2:255 3:242 4:245 5:246 6:245 7:245 8:246 9:248 10:251 11:251 12:246 13:240 14:228 15:205 16:177 17:151 18:163 19:255 20:255 21:255 22:255 23:243 24:239 25:231 26:218 27:206 28:199 29:200 30:205 31:217 32:217 33:216 34:209 35:200 36:190 37:179 38:191 39:255 40:255 41:255 42:255 43:238 44:216 45:191 46:169 47:155 48:145 49:143 50:149 51:158 52:163 53:164 54:166 55:170 56:175 57:181 58:202 59:255 60:255 61:255 62:255 63:228 64:191 65:154 66:124 67:105 68:95 69:93 70:97 71:102 72:107 73:111 74:115 75:124 76:140 77:161 78:196 79:255 80:255 81:255 82:255 83:220 84:175 85:131 86:96 87:71 88:57 89:52 90:53 91:52 92:52 93:56 94:64 95:79 96:103 97:134 98:182 99:255 100:255 101:255 102:255 103:219 104:173 105:129 106:94 107:68 108:53 109:46 110:40 111:27 112:19 113:18 114:26 115:47 116:79 117:116 118:171 119:255 120:255 121:255 122:255 123:227 124:186 125:147 126:117 127:95 128:84 129:75 130:60 131:36 132:14 133:6 134:11 135:37 136:75 137:114 138:171 139:255 140:255 141:255 142:255 143:239 144:211 145:180 146:153 147:135 148:125 149:110 150:87 151:58 152:21 153:8 154:18 155:50 156:91 157:129 158:180 159:255 160:255 161:255 162:255 163:249 164:238 165:216 166:194 167:177 168:158 169:134 170:102 171:65 172:25 173:14 174:36 175:75 176:114 177:149 178:194 179:255 180:255 181:255 182:255 183:255 184:251 185:240 186:223 187:200 188:169 189:133 190:91 191:55 192:24 193:28 194:61 195:102 196:140 197:171 198:205 199:255 200:255 201:255 202:255 203:255 204:255 205:245 206:219 207:184 208:148 209:108 210:73 211:36 212:25 213:54 214:92 215:132 216:167 217:191 218:215 219:255 220:255 221:255 222:255 223:255 224:253 225:240 226:209 227:164 228:120 229:85 230:52 231:31 232:51 233:83 234:123 235:161 236:194 237:214 238:226 239:255 240:255 241:255 242:255 243:249 244:243 245:224 246:187 247:141 248:98 249:63 250:34 251:44 252:76 253:113 254:153 255:191 256:217 257:225 258:229 259:255 260:255 261:255 262:255 263:240 264:226 265:200 266:159 267:115 268:74 269:41 270:33 271:61 272:98 273:138 274:182 275:215 276:231 277:230 278:230 279:255 280:255 281:255 282:255 283:229 284:202 285:169 286:129 287:87 288:49 289:27 290:41 291:77 292:113 293:154 294:196 295:222 296:232 297:229 298:228 299:255 300:255 301:255 302:255 303:211 304:174 305:137 306:97 307:58 308:26 309:18 310:43 311:83 312:117 313:151 314:182 315:202 316:213 317:216 318:222 319:255 320:255 321:255 322:255 323:190 324:145 325:108 326:67 327:30 328:8 329:11 330:33 331:73 332:102 333:125 334:145 335:161 336:179 337:193 338:211 339:255 340:255 341:255 342:255 343:175 344:123 345:86 346:44 347:12 348:3 349:7 350:20 351:49 352:67 353:85 354:101 355:120 356:145 357:169 358:199 359:255 360:255 361:255 362:255 363:161 364:111 365:80 366:44 367:18 368:12 369:12 370:17 371:27 372:37 373:54 374:71 375:93 376:120 377:150 378:192 379:255 380:255 381:255 382:255 383:152 384:110 385:91 386:70 387:56 388:48 389:44 390:44 391:49 392:51 393:54 394:67 395:88 396:115 397:147 398:192 399:255 400:255 
-1.605655015754937e-05 1:255 2:255 3:245 4:244 5:250 6:255 7:254 8:249 9:233 10:221 11:212 12:220 13:232 14:239 15:233 16:216 17:200 18:209 19:255 20:255 21:255 22:255 23:247 24:248 25:252 26:249 27:233 28:209 29:193 30:178 31:173 32:180 33:193 34:210 35:222 36:224 37:221 38:226 39:255 40:255 41:255 42:255 43:251 44:250 45:247 46:230 47:201 48:173 49:148 50:131 51:126 52:134 53:155 54:181 55:204 56:221 57:229 58:237 59:255 60:255 61:255 62:255 63:252 64:247 65:233 66:209 67:177 68:143 69:110 70:84 71:75 72:91 73:118 74:153 75:186 76:213 77:232 78:245 79:255 80:255 81:255 82:255 83:250 84:239 85:219 86:191 87:158 88:119 89:79 90:41 91:31 92:47 93:84 94:129 95:170 96:204 97:232 98:250 99:255 100:255 101:255 102:255 103:244 104:229 105:207 106:178 107:143 108:101 109:55 110:16 111:7 112:17 113:60 114:110 115:157 116:196 117:229 118:252 119:255 120:255 121:255 122:255 123:240 124:220 125:197 126:167 127:128 128:84 129:42 130:13 131:3 132:8 133:44 134:95 135:144 136:186 137:222 138:249 139:255 140:255 141:255 142:255 143:239 144:215 145:188 146:154 147:112 148:71 149:39 150:23 151:12 152:8 153:34 154:83 155:134 156:176 157:213 158:243 159:255 160:255 161:255 162:255 163:235 164:209 165:179 166:142 167:100 168:64 169:44 170:46 171:36 172:22 173:30 174:73 175:124 176:168 177:206 178:238 179:255 180:255 181:255 182:255 183:233 184:204 185:171 186:132 187:90 188:60 189:59 190:74 191:68 192:40 193:31 194:63 195:110 196:156 197:196 198:229 199:255 200:255 201:255 202:255 203:220 204:190 205:157 206:117 207:78 208:60 209:75 210:88 211:85 212:61 213:37 214:55 215:97 216:143 217:182 218:220 219:255 220:255 221:255 222:255 223:213 224:177 225:141 226:102 227:67 228:53 229:76 230:95 231:91 232:63 233:31 234:41 235:83 236:131 237:173 238:213 239:255 240:255 241:255 242:255 243:205 244:166 245:127 246:83 247:47 248:38 249:63 250:82 251:80 252:51 253:22 254:25 255:64 256:116 257:162 258:207 259:255 260:255 261:255 262:255 263:197 264:152 265:111 266:64 267:28 268:22 269:39 270:54 271:49 272:27 273:10 274:12 275:50 276:101 277:147 278:198 279:255 280:255 281:255 282:255 283:188 284:138 285:96 286:51 287:20 288:18 289:30 290:42 291:34 292:18 293:7 294:8 295:40 296:88 297:135 298:189 299:255 300:255 301:255 302:255 303:178 304:124 305:83 306:48 307:34 308:43 309:57 310:66 311:59 312:46 313:27 314:18 315:36 316:78 317:126 318:182 319:255 320:255 321:255 322:255 323:168 324:113 325:77 326:57 327:64 328:87 329:105 330:113 331:108 332:94 333:68 334:44 335:44 336:75 337:120 338:178 339:255 340:255 341:255 342:255 343:162 344:110 345:86 346:81 347:99 348:126 349:147 350:156 351:153 352:135 353:110 354:82 355:69 356:84 357:121 358:178 359:255 360:255 361:255 362:255 363:158 364:117 365:107 366:111 367:133 368:162 369:183 370:194 371:188 372:171 373:145 374:120 375:104 376:108 377:134 378:183 379:255 380:255 381:255 382:255 383:158 384:130 385:135 386:146 387:164 388:185 389:206 390:221 391:212 392:198 393:175 394:153 395:140 396:142 397:160 398:197 399:255 400:255 
-8.395927658148829e-06 1:255 2:255 3:241 4:243 5:249 6:252 7:254 8:254 9:254 10:255 11:254 12:251 13:248 14:241 15:226 16:212 17:200 18:206 19:255 20:255 21:255 22:255 23:245 24:247 25:248 26:245 27:241 28:238 29:236 30:233 31:223 32:218 33:220 34:228 35:231 36:230 37:227 38:232 39:255 40:255 41:255 42:255 43:248 44:244 45:233 46:218 47:206 48:199 49:197 50:194 51:183 52:177 53:184 54:194 55:205 56:220 57:233 58:241 59:255 60:255 61:255 62:255 63:249 64:238 65:214 66:186 67:167 68:161 69:157 70:149 71:140 72:135 73:144 74:158 75:174 76:194 77:213 78:232 79:255 80:255 81:255 82:255 83:247 84:227 85:197 86:164 87:137 88:117 89:106 90:93 91:90 92:84 93:94 94:115 95:143 96:167 97:187 98:217 99:255 100:255 101:255 102:255 103:243 104:217 105:184 106:149 107:112 108:73 109:53 110:50 111:59 112:54 113:54 114:70 115:106 116:142 117:170 118:206 119:255 120:255 121:255 122:255 123:239 124:212 125:177 126:140 127:96 128:50 129:34 130:53 131:71 132:68 133:52 134:48 135:76 136:122 137:161 138:200 139:255 140:255 141:255 142:255 143:234 144:207 145:174 146:139 147:98 148:57 149:54 150:90 151:105 152:102 153:83 154:56 155:67 156:111 157:153 158:195 159:255 160:255 161:255 162:255 163:229 164:203 165:176 166:144 167:104 168:66 169:61 170:99 171:114 172:110 173:94 174:59 175:63 176:104 177:146 178:189 179:255 180:255 181:255 182:255 183:229 184:205 185:178 186:144 187:102 188:58 189:50 190:90 191:101 192:96 193:69 194:39 195:60 196:110 197:150 198:192 199:255 200:255 201:255 202:255 203:236 204:210 205:179 206:144 207:98 208:41 209:15 210:28 211:47 212:35 213:18 214:14 215:54 216:110 217:152 218:196 219:255 220:255 221:255 222:255 223:236 224:211 225:181 226:146 227:96 228:35 229:3 230:7 231:13 232:12 233:7 234:8 235:41 236:94 237:140 238:186 239:255 240:255 241:255 242:255 243:236 244:213 245:183 246:148 247:99 248:37 249:4 250:8 251:23 252:37 253:30 254:22 255:36 256:78 257:127 258:179 259:255 260:255 261:255 262:255 263:236 264:215 265:189 266:154 267:105 268:46 269:14 270:34 271:72 272:87 273:81 274:63 275:49 276:69 277:114 278:171 279:255 280:255 281:255 282:255 283:232 284:214 285:191 286:158 287:112 288:60 289:31 290:70 291:106 292:121 293:114 294:93 295:62 296:63 297:101 298:163 299:255 300:255 301:255 302:255 303:225 304:211 305:191 306:160 307:119 308:70 309:41 310:84 311:112 312:127 313:117 314:94 315:58 316:56 317:96 318:160 319:255 320:255 321:255 322:255 323:218 324:206 325:192 326:164 327:124 328:71 329:33 330:63 331:95 332:108 333:95 334:67 335:40 336:54 337:102 338:166 339:255 340:255 341:255 342:255 343:209 344:197 345:190 346:166 347:124 348:69 349:17 350:26 351:57 352:69 353:52 354:31 355:34 356:70 357:120 358:176 359:255 360:255 361:255 362:255 363:198 364:186 365:186 366:166 367:127 368:74 369:22 370:19 371:30 372:31 373:29 374:33 375:68 376:113 377:146 378:187 379:255 380:255 381:255 382:255 383:179 384:173 385:180 386:164 387:134 388:97 389:70 390:63 391:71 392:77 393:89 394:103 395:128 396:151 397:170 398:206 399:255 400:255 
-4.90126572037544e-06 1:255 2:255 3:254 4:254 5:255 6:254 7:252 8:250 9:250 10:247 11:245 12:242 13:238 14:236 15:233 16:225 17:216 18:221 19:255 20:255 21:255 22:255 23:252 24:251 25:246 26:234 27:221 28:215 29:211 30:208 31:204 32:199 33:205 34:215 35:221 36:229 37:237 38:242 39:255 40:255 41:255 42:255 43:250 44:240 45:222 46:200 47:182 48:170 49:161 50:158 51:157 52:157 53:164 54:177 55:191 56:211 57:232 58:247 59:255 60:255 61:255 62:255 63:247 64:226 65:196 66:167 67:142 68:120 69:105 70:102 71:105 72:107 73:119 74:138 75:162 76:188 77:215 78:240 79:255 80:255 81:255 82:255 83:240 84:210 85:175 86:139 87:103 88:71 89:50 90:54 91:61 92:62 93:74 94:95 95:128 96:164 97:197 98:230 99:255 100:255 101:255 102:255 103:236 104:201 105:164 106:122 107:73 108:34 109:31 110:51 111:58 112:53 113:47 114:60 115:100 116:144 117:180 118:219 119:255 120:255 121:255 122:255 123:236 124:199 125:162 126:117 127:63 128:30 129:52 130:86 131:93 132:78 133:50 134:48 135:83 136:131 137:170 138:209 139:255 140:255 141:255 142:255 143:237 144:200 145:162 146:119 147:72 148:52 149:77 150:113 151:120 152:97 153:67 154:50 155:77 156:126 157:168 158:208 159:255 160:255 161:255 162:255 163:241 164:204 165:165 166:124 167:81 168:59 169:76 170:109 171:113 172:88 173:57 174:51 175:85 176:133 177:172 178:212 179:255 180:255 181:255 182:255 183:241 184:207 185:170 186:129 187:84 188:51 189:44 190:67 191:69 192:55 193:22 194:31 195:82 196:136 197:177 198:216 199:255 200:255 201:255 202:255 203:244 204:211 205:173 206:132 207:80 208:28 209:10 210:8 211:12 212:8 213:4 214:16 215:66 216:124 217:165 218:204 219:255 220:255 221:255 222:255 223:237 224:212 225:178 226:137 227:80 228:19 229:4 230:4 231:9 232:10 233:9 234:13 235:51 236:106 237:154 238:199 239:255 240:255 241:255 242:255 243:240 244:216 245:183 246:143 247:86 248:25 249:14 250:46 251:64 252:68 253:55 254:36 255:46 256:88 257:137 258:189 259:255 260:255 261:255 262:255 263:243 264:222 265:188 266:146 267:94 268:43 269:39 270:85 271:111 272:113 273:97 274:66 275:49 276:71 277:121 278:181 279:255 280:255 281:255 282:255 283:242 284:224 285:191 286:148 287:100 288:59 289:61 290:106 291:130 292:131 293:111 294:77 295:51 296:65 297:114 298:178 299:255 300:255 301:255 302:255 303:239 304:222 305:192 306:150 307:104 308:65 309:64 310:96 311:116 312:116 313:96 314:60 315:46 316:72 317:121 318:181 319:255 320:255 321:255 322:255 323:233 324:217 325:192 326:153 327:108 328:63 329:45 330:57 331:73 332:73 333:56 334:35 335:46 336:89 337:136 338:189 339:255 340:255 341:255 342:255 343:224 344:207 345:189 346:158 347:115 348:65 349:30 350:25 351:30 352:33 353:28 354:39 355:72 356:115 357:157 358:201 359:255 360:255 361:255 362:255 363:214 364:193 365:183 366:161 367:127 368:93 369:65 370:45 371:36 372:44 373:63 374:86 375:119 376:154 377:183 378:218 379:255 380:255 381:255 382:255 383:200 384:180 385:179 386:170 387:151 388:134 389:121 390:118 391:111 392:115 393:122 394:134 395:156 396:184 397:209 398:230 399:255 400:255 
-1.326135150741081e-06 1:255 2:255 3:254 4:254 5:254 6:252 7:249 8:249 9:250 10:254 11:255 12:254 13:246 14:214 15:170 16:135 17:111 18:134 19:255 20:255 21:255 22:255 23:251 24:250 25:247 26:242 27:236 28:230 29:222 30:234 31:244 32:245 33:235 34:219 35:196 36:175 37:156 38:166 39:255 40:255 41:255 42:255 43:248 44:241 45:219 46:196 47:181 48:167 49:166 50:176 51:184 52:189 53:187 54:187 55:192 56:205 57:205 58:203 59:255 60:255 61:255 62:255 63:243 64:217 65:180 66:149 67:129 68:115 69:112 70:116 71:122 72:129 73:132 74:140 75:162 76:196 77:220 78:228 79:255 80:255 81:255 82:255 83:238 84:198 85:151 86:112 87:85 88:69 89:59 90:60 91:62 92:69 93:82 94:96 95:127 96:169 97:205 98:230 99:255 100:255 101:255 102:255 103:236 104:190 105:138 106:89 107:51 108:29 109:22 110:27 111:27 112:32 113:51 114:72 115:108 116:154 117:190 118:220 119:255 120:255 121:255 122:255 123:236 124:188 125:132 126:78 127:34 128:14 129:20 130:36 131:38 132:42 133:57 134:82 135:118 136:164 137:197 138:217 139:255 140:255 141:255 142:255 143:233 144:185 145:128 146:74 147:35 148:26 149:44 150:70 151:81 152:85 153:95 154:119 155:149 156:191 157:221 158:228 159:255 160:255 161:255 162:255 163:225 164:177 165:126 166:78 167:40 168:34 169:66 170:87 171:108 172:119 173:128 174:148 175:175 176:214 177:238 178:236 179:255 180:255 181:255 182:255 183:226 184:178 185:130 186:81 187:39 188:28 189:57 190:82 191:104 192:112 193:124 194:146 195:179 196:218 197:238 198:236 199:255 200:255 201:255 202:255 203:236 204:187 205:133 206:81 207:35 208:13 209:26 210:51 211:65 212:73 213:85 214:114 215:155 216:202 217:225 218:226 219:255 220:255 221:255 222:255 223:227 224:183 225:133 226:77 227:28 228:3 229:6 230:16 231:26 232:31 233:59 234:96 235:142 236:190 237:212 238:215 239:255 240:255 241:255 242:255 243:216 244:174 245:128 246:74 247:29 248:9 249:18 250:33 251:41 252:46 253:65 254:102 255:147 256:190 257:214 258:222 259:255 260:255 261:255 262:255 263:213 264:172 265:126 266:73 267:32 268:24 269:51 270:68 271:86 272:91 273:103 274:131 275:169 276:207 277:227 278:232 279:255 280:255 281:255 282:255 283:208 284:165 285:120 286:71 287:34 288:34 289:73 290:100 291:120 292:128 293:146 294:166 295:199 296:229 297:236 298:236 299:255 300:255 301:255 302:255 303:202 304:157 305:113 306:66 307:32 308:34 309:74 310:105 311:127 312:139 313:155 314:173 315:202 316:227 317:232 318:231 319:255 320:255 321:255 322:255 323:198 324:152 325:109 326:61 327:26 328:25 329:55 330:81 331:103 332:116 333:126 334:145 335:171 336:198 337:213 338:221 339:255 340:255 341:255 342:255 343:193 344:149 345:108 346:63 347:28 348:14 349:25 350:46 351:61 352:70 353:84 354:102 355:132 356:166 357:191 358:216 359:255 360:255 361:255 362:255 363:184 364:146 365:115 366:79 367:47 368:25 369:19 370:27 371:37 372:43 373:53 374:71 375:107 376:152 377:192 378:227 379:255 380:255 381:255 382:255 383:167 384:138 385:126 386:98 387:73 388:66 389:64 390:64 391:66 392:64 393:66 394:80 395:112 396:155 397:200 398:241 399:255 400:255 
-5.954862585921898e-06 1:255 2:255 3:239 4:245 5:251 6:251 7:252 8:254 9:255 10:255 11:253 12:251 13:244 14:232 15:206 16:184 17:173 18:187 19:255 20:255 21:255 22:255 23:244 24:247 25:247 26:238 27:229 28:227 29:227 30:226 31:215 32:206 33:204 34:208 35:207 36:209 37:216 38:227 39:255 40:255 41:255 42:255 43:250 44:246 45:235 46:212 47:191 48:181 49:173 50:168 51:159 52:152 53:150 54:159 55:176 56:197 57:223 58:248 59:255 60:255 61:255 62:255 63:252 64:241 65:215 66:177 67:147 68:132 69:119 70:113 71:107 72:101 73:97 74:107 75:130 76:166 77:211 78:248 79:255 80:255 81:255 82:255 83:248 84:234 85:197 86:149 87:110 88:88 89:72 90:62 91:55 92:57 93:56 94:70 95:98 96:143 97:198 98:242 99:255 100:255 101:255 102:255 103:248 104:230 105:187 106:131 107:83 108:52 109:36 110:29 111:29 112:42 113:49 114:65 115:95 116:141 117:195 118:239 119:255 120:255 121:255 122:255 123:250 124:228 125:179 126:120 127:69 128:31 129:19 130:26 131:43 132:64 133:77 134:91 135:116 136:154 137:200 138:241 139:255 140:255 141:255 142:255 143:244 144:217 145:170 146:118 147:68 148:28 149:23 150:46 151:76 152:95 153:108 154:124 155:144 156:171 157:208 158:245 159:255 160:255 161:255 162:255 163:237 164:209 165:168 166:121 167:74 168:34 169:29 170:65 171:90 172:109 173:120 174:133 175:154 176:179 177:211 178:244 179:255 180:255 181:255 182:255 183:230 184:205 185:173 186:129 187:77 188:34 189:28 190:58 191:78 192:95 193:99 194:112 195:131 196:160 197:198 198:234 199:255 200:255 201:255 202:255 203:220 204:201 205:179 206:134 207:77 208:31 209:12 210:26 211:45 212:59 213:65 214:72 215:97 216:135 217:181 218:230 219:255 220:255 221:255 222:255 223:219 224:200 225:182 226:141 227:83 228:34 229:6 230:5 231:11 232:26 233:39 234:54 235:83 236:123 237:176 238:230 239:255 240:255 241:255 242:255 243:219 244:205 245:186 246:144 247:91 248:39 249:5 250:3 251:14 252:35 253:57 254:74 255:98 256:134 257:183 258:233 259:255 260:255 261:255 262:255 263:226 264:217 265:194 266:149 267:94 268:42 269:8 270:14 271:43 272:74 273:98 274:112 275:128 276:154 277:194 278:237 279:255 280:255 281:255 282:255 283:224 284:219 285:198 286:150 287:94 288:42 289:11 290:26 291:69 292:108 293:131 294:143 295:154 296:171 297:198 298:234 299:255 300:255 301:255 302:255 303:213 304:207 305:191 306:147 307:94 308:45 309:15 310:31 311:76 312:115 313:136 314:144 315:150 316:161 317:183 318:218 319:255 320:255 321:255 322:255 323:203 324:191 325:180 326:144 327:96 328:50 329:19 330:27 331:63 332:94 333:109 334:114 335:117 336:129 337:155 338:198 339:255 340:255 341:255 342:255 343:189 344:179 345:173 346:141 347:99 348:55 349:19 350:17 351:36 352:58 353:69 354:76 355:83 356:99 357:131 358:184 359:255 360:255 361:255 362:255 363:162 364:158 365:164 366:141 367:105 368:63 369:27 370:16 371:23 372:31 373:43 374:53 375:62 376:82 377:118 378:177 379:255 380:255 381:255 382:255 383:143 384:129 385:148 386:141 387:113 388:82 389:63 390:53 391:53 392:53 393:58 394:67 395:74 396:93 397:129 398:182 399:255 400:255 
-3.405052134873609e-06 1:255 2:255 3:215 4:219 5:235 6:244 7:250 8:253 9:253 10:255 11:255 12:253 13:248 14:234 15:215 16:196 17:175 18:182 19:255 20:255 21:255 22:255 23:229 24:232 25:242 26:246 27:247 28:247 29:247 30:249 31:253 32:253 33:244 34:230 35:214 36:199 37:188 38:201 39:255 40:255 41:255 42:255 43:237 44:240 45:240 46:229 47:215 48:206 49:208 50:221 51:237 52:242 53:228 54:206 55:189 56:178 57:175 58:195 59:255 60:255 61:255 62:255 63:242 64:241 65:229 66:204 67:177 68:162 69:163 70:176 71:202 72:213 73:198 74:173 75:154 76:145 77:144 78:177 79:255 80:255 81:255 82:255 83:244 84:237 85:215 86:179 87:145 88:121 89:118 90:134 91:165 92:179 93:165 94:138 95:116 96:106 97:112 98:159 99:255 100:255 101:255 102:255 103:241 104:232 105:204 106:164 107:124 108:90 109:81 110:103 111:137 112:149 113:133 114:104 115:81 116:78 117:97 118:153 119:255 120:255 121:255 122:255 123:237 124:227 125:199 126:158 127:114 128:73 129:57 130:81 131:112 132:121 133:103 134:75 135:60 136:71 137:102 138:161 139:255 140:255 141:255 142:255 143:235 144:224 145:198 146:156 147:110 148:66 149:41 150:61 151:86 152:90 153:74 154:53 155:56 156:82 157:117 158:172 159:255 160:255 161:255 162:255 163:234 164:220 165:195 166:156 167:109 168:61 169:30 170:39 171:59 172:60 173:48 174:47 175:69 176:105 177:139 178:185 179:255 180:255 181:255 182:255 183:231 184:215 185:190 186:152 187:105 188:56 189:23 190:23 191:28 192:28 193:33 194:60 195:94 196:128 197:162 198:203 199:255 200:255 201:255 202:255 203:227 204:208 205:184 206:148 207:104 208:54 209:18 210:10 211:14 212:19 213:38 214:77 215:118 216:156 217:187 218:217 219:255 220:255 221:255 222:255 223:227 224:207 225:181 226:142 227:96 228:49 229:12 230:4 231:6 232:17 233:46 234:88 235:132 236:170 237:201 238:230 239:255 240:255 241:255 242:255 243:227 244:207 245:181 246:141 247:93 248:45 249:9 250:3 251:5 252:15 253:42 254:84 255:130 256:171 257:204 258:232 259:255 260:255 261:255 262:255 263:224 264:206 265:181 266:141 267:91 268:40 269:8 270:3 271:7 272:15 273:33 274:72 275:118 276:159 277:193 278:225 279:255 280:255 281:255 282:255 283:218 284:203 285:182 286:143 287:93 288:42 289:11 290:9 291:16 292:20 293:29 294:53 295:92 296:133 297:171 298:211 299:255 300:255 301:255 302:255 303:209 304:199 305:184 306:147 307:97 308:46 309:15 310:19 311:37 312:39 313:33 314:37 315:64 316:103 317:142 318:191 319:255 320:255 321:255 322:255 323:195 324:189 325:182 326:149 327:101 328:48 329:20 330:32 331:63 332:68 333:53 334:38 335:46 336:75 337:112 338:168 339:255 340:255 341:255 342:255 343:179 344:170 345:172 346:147 347:103 348:54 349:29 350:48 351:85 352:98 353:85 354:60 355:44 356:54 357:85 358:146 359:255 360:255 361:255 362:255 363:162 364:151 365:159 366:143 367:108 368:67 369:45 370:72 371:103 372:125 373:113 374:89 375:61 376:52 377:71 378:133 379:255 380:255 381:255 382:255 383:141 384:130 385:149 386:144 387:119 388:88 389:79 390:94 391:132 392:148 393:143 394:119 395:95 396:82 397:85 398:137 399:255 400:255 
-3.240506212569069e-07 1:255 2:255 3:230 4:237 5:249 6:254 7:255 8:253 9:250 10:245 11:251 12:239 13:228 14:213 15:193 16:174 17:152 18:163 19:255 20:255 21:255 22:255 23:237 24:243 25:252 26:252 27:250 28:245 29:240 30:245 31:246 32:238 33:228 34:215 35:199 36:185 37:176 38:190 39:255 40:255 41:255 42:255 43:245 44:245 45:241 46:232 47:221 48:212 49:213 50:226 51:231 52:227 53:212 54:195 55:181 56:174 57:174 58:195 59:255 60:255 61:255 62:255 63:250 64:241 65:223 66:201 67:178 68:164 69:170 70:189 71:203 72:199 73:184 74:162 75:145 76:140 77:146 78:179 79:255 80:255 81:255 82:255 83:252 84:236 85:206 86:170 87:140 88:123 89:131 90:153 91:175 92:173 93:152 94:123 95:103 96:102 97:119 98:166 99:255 100:255 101:255 102:255 103:250 104:231 105:194 106:150 107:112 108:91 109:99 110:126 111:149 112:147 113:118 114:87 115:72 116:81 117:109 118:164 119:255 120:255 121:255 122:255 123:245 124:225 125:187 126:141 127:97 128:69 129:73 130:101 131:121 132:114 133:86 134:61 135:59 136:82 137:119 138:173 139:255 140:255 141:255 142:255 143:241 144:219 145:182 146:136 147:91 148:59 149:55 150:74 151:92 152:80 153:60 154:48 155:63 156:98 157:139 158:189 159:255 160:255 161:255 162:255 163:238 164:216 165:178 166:132 167:86 168:47 169:35 170:48 171:59 172:50 173:39 174:52 175:83 176:120 177:158 178:201 179:255 180:255 181:255 182:255 183:241 184:220 185:184 186:135 187:83 188:39 189:17 190:20 191:23 192:24 193:36 194:64 195:105 196:148 197:180 198:211 199:255 200:255 201:255 202:255 203:238 204:218 205:184 206:135 207:80 208:33 209:13 210:10 211:13 212:19 213:50 214:90 215:128 216:164 217:194 218:221 219:255 220:255 221:255 222:255 223:235 224:214 225:178 226:130 227:77 228:28 229:7 230:4 231:9 232:21 233:57 234:101 235:143 236:180 237:205 238:225 239:255 240:255 241:255 242:255 243:231 244:207 245:171 246:125 247:75 248:28 249:6 250:3 251:9 252:19 253:54 254:98 255:142 256:179 257:201 258:220 259:255 260:255 261:255 262:255 263:229 264:202 265:168 266:123 267:73 268:28 269:6 270:3 271:11 272:17 273:44 274:83 275:125 276:164 277:189 278:211 279:255 280:255 281:255 282:255 283:227 284:200 285:167 286:123 287:73 288:29 289:10 290:10 291:19 292:22 293:32 294:63 295:104 296:144 297:172 298:202 299:255 300:255 301:255 302:255 303:226 304:201 305:169 306:125 307:76 308:31 309:16 310:26 311:41 312:41 313:33 314:48 315:81 316:118 317:152 318:193 319:255 320:255 321:255 322:255 323:222 324:201 325:171 326:127 327:78 328:35 329:24 330:50 331:72 332:68 333:49 334:43 335:58 336:90 337:127 338:177 339:255 340:255 341:255 342:255 343:212 344:194 345:169 346:128 347:81 348:42 349:37 350:71 351:96 352:93 353:71 354:47 355:45 356:66 357:99 358:157 359:255 360:255 361:255 362:255 363:199 364:182 365:165 366:131 367:91 368:59 369:56 370:86 371:119 372:121 373:96 374:66 375:52 376:60 377:85 378:147 379:255 380:255 381:255 382:255 383:185 384:170 385:163 386:139 387:106 388:79 389:79 390:109 391:134 392:139 393:126 394:98 395:79 396:78 397:93 398:149 399:255 400:255 
-9.488687255261905e-06 1:255 2:255 3:236 4:240 5:249 6:251 7:251 8:250 9:246 10:246 11:254 12:255 13:254 14:238 15:211 16:187 17:163 18:170 19:255 20:255 21:255 22:255 23:241 24:243 25:243 26:239 27:237 28:234 29:232 30:237 31:251 32:254 33:249 34:233 35:213 36:195 37:180 38:193 39:255 40:255 41:255 42:255 43:247 44:245 45:236 46:218 47:203 48:196 49:199 50:215 51:233 52:237 53:225 54:203 55:186 56:177 57:174 58:196 59:255 60:255 61:255 62:255 63:251 64:242 65:221 66:191 67:165 68:152 69:158 70:181 71:203 72:205 73:189 74:163 75:143 76:138 77:145 78:179 79:255 80:255 81:255 82:255 83:250 84:237 85:207 86:167 87:132 88:113 89:121 90:147 91:172 92:168 93:149 94:120 95:99 96:101 97:121 98:169 99:255 100:255 101:255 102:255 103:246 104:230 105:197 106:151 107:108 108:83 109:91 110:120 111:142 112:135 113:110 114:83 115:70 116:84 117:115 118:168 119:255 120:255 121:255 122:255 123:241 124:222 125:189 126:142 127:95 128:65 129:68 130:95 131:113 132:105 133:79 134:58 135:60 136:87 137:124 138:175 139:255 140:255 141:255 142:255 143:236 144:217 145:183 146:137 147:89 148:53 149:50 150:70 151:84 152:75 153:58 154:49 155:65 156:101 157:141 158:190 159:255 160:255 161:255 162:255 163:231 164:212 165:180 166:134 167:85 168:45 169:34 170:47 171:56 172:51 173:44 174:57 175:87 176:123 177:158 178:201 179:255 180:255 181:255 182:255 183:227 184:209 185:179 186:133 187:80 188:34 189:17 190:19 191:22 192:25 193:45 194:72 195:110 196:150 197:182 198:212 199:255 200:255 201:255 202:255 203:227 204:209 205:177 206:130 207:77 208:30 209:9 210:7 211:13 212:22 213:55 214:94 215:134 216:170 217:197 218:222 219:255 220:255 221:255 222:255 223:231 224:211 225:173 226:124 227:73 228:27 229:6 230:6 231:13 232:24 233:60 234:105 235:149 236:186 237:211 238:230 239:255 240:255 241:255 242:255 243:232 244:211 245:176 246:126 247:72 248:27 249:6 250:6 251:10 252:22 253:57 254:101 255:147 256:186 257:211 258:232 259:255 260:255 261:255 262:255 263:228 264:209 265:177 266:127 267:72 268:27 269:8 270:6 271:11 272:18 273:47 274:86 275:127 276:168 277:199 278:225 279:255 280:255 281:255 282:255 283:224 284:203 285:172 286:125 287:72 288:28 289:11 290:11 291:16 292:20 293:36 294:66 295:103 296:143 297:179 298:213 299:255 300:255 301:255 302:255 303:217 304:196 305:167 306:124 307:75 308:30 309:16 310:24 311:34 312:35 313:34 314:48 315:77 316:115 317:154 318:198 319:255 320:255 321:255 322:255 323:207 324:190 325:168 326:128 327:80 328:36 329:24 330:45 331:63 332:61 333:48 334:41 335:54 336:85 337:124 338:179 339:255 340:255 341:255 342:255 343:195 344:181 345:168 346:133 347:88 348:49 349:38 350:67 351:89 352:90 353:75 354:53 355:48 356:64 357:95 358:158 359:255 360:255 361:255 362:255 363:182 364:170 365:165 366:136 367:97 368:67 369:63 370:86 371:118 372:126 373:106 374:79 375:62 376:64 377:87 378:147 379:255 380:255 381:255 382:255 383:164 384:156 385:165 386:148 387:119 388:96 389:90 390:117 391:141 392:153 393:139 394:116 395:94 396:91 397:107 398:155 399:255 400:255 
-2.623270549071284e-06 1:255 2:255 3:211 4:208 5:211 6:205 7:202 8:205 9:217 10:227 11:240 12:246 13:252 14:245 15:227 16:197 17:166 18:174 19:255 20:255 21:255 22:255 23:211 24:204 25:200 26:177 27:157 28:154 29:159 30:178 31:201 32:225 33:243 34:247 35:239 36:223 37:204 38:209 39:255 40:255 41:255 42:255 43:211 44:195 45:174 46:143 47:121 48:112 49:112 50:125 51:156 52:197 53:231 54:241 55:239 56:235 57:227 58:229 59:255 60:255 61:255 62:255 63:207 64:183 65:156 66:120 67:92 68:76 69:76 70:90 71:121 72:170 73:208 74:227 75:230 76:230 77:229 78:233 79:255 80:255 81:255 82:255 83:206 84:177 85:144 86:104 87:70 88:51 89:48 90:71 91:104 92:146 93:186 94:210 95:218 96:220 97:222 98:233 99:255 100:255 101:255 102:255 103:206 104:173 105:137 106:94 107:59 108:36 109:32 110:60 111:95 112:132 113:170 114:199 115:215 116:222 117:227 118:237 119:255 120:255 121:255 122:255 123:203 124:167 125:132 126:92 127:57 128:31 129:28 130:56 131:89 132:127 133:161 134:194 135:219 136:235 137:240 138:244 139:255 140:255 141:255 142:255 143:198 144:161 145:130 146:94 147:59 148:34 149:27 150:54 151:87 152:125 153:159 154:190 155:221 156:242 157:249 158:251 159:255 160:255 161:255 162:255 163:196 164:161 165:133 166:98 167:62 168:34 169:26 170:53 171:84 172:123 173:157 174:189 175:220 176:243 177:254 178:255 179:255 180:255 181:255 182:255 183:196 184:165 185:137 186:100 187:63 188:33 189:23 190:52 191:83 192:122 193:151 194:183 195:212 196:238 197:254 198:255 199:255 200:255 201:255 202:255 203:199 204:172 205:143 206:103 207:64 208:33 209:21 210:50 211:81 212:118 213:150 214:179 215:209 216:238 217:253 218:254 219:255 220:255 221:255 222:255 223:199 224:174 225:148 226:106 227:65 228:34 229:20 230:46 231:79 232:115 233:145 234:180 235:217 236:243 237:251 238:250 239:255 240:255 241:255 242:255 243:199 244:175 245:150 246:109 247:68 248:36 249:19 250:41 251:74 252:111 253:143 254:177 255:216 256:240 257:242 258:243 259:255 260:255 261:255 262:255 263:197 264:172 265:150 266:111 267:70 268:37 269:16 270:33 271:69 272:104 273:136 274:161 275:189 276:210 277:217 278:227 279:255 280:255 281:255 282:255 283:189 284:168 285:150 286:114 287:74 288:38 289:13 290:26 291:63 292:92 293:115 294:131 295:147 296:161 297:173 298:200 299:255 300:255 301:255 302:255 303:177 304:162 305:151 306:118 307:78 308:39 309:12 310:19 311:49 312:71 313:85 314:93 315:100 316:111 317:128 318:171 319:255 320:255 321:255 322:255 323:163 324:150 325:148 326:120 327:81 328:41 329:11 330:9 331:26 332:39 333:47 334:52 335:58 336:71 337:95 338:151 339:255 340:255 341:255 342:255 343:148 344:129 345:135 346:118 347:84 348:45 349:12 350:3 351:5 352:11 353:14 354:19 355:28 356:47 357:76 358:140 359:255 360:255 361:255 362:255 363:131 364:105 365:117 366:111 367:87 368:54 369:24 370:10 371:6 372:7 373:8 374:14 375:24 376:44 377:74 378:137 379:255 380:255 381:255 382:255 383:113 384:82 385:98 386:104 387:94 388:71 389:53 390:39 391:29 392:27 393:30 394:42 395:55 396:70 397:90 398:145 399:255 400:255 
-4.827068632816265e-06 1:255 2:255 3:242 4:248 5:255 6:255 7:254 8:253 9:250 10:250 11:248 12:245 13:237 14:230 15:213 16:183 17:147 18:152 19:255 20:255 21:255 22:255 23:249 24:251 25:251 26:246 27:243 28:245 29:245 30:245 31:241 32:237 33:233 34:229 35:220 36:202 37:180 38:187 39:255 40:255 41:255 42:255 43:250 44:245 45:236 46:226 47:222 48:224 49:229 50:233 51:233 52:227 53:221 54:215 55:210 56:207 57:201 58:210 59:255 60:255 61:255 62:255 63:243 64:231 65:211 66:192 67:183 68:184 69:195 70:212 71:220 72:210 73:193 74:182 75:180 76:185 77:195 78:218 79:255 80:255 81:255 82:255 83:237 84:215 85:185 86:153 87:133 88:133 89:154 90:184 91:196 92:184 93:154 94:135 95:133 96:148 97:176 98:212 99:255 100:255 101:255 102:255 103:231 104:201 105:161 106:116 107:85 108:85 109:116 110:153 111:170 112:157 113:120 114:90 115:85 116:110 117:152 118:201 119:255 120:255 121:255 122:255 123:226 124:191 125:145 126:92 127:53 128:50 129:83 130:122 131:143 132:130 133:93 134:59 135:53 136:83 137:133 138:192 139:255 140:255 141:255 142:255 143:224 144:186 145:137 146:80 147:39 148:31 149:52 150:89 151:107 152:100 153:64 154:40 155:41 156:73 157:126 158:188 159:255 160:255 161:255 162:255 163:220 164:181 165:127 166:68 167:28 168:17 169:27 170:50 171:72 172:63 173:44 174:30 175:33 176:64 177:115 178:182 179:255 180:255 181:255 182:255 183:219 184:175 185:114 186:55 187:19 188:7 189:12 190:26 191:40 192:36 193:24 194:18 195:24 196:52 197:102 198:173 199:255 200:255 201:255 202:255 203:214 204:166 205:103 206:44 207:13 208:6 209:6 210:7 211:11 212:11 213:15 214:19 215:26 216:48 217:92 218:163 219:255 220:255 221:255 222:255 223:210 224:158 225:94 226:41 227:20 228:18 229:13 230:6 231:7 232:9 233:21 234:34 235:37 236:49 237:87 238:160 239:255 240:255 241:255 242:255 243:205 244:155 245:96 246:49 247:34 248:35 249:29 250:17 251:14 252:23 253:40 254:51 255:49 256:55 257:89 258:159 259:255 260:255 261:255 262:255 263:203 264:154 265:99 266:58 267:50 268:57 269:55 270:38 271:33 272:45 273:71 274:80 275:69 276:66 277:95 278:161 279:255 280:255 281:255 282:255 283:203 284:156 285:107 286:72 287:70 288:88 289:91 290:76 291:68 292:80 293:101 294:105 295:87 296:76 297:97 298:161 299:255 300:255 301:255 302:255 303:205 304:159 305:114 306:82 307:86 308:115 309:131 310:122 311:115 312:125 313:133 314:123 315:98 316:81 317:96 318:159 319:255 320:255 321:255 322:255 323:205 324:160 325:114 326:86 327:98 328:135 329:164 330:166 331:162 332:166 333:163 334:139 335:106 336:84 337:96 338:159 339:255 340:255 341:255 342:255 343:202 344:156 345:112 346:90 347:109 348:154 349:187 350:201 351:200 352:197 353:184 354:154 355:112 356:86 357:98 358:160 359:255 360:255 361:255 362:255 363:198 364:155 365:114 366:94 367:116 368:166 369:205 370:225 371:229 372:221 373:201 374:165 375:120 376:94 377:106 378:165 379:255 380:255 381:255 382:255 383:193 384:156 385:126 386:109 387:129 388:175 389:213 390:235 391:237 392:229 393:207 394:173 395:132 396:106 397:119 398:175 399:255 400:255 
-8.778470385151348e-06 1:255 2:255 3:245 4:246 5:251 6:254 7:254 8:254 9:254 10:251 11:251 12:251 13:249 14:239 15:225 16:204 17:181 18:189 19:255 20:255 21:255 22:255 23:242 24:240 25:242 26:241 27:240 28:243 29:245 30:245 31:248 32:248 33:244 34:236 35:229 36:221 37:210 38:216 39:255 40:255 41:255 42:255 43:238 44:229 45:223 46:218 47:218 48:224 49:233 50:237 51:240 52:237 53:233 54:227 55:223 56:222 57:221 58:230 59:255 60:255 61:255 62:255 63:228 64:206 65:188 66:174 67:174 68:192 69:212 70:226 71:231 72:226 73:214 74:199 75:194 76:203 77:216 78:232 79:255 80:255 81:255 82:255 83:219 84:176 85:146 86:126 87:125 88:147 89:176 90:207 91:217 92:210 93:183 94:158 95:153 96:172 97:200 98:226 99:255 100:255 101:255 102:255 103:208 104:153 105:111 106:84 107:79 108:102 109:141 110:181 111:196 112:188 113:152 114:122 115:120 116:149 117:187 118:220 119:255 120:255 121:255 122:255 123:200 124:142 125:91 126:55 127:46 128:66 129:109 130:152 131:176 132:165 133:131 134:98 135:100 136:136 137:179 138:216 139:255 140:255 141:255 142:255 143:197 144:139 145:84 146:43 147:30 148:40 149:75 150:125 151:157 152:145 153:115 154:82 155:85 156:124 157:172 158:216 159:255 160:255 161:255 162:255 163:195 164:137 165:85 166:43 167:23 168:25 169:53 170:98 171:130 172:129 173:98 174:69 175:74 176:116 177:170 178:216 179:255 180:255 181:255 182:255 183:193 184:134 185:81 186:41 187:21 188:18 189:34 190:65 191:107 192:112 193:87 194:66 195:76 196:115 197:164 198:213 199:255 200:255 201:255 202:255 203:193 204:130 205:73 206:36 207:21 208:14 209:19 210:43 211:72 212:81 213:65 214:53 215:69 216:113 217:163 218:209 219:255 220:255 221:255 222:255 223:191 224:129 225:77 226:46 227:36 228:29 229:18 230:19 231:43 232:52 233:45 234:40 235:61 236:110 237:161 238:206 239:255 240:255 241:255 242:255 243:190 244:128 245:80 246:54 247:50 248:45 249:29 250:14 251:20 252:25 253:25 254:29 255:58 256:107 257:157 258:204 259:255 260:255 261:255 262:255 263:189 264:126 265:81 266:62 267:65 268:67 269:50 270:27 271:11 272:10 273:11 274:23 275:59 276:110 277:158 278:202 279:255 280:255 281:255 282:255 283:187 284:124 285:82 286:71 287:85 288:98 289:82 290:47 291:16 292:6 293:4 294:19 295:61 296:116 297:162 298:202 299:255 300:255 301:255 302:255 303:182 304:121 305:84 306:82 307:107 308:124 309:113 310:76 311:33 312:8 313:3 314:17 315:61 316:119 317:168 318:208 319:255 320:255 321:255 322:255 323:177 324:117 325:86 326:93 327:124 328:144 329:141 330:109 331:57 332:19 333:7 334:20 335:62 336:120 337:170 338:211 339:255 340:255 341:255 342:255 343:174 344:113 345:88 346:100 347:136 348:164 349:167 350:133 351:84 352:40 353:18 354:29 355:68 356:122 357:169 358:209 359:255 360:255 361:255 362:255 363:176 364:121 365:97 366:107 367:145 368:181 369:187 370:160 371:114 372:69 373:42 374:44 375:80 376:134 377:178 378:211 379:255 380:255 381:255 382:255 383:185 384:140 385:125 386:129 387:158 388:197 389:205 390:190 391:142 392:108 393:76 394:72 395:101 396:148 397:187 398:218 399:255 400:255 
-1.778707425927587e-05 1:255 2:255 3:245 4:249 5:254 6:255 7:254 8:253 9:251 10:250 11:237 12:224 13:195 14:174 15:163 16:156 17:156 18:185 19:255 20:255 21:255 22:255 23:251 24:251 25:251 26:248 27:242 28:237 29:232 30:232 31:225 32:222 33:218 34:206 35:193 36:184 37:182 38:201 39:255 40:255 41:255 42:255 43:244 44:227 45:217 46:212 47:203 48:192 49:186 50:186 51:187 52:189 53:203 54:214 55:216 56:214 57:206 58:209 59:255 60:255 61:255 62:255 63:221 64:191 65:174 66:165 67:157 68:147 69:140 70:138 71:143 72:153 73:170 74:187 75:203 76:215 77:212 78:208 79:255 80:255 81:255 82:255 83:198 84:159 85:133 86:115 87:106 88:99 89:92 90:89 91:95 92:110 93:129 94:152 95:175 96:198 97:205 98:207 99:255 100:255 101:255 102:255 103:182 104:132 105:99 106:72 107:57 108:53 109:51 110:47 111:48 112:65 113:88 114:118 115:148 116:180 117:201 118:213 119:255 120:255 121:255 122:255 123:172 124:113 125:73 126:42 127:27 128:33 129:42 130:40 131:29 132:35 133:52 134:85 135:125 136:165 137:195 138:220 139:255 140:255 141:255 142:255 143:167 144:105 145:59 146:25 147:22 148:47 149:66 150:71 151:55 152:31 153:31 154:60 155:106 156:149 157:183 158:216 159:255 160:255 161:255 162:255 163:167 164:103 165:54 166:25 167:35 168:72 169:95 170:100 171:89 172:57 173:34 174:51 175:92 176:136 177:173 178:210 179:255 180:255 181:255 182:255 183:169 184:109 185:63 186:38 187:48 188:82 189:112 190:122 191:105 192:69 193:36 194:44 195:82 196:128 197:168 198:207 199:255 200:255 201:255 202:255 203:174 204:115 205:71 206:42 207:47 208:79 209:106 210:116 211:98 212:60 213:22 214:36 215:83 216:132 217:170 218:207 219:255 220:255 221:255 222:255 223:179 224:125 225:80 226:39 227:30 228:60 229:85 230:91 231:72 232:38 233:22 234:51 235:97 236:141 237:178 238:215 239:255 240:255 241:255 242:255 243:182 244:130 245:87 246:42 247:18 248:28 249:49 250:51 251:33 252:18 253:35 254:73 255:117 256:154 257:189 258:227 259:255 260:255 261:255 262:255 263:179 264:133 265:94 266:45 267:10 268:7 269:16 270:21 271:25 272:36 273:67 274:105 275:141 276:174 277:205 278:234 279:255 280:255 281:255 282:255 283:175 284:136 285:99 286:46 287:8 288:4 289:14 290:37 291:57 292:80 293:108 294:137 295:164 296:194 297:220 298:238 299:255 300:255 301:255 302:255 303:170 304:136 305:101 306:48 307:11 308:13 309:41 310:77 311:104 312:126 313:145 314:165 315:186 316:211 317:231 318:241 319:255 320:255 321:255 322:255 323:162 324:129 325:101 326:55 327:21 328:29 329:70 330:109 331:141 332:160 333:176 334:192 335:208 336:226 337:238 338:242 339:255 340:255 341:255 342:255 343:154 344:118 345:101 346:66 347:36 348:43 349:86 350:131 351:163 352:183 353:202 354:218 355:228 356:238 357:244 358:247 359:255 360:255 361:255 362:255 363:148 364:111 365:102 366:73 367:44 368:51 369:93 370:143 371:174 372:201 373:219 374:228 375:237 376:246 377:251 378:252 379:255 380:255 381:255 382:255 383:143 384:105 385:102 386:82 387:56 388:63 389:101 390:149 391:179 392:216 393:227 394:234 395:239 396:246 397:251 398:252 399:255 400:255 
-8.360807902161809e-07 1:255 2:255 3:246 4:251 5:255 6:255 7:255 8:254 9:249 10:243 11:243 12:243 13:235 14:224 15:210 16:193 17:174 18:182 19:255 20:255 21:255 22:255 23:250 24:248 25:238 26:226 27:220 28:219 29:225 30:227 31:233 32:234 33:227 34:217 35:206 36:197 37:188 38:198 39:255 40:255 41:255 42:255 43:249 44:234 45:212 46:191 47:178 48:175 49:187 50:203 51:216 52:219 53:213 54:199 55:185 56:176 57:172 58:193 59:255 60:255 61:255 62:255 63:243 64:219 65:186 66:156 67:134 68:128 69:141 70:167 71:186 72:195 73:187 74:170 75:151 76:137 77:138 78:173 79:255 80:255 81:255 82:255 83:239 84:210 85:171 86:131 87:100 88:86 89:97 90:125 91:152 92:164 93:155 94:134 95:110 96:97 97:105 98:153 99:255 100:255 101:255 102:255 103:239 104:209 105:168 106:123 107:83 108:58 109:59 110:84 111:113 112:128 113:117 114:95 115:73 116:67 117:86 118:145 119:255 120:255 121:255 122:255 123:241 124:212 125:174 126:130 127:86 128:51 129:33 130:47 131:73 132:86 133:77 134:59 135:49 136:58 137:88 138:152 139:255 140:255 141:255 142:255 143:242 144:219 145:186 146:145 147:102 148:60 149:27 150:20 151:37 152:45 153:42 154:35 155:44 156:70 157:107 158:168 159:255 160:255 161:255 162:255 163:247 164:230 165:204 166:169 167:126 168:81 169:38 170:13 171:11 172:14 173:19 174:28 175:56 176:94 177:131 178:182 179:255 180:255 181:255 182:255 183:251 184:239 185:218 186:190 187:152 188:105 189:59 190:20 191:6 192:5 193:17 194:44 195:82 196:123 197:158 198:196 199:255 200:255 201:255 202:255 203:255 204:247 205:230 206:204 207:169 208:124 209:74 210:27 211:6 212:7 213:23 214:61 215:104 216:144 217:177 218:209 219:255 220:255 221:255 222:255 223:252 224:242 225:228 226:206 227:174 228:131 229:82 230:32 231:8 232:9 233:32 234:72 235:117 236:158 237:188 238:214 239:255 240:255 241:255 242:255 243:249 244:238 245:222 246:199 247:167 248:125 249:75 250:26 251:7 252:9 253:32 254:71 255:116 256:158 257:191 258:218 259:255 260:255 261:255 262:255 263:247 264:233 265:213 266:186 267:149 268:106 269:59 270:18 271:6 272:9 273:25 274:60 275:104 276:148 277:183 278:214 279:255 280:255 281:255 282:255 283:241 284:224 285:200 286:167 287:127 288:81 289:41 290:16 291:11 292:15 293:21 294:48 295:87 296:130 297:167 298:204 299:255 300:255 301:255 302:255 303:232 304:210 305:182 306:144 307:102 308:60 309:31 310:27 311:32 312:35 313:29 314:40 315:68 316:106 317:144 318:190 319:255 320:255 321:255 322:255 323:220 324:190 325:159 326:119 327:78 328:47 329:40 330:54 331:69 332:67 333:50 334:41 335:52 336:81 337:119 338:175 339:255 340:255 341:255 342:255 343:206 344:171 345:137 346:97 347:64 348:50 349:66 350:92 351:111 352:104 353:80 354:54 355:46 356:64 357:100 358:162 359:255 360:255 361:255 362:255 363:191 364:157 365:128 366:94 367:72 368:74 369:98 370:130 371:147 372:139 373:111 374:78 375:57 376:61 377:89 378:152 379:255 380:255 381:255 382:255 383:179 384:148 385:132 386:110 387:100 388:110 389:131 390:162 391:178 392:166 393:141 394:109 395:84 396:78 397:97 398:156 399:255 400:255 
-1.837980824301632e-06 1:255 2:255 3:242 4:242 5:248 6:252 7:253 8:255 9:255 10:252 11:244 12:238 13:224 14:205 15:181 16:154 17:129 18:149 19:255 20:255 21:255 22:255 23:242 24:231 25:222 26:221 27:225 28:229 29:240 30:239 31:238 32:237 33:227 34:211 35:188 36:162 37:144 38:168 39:255 40:255 41:255 42:255 43:225 44:199 45:179 46:168 47:170 48:182 49:200 50:214 51:224 52:227 53:215 54:189 55:163 56:142 57:130 58:162 59:255 60:255 61:255 62:255 63:204 64:165 65:138 66:122 67:123 68:136 69:160 70:185 71:204 72:206 73:188 74:155 75:127 76:108 77:102 78:145 79:255 80:255 81:255 82:255 83:190 84:142 85:110 86:88 87:82 88:94 89:122 90:154 91:180 92:181 93:157 94:122 95:92 96:74 97:75 98:129 99:255 100:255 101:255 102:255 103:189 104:136 105:99 106:69 107:54 108:61 109:87 110:122 111:149 112:152 113:128 114:94 115:65 116:52 117:60 118:122 119:255 120:255 121:255 122:255 123:196 124:144 125:102 126:66 127:42 128:38 129:58 130:90 131:116 132:119 133:99 134:70 135:47 136:43 137:60 138:123 139:255 140:255 141:255 142:255 143:206 144:158 145:115 146:75 147:42 148:25 149:34 150:61 151:83 152:84 153:69 154:49 155:36 156:44 157:70 158:133 159:255 160:255 161:255 162:255 163:220 164:175 165:132 166:92 167:54 168:26 169:20 170:35 171:51 172:52 173:41 174:30 175:34 176:56 177:87 178:145 179:255 180:255 181:255 182:255 183:229 184:195 185:153 186:111 187:73 188:38 189:12 190:12 191:21 192:21 193:17 194:20 195:40 196:71 197:103 198:157 199:255 200:255 201:255 202:255 203:241 204:210 205:169 206:128 207:88 208:48 209:16 210:6 211:7 212:7 213:9 214:25 215:56 216:91 217:123 218:171 219:255 220:255 221:255 222:255 223:246 224:221 225:187 226:147 227:106 228:66 229:26 230:7 231:2 232:2 233:12 234:37 235:73 236:112 237:141 238:181 239:255 240:255 241:255 242:255 243:251 244:237 245:203 246:163 247:126 248:86 249:45 250:13 251:3 252:6 253:22 254:56 255:93 256:128 257:158 258:195 259:255 260:255 261:255 262:255 263:254 264:246 265:218 266:178 267:140 268:105 269:68 270:31 271:9 272:12 273:36 274:74 275:114 276:149 277:175 278:205 279:255 280:255 281:255 282:255 283:254 284:250 285:227 286:192 287:158 288:125 289:89 290:49 291:18 292:21 293:49 294:89 295:129 296:163 297:184 298:208 299:255 300:255 301:255 302:255 303:250 304:251 305:236 306:209 307:178 308:143 309:104 310:63 311:27 312:27 313:57 314:98 315:138 316:171 317:189 318:208 319:255 320:255 321:255 322:255 323:240 324:246 325:245 326:227 327:196 328:157 329:115 330:73 331:34 332:30 333:59 334:101 335:143 336:176 337:192 338:208 339:255 340:255 341:255 342:255 343:224 344:236 345:246 346:234 347:208 348:170 349:123 350:80 351:43 352:38 353:63 354:100 355:141 356:176 357:194 358:210 359:255 360:255 361:255 362:255 363:204 364:217 365:238 366:235 367:215 368:181 369:135 370:90 371:57 372:51 373:74 374:107 375:143 376:177 377:201 378:219 379:255 380:255 381:255 382:255 383:182 384:191 385:224 386:237 387:226 388:193 389:148 390:110 391:83 392:76 393:92 394:120 395:154 396:187 397:208 398:223 399:255 400:255 
-1.485958838472854e-06 1:255 2:255 3:234 4:235 5:239 6:245 7:254 8:255 9:254 10:253 11:246 12:240 13:230 14:213 15:191 16:168 17:156 18:181 19:255 20:255 21:255 22:255 23:221 24:215 25:214 26:215 27:228 28:244 29:253 30:253 31:252 32:232 33:207 34:182 35:160 36:145 37:143 38:177 39:255 40:255 41:255 42:255 43:208 44:189 45:179 46:173 47:179 48:195 49:217 50:243 51:243 52:211 53:179 54:147 55:118 56:105 57:112 58:161 59:255 60:255 61:255 62:255 63:195 64:159 65:138 66:125 67:126 68:142 69:172 70:203 71:210 72:183 73:150 74:113 75:83 76:74 77:90 78:149 79:255 80:255 81:255 82:255 83:182 84:134 85:104 86:83 87:79 88:96 89:127 90:160 91:173 92:156 93:124 94:88 95:60 96:55 97:77 98:143 99:255 100:255 101:255 102:255 103:176 104:120 105:82 106:54 107:46 108:61 109:86 110:122 111:141 112:132 113:102 114:70 115:48 116:47 117:73 118:142 119:255 120:255 121:255 122:255 123:178 124:121 125:81 126:49 127:32 128:36 129:57 130:89 131:113 132:109 133:84 134:54 135:40 136:49 137:79 138:145 139:255 140:255 141:255 142:255 143:188 144:136 145:99 146:64 147:34 148:22 149:36 150:62 151:84 152:85 153:66 154:39 155:34 156:54 157:87 158:149 159:255 160:255 161:255 162:255 163:202 164:159 165:122 166:84 167:48 168:23 169:17 170:36 171:58 172:60 173:43 174:27 175:34 176:62 177:98 178:158 179:255 180:255 181:255 182:255 183:211 184:178 185:149 186:113 187:75 188:41 189:14 190:11 191:22 192:28 193:21 194:19 195:38 196:74 197:113 198:169 199:255 200:255 201:255 202:255 203:224 204:196 205:171 206:139 207:101 208:63 209:26 210:8 211:5 212:8 213:9 214:22 215:54 216:94 217:130 218:180 219:255 220:255 221:255 222:255 223:233 224:216 225:194 226:164 227:129 228:90 229:49 230:15 231:3 232:3 233:9 234:33 235:70 236:114 237:156 238:198 239:255 240:255 241:255 242:255 243:241 244:234 245:215 246:187 247:157 248:118 249:75 250:39 251:8 252:4 253:11 254:44 255:88 256:135 257:178 258:214 259:255 260:255 261:255 262:255 263:243 264:245 265:232 266:206 267:178 268:147 269:108 270:66 271:21 272:8 273:16 274:54 275:102 276:154 277:201 278:234 279:255 280:255 281:255 282:255 283:238 284:246 285:244 286:223 287:196 288:170 289:137 290:93 291:42 292:17 293:23 294:60 295:109 296:162 297:210 298:243 299:255 300:255 301:255 302:255 303:225 304:237 305:248 306:234 307:211 308:186 309:156 310:114 311:67 312:32 313:32 314:61 315:106 316:158 317:205 318:239 319:255 320:255 321:255 322:255 323:203 324:218 325:241 326:240 327:223 328:197 329:169 330:129 331:84 332:48 333:39 334:59 335:100 336:150 337:198 338:234 339:255 340:255 341:255 342:255 343:178 344:186 345:223 346:242 347:236 348:210 349:180 350:142 351:94 352:58 353:44 354:60 355:97 356:146 357:195 358:234 359:255 360:255 361:255 362:255 363:151 364:149 365:189 366:223 367:235 368:219 369:190 370:153 371:113 372:77 373:58 374:73 375:107 376:150 377:197 378:235 379:255 380:255 381:255 382:255 383:126 384:115 385:154 386:187 387:213 388:222 389:202 390:176 391:138 392:107 393:89 394:99 395:127 396:164 397:206 398:243 399:255 400:255 
