svm_type c_svc
kernel_type linear
nr_class 2
total_sv 27
rho 4.52704
label 2 -1
nr_sv 9 18
SV
1.685134179242587e-05 1:255 2:255 3:255 4:252 5:239 6:221 7:213 8:219 9:229 10:232 11:234 12:240 13:245 14:244 15:240 16:235 17:226 18:226 19:255 20:255 21:255 22:255 23:254 24:230 25:199 26:176 27:164 28:165 29:170 30:172 31:175 32:191 33:204 34:223 35:237 36:245 37:246 38:245 39:255 40:255 41:255 42:255 43:247 44:210 45:168 46:133 47:113 48:111 49:114 50:115 51:123 52:138 53:155 54:183 55:214 56:239 57:251 58:251 59:255 60:255 61:255 62:255 63:236 64:190 65:139 66:93 67:65 68:64 69:74 70:74 71:78 72:85 73:106 74:141 75:181 76:219 77:243 78:250 79:255 80:255 81:255 82:255 83:225 84:175 85:122 86:71 87:41 88:53 89:75 90:78 91:73 92:59 93:71 94:109 95:153 96:196 97:228 98:245 99:255 100:255 101:255 102:255 103:217 104:168 105:117 106:65 107:43 108:71 109:101 110:109 111:95 112:67 113:58 114:89 115:135 116:180 117:216 118:239 119:255 120:255 121:255 122:255 123:213 124:165 125:115 126:65 127:51 128:87 129:120 130:130 131:112 132:84 133:62 134:85 135:130 136:175 137:211 138:234 139:255 140:255 141:255 142:255 143:210 144:162 145:113 146:65 147:48 148:78 149:111 150:121 151:105 152:78 153:65 154:93 155:136 156:178 157:210 158:232 159:255 160:255 161:255 162:255 163:209 164:162 165:112 166:57 167:28 168:45 169:73 170:81 171:68 172:48 173:61 174:102 175:146 176:184 177:213 178:232 179:255 180:255 181:255 182:255 183:208 184:160 185:109 186:50 187:10 188:8 189:14 190:18 191:14 192:18 193:54 194:104 195:153 196:192 197:215 198:232 199:255 200:255 201:255 202:255 203:206 204:158 205:102 206:42 207:5 208:3 209:8 210:12 211:8 212:12 213:40 214:94 215:143 216:183 217:212 218:232 219:255 220:255 221:255 222:255 223:206 224:157 225:99 226:42 227:15 228:30 229:54 230:61 231:47 232:31 233:34 234:76 235:126 236:170 237:203 238:227 239:255 240:255 241:255 242:255 243:204 244:153 245:95 246:42 247:29 248:63 249:96 250:107 251:93 252:65 253:41 254:65 255:112 256:158 257:192 258:220 259:255 260:255 261:255 262:255 263:203 264:150 265:90 266:39 267:36 268:79 269:116 270:127 271:114 272:80 273:43 274:57 275:104 276:152 277:186 278:216 279:255 280:255 281:255 282:255 283:200 284:146 285:85 286:35 287:29 288:66 289:103 290:112 291:100 292:64 293:35 294:59 295:108 296:156 297:189 298:215 299:255 300:255 301:255 302:255 303:195 304:143 305:83 306:31 307:15 308:34 309:61 310:66 311:59 312:35 313:36 314:73 315:122 316:166 317:197 318:220 319:255 320:255 321:255 322:255 323:193 324:145 325:93 326:43 327:17 328:17 329:27 330:31 331:31 332:38 333:65 334:104 335:146 336:184 337:212 338:230 339:255 340:255 341:255 342:255 343:193 344:153 345:120 346:83 347:56 348:48 349:48 350:51 351:61 352:89 353:115 354:147 355:182 356:212 357:230 358:239 359:255 360:255 361:255 362:255 363:191 364:161 365:150 366:137 367:125 368:121 369:119 370:121 371:133 372:148 373:165 374:191 375:219 376:237 377:242 378:243 379:255 380:255 381:255 382:255 383:182 384:167 385:175 386:175 387:172 388:172 389:173 390:177 391:185 392:195 393:217 394:235 395:247 396:253 397:253 398:252 399:255 400:255 
2.667028299114838e-06 1:255 2:255 3:250 4:250 5:249 6:249 7:252 8:255 9:255 10:255 11:252 12:251 13:245 14:230 15:215 16:191 17:165 18:180 19:255 20:255 21:255 22:255 23:248 24:245 25:240 26:235 27:234 28:238 29:238 30:238 31:238 32:239 33:240 34:238 35:231 36:221 37:210 38:216 39:255 40:255 41:255 42:255 43:243 44:230 45:217 46:206 47:198 48:197 49:196 50:193 51:200 52:212 53:222 54:229 55:236 56:239 57:236 58:236 59:255 60:255 61:255 62:255 63:233 64:204 65:180 66:164 67:155 68:148 69:147 70:145 71:156 72:167 73:180 74:205 75:225 76:238 77:243 78:242 79:255 80:255 81:255 82:255 83:224 84:182 85:147 86:123 87:105 88:92 89:91 90:92 91:106 92:121 93:140 94:170 95:202 96:225 97:233 98:238 99:255 100:255 101:255 102:255 103:216 104:170 105:128 106:89 107:56 108:43 109:45 110:49 111:59 112:76 113:106 114:139 115:174 116:205 117:221 118:230 119:255 120:255 121:255 122:255 123:211 124:165 125:120 126:69 127:33 128:34 129:47 130:53 131:44 132:44 133:74 134:114 135:150 136:187 137:214 138:227 139:255 140:255 141:255 142:255 143:210 144:163 145:117 146:67 147:43 148:67 149:94 150:95 151:72 152:43 153:50 154:93 155:137 156:178 157:208 158:224 159:255 160:255 161:255 162:255 163:208 164:161 165:116 166:68 167:53 168:85 169:109 170:110 171:97 172:55 173:50 174:89 175:134 176:175 177:204 178:221 179:255 180:255 181:255 182:255 183:206 184:160 185:113 186:63 187:43 188:72 189:102 190:103 191:87 192:41 193:47 194:91 195:137 196:178 197:204 198:218 199:255 200:255 201:255 202:255 203:206 204:158 205:108 206:50 207:16 208:31 209:58 210:57 211:28 212:15 213:42 214:96 215:142 216:180 217:202 218:214 219:255 220:255 221:255 222:255 223:202 224:155 225:100 226:39 227:5 228:7 229:15 230:15 231:9 232:7 233:39 234:94 235:140 236:178 237:198 238:209 239:255 240:255 241:255 242:255 243:202 244:155 245:98 246:38 247:4 248:6 249:16 250:27 251:16 252:11 253:35 254:86 255:133 256:170 257:191 258:206 259:255 260:255 261:255 262:255 263:202 264:155 265:100 266:42 267:14 268:34 269:66 270:78 271:71 272:45 273:40 274:80 275:126 276:160 277:178 278:200 279:255 280:255 281:255 282:255 283:202 284:155 285:104 286:50 287:31 288:67 289:105 290:116 291:110 292:80 293:49 294:71 295:113 296:149 297:169 298:195 299:255 300:255 301:255 302:255 303:200 304:154 305:104 306:52 307:40 308:82 309:117 310:125 311:118 312:90 313:49 314:62 315:103 316:142 317:166 318:194 319:255 320:255 321:255 322:255 323:196 324:150 325:100 326:48 327:34 328:72 329:107 330:115 331:106 332:75 333:44 334:65 335:108 336:146 337:168 338:195 339:255 340:255 341:255 342:255 343:193 344:147 345:101 346:49 347:22 348:44 349:77 350:87 351:80 352:54 353:50 354:85 355:127 356:161 357:179 358:201 359:255 360:255 361:255 362:255 363:191 364:150 365:114 366:62 367:25 368:27 369:41 370:55 371:56 372:58 373:79 374:111 375:146 376:182 377:202 378:213 379:255 380:255 381:255 382:255 383:188 384:153 385:126 386:96 387:73 388:62 389:67 390:81 391:90 392:101 393:117 394:142 395:177 396:208 397:220 398:225 399:255 400:255 
8.005087263681531e-06 1:255 2:255 3:254 4:254 5:254 6:252 7:250 8:250 9:249 10:246 11:244 12:244 13:240 14:225 15:197 16:166 17:146 18:167 19:255 20:255 21:255 22:255 23:255 24:252 25:248 26:244 27:242 28:241 29:240 30:236 31:233 32:233 33:235 34:231 35:220 36:200 37:181 38:193 39:255 40:255 41:255 42:255 43:254 44:247 45:235 46:223 47:211 48:202 49:198 50:195 51:194 52:196 53:205 54:217 55:222 56:220 57:216 58:224 59:255 60:255 61:255 62:255 63:250 64:234 65:208 66:183 67:167 68:159 69:155 70:153 71:155 72:158 73:165 74:183 75:200 76:215 77:227 78:238 79:255 80:255 81:255 82:255 83:245 84:215 85:178 86:147 87:125 88:111 89:105 90:104 91:108 92:115 93:128 94:149 95:171 96:196 97:221 98:238 99:255 100:255 101:255 102:255 103:242 104:201 105:159 106:123 107:88 108:60 109:53 110:63 111:71 112:73 113:91 114:116 115:143 116:174 117:207 118:234 119:255 120:255 121:255 122:255 123:239 124:196 125:150 126:106 127:61 128:31 129:38 130:61 131:67 132:56 133:61 134:86 135:120 136:156 137:191 138:228 139:255 140:255 141:255 142:255 143:236 144:192 145:146 146:97 147:50 148:35 149:68 150:94 151:94 152:75 153:55 154:69 155:105 156:144 157:181 158:220 159:255 160:255 161:255 162:255 163:233 164:189 165:143 166:93 167:48 168:45 169:86 170:111 171:111 172:90 173:63 174:66 175:100 176:140 177:175 178:212 179:255 180:255 181:255 182:255 183:231 184:186 185:142 186:92 187:44 188:34 189:77 190:101 191:101 192:84 193:55 194:63 195:102 196:144 197:174 198:207 199:255 200:255 201:255 202:255 203:227 204:183 205:138 206:80 207:25 208:10 209:31 210:68 211:68 212:41 213:35 214:66 215:113 216:153 217:182 218:213 219:255 220:255 221:255 222:255 223:223 224:178 225:134 226:73 227:16 228:3 229:8 230:18 231:18 232:13 233:21 234:68 235:119 236:157 237:188 238:221 239:255 240:255 241:255 242:255 243:220 244:175 245:130 246:69 247:15 248:4 249:9 250:19 251:27 252:14 253:20 254:63 255:113 256:153 257:187 258:222 259:255 260:255 261:255 262:255 263:219 264:174 265:131 266:74 267:23 268:19 269:49 270:69 271:75 272:55 273:42 274:63 275:102 276:142 277:178 278:216 279:255 280:255 281:255 282:255 283:219 284:174 285:132 286:81 287:35 288:39 289:86 290:112 291:116 292:93 293:65 294:62 295:89 296:130 297:168 298:210 299:255 300:255 301:255 302:255 303:219 304:174 305:132 306:83 307:42 308:49 309:99 310:126 311:132 312:109 313:76 314:60 315:82 316:124 317:163 318:207 319:255 320:255 321:255 322:255 323:219 324:175 325:133 326:81 327:37 328:40 329:86 330:115 331:120 332:99 333:68 334:60 335:86 336:127 337:165 338:209 339:255 340:255 341:255 342:255 343:218 344:176 345:135 346:81 347:30 348:21 349:51 350:79 351:85 352:68 353:52 354:64 355:100 356:139 357:174 358:215 359:255 360:255 361:255 362:255 363:211 364:175 365:140 366:95 367:47 368:18 369:21 370:37 371:48 372:41 373:51 374:84 375:123 376:158 377:188 378:220 379:255 380:255 381:255 382:255 383:203 384:175 385:152 386:120 387:87 388:61 389:47 390:47 391:57 392:70 393:92 394:120 395:148 396:179 397:206 398:227 399:255 400:255 
2.996507829770359e-07 1:255 2:255 3:252 4:254 5:253 6:249 7:243 8:232 9:220 10:217 11:211 12:209 13:211 14:215 15:219 16:222 17:228 18:239 19:255 20:255 21:255 22:255 23:254 24:254 25:247 26:231 27:213 28:198 29:186 30:179 31:171 32:170 33:174 34:182 35:191 36:201 37:214 38:233 39:255 40:255 41:255 42:255 43:253 44:251 45:235 46:209 47:180 48:157 49:142 50:129 51:122 52:126 53:131 54:140 55:153 56:172 57:194 58:221 59:255 60:255 61:255 62:255 63:251 64:244 65:222 66:186 67:146 68:110 69:81 70:65 71:69 72:81 73:84 74:92 75:109 76:137 77:171 78:208 79:255 80:255 81:255 82:255 83:250 84:240 85:213 86:171 87:123 88:74 89:39 90:35 91:61 92:74 93:71 94:64 95:75 96:109 97:151 98:198 99:255 100:255 101:255 102:255 103:249 104:235 105:206 106:165 107:113 108:59 109:31 110:51 111:85 112:97 113:85 114:61 115:59 116:92 117:139 118:190 119:255 120:255 121:255 122:255 123:248 124:232 125:203 126:164 127:112 128:59 129:38 130:76 131:106 132:114 133:96 134:65 135:55 136:86 137:136 138:188 139:255 140:255 141:255 142:255 143:248 144:232 145:204 146:165 147:116 148:63 149:36 150:68 151:104 152:108 153:87 154:56 155:51 156:86 157:139 158:191 159:255 160:255 161:255 162:255 163:248 164:232 165:205 166:168 167:117 168:58 169:19 170:32 171:69 172:74 173:54 174:32 175:39 176:84 177:141 178:192 179:255 180:255 181:255 182:255 183:248 184:234 185:209 186:170 187:116 188:51 189:6 190:3 191:11 192:18 193:14 194:12 195:26 196:74 197:132 198:182 199:255 200:255 201:255 202:255 203:248 204:237 205:213 206:175 207:123 208:62 209:5 210:1 211:2 212:11 213:14 214:15 215:26 216:64 217:115 218:174 219:255 220:255 221:255 222:255 223:244 224:236 225:215 226:178 227:129 228:69 229:10 230:4 231:21 232:52 233:68 234:58 235:49 236:63 237:101 238:164 239:255 240:255 241:255 242:255 243:243 244:236 245:217 246:181 247:135 248:79 249:22 250:23 251:68 252:101 253:112 254:99 255:74 256:61 257:77 258:145 259:255 260:255 261:255 262:255 263:240 264:236 265:219 266:186 267:142 268:86 269:29 270:32 271:88 272:123 273:133 274:118 275:85 276:54 277:60 278:135 279:255 280:255 281:255 282:255 283:232 284:229 285:218 286:189 287:148 288:92 289:31 290:27 291:82 292:114 293:121 294:107 295:75 296:50 297:62 298:138 299:255 300:255 301:255 302:255 303:219 304:216 305:213 306:190 307:151 308:99 309:37 310:18 311:49 312:77 313:84 314:75 315:55 316:54 317:84 318:154 319:255 320:255 321:255 322:255 323:203 324:200 325:204 326:188 327:156 328:110 329:54 330:17 331:18 332:37 333:51 334:57 335:57 336:77 337:117 338:174 339:255 340:255 341:255 342:255 343:183 344:179 345:193 346:188 347:164 348:127 349:85 350:43 351:35 352:42 353:60 354:80 355:98 356:123 357:153 358:193 359:255 360:255 361:255 362:255 363:165 364:157 365:179 366:186 367:174 368:149 369:126 370:104 371:101 372:104 373:118 374:133 375:147 376:166 377:190 378:218 379:255 380:255 381:255 382:255 383:137 384:127 385:161 386:181 387:183 388:173 389:156 390:153 391:154 392:156 393:161 394:173 395:186 396:200 397:217 398:239 399:255 400:255 
5.362413982207829e-06 1:255 2:255 3:255 4:254 5:251 6:244 7:237 8:230 9:224 10:217 11:207 12:203 13:205 14:216 15:227 16:233 17:235 18:240 19:255 20:255 21:255 22:255 23:255 24:251 25:239 26:219 27:200 28:189 29:179 30:169 31:161 32:159 33:160 34:174 35:192 36:212 37:229 38:243 39:255 40:255 41:255 42:255 43:254 44:246 45:221 46:186 47:155 48:136 49:125 50:118 51:113 52:112 53:115 54:130 55:151 56:180 57:211 58:235 59:255 60:255 61:255 62:255 63:254 64:239 65:204 66:159 67:116 68:79 69:56 70:63 71:72 72:73 73:71 74:83 75:112 76:149 77:185 78:222 79:255 80:255 81:255 82:255 83:252 84:233 85:190 86:139 87:85 88:34 89:22 90:51 91:68 92:68 93:56 94:53 95:79 96:122 97:166 98:213 99:255 100:255 101:255 102:255 103:251 104:226 105:182 106:130 107:72 108:22 109:31 110:72 111:93 112:89 113:67 114:47 115:63 116:107 117:156 118:206 119:255 120:255 121:255 122:255 123:250 124:223 125:180 126:131 127:76 128:34 129:50 130:86 131:113 132:104 133:78 134:50 135:62 136:106 137:154 138:203 139:255 140:255 141:255 142:255 143:248 144:223 145:182 146:135 147:83 148:41 149:49 150:80 151:103 152:94 153:68 154:47 155:65 156:111 157:158 158:206 159:255 160:255 161:255 162:255 163:247 164:227 165:187 166:138 167:85 168:32 169:21 170:52 171:65 172:63 173:42 174:37 175:66 176:113 177:161 178:210 179:255 180:255 181:255 182:255 183:247 184:227 185:187 186:139 187:81 188:20 189:2 190:5 191:10 192:17 193:12 194:20 195:58 196:110 197:161 198:209 199:255 200:255 201:255 202:255 203:247 204:230 205:190 206:142 207:80 208:14 209:2 210:6 211:17 212:24 213:20 214:18 215:48 216:99 217:149 218:199 219:255 220:255 221:255 222:255 223:247 224:230 225:194 226:148 227:83 228:15 229:10 230:46 231:73 232:86 233:72 234:47 235:47 236:81 237:130 238:185 239:255 240:255 241:255 242:255 243:244 244:226 245:194 246:150 247:94 248:38 249:29 250:79 251:115 252:123 253:107 254:74 255:50 256:66 257:114 258:175 259:255 260:255 261:255 262:255 263:241 264:224 265:194 266:152 267:100 268:51 269:43 270:90 271:125 272:132 273:116 274:81 275:56 276:69 277:114 278:175 279:255 280:255 281:255 282:255 283:239 284:223 285:197 286:157 287:106 288:55 289:39 290:78 291:105 292:113 293:97 294:70 295:59 296:82 297:126 298:181 299:255 300:255 301:255 302:255 303:235 304:222 305:200 306:162 307:111 308:56 309:22 310:42 311:66 312:76 313:69 314:59 315:67 316:100 317:143 318:194 319:255 320:255 321:255 322:255 323:227 324:213 325:199 326:166 327:118 328:67 329:23 330:17 331:39 332:52 333:59 334:70 335:92 336:126 337:166 338:209 339:255 340:255 341:255 342:255 343:212 344:195 345:193 346:172 347:135 348:99 349:66 350:49 351:59 352:72 353:86 354:106 355:133 356:163 357:193 358:223 359:255 360:255 361:255 362:255 363:195 364:175 365:185 366:182 367:160 368:140 369:126 370:123 371:126 372:129 373:138 374:152 375:176 376:201 377:221 378:239 379:255 380:255 381:255 382:255 383:177 384:147 385:164 386:185 387:187 388:178 389:173 390:173 391:165 392:173 393:185 394:198 395:217 396:235 397:245 398:248 399:255 400:255 
1.641778188404208e-05 1:255 2:255 3:250 4:249 5:251 6:252 7:253 8:255 9:255 10:255 11:252 12:248 13:225 14:195 15:171 16:150 17:131 18:155 19:255 20:255 21:255 22:255 23:249 24:245 25:241 26:237 27:234 28:236 29:240 30:242 31:244 32:239 33:229 34:212 35:199 36:183 37:167 38:186 39:255 40:255 41:255 42:255 43:243 44:225 45:210 46:198 47:190 48:191 49:193 50:197 51:202 52:211 53:212 54:211 55:215 56:215 57:209 58:217 59:255 60:255 61:255 62:255 63:231 64:200 65:177 66:160 67:149 68:148 69:148 70:151 71:159 72:169 73:178 74:195 75:214 76:229 77:236 78:241 79:255 80:255 81:255 82:255 83:221 84:183 85:150 86:124 87:107 88:98 89:97 90:98 91:110 92:123 93:139 94:166 95:197 96:225 97:242 98:249 99:255 100:255 101:255 102:255 103:213 104:171 105:130 106:89 107:60 108:52 109:60 110:62 111:63 112:72 113:99 114:133 115:170 116:206 117:234 118:248 119:255 120:255 121:255 122:255 123:206 124:161 125:116 126:64 127:31 128:41 129:63 130:67 131:45 132:32 133:60 134:102 135:146 136:187 137:222 138:244 139:255 140:255 141:255 142:255 143:202 144:155 145:108 146:55 147:33 148:63 149:93 150:99 151:69 152:30 153:32 154:80 155:134 156:179 157:214 158:240 159:255 160:255 161:255 162:255 163:201 164:155 165:105 166:58 167:46 168:77 169:113 170:117 171:96 172:47 173:24 174:70 175:128 176:173 177:208 178:235 179:255 180:255 181:255 182:255 183:203 184:156 185:109 186:62 187:45 188:74 189:106 190:109 191:84 192:34 193:26 194:77 195:132 196:174 197:209 198:235 199:255 200:255 201:255 202:255 203:205 204:157 205:104 206:49 207:27 208:48 209:64 210:63 211:40 212:13 213:32 214:85 215:138 216:181 217:213 218:237 219:255 220:255 221:255 222:255 223:206 224:159 225:105 226:45 227:9 228:11 229:20 230:19 231:9 232:3 233:36 234:90 235:138 236:178 237:210 238:235 239:255 240:255 241:255 242:255 243:208 244:160 245:105 246:44 247:7 248:12 249:32 250:43 251:29 252:9 253:31 254:81 255:130 256:167 257:201 258:235 259:255 260:255 261:255 262:255 263:209 264:161 265:110 266:49 267:19 268:44 269:77 270:89 271:81 272:45 273:32 274:61 275:108 276:152 277:191 278:230 279:255 280:255 281:255 282:255 283:211 284:164 285:113 286:54 287:30 288:69 289:109 290:123 291:116 292:83 293:39 294:47 295:93 296:141 297:183 298:225 299:255 300:255 301:255 302:255 303:209 304:165 305:114 306:55 307:33 308:74 309:117 310:133 311:124 312:95 313:42 314:45 315:89 316:139 317:181 318:222 319:255 320:255 321:255 322:255 323:203 324:161 325:113 326:54 327:28 328:63 329:102 330:119 331:109 332:79 333:38 334:48 335:95 336:143 337:182 338:221 339:255 340:255 341:255 342:255 343:196 344:157 345:115 346:57 347:24 348:42 349:71 350:88 351:78 352:56 353:39 354:64 355:111 356:155 357:191 358:225 359:255 360:255 361:255 362:255 363:192 364:158 365:125 366:80 367:45 368:41 369:56 370:59 371:55 372:57 373:68 374:103 375:143 376:179 377:210 378:233 379:255 380:255 381:255 382:255 383:189 384:160 385:138 386:114 387:99 388:91 389:90 390:87 391:91 392:103 393:120 394:146 395:172 396:202 397:229 398:243 399:255 400:255 
5.826873579277435e-06 1:255 2:255 3:255 4:254 5:253 6:252 7:250 8:245 9:241 10:244 11:244 12:247 13:248 14:245 15:231 16:204 17:178 18:188 19:255 20:255 21:255 22:255 23:254 24:252 25:239 26:224 27:212 28:202 29:200 30:206 31:212 32:221 33:233 34:239 35:239 36:229 37:214 38:216 39:255 40:255 41:255 42:255 43:252 44:235 45:206 46:181 47:167 48:160 49:160 50:165 51:171 52:180 53:195 54:213 55:229 56:237 57:237 58:238 59:255 60:255 61:255 62:255 63:243 64:210 65:173 66:141 67:118 68:110 69:113 70:118 71:125 72:138 73:155 74:177 75:203 76:226 77:240 78:247 79:255 80:255 81:255 82:255 83:231 84:190 85:147 86:103 87:67 88:54 89:60 90:68 91:76 92:93 93:114 94:142 95:175 96:208 97:232 98:246 99:255 100:255 101:255 102:255 103:222 104:179 105:131 106:76 107:33 108:25 109:39 110:56 111:56 112:56 113:79 114:115 115:153 116:191 117:222 118:242 119:255 120:255 121:255 122:255 123:217 124:173 125:123 126:64 127:24 128:31 129:62 130:83 131:73 132:50 133:60 134:94 135:137 136:178 137:212 138:237 139:255 140:255 141:255 142:255 143:212 144:168 145:120 146:62 147:27 148:47 149:92 150:105 151:94 152:69 153:54 154:84 155:130 156:171 157:204 158:233 159:255 160:255 161:255 162:255 163:209 164:165 165:117 166:60 167:27 168:49 169:93 170:107 171:95 172:72 173:56 174:87 175:134 176:174 177:207 178:233 179:255 180:255 181:255 182:255 183:206 184:161 185:113 186:54 187:19 188:35 189:71 190:82 191:74 192:46 193:57 194:97 195:142 196:181 197:211 198:235 199:255 200:255 201:255 202:255 203:204 204:158 205:107 206:46 207:5 208:8 209:21 210:27 211:27 212:20 213:51 214:102 215:147 216:184 217:214 218:235 219:255 220:255 221:255 222:255 223:203 224:153 225:101 226:42 227:3 228:4 229:11 230:18 231:12 232:16 233:44 234:95 235:143 236:180 237:208 238:231 239:255 240:255 241:255 242:255 243:201 244:151 245:96 246:37 247:7 248:22 249:52 250:67 251:57 252:32 253:37 254:82 255:132 256:171 257:202 258:228 259:255 260:255 261:255 262:255 263:201 264:150 265:90 266:36 267:25 268:58 269:96 270:113 271:98 272:66 273:43 274:71 275:119 276:160 277:192 278:222 279:255 280:255 281:255 282:255 283:199 284:148 285:84 286:35 287:39 288:86 289:123 290:134 291:117 292:86 293:48 294:65 295:110 296:153 297:184 298:216 299:255 300:255 301:255 302:255 303:195 304:143 305:79 306:30 307:39 308:89 309:122 310:130 311:113 312:80 313:44 314:64 315:110 316:153 317:184 318:214 319:255 320:255 321:255 322:255 323:191 324:139 325:76 326:25 327:26 328:68 329:100 330:108 331:88 332:57 333:41 334:73 335:121 336:161 337:190 338:218 339:255 340:255 341:255 342:255 343:190 344:140 345:86 346:40 347:27 348:45 349:74 350:80 351:65 352:46 353:59 354:98 355:141 356:176 357:203 358:226 359:255 360:255 361:255 362:255 363:192 364:150 365:117 366:87 367:69 368:64 369:71 370:79 371:81 372:87 373:108 374:137 375:168 376:197 377:217 378:232 379:255 380:255 381:255 382:255 383:194 384:164 385:150 386:137 387:127 388:120 389:115 390:118 391:129 392:140 393:154 394:172 395:199 396:224 397:234 398:239 399:255 400:255 
2.13622884674437e-05 1:255 2:255 3:233 4:242 5:253 6:255 7:254 8:253 9:253 10:250 11:250 12:247 13:243 14:234 15:225 16:209 17:190 18:199 19:255 20:255 21:255 22:255 23:242 24:246 25:252 26:251 27:244 28:236 29:229 30:225 31:225 32:220 33:218 34:217 35:219 36:219 37:211 38:214 39:255 40:255 41:255 42:255 43:245 44:244 45:243 46:230 47:213 48:202 49:192 50:186 51:182 52:181 53:183 54:187 55:195 56:203 57:211 58:228 59:255 60:255 61:255 62:255 63:246 64:240 65:223 66:200 67:180 68:164 69:153 70:146 71:143 72:143 73:147 74:154 75:165 76:179 77:196 78:222 79:255 80:255 81:255 82:255 83:245 84:233 85:207 86:177 87:152 88:128 89:109 90:98 91:94 92:94 93:100 94:112 95:130 96:153 97:177 98:210 99:255 100:255 101:255 102:255 103:242 104:221 105:194 106:164 107:131 108:96 109:61 110:51 111:51 112:53 113:53 114:62 115:89 116:125 117:157 118:196 119:255 120:255 121:255 122:255 123:241 124:213 125:185 126:157 127:120 128:74 129:34 130:38 131:50 132:55 133:44 134:35 135:57 136:101 137:140 138:185 139:255 140:255 141:255 142:255 143:242 144:214 145:184 146:154 147:116 148:69 149:39 150:62 151:89 152:93 153:77 154:45 155:47 156:85 157:131 158:183 159:255 160:255 161:255 162:255 163:244 164:217 165:185 166:154 167:117 168:72 169:45 170:80 171:108 172:112 173:95 174:59 175:50 176:82 177:130 178:182 179:255 180:255 181:255 182:255 183:244 184:219 185:189 186:157 187:118 188:72 189:43 190:73 191:99 192:101 193:82 194:48 195:45 196:84 197:134 198:185 199:255 200:255 201:255 202:255 203:241 204:218 205:190 206:160 207:121 208:72 209:28 210:31 211:61 212:58 213:29 214:13 215:34 216:85 217:135 218:185 219:255 220:255 221:255 222:255 223:236 224:216 225:192 226:163 227:125 228:71 229:10 230:6 231:14 232:14 233:6 234:4 235:25 236:73 237:127 238:180 239:255 240:255 241:255 242:255 243:236 244:218 245:196 246:166 247:127 248:73 249:10 250:4 251:10 252:20 253:15 254:11 255:24 256:64 257:115 258:172 259:255 260:255 261:255 262:255 263:236 264:222 265:201 266:168 267:130 268:79 269:21 270:21 271:54 272:72 273:70 274:56 275:43 276:56 277:97 278:161 279:255 280:255 281:255 282:255 283:233 284:224 285:204 286:170 287:132 288:85 289:39 290:50 291:93 292:114 293:113 294:95 295:65 296:56 297:84 298:154 299:255 300:255 301:255 302:255 303:224 304:217 305:203 306:173 307:135 308:91 309:52 310:69 311:106 312:125 313:124 314:106 315:72 316:55 317:81 318:152 319:255 320:255 321:255 322:255 323:211 324:205 325:199 326:175 327:138 328:94 329:52 330:59 331:94 332:111 333:109 334:88 335:56 336:51 337:85 338:155 339:255 340:255 341:255 342:255 343:201 344:194 345:194 346:175 347:140 348:94 349:45 350:30 351:58 352:73 353:71 354:49 355:36 356:55 357:100 358:164 359:255 360:255 361:255 362:255 363:186 364:181 365:188 366:173 367:143 368:103 369:55 370:21 371:23 372:30 373:32 374:28 375:46 376:84 377:123 378:175 379:255 380:255 381:255 382:255 383:175 384:165 385:177 386:171 387:151 388:123 389:93 390:70 391:61 392:56 393:60 394:73 395:97 396:125 397:150 398:188 399:255 400:255 
5.61270713048758e-06 1:255 2:255 3:255 4:252 5:248 6:245 7:238 8:227 9:216 10:209 11:206 12:203 13:203 14:208 15:217 16:226 17:231 18:239 19:255 20:255 21:255 22:255 23:255 24:251 25:240 26:223 27:203 28:183 29:172 30:165 31:162 32:159 33:161 34:169 35:187 36:206 37:221 38:237 39:255 40:255 41:255 42:255 43:254 44:248 45:228 46:195 47:161 48:135 49:121 50:113 51:110 52:109 53:112 54:124 55:148 56:174 57:200 58:227 59:255 60:255 61:255 62:255 63:254 64:247 65:219 66:177 67:134 68:93 69:59 70:57 71:71 72:72 73:73 74:80 75:104 76:139 77:177 78:214 79:255 80:255 81:255 82:255 83:254 84:244 85:211 86:164 87:115 88:65 89:30 90:43 91:71 92:76 93:69 94:60 95:75 96:112 97:154 98:201 99:255 100:255 101:255 102:255 103:252 104:242 105:207 106:157 107:104 108:53 109:29 110:64 111:93 112:101 113:87 114:63 115:64 116:97 117:141 118:193 119:255 120:255 121:255 122:255 123:250 124:240 125:207 126:158 127:103 128:50 129:31 130:79 131:106 132:113 133:99 134:69 135:61 136:91 137:139 138:192 139:255 140:255 141:255 142:255 143:248 144:238 145:208 146:163 147:107 148:49 149:26 150:63 151:96 152:102 153:86 154:56 155:56 156:93 157:142 158:195 159:255 160:255 161:255 162:255 163:246 164:234 165:207 166:164 167:107 168:45 169:11 170:26 171:61 172:69 173:49 174:31 175:50 176:99 177:149 178:197 179:255 180:255 181:255 182:255 183:246 184:231 185:205 186:164 187:103 188:37 189:4 190:5 191:14 192:15 193:11 194:9 195:40 196:98 197:152 198:197 199:255 200:255 201:255 202:255 203:246 204:231 205:204 206:165 207:107 208:37 209:4 210:5 211:14 212:21 213:22 214:17 215:39 216:87 217:136 218:189 219:255 220:255 221:255 222:255 223:246 224:230 225:203 226:165 227:113 228:50 229:10 230:23 231:68 232:85 233:78 234:54 235:47 236:73 237:120 238:179 239:255 240:255 241:255 242:255 243:243 244:228 245:204 246:167 247:116 248:58 249:25 250:58 251:101 252:121 253:114 254:87 255:60 256:65 257:105 258:170 259:255 260:255 261:255 262:255 263:240 264:227 265:206 266:170 267:120 268:64 269:30 270:72 271:111 272:133 273:125 274:100 275:66 276:62 277:101 278:168 279:255 280:255 281:255 282:255 283:232 284:224 285:208 286:173 287:123 288:66 289:23 290:54 291:99 292:116 293:110 294:85 295:55 296:61 297:106 298:171 299:255 300:255 301:255 302:255 303:222 304:216 305:209 306:178 307:129 308:69 309:16 310:25 311:61 312:75 313:70 314:53 315:45 316:71 317:120 318:178 319:255 320:255 321:255 322:255 323:207 324:204 325:208 326:183 327:137 328:80 329:25 330:16 331:29 332:45 333:44 334:45 335:62 336:100 337:145 338:194 339:255 340:255 341:255 342:255 343:185 344:185 345:202 346:188 347:150 348:107 349:63 350:48 351:53 352:63 353:73 354:89 355:109 356:141 357:180 358:217 359:255 360:255 361:255 362:255 363:165 364:158 365:186 366:192 367:174 368:149 369:125 370:116 371:119 372:122 373:130 374:145 375:161 376:184 377:212 378:234 379:255 380:255 381:255 382:255 383:140 384:131 385:161 386:183 387:191 388:182 389:169 390:166 391:166 392:168 393:176 394:191 395:207 396:223 397:239 398:249 399:255 400:255 
-2.751040878975656e-06 1:255 2:255 3:231 4:237 5:249 6:254 7:255 8:253 9:248 10:248 11:251 12:251 13:246 14:217 15:184 16:162 17:148 18:169 19:255 20:255 21:255 22:255 23:236 24:239 25:248 26:253 27:252 28:243 29:226 30:221 31:227 32:233 33:233 34:221 35:201 36:186 37:177 38:193 39:255 40:255 41:255 42:255 43:237 44:239 45:247 46:245 47:233 48:214 49:195 50:187 51:187 52:193 53:198 54:203 55:204 56:201 57:199 58:212 59:255 60:255 61:255 62:255 63:239 64:241 65:240 66:226 67:202 68:179 69:160 70:149 71:147 72:152 73:164 74:181 75:195 76:205 77:212 78:226 79:255 80:255 81:255 82:255 83:244 84:243 85:231 86:205 87:175 88:148 89:124 90:107 91:102 92:113 93:133 94:158 95:182 96:202 97:219 98:236 99:255 100:255 101:255 102:255 103:244 104:239 105:219 106:187 107:156 108:124 109:90 110:62 111:52 112:71 113:104 114:136 115:167 116:196 117:223 118:243 119:255 120:255 121:255 122:255 123:239 124:228 125:204 126:174 127:142 128:105 129:64 130:27 131:15 132:34 133:77 134:118 135:154 136:187 137:219 138:245 139:255 140:255 141:255 142:255 143:236 144:215 145:191 146:162 147:130 148:92 149:48 150:11 151:3 152:11 153:53 154:100 155:141 156:177 157:210 158:240 159:255 160:255 161:255 162:255 163:231 164:207 165:181 166:153 167:123 168:84 169:37 170:10 171:5 172:7 173:37 174:84 175:128 176:165 177:201 178:235 179:255 180:255 181:255 182:255 183:231 184:205 185:178 186:148 187:112 188:74 189:40 190:27 191:18 192:15 193:30 194:72 195:115 196:152 197:187 198:221 199:255 200:255 201:255 202:255 203:231 204:203 205:175 206:142 207:104 208:69 209:50 210:56 211:56 212:37 213:31 214:60 215:103 216:143 217:175 218:211 219:255 220:255 221:255 222:255 223:227 224:199 225:169 226:134 227:96 228:65 229:60 230:77 231:83 232:65 233:38 234:50 235:87 236:128 237:163 238:203 239:255 240:255 241:255 242:255 243:218 244:189 245:160 246:125 247:88 248:60 249:65 250:90 251:99 252:79 253:41 254:37 255:69 256:113 257:150 258:194 259:255 260:255 261:255 262:255 263:210 264:179 265:151 266:114 267:73 268:48 269:60 270:90 271:98 272:78 273:39 274:23 275:50 276:96 277:137 278:187 279:255 280:255 281:255 282:255 283:204 284:170 285:140 286:101 287:58 288:31 289:44 290:69 291:76 292:57 293:28 294:11 295:31 296:76 297:124 298:177 299:255 300:255 301:255 302:255 303:198 304:161 305:129 306:88 307:44 308:18 309:25 310:38 311:45 312:33 313:15 314:6 315:17 316:57 317:109 318:167 319:255 320:255 321:255 322:255 323:192 324:151 325:118 326:76 327:36 328:19 329:23 330:32 331:40 332:35 333:23 334:14 335:17 336:47 337:94 338:158 339:255 340:255 341:255 342:255 343:185 344:141 345:108 346:68 347:40 348:40 349:55 350:67 351:79 352:75 353:61 354:45 355:35 356:49 357:85 358:150 359:255 360:255 361:255 362:255 363:177 364:133 365:100 366:68 367:59 368:79 369:102 370:117 371:125 372:120 373:111 374:90 375:67 376:63 377:86 378:148 379:255 380:255 381:255 382:255 383:172 384:129 385:101 386:79 387:82 388:107 389:130 390:151 391:160 392:155 393:144 394:122 395:102 396:93 397:101 398:152 399:255 400:255 
-5.629522894261468e-06 1:255 2:255 3:231 4:237 5:248 6:253 7:255 8:254 9:251 10:251 11:255 12:255 13:248 14:218 15:185 16:163 17:149 18:168 19:255 20:255 21:255 22:255 23:237 24:240 25:246 26:249 27:250 28:245 29:234 30:227 31:228 32:235 33:235 34:223 35:204 36:187 37:176 38:193 39:255 40:255 41:255 42:255 43:241 44:242 45:245 46:242 47:230 48:212 49:197 50:189 51:186 52:193 53:200 54:211 55:212 56:204 57:198 58:214 59:255 60:255 61:255 62:255 63:242 64:243 65:241 66:225 67:200 68:177 69:159 70:149 71:146 72:153 73:167 74:186 75:201 76:208 77:213 78:227 79:255 80:255 81:255 82:255 83:242 84:238 85:228 86:204 87:176 88:148 89:123 90:105 91:102 92:113 93:135 94:161 95:184 96:203 97:219 98:235 99:255 100:255 101:255 102:255 103:242 104:231 105:212 106:186 107:157 108:124 109:89 110:60 111:53 112:71 113:105 114:138 115:168 116:195 117:219 118:240 119:255 120:255 121:255 122:255 123:241 124:221 125:199 126:173 127:141 128:105 129:64 130:25 131:15 132:34 133:76 134:118 135:154 136:186 137:218 138:244 139:255 140:255 141:255 142:255 143:236 144:211 145:188 146:163 147:131 148:92 149:47 150:10 151:2 152:11 153:53 154:100 155:141 156:178 157:215 158:245 159:255 160:255 161:255 162:255 163:228 164:203 165:180 166:155 167:123 168:83 169:36 170:10 171:4 172:7 173:37 174:84 175:128 176:166 177:202 178:236 179:255 180:255 181:255 182:255 183:228 184:203 185:178 186:150 187:114 188:73 189:38 190:27 191:17 192:14 193:28 194:72 195:116 196:152 197:187 198:224 199:255 200:255 201:255 202:255 203:228 204:202 205:175 206:143 207:106 208:71 209:49 210:52 211:51 212:40 213:34 214:63 215:104 216:143 217:176 218:213 219:255 220:255 221:255 222:255 223:225 224:197 225:169 226:135 227:97 228:67 229:61 230:75 231:82 232:64 233:40 234:51 235:87 236:129 237:164 238:203 239:255 240:255 241:255 242:255 243:215 244:188 245:161 246:127 247:90 248:63 249:68 250:91 251:99 252:78 253:41 254:36 255:69 256:113 257:151 258:194 259:255 260:255 261:255 262:255 263:208 264:178 265:149 266:113 267:75 268:49 269:62 270:89 271:97 272:78 273:36 274:22 275:51 276:97 277:137 278:187 279:255 280:255 281:255 282:255 283:203 284:168 285:137 286:99 287:58 288:32 289:43 290:68 291:73 292:57 293:26 294:11 295:33 296:78 297:124 298:178 299:255 300:255 301:255 302:255 303:195 304:158 305:127 306:86 307:44 308:18 309:23 310:39 311:43 312:33 313:15 314:6 315:19 316:59 317:110 318:168 319:255 320:255 321:255 322:255 323:189 324:150 325:118 326:76 327:36 328:18 329:24 330:34 331:39 332:35 333:25 334:15 335:18 336:48 337:95 338:158 339:255 340:255 341:255 342:255 343:185 344:141 345:109 346:69 347:39 348:41 349:57 350:71 351:78 352:74 353:65 354:46 355:34 356:49 357:85 358:150 359:255 360:255 361:255 362:255 363:177 364:133 365:101 366:70 367:59 368:78 369:103 370:119 371:125 372:120 373:111 374:89 375:66 376:63 377:86 378:147 379:255 380:255 381:255 382:255 383:170 384:127 385:101 386:80 387:81 388:106 389:130 390:150 391:160 392:156 393:143 394:122 395:103 396:94 397:103 398:153 399:255 400:255 
-7.098918584930933e-06 1:255 2:255 3:255 4:255 5:254 6:251 7:249 8:247 9:244 10:241 11:229 12:223 13:214 14:211 15:206 16:195 17:184 18:198 19:255 20:255 21:255 22:255 23:254 24:253 25:251 26:239 27:218 28:199 29:188 30:180 31:172 32:170 33:168 34:173 35:187 36:205 37:216 38:225 39:255 40:255 41:255 42:255 43:252 44:247 45:221 46:188 47:162 48:143 49:131 50:121 51:116 52:113 53:113 54:124 55:148 56:181 57:212 58:234 59:255 60:255 61:255 62:255 63:250 64:227 65:184 66:138 67:104 68:85 69:74 70:68 71:57 72:56 73:63 74:82 75:114 76:155 77:194 78:226 79:255 80:255 81:255 82:255 83:248 84:209 85:156 86:104 87:61 88:36 89:30 90:28 91:29 92:30 93:40 94:63 95:102 96:145 97:185 98:222 99:255 100:255 101:255 102:255 103:246 104:199 105:140 106:86 107:40 108:14 109:19 110:31 111:45 112:50 113:58 114:80 115:115 116:156 117:193 118:226 119:255 120:255 121:255 122:255 123:243 124:194 125:133 126:79 127:37 128:18 129:38 130:65 131:84 132:93 133:102 134:117 135:143 136:179 137:211 138:232 139:255 140:255 141:255 142:255 143:239 144:192 145:134 146:82 147:41 148:25 149:54 150:85 151:110 152:121 153:131 154:143 155:165 156:198 157:224 158:235 159:255 160:255 161:255 162:255 163:240 164:194 165:138 166:87 167:45 168:29 169:50 170:80 171:103 172:112 173:121 174:136 175:160 176:195 177:222 178:234 179:255 180:255 181:255 182:255 183:245 184:201 185:143 186:89 187:44 188:17 189:27 190:48 191:65 192:73 193:80 194:100 195:132 196:173 197:208 198:230 199:255 200:255 201:255 202:255 203:245 204:206 205:150 206:93 207:41 208:4 209:3 210:6 211:13 212:29 213:46 214:70 215:113 216:161 217:196 218:222 219:255 220:255 221:255 222:255 223:245 224:206 225:152 226:96 227:44 228:8 229:4 230:11 231:25 232:35 233:57 234:81 235:120 236:166 237:203 238:229 239:255 240:255 241:255 242:255 243:241 244:208 245:158 246:100 247:50 248:21 249:24 250:50 251:69 252:78 253:96 254:119 255:148 256:183 257:215 258:237 259:255 260:255 261:255 262:255 263:243 264:210 265:161 266:104 267:53 268:29 269:46 270:81 271:109 272:123 273:136 274:153 275:175 276:203 277:228 278:243 279:255 280:255 281:255 282:255 283:242 284:210 285:162 286:105 287:52 288:25 289:49 290:88 291:120 292:138 293:147 294:157 295:174 296:197 297:222 298:242 299:255 300:255 301:255 302:255 303:231 304:205 305:163 306:107 307:52 308:23 309:38 310:73 311:100 312:113 313:119 314:127 315:143 316:169 317:202 318:235 319:255 320:255 321:255 322:255 323:220 324:198 325:163 326:109 327:56 328:25 329:24 330:46 331:60 332:67 333:73 334:84 335:105 336:139 337:183 338:227 339:255 340:255 341:255 342:255 343:213 344:190 345:160 346:112 347:63 348:31 349:18 350:29 351:34 352:41 353:49 354:63 355:86 356:125 357:175 358:225 359:255 360:255 361:255 362:255 363:201 364:181 365:161 366:122 367:84 368:58 369:43 370:47 371:56 372:60 373:67 374:79 375:103 376:139 377:189 378:237 379:255 380:255 381:255 382:255 383:181 384:171 385:169 386:147 387:121 388:101 389:94 390:97 391:100 392:104 393:114 394:129 395:146 396:174 397:215 398:250 399:255 400:255 
-3.023904098698706e-06 1:255 2:255 3:246 4:250 5:254 6:255 7:254 8:252 9:247 10:247 11:251 12:251 13:248 14:239 15:210 16:176 17:145 18:157 19:255 20:255 21:255 22:255 23:246 24:248 25:251 26:250 27:244 28:233 29:220 30:214 31:214 32:221 33:222 34:220 35:212 36:199 37:184 38:193 39:255 40:255 41:255 42:255 43:246 44:244 45:237 46:217 47:195 48:181 49:167 50:161 51:161 52:164 53:167 54:171 55:177 56:187 57:202 58:224 59:255 60:255 61:255 62:255 63:244 64:237 65:212 66:175 67:144 68:125 69:112 70:104 71:100 72:104 73:109 74:117 75:130 76:155 77:189 78:224 79:255 80:255 81:255 82:255 83:243 84:228 85:192 86:145 87:105 88:76 89:60 90:47 91:44 92:52 93:59 94:68 95:90 96:126 97:168 98:213 99:255 100:255 101:255 102:255 103:243 104:222 105:181 106:130 107:83 108:45 109:23 110:18 111:26 112:35 113:40 114:51 115:78 116:117 117:160 118:209 119:255 120:255 121:255 122:255 123:242 124:216 125:175 126:124 127:74 128:35 129:17 130:31 131:52 132:62 133:66 134:77 135:100 136:133 137:173 138:218 139:255 140:255 141:255 142:255 143:239 144:211 145:170 146:121 147:71 148:37 149:36 150:59 151:86 152:101 153:110 154:120 155:137 156:164 157:199 158:235 159:255 160:255 161:255 162:255 163:239 164:209 165:168 166:120 167:73 168:43 169:46 170:71 171:101 172:118 173:129 174:142 175:162 176:189 177:219 178:243 179:255 180:255 181:255 182:255 183:236 184:208 185:168 186:119 187:70 188:34 189:31 190:52 191:85 192:100 193:109 194:120 195:148 196:185 197:218 198:243 199:255 200:255 201:255 202:255 203:236 204:205 205:163 206:114 207:64 208:23 209:6 210:15 211:45 212:52 213:60 214:86 215:119 216:159 217:202 218:237 219:255 220:255 221:255 222:255 223:232 224:203 225:161 226:112 227:63 228:22 229:2 230:4 231:12 232:16 233:35 234:61 235:100 236:147 237:193 238:232 239:255 240:255 241:255 242:255 243:228 244:198 245:158 246:109 247:61 248:23 249:8 250:23 251:38 252:46 253:57 254:79 255:113 256:153 257:195 258:232 259:255 260:255 261:255 262:255 263:218 264:189 265:152 266:104 267:58 268:28 269:30 270:54 271:81 272:90 273:100 274:117 275:143 276:176 277:209 278:235 279:255 280:255 281:255 282:255 283:210 284:181 285:146 286:98 287:55 288:32 289:46 290:76 291:106 292:121 293:134 294:148 295:167 296:194 297:219 298:236 299:255 300:255 301:255 302:255 303:204 304:175 305:141 306:93 307:49 308:27 309:42 310:73 311:105 312:121 313:135 314:149 315:166 316:189 317:213 318:234 319:255 320:255 321:255 322:255 323:199 324:170 325:137 326:89 327:44 328:17 329:24 330:46 331:77 332:90 333:102 334:117 335:138 336:164 337:194 338:225 339:255 340:255 341:255 342:255 343:197 344:168 345:137 346:91 347:47 348:15 349:9 350:17 351:38 352:50 353:62 354:78 355:102 356:137 357:175 358:214 359:255 360:255 361:255 362:255 363:193 364:163 365:137 366:101 367:66 368:40 369:26 370:21 371:25 372:33 373:44 374:58 375:85 376:127 377:172 378:216 379:255 380:255 381:255 382:255 383:179 384:157 385:146 386:122 387:101 388:86 389:76 390:73 391:65 392:65 393:67 394:82 395:104 396:140 397:186 398:227 399:255 400:255 
-8.114674612626219e-06 1:255 2:255 3:218 4:228 5:244 6:247 7:247 8:247 9:247 10:250 11:247 12:241 13:236 14:220 15:200 16:179 17:158 18:173 19:255 20:255 21:255 22:255 23:228 24:233 25:238 26:237 27:235 28:229 29:224 30:218 31:217 32:211 33:200 34:192 35:185 36:178 37:172 38:191 39:255 40:255 41:255 42:255 43:230 44:231 45:230 46:215 47:200 48:188 49:174 50:164 51:157 52:149 53:142 54:137 55:137 56:142 57:152 58:185 59:255 60:255 61:255 62:255 63:233 64:229 65:214 66:185 67:157 68:136 69:120 70:108 71:98 72:92 73:89 74:87 75:90 76:101 77:121 78:169 79:255 80:255 81:255 82:255 83:238 84:227 85:199 86:158 87:120 88:92 89:70 90:59 91:50 92:47 93:49 94:53 95:61 96:77 97:103 98:157 99:255 100:255 101:255 102:255 103:238 104:220 105:186 106:140 107:96 108:62 109:35 110:25 111:21 112:29 113:38 114:48 115:60 116:79 117:106 118:159 119:255 120:255 121:255 122:255 123:233 124:212 125:179 126:132 127:86 128:46 129:18 130:12 131:24 132:43 133:59 134:73 135:87 136:105 137:129 138:176 139:255 140:255 141:255 142:255 143:231 144:211 145:180 146:134 147:85 148:43 149:15 150:19 151:48 152:72 153:92 154:110 155:126 156:143 157:162 158:196 159:255 160:255 161:255 162:255 163:236 164:214 165:184 166:139 167:90 168:48 169:19 170:28 171:60 172:90 173:112 174:134 175:153 176:169 177:182 178:208 179:255 180:255 181:255 182:255 183:240 184:220 185:189 186:143 187:93 188:51 189:19 190:23 191:56 192:85 193:103 194:120 195:135 196:149 197:167 198:201 199:255 200:255 201:255 202:255 203:240 204:220 205:189 206:145 207:98 208:54 209:17 210:12 211:34 212:55 213:70 214:82 215:91 216:104 217:126 218:176 219:255 220:255 221:255 222:255 223:236 224:214 225:186 226:149 227:105 228:59 229:19 230:4 231:9 232:19 233:35 234:46 235:57 236:75 237:105 238:163 239:255 240:255 241:255 242:255 243:231 244:211 245:190 246:156 247:112 248:66 249:22 250:2 251:3 252:10 253:24 254:39 255:52 256:73 257:105 258:163 259:255 260:255 261:255 262:255 263:222 264:207 265:193 266:162 267:118 268:72 269:27 270:3 271:7 272:25 273:45 274:63 275:78 276:98 277:129 278:179 279:255 280:255 281:255 282:255 283:213 284:203 285:194 286:166 287:124 288:78 289:35 290:8 291:19 292:48 293:76 294:101 295:121 296:144 297:172 298:211 299:255 300:255 301:255 302:255 303:202 304:198 305:195 306:170 307:130 308:83 309:41 310:14 311:31 312:65 313:101 314:137 315:168 316:194 317:218 318:238 319:255 320:255 321:255 322:255 323:185 324:184 325:193 326:174 327:136 328:89 329:46 330:20 331:36 332:73 333:115 334:162 335:203 336:232 337:245 338:250 339:255 340:255 341:255 342:255 343:163 344:158 345:181 346:176 347:143 348:96 349:54 350:26 351:39 352:75 353:122 354:176 355:222 356:246 357:251 358:252 359:255 360:255 361:255 362:255 363:141 364:129 365:161 366:170 367:146 368:101 369:63 370:37 371:45 372:79 373:128 374:189 375:233 376:250 377:253 378:254 379:255 380:255 381:255 382:255 383:121 384:99 385:134 386:154 387:142 388:105 389:72 390:48 391:51 392:88 393:138 394:201 395:241 396:253 397:254 398:255 399:255 400:255 
-3.818156798260622e-07 1:255 2:255 3:245 4:250 5:255 6:255 7:253 8:248 9:243 10:250 11:242 12:232 13:219 14:198 15:171 16:150 17:138 18:162 19:255 20:255 21:255 22:255 23:245 24:248 25:251 26:244 27:233 28:226 29:218 30:213 31:211 32:203 33:195 34:182 35:171 36:168 37:169 38:189 39:255 40:255 41:255 42:255 43:245 44:243 45:235 46:216 47:196 48:178 49:166 50:160 51:157 52:149 53:139 54:134 55:139 56:153 57:171 58:203 59:255 60:255 61:255 62:255 63:245 64:234 65:211 66:178 67:147 68:125 69:114 70:108 71:100 72:92 73:87 74:89 75:101 76:124 77:153 78:195 79:255 80:255 81:255 82:255 83:242 84:220 85:185 86:142 87:103 88:78 89:67 90:58 91:49 92:45 93:47 94:57 95:75 96:101 97:135 98:185 99:255 100:255 101:255 102:255 103:237 104:209 105:166 106:118 107:76 108:46 109:29 110:23 111:21 112:26 113:35 114:49 115:71 116:98 117:131 118:183 119:255 120:255 121:255 122:255 123:234 124:203 125:156 126:106 127:64 128:30 129:12 130:15 131:28 132:40 133:55 134:69 135:89 136:116 137:146 138:191 139:255 140:255 141:255 142:255 143:229 144:200 145:152 146:102 147:61 148:27 149:16 150:32 151:59 152:73 153:89 154:103 155:121 156:145 157:172 158:208 159:255 160:255 161:255 162:255 163:229 164:200 165:155 166:106 167:66 168:31 169:23 170:50 171:81 172:100 173:113 174:130 175:147 176:169 177:191 178:214 179:255 180:255 181:255 182:255 183:232 184:204 185:162 186:114 187:70 188:35 189:23 190:49 191:81 192:101 193:112 194:124 195:137 196:156 197:180 198:210 199:255 200:255 201:255 202:255 203:236 204:211 205:168 206:118 207:73 208:35 209:18 210:30 211:55 212:70 213:82 214:89 215:98 216:118 217:147 218:191 219:255 220:255 221:255 222:255 223:236 224:214 225:175 226:125 227:79 228:40 229:10 230:8 231:20 232:30 233:42 234:53 235:66 236:90 237:124 238:177 239:255 240:255 241:255 242:255 243:236 244:219 245:183 246:133 247:86 248:42 249:8 250:3 251:5 252:12 253:22 254:37 255:57 256:85 257:121 258:176 259:255 260:255 261:255 262:255 263:233 264:219 265:188 266:139 267:90 268:46 269:11 270:3 271:8 272:23 273:39 274:59 275:79 276:104 277:139 278:189 279:255 280:255 281:255 282:255 283:228 284:216 285:191 286:144 287:93 288:50 289:15 290:7 291:26 292:52 293:75 294:97 295:116 296:141 297:173 298:211 299:255 300:255 301:255 302:255 303:219 304:209 305:193 306:150 307:99 308:56 309:22 310:18 311:47 312:81 313:113 314:140 315:162 316:184 317:209 318:234 319:255 320:255 321:255 322:255 323:207 324:200 325:192 326:156 327:106 328:64 329:31 330:29 331:59 332:98 333:139 334:177 335:202 336:217 337:232 338:247 339:255 340:255 341:255 342:255 343:195 344:190 345:189 346:160 347:115 348:73 349:39 350:34 351:62 352:104 353:149 354:192 355:222 356:235 357:242 358:251 359:255 360:255 361:255 362:255 363:174 364:172 365:183 366:161 367:120 368:79 369:47 370:42 371:67 372:105 373:150 374:197 375:231 376:247 377:251 378:252 379:255 380:255 381:255 382:255 383:151 384:143 385:166 386:159 387:125 388:86 389:56 390:54 391:74 392:106 393:154 394:202 395:236 396:252 397:255 398:255 399:255 400:255 
-9.630625673324232e-07 1:255 2:255 3:231 4:230 5:228 6:220 7:213 8:207 9:201 10:196 11:202 12:210 13:215 14:211 15:196 16:176 17:154 18:167 19:255 20:255 21:255 22:255 23:235 24:226 25:214 26:195 27:176 28:162 29:152 30:148 31:149 32:157 33:168 34:176 35:180 36:181 37:180 38:197 39:255 40:255 41:255 42:255 43:236 44:218 45:192 46:160 47:132 48:114 49:106 50:102 51:102 52:107 53:115 54:126 55:141 56:161 57:182 58:209 59:255 60:255 61:255 62:255 63:236 64:209 65:169 66:128 67:95 68:71 69:63 70:57 71:56 72:60 73:67 74:79 75:101 76:132 77:167 78:208 79:255 80:255 81:255 82:255 83:238 84:207 85:160 86:113 87:76 88:46 89:29 90:23 91:20 92:20 93:24 94:42 95:73 96:111 97:154 98:203 99:255 100:255 101:255 102:255 103:241 104:212 105:167 106:118 107:80 108:51 109:32 110:24 111:13 112:5 113:3 114:19 115:55 116:99 117:144 118:198 119:255 120:255 121:255 122:255 123:244 124:224 125:187 126:144 127:109 128:86 129:68 130:57 131:36 132:19 133:7 134:13 135:46 136:92 137:138 138:194 139:255 140:255 141:255 142:255 143:247 144:238 145:217 146:185 147:157 148:135 149:110 150:96 151:71 152:47 153:20 154:18 155:46 156:90 157:135 158:191 159:255 160:255 161:255 162:255 163:251 164:250 165:243 166:227 167:208 168:185 169:154 170:129 171:98 172:64 173:31 174:26 175:53 176:93 177:134 178:188 179:255 180:255 181:255 182:255 183:251 184:253 185:254 186:249 187:239 188:222 189:190 190:151 191:107 192:69 193:38 194:35 195:59 196:95 197:134 198:188 199:255 200:255 201:255 202:255 203:251 204:252 205:254 206:252 207:245 208:232 209:209 210:169 211:119 212:82 213:47 214:38 215:59 216:95 217:133 218:186 219:255 220:255 221:255 222:255 223:251 224:252 225:254 226:249 227:241 228:230 229:212 230:177 231:126 232:85 233:48 234:38 235:57 236:93 237:131 238:182 239:255 240:255 241:255 242:255 243:244 244:244 245:246 246:243 247:236 248:227 249:211 250:178 251:127 252:84 253:41 254:30 255:54 256:90 257:127 258:182 259:255 260:255 261:255 262:255 263:235 264:229 265:228 266:224 267:217 268:209 269:195 270:163 271:115 272:76 273:37 274:27 275:50 276:87 277:127 278:184 279:255 280:255 281:255 282:255 283:225 284:213 285:205 286:193 287:181 288:170 289:158 290:137 291:102 292:66 293:32 294:25 295:50 296:89 297:132 298:189 299:255 300:255 301:255 302:255 303:213 304:195 305:178 306:153 307:133 308:123 309:115 310:105 311:81 312:49 313:22 314:26 315:55 316:96 317:139 318:193 319:255 320:255 321:255 322:255 323:200 324:177 325:154 326:120 327:93 328:81 329:74 330:67 331:46 332:25 333:14 334:32 335:67 336:106 337:148 338:200 339:255 340:255 341:255 342:255 343:187 344:162 345:140 346:106 347:74 348:51 349:40 350:32 351:15 352:9 353:18 354:48 355:85 356:123 357:163 358:210 359:255 360:255 361:255 362:255 363:173 364:149 365:134 366:104 367:73 368:46 369:23 370:15 371:16 372:19 373:45 374:76 375:110 376:150 377:188 378:222 379:255 380:255 381:255 382:255 383:161 384:138 385:138 386:118 387:91 388:71 389:51 390:45 391:51 392:59 393:80 394:101 395:135 396:177 397:212 398:236 399:255 400:255 
-2.831629768190532e-07 1:255 2:255 3:211 4:208 5:211 6:205 7:202 8:205 9:217 10:227 11:240 12:246 13:252 14:245 15:227 16:197 17:166 18:174 19:255 20:255 21:255 22:255 23:211 24:204 25:200 26:177 27:157 28:154 29:159 30:178 31:201 32:225 33:243 34:247 35:239 36:223 37:204 38:209 39:255 40:255 41:255 42:255 43:211 44:195 45:174 46:143 47:121 48:112 49:112 50:125 51:156 52:197 53:231 54:241 55:239 56:235 57:227 58:229 59:255 60:255 61:255 62:255 63:207 64:183 65:156 66:120 67:92 68:76 69:76 70:90 71:121 72:170 73:208 74:227 75:230 76:230 77:229 78:233 79:255 80:255 81:255 82:255 83:206 84:177 85:144 86:104 87:70 88:51 89:48 90:71 91:104 92:146 93:186 94:210 95:218 96:220 97:222 98:233 99:255 100:255 101:255 102:255 103:206 104:173 105:137 106:94 107:59 108:36 109:32 110:60 111:95 112:132 113:170 114:199 115:215 116:222 117:227 118:237 119:255 120:255 121:255 122:255 123:203 124:167 125:132 126:92 127:57 128:31 129:28 130:56 131:89 132:127 133:161 134:194 135:219 136:235 137:240 138:244 139:255 140:255 141:255 142:255 143:198 144:161 145:130 146:94 147:59 148:34 149:27 150:54 151:87 152:125 153:159 154:190 155:221 156:242 157:249 158:251 159:255 160:255 161:255 162:255 163:196 164:161 165:133 166:98 167:62 168:34 169:26 170:53 171:84 172:123 173:157 174:189 175:220 176:243 177:254 178:255 179:255 180:255 181:255 182:255 183:196 184:165 185:137 186:100 187:63 188:33 189:23 190:52 191:83 192:122 193:151 194:183 195:212 196:238 197:254 198:255 199:255 200:255 201:255 202:255 203:199 204:172 205:143 206:103 207:64 208:33 209:21 210:50 211:81 212:118 213:150 214:179 215:209 216:238 217:253 218:254 219:255 220:255 221:255 222:255 223:199 224:174 225:148 226:106 227:65 228:34 229:20 230:46 231:79 232:115 233:145 234:180 235:217 236:243 237:251 238:250 239:255 240:255 241:255 242:255 243:199 244:175 245:150 246:109 247:68 248:36 249:19 250:41 251:74 252:111 253:143 254:177 255:216 256:240 257:242 258:243 259:255 260:255 261:255 262:255 263:197 264:172 265:150 266:111 267:70 268:37 269:16 270:33 271:69 272:104 273:136 274:161 275:189 276:210 277:217 278:227 279:255 280:255 281:255 282:255 283:189 284:168 285:150 286:114 287:74 288:38 289:13 290:26 291:63 292:92 293:115 294:131 295:147 296:161 297:173 298:200 299:255 300:255 301:255 302:255 303:177 304:162 305:151 306:118 307:78 308:39 309:12 310:19 311:49 312:71 313:85 314:93 315:100 316:111 317:128 318:171 319:255 320:255 321:255 322:255 323:163 324:150 325:148 326:120 327:81 328:41 329:11 330:9 331:26 332:39 333:47 334:52 335:58 336:71 337:95 338:151 339:255 340:255 341:255 342:255 343:148 344:129 345:135 346:118 347:84 348:45 349:12 350:3 351:5 352:11 353:14 354:19 355:28 356:47 357:76 358:140 359:255 360:255 361:255 362:255 363:131 364:105 365:117 366:111 367:87 368:54 369:24 370:10 371:6 372:7 373:8 374:14 375:24 376:44 377:74 378:137 379:255 380:255 381:255 382:255 383:113 384:82 385:98 386:104 387:94 388:71 389:53 390:39 391:29 392:27 393:30 394:42 395:55 396:70 397:90 398:145 399:255 400:255 
-2.997216727490516e-06 1:255 2:255 3:242 4:244 5:248 6:248 7:250 8:253 9:254 10:255 11:254 12:252 13:252 14:247 15:230 16:203 17:174 18:177 19:255 20:255 21:255 22:255 23:247 24:247 25:247 26:244 27:241 28:239 29:239 30:234 31:232 32:232 33:237 34:243 35:240 36:227 37:209 38:213 39:255 40:255 41:255 42:255 43:245 44:244 45:242 46:234 47:225 48:218 49:208 50:197 51:192 52:196 53:207 54:218 55:225 56:227 57:225 58:231 59:255 60:255 61:255 62:255 63:242 64:237 65:230 66:218 67:199 68:176 69:158 70:142 71:137 72:141 73:154 74:171 75:189 76:208 77:222 78:233 79:255 80:255 81:255 82:255 83:239 84:228 85:215 86:193 87:162 88:129 89:105 90:85 91:81 92:82 93:96 94:116 95:143 96:173 97:200 98:228 99:255 100:255 101:255 102:255 103:234 104:219 105:196 106:161 107:120 108:82 109:55 110:44 111:45 112:44 113:49 114:64 115:95 116:132 117:169 118:212 119:255 120:255 121:255 122:255 123:229 124:206 125:172 126:128 127:82 128:42 129:31 130:45 131:54 132:52 133:41 134:36 135:56 136:95 137:137 138:189 139:255 140:255 141:255 142:255 143:224 144:189 145:147 146:100 147:52 148:26 149:52 150:89 151:103 152:101 153:77 154:46 155:36 156:62 157:109 158:172 159:255 160:255 161:255 162:255 163:219 164:176 165:128 166:75 167:38 168:43 169:89 170:124 171:148 172:142 173:114 174:75 175:37 176:41 177:87 178:155 179:255 180:255 181:255 182:255 183:211 184:163 185:113 186:59 187:35 188:68 189:116 190:158 191:176 192:169 193:141 194:101 195:52 196:35 197:68 198:146 199:255 200:255 201:255 202:255 203:204 204:153 205:102 206:48 207:36 208:85 209:134 210:171 211:201 212:192 213:159 214:111 215:59 216:36 217:62 218:140 219:255 220:255 221:255 222:255 223:199 224:148 225:95 226:48 227:43 228:92 229:144 230:189 231:207 232:196 233:163 234:114 235:60 236:36 237:61 238:140 239:255 240:255 241:255 242:255 243:197 244:143 245:91 246:44 247:41 248:96 249:147 250:192 251:209 252:198 253:164 254:114 255:59 256:36 257:62 258:141 259:255 260:255 261:255 262:255 263:198 264:145 265:93 266:42 267:35 268:90 269:140 270:179 271:205 272:192 273:158 274:110 275:56 276:37 277:70 278:146 279:255 280:255 281:255 282:255 283:203 284:153 285:102 286:46 287:26 288:69 289:120 290:160 291:182 292:174 293:141 294:97 295:47 296:38 297:79 298:151 299:255 300:255 301:255 302:255 303:210 304:165 305:115 306:58 307:22 308:40 309:91 310:130 311:148 312:143 313:115 314:73 315:34 316:42 317:93 318:161 319:255 320:255 321:255 322:255 323:215 324:176 325:131 326:79 327:32 328:16 329:49 330:85 331:106 332:99 333:76 334:41 335:28 336:58 337:112 338:175 339:255 340:255 341:255 342:255 343:215 344:184 345:151 346:108 347:60 348:17 349:11 350:36 351:49 352:48 353:32 354:23 355:44 356:87 357:133 358:186 359:255 360:255 361:255 362:255 363:206 364:191 365:173 366:138 367:97 368:54 369:17 370:9 371:9 372:10 373:18 374:47 375:84 376:122 377:159 378:199 379:255 380:255 381:255 382:255 383:188 384:183 385:180 386:161 387:135 388:103 389:78 390:55 391:46 392:52 393:72 394:98 395:129 396:160 397:187 398:220 399:255 400:255 
-5.448685937709133e-06 1:255 2:255 3:248 4:251 5:254 6:252 7:249 8:250 9:254 10:255 11:254 12:250 13:237 14:215 15:183 16:146 17:121 18:149 19:255 20:255 21:255 22:255 23:250 24:252 25:250 26:244 27:242 28:239 29:236 30:236 31:238 32:240 33:239 34:228 35:211 36:192 37:176 38:190 39:255 40:255 41:255 42:255 43:248 44:247 45:244 46:235 47:225 48:216 49:210 50:204 51:211 52:215 53:221 54:222 55:221 56:219 57:214 58:221 59:255 60:255 61:255 62:255 63:246 64:240 65:232 66:215 67:194 68:174 69:158 70:149 71:156 72:167 73:182 74:196 75:211 76:223 77:227 78:235 79:255 80:255 81:255 82:255 83:240 84:228 85:211 86:180 87:146 88:120 89:99 90:92 91:97 92:108 93:128 94:149 95:178 96:206 97:223 98:236 99:255 100:255 101:255 102:255 103:232 104:210 105:178 106:135 107:95 108:68 109:52 110:53 111:55 112:59 113:75 114:99 115:134 116:175 117:208 118:231 119:255 120:255 121:255 122:255 123:221 124:186 125:140 126:92 127:55 128:38 129:43 130:53 131:53 132:47 133:41 134:57 135:94 136:142 137:186 138:221 139:255 140:255 141:255 142:255 143:205 144:157 145:108 146:59 147:33 148:47 149:79 150:96 151:96 152:77 153:40 154:30 155:62 156:112 157:161 158:209 159:255 160:255 161:255 162:255 163:191 164:134 165:81 166:36 167:33 168:79 169:120 170:143 171:142 172:117 173:74 174:31 175:39 176:86 177:139 178:196 179:255 180:255 181:255 182:255 183:180 184:116 185:58 186:29 187:51 188:104 189:150 190:183 191:179 192:145 193:99 194:49 195:36 196:68 197:122 198:186 199:255 200:255 201:255 202:255 203:171 204:102 205:44 206:30 207:69 208:120 209:165 210:194 211:198 212:166 213:118 214:63 215:35 216:59 217:116 218:180 219:255 220:255 221:255 222:255 223:167 224:96 225:40 226:31 227:75 228:128 229:174 230:203 231:203 232:172 233:124 234:70 235:38 236:57 237:112 238:178 239:255 240:255 241:255 242:255 243:166 244:95 245:40 246:31 247:76 248:131 249:176 250:205 251:204 252:173 253:123 254:71 255:42 256:61 257:115 258:179 259:255 260:255 261:255 262:255 263:167 264:97 265:41 266:30 267:73 268:127 269:172 270:201 271:201 272:169 273:120 274:70 275:45 276:65 277:118 278:183 279:255 280:255 281:255 282:255 283:172 284:103 285:44 286:22 287:56 288:113 289:158 290:190 291:192 292:160 293:113 294:64 295:46 296:71 297:124 298:188 299:255 300:255 301:255 302:255 303:178 304:113 305:54 306:18 307:34 308:91 309:135 310:165 311:169 312:140 313:96 314:50 315:45 316:81 317:135 318:196 319:255 320:255 321:255 322:255 323:185 324:127 325:75 326:28 327:17 328:58 329:101 330:125 331:129 332:105 333:67 334:34 335:48 336:96 337:150 338:205 339:255 340:255 341:255 342:255 343:197 344:147 345:102 346:51 347:16 348:22 349:53 350:72 351:76 352:57 353:33 354:35 355:69 356:119 357:169 358:216 359:255 360:255 361:255 362:255 363:206 364:168 365:132 366:91 367:51 368:20 369:13 370:22 371:21 372:12 373:23 374:60 375:106 376:151 377:193 378:227 379:255 380:255 381:255 382:255 383:209 384:187 385:164 386:133 387:101 388:71 389:51 390:37 391:29 392:47 393:70 394:104 395:145 396:185 397:215 398:235 399:255 400:255 
-2.48067042444324e-05 1:255 2:255 3:254 4:254 5:255 6:254 7:252 8:251 9:249 10:244 11:244 12:246 13:249 14:246 15:239 16:228 17:210 18:208 19:255 20:255 21:255 22:255 23:252 24:244 25:235 26:228 27:221 28:211 29:206 30:200 31:205 32:221 33:229 34:234 35:240 36:242 37:237 38:237 39:255 40:255 41:255 42:255 43:245 44:225 45:201 46:180 47:165 48:156 49:153 50:150 51:155 52:167 53:184 54:201 55:222 56:238 57:245 58:249 59:255 60:255 61:255 62:255 63:235 64:203 65:167 66:135 67:112 68:101 69:98 70:97 71:99 72:108 73:132 74:160 75:188 76:218 77:239 78:249 79:255 80:255 81:255 82:255 83:229 84:189 85:145 86:102 87:68 88:51 89:50 90:52 91:53 92:57 93:82 94:119 95:157 96:195 97:225 98:243 99:255 100:255 101:255 102:255 103:224 104:182 105:135 106:85 107:44 108:30 109:38 110:48 111:43 112:33 113:42 114:80 115:126 116:169 117:206 118:236 119:255 120:255 121:255 122:255 123:221 124:178 125:132 126:81 127:43 128:40 129:61 130:78 131:67 132:43 133:27 134:52 135:98 136:148 137:192 138:229 139:255 140:255 141:255 142:255 143:223 144:180 145:133 146:85 147:52 148:54 149:84 150:99 151:90 152:65 153:36 154:42 155:87 156:142 157:187 158:227 159:255 160:255 161:255 162:255 163:227 164:184 165:135 166:84 167:49 168:51 169:81 170:98 171:93 172:66 173:35 174:43 175:88 176:142 177:188 178:227 179:255 180:255 181:255 182:255 183:227 184:184 185:131 186:74 187:33 188:27 189:51 190:68 191:64 192:36 193:21 194:50 195:98 196:147 197:192 198:230 199:255 200:255 201:255 202:255 203:227 204:181 205:126 206:66 207:21 208:9 209:13 210:16 211:14 212:9 213:16 214:60 215:112 216:159 217:199 218:234 219:255 220:255 221:255 222:255 223:222 224:174 225:123 226:63 227:16 228:5 229:6 230:6 231:3 232:3 233:24 234:76 235:129 236:172 237:209 238:237 239:255 240:255 241:255 242:255 243:219 244:172 245:122 246:68 247:25 248:12 249:15 250:14 251:7 252:7 253:31 254:84 255:139 256:182 257:214 258:238 259:255 260:255 261:255 262:255 263:218 264:172 265:124 266:76 267:40 268:36 269:51 270:55 271:37 272:18 273:32 274:79 275:130 276:173 277:209 278:237 279:255 280:255 281:255 282:255 283:218 284:174 285:129 286:83 287:55 288:61 289:83 290:97 291:77 292:44 293:37 294:70 295:116 296:161 297:200 298:233 299:255 300:255 301:255 302:255 303:218 304:177 305:132 306:87 307:64 308:76 309:104 310:124 311:110 312:75 313:45 314:59 315:101 316:148 317:188 318:222 319:255 320:255 321:255 322:255 323:216 324:176 325:132 326:90 327:68 328:84 329:119 330:138 331:132 332:102 333:62 334:55 335:85 336:130 337:170 338:209 339:255 340:255 341:255 342:255 343:211 344:175 345:136 346:94 347:74 348:91 349:128 350:153 351:154 352:130 353:92 354:68 355:78 356:112 357:154 358:201 359:255 360:255 361:255 362:255 363:205 364:177 365:146 366:110 367:94 368:107 369:142 370:175 371:181 372:153 373:122 374:97 375:92 376:115 377:152 378:200 379:255 380:255 381:255 382:255 383:201 384:178 385:158 386:137 387:132 388:143 389:171 390:188 391:198 392:185 393:155 394:133 395:126 396:138 397:165 398:204 399:255 400:255 
-1.439783469176118e-06 1:255 2:255 3:247 4:251 5:255 6:254 7:251 8:247 9:244 10:236 11:231 12:225 13:219 14:213 15:206 16:196 17:182 18:191 19:255 20:255 21:255 22:255 23:249 24:252 25:254 26:249 27:240 28:227 29:211 30:199 31:193 32:181 33:175 34:175 35:180 36:189 37:196 38:213 39:255 40:255 41:255 42:255 43:252 44:252 45:249 46:237 47:218 48:193 49:167 50:149 51:137 52:128 53:125 54:130 55:140 56:158 57:182 58:216 59:255 60:255 61:255 62:255 63:251 64:248 65:236 66:212 67:182 68:151 69:122 70:99 71:83 72:76 73:78 74:86 75:102 76:129 77:165 78:209 79:255 80:255 81:255 82:255 83:248 84:237 85:215 86:180 87:141 88:105 89:76 90:56 91:44 92:45 93:55 94:66 95:84 96:115 97:155 98:204 99:255 100:255 101:255 102:255 103:244 104:225 105:191 106:147 107:102 108:63 109:40 110:34 111:43 112:57 113:70 114:81 115:97 116:125 117:162 118:207 119:255 120:255 121:255 122:255 123:239 124:213 125:171 126:121 127:73 128:34 129:22 130:37 131:69 132:92 133:106 134:119 135:132 136:155 137:183 138:215 139:255 140:255 141:255 142:255 143:233 144:203 145:159 146:108 147:57 148:19 149:15 150:47 151:85 152:111 153:131 154:148 155:163 156:184 157:205 158:226 159:255 160:255 161:255 162:255 163:230 164:199 165:156 166:106 167:56 168:16 169:9 170:40 171:78 172:105 173:129 174:149 175:169 176:191 177:209 178:227 179:255 180:255 181:255 182:255 183:230 184:200 185:164 186:118 187:66 188:19 189:3 190:15 191:42 192:70 193:94 194:115 195:137 196:162 197:185 198:214 199:255 200:255 201:255 202:255 203:232 204:206 205:173 206:132 207:85 208:40 209:12 210:3 211:7 212:20 213:43 214:69 215:94 216:117 217:143 218:186 219:255 220:255 221:255 222:255 223:237 224:219 225:189 226:156 227:121 228:83 229:52 230:31 231:18 232:9 233:14 234:28 235:47 236:74 237:103 238:155 239:255 240:255 241:255 242:255 243:240 244:230 245:212 246:183 247:153 248:125 249:97 250:77 251:63 252:48 253:34 254:24 255:24 256:37 257:65 258:134 259:255 260:255 261:255 262:255 263:245 264:240 265:229 266:208 267:184 268:161 269:139 270:124 271:107 272:93 273:72 274:45 275:23 276:18 277:38 278:115 279:255 280:255 281:255 282:255 283:242 284:242 285:235 286:217 287:195 288:175 289:159 290:149 291:136 292:122 293:98 294:62 295:27 296:12 297:28 298:106 299:255 300:255 301:255 302:255 303:233 304:234 305:228 306:205 307:179 308:160 309:145 310:139 311:135 312:122 313:98 314:62 315:27 316:14 317:32 318:110 319:255 320:255 321:255 322:255 323:223 324:220 325:213 326:185 327:151 328:126 329:110 330:104 331:102 332:92 333:72 334:46 335:25 336:25 337:51 338:124 339:255 340:255 341:255 342:255 343:210 344:201 345:195 346:169 347:131 348:97 349:77 350:65 351:60 352:53 353:39 354:31 355:33 356:50 357:82 358:147 359:255 360:255 361:255 362:255 363:192 364:178 365:177 366:160 367:128 368:90 369:61 370:46 371:42 372:36 373:35 374:45 375:62 376:88 377:122 378:175 379:255 380:255 381:255 382:255 383:180 384:157 385:162 386:159 387:140 388:112 389:87 390:73 391:67 392:69 393:78 394:90 395:109 396:133 397:159 398:199 399:255 400:255 
-8.163834612032903e-06 1:255 2:255 3:252 4:253 5:254 6:254 7:255 8:253 9:249 10:240 11:230 12:216 13:216 14:221 15:223 16:219 17:207 18:209 19:255 20:255 21:255 22:255 23:252 24:251 25:249 26:243 27:228 28:208 29:191 30:175 31:165 32:158 33:166 34:182 35:203 36:224 37:234 38:239 39:255 40:255 41:255 42:255 43:250 44:243 45:225 46:200 47:173 48:142 49:121 50:107 51:100 52:98 53:110 54:133 55:167 56:207 57:236 58:247 59:255 60:255 61:255 62:255 63:246 64:223 65:187 66:148 67:114 68:84 69:61 70:55 71:53 72:55 73:69 74:93 75:134 76:183 77:225 78:248 79:255 80:255 81:255 82:255 83:240 84:201 85:151 86:103 87:67 88:43 89:31 90:37 91:46 92:53 93:63 94:86 95:124 96:173 97:217 98:243 99:255 100:255 101:255 102:255 103:227 104:178 105:121 106:71 107:38 108:28 109:37 110:55 111:73 112:85 113:91 114:109 115:141 116:183 117:217 118:238 119:255 120:255 121:255 122:255 123:215 124:159 125:103 126:54 127:26 128:31 129:59 130:84 131:108 132:123 133:131 134:146 135:172 136:202 137:222 138:234 139:255 140:255 141:255 142:255 143:210 144:153 145:97 146:50 147:23 148:32 149:66 150:95 151:123 152:141 153:159 154:177 155:197 156:218 157:228 158:231 159:255 160:255 161:255 162:255 163:210 164:156 165:103 166:56 167:25 168:23 169:48 170:73 171:101 172:124 173:150 174:174 175:198 176:220 177:229 178:230 179:255 180:255 181:255 182:255 183:218 184:173 185:122 186:72 187:33 188:13 189:15 190:31 191:60 192:82 193:107 194:138 195:171 196:203 197:218 198:224 199:255 200:255 201:255 202:255 203:235 204:197 205:151 206:105 207:64 208:31 209:8 210:9 211:18 212:36 213:64 214:95 215:127 216:165 217:194 218:214 219:255 220:255 221:255 222:255 223:243 224:220 225:187 226:145 227:104 228:73 229:48 230:32 231:22 232:17 233:22 234:47 235:85 236:129 237:169 238:206 239:255 240:255 241:255 242:255 243:247 244:234 245:210 246:180 247:150 248:121 249:98 250:76 251:57 252:29 253:11 254:16 255:51 256:99 257:146 258:197 259:255 260:255 261:255 262:255 263:244 264:229 265:208 266:188 267:172 268:155 269:139 270:116 271:86 272:50 273:15 274:6 275:34 276:81 277:131 278:188 279:255 280:255 281:255 282:255 283:233 284:210 285:185 286:164 287:153 288:150 289:144 290:125 291:94 292:57 293:18 294:6 295:31 296:78 297:126 298:183 299:255 300:255 301:255 302:255 303:217 304:184 305:153 306:126 307:113 308:112 309:112 310:101 311:77 312:44 313:13 314:11 315:40 316:86 317:133 318:188 319:255 320:255 321:255 322:255 323:201 324:163 325:128 326:96 327:77 328:70 329:67 330:60 331:45 332:25 333:14 334:28 335:63 336:108 337:152 338:199 339:255 340:255 341:255 342:255 343:194 344:156 345:123 346:89 347:65 348:50 349:39 350:32 351:29 352:27 353:37 354:64 355:100 356:142 357:180 358:212 359:255 360:255 361:255 362:255 363:192 364:163 365:141 366:110 367:84 368:68 369:56 370:49 371:58 372:67 373:82 374:110 375:143 376:178 377:210 378:233 379:255 380:255 381:255 382:255 383:195 384:172 385:165 386:148 387:126 388:111 389:101 390:99 391:108 392:118 393:134 394:159 395:184 396:213 397:238 398:248 399:255 400:255 
-3.249497195202072e-07 1:255 2:255 3:254 4:245 5:238 6:236 7:238 8:241 9:241 10:241 11:241 12:237 13:231 14:218 15:199 16:175 17:150 18:164 19:255 20:255 21:255 22:255 23:238 24:216 25:197 26:190 27:198 28:214 29:226 30:231 31:236 32:231 33:222 34:209 35:195 36:184 37:173 38:188 39:255 40:255 41:255 42:255 43:213 44:171 45:144 46:138 47:152 48:178 49:205 50:221 51:230 52:225 53:203 54:180 55:163 56:157 57:163 58:192 59:255 60:255 61:255 62:255 63:192 64:136 65:103 66:95 67:111 68:143 69:179 70:208 71:221 72:207 73:171 74:139 75:120 76:120 77:136 78:180 79:255 80:255 81:255 82:255 83:181 84:120 85:82 86:69 87:82 88:115 89:153 90:190 91:205 92:183 93:140 94:103 95:83 96:89 97:115 98:168 99:255 100:255 101:255 102:255 103:180 104:119 105:77 106:55 107:63 108:95 109:133 110:171 111:184 112:158 113:116 114:78 115:60 116:73 117:108 118:167 119:255 120:255 121:255 122:255 123:185 124:125 125:81 126:50 127:47 128:77 129:116 130:153 131:163 132:137 133:98 134:61 135:51 136:73 137:115 138:174 139:255 140:255 141:255 142:255 143:189 144:134 145:88 146:49 147:35 148:60 149:100 150:136 151:145 152:119 153:81 154:50 155:52 156:84 157:129 158:187 159:255 160:255 161:255 162:255 163:193 164:143 165:99 166:54 167:32 168:48 169:84 170:121 171:127 172:102 173:67 174:41 175:57 176:98 177:145 178:200 179:255 180:255 181:255 182:255 183:202 184:155 185:109 186:59 187:27 188:33 189:71 190:105 191:112 192:82 193:49 194:41 195:65 196:110 197:160 198:211 199:255 200:255 201:255 202:255 203:214 204:168 205:121 206:72 207:33 208:27 209:58 210:94 211:95 212:68 213:37 214:43 215:78 216:126 217:177 218:222 219:255 220:255 221:255 222:255 223:222 224:180 225:132 226:81 227:38 228:20 229:41 230:77 231:77 232:52 233:33 234:51 235:95 236:147 237:194 238:230 239:255 240:255 241:255 242:255 243:226 244:190 245:145 246:92 247:42 248:13 249:24 250:52 251:52 252:32 253:30 254:64 255:113 256:169 257:215 258:238 259:255 260:255 261:255 262:255 263:227 264:197 265:155 266:103 267:50 268:14 269:13 270:25 271:25 272:21 273:38 274:81 275:134 276:191 277:233 278:245 279:255 280:255 281:255 282:255 283:229 284:200 285:162 286:113 287:60 288:17 289:6 290:8 291:11 292:18 293:49 294:98 295:157 296:212 297:244 298:251 299:255 300:255 301:255 302:255 303:227 304:201 305:169 306:125 307:71 308:24 309:4 310:2 311:8 312:23 313:65 314:118 315:178 316:228 317:250 318:254 319:255 320:255 321:255 322:255 323:223 324:203 325:178 326:136 327:85 328:37 329:6 330:4 331:10 332:37 333:86 334:140 335:198 336:239 337:253 338:254 339:255 340:255 341:255 342:255 343:221 344:208 345:186 346:145 347:98 348:52 349:17 350:12 351:21 352:59 353:108 354:164 355:215 356:246 357:254 358:254 359:255 360:255 361:255 362:255 363:212 364:206 365:195 366:160 367:116 368:75 369:45 370:29 371:48 372:84 373:131 374:186 375:229 376:249 377:254 378:254 379:255 380:255 381:255 382:255 383:199 384:196 385:200 386:179 387:144 388:108 389:83 390:76 391:92 392:120 393:166 394:212 395:238 396:249 397:253 398:254 399:255 400:255 
-5.619910732736763e-06 1:255 2:255 3:248 4:250 5:254 6:255 7:255 8:254 9:249 10:246 11:239 12:239 13:232 14:220 15:197 16:172 17:153 18:170 19:255 20:255 21:255 22:255 23:244 24:242 25:245 26:249 27:251 28:252 29:251 30:248 31:245 32:241 33:234 34:223 35:209 36:195 37:186 38:201 39:255 40:255 41:255 42:255 43:227 44:212 45:210 46:216 47:227 48:236 49:243 50:246 51:241 52:232 53:216 54:196 55:182 56:181 57:190 58:214 59:255 60:255 61:255 62:255 63:199 64:166 65:157 66:162 67:180 68:203 69:228 70:237 71:230 72:207 73:180 74:155 75:143 76:148 77:170 78:208 79:255 80:255 81:255 82:255 83:173 84:125 85:108 86:112 87:135 88:169 89:204 90:220 91:211 92:179 93:141 94:114 95:105 96:116 97:146 98:194 99:255 100:255 101:255 102:255 103:156 104:99 105:75 106:77 107:103 108:140 109:179 110:201 111:189 112:153 113:113 114:83 115:77 116:95 117:130 118:184 119:255 120:255 121:255 122:255 123:150 124:89 125:59 126:56 127:81 128:119 129:160 130:184 131:171 132:134 133:96 134:65 135:61 136:85 137:124 138:179 139:255 140:255 141:255 142:255 143:155 144:93 145:57 146:45 147:65 148:104 149:144 150:167 151:158 152:119 153:81 154:54 155:56 156:85 157:124 158:178 159:255 160:255 161:255 162:255 163:165 164:103 165:62 166:41 167:52 168:90 169:130 170:151 171:142 172:105 173:66 174:45 175:56 176:91 177:132 178:184 179:255 180:255 181:255 182:255 183:175 184:115 185:71 186:41 187:41 188:75 189:111 190:133 191:124 192:91 193:50 194:39 195:61 196:102 197:142 198:188 199:255 200:255 201:255 202:255 203:188 204:128 205:82 206:45 207:34 208:58 209:93 210:113 211:106 212:74 213:38 214:37 215:70 216:115 217:152 218:193 219:255 220:255 221:255 222:255 223:196 224:141 225:95 226:52 227:28 228:40 229:73 230:95 231:87 232:58 233:33 234:46 235:82 236:124 237:158 238:195 239:255 240:255 241:255 242:255 243:205 244:153 245:106 246:60 247:28 248:25 249:46 250:68 251:62 252:40 253:30 254:56 255:96 256:138 257:169 258:199 259:255 260:255 261:255 262:255 263:211 264:165 265:120 266:74 267:36 268:17 269:24 270:36 271:34 272:25 273:34 274:68 275:112 276:154 277:181 278:206 279:255 280:255 281:255 282:255 283:218 284:177 285:135 286:91 287:48 288:16 289:12 290:14 291:15 292:17 293:40 294:79 295:125 296:168 297:194 298:213 299:255 300:255 301:255 302:255 303:226 304:190 305:151 306:109 307:62 308:20 309:7 310:5 311:7 312:14 313:48 314:90 315:138 316:181 317:205 318:219 319:255 320:255 321:255 322:255 323:231 324:203 325:168 326:125 327:76 328:31 329:7 330:2 331:4 332:15 333:57 334:104 335:153 336:195 337:214 338:224 339:255 340:255 341:255 342:255 343:231 344:213 345:183 346:139 347:91 348:47 349:11 350:3 351:6 352:25 353:70 354:121 355:172 356:209 357:223 358:230 359:255 360:255 361:255 362:255 363:228 364:217 365:195 366:154 367:109 368:65 369:23 370:11 371:16 372:46 373:90 374:144 375:192 376:221 377:231 378:237 379:255 380:255 381:255 382:255 383:217 384:214 385:205 386:172 387:129 388:89 389:57 390:35 391:46 392:74 393:117 394:166 395:209 396:232 397:239 398:243 399:255 400:255 
-5.009885249115007e-06 1:255 2:255 3:246 4:239 5:234 6:232 7:235 8:241 9:248 10:253 11:255 12:255 13:252 14:244 15:233 16:218 17:210 18:226 19:255 20:255 21:255 22:255 23:242 24:228 25:208 26:196 27:203 28:224 29:240 30:249 31:253 32:252 33:246 34:231 35:205 36:182 37:180 38:208 39:255 40:255 41:255 42:255 43:238 44:210 45:172 46:149 47:161 48:198 49:233 50:246 51:251 52:249 53:239 54:210 55:168 56:139 57:143 58:188 59:255 60:255 61:255 62:255 63:232 64:192 65:144 66:117 67:133 68:181 69:224 70:241 71:247 72:244 73:230 74:192 75:142 76:110 77:118 78:171 79:255 80:255 81:255 82:255 83:227 84:182 85:131 86:104 87:121 88:168 89:210 90:233 91:236 92:232 93:212 94:174 95:126 96:97 97:106 98:161 99:255 100:255 101:255 102:255 103:222 104:177 105:128 106:101 107:115 108:156 109:191 110:209 111:208 112:201 113:183 114:153 115:114 116:89 117:98 118:157 119:255 120:255 121:255 122:255 123:218 124:174 125:127 126:98 127:108 128:141 129:167 130:170 131:161 132:151 133:146 134:128 135:100 136:80 137:91 138:155 139:255 140:255 141:255 142:255 143:218 144:172 145:123 146:91 147:95 148:121 149:133 150:126 151:107 152:98 153:107 154:102 155:83 156:70 157:86 158:152 159:255 160:255 161:255 162:255 163:217 164:171 165:119 166:79 167:74 168:95 169:101 170:85 171:61 172:56 173:74 174:81 175:69 176:61 177:81 178:148 179:255 180:255 181:255 182:255 183:213 184:167 185:113 186:69 187:55 188:66 189:70 190:49 191:29 192:33 193:51 194:62 195:59 196:56 197:77 198:148 199:255 200:255 201:255 202:255 203:217 204:169 205:109 206:58 207:40 208:45 209:43 210:26 211:13 212:18 213:38 214:49 215:50 216:56 217:83 218:153 219:255 220:255 221:255 222:255 223:218 224:171 225:112 226:59 227:31 228:20 229:15 230:10 231:8 232:11 233:25 234:34 235:38 236:51 237:86 238:157 239:255 240:255 241:255 242:255 243:219 244:177 245:121 246:65 247:26 248:8 249:4 250:10 251:15 252:21 253:19 254:19 255:25 256:46 257:89 258:162 259:255 260:255 261:255 262:255 263:223 264:184 265:129 266:72 267:29 268:6 269:8 270:23 271:37 272:40 273:27 274:14 275:19 276:46 277:93 278:166 279:255 280:255 281:255 282:255 283:226 284:191 285:138 286:79 287:34 288:13 289:21 290:45 291:69 292:65 293:43 294:20 295:19 296:47 297:96 298:169 299:255 300:255 301:255 302:255 303:219 304:191 305:146 306:87 307:40 308:23 309:40 310:73 311:104 312:99 313:66 314:35 315:27 316:53 317:104 318:174 319:255 320:255 321:255 322:255 323:207 324:184 325:151 326:99 327:55 328:42 329:65 330:107 331:139 332:138 333:100 334:64 335:50 336:72 337:121 338:184 339:255 340:255 341:255 342:255 343:195 344:175 345:157 346:122 347:89 348:80 349:106 350:146 351:172 352:171 353:142 354:112 355:97 356:111 357:149 358:198 359:255 360:255 361:255 362:255 363:172 364:158 365:166 366:157 367:144 368:142 369:156 370:184 371:198 372:198 373:183 374:165 375:159 376:169 377:189 378:217 379:255 380:255 381:255 382:255 383:146 384:138 385:167 386:183 387:190 388:194 389:200 390:216 391:224 392:223 393:218 394:209 395:211 396:221 397:229 398:239 399:255 400:255 
-3.201667028549861e-07 1:255 2:255 3:220 4:222 5:234 6:244 7:252 8:254 9:250 10:245 11:231 12:221 13:219 14:212 15:183 16:148 17:122 18:141 19:255 20:255 21:255 22:255 23:220 24:205 25:193 26:187 27:197 28:212 29:225 30:232 31:230 32:221 33:212 34:197 35:174 36:151 37:134 38:156 39:255 40:255 41:255 42:255 43:215 44:178 45:153 46:137 47:139 48:157 49:175 50:199 51:213 52:205 53:188 54:168 55:144 56:123 57:114 58:149 59:255 60:255 61:255 62:255 63:204 64:158 65:123 66:97 67:91 68:107 69:130 70:165 71:185 72:178 73:164 74:136 75:109 76:89 77:86 78:137 79:255 80:255 81:255 82:255 83:199 84:148 85:106 86:73 87:58 88:67 89:91 90:128 91:155 92:158 93:140 94:110 95:81 96:65 97:70 98:130 99:255 100:255 101:255 102:255 103:201 104:150 105:105 106:66 107:41 108:38 109:60 110:97 111:128 112:139 113:118 114:88 115:60 116:50 117:66 118:131 119:255 120:255 121:255 122:255 123:207 124:160 125:115 126:72 127:38 128:22 129:37 130:73 131:103 132:114 133:95 134:67 135:43 136:44 137:71 138:137 139:255 140:255 141:255 142:255 143:213 144:169 145:126 146:83 147:45 148:21 149:22 150:49 151:79 152:85 153:69 154:47 155:36 156:48 157:81 158:146 159:255 160:255 161:255 162:255 163:214 164:175 165:139 166:99 167:60 168:29 169:14 170:25 171:50 172:55 173:43 174:29 175:33 176:60 177:97 178:157 179:255 180:255 181:255 182:255 183:221 184:187 185:158 186:124 187:84 188:45 189:13 190:7 191:18 192:22 193:16 194:21 195:43 196:77 197:114 198:170 199:255 200:255 201:255 202:255 203:235 204:214 205:183 206:144 207:103 208:61 209:23 210:3 211:4 212:6 213:9 214:28 215:60 216:97 217:132 218:179 219:255 220:255 221:255 222:255 223:246 224:233 225:209 226:173 227:129 228:83 229:39 230:9 231:2 232:4 233:14 234:44 235:81 236:121 237:155 238:192 239:255 240:255 241:255 242:255 243:251 244:245 245:227 246:193 247:151 248:107 249:60 250:22 251:6 252:8 253:31 254:68 255:108 256:143 257:169 258:202 259:255 260:255 261:255 262:255 263:254 264:251 265:239 266:213 267:174 268:129 269:82 270:39 271:12 272:18 273:47 274:88 275:131 276:164 277:185 278:210 279:255 280:255 281:255 282:255 283:255 284:254 285:247 286:228 287:191 288:144 289:99 290:54 291:20 292:26 293:61 294:106 295:148 296:182 297:199 298:213 299:255 300:255 301:255 302:255 303:249 304:251 305:249 306:234 307:201 308:155 309:109 310:62 311:29 312:32 313:68 314:115 315:158 316:193 317:211 318:220 319:255 320:255 321:255 322:255 323:232 324:241 325:246 326:232 327:203 328:161 329:115 330:67 331:34 332:35 333:67 334:115 335:161 336:201 337:223 338:231 339:255 340:255 341:255 342:255 343:206 344:224 345:241 346:232 347:206 348:164 349:123 350:76 351:42 352:38 353:66 354:113 355:163 356:206 357:231 358:238 359:255 360:255 361:255 362:255 363:180 364:199 365:235 366:239 367:215 368:174 369:136 370:93 371:61 372:52 373:77 374:121 375:166 376:208 377:234 378:243 379:255 380:255 381:255 382:255 383:159 384:161 385:212 386:238 387:228 388:196 389:153 390:112 391:88 392:81 393:97 394:134 395:177 396:217 397:241 398:248 399:255 400:255 
-2.793349311933884e-08 1:255 2:255 3:242 4:242 5:248 6:252 7:253 8:255 9:255 10:252 11:244 12:238 13:224 14:205 15:181 16:154 17:129 18:149 19:255 20:255 21:255 22:255 23:242 24:231 25:222 26:221 27:225 28:229 29:240 30:239 31:238 32:237 33:227 34:211 35:188 36:162 37:144 38:168 39:255 40:255 41:255 42:255 43:225 44:199 45:179 46:168 47:170 48:182 49:200 50:214 51:224 52:227 53:215 54:189 55:163 56:142 57:130 58:162 59:255 60:255 61:255 62:255 63:204 64:165 65:138 66:122 67:123 68:136 69:160 70:185 71:204 72:206 73:188 74:155 75:127 76:108 77:102 78:145 79:255 80:255 81:255 82:255 83:190 84:142 85:110 86:88 87:82 88:94 89:122 90:154 91:180 92:181 93:157 94:122 95:92 96:74 97:75 98:129 99:255 100:255 101:255 102:255 103:189 104:136 105:99 106:69 107:54 108:61 109:87 110:122 111:149 112:152 113:128 114:94 115:65 116:52 117:60 118:122 119:255 120:255 121:255 122:255 123:196 124:144 125:102 126:66 127:42 128:38 129:58 130:90 131:116 132:119 133:99 134:70 135:47 136:43 137:60 138:123 139:255 140:255 141:255 142:255 143:206 144:158 145:115 146:75 147:42 148:25 149:34 150:61 151:83 152:84 153:69 154:49 155:36 156:44 157:70 158:133 159:255 160:255 161:255 162:255 163:220 164:175 165:132 166:92 167:54 168:26 169:20 170:35 171:51 172:52 173:41 174:30 175:34 176:56 177:87 178:145 179:255 180:255 181:255 182:255 183:229 184:195 185:153 186:111 187:73 188:38 189:12 190:12 191:21 192:21 193:17 194:20 195:40 196:71 197:103 198:157 199:255 200:255 201:255 202:255 203:241 204:210 205:169 206:128 207:88 208:48 209:16 210:6 211:7 212:7 213:9 214:25 215:56 216:91 217:123 218:171 219:255 220:255 221:255 222:255 223:246 224:221 225:187 226:147 227:106 228:66 229:26 230:7 231:2 232:2 233:12 234:37 235:73 236:112 237:141 238:181 239:255 240:255 241:255 242:255 243:251 244:237 245:203 246:163 247:126 248:86 249:45 250:13 251:3 252:6 253:22 254:56 255:93 256:128 257:158 258:195 259:255 260:255 261:255 262:255 263:254 264:246 265:218 266:178 267:140 268:105 269:68 270:31 271:9 272:12 273:36 274:74 275:114 276:149 277:175 278:205 279:255 280:255 281:255 282:255 283:254 284:250 285:227 286:192 287:158 288:125 289:89 290:49 291:18 292:21 293:49 294:89 295:129 296:163 297:184 298:208 299:255 300:255 301:255 302:255 303:250 304:251 305:236 306:209 307:178 308:143 309:104 310:63 311:27 312:27 313:57 314:98 315:138 316:171 317:189 318:208 319:255 320:255 321:255 322:255 323:240 324:246 325:245 326:227 327:196 328:157 329:115 330:73 331:34 332:30 333:59 334:101 335:143 336:176 337:192 338:208 339:255 340:255 341:255 342:255 343:224 344:236 345:246 346:234 347:208 348:170 349:123 350:80 351:43 352:38 353:63 354:100 355:141 356:176 357:194 358:210 359:255 360:255 361:255 362:255 363:204 364:217 365:238 366:235 367:215 368:181 369:135 370:90 371:57 372:51 373:74 374:107 375:143 376:177 377:201 378:219 379:255 380:255 381:255 382:255 383:182 384:191 385:224 386:237 387:226 388:193 389:148 390:110 391:83 392:76 393:92 394:120 395:154 396:187 397:208 398:223 399:255 400:255 
