svm_type c_svc
kernel_type linear
nr_class 2
total_sv 16
rho 1.51163
label 1 -1
nr_sv 5 11
SV
1.549368664626528e-06 1:255 2:255 3:255 4:252 5:249 6:247 7:246 8:246 9:245 10:239 11:246 12:240 13:222 14:195 15:169 16:147 17:130 18:155 19:255 20:255 21:255 22:255 23:255 24:255 25:251 26:244 27:239 28:238 29:237 30:231 31:230 32:229 33:226 34:213 35:193 36:176 37:167 38:187 39:255 40:255 41:255 42:255 43:255 44:253 45:249 46:239 47:224 48:212 49:207 50:202 51:202 52:205 53:212 54:216 55:214 56:209 57:205 58:218 59:255 60:255 61:255 62:255 63:253 64:249 65:240 66:221 67:197 68:178 69:167 70:162 71:164 72:172 73:187 74:204 75:218 76:226 77:229 78:236 79:255 80:255 81:255 82:255 83:250 84:241 85:223 86:196 87:168 88:145 89:127 90:118 91:124 92:136 93:159 94:184 95:207 96:224 97:233 98:241 99:255 100:255 101:255 102:255 103:245 104:228 105:204 106:175 107:144 108:114 109:86 110:70 111:81 112:103 113:132 114:162 115:190 116:211 117:224 118:235 119:255 120:255 121:255 122:255 123:239 124:217 125:189 126:159 127:125 128:86 129:45 130:26 131:36 132:73 133:108 134:143 135:174 136:198 137:212 138:225 139:255 140:255 141:255 142:255 143:236 144:210 145:181 146:147 147:110 148:65 149:19 150:3 151:7 152:45 153:90 154:128 155:160 156:186 157:201 158:217 159:255 160:255 161:255 162:255 163:233 164:205 165:173 166:138 167:100 168:54 169:11 170:2 171:4 172:26 173:72 174:113 175:147 176:176 177:193 178:212 179:255 180:255 181:255 182:255 183:225 184:195 185:165 186:131 187:91 188:46 189:13 190:8 191:10 192:20 193:61 194:101 195:136 196:166 197:183 198:204 199:255 200:255 201:255 202:255 203:219 204:187 205:157 206:121 207:79 208:40 209:26 210:36 211:39 212:37 213:55 214:90 215:125 216:155 217:175 218:198 219:255 220:255 221:255 222:255 223:214 224:181 225:149 226:111 227:70 228:43 229:51 230:69 231:71 232:57 233:54 234:77 235:110 236:143 237:168 238:195 239:255 240:255 241:255 242:255 243:211 244:176 245:141 246:102 247:64 248:46 249:66 250:91 251:91 252:70 253:52 254:67 255:100 256:135 257:162 258:193 259:255 260:255 261:255 262:255 263:209 264:170 265:134 266:92 267:54 268:43 269:72 270:99 271:99 272:73 273:44 274:52 275:87 276:125 277:154 278:190 279:255 280:255 281:255 282:255 283:205 284:164 285:126 286:81 287:41 288:33 289:65 290:88 291:88 292:64 293:31 294:32 295:68 296:111 297:144 298:186 299:255 300:255 301:255 302:255 303:199 304:156 305:118 306:69 307:26 308:19 309:41 310:60 311:60 312:40 313:17 314:16 315:49 316:95 317:133 318:180 319:255 320:255 321:255 322:255 323:192 324:146 325:107 326:58 327:18 328:10 329:21 330:35 331:37 332:25 333:14 334:14 335:39 336:81 337:121 338:173 339:255 340:255 341:255 342:255 343:183 344:133 345:95 346:52 347:22 348:22 349:34 350:46 351:51 352:46 353:37 354:29 355:41 356:73 357:111 358:165 359:255 360:255 361:255 362:255 363:172 364:123 365:86 366:52 367:41 368:59 369:84 370:96 371:103 372:96 373:85 374:66 375:58 376:74 377:105 378:161 379:255 380:255 381:255 382:255 383:163 384:115 385:83 386:62 387:68 388:96 389:121 390:138 391:145 392:137 393:121 394:100 395:87 396:91 397:112 398:162 399:255 400:255 
5.29088641346819e-06 1:255 2:255 3:251 4:253 5:255 6:254 7:251 8:248 9:246 10:246 11:243 12:235 13:211 14:186 15:165 16:149 17:141 18:168 19:255 20:255 21:255 22:255 23:253 24:253 25:250 26:244 27:234 28:221 29:216 30:220 31:226 32:229 33:220 34:207 35:197 36:188 37:181 38:197 39:255 40:255 41:255 42:255 43:254 44:248 45:235 46:214 47:193 48:178 49:171 50:176 51:188 52:200 53:213 54:221 55:224 56:222 57:214 58:217 59:255 60:255 61:255 62:255 63:251 64:237 65:210 66:178 67:151 68:135 69:128 70:134 71:149 72:173 73:198 74:220 75:234 76:236 77:227 78:224 79:255 80:255 81:255 82:255 83:247 84:222 85:183 86:145 87:116 88:96 89:85 90:97 91:120 92:147 93:181 94:212 95:233 96:240 97:229 98:221 99:255 100:255 101:255 102:255 103:240 104:206 105:162 106:122 107:88 108:58 109:44 110:59 111:95 112:127 113:165 114:200 115:227 116:239 117:227 118:217 119:255 120:255 121:255 122:255 123:231 124:191 125:146 126:104 127:65 128:28 129:15 130:26 131:70 132:111 133:150 134:189 135:221 136:236 137:224 138:215 139:255 140:255 141:255 142:255 143:219 144:175 145:131 146:89 147:49 148:16 149:5 150:10 151:50 152:98 153:136 154:179 155:215 156:231 157:220 158:212 159:255 160:255 161:255 162:255 163:211 164:161 165:119 166:80 167:43 168:18 169:10 170:10 171:37 172:87 173:127 174:169 175:205 176:224 177:216 178:208 179:255 180:255 181:255 182:255 183:200 184:150 185:111 186:72 187:42 188:32 189:26 190:20 191:32 192:76 193:117 194:158 195:194 196:215 197:211 198:206 199:255 200:255 201:255 202:255 203:190 204:139 205:101 206:69 207:54 208:58 209:57 210:42 211:37 212:66 213:104 214:144 215:182 216:207 217:205 218:203 219:255 220:255 221:255 222:255 223:176 224:122 225:86 226:63 227:64 228:76 229:78 230:61 231:38 232:55 233:94 234:132 235:170 236:197 237:196 238:199 239:255 240:255 241:255 242:255 243:167 244:112 245:74 246:55 247:63 248:83 249:84 250:63 251:35 252:40 253:82 254:122 255:158 256:185 257:188 258:196 259:255 260:255 261:255 262:255 263:157 264:95 265:57 266:40 267:51 268:69 269:70 270:50 271:21 272:21 273:63 274:105 275:143 276:172 277:182 278:194 279:255 280:255 281:255 282:255 283:146 284:78 285:39 286:23 287:30 288:42 289:44 290:26 291:8 292:8 293:43 294:89 295:130 296:161 297:174 298:191 299:255 300:255 301:255 302:255 303:138 304:65 305:29 306:17 307:23 308:31 309:29 310:15 311:5 312:3 313:27 314:76 315:119 316:149 317:165 318:188 319:255 320:255 321:255 322:255 323:129 324:58 325:36 326:37 327:47 328:54 329:50 330:36 331:22 332:10 333:21 334:66 335:109 336:140 337:157 338:183 339:255 340:255 341:255 342:255 343:123 344:62 345:60 346:76 347:92 348:100 349:98 350:83 351:61 352:36 353:32 354:62 355:102 356:134 357:151 358:180 359:255 360:255 361:255 362:255 363:129 364:81 365:90 366:111 367:128 368:139 369:137 370:126 371:104 372:79 373:62 374:76 375:104 376:133 377:152 378:181 379:255 380:255 381:255 382:255 383:140 384:107 385:117 386:136 387:157 388:171 389:169 390:154 391:134 392:113 393:99 394:100 395:117 396:142 397:161 398:190 399:255 400:255 
2.235721129798378e-06 1:255 2:255 3:254 4:254 5:255 6:252 7:244 8:234 9:235 10:241 11:249 12:249 13:227 14:197 15:172 16:156 17:149 18:173 19:255 20:255 21:255 22:255 23:254 24:253 25:248 26:232 27:213 28:199 29:193 30:199 31:206 32:217 33:223 34:210 35:196 36:188 37:185 38:202 39:255 40:255 41:255 42:255 43:254 44:244 45:224 46:198 47:174 48:160 49:151 50:153 51:165 52:181 53:202 54:214 55:215 56:215 57:215 58:223 59:255 60:255 61:255 62:255 63:248 64:229 65:201 66:169 67:142 68:122 69:112 70:113 71:130 72:152 73:179 74:206 75:223 76:232 77:230 78:229 79:255 80:255 81:255 82:255 83:238 84:214 85:182 86:146 87:113 88:84 89:68 90:73 91:97 92:129 93:162 94:195 95:222 96:237 97:233 98:226 99:255 100:255 101:255 102:255 103:226 104:197 105:164 106:127 107:87 108:47 109:27 110:33 111:67 112:108 113:147 114:185 115:219 116:239 117:235 118:226 119:255 120:255 121:255 122:255 123:216 124:181 125:147 126:110 127:64 128:21 129:6 130:8 131:41 132:91 133:133 134:174 135:212 136:239 137:241 138:232 139:255 140:255 141:255 142:255 143:209 144:169 145:133 146:94 147:50 148:14 149:5 150:5 151:25 152:79 153:122 154:161 155:200 156:232 157:244 158:242 159:255 160:255 161:255 162:255 163:201 164:158 165:121 166:81 167:45 168:23 169:17 170:12 171:22 172:67 173:111 174:150 175:187 176:221 177:243 178:251 179:255 180:255 181:255 182:255 183:194 184:146 185:109 186:73 187:48 188:45 189:50 190:33 191:28 192:59 193:99 194:140 195:179 196:214 197:239 198:251 199:255 200:255 201:255 202:255 203:188 204:139 205:98 206:65 207:55 208:68 209:76 210:63 211:42 212:53 213:89 214:130 215:168 216:204 217:234 218:251 219:255 220:255 221:255 222:255 223:179 224:125 225:86 226:60 227:59 228:79 229:91 230:76 231:44 232:36 233:73 234:115 235:154 236:192 237:225 238:245 239:255 240:255 241:255 242:255 243:169 244:113 245:74 246:50 247:54 248:77 249:86 250:72 251:33 252:21 253:57 254:101 255:142 256:180 257:214 258:241 259:255 260:255 261:255 262:255 263:160 264:97 265:54 266:31 267:40 268:63 269:69 270:51 271:19 272:9 273:39 274:86 275:130 276:168 277:201 278:229 279:255 280:255 281:255 282:255 283:149 284:80 285:37 286:17 287:24 288:42 289:50 290:33 291:11 292:4 293:24 294:71 295:118 296:156 297:188 298:220 299:255 300:255 301:255 302:255 303:140 304:67 305:31 306:19 307:28 308:43 309:51 310:39 311:20 312:10 313:19 314:61 315:107 316:146 317:178 318:212 319:255 320:255 321:255 322:255 323:132 324:61 325:41 326:44 327:60 328:76 329:80 330:73 331:54 332:36 333:30 334:59 335:101 336:140 337:170 338:203 339:255 340:255 341:255 342:255 343:128 344:68 345:67 346:87 347:107 348:118 349:121 350:115 351:101 352:78 353:57 354:67 355:100 356:136 357:164 358:197 359:255 360:255 361:255 362:255 363:135 364:89 365:98 366:120 367:141 368:155 369:158 370:150 371:132 372:109 373:90 374:89 375:110 376:141 377:167 378:198 379:255 380:255 381:255 382:255 383:147 384:114 385:127 386:149 387:172 388:187 389:189 390:176 391:162 392:136 393:119 394:117 395:128 396:151 397:175 398:207 399:255 400:255 
3.281568822190035e-06 1:255 2:255 3:214 4:212 5:232 6:248 7:255 8:254 9:252 10:250 11:242 12:237 13:223 14:201 15:174 16:153 17:139 18:161 19:255 20:255 21:255 22:255 23:220 24:220 25:238 26:252 27:254 28:250 29:242 30:230 31:223 32:222 33:220 34:207 35:188 36:173 37:163 38:180 39:255 40:255 41:255 42:255 43:227 44:231 45:245 46:251 47:245 48:229 49:213 50:199 51:190 52:189 53:192 54:193 55:191 56:189 57:187 58:203 59:255 60:255 61:255 62:255 63:237 64:241 65:249 66:243 67:225 68:199 69:178 70:165 71:157 72:155 73:160 74:169 75:179 76:189 77:198 78:215 79:255 80:255 81:255 82:255 83:241 84:245 85:248 86:232 87:203 88:171 89:146 90:131 91:123 92:121 93:129 94:144 95:162 96:181 97:199 98:220 99:255 100:255 101:255 102:255 103:241 104:245 105:244 106:221 107:185 108:149 109:120 110:98 111:83 112:85 113:101 114:122 115:146 116:170 117:194 118:220 119:255 120:255 121:255 122:255 123:241 124:243 125:238 126:210 127:170 128:134 129:100 130:67 131:42 132:45 133:72 134:102 135:132 136:159 137:185 138:217 139:255 140:255 141:255 142:255 143:241 144:239 145:228 146:197 147:157 148:123 149:89 150:44 151:15 152:13 153:40 154:83 155:118 156:147 157:175 158:210 159:255 160:255 161:255 162:255 163:241 164:235 165:220 166:188 167:148 168:114 169:79 170:34 171:10 172:4 173:21 174:65 175:105 176:136 177:164 178:199 179:255 180:255 181:255 182:255 183:240 184:230 185:212 186:180 187:142 188:107 189:69 190:27 191:11 192:9 193:15 194:50 195:90 196:126 197:155 198:193 199:255 200:255 201:255 202:255 203:234 204:222 205:200 206:169 207:136 208:100 209:67 210:34 211:33 212:28 213:23 214:42 215:79 216:115 217:144 218:189 219:255 220:255 221:255 222:255 223:229 224:214 225:192 226:161 227:129 228:95 229:61 230:47 231:60 232:62 233:48 234:46 235:69 236:102 237:134 238:181 239:255 240:255 241:255 242:255 243:223 244:206 245:184 246:154 247:122 248:88 249:55 250:60 251:78 252:83 253:66 254:45 255:54 256:86 257:122 258:174 259:255 260:255 261:255 262:255 263:217 264:198 265:176 266:145 267:112 268:78 269:51 270:63 271:86 272:89 273:70 274:39 275:39 276:71 277:110 278:162 279:255 280:255 281:255 282:255 283:213 284:189 285:167 286:136 287:103 288:67 289:39 290:52 291:75 292:74 293:53 294:26 295:21 296:51 297:93 298:153 299:255 300:255 301:255 302:255 303:206 304:180 305:158 306:128 307:93 308:53 309:23 310:31 311:45 312:44 313:28 314:11 315:7 316:30 317:74 318:144 319:255 320:255 321:255 322:255 323:197 324:171 325:149 326:120 327:83 328:40 329:15 330:18 331:26 332:27 333:18 334:9 335:5 336:19 337:56 338:133 339:255 340:255 341:255 342:255 343:189 344:159 345:139 346:112 347:75 348:36 349:24 350:35 351:48 352:51 353:46 354:35 355:23 356:23 357:46 358:122 359:255 360:255 361:255 362:255 363:177 364:147 365:129 366:101 367:67 368:42 369:53 370:79 371:95 372:101 373:98 374:86 375:66 376:48 377:52 378:119 379:255 380:255 381:255 382:255 383:167 384:135 385:122 386:96 387:69 388:62 389:87 390:108 391:123 392:129 393:127 394:119 395:103 396:85 397:75 398:123 399:255 400:255 
2.413709161407416e-06 1:255 2:255 3:239 4:242 5:249 6:251 7:245 8:232 9:224 10:218 11:212 12:217 13:223 14:217 15:209 16:204 17:203 18:219 19:255 20:255 21:255 22:255 23:248 24:249 25:253 26:251 27:240 28:219 29:193 30:181 31:175 32:178 33:189 34:197 35:206 36:213 37:218 38:230 39:255 40:255 41:255 42:255 43:251 44:253 45:255 46:247 47:223 48:188 49:160 50:143 51:135 52:140 53:153 54:173 55:191 56:204 57:212 58:225 59:255 60:255 61:255 62:255 63:250 64:251 65:251 66:233 67:197 68:160 69:128 70:106 71:94 72:101 73:121 74:148 75:173 76:192 77:203 78:220 79:255 80:255 81:255 82:255 83:249 84:248 85:244 86:219 87:178 88:139 89:101 90:68 91:52 92:60 93:90 94:125 95:156 96:182 97:198 98:217 99:255 100:255 101:255 102:255 103:246 104:246 105:238 106:208 107:165 108:123 109:82 110:40 111:20 112:26 113:60 114:101 115:139 116:171 117:193 118:215 119:255 120:255 121:255 122:255 123:242 124:241 125:229 126:197 127:154 128:112 129:69 130:27 131:8 132:8 133:36 134:79 135:122 136:158 137:184 138:212 139:255 140:255 141:255 142:255 143:242 144:234 145:216 146:185 147:145 148:102 149:60 150:25 151:16 152:11 153:24 154:62 155:105 156:141 157:169 158:203 159:255 160:255 161:255 162:255 163:243 164:231 165:207 166:174 167:136 168:94 169:56 170:36 171:35 172:29 173:26 174:48 175:86 176:124 177:154 178:192 179:255 180:255 181:255 182:255 183:249 184:232 185:202 186:165 187:129 188:91 189:58 190:52 191:63 192:57 193:42 194:43 195:72 196:111 197:142 198:184 199:255 200:255 201:255 202:255 203:243 204:225 205:197 206:162 207:126 208:89 209:60 210:69 211:84 212:84 213:61 214:39 215:53 216:89 217:126 218:177 219:255 220:255 221:255 222:255 223:240 224:228 225:202 226:163 227:123 228:85 229:54 230:72 231:95 232:96 233:70 234:35 235:31 236:64 237:110 238:167 239:255 240:255 241:255 242:255 243:236 244:228 245:201 246:161 247:119 248:75 249:46 250:63 251:83 252:83 253:58 254:26 255:16 256:45 257:89 258:151 259:255 260:255 261:255 262:255 263:230 264:219 265:193 266:152 267:109 268:66 269:35 270:41 271:54 272:52 273:32 274:12 275:6 276:25 277:64 278:137 279:255 280:255 281:255 282:255 283:223 284:206 285:181 286:142 287:99 288:56 289:21 290:19 291:28 292:29 293:19 294:7 295:3 296:12 297:43 298:123 299:255 300:255 301:255 302:255 303:214 304:193 305:171 306:133 307:90 308:47 309:17 310:21 311:34 312:44 313:43 314:33 315:23 316:18 317:31 318:108 319:255 320:255 321:255 322:255 323:202 324:180 325:159 326:124 327:80 328:42 329:32 330:51 331:70 332:87 333:90 334:81 335:65 336:48 337:44 338:106 339:255 340:255 341:255 342:255 343:188 344:163 345:146 346:115 347:77 348:50 349:60 350:90 351:112 352:125 353:130 354:124 355:110 356:93 357:83 358:129 359:255 360:255 361:255 362:255 363:172 364:148 365:136 366:112 367:89 368:77 369:92 370:122 371:144 372:157 373:163 374:158 375:146 376:130 377:121 378:156 379:255 380:255 381:255 382:255 383:154 384:130 385:129 386:116 387:105 388:106 389:121 390:144 391:167 392:182 393:189 394:183 395:173 396:164 397:160 398:184 399:255 400:255 
-2.014996530217227e-06 1:255 2:255 3:249 4:250 5:254 6:255 7:253 8:249 9:246 10:240 11:242 12:240 13:237 14:233 15:218 16:195 17:170 18:176 19:255 20:255 21:255 22:255 23:249 24:250 25:253 26:253 27:247 28:240 29:235 30:231 31:227 32:231 33:231 34:230 35:225 36:215 37:205 38:211 39:255 40:255 41:255 42:255 43:249 44:249 45:250 46:244 47:233 48:221 49:211 50:202 51:197 52:200 53:204 54:210 55:216 56:220 57:222 58:231 59:255 60:255 61:255 62:255 63:247 64:242 65:238 66:227 67:208 68:187 69:169 70:152 71:143 72:146 73:155 74:173 75:192 76:208 77:223 78:237 79:255 80:255 81:255 82:255 83:243 84:232 85:220 86:200 87:169 88:136 89:112 90:91 91:76 92:82 93:96 94:120 95:149 96:181 97:210 98:232 99:255 100:255 101:255 102:255 103:236 104:218 105:194 106:159 107:119 108:83 109:61 110:43 111:34 112:43 113:56 114:76 115:109 116:153 117:195 118:227 119:255 120:255 121:255 122:255 123:224 124:196 125:158 126:112 127:72 128:51 129:44 130:41 131:48 132:57 133:60 134:70 135:98 136:144 137:190 138:225 139:255 140:255 141:255 142:255 143:210 144:166 145:117 146:70 147:45 148:49 149:68 150:88 151:107 152:109 153:103 154:104 155:123 156:158 157:195 158:225 159:255 160:255 161:255 162:255 163:196 164:136 165:83 166:47 167:44 168:72 169:105 170:133 171:151 172:152 173:146 174:147 175:161 176:183 177:203 178:225 179:255 180:255 181:255 182:255 183:188 184:118 185:63 186:39 187:54 188:91 189:126 190:144 191:159 192:159 193:159 194:165 195:175 196:191 197:206 198:221 199:255 200:255 201:255 202:255 203:180 204:105 205:49 206:35 207:63 208:101 209:123 210:124 211:112 212:110 213:114 214:127 215:152 216:178 217:196 218:217 219:255 220:255 221:255 222:255 223:171 224:98 225:51 226:41 227:70 228:104 229:112 230:97 231:73 232:58 233:57 234:71 235:105 236:148 237:182 238:210 239:255 240:255 241:255 242:255 243:165 244:93 245:52 246:49 247:77 248:109 249:117 250:97 251:64 252:31 253:18 254:26 255:69 256:129 257:172 258:203 259:255 260:255 261:255 262:255 263:162 264:89 265:49 266:50 267:84 268:119 269:133 270:122 271:91 272:49 273:14 274:11 275:55 276:118 277:163 278:199 279:255 280:255 281:255 282:255 283:164 284:91 285:44 286:40 287:77 288:120 289:147 290:153 291:123 292:78 293:30 294:16 295:54 296:114 297:160 298:197 299:255 300:255 301:255 302:255 303:175 304:104 305:50 306:31 307:57 308:102 309:141 310:157 311:135 312:90 313:34 314:15 315:52 316:115 317:163 318:200 319:255 320:255 321:255 322:255 323:188 324:125 325:69 326:33 327:35 328:70 329:104 330:122 331:112 332:73 333:23 334:9 335:51 336:118 337:169 338:205 339:255 340:255 341:255 342:255 343:197 344:145 345:96 346:51 347:28 348:34 349:49 350:66 351:61 352:36 353:10 354:12 355:58 356:125 357:177 358:212 359:255 360:255 361:255 362:255 363:205 364:169 365:131 366:88 367:50 368:24 369:13 370:15 371:15 372:8 373:6 374:28 375:77 376:137 377:184 378:217 379:255 380:255 381:255 382:255 383:211 384:188 385:168 386:134 387:98 388:70 389:45 390:33 391:33 392:21 393:30 394:62 395:107 396:155 397:193 398:221 399:255 400:255 
-3.023525014231704e-06 1:255 2:255 3:223 4:240 5:251 6:248 7:233 8:196 9:164 10:160 11:165 12:174 13:176 14:176 15:176 16:169 17:155 18:173 19:255 20:255 21:255 22:255 23:246 24:247 25:229 26:197 27:169 28:147 29:125 30:125 31:147 32:160 33:183 34:197 35:201 36:195 37:182 38:192 39:255 40:255 41:255 42:255 43:250 44:228 45:194 46:160 47:131 48:105 49:89 50:91 51:112 52:145 53:182 54:204 55:225 56:224 57:204 58:213 59:255 60:255 61:255 62:255 63:250 64:215 65:173 66:136 67:101 68:71 69:58 70:65 71:91 72:127 73:169 74:217 75:245 76:245 77:225 78:218 79:255 80:255 81:255 82:255 83:250 84:212 85:165 86:124 87:86 88:53 89:34 90:47 91:77 92:115 93:162 94:223 95:252 96:252 97:233 98:218 99:255 100:255 101:255 102:255 103:252 104:213 105:163 106:120 107:82 108:46 109:24 110:38 111:70 112:111 113:167 114:227 115:253 116:252 117:233 118:218 119:255 120:255 121:255 122:255 123:253 124:213 125:163 126:120 127:80 128:44 129:23 130:35 131:70 132:116 133:179 134:235 135:254 136:251 137:234 138:220 139:255 140:255 141:255 142:255 143:243 144:206 145:161 146:119 147:80 148:44 149:23 150:35 151:71 152:125 153:188 154:237 155:250 156:248 157:239 158:230 159:255 160:255 161:255 162:255 163:220 164:186 165:154 166:119 167:80 168:44 169:23 170:35 171:73 172:124 173:188 174:233 175:248 176:248 177:248 178:250 179:255 180:255 181:255 182:255 183:208 184:174 185:148 186:116 187:80 188:43 189:23 190:35 191:70 192:117 193:185 194:233 195:248 196:248 197:248 198:250 199:255 200:255 201:255 202:255 203:208 204:171 205:146 206:116 207:78 208:39 209:23 210:35 211:70 212:111 213:174 214:229 215:248 216:248 217:248 218:250 219:255 220:255 221:255 222:255 223:208 224:171 225:146 226:113 227:72 228:35 229:17 230:35 231:70 232:111 233:163 234:224 235:248 236:248 237:248 238:250 239:255 240:255 241:255 242:255 243:208 244:171 245:142 246:109 247:70 248:33 249:15 250:35 251:70 252:116 253:172 254:209 255:236 256:248 257:248 258:250 259:255 260:255 261:255 262:255 263:200 264:168 265:141 266:107 267:70 268:33 269:14 270:30 271:66 272:108 273:157 274:189 275:206 276:216 277:221 278:229 279:255 280:255 281:255 282:255 283:189 284:163 285:141 286:107 287:70 288:32 289:11 290:25 291:60 292:95 293:124 294:150 295:163 296:170 297:180 298:206 299:255 300:255 301:255 302:255 303:179 304:155 305:141 306:110 307:69 308:30 309:8 310:15 311:43 312:73 313:86 314:102 315:117 316:125 317:140 318:185 319:255 320:255 321:255 322:255 323:163 324:143 325:139 326:111 327:69 328:30 329:5 330:4 331:18 332:38 333:48 334:60 335:74 336:88 337:108 338:163 339:255 340:255 341:255 342:255 343:143 344:128 345:131 346:107 347:72 348:34 349:8 350:2 351:6 352:11 353:22 354:31 355:45 356:65 357:89 358:146 359:255 360:255 361:255 362:255 363:131 364:106 365:116 366:107 367:82 368:50 369:25 370:13 371:14 372:17 373:25 374:30 375:41 376:63 377:92 378:149 379:255 380:255 381:255 382:255 383:110 384:85 385:102 386:103 387:92 388:72 389:59 390:51 391:51 392:54 393:59 394:61 395:70 396:87 397:114 398:168 399:255 400:255 
-1.732067433200502e-06 1:255 2:255 3:205 4:226 5:251 6:251 7:234 8:209 9:199 10:200 11:228 12:251 13:255 14:249 15:214 16:168 17:135 18:152 19:255 20:255 21:255 22:255 23:212 24:229 25:239 26:211 27:175 28:156 29:151 30:157 31:181 32:225 33:249 34:249 35:225 36:196 37:172 38:180 39:255 40:255 41:255 42:255 43:230 44:229 45:208 46:169 47:135 48:113 49:109 50:116 51:148 52:191 53:236 54:247 55:234 56:216 57:204 58:213 59:255 60:255 61:255 62:255 63:236 64:222 65:186 66:140 67:106 68:83 69:76 70:87 71:115 72:157 73:209 74:231 75:238 76:237 77:230 78:231 79:255 80:255 81:255 82:255 83:228 84:206 85:170 86:125 87:88 88:63 89:54 90:67 91:95 92:139 93:190 94:221 95:238 96:248 97:247 98:243 99:255 100:255 101:255 102:255 103:218 104:188 105:156 106:117 107:79 108:51 109:37 110:55 111:87 112:130 113:180 114:217 115:238 116:250 117:252 118:248 119:255 120:255 121:255 122:255 123:213 124:179 125:149 126:113 127:76 128:45 129:24 130:48 131:82 132:124 133:174 134:219 135:243 136:252 137:250 138:244 139:255 140:255 141:255 142:255 143:213 144:179 145:148 146:111 147:75 148:43 149:21 150:39 151:77 152:118 153:170 154:224 155:251 156:254 157:243 158:232 159:255 160:255 161:255 162:255 163:213 164:179 165:148 166:111 167:73 168:42 169:20 170:37 171:73 172:114 173:160 174:219 175:249 176:249 177:232 178:221 179:255 180:255 181:255 182:255 183:213 184:178 185:147 186:111 187:73 188:42 189:20 190:39 191:69 192:111 193:155 194:207 195:238 196:238 197:218 198:213 199:255 200:255 201:255 202:255 203:205 204:171 205:142 206:108 207:73 208:42 209:20 210:36 211:69 212:111 213:151 214:195 215:222 216:229 217:215 218:205 219:255 220:255 221:255 222:255 223:205 224:171 225:142 226:106 227:69 228:38 229:20 230:36 231:69 232:108 233:150 234:187 235:208 236:215 237:205 238:205 239:255 240:255 241:255 242:255 243:197 244:167 245:142 246:106 247:69 248:37 249:17 250:36 251:67 252:107 253:146 254:184 255:206 256:212 257:204 258:205 259:255 260:255 261:255 262:255 263:188 264:161 265:138 266:104 267:67 268:33 269:14 270:32 271:64 272:103 273:140 274:169 275:183 276:191 277:193 278:205 279:255 280:255 281:255 282:255 283:181 284:154 285:133 286:99 287:63 288:29 289:12 290:26 291:61 292:96 293:125 294:144 295:153 296:160 297:167 298:191 299:255 300:255 301:255 302:255 303:174 304:148 305:129 306:95 307:58 308:24 309:8 310:18 311:55 312:78 313:100 314:112 315:118 316:124 317:134 318:172 319:255 320:255 321:255 322:255 323:163 324:138 325:125 326:92 327:53 328:20 329:5 330:9 331:35 332:49 333:69 334:77 335:80 336:88 337:104 338:154 339:255 340:255 341:255 342:255 343:149 344:126 345:121 346:93 347:57 348:23 349:3 350:2 351:9 352:21 353:37 354:44 355:50 356:62 357:81 358:138 359:255 360:255 361:255 362:255 363:135 364:113 365:116 366:98 367:69 368:38 369:11 370:6 371:8 372:11 373:15 374:21 375:33 376:50 377:73 378:135 379:255 380:255 381:255 382:255 383:124 384:97 385:109 386:102 387:81 388:56 389:41 390:25 391:25 392:28 393:33 394:44 395:53 396:61 397:79 398:139 399:255 400:255 
-2.12642886780128e-06 1:255 2:255 3:248 4:251 5:251 6:250 7:250 8:251 9:253 10:255 11:255 12:247 13:237 14:226 15:203 16:173 17:139 18:146 19:255 20:255 21:255 22:255 23:248 24:247 25:244 26:242 27:242 28:244 29:248 30:253 31:251 32:243 33:235 34:229 35:218 36:202 37:180 38:185 39:255 40:255 41:255 42:255 43:243 44:237 45:233 46:229 47:229 48:232 49:237 50:241 51:239 52:234 53:228 54:222 55:218 56:213 57:204 58:211 59:255 60:255 61:255 62:255 63:238 64:224 65:213 66:202 67:198 68:205 69:217 70:227 71:226 72:218 73:209 74:199 75:197 76:201 77:205 78:219 79:255 80:255 81:255 82:255 83:232 84:209 85:186 86:165 87:157 88:168 89:186 90:208 91:208 92:191 93:175 94:161 95:160 96:170 97:186 98:213 99:255 100:255 101:255 102:255 103:227 104:194 105:156 106:123 107:111 108:122 109:149 110:181 111:183 112:164 113:134 114:112 115:111 116:133 117:164 118:202 119:255 120:255 121:255 122:255 123:223 124:184 125:135 126:90 127:69 128:79 129:113 130:152 131:158 132:135 133:95 134:68 135:68 136:100 137:145 138:192 139:255 140:255 141:255 142:255 143:219 144:177 145:127 146:75 147:44 148:49 149:80 150:120 151:134 152:100 153:62 154:43 155:48 156:81 157:129 158:186 159:255 160:255 161:255 162:255 163:214 164:171 165:119 166:64 167:31 168:29 169:47 170:76 171:89 172:68 173:44 174:31 175:40 176:76 177:124 178:181 179:255 180:255 181:255 182:255 183:211 184:165 185:110 186:55 187:22 188:12 189:21 190:39 191:44 192:36 193:22 194:21 195:36 196:71 197:118 198:179 199:255 200:255 201:255 202:255 203:206 204:157 205:98 206:45 207:18 208:9 209:6 210:12 211:16 212:16 213:12 214:14 215:29 216:62 217:109 218:174 219:255 220:255 221:255 222:255 223:202 224:151 225:92 226:45 227:24 228:14 229:4 230:3 231:5 232:10 233:13 234:17 235:26 236:54 237:99 238:164 239:255 240:255 241:255 242:255 243:202 244:144 245:87 246:49 247:36 248:32 249:20 250:11 251:9 252:17 253:27 254:29 255:31 256:51 257:90 258:155 259:255 260:255 261:255 262:255 263:202 264:143 265:88 266:56 267:52 268:53 269:43 270:25 271:22 272:37 273:50 274:49 275:43 276:53 277:87 278:153 279:255 280:255 281:255 282:255 283:202 284:147 285:97 286:68 287:71 288:81 289:74 290:53 291:51 292:68 293:80 294:73 295:57 296:57 297:87 298:153 299:255 300:255 301:255 302:255 303:200 304:151 305:106 306:83 307:92 308:111 309:117 310:101 311:98 312:109 313:114 314:97 315:69 316:63 317:90 318:153 319:255 320:255 321:255 322:255 323:198 324:151 325:110 326:94 327:111 328:138 329:155 330:151 331:147 332:148 333:142 334:114 335:80 336:71 337:94 338:154 339:255 340:255 341:255 342:255 343:197 344:151 345:112 346:98 347:123 348:160 349:179 350:186 351:183 352:175 353:160 354:124 355:88 356:78 357:100 358:158 359:255 360:255 361:255 362:255 363:197 364:152 365:116 366:104 367:130 368:173 369:203 370:212 371:208 372:200 373:172 374:129 375:94 376:86 377:110 378:169 379:255 380:255 381:255 382:255 383:195 384:157 385:124 386:117 387:147 388:184 389:213 390:227 391:223 392:208 393:177 394:136 395:102 396:96 397:121 398:176 399:255 400:255 
-8.774949253119842e-07 1:255 2:255 3:242 4:246 5:253 6:255 7:254 8:253 9:253 10:251 11:245 12:236 13:227 14:205 15:183 16:160 17:137 18:156 19:255 20:255 21:255 22:255 23:247 24:249 25:251 26:250 27:248 28:246 29:246 30:241 31:234 32:227 33:225 34:218 35:204 36:186 37:171 38:185 39:255 40:255 41:255 42:255 43:249 44:244 45:239 46:231 47:219 48:210 49:206 50:202 51:199 52:198 53:201 54:204 55:209 56:210 57:204 58:211 59:255 60:255 61:255 62:255 63:248 64:236 65:214 66:189 67:171 68:163 69:158 70:155 71:155 72:159 73:164 74:173 75:185 76:198 77:208 78:223 79:255 80:255 81:255 82:255 83:245 84:218 85:184 86:150 87:126 88:116 89:110 90:107 91:107 92:112 93:121 94:133 95:150 96:169 97:186 98:213 99:255 100:255 101:255 102:255 103:238 104:201 105:160 106:121 107:87 108:67 109:61 110:60 111:60 112:62 113:75 114:91 115:113 116:136 117:158 118:193 119:255 120:255 121:255 122:255 123:230 124:189 125:145 126:99 127:55 128:27 129:24 130:31 131:36 132:34 133:42 134:54 135:75 136:105 137:134 138:178 139:255 140:255 141:255 142:255 143:224 144:180 145:133 146:86 147:40 148:11 149:18 150:41 151:57 152:51 153:41 154:35 155:48 156:79 157:115 158:169 159:255 160:255 161:255 162:255 163:218 164:174 165:129 166:84 167:41 168:18 169:40 170:74 171:94 172:89 173:68 174:45 175:41 176:66 177:104 178:161 179:255 180:255 181:255 182:255 183:219 184:173 185:130 186:87 187:46 188:29 189:61 190:96 191:114 192:113 193:94 194:61 195:43 196:59 197:97 198:156 199:255 200:255 201:255 202:255 203:225 204:181 205:135 206:91 207:52 208:38 209:66 210:103 211:123 212:119 213:99 214:66 215:45 216:59 217:97 218:156 219:255 220:255 221:255 222:255 223:226 224:185 225:140 226:95 227:55 228:35 229:55 230:90 231:105 232:101 233:81 234:52 235:43 236:66 237:106 238:164 239:255 240:255 241:255 242:255 243:226 244:188 245:145 246:98 247:52 248:20 249:28 250:58 251:70 252:66 253:47 254:37 255:51 256:82 257:119 258:173 259:255 260:255 261:255 262:255 263:221 264:184 265:144 266:99 267:49 268:10 269:9 270:20 271:28 272:29 273:25 274:42 275:73 276:108 277:142 278:188 279:255 280:255 281:255 282:255 283:213 284:177 285:143 286:100 287:49 288:7 289:2 290:4 291:13 292:32 293:47 294:73 295:105 296:137 297:165 298:200 299:255 300:255 301:255 302:255 303:207 304:175 305:144 306:102 307:51 308:9 309:5 310:20 311:42 312:70 313:94 314:116 315:141 316:167 317:189 318:214 319:255 320:255 321:255 322:255 323:203 324:175 325:147 326:105 327:54 328:16 329:20 330:56 331:88 332:114 333:138 334:156 335:175 336:196 337:212 338:228 339:255 340:255 341:255 342:255 343:198 344:173 345:149 346:108 347:58 348:24 349:44 350:88 351:121 352:150 353:174 354:188 355:203 356:219 357:226 358:233 359:255 360:255 361:255 362:255 363:195 364:173 365:150 366:111 367:63 368:32 369:61 370:101 371:145 372:176 373:199 374:215 375:227 376:233 377:231 378:235 379:255 380:255 381:255 382:255 383:186 384:159 385:144 386:114 387:77 388:55 389:71 390:111 391:150 392:192 393:220 394:232 395:236 396:238 397:236 398:238 399:255 400:255 
-1.204210352232937e-06 1:255 2:255 3:248 4:250 5:252 6:253 7:255 8:255 9:255 10:252 11:252 12:249 13:244 14:226 15:197 16:173 17:156 18:167 19:255 20:255 21:255 22:255 23:249 24:248 25:247 26:245 27:245 28:243 29:239 30:238 31:238 32:239 33:241 34:236 35:224 36:210 37:193 38:195 39:255 40:255 41:255 42:255 43:246 44:237 45:228 46:221 47:214 48:205 49:199 50:199 51:199 52:212 53:222 54:227 55:231 56:229 57:221 58:226 59:255 60:255 61:255 62:255 63:238 64:221 65:200 66:180 67:165 68:157 69:152 70:152 71:154 72:164 73:181 74:196 75:215 76:229 77:234 78:239 79:255 80:255 81:255 82:255 83:228 84:199 85:167 86:137 87:116 88:106 89:103 90:101 91:102 92:111 93:134 94:157 95:183 96:211 97:231 98:241 99:255 100:255 101:255 102:255 103:221 104:183 105:143 106:103 107:73 108:59 109:57 110:56 111:53 112:58 113:86 114:120 115:152 116:185 117:215 118:236 119:255 120:255 121:255 122:255 123:217 124:176 125:133 126:85 127:47 128:34 129:40 130:44 131:36 132:29 133:47 134:86 135:125 136:162 137:197 138:228 139:255 140:255 141:255 142:255 143:214 144:173 145:131 146:82 147:45 148:41 149:60 150:74 151:65 152:45 153:35 154:58 155:100 156:145 157:185 158:221 159:255 160:255 161:255 162:255 163:215 164:173 165:131 166:81 167:47 168:53 169:84 170:99 171:92 172:69 173:40 174:46 175:89 176:139 177:179 178:218 179:255 180:255 181:255 182:255 183:219 184:176 185:131 186:79 187:43 188:52 189:84 190:100 191:95 192:68 193:34 194:42 195:87 196:139 197:178 198:214 199:255 200:255 201:255 202:255 203:219 204:176 205:128 206:73 207:32 208:28 209:55 210:72 211:67 212:39 213:22 214:48 215:96 216:143 217:182 218:221 219:255 220:255 221:255 222:255 223:215 224:173 225:126 226:67 227:22 228:13 229:17 230:21 231:19 232:12 233:16 234:59 235:110 236:152 237:189 238:226 239:255 240:255 241:255 242:255 243:212 244:167 245:121 246:64 247:19 248:7 249:6 250:6 251:4 252:5 253:19 254:71 255:125 256:166 257:200 258:231 259:255 260:255 261:255 262:255 263:209 264:162 265:118 266:68 267:25 268:11 269:13 270:13 271:7 272:6 273:26 274:80 275:133 276:173 277:205 278:231 279:255 280:255 281:255 282:255 283:208 284:162 285:122 286:77 287:41 288:34 289:47 290:48 291:33 292:16 293:31 294:79 295:127 296:166 297:198 298:227 299:255 300:255 301:255 302:255 303:209 304:167 305:129 306:87 307:57 308:61 309:84 310:93 311:70 312:39 313:36 314:71 315:114 316:154 317:189 318:222 319:255 320:255 321:255 322:255 323:210 324:169 325:131 326:90 327:66 328:77 329:106 330:121 331:104 332:71 333:46 334:63 335:103 336:144 337:179 338:212 339:255 340:255 341:255 342:255 343:207 344:166 345:129 346:90 347:67 348:84 349:121 350:133 351:129 352:100 353:62 354:58 355:88 356:129 357:162 358:199 359:255 360:255 361:255 362:255 363:203 364:165 365:131 366:92 367:71 368:89 369:126 370:146 371:147 372:126 373:88 374:64 375:74 376:109 377:149 378:195 379:255 380:255 381:255 382:255 383:197 384:168 385:140 386:105 387:86 388:101 389:135 390:166 391:173 392:144 393:116 394:88 395:83 396:106 397:144 398:194 399:255 400:255 
-6.176736412074033e-07 1:255 2:255 3:240 4:245 5:252 6:254 7:255 8:253 9:247 10:229 11:219 12:210 13:201 14:197 15:190 16:184 17:180 18:197 19:255 20:255 21:255 22:255 23:240 24:241 25:249 26:252 27:244 28:229 29:217 30:200 31:186 32:171 33:159 34:155 35:157 36:165 37:179 38:206 39:255 40:255 41:255 42:255 43:242 44:239 45:240 46:233 47:217 48:195 49:170 50:147 51:134 52:116 53:108 54:106 55:114 56:133 57:160 58:200 59:255 60:255 61:255 62:255 63:241 64:230 65:222 66:206 67:179 68:147 69:118 70:94 71:77 72:65 73:62 74:65 75:76 76:102 77:141 78:192 79:255 80:255 81:255 82:255 83:238 84:222 85:205 86:176 87:138 88:100 89:72 90:51 91:38 92:44 93:50 94:58 95:68 96:94 97:136 98:190 99:255 100:255 101:255 102:255 103:236 104:216 105:189 106:150 107:104 108:63 109:36 110:32 111:41 112:59 113:74 114:85 115:94 116:116 117:151 118:197 119:255 120:255 121:255 122:255 123:236 124:212 125:178 126:132 127:82 128:38 129:16 130:36 131:67 132:93 133:109 134:124 135:135 136:152 137:177 138:209 139:255 140:255 141:255 142:255 143:237 144:212 145:174 146:124 147:72 148:27 149:11 150:37 151:75 152:112 153:130 154:146 155:161 156:179 157:199 158:221 159:255 160:255 161:255 162:255 163:241 164:217 165:179 166:130 167:77 168:30 169:5 170:20 171:60 172:97 173:118 174:134 175:154 176:177 177:198 178:223 179:255 180:255 181:255 182:255 183:247 184:227 185:193 186:146 187:93 188:43 189:6 190:3 191:22 192:57 193:77 194:96 195:116 196:142 197:174 198:211 199:255 200:255 201:255 202:255 203:247 204:234 205:210 206:169 207:118 208:68 209:31 210:8 211:6 212:14 213:30 214:51 215:71 216:100 217:136 218:184 219:255 220:255 221:255 222:255 223:247 224:240 225:223 226:192 227:151 228:110 229:79 230:54 231:36 232:22 233:19 234:21 235:34 236:58 237:93 238:155 239:255 240:255 241:255 242:255 243:250 244:248 245:232 246:208 247:183 248:152 249:124 250:103 251:82 252:65 253:51 254:35 255:23 256:29 257:57 258:128 259:255 260:255 261:255 262:255 263:248 264:249 265:241 266:224 267:203 268:177 269:153 270:135 271:120 272:108 273:87 274:60 275:29 276:15 277:31 278:106 279:255 280:255 281:255 282:255 283:241 284:246 285:241 286:223 287:200 288:176 289:154 290:143 291:137 292:127 293:105 294:74 295:34 296:10 297:20 298:98 299:255 300:255 301:255 302:255 303:230 304:236 305:233 306:208 307:177 308:149 309:131 310:126 311:123 312:115 313:95 314:65 315:31 316:13 317:27 318:105 319:255 320:255 321:255 322:255 323:218 324:219 325:218 326:192 327:151 328:115 329:97 330:89 331:85 332:76 333:60 334:41 335:26 336:27 337:50 338:121 339:255 340:255 341:255 342:255 343:203 344:196 345:199 346:178 347:137 348:96 349:70 350:56 351:50 352:36 353:28 354:28 355:37 356:57 357:87 358:145 359:255 360:255 361:255 362:255 363:184 364:172 365:185 366:177 367:144 368:106 369:75 370:53 371:45 372:33 373:38 374:54 375:73 376:98 377:129 378:177 379:255 380:255 381:255 382:255 383:169 384:150 385:170 386:180 387:165 388:136 389:112 390:92 391:84 392:84 393:86 394:99 395:116 396:139 397:169 398:208 399:255 400:255 
-5.373444319779946e-07 1:255 2:255 3:248 4:250 5:249 6:249 7:253 8:254 9:252 10:252 11:255 12:255 13:248 14:239 15:228 16:214 17:203 18:214 19:255 20:255 21:255 22:255 23:239 24:231 25:226 26:225 27:231 28:239 29:243 30:244 31:252 32:252 33:244 34:233 35:224 36:216 37:212 38:225 39:255 40:255 41:255 42:255 43:231 44:210 45:192 46:188 47:201 48:222 49:235 50:242 51:247 52:244 53:234 54:218 55:201 56:194 57:200 58:221 59:255 60:255 61:255 62:255 63:220 64:184 65:156 66:151 67:174 68:207 69:229 70:238 71:242 72:238 73:222 74:195 75:166 76:156 77:172 78:210 79:255 80:255 81:255 82:255 83:214 84:168 85:133 86:125 87:152 88:194 89:223 90:233 91:237 92:231 93:212 94:173 95:135 96:122 97:145 98:194 99:255 100:255 101:255 102:255 103:211 104:159 105:119 106:110 107:138 108:181 109:213 110:225 111:227 112:219 113:198 114:156 115:114 116:102 117:127 118:183 119:255 120:255 121:255 122:255 123:209 124:154 125:109 126:100 127:129 128:168 129:197 130:204 131:202 132:194 133:177 134:141 135:102 136:91 137:120 138:180 139:255 140:255 141:255 142:255 143:207 144:151 145:104 146:93 147:119 148:153 149:170 150:166 151:160 152:154 153:148 154:125 155:94 156:86 157:115 158:177 159:255 160:255 161:255 162:255 163:205 164:146 165:99 166:85 167:103 168:127 169:129 170:112 171:105 172:110 173:115 174:106 175:86 176:83 177:111 178:174 179:255 180:255 181:255 182:255 183:202 184:143 185:94 186:74 187:84 188:99 189:87 190:63 191:56 192:69 193:87 194:84 195:74 196:77 197:106 198:172 199:255 200:255 201:255 202:255 203:198 204:136 205:84 206:59 207:61 208:64 209:55 210:33 211:31 212:46 213:66 214:71 215:65 216:72 217:104 218:168 219:255 220:255 221:255 222:255 223:193 224:128 225:74 226:43 227:38 228:40 229:31 230:18 231:17 232:30 233:46 234:52 235:55 236:70 237:104 238:168 239:255 240:255 241:255 242:255 243:189 244:122 245:68 246:34 247:22 248:20 249:17 250:6 251:6 252:20 253:33 254:41 255:48 256:69 257:110 258:173 259:255 260:255 261:255 262:255 263:188 264:121 265:65 266:27 267:10 268:8 269:10 270:11 271:11 272:16 273:22 274:30 275:45 276:78 277:123 278:179 279:255 280:255 281:255 282:255 283:190 284:122 285:66 286:25 287:6 288:9 289:21 290:30 291:28 292:19 293:17 294:25 295:47 296:88 297:138 298:190 299:255 300:255 301:255 302:255 303:193 304:126 305:70 306:30 307:13 308:21 309:44 310:57 311:50 312:31 313:20 314:25 315:50 316:98 317:151 318:202 319:255 320:255 321:255 322:255 323:195 324:133 325:77 326:39 327:29 328:44 329:77 330:92 331:80 332:52 333:32 334:32 335:57 336:106 337:162 338:210 339:255 340:255 341:255 342:255 343:197 344:140 345:91 346:58 347:56 348:81 349:117 350:135 351:121 352:82 353:53 354:49 355:72 356:120 357:173 358:216 359:255 360:255 361:255 362:255 363:202 364:156 365:120 366:96 367:97 368:125 369:158 370:176 371:161 372:122 373:88 374:79 375:101 376:144 377:188 378:222 379:255 380:255 381:255 382:255 383:206 384:180 385:163 386:149 387:150 388:169 389:197 390:208 391:200 392:166 393:140 394:132 395:145 396:174 397:207 398:233 399:255 400:255 
-2.196855227924029e-07 1:255 2:255 3:248 4:240 5:234 6:235 7:242 8:250 9:254 10:255 11:253 12:250 13:241 14:231 15:223 16:219 17:223 18:236 19:255 20:255 21:255 22:255 23:233 24:213 25:202 26:205 27:222 28:240 29:251 30:253 31:251 32:246 33:229 34:210 35:192 36:192 37:207 38:229 39:255 40:255 41:255 42:255 43:219 44:180 45:159 46:166 47:194 48:226 49:245 50:250 51:247 52:240 53:216 54:180 55:150 56:148 57:174 58:216 59:255 60:255 61:255 62:255 63:210 64:158 65:128 66:135 67:173 68:215 69:239 70:246 71:244 72:233 73:205 74:159 75:118 76:114 77:150 78:204 79:255 80:255 81:255 82:255 83:205 84:148 85:111 86:117 87:160 88:206 89:228 90:232 91:229 92:219 93:192 94:144 95:101 96:97 97:134 98:192 99:255 100:255 101:255 102:255 103:204 104:144 105:105 106:109 107:149 108:190 109:206 110:202 111:195 112:191 113:170 114:129 115:92 116:89 117:122 118:181 119:255 120:255 121:255 122:255 123:202 124:142 125:103 126:103 127:134 128:164 129:171 130:155 131:145 132:149 133:139 134:112 135:85 136:84 137:114 138:174 139:255 140:255 141:255 142:255 143:199 144:137 145:97 146:91 147:113 148:131 149:125 150:99 151:92 152:103 153:108 154:92 155:75 156:77 157:108 158:170 159:255 160:255 161:255 162:255 163:195 164:132 165:88 166:77 167:88 168:97 169:86 170:61 171:51 172:67 173:79 174:73 175:64 176:72 177:104 178:167 179:255 180:255 181:255 182:255 183:189 184:123 185:78 186:62 187:67 188:69 189:55 190:32 191:27 192:41 193:60 194:60 195:58 196:72 197:106 198:167 199:255 200:255 201:255 202:255 203:189 204:122 205:71 206:46 207:43 208:42 209:30 210:14 211:14 212:27 213:45 214:50 215:52 216:69 217:108 218:171 219:255 220:255 221:255 222:255 223:195 224:126 225:68 226:34 227:24 228:20 229:10 230:5 231:7 232:18 233:30 234:35 235:45 236:72 237:115 238:177 239:255 240:255 241:255 242:255 243:200 244:134 245:70 246:26 247:9 248:7 249:8 250:15 251:16 252:15 253:20 254:25 255:41 256:75 257:122 258:182 259:255 260:255 261:255 262:255 263:202 264:142 265:81 266:30 267:6 268:6 269:18 270:29 271:32 272:23 273:17 274:20 275:41 276:83 277:133 278:189 279:255 280:255 281:255 282:255 283:200 284:145 285:86 286:35 287:11 288:17 289:37 290:56 291:60 292:41 293:24 294:23 295:46 296:91 297:145 298:197 299:255 300:255 301:255 302:255 303:194 304:142 305:89 306:42 307:24 308:36 309:65 310:95 311:94 312:68 313:43 314:34 315:53 316:98 317:152 318:206 319:255 320:255 321:255 322:255 323:187 324:143 325:101 326:62 327:48 328:66 329:103 330:134 331:132 332:103 333:74 334:58 335:72 336:111 337:162 338:214 339:255 340:255 341:255 342:255 343:186 344:152 345:125 346:98 347:92 348:113 349:149 350:172 351:172 352:151 353:121 354:102 355:111 356:141 357:182 358:223 359:255 360:255 361:255 362:255 363:193 364:166 365:156 366:149 367:152 368:170 369:196 370:211 371:211 372:199 373:175 374:162 375:165 376:186 377:214 378:236 379:255 380:255 381:255 382:255 383:196 384:176 385:184 386:196 387:204 388:215 389:229 390:235 391:235 392:229 393:218 394:212 395:213 396:222 397:234 398:245 399:255 400:255 
-1.770574153491207e-06 1:255 2:255 3:244 4:248 5:254 6:255 7:255 8:254 9:251 10:245 11:245 12:241 13:236 14:227 15:212 16:195 17:174 18:182 19:255 20:255 21:255 22:255 23:249 24:247 25:239 26:230 27:223 28:222 29:225 30:228 31:236 32:236 33:229 34:220 35:208 36:198 37:188 38:198 39:255 40:255 41:255 42:255 43:251 44:235 45:214 46:194 47:179 48:176 49:186 50:202 51:215 52:222 53:214 54:201 55:187 56:175 57:169 58:192 59:255 60:255 61:255 62:255 63:246 64:221 65:188 66:156 67:135 68:129 69:141 70:166 71:185 72:196 73:189 74:171 75:151 76:137 77:136 78:171 79:255 80:255 81:255 82:255 83:240 84:211 85:173 86:131 87:99 88:86 89:96 90:123 91:149 92:164 93:156 94:135 95:110 96:96 97:103 98:153 99:255 100:255 101:255 102:255 103:236 104:208 105:170 106:125 107:83 108:57 109:58 110:82 111:110 112:126 113:118 114:96 115:73 116:68 117:87 118:146 119:255 120:255 121:255 122:255 123:238 124:212 125:176 126:133 127:88 128:50 129:32 130:48 131:71 132:85 133:77 134:60 135:50 136:61 137:91 138:153 139:255 140:255 141:255 142:255 143:242 144:220 145:187 146:148 147:106 148:61 149:27 150:21 151:35 152:44 153:42 154:36 155:44 156:71 157:110 158:169 159:255 160:255 161:255 162:255 163:248 164:229 165:204 166:171 167:131 168:85 169:39 170:13 171:11 172:16 173:20 174:31 175:58 176:94 177:131 178:182 179:255 180:255 181:255 182:255 183:251 184:237 185:216 186:188 187:151 188:106 189:59 190:19 191:4 192:3 193:15 194:43 195:84 196:125 197:158 198:197 199:255 200:255 201:255 202:255 203:253 204:244 205:226 206:200 207:167 208:124 209:77 210:26 211:10 212:4 213:21 214:59 215:103 216:145 217:177 218:209 219:255 220:255 221:255 222:255 223:251 224:241 225:224 226:202 227:172 228:132 229:85 230:35 231:11 232:9 233:29 234:70 235:115 236:157 237:187 238:212 239:255 240:255 241:255 242:255 243:248 244:236 245:219 246:196 247:165 248:125 249:75 250:29 251:11 252:10 253:28 254:69 255:115 256:157 257:187 258:215 259:255 260:255 261:255 262:255 263:245 264:231 265:212 266:184 267:148 268:105 269:59 270:21 271:11 272:10 273:22 274:59 275:104 276:147 277:181 278:212 279:255 280:255 281:255 282:255 283:238 284:221 285:199 286:168 287:127 288:81 289:43 290:19 291:15 292:15 293:20 294:47 295:87 296:130 297:166 298:204 299:255 300:255 301:255 302:255 303:227 304:206 305:181 306:146 307:103 308:60 309:35 310:31 311:37 312:34 313:28 314:39 315:68 316:106 317:144 318:190 319:255 320:255 321:255 322:255 323:217 324:189 325:160 326:121 327:79 328:47 329:42 330:58 331:74 332:67 333:49 334:40 335:52 336:81 337:119 338:176 339:255 340:255 341:255 342:255 343:205 344:172 345:138 346:98 347:63 348:49 349:65 350:92 351:114 352:103 353:78 354:53 355:45 356:63 357:100 358:162 359:255 360:255 361:255 362:255 363:189 364:157 365:127 366:93 367:72 368:73 369:98 370:131 371:150 372:139 373:109 374:77 375:56 376:60 377:89 378:152 379:255 380:255 381:255 382:255 383:178 384:148 385:130 386:108 387:100 388:110 389:131 390:163 391:182 392:169 393:140 394:108 395:83 396:80 397:99 398:155 399:255 400:255 
-6.472533190259069e-07 1:255 2:255 3:252 4:245 5:238 6:232 7:230 8:233 9:241 10:245 11:242 12:240 13:228 14:216 15:203 16:191 17:186 18:204 19:255 20:255 21:255 22:255 23:242 24:223 25:200 26:185 27:184 28:195 29:214 30:227 31:229 32:223 33:202 34:177 35:160 36:156 37:165 38:197 39:255 40:255 41:255 42:255 43:228 44:193 45:157 46:132 47:128 48:141 49:168 50:193 51:203 52:187 53:156 54:126 55:110 56:115 57:136 58:183 59:255 60:255 61:255 62:255 63:221 64:175 65:130 66:97 67:85 68:94 69:118 70:146 71:158 72:141 73:111 74:82 75:73 76:88 77:119 78:175 79:255 80:255 81:255 82:255 83:224 84:179 85:128 86:85 87:61 88:59 89:76 90:101 91:110 92:98 93:72 94:51 95:55 96:83 97:122 98:179 99:255 100:255 101:255 102:255 103:233 104:195 105:146 106:97 107:61 108:43 109:44 110:61 111:66 112:57 113:40 114:34 115:54 116:94 117:138 118:191 119:255 120:255 121:255 122:255 123:242 124:215 125:173 126:125 127:81 128:46 129:26 130:29 131:31 132:25 133:20 134:34 135:69 136:115 137:159 138:203 139:255 140:255 141:255 142:255 143:250 144:233 145:203 146:158 147:107 148:62 149:26 150:14 151:9 152:10 153:18 154:48 155:92 156:140 157:179 158:212 159:255 160:255 161:255 162:255 163:254 164:246 165:226 166:189 167:137 168:85 169:40 170:11 171:3 172:6 173:27 174:67 175:115 176:162 177:195 178:217 179:255 180:255 181:255 182:255 183:255 184:251 185:239 186:210 187:163 188:107 189:57 190:16 191:5 192:12 193:42 194:84 195:134 196:180 197:207 198:225 199:255 200:255 201:255 202:255 203:255 204:252 205:245 206:221 207:176 208:119 209:66 210:19 211:5 212:12 213:46 214:90 215:138 216:183 217:212 218:229 219:255 220:255 221:255 222:255 223:254 224:251 225:241 226:215 227:169 228:112 229:61 230:17 231:3 232:10 233:38 234:79 235:125 236:172 237:207 238:228 239:255 240:255 241:255 242:255 243:251 244:247 245:234 246:202 247:151 248:94 249:48 250:15 251:6 252:10 253:25 254:60 255:104 256:151 257:190 258:219 259:255 260:255 261:255 262:255 263:249 264:241 265:221 266:180 267:127 268:76 269:38 270:23 271:22 272:20 273:21 274:44 275:79 276:123 277:166 278:207 279:255 280:255 281:255 282:255 283:244 284:230 285:202 286:154 287:101 288:60 289:37 290:46 291:55 292:51 293:37 294:35 295:56 296:95 297:139 298:191 299:255 300:255 301:255 302:255 303:236 304:214 305:177 306:125 307:77 308:49 309:48 310:77 311:96 312:89 313:64 314:39 315:42 316:72 317:112 318:171 319:255 320:255 321:255 322:255 323:223 324:194 325:151 326:101 327:63 328:50 329:71 330:109 331:137 332:126 333:94 334:58 335:44 336:59 337:93 338:155 339:255 340:255 341:255 342:255 343:205 344:173 345:136 346:94 347:69 348:69 349:101 350:144 351:176 352:163 353:127 354:90 355:67 356:68 357:93 358:152 359:255 360:255 361:255 362:255 363:183 364:155 365:135 366:110 367:98 368:106 369:137 370:179 371:205 372:197 373:168 374:135 375:110 376:103 377:118 378:168 379:255 380:255 381:255 382:255 383:163 384:141 385:143 386:140 387:141 388:154 389:181 390:211 391:226 392:227 393:212 394:187 395:165 396:156 397:165 398:199 399:255 400:255 
