svm_type c_svc
kernel_type linear
nr_class 2
total_sv 17
rho 8.11603
label 14 -1
nr_sv 7 10
SV
7.670150555880371e-06 1:255 2:255 3:249 4:244 5:245 6:249 7:251 8:252 9:251 10:251 11:254 12:255 13:254 14:247 15:239 16:228 17:217 18:223 19:255 20:255 21:255 22:255 23:252 24:244 25:238 26:236 27:234 28:235 29:238 30:240 31:243 32:247 33:244 34:233 35:222 36:220 37:226 38:239 39:255 40:255 41:255 42:255 43:250 44:235 45:218 46:208 47:202 48:203 49:211 50:219 51:233 52:235 53:220 54:203 55:191 56:195 57:212 58:231 59:255 60:255 61:255 62:255 63:244 64:221 65:192 66:169 67:157 68:158 69:175 70:194 71:214 72:214 73:194 74:171 75:152 76:157 77:184 78:217 79:255 80:255 81:255 82:255 83:234 84:203 85:166 86:132 87:110 88:109 89:131 90:165 91:192 92:198 93:176 94:141 95:115 96:121 97:154 98:201 99:255 100:255 101:255 102:255 103:226 104:190 105:148 106:103 107:72 108:66 109:86 110:130 111:170 112:183 113:166 114:123 115:92 116:97 117:132 118:190 119:255 120:255 121:255 122:255 123:223 124:187 125:141 126:89 127:50 128:39 129:54 130:96 131:145 132:166 133:157 134:117 135:82 136:83 137:122 138:185 139:255 140:255 141:255 142:255 143:225 144:189 145:141 146:87 147:45 148:28 149:36 150:67 151:114 152:145 153:142 154:109 155:73 156:74 157:117 158:182 159:255 160:255 161:255 162:255 163:232 164:196 165:148 166:94 167:48 168:22 169:19 170:34 171:82 172:115 173:118 174:96 175:65 176:67 177:111 178:176 179:255 180:255 181:255 182:255 183:237 184:202 185:153 186:98 187:53 188:26 189:14 190:16 191:43 192:82 193:95 194:81 195:58 196:63 197:105 198:173 199:255 200:255 201:255 202:255 203:240 204:206 205:158 206:106 207:60 208:32 209:21 210:15 211:24 212:47 213:63 214:56 215:42 216:53 217:96 218:166 219:255 220:255 221:255 222:255 223:237 224:207 225:162 226:108 227:64 228:43 229:36 230:26 231:18 232:26 233:33 234:30 235:26 236:42 237:85 238:159 239:255 240:255 241:255 242:255 243:234 244:206 245:167 246:114 247:69 248:55 249:64 250:55 251:32 252:20 253:18 254:13 255:14 256:31 257:73 258:152 259:255 260:255 261:255 262:255 263:232 264:207 265:170 266:117 267:74 268:65 269:87 270:89 271:68 272:31 273:13 274:5 275:5 276:23 277:67 278:149 279:255 280:255 281:255 282:255 283:229 284:205 285:167 286:116 287:74 288:69 289:101 290:123 291:105 292:57 293:20 294:5 295:4 296:21 297:65 298:148 299:255 300:255 301:255 302:255 303:227 304:201 305:162 306:110 307:71 308:71 309:109 310:147 311:136 312:87 313:39 314:14 315:9 316:25 317:67 318:148 319:255 320:255 321:255 322:255 323:223 324:197 325:158 326:107 327:71 328:73 329:116 330:158 331:158 332:116 333:68 334:33 335:20 336:32 337:71 338:149 339:255 340:255 341:255 342:255 343:218 344:192 345:157 346:111 347:77 348:80 349:122 350:164 351:172 352:146 353:103 354:62 355:43 356:51 357:84 358:155 359:255 360:255 361:255 362:255 363:210 364:185 365:159 366:119 367:88 368:94 369:132 370:173 371:192 372:174 373:139 374:105 375:88 376:92 377:118 378:173 379:255 380:255 381:255 382:255 383:191 384:173 385:163 386:135 387:110 388:117 389:155 390:187 391:206 392:201 393:175 394:153 395:141 396:143 397:159 398:194 399:255 400:255 
6.491813164796144e-06 1:255 2:255 3:247 4:251 5:255 6:253 7:250 8:247 9:248 10:251 11:255 12:255 13:249 14:235 15:215 16:200 17:192 18:206 19:255 20:255 21:255 22:255 23:244 24:244 25:246 26:243 27:238 28:236 29:239 30:245 31:251 32:252 33:246 34:234 35:223 36:218 37:218 38:228 39:255 40:255 41:255 42:255 43:242 44:236 45:233 46:227 47:220 48:220 49:228 50:235 51:242 52:241 53:230 54:214 55:204 56:206 57:216 58:234 59:255 60:255 61:255 62:255 63:239 64:224 65:212 66:199 67:190 68:192 69:205 70:218 71:231 72:225 73:205 74:183 75:171 76:175 77:194 78:224 79:255 80:255 81:255 82:255 83:234 84:209 85:186 86:166 87:153 88:155 89:171 90:192 91:213 92:205 93:181 94:150 95:133 96:142 97:169 98:208 99:255 100:255 101:255 102:255 103:226 104:192 105:160 106:129 107:109 108:110 109:129 110:162 111:188 112:185 113:158 114:121 115:100 116:114 117:151 118:196 119:255 120:255 121:255 122:255 123:218 124:179 125:138 126:97 127:68 128:63 129:86 130:129 131:161 132:166 133:142 134:102 135:79 136:97 137:140 138:191 139:255 140:255 141:255 142:255 143:215 144:175 145:129 146:80 147:44 148:32 149:51 150:91 151:135 152:148 153:134 154:95 155:70 156:87 157:133 158:188 159:255 160:255 161:255 162:255 163:213 164:174 165:127 166:75 167:37 168:24 169:30 170:57 171:106 172:129 173:123 174:92 175:64 176:76 177:123 178:186 179:255 180:255 181:255 182:255 183:213 184:174 185:127 186:77 187:41 188:20 189:14 190:29 191:73 192:107 193:110 194:85 195:57 196:66 197:117 198:184 199:255 200:255 201:255 202:255 203:215 204:178 205:134 206:85 207:44 208:19 209:5 210:8 211:36 212:74 213:88 214:70 215:47 216:58 217:108 218:179 219:255 220:255 221:255 222:255 223:220 224:184 225:142 226:90 227:46 228:23 229:10 230:6 231:24 232:46 233:60 234:48 235:31 236:45 237:94 238:170 239:255 240:255 241:255 242:255 243:227 244:191 245:148 246:98 247:54 248:33 249:29 250:24 251:23 252:27 253:34 254:30 255:20 256:35 257:84 258:163 259:255 260:255 261:255 262:255 263:230 264:197 265:155 266:105 267:65 268:51 269:56 270:53 271:38 272:25 273:19 274:13 275:12 276:30 277:78 278:157 279:255 280:255 281:255 282:255 283:227 284:198 285:159 286:111 287:74 288:66 289:80 290:84 291:70 292:42 293:23 294:10 295:9 296:28 297:71 298:150 299:255 300:255 301:255 302:255 303:224 304:196 305:161 306:116 307:80 308:76 309:98 310:113 311:106 312:73 313:41 314:20 315:12 316:26 317:67 318:146 319:255 320:255 321:255 322:255 323:220 324:194 325:162 326:118 327:84 328:81 329:110 330:136 331:135 332:106 333:66 334:37 335:22 336:30 337:69 338:147 339:255 340:255 341:255 342:255 343:216 344:193 345:163 346:120 347:85 348:83 349:116 350:148 351:155 352:133 353:93 354:57 355:38 356:43 357:76 358:150 359:255 360:255 361:255 362:255 363:209 364:189 365:165 366:123 367:86 368:85 369:122 370:157 371:171 372:158 373:121 374:87 375:65 376:64 377:90 378:155 379:255 380:255 381:255 382:255 383:200 384:181 385:165 386:128 387:93 388:93 389:130 390:166 391:190 392:180 393:156 394:129 395:105 396:101 397:120 398:168 399:255 400:255 
1.430624031555397e-05 1:255 2:255 3:241 4:239 5:240 6:238 7:239 8:247 9:251 10:254 11:255 12:254 13:253 14:248 15:237 16:218 17:196 18:198 19:255 20:255 21:255 22:255 23:247 24:246 25:241 26:232 27:228 28:232 29:236 30:247 31:251 32:251 33:249 34:243 35:232 36:218 37:206 38:215 39:255 40:255 41:255 42:255 43:248 44:241 45:227 46:210 47:202 48:201 49:207 50:217 51:233 52:241 53:240 54:227 55:212 56:201 57:199 58:215 59:255 60:255 61:255 62:255 63:246 64:229 65:204 66:181 67:167 68:164 69:170 70:182 71:211 72:224 73:221 74:203 75:184 76:172 77:173 78:199 79:255 80:255 81:255 82:255 83:240 84:217 85:185 86:149 87:122 88:116 89:125 90:148 91:181 92:204 93:203 94:182 95:150 96:130 97:139 98:184 99:255 100:255 101:255 102:255 103:236 104:209 105:173 106:127 107:85 108:67 109:78 110:115 111:157 112:183 113:186 114:165 115:125 116:99 117:113 118:171 119:255 120:255 121:255 122:255 123:234 124:205 125:167 126:118 127:67 128:37 129:42 130:79 131:132 132:163 133:170 134:148 135:107 136:83 137:98 138:161 139:255 140:255 141:255 142:255 143:231 144:201 145:164 146:114 147:61 148:29 149:21 150:43 151:94 152:141 153:157 154:132 155:89 156:67 157:89 158:161 159:255 160:255 161:255 162:255 163:228 164:196 165:161 166:113 167:60 168:24 169:13 170:28 171:69 172:110 173:135 174:118 175:82 176:63 177:87 178:161 179:255 180:255 181:255 182:255 183:225 184:192 185:156 186:110 187:62 188:28 189:11 190:12 191:37 192:87 193:105 194:101 195:75 196:60 197:86 198:160 199:255 200:255 201:255 202:255 203:225 204:192 205:156 206:110 207:62 208:29 209:15 210:11 211:20 212:53 213:82 214:82 215:60 216:51 217:81 218:154 219:255 220:255 221:255 222:255 223:226 224:195 225:158 226:110 227:63 228:37 229:29 230:18 231:13 232:29 233:51 234:52 235:42 236:45 237:78 238:151 239:255 240:255 241:255 242:255 243:231 244:198 245:161 246:116 247:72 248:49 249:50 250:43 251:29 252:23 253:31 254:33 255:31 256:42 257:77 258:150 259:255 260:255 261:255 262:255 263:233 264:201 265:164 266:118 267:77 268:64 269:78 270:79 271:55 272:29 273:21 274:18 275:17 276:34 277:75 278:150 279:255 280:255 281:255 282:255 283:233 284:202 285:165 286:118 287:80 288:74 289:98 290:108 291:86 292:48 293:22 294:9 295:9 296:29 297:75 298:152 299:255 300:255 301:255 302:255 303:230 304:201 305:163 306:117 307:82 308:81 309:111 310:134 311:119 312:75 313:33 314:8 315:7 316:29 317:77 318:157 319:255 320:255 321:255 322:255 323:226 324:198 325:158 326:110 327:79 328:87 329:124 330:157 331:146 332:102 333:51 334:17 335:10 336:32 337:81 338:163 339:255 340:255 341:255 342:255 343:220 344:191 345:153 346:104 347:76 348:94 349:138 350:166 351:164 352:125 353:76 354:36 355:21 356:41 357:92 358:169 359:255 360:255 361:255 362:255 363:214 364:184 365:151 366:113 367:92 368:108 369:150 370:174 371:178 372:157 373:113 374:66 375:46 376:65 377:112 378:178 379:255 380:255 381:255 382:255 383:202 384:177 385:161 386:131 387:108 388:123 389:165 390:194 391:201 392:174 393:145 394:112 395:98 396:104 397:130 398:187 399:255 400:255 
5.330054769512968e-06 1:255 2:255 3:252 4:252 5:253 6:254 7:255 8:253 9:251 10:248 11:248 12:251 13:240 14:220 15:200 16:186 17:181 18:200 19:255 20:255 21:255 22:255 23:247 24:244 25:245 26:247 27:249 28:249 29:247 30:241 31:244 32:241 33:235 34:226 35:218 36:213 37:215 38:228 39:255 40:255 41:255 42:255 43:233 44:219 45:213 46:212 47:216 48:224 49:234 50:234 51:233 52:217 53:205 54:200 55:205 56:215 57:227 58:239 59:255 60:255 61:255 62:255 63:211 64:186 65:174 66:170 67:177 68:191 69:208 70:215 71:209 72:188 73:168 74:164 75:179 76:204 77:223 78:235 79:255 80:255 81:255 82:255 83:193 84:149 85:126 86:120 87:131 88:154 89:181 90:194 91:186 92:158 93:130 94:125 95:151 96:187 97:211 98:227 99:255 100:255 101:255 102:255 103:179 104:118 105:84 106:73 107:86 108:118 109:154 110:175 111:168 112:134 113:100 114:96 115:132 116:174 117:202 118:224 119:255 120:255 121:255 122:255 123:168 124:103 125:60 126:41 127:52 128:86 129:126 130:156 131:152 132:117 133:80 134:81 135:122 136:169 137:202 138:230 139:255 140:255 141:255 142:255 143:167 144:98 145:51 146:25 147:28 148:58 149:104 150:136 151:134 152:103 153:65 154:71 155:116 156:168 157:207 158:237 159:255 160:255 161:255 162:255 163:168 164:99 165:51 166:19 167:12 168:35 169:79 170:116 171:121 172:89 173:55 174:65 175:111 176:166 177:211 178:241 179:255 180:255 181:255 182:255 183:175 184:102 185:51 186:23 187:14 188:23 189:53 190:90 191:103 192:73 193:43 194:52 195:102 196:164 197:212 198:243 199:255 200:255 201:255 202:255 203:180 204:110 205:55 206:27 207:24 208:24 209:30 210:60 211:77 212:61 213:37 214:48 215:97 216:159 217:209 218:241 219:255 220:255 221:255 222:255 223:183 224:114 225:66 226:45 227:44 228:39 229:25 230:30 231:41 232:39 233:22 234:40 235:92 236:153 237:202 238:236 239:255 240:255 241:255 242:255 243:185 244:118 245:74 246:60 247:63 248:58 249:39 250:24 251:27 252:20 253:15 254:39 255:90 256:147 257:195 258:233 259:255 260:255 261:255 262:255 263:184 264:121 265:84 266:77 267:86 268:86 269:64 270:30 271:18 272:10 273:8 274:35 275:87 276:144 277:191 278:229 279:255 280:255 281:255 282:255 283:182 284:119 285:87 286:87 287:106 288:114 289:94 290:51 291:21 292:7 293:5 294:33 295:86 296:142 297:188 298:224 299:255 300:255 301:255 302:255 303:178 304:113 305:81 306:90 307:121 308:139 309:123 310:78 311:37 312:13 313:9 314:34 315:86 316:142 317:187 318:222 319:255 320:255 321:255 322:255 323:173 324:106 325:74 326:89 327:132 328:159 329:147 330:102 331:55 332:25 333:15 334:37 335:88 336:145 337:190 338:224 339:255 340:255 341:255 342:255 343:169 344:102 345:71 346:88 347:136 348:169 349:165 350:126 351:74 352:42 353:24 354:43 355:94 356:152 357:196 358:229 359:255 360:255 361:255 362:255 363:168 364:104 365:78 366:97 367:142 368:175 369:183 370:158 371:111 372:71 373:49 374:64 375:108 376:161 377:204 378:233 379:255 380:255 381:255 382:255 383:175 384:121 385:104 386:117 387:152 388:186 389:199 390:183 391:150 392:116 393:100 394:105 395:139 396:180 397:212 398:238 399:255 400:255 
1.102844786315357e-05 1:255 2:255 3:242 4:242 5:248 6:253 7:255 8:255 9:253 10:251 11:251 12:251 13:242 14:218 15:188 16:157 17:129 18:147 19:255 20:255 21:255 22:255 23:239 24:236 25:242 26:248 27:252 28:250 29:245 30:245 31:251 32:251 33:245 34:233 35:211 36:190 37:174 38:183 39:255 40:255 41:255 42:255 43:236 44:222 45:217 46:219 47:224 48:228 49:233 50:239 51:242 52:241 53:236 54:229 55:222 56:215 57:208 58:215 59:255 60:255 61:255 62:255 63:220 64:196 65:183 66:180 67:182 68:191 69:209 70:221 71:229 72:216 73:208 74:202 75:203 76:209 77:218 78:233 79:255 80:255 81:255 82:255 83:205 84:167 85:143 86:131 87:134 88:151 89:181 90:201 91:208 92:190 93:172 94:161 95:165 96:185 97:211 98:234 99:255 100:255 101:255 102:255 103:194 104:143 105:106 106:85 107:87 108:112 109:153 110:181 111:185 112:167 113:138 114:120 115:130 116:162 117:197 118:226 119:255 120:255 121:255 122:255 123:187 124:128 125:81 126:52 127:50 128:76 129:125 130:158 131:167 132:147 133:109 134:89 135:107 136:147 137:186 138:219 139:255 140:255 141:255 142:255 143:185 144:123 145:70 146:34 147:26 148:48 149:99 150:138 151:154 152:132 153:90 154:73 155:95 156:142 157:186 158:221 159:255 160:255 161:255 162:255 163:183 164:121 165:66 166:27 167:14 168:29 169:71 170:119 171:140 172:114 173:75 174:64 175:96 176:147 177:193 178:229 179:255 180:255 181:255 182:255 183:183 184:121 185:70 186:33 187:16 188:17 189:47 190:100 191:126 192:103 193:58 194:50 195:91 196:151 197:201 198:235 199:255 200:255 201:255 202:255 203:183 204:121 205:70 206:36 207:23 208:21 209:32 210:66 211:91 212:84 213:49 214:48 215:95 216:155 217:203 218:238 219:255 220:255 221:255 222:255 223:183 224:121 225:73 226:45 227:34 228:27 229:22 230:37 231:66 232:59 233:38 234:51 235:99 236:155 237:202 238:235 239:255 240:255 241:255 242:255 243:179 244:114 245:75 246:59 247:54 248:43 249:27 250:23 251:35 252:33 253:25 254:49 255:100 256:156 257:200 258:233 259:255 260:255 261:255 262:255 263:176 264:109 265:74 266:68 267:76 268:71 269:47 270:19 271:16 272:16 273:14 274:38 275:94 276:153 277:196 278:229 279:255 280:255 281:255 282:255 283:174 284:107 285:76 286:79 287:97 288:99 289:75 290:28 291:11 292:6 293:6 294:31 295:89 296:150 297:194 298:228 299:255 300:255 301:255 302:255 303:170 304:104 305:78 306:89 307:115 308:123 309:101 310:51 311:16 312:7 313:6 314:36 315:92 316:150 317:194 318:228 319:255 320:255 321:255 322:255 323:162 324:97 325:78 326:97 327:131 328:144 329:121 330:76 331:28 332:15 333:15 334:48 335:102 336:154 337:194 338:225 339:255 340:255 341:255 342:255 343:153 344:90 345:79 346:107 347:146 348:159 349:140 350:92 351:44 352:24 353:26 354:58 355:110 356:161 357:194 358:218 359:255 360:255 361:255 362:255 363:149 364:88 365:82 366:115 367:157 368:173 369:158 370:109 371:61 372:36 373:34 374:67 375:119 376:167 377:195 378:215 379:255 380:255 381:255 382:255 383:161 384:100 385:97 386:127 387:165 388:189 389:180 390:137 391:93 392:67 393:56 394:84 395:132 396:176 397:200 398:219 399:255 400:255 
1.588177342049051e-05 1:255 2:255 3:251 4:251 5:252 6:254 7:255 8:255 9:253 10:250 11:247 12:240 13:235 14:208 15:179 16:156 17:140 18:161 19:255 20:255 21:255 22:255 23:248 24:244 25:244 26:244 27:245 28:247 29:249 30:247 31:245 32:239 33:235 34:226 35:212 36:195 37:180 38:195 39:255 40:255 41:255 42:255 43:241 44:231 45:224 46:222 47:227 48:235 49:239 50:239 51:238 52:234 53:226 54:221 55:220 56:219 57:216 58:224 59:255 60:255 61:255 62:255 63:220 64:194 65:179 66:175 67:183 68:201 69:223 70:232 71:227 72:209 73:193 74:188 75:194 76:211 77:225 78:235 79:255 80:255 81:255 82:255 83:198 84:150 85:124 86:118 87:130 88:160 89:193 90:212 91:205 92:180 93:149 94:137 95:155 96:190 97:218 98:235 99:255 100:255 101:255 102:255 103:185 104:123 105:82 106:66 107:82 108:121 109:164 110:188 111:182 112:157 113:118 114:102 115:129 116:172 117:205 118:231 119:255 120:255 121:255 122:255 123:179 124:113 125:62 126:35 127:44 128:86 129:138 130:169 131:167 132:136 133:101 134:88 135:117 136:160 137:194 138:224 139:255 140:255 141:255 142:255 143:176 144:103 145:52 146:23 147:23 148:57 149:108 150:153 151:157 152:119 153:85 154:77 155:107 156:152 157:188 158:218 159:255 160:255 161:255 162:255 163:172 164:97 165:45 166:15 167:13 168:40 169:86 170:133 171:144 172:111 173:72 174:68 175:102 176:149 177:184 178:214 179:255 180:255 181:255 182:255 183:167 184:89 185:42 186:14 187:6 188:19 189:49 190:99 191:112 192:100 193:62 194:58 195:95 196:146 197:187 198:218 199:255 200:255 201:255 202:255 203:167 204:90 205:45 206:22 207:9 208:10 209:31 210:66 211:95 212:83 213:51 214:50 215:91 216:149 217:192 218:222 219:255 220:255 221:255 222:255 223:163 224:93 225:51 226:31 227:25 228:19 229:17 230:39 231:57 232:52 233:40 234:53 235:98 236:151 237:189 238:218 239:255 240:255 241:255 242:255 243:161 244:93 245:59 246:47 247:45 248:37 249:25 250:21 251:30 252:30 253:27 254:50 255:101 256:154 257:190 258:218 259:255 260:255 261:255 262:255 263:157 264:91 265:65 266:69 267:80 268:70 269:40 270:21 271:16 272:12 273:15 274:47 275:103 276:157 277:191 278:218 279:255 280:255 281:255 282:255 283:155 284:90 285:71 286:83 287:104 288:102 289:71 290:31 291:15 292:5 293:10 294:42 295:102 296:159 297:192 298:219 299:255 300:255 301:255 302:255 303:155 304:92 305:77 306:92 307:119 308:130 309:104 310:55 311:25 312:9 313:12 314:43 315:103 316:160 317:194 318:221 319:255 320:255 321:255 322:255 323:153 324:93 325:84 326:103 327:134 328:152 329:131 330:86 331:42 332:21 333:20 334:51 335:108 336:163 337:195 338:220 339:255 340:255 341:255 342:255 343:151 344:93 345:88 346:115 347:150 348:165 349:152 350:111 351:64 352:38 353:33 354:61 355:116 356:167 357:195 358:218 359:255 360:255 361:255 362:255 363:157 364:100 365:94 366:124 367:162 368:179 369:172 370:147 371:99 372:59 373:46 374:73 375:125 376:171 377:198 378:221 379:255 380:255 381:255 382:255 383:173 384:118 385:106 386:133 387:174 388:196 389:194 390:165 391:131 392:97 393:78 394:93 395:134 396:178 397:205 398:227 399:255 400:255 
1.319014694985665e-05 1:255 2:255 3:255 4:255 5:253 6:250 7:247 8:245 9:248 10:251 11:251 12:248 13:245 14:241 15:235 16:221 17:206 18:213 19:255 20:255 21:255 22:255 23:255 24:251 25:243 26:234 27:225 28:220 29:224 30:234 31:241 32:243 33:240 34:235 35:224 36:213 37:207 38:219 39:255 40:255 41:255 42:255 43:253 44:243 45:223 46:201 47:183 48:177 49:185 50:204 51:222 52:233 53:228 54:214 55:195 56:184 57:189 58:214 59:255 60:255 61:255 62:255 63:248 64:228 65:198 66:161 67:130 68:121 69:133 70:169 71:199 72:214 73:208 74:187 75:158 76:144 77:157 78:198 79:255 80:255 81:255 82:255 83:243 84:218 85:181 86:134 87:89 88:68 89:82 90:125 91:170 92:191 93:186 94:160 95:127 96:111 97:129 98:184 99:255 100:255 101:255 102:255 103:241 104:214 105:173 106:118 107:64 108:36 109:45 110:84 111:135 112:169 113:168 114:138 115:104 116:91 117:114 118:176 119:255 120:255 121:255 122:255 123:240 124:210 125:164 126:104 127:50 128:24 129:25 130:55 131:106 132:146 133:154 134:125 135:90 136:81 137:107 138:170 139:255 140:255 141:255 142:255 143:239 144:207 145:156 146:94 147:41 148:15 149:11 150:37 151:83 152:121 153:134 154:114 155:81 156:73 157:101 158:164 159:255 160:255 161:255 162:255 163:236 164:205 165:155 166:93 167:42 168:15 169:6 170:24 171:49 172:93 173:104 174:95 175:69 176:64 177:97 178:164 179:255 180:255 181:255 182:255 183:234 184:202 185:152 186:91 187:45 188:21 189:6 190:6 191:30 192:67 193:85 194:74 195:54 196:58 197:96 198:165 199:255 200:255 201:255 202:255 203:234 204:200 205:150 206:93 207:50 208:28 209:16 210:9 211:18 212:36 213:45 214:42 215:36 216:49 217:95 218:172 219:255 220:255 221:255 222:255 223:233 224:199 225:149 226:93 227:54 228:43 229:43 230:36 231:28 232:28 233:29 234:24 235:24 236:45 237:95 238:173 239:255 240:255 241:255 242:255 243:232 244:195 245:145 246:94 247:63 248:62 249:78 250:72 251:45 252:31 253:17 254:10 255:15 256:42 257:95 258:173 259:255 260:255 261:255 262:255 263:232 264:194 265:144 266:96 267:72 268:78 269:97 270:98 271:76 272:43 273:20 274:7 275:11 276:38 277:92 278:173 279:255 280:255 281:255 282:255 283:231 284:196 285:146 286:98 287:77 288:88 289:112 290:128 291:102 292:66 293:34 294:13 295:13 296:37 297:90 298:173 299:255 300:255 301:255 302:255 303:228 304:196 305:148 306:99 307:78 308:93 309:127 310:154 311:131 312:95 313:52 314:25 315:19 316:41 317:92 318:173 319:255 320:255 321:255 322:255 323:224 324:194 325:150 326:102 327:81 328:99 329:140 330:167 331:162 332:125 333:77 334:42 335:30 336:50 337:99 338:174 339:255 340:255 341:255 342:255 343:220 344:193 345:155 346:112 347:91 348:110 349:156 350:182 351:182 352:156 353:110 354:68 355:49 356:65 357:110 358:178 359:255 360:255 361:255 362:255 363:216 364:191 365:166 366:132 367:111 368:127 369:170 370:201 371:206 372:180 373:136 374:107 375:89 376:95 377:128 378:187 379:255 380:255 381:255 382:255 383:208 384:190 385:176 386:159 387:153 388:167 389:193 390:215 391:221 392:207 393:176 394:152 395:135 396:139 397:166 398:203 399:255 400:255 
-4.371085439203125e-06 1:255 2:255 3:252 4:252 5:254 6:255 7:254 8:253 9:251 10:251 11:243 12:234 13:240 14:229 15:205 16:185 17:176 18:192 19:255 20:255 21:255 22:255 23:252 24:251 25:251 26:241 27:223 28:211 29:207 30:204 31:206 32:207 33:221 34:229 35:223 36:213 37:207 38:217 39:255 40:255 41:255 42:255 43:252 44:247 45:236 46:215 47:191 48:175 49:166 50:164 51:168 52:179 53:197 54:217 55:227 56:232 57:233 58:234 59:255 60:255 61:255 62:255 63:252 64:241 65:219 66:190 67:162 68:140 69:126 70:122 71:131 72:150 73:173 74:198 75:217 76:233 77:242 78:243 79:255 80:255 81:255 82:255 83:249 84:231 85:204 86:171 87:137 88:105 89:82 90:74 91:90 92:121 93:151 94:180 95:204 96:225 97:239 98:246 99:255 100:255 101:255 102:255 103:242 104:219 105:191 106:157 107:117 108:77 109:44 110:32 111:50 112:91 113:128 114:163 115:191 116:215 117:234 118:246 119:255 120:255 121:255 122:255 123:235 124:209 125:179 126:145 127:103 128:59 129:22 130:10 131:21 132:64 133:108 134:146 135:178 136:205 137:228 138:246 139:255 140:255 141:255 142:255 143:228 144:199 145:168 146:134 147:93 148:49 149:15 150:7 151:11 152:43 153:90 154:132 155:166 156:196 157:223 158:246 159:255 160:255 161:255 162:255 163:221 164:191 165:161 166:125 167:85 168:45 169:22 170:16 171:14 172:31 173:74 174:119 175:157 176:190 177:220 178:245 179:255 180:255 181:255 182:255 183:217 184:184 185:151 186:115 187:78 188:48 189:46 190:45 191:30 192:29 193:61 194:105 195:146 196:179 197:208 198:237 199:255 200:255 201:255 202:255 203:214 204:180 205:145 206:106 207:73 208:60 209:73 210:78 211:61 212:39 213:52 214:93 215:134 216:167 217:199 218:231 219:255 220:255 221:255 222:255 223:207 224:170 225:136 226:96 227:67 228:69 229:92 230:100 231:82 232:46 233:42 234:75 235:119 236:157 237:189 238:223 239:255 240:255 241:255 242:255 243:203 244:162 245:123 246:81 247:57 248:66 249:93 250:103 251:87 252:47 253:29 254:56 255:101 256:145 257:181 258:217 259:255 260:255 261:255 262:255 263:198 264:152 265:111 266:68 267:42 268:51 269:76 270:84 271:71 272:34 273:14 274:37 275:84 276:131 277:171 278:210 279:255 280:255 281:255 282:255 283:192 284:142 285:98 286:52 287:25 288:30 289:47 290:55 291:44 292:16 293:5 294:20 295:64 296:117 297:159 298:202 299:255 300:255 301:255 302:255 303:183 304:131 305:84 306:38 307:15 308:19 309:29 310:37 311:28 312:14 313:5 314:10 315:48 316:101 317:145 318:192 319:255 320:255 321:255 322:255 323:173 324:117 325:71 326:34 327:23 328:34 329:48 330:55 331:51 332:43 333:27 334:20 335:43 336:86 337:131 338:182 339:255 340:255 341:255 342:255 343:162 344:103 345:63 346:43 347:52 348:75 349:95 350:106 351:106 352:95 353:73 354:52 355:52 356:81 357:123 358:175 359:255 360:255 361:255 362:255 363:156 364:97 365:67 366:63 367:87 368:115 369:136 370:149 371:149 372:136 373:115 374:90 375:79 376:94 377:124 378:174 379:255 380:255 381:255 382:255 383:155 384:104 385:90 386:96 387:119 388:145 389:165 390:183 391:183 392:165 393:145 394:125 395:115 396:122 397:140 398:182 399:255 400:255 
-2.849553247565863e-06 1:255 2:255 3:232 4:235 5:245 6:252 7:255 8:254 9:252 10:255 11:255 12:252 13:241 14:214 15:188 16:168 17:147 18:159 19:255 20:255 21:255 22:255 23:232 24:233 25:242 26:247 27:250 28:248 29:242 30:240 31:240 32:239 33:238 34:229 35:213 36:195 37:182 38:194 39:255 40:255 41:255 42:255 43:232 44:228 45:235 46:235 47:226 48:215 49:205 50:199 51:197 52:200 53:206 54:211 55:212 56:213 57:216 58:226 59:255 60:255 61:255 62:255 63:234 64:226 65:219 66:207 67:192 68:176 69:163 70:148 71:147 72:154 73:168 74:180 75:193 76:211 77:230 78:245 79:255 80:255 81:255 82:255 83:228 84:213 85:196 86:175 87:151 88:125 89:105 90:89 91:89 92:97 93:113 94:135 95:163 96:193 97:225 98:251 99:255 100:255 101:255 102:255 103:218 104:191 105:167 106:138 107:106 108:73 109:44 110:36 111:39 112:49 113:67 114:94 115:134 116:176 117:215 118:248 119:255 120:255 121:255 122:255 123:206 124:167 125:132 126:95 127:65 128:42 129:25 130:30 131:39 132:49 133:63 134:82 135:124 136:170 137:209 138:243 139:255 140:255 141:255 142:255 143:193 144:140 145:94 146:58 147:42 148:45 149:62 150:81 151:92 152:100 153:101 154:109 155:139 156:175 157:209 158:242 159:255 160:255 161:255 162:255 163:183 164:115 165:64 166:39 167:48 168:79 169:104 170:126 171:139 172:146 173:148 174:155 175:167 176:187 177:216 178:245 179:255 180:255 181:255 182:255 183:169 184:96 185:43 186:38 187:75 188:108 189:138 190:148 191:154 192:157 193:160 194:167 195:179 196:197 197:221 198:247 199:255 200:255 201:255 202:255 203:153 204:82 205:45 206:49 207:86 208:116 209:126 210:119 211:112 212:119 213:130 214:149 215:168 216:190 217:221 218:247 219:255 220:255 221:255 222:255 223:143 224:74 225:47 226:59 227:94 228:111 229:103 230:81 231:70 232:67 233:74 234:94 235:134 236:174 237:208 238:242 239:255 240:255 241:255 242:255 243:141 244:68 245:47 246:65 247:100 248:117 249:102 250:72 251:40 252:23 253:22 254:53 255:105 256:156 257:198 258:234 259:255 260:255 261:255 262:255 263:141 264:63 265:42 266:63 267:106 268:134 269:127 270:95 271:60 272:18 273:5 274:32 275:89 276:149 277:196 278:232 279:255 280:255 281:255 282:255 283:145 284:70 285:41 286:56 287:101 288:141 289:151 290:133 291:95 292:45 293:11 294:23 295:81 296:147 297:196 298:232 299:255 300:255 301:255 302:255 303:157 304:85 305:46 306:47 307:84 308:126 309:153 310:151 311:113 312:67 313:19 314:22 315:77 316:143 317:193 318:228 319:255 320:255 321:255 322:255 323:173 324:104 325:57 326:40 327:58 328:95 329:123 330:128 331:102 332:62 333:19 334:22 335:74 336:139 337:188 338:222 339:255 340:255 341:255 342:255 343:189 344:129 345:80 346:42 347:32 348:54 349:71 350:80 351:67 352:37 353:11 354:24 355:77 356:140 357:187 358:220 359:255 360:255 361:255 362:255 363:201 364:159 365:117 366:72 367:36 368:18 369:24 370:37 371:29 372:12 373:8 374:37 375:91 376:147 377:189 378:222 379:255 380:255 381:255 382:255 383:212 384:180 385:152 386:115 387:77 388:53 389:38 390:30 391:19 392:18 393:28 394:67 395:121 396:166 397:200 398:232 399:255 400:255 
-3.055628814501312e-06 1:255 2:255 3:253 4:229 5:199 6:181 7:179 8:184 9:191 10:208 11:223 12:233 13:227 14:219 15:203 16:186 17:171 18:185 19:255 20:255 21:255 22:255 23:230 24:188 25:152 26:132 27:129 28:138 29:155 30:193 31:222 32:238 33:240 34:239 35:224 36:203 37:184 38:192 39:255 40:255 41:255 42:255 43:207 44:155 45:114 46:90 47:86 48:100 49:126 50:165 51:209 52:233 53:246 54:250 55:239 56:214 57:184 58:187 59:255 60:255 61:255 62:255 63:187 64:128 65:87 66:62 67:56 68:70 69:103 70:142 71:192 72:223 73:238 74:244 75:242 76:219 77:182 78:181 79:255 80:255 81:255 82:255 83:174 84:113 85:73 86:48 87:41 88:55 89:89 90:132 91:179 92:210 93:225 94:235 95:238 96:222 97:184 98:177 99:255 100:255 101:255 102:255 103:172 104:111 105:70 106:42 107:34 108:48 109:81 110:124 111:167 112:196 113:215 114:230 115:235 116:222 117:186 118:175 119:255 120:255 121:255 122:255 123:178 124:116 125:73 126:41 127:30 128:45 129:75 130:115 131:154 132:188 133:215 134:235 135:239 136:224 137:187 138:176 139:255 140:255 141:255 142:255 143:186 144:124 145:78 146:44 147:29 148:40 149:69 150:109 151:146 152:189 153:227 154:247 155:248 156:229 157:191 158:182 159:255 160:255 161:255 162:255 163:190 164:128 165:82 166:46 167:27 168:34 169:67 170:107 171:147 172:198 173:234 174:251 175:253 176:236 177:199 178:190 179:255 180:255 181:255 182:255 183:190 184:129 185:82 186:46 187:24 188:28 189:63 190:103 191:151 192:199 193:241 194:254 195:253 196:235 197:201 198:194 199:255 200:255 201:255 202:255 203:190 204:131 205:85 206:47 207:23 208:25 209:60 210:101 211:151 212:199 213:241 214:254 215:244 216:223 217:197 218:196 219:255 220:255 221:255 222:255 223:190 224:133 225:87 226:50 227:26 228:23 229:55 230:96 231:146 232:205 233:243 234:252 235:243 236:222 237:198 238:200 239:255 240:255 241:255 242:255 243:193 244:139 245:93 246:53 247:26 248:20 249:53 250:93 251:135 252:190 253:223 254:231 255:229 256:218 257:199 258:202 259:255 260:255 261:255 262:255 263:194 264:141 265:95 266:54 267:25 268:18 269:48 270:85 271:123 272:154 273:177 274:186 275:189 276:192 277:189 278:201 279:255 280:255 281:255 282:255 283:189 284:137 285:93 286:51 287:22 288:12 289:31 290:65 291:95 292:110 293:121 294:128 295:139 296:153 297:166 298:194 299:255 300:255 301:255 302:255 303:178 304:129 305:89 306:49 307:19 308:6 309:13 310:34 311:56 312:66 313:70 314:78 315:94 316:117 317:140 318:181 319:255 320:255 321:255 322:255 323:167 324:122 325:89 326:51 327:21 328:4 329:4 330:9 331:22 332:28 333:32 334:44 335:64 336:93 337:123 338:167 339:255 340:255 341:255 342:255 343:161 344:118 345:93 346:60 347:31 348:12 349:6 350:6 351:8 352:13 353:19 354:35 355:57 356:87 357:118 358:165 359:255 360:255 361:255 362:255 363:153 364:114 365:98 366:74 367:53 368:39 369:27 370:25 371:27 372:38 373:48 374:59 375:78 376:105 377:132 378:174 379:255 380:255 381:255 382:255 383:135 384:102 385:101 386:93 387:84 388:78 389:74 390:74 391:75 392:79 393:86 394:99 395:119 396:138 397:160 398:200 399:255 400:255 
-2.57990360922137e-05 1:255 2:255 3:248 4:251 5:251 6:250 7:250 8:251 9:253 10:255 11:255 12:247 13:237 14:226 15:203 16:173 17:139 18:146 19:255 20:255 21:255 22:255 23:248 24:247 25:244 26:242 27:242 28:244 29:248 30:253 31:251 32:243 33:235 34:229 35:218 36:202 37:180 38:185 39:255 40:255 41:255 42:255 43:243 44:237 45:233 46:229 47:229 48:232 49:237 50:241 51:239 52:234 53:228 54:222 55:218 56:213 57:204 58:211 59:255 60:255 61:255 62:255 63:238 64:224 65:213 66:202 67:198 68:205 69:217 70:227 71:226 72:218 73:209 74:199 75:197 76:201 77:205 78:219 79:255 80:255 81:255 82:255 83:232 84:209 85:186 86:165 87:157 88:168 89:186 90:208 91:208 92:191 93:175 94:161 95:160 96:170 97:186 98:213 99:255 100:255 101:255 102:255 103:227 104:194 105:156 106:123 107:111 108:122 109:149 110:181 111:183 112:164 113:134 114:112 115:111 116:133 117:164 118:202 119:255 120:255 121:255 122:255 123:223 124:184 125:135 126:90 127:69 128:79 129:113 130:152 131:158 132:135 133:95 134:68 135:68 136:100 137:145 138:192 139:255 140:255 141:255 142:255 143:219 144:177 145:127 146:75 147:44 148:49 149:80 150:120 151:134 152:100 153:62 154:43 155:48 156:81 157:129 158:186 159:255 160:255 161:255 162:255 163:214 164:171 165:119 166:64 167:31 168:29 169:47 170:76 171:89 172:68 173:44 174:31 175:40 176:76 177:124 178:181 179:255 180:255 181:255 182:255 183:211 184:165 185:110 186:55 187:22 188:12 189:21 190:39 191:44 192:36 193:22 194:21 195:36 196:71 197:118 198:179 199:255 200:255 201:255 202:255 203:206 204:157 205:98 206:45 207:18 208:9 209:6 210:12 211:16 212:16 213:12 214:14 215:29 216:62 217:109 218:174 219:255 220:255 221:255 222:255 223:202 224:151 225:92 226:45 227:24 228:14 229:4 230:3 231:5 232:10 233:13 234:17 235:26 236:54 237:99 238:164 239:255 240:255 241:255 242:255 243:202 244:144 245:87 246:49 247:36 248:32 249:20 250:11 251:9 252:17 253:27 254:29 255:31 256:51 257:90 258:155 259:255 260:255 261:255 262:255 263:202 264:143 265:88 266:56 267:52 268:53 269:43 270:25 271:22 272:37 273:50 274:49 275:43 276:53 277:87 278:153 279:255 280:255 281:255 282:255 283:202 284:147 285:97 286:68 287:71 288:81 289:74 290:53 291:51 292:68 293:80 294:73 295:57 296:57 297:87 298:153 299:255 300:255 301:255 302:255 303:200 304:151 305:106 306:83 307:92 308:111 309:117 310:101 311:98 312:109 313:114 314:97 315:69 316:63 317:90 318:153 319:255 320:255 321:255 322:255 323:198 324:151 325:110 326:94 327:111 328:138 329:155 330:151 331:147 332:148 333:142 334:114 335:80 336:71 337:94 338:154 339:255 340:255 341:255 342:255 343:197 344:151 345:112 346:98 347:123 348:160 349:179 350:186 351:183 352:175 353:160 354:124 355:88 356:78 357:100 358:158 359:255 360:255 361:255 362:255 363:197 364:152 365:116 366:104 367:130 368:173 369:203 370:212 371:208 372:200 373:172 374:129 375:94 376:86 377:110 378:169 379:255 380:255 381:255 382:255 383:195 384:157 385:124 386:117 387:147 388:184 389:213 390:227 391:223 392:208 393:177 394:136 395:102 396:96 397:121 398:176 399:255 400:255 
-1.024855433376998e-05 1:255 2:255 3:248 4:250 5:252 6:253 7:254 8:255 9:253 10:249 11:241 12:238 13:231 14:226 15:213 16:198 17:184 18:193 19:255 20:255 21:255 22:255 23:250 24:249 25:249 26:251 27:249 28:239 29:225 30:207 31:196 32:190 33:192 34:200 35:213 36:224 37:224 38:229 39:255 40:255 41:255 42:255 43:248 44:245 45:240 46:228 47:207 48:182 49:162 50:144 51:134 52:132 53:139 54:158 55:186 56:215 57:234 58:240 59:255 60:255 61:255 62:255 63:247 64:235 65:213 66:184 67:152 68:122 69:101 70:88 71:77 72:76 73:90 74:116 75:154 76:194 77:223 78:238 79:255 80:255 81:255 82:255 83:244 84:214 85:174 86:135 87:100 88:68 89:53 90:49 91:46 92:48 93:65 94:94 95:134 96:180 97:212 98:231 99:255 100:255 101:255 102:255 103:232 104:188 105:139 106:95 107:57 108:33 109:33 110:41 111:54 112:61 113:75 114:99 115:136 116:178 117:208 118:227 119:255 120:255 121:255 122:255 123:218 124:165 125:113 126:66 127:31 128:23 129:42 130:64 131:87 132:102 133:111 134:126 135:155 136:187 137:209 138:227 139:255 140:255 141:255 142:255 143:209 144:152 145:98 146:50 147:23 148:30 149:57 150:90 151:113 152:136 153:148 154:160 155:180 156:202 157:216 158:227 159:255 160:255 161:255 162:255 163:204 164:148 165:97 166:50 167:23 168:29 169:58 170:89 171:113 172:139 173:159 174:174 175:191 176:213 177:224 178:227 179:255 180:255 181:255 182:255 183:207 184:155 185:106 186:60 187:26 188:19 189:40 190:61 191:86 192:103 193:127 194:152 195:177 196:201 197:217 198:227 199:255 200:255 201:255 202:255 203:213 204:171 205:125 206:80 207:40 208:12 209:12 210:26 211:43 212:61 213:83 214:106 215:134 216:164 217:190 218:217 219:255 220:255 221:255 222:255 223:229 224:196 225:155 226:113 227:73 228:39 229:23 230:14 231:13 232:16 233:31 234:58 235:90 236:126 237:159 238:198 239:255 240:255 241:255 242:255 243:240 244:219 245:186 246:149 247:115 248:86 249:67 250:50 251:37 252:17 253:11 254:20 255:48 256:89 257:131 258:184 259:255 260:255 261:255 262:255 263:244 264:232 265:210 266:181 267:154 268:133 269:113 270:95 271:78 272:51 273:24 274:10 275:27 276:67 277:113 278:172 279:255 280:255 281:255 282:255 283:243 284:232 285:213 286:188 287:169 288:158 289:144 290:128 291:106 292:75 293:41 294:13 295:18 296:55 297:103 298:166 299:255 300:255 301:255 302:255 303:232 304:216 305:195 306:170 307:152 308:145 309:140 310:130 311:108 312:75 313:37 314:11 315:18 316:56 317:106 318:169 319:255 320:255 321:255 322:255 323:215 324:193 325:168 326:137 327:114 328:105 329:106 330:101 331:85 332:55 333:20 334:8 335:30 336:73 337:121 338:181 339:255 340:255 341:255 342:255 343:200 344:176 345:147 346:110 347:82 348:66 349:66 350:64 351:50 352:30 353:17 354:24 355:56 356:99 357:142 358:195 359:255 360:255 361:255 362:255 363:188 364:165 365:143 366:109 367:75 368:51 369:44 370:43 371:38 372:35 373:44 374:66 375:97 376:132 377:170 378:213 379:255 380:255 381:255 382:255 383:184 384:160 385:151 386:127 387:99 388:80 389:68 390:62 391:69 392:77 393:94 394:113 395:140 396:172 397:204 398:236 399:255 400:255 
-2.346141624588607e-06 1:255 2:255 3:236 4:233 5:237 6:240 7:244 8:250 9:254 10:254 11:254 12:255 13:254 14:249 15:240 16:220 17:180 18:168 19:255 20:255 21:255 22:255 23:238 24:233 25:232 26:232 27:236 28:244 29:247 30:249 31:251 32:251 33:248 34:244 35:240 36:231 37:212 38:210 39:255 40:255 41:255 42:255 43:237 44:226 45:213 46:199 47:200 48:216 49:231 50:241 51:245 52:242 53:232 54:220 55:215 56:213 57:214 58:226 59:255 60:255 61:255 62:255 63:234 64:209 65:176 66:148 67:142 68:159 69:196 70:227 71:234 72:223 73:199 74:168 75:153 76:158 77:178 78:214 79:255 80:255 81:255 82:255 83:232 84:192 85:143 86:103 87:89 88:108 89:155 90:204 91:223 92:203 93:159 94:118 95:97 96:106 97:140 98:191 99:255 100:255 101:255 102:255 103:230 104:182 105:125 106:74 107:54 108:80 109:130 110:187 111:214 112:188 113:134 114:85 115:60 116:73 117:114 118:173 119:255 120:255 121:255 122:255 123:229 124:175 125:116 126:62 127:39 128:68 129:123 130:180 131:207 132:179 133:125 134:69 135:37 136:52 137:100 138:165 139:255 140:255 141:255 142:255 143:229 144:171 145:110 146:59 147:39 148:65 149:118 150:175 151:201 152:172 153:120 154:66 155:30 156:44 157:96 158:166 159:255 160:255 161:255 162:255 163:228 164:170 165:106 166:55 167:38 168:68 169:121 170:176 171:196 172:167 173:116 174:64 175:37 176:55 177:103 178:169 179:255 180:255 181:255 182:255 183:222 184:164 185:102 186:46 187:26 188:63 189:125 190:179 191:201 192:168 193:112 194:58 195:35 196:56 197:107 198:173 199:255 200:255 201:255 202:255 203:216 204:157 205:101 206:56 207:39 208:69 209:121 210:177 211:195 212:163 213:108 214:53 215:23 216:45 217:105 218:175 219:255 220:255 221:255 222:255 223:211 224:155 225:99 226:54 227:41 228:73 229:123 230:170 231:186 232:160 233:110 234:58 235:28 236:48 237:105 238:175 239:255 240:255 241:255 242:255 243:214 244:156 245:98 246:49 247:35 248:71 249:124 250:169 251:184 252:160 253:110 254:59 255:34 256:55 257:107 258:173 259:255 260:255 261:255 262:255 263:212 264:154 265:96 266:47 267:33 268:69 269:121 270:169 271:184 272:160 273:108 274:55 275:27 276:50 277:110 278:177 279:255 280:255 281:255 282:255 283:211 284:152 285:96 286:47 287:31 288:63 289:112 290:156 291:172 292:145 293:102 294:48 295:21 296:49 297:113 298:183 299:255 300:255 301:255 302:255 303:213 304:156 305:100 306:48 307:24 308:47 309:92 310:129 311:141 312:121 313:86 314:38 315:24 316:58 317:118 318:186 319:255 320:255 321:255 322:255 323:214 324:164 325:112 326:56 327:20 328:25 329:61 330:91 331:98 332:89 333:55 334:23 335:31 336:74 337:129 338:192 339:255 340:255 341:255 342:255 343:207 344:172 345:130 346:80 347:36 348:14 349:27 350:46 351:50 352:46 353:22 354:15 355:46 356:98 357:153 358:209 359:255 360:255 361:255 362:255 363:195 364:175 365:151 366:112 367:72 368:34 369:10 370:12 371:18 372:13 373:20 374:46 375:85 376:134 377:187 378:230 379:255 380:255 381:255 382:255 383:180 384:172 385:177 386:151 387:111 388:83 389:58 390:50 391:45 392:49 393:64 394:92 395:129 396:175 397:216 398:239 399:255 400:255 
-1.331552880420718e-05 1:255 2:255 3:248 4:250 5:249 6:249 7:253 8:254 9:252 10:252 11:255 12:255 13:248 14:239 15:228 16:214 17:203 18:214 19:255 20:255 21:255 22:255 23:239 24:231 25:226 26:225 27:231 28:239 29:243 30:244 31:252 32:252 33:244 34:233 35:224 36:216 37:212 38:225 39:255 40:255 41:255 42:255 43:231 44:210 45:192 46:188 47:201 48:222 49:235 50:242 51:247 52:244 53:234 54:218 55:201 56:194 57:200 58:221 59:255 60:255 61:255 62:255 63:220 64:184 65:156 66:151 67:174 68:207 69:229 70:238 71:242 72:238 73:222 74:195 75:166 76:156 77:172 78:210 79:255 80:255 81:255 82:255 83:214 84:168 85:133 86:125 87:152 88:194 89:223 90:233 91:237 92:231 93:212 94:173 95:135 96:122 97:145 98:194 99:255 100:255 101:255 102:255 103:211 104:159 105:119 106:110 107:138 108:181 109:213 110:225 111:227 112:219 113:198 114:156 115:114 116:102 117:127 118:183 119:255 120:255 121:255 122:255 123:209 124:154 125:109 126:100 127:129 128:168 129:197 130:204 131:202 132:194 133:177 134:141 135:102 136:91 137:120 138:180 139:255 140:255 141:255 142:255 143:207 144:151 145:104 146:93 147:119 148:153 149:170 150:166 151:160 152:154 153:148 154:125 155:94 156:86 157:115 158:177 159:255 160:255 161:255 162:255 163:205 164:146 165:99 166:85 167:103 168:127 169:129 170:112 171:105 172:110 173:115 174:106 175:86 176:83 177:111 178:174 179:255 180:255 181:255 182:255 183:202 184:143 185:94 186:74 187:84 188:99 189:87 190:63 191:56 192:69 193:87 194:84 195:74 196:77 197:106 198:172 199:255 200:255 201:255 202:255 203:198 204:136 205:84 206:59 207:61 208:64 209:55 210:33 211:31 212:46 213:66 214:71 215:65 216:72 217:104 218:168 219:255 220:255 221:255 222:255 223:193 224:128 225:74 226:43 227:38 228:40 229:31 230:18 231:17 232:30 233:46 234:52 235:55 236:70 237:104 238:168 239:255 240:255 241:255 242:255 243:189 244:122 245:68 246:34 247:22 248:20 249:17 250:6 251:6 252:20 253:33 254:41 255:48 256:69 257:110 258:173 259:255 260:255 261:255 262:255 263:188 264:121 265:65 266:27 267:10 268:8 269:10 270:11 271:11 272:16 273:22 274:30 275:45 276:78 277:123 278:179 279:255 280:255 281:255 282:255 283:190 284:122 285:66 286:25 287:6 288:9 289:21 290:30 291:28 292:19 293:17 294:25 295:47 296:88 297:138 298:190 299:255 300:255 301:255 302:255 303:193 304:126 305:70 306:30 307:13 308:21 309:44 310:57 311:50 312:31 313:20 314:25 315:50 316:98 317:151 318:202 319:255 320:255 321:255 322:255 323:195 324:133 325:77 326:39 327:29 328:44 329:77 330:92 331:80 332:52 333:32 334:32 335:57 336:106 337:162 338:210 339:255 340:255 341:255 342:255 343:197 344:140 345:91 346:58 347:56 348:81 349:117 350:135 351:121 352:82 353:53 354:49 355:72 356:120 357:173 358:216 359:255 360:255 361:255 362:255 363:202 364:156 365:120 366:96 367:97 368:125 369:158 370:176 371:161 372:122 373:88 374:79 375:101 376:144 377:188 378:222 379:255 380:255 381:255 382:255 383:206 384:180 385:163 386:149 387:150 388:169 389:197 390:208 391:200 392:166 393:140 394:132 395:145 396:174 397:207 398:233 399:255 400:255 
-6.047660774121979e-07 1:255 2:255 3:235 4:217 5:207 6:209 7:224 8:241 9:252 10:255 11:254 12:251 13:240 14:222 15:206 16:204 17:215 18:232 19:255 20:255 21:255 22:255 23:225 24:186 25:159 26:166 27:199 28:230 29:248 30:254 31:252 32:246 33:227 34:191 35:159 36:154 37:181 38:223 39:255 40:255 41:255 42:255 43:211 44:159 45:122 46:128 47:171 48:218 49:241 50:249 51:249 52:240 53:215 54:166 55:122 56:119 57:157 58:209 59:255 60:255 61:255 62:255 63:204 64:143 65:103 66:109 67:156 68:204 69:230 70:238 71:238 72:227 73:199 74:150 75:106 76:103 77:142 78:198 79:255 80:255 81:255 82:255 83:200 84:137 85:97 86:103 87:147 88:192 89:214 90:217 91:213 92:204 93:174 94:129 95:95 96:98 97:134 98:190 99:255 100:255 101:255 102:255 103:199 104:135 105:95 106:98 107:134 108:169 109:180 110:176 111:170 112:166 113:145 114:109 115:85 116:94 117:131 118:186 119:255 120:255 121:255 122:255 123:197 124:135 125:93 126:89 127:114 128:136 129:135 130:120 131:116 132:119 133:116 134:96 135:78 136:88 137:127 138:186 139:255 140:255 141:255 142:255 143:195 144:132 145:88 146:75 147:91 148:106 149:96 150:73 151:67 152:79 153:87 154:81 155:73 156:84 157:123 158:185 159:255 160:255 161:255 162:255 163:194 164:126 165:79 166:63 167:68 168:72 169:59 170:40 171:36 172:53 173:69 174:68 175:64 176:80 177:121 178:182 179:255 180:255 181:255 182:255 183:190 184:119 185:69 186:48 187:46 188:43 189:32 190:19 191:22 192:35 193:51 194:53 195:54 196:75 197:123 198:190 199:255 200:255 201:255 202:255 203:195 204:122 205:66 206:37 207:27 208:22 209:15 210:6 211:9 212:22 213:33 214:38 215:47 216:79 217:134 218:198 219:255 220:255 221:255 222:255 223:195 224:124 225:68 226:29 227:9 228:6 229:8 230:14 231:15 232:12 233:19 234:26 235:42 236:84 237:142 238:200 239:255 240:255 241:255 242:255 243:191 244:129 245:73 246:28 247:7 248:5 249:17 250:27 251:26 252:16 253:10 254:19 255:44 256:92 257:150 258:204 259:255 260:255 261:255 262:255 263:187 264:131 265:76 266:31 267:13 268:17 269:38 270:52 271:47 272:29 273:16 274:21 275:49 276:99 277:155 278:206 279:255 280:255 281:255 282:255 283:181 284:132 285:81 286:38 287:24 288:35 289:66 290:89 291:77 292:51 293:29 294:29 295:56 296:106 297:161 298:210 299:255 300:255 301:255 302:255 303:176 304:134 305:91 306:51 307:42 308:62 309:102 310:128 311:117 312:84 313:53 314:45 315:69 316:116 317:169 318:217 319:255 320:255 321:255 322:255 323:175 324:140 325:111 326:82 327:79 328:104 329:145 330:168 331:164 332:127 333:94 334:83 335:100 336:140 337:185 338:224 339:255 340:255 341:255 342:255 343:180 344:154 345:145 346:136 347:139 348:158 349:189 350:209 351:204 352:176 353:150 354:141 355:152 356:181 357:212 358:234 359:255 360:255 361:255 362:255 363:189 364:171 365:180 366:189 367:197 368:208 369:221 370:230 371:229 372:220 373:206 374:199 375:207 376:221 377:234 378:246 379:255 380:255 381:255 382:255 383:186 384:163 385:185 386:211 387:223 388:231 389:237 390:244 391:244 392:241 393:235 394:233 395:237 396:243 397:247 398:251 399:255 400:255 
-6.156849593467076e-06 1:255 2:255 3:192 4:196 5:225 6:244 7:253 8:254 9:252 10:252 11:255 12:255 13:249 14:241 15:216 16:180 17:151 18:167 19:255 20:255 21:255 22:255 23:202 24:200 25:218 26:232 27:242 28:245 29:245 30:248 31:252 32:252 33:248 34:237 35:213 36:185 37:161 38:174 39:255 40:255 41:255 42:255 43:203 44:192 45:195 46:193 47:192 48:200 49:217 50:236 51:248 52:246 53:233 54:208 55:177 56:151 57:137 58:162 59:255 60:255 61:255 62:255 63:196 64:172 65:160 66:146 67:140 68:148 69:168 70:196 71:223 72:223 73:205 74:170 75:136 76:111 77:101 78:139 79:255 80:255 81:255 82:255 83:187 84:151 85:129 86:108 87:98 88:103 89:121 90:150 91:182 92:190 93:171 94:135 95:102 96:78 97:71 98:123 99:255 100:255 101:255 102:255 103:182 104:141 105:113 106:85 107:67 108:67 109:83 110:112 111:143 112:158 113:139 114:108 115:76 116:53 117:54 118:117 119:255 120:255 121:255 122:255 123:186 124:144 125:112 126:77 127:51 128:42 129:53 130:82 131:113 132:127 133:113 134:84 135:54 136:40 137:51 138:119 139:255 140:255 141:255 142:255 143:196 144:156 145:123 146:87 147:54 148:32 149:32 150:55 151:84 152:97 153:88 154:60 155:36 156:34 157:59 158:128 159:255 160:255 161:255 162:255 163:207 164:172 165:140 166:105 167:70 168:38 169:21 170:33 171:55 172:67 173:59 174:40 175:27 176:37 177:70 178:138 179:255 180:255 181:255 182:255 183:212 184:187 185:160 186:124 187:86 188:50 189:22 190:15 191:26 192:35 193:29 194:20 195:25 196:51 197:89 198:151 199:255 200:255 201:255 202:255 203:212 204:197 205:178 206:145 207:109 208:72 209:37 210:12 211:10 212:10 213:8 214:10 215:30 216:66 217:107 218:166 219:255 220:255 221:255 222:255 223:216 224:206 225:196 226:167 227:130 228:93 229:54 230:20 231:6 232:3 233:3 234:12 235:44 236:85 237:126 238:182 239:255 240:255 241:255 242:255 243:217 244:214 245:212 246:189 247:154 248:117 249:80 250:40 251:10 252:3 253:4 254:25 255:62 256:104 257:151 258:205 259:255 260:255 261:255 262:255 263:214 264:215 265:224 266:212 267:181 268:141 269:103 270:65 271:28 272:10 273:10 274:37 275:77 276:120 277:170 278:224 279:255 280:255 281:255 282:255 283:205 284:211 285:230 286:229 287:206 288:166 289:125 290:86 291:46 292:18 293:17 294:47 295:88 296:131 297:182 298:234 299:255 300:255 301:255 302:255 303:191 304:199 305:226 306:235 307:222 308:186 309:143 310:102 311:63 312:27 313:22 314:53 315:93 316:137 317:189 318:237 319:255 320:255 321:255 322:255 323:175 324:179 325:214 326:233 327:230 328:201 329:155 330:113 331:76 332:37 333:26 334:52 335:93 336:140 337:193 338:239 339:255 340:255 341:255 342:255 343:157 344:155 345:197 346:226 347:232 348:211 349:167 350:122 351:82 352:45 353:32 354:52 355:91 356:139 357:195 358:243 359:255 360:255 361:255 362:255 363:139 364:128 365:173 366:211 367:226 368:214 369:180 370:131 371:90 372:56 373:41 374:60 375:94 376:140 377:197 378:246 379:255 380:255 381:255 382:255 383:120 384:101 385:139 386:179 387:211 388:217 389:190 390:143 391:103 392:74 393:59 394:73 395:104 396:148 397:202 398:246 399:255 400:255 
-5.151483012315147e-06 1:255 2:255 3:189 4:195 5:230 6:251 7:255 8:255 9:254 10:250 11:255 12:255 13:249 14:227 15:194 16:163 17:140 18:157 19:255 20:255 21:255 22:255 23:199 24:199 25:223 26:237 27:243 28:248 29:248 30:248 31:251 32:251 33:248 34:232 35:210 36:183 37:158 38:175 39:255 40:255 41:255 42:255 43:204 44:198 45:204 46:203 47:208 48:217 49:226 50:235 51:241 52:241 53:233 54:211 55:182 56:157 57:143 58:168 59:255 60:255 61:255 62:255 63:199 64:176 65:166 66:156 67:154 68:163 69:179 70:204 71:223 72:224 73:204 74:173 75:141 76:118 77:111 78:147 79:255 80:255 81:255 82:255 83:189 84:152 85:131 86:113 87:107 88:115 89:133 90:164 91:189 92:197 93:172 94:136 95:103 96:83 97:79 98:129 99:255 100:255 101:255 102:255 103:181 104:137 105:109 106:85 107:73 108:78 109:96 110:126 111:154 112:165 113:142 114:107 115:75 116:56 117:58 118:119 119:255 120:255 121:255 122:255 123:181 124:135 125:103 126:73 127:52 128:48 129:66 130:95 131:125 132:134 133:115 134:84 135:54 136:41 137:53 138:118 139:255 140:255 141:255 142:255 143:188 144:144 145:111 146:77 147:46 148:31 149:41 150:69 151:95 152:104 153:91 154:64 155:38 156:36 157:61 158:129 159:255 160:255 161:255 162:255 163:197 164:160 165:127 166:90 167:55 168:30 169:24 170:43 171:68 172:77 173:63 174:42 175:29 176:41 177:73 178:138 179:255 180:255 181:255 182:255 183:205 184:172 185:144 186:111 187:75 188:41 189:17 190:20 191:38 192:45 193:37 194:24 195:29 196:53 197:87 198:149 199:255 200:255 201:255 202:255 203:208 204:189 205:166 206:130 207:93 208:55 209:25 210:11 211:12 212:13 213:10 214:13 215:33 216:68 217:108 218:166 219:255 220:255 221:255 222:255 223:215 224:201 225:185 226:154 227:117 228:81 229:44 230:13 231:5 232:4 233:4 234:15 235:45 236:85 237:126 238:183 239:255 240:255 241:255 242:255 243:216 244:206 245:202 246:177 247:138 248:101 249:66 250:29 251:7 252:3 253:5 254:27 255:64 256:107 257:155 258:208 259:255 260:255 261:255 262:255 263:216 264:214 265:219 266:201 267:166 268:126 269:87 270:50 271:16 272:6 273:11 274:40 275:81 276:125 277:176 278:227 279:255 280:255 281:255 282:255 283:210 284:214 285:227 286:217 287:187 288:148 289:109 290:72 291:33 292:14 293:18 294:51 295:93 296:138 297:189 298:235 299:255 300:255 301:255 302:255 303:198 304:204 305:225 306:226 307:207 308:172 309:130 310:90 311:51 312:22 313:25 314:58 315:100 316:147 317:198 318:239 319:255 320:255 321:255 322:255 323:183 324:190 325:222 326:235 327:226 328:192 329:145 330:102 331:63 332:29 333:29 334:61 335:102 336:150 337:202 338:242 339:255 340:255 341:255 342:255 343:167 344:174 345:216 346:239 347:234 348:201 349:154 350:110 351:70 352:36 353:32 354:60 355:100 356:148 357:202 358:244 359:255 360:255 361:255 362:255 363:150 364:145 365:192 366:225 367:231 368:210 369:161 370:119 371:82 372:46 373:39 374:61 375:99 376:148 377:205 378:249 379:255 380:255 381:255 382:255 383:134 384:119 385:156 386:194 387:217 388:207 389:169 390:128 391:90 392:62 393:54 394:71 395:105 396:153 397:209 398:249 399:255 400:255 
