svm_type c_svc
kernel_type linear
nr_class 2
total_sv 19
rho 11.9938
label 14 -1
nr_sv 6 13
SV
8.729332637814824e-05 1:255 2:255 3:193 4:186 5:202 6:218 7:233 8:243 9:250 10:252 11:255 12:255 13:255 14:252 15:249 16:240 17:219 18:209 19:255 20:255 21:255 22:255 23:204 24:194 25:202 26:211 27:223 28:239 29:248 30:250 31:249 32:245 33:245 34:247 35:247 36:243 37:227 38:219 39:255 40:255 41:255 42:255 43:201 44:182 45:185 46:193 47:207 48:227 49:239 50:243 51:231 52:214 53:210 54:218 55:230 56:237 57:232 58:229 59:255 60:255 61:255 62:255 63:181 64:150 65:152 66:163 67:183 68:209 69:229 70:229 71:203 72:179 73:171 74:183 75:204 76:224 77:231 78:232 79:255 80:255 81:255 82:255 83:159 84:112 85:111 86:129 87:156 88:187 89:210 90:208 91:177 92:150 93:139 94:153 95:180 96:210 97:227 98:233 99:255 100:255 101:255 102:255 103:144 104:82 105:73 106:93 107:127 108:164 109:188 110:189 111:159 112:126 113:112 114:128 115:162 116:200 117:224 118:236 119:255 120:255 121:255 122:255 123:133 124:64 125:47 126:61 127:98 128:140 129:168 130:173 131:145 132:107 133:88 134:110 135:153 136:195 137:224 138:241 139:255 140:255 141:255 142:255 143:128 144:54 145:31 146:38 147:70 148:112 149:147 150:156 151:135 152:94 153:72 154:103 155:149 156:192 157:225 158:244 159:255 160:255 161:255 162:255 163:124 164:47 165:20 166:19 167:42 168:83 169:127 170:140 171:124 172:80 173:65 174:101 175:148 176:190 177:221 178:240 179:255 180:255 181:255 182:255 183:119 184:42 185:15 186:9 187:25 188:59 189:98 190:121 191:106 192:72 193:64 194:101 195:147 196:187 197:217 198:238 199:255 200:255 201:255 202:255 203:124 204:48 205:19 206:11 207:16 208:35 209:66 210:86 211:82 212:64 213:61 214:100 215:147 216:186 217:214 218:235 219:255 220:255 221:255 222:255 223:125 224:49 225:22 226:14 227:18 228:27 229:37 230:54 231:58 232:48 233:54 234:95 235:145 236:185 237:213 238:232 239:255 240:255 241:255 242:255 243:126 244:53 245:35 246:36 247:40 248:36 249:27 250:31 251:32 252:30 253:45 254:90 255:142 256:184 257:211 258:228 259:255 260:255 261:255 262:255 263:128 264:58 265:48 266:61 267:68 268:54 269:31 270:16 271:13 272:15 273:36 274:87 275:141 276:181 277:204 278:221 279:255 280:255 281:255 282:255 283:129 284:63 285:59 286:84 287:101 288:84 289:49 290:18 291:5 292:6 293:31 294:86 295:140 296:178 297:196 298:211 299:255 300:255 301:255 302:255 303:130 304:68 305:72 306:103 307:127 308:116 309:77 310:36 311:8 312:4 313:30 314:84 315:136 316:172 317:187 318:201 319:255 320:255 321:255 322:255 323:133 324:73 325:81 326:116 327:142 328:140 329:109 330:61 331:18 332:6 333:28 334:80 335:131 336:166 337:177 338:190 339:255 340:255 341:255 342:255 343:138 344:79 345:89 346:126 347:158 348:161 349:133 350:87 351:35 352:14 353:29 354:76 355:127 356:160 357:164 358:175 359:255 360:255 361:255 362:255 363:146 364:94 365:106 366:142 367:173 368:180 369:154 370:117 371:64 372:36 373:45 374:83 375:127 376:153 377:149 378:162 379:255 380:255 381:255 382:255 383:163 384:118 385:125 386:156 387:190 388:201 389:179 390:145 391:102 392:74 393:78 394:107 395:133 396:142 397:129 398:143 399:255 400:255 
1.469611434279284e-05 1:255 2:255 3:145 4:118 5:138 6:163 7:191 8:219 9:231 10:243 11:251 12:254 13:255 14:255 15:255 16:253 17:248 18:246 19:255 20:255 21:255 22:255 23:186 24:166 25:177 26:192 27:209 28:224 29:233 30:241 31:244 32:246 33:250 34:248 35:249 36:251 37:251 38:251 39:255 40:255 41:255 42:255 43:214 44:202 45:204 46:209 47:216 48:223 49:229 50:234 51:238 52:239 53:241 54:239 55:238 56:239 57:241 58:246 59:255 60:255 61:255 62:255 63:229 64:218 65:210 66:200 67:195 68:200 69:213 70:224 71:231 72:233 73:231 74:226 75:218 76:217 77:224 78:236 79:255 80:255 81:255 82:255 83:232 84:214 85:195 86:174 87:161 88:166 89:185 90:204 91:221 92:226 93:219 94:202 95:188 96:186 97:197 98:221 99:255 100:255 101:255 102:255 103:227 104:198 105:170 106:141 107:122 108:125 109:148 110:178 111:206 112:215 113:203 114:178 115:155 116:148 117:163 118:201 119:255 120:255 121:255 122:255 123:219 124:184 125:147 126:109 127:83 128:81 129:109 130:148 131:185 132:196 133:188 134:161 135:127 136:114 137:133 138:182 139:255 140:255 141:255 142:255 143:214 144:176 145:133 146:87 147:52 148:45 149:72 150:116 151:160 152:175 153:173 154:146 155:107 156:90 157:110 158:169 159:255 160:255 161:255 162:255 163:210 164:168 165:123 166:73 167:35 168:24 169:41 170:84 171:131 172:161 173:160 174:134 175:96 176:76 177:97 178:165 179:255 180:255 181:255 182:255 183:206 184:163 185:114 186:64 187:29 188:16 189:23 190:54 191:104 192:133 193:141 194:123 195:87 196:70 197:94 198:163 199:255 200:255 201:255 202:255 203:211 204:165 205:112 206:60 207:27 208:14 209:11 210:31 211:73 212:112 213:127 214:112 215:76 216:59 217:88 218:161 219:255 220:255 221:255 222:255 223:211 224:166 225:112 226:59 227:26 228:14 229:9 230:19 231:47 232:81 233:100 234:88 235:61 236:54 237:88 238:163 239:255 240:255 241:255 242:255 243:208 244:162 245:112 246:65 247:35 248:24 249:22 250:20 251:31 252:52 253:69 254:64 255:46 256:49 257:88 258:162 259:255 260:255 261:255 262:255 263:206 264:163 265:117 266:72 267:46 268:42 269:47 270:41 271:34 272:34 273:41 274:36 275:27 276:40 277:84 278:158 279:255 280:255 281:255 282:255 283:206 284:166 285:122 286:80 287:60 288:64 289:76 290:73 291:57 292:36 293:26 294:17 295:16 296:36 297:82 298:156 299:255 300:255 301:255 302:255 303:208 304:168 305:125 306:85 307:69 308:83 309:104 310:107 311:87 312:53 313:24 314:9 315:9 316:32 317:79 318:154 319:255 320:255 321:255 322:255 323:211 324:171 325:127 326:87 327:74 328:95 329:128 330:138 331:116 332:75 333:32 334:8 335:4 336:26 337:73 338:150 339:255 340:255 341:255 342:255 343:211 344:173 345:128 346:88 347:79 348:105 349:144 350:159 351:144 352:101 353:50 354:16 355:5 356:21 357:66 358:147 359:255 360:255 361:255 362:255 363:213 364:175 365:131 366:90 367:82 368:113 369:154 370:176 371:168 372:129 373:79 374:36 375:16 376:25 377:64 378:145 379:255 380:255 381:255 382:255 383:216 384:182 385:138 386:97 387:88 388:121 389:163 390:183 391:180 392:154 393:107 394:63 395:39 396:44 397:78 398:148 399:255 400:255 
2.308989339768588e-05 1:255 2:255 3:182 4:166 5:182 6:205 7:227 8:241 9:249 10:252 11:252 12:255 13:255 14:253 15:250 16:247 17:245 18:248 19:255 20:255 21:255 22:255 23:210 24:197 25:203 26:213 27:223 28:228 29:233 30:237 31:240 32:246 33:247 34:242 35:236 36:230 37:229 38:238 39:255 40:255 41:255 42:255 43:227 44:210 45:202 46:197 47:194 48:196 49:203 50:210 51:224 52:235 53:237 54:224 55:207 56:195 57:195 58:215 59:255 60:255 61:255 62:255 63:230 64:204 65:183 66:166 67:154 68:154 69:166 70:180 71:203 72:220 73:219 74:200 75:175 76:159 77:160 78:191 79:255 80:255 81:255 82:255 83:227 84:194 85:165 86:136 87:112 88:106 89:121 90:148 91:179 92:201 93:201 94:180 95:150 96:128 97:128 98:170 99:255 100:255 101:255 102:255 103:224 104:189 105:153 106:116 107:81 108:63 109:78 110:115 111:154 112:180 113:184 114:167 115:135 116:108 117:107 118:156 119:255 120:255 121:255 122:255 123:223 124:188 125:149 126:106 127:64 128:38 129:46 130:84 131:127 132:157 133:167 134:157 135:128 136:99 137:96 138:146 139:255 140:255 141:255 142:255 143:226 144:191 145:151 146:104 147:58 148:27 149:26 150:54 151:97 152:134 153:152 154:148 155:121 156:92 157:85 158:138 159:255 160:255 161:255 162:255 163:227 164:193 165:152 166:104 167:56 168:20 169:14 170:29 171:65 172:103 173:129 174:130 175:110 176:82 177:73 178:132 179:255 180:255 181:255 182:255 183:232 184:196 185:155 186:106 187:54 188:14 189:4 190:9 191:30 192:69 193:99 194:108 195:95 196:73 197:71 198:132 199:255 200:255 201:255 202:255 203:236 204:202 205:161 206:114 207:64 208:24 209:8 210:13 211:24 212:48 213:72 214:82 215:72 216:60 217:67 218:126 219:255 220:255 221:255 222:255 223:236 224:207 225:168 226:121 227:72 228:34 229:22 230:28 231:30 232:33 233:43 234:51 235:48 236:43 237:51 238:114 239:255 240:255 241:255 242:255 243:239 244:209 245:171 246:124 247:77 248:44 249:38 250:51 251:51 252:40 253:30 254:26 255:22 256:23 257:39 258:108 259:255 260:255 261:255 262:255 263:243 264:214 265:174 266:126 267:78 268:50 269:56 270:80 271:84 272:65 273:37 274:17 275:8 276:11 277:29 278:103 279:255 280:255 281:255 282:255 283:248 284:220 285:178 286:129 287:82 288:57 289:72 290:102 291:111 292:95 293:59 294:25 295:7 296:8 297:26 298:101 299:255 300:255 301:255 302:255 303:248 304:220 305:181 306:133 307:87 308:65 309:83 310:116 311:132 312:121 313:88 314:45 315:15 316:8 317:26 318:101 319:255 320:255 321:255 322:255 323:245 324:217 325:182 326:139 327:95 328:73 329:92 330:124 331:150 332:142 333:115 334:71 335:30 336:14 337:26 338:101 339:255 340:255 341:255 342:255 343:246 344:221 345:188 346:147 347:107 348:86 349:100 350:134 351:160 352:159 353:137 354:100 355:58 356:31 357:36 358:105 359:255 360:255 361:255 362:255 363:251 364:232 365:199 366:161 367:127 368:108 369:116 370:148 371:173 372:180 373:167 374:136 375:100 376:73 377:67 378:124 379:255 380:255 381:255 382:255 383:255 384:242 385:215 386:183 387:156 388:142 389:147 390:168 391:191 392:200 393:188 394:169 395:146 396:126 397:117 398:153 399:255 400:255 
1.906731443283747e-05 1:255 2:255 3:159 4:139 5:162 6:188 7:211 8:229 9:239 10:245 11:249 12:252 13:254 14:255 15:255 16:254 17:252 18:253 19:255 20:255 21:255 22:255 23:193 24:177 25:186 26:201 27:218 28:228 29:235 30:243 31:246 32:248 33:249 34:247 35:245 36:243 37:243 38:247 39:255 40:255 41:255 42:255 43:215 44:197 45:193 46:195 47:203 48:212 49:222 50:233 51:240 52:242 53:239 54:232 55:222 56:216 57:218 58:233 59:255 60:255 61:255 62:255 63:224 64:200 65:185 66:174 67:172 68:180 69:192 70:210 71:227 72:232 73:223 74:204 75:186 76:177 77:181 78:209 79:255 80:255 81:255 82:255 83:223 84:192 85:167 86:143 87:130 88:135 89:155 90:181 91:204 92:213 93:202 94:179 95:154 96:141 97:147 98:186 99:255 100:255 101:255 102:255 103:217 104:182 105:148 106:114 107:91 108:91 109:116 110:151 111:177 112:191 113:183 114:161 115:132 116:115 117:124 118:172 119:255 120:255 121:255 122:255 123:214 124:177 125:136 126:95 127:65 128:57 129:79 130:119 131:152 132:169 133:166 134:148 135:118 136:98 137:109 138:165 139:255 140:255 141:255 142:255 143:219 144:179 145:133 146:86 147:51 148:38 149:50 150:83 151:122 152:147 153:149 154:136 155:108 156:87 157:97 158:157 159:255 160:255 161:255 162:255 163:224 164:183 165:137 166:87 167:46 168:28 169:30 170:53 171:87 172:119 173:132 174:120 175:96 176:78 177:88 178:150 179:255 180:255 181:255 182:255 183:228 184:188 185:141 186:89 187:44 188:19 189:13 190:29 191:52 192:83 193:99 194:95 195:81 196:71 197:82 198:144 199:255 200:255 201:255 202:255 203:229 204:191 205:146 206:97 207:50 208:18 209:5 210:13 211:29 212:48 213:64 214:68 215:61 216:58 217:74 218:139 219:255 220:255 221:255 222:255 223:231 224:195 225:154 226:106 227:59 228:28 229:10 230:11 231:18 232:30 233:38 234:41 235:40 236:42 237:62 238:132 239:255 240:255 241:255 242:255 243:234 244:199 245:159 246:111 247:64 248:35 249:25 250:30 251:31 252:25 253:22 254:19 255:20 256:29 257:53 258:125 259:255 260:255 261:255 262:255 263:237 264:203 265:163 266:115 267:69 268:45 269:43 270:52 271:52 272:37 273:21 274:9 275:7 276:17 277:43 278:119 279:255 280:255 281:255 282:255 283:239 284:208 285:167 286:119 287:77 288:60 289:68 290:79 291:82 292:65 293:38 294:15 295:5 296:10 297:36 298:115 299:255 300:255 301:255 302:255 303:241 304:213 305:172 306:124 307:86 308:73 309:88 310:108 311:117 312:102 313:70 314:36 315:14 316:11 317:32 318:110 319:255 320:255 321:255 322:255 323:240 324:214 325:177 326:132 327:95 328:81 329:99 330:130 331:144 332:134 333:105 334:66 335:32 336:18 337:31 338:103 339:255 340:255 341:255 342:255 343:237 344:214 345:182 346:142 347:105 348:90 349:109 350:144 351:162 352:158 353:134 354:97 355:57 356:33 357:37 358:104 359:255 360:255 361:255 362:255 363:236 364:219 365:190 366:151 367:116 368:102 369:121 370:153 371:181 372:184 373:164 374:132 375:95 376:65 377:61 378:121 379:255 380:255 381:255 382:255 383:233 384:221 385:200 386:167 387:135 388:123 389:143 390:169 391:193 392:204 393:192 394:167 395:141 396:117 397:107 398:148 399:255 400:255 
5.656569562686848e-05 1:255 2:255 3:223 4:209 5:208 6:209 7:213 8:222 9:232 10:248 11:254 12:255 13:254 14:247 15:241 16:243 17:250 18:254 19:255 20:255 21:255 22:255 23:237 24:221 25:205 26:191 27:184 28:192 29:209 30:227 31:249 32:251 33:233 34:215 35:206 36:210 37:226 38:245 39:255 40:255 41:255 42:255 43:240 44:216 45:183 46:154 47:142 48:149 49:171 50:205 51:229 52:229 53:209 54:176 55:160 56:169 57:196 58:232 59:255 60:255 61:255 62:255 63:237 64:204 65:160 66:117 67:95 68:101 69:130 70:173 71:208 72:211 73:181 74:143 75:119 76:131 77:174 78:221 79:255 80:255 81:255 82:255 83:233 84:192 85:141 86:93 87:62 88:62 89:92 90:138 91:177 92:189 93:158 94:116 95:91 96:108 97:159 98:213 99:255 100:255 101:255 102:255 103:233 104:188 105:133 106:82 107:45 108:37 109:62 110:104 111:148 112:164 113:142 114:98 115:76 116:97 117:150 118:208 119:255 120:255 121:255 122:255 123:236 124:189 125:133 126:79 127:38 128:24 129:37 130:73 131:124 132:144 133:127 134:89 135:67 136:89 137:144 138:204 139:255 140:255 141:255 142:255 143:237 144:190 145:134 146:79 147:37 148:18 149:21 150:49 151:94 152:121 153:109 154:78 155:59 156:83 157:138 158:200 159:255 160:255 161:255 162:255 163:241 164:194 165:135 166:79 167:37 168:17 169:14 170:30 171:63 172:84 173:82 174:60 175:50 176:78 177:134 178:197 179:255 180:255 181:255 182:255 183:247 184:201 185:138 186:80 187:39 188:23 189:19 190:20 191:37 192:57 193:57 194:41 195:41 196:76 197:134 198:197 199:255 200:255 201:255 202:255 203:250 204:202 205:138 206:82 207:47 208:40 209:44 210:33 211:24 212:34 213:32 214:23 215:30 216:72 217:134 218:197 219:255 220:255 221:255 222:255 223:250 224:205 225:142 226:88 227:60 228:61 229:68 230:56 231:30 232:22 233:15 234:11 235:23 236:67 237:129 238:192 239:255 240:255 241:255 242:255 243:248 244:206 245:147 246:91 247:64 248:73 249:87 250:80 251:48 252:22 253:9 254:6 255:20 256:60 257:120 258:187 259:255 260:255 261:255 262:255 263:247 264:207 265:149 266:94 267:69 268:83 269:110 270:109 271:72 272:32 273:10 274:5 275:16 276:55 277:115 278:184 279:255 280:255 281:255 282:255 283:245 284:206 285:149 286:94 287:71 288:91 289:130 290:134 291:102 292:53 293:16 294:6 295:15 296:52 297:113 298:182 299:255 300:255 301:255 302:255 303:242 304:205 305:149 306:96 307:73 308:96 309:141 310:153 311:131 312:78 313:31 314:10 315:17 316:54 317:111 318:178 319:255 320:255 321:255 322:255 323:240 324:206 325:154 326:103 327:82 328:105 329:150 330:173 331:158 332:109 333:59 334:30 335:31 336:62 337:110 338:175 339:255 340:255 341:255 342:255 343:242 344:212 345:165 346:121 347:106 348:128 349:169 350:200 351:187 352:148 353:102 354:71 355:66 356:84 357:117 358:172 359:255 360:255 361:255 362:255 363:248 364:223 365:186 366:156 367:147 368:163 369:196 370:220 371:214 372:180 373:152 374:125 375:114 376:120 377:131 378:166 379:255 380:255 381:255 382:255 383:254 384:237 385:216 386:198 387:192 388:201 389:220 390:239 391:235 392:220 393:197 394:171 395:157 396:148 397:135 398:156 399:255 400:255 
4.013663726385945e-05 1:255 2:255 3:210 4:198 5:204 6:212 7:221 8:232 9:246 10:252 11:255 12:255 13:252 14:250 15:244 16:239 17:241 18:248 19:255 20:255 21:255 22:255 23:222 24:208 25:203 26:199 27:198 28:202 29:211 30:229 31:241 32:246 33:235 34:221 35:207 36:200 37:205 38:224 39:255 40:255 41:255 42:255 43:226 44:206 45:186 46:167 47:158 48:158 49:170 50:187 51:214 52:227 53:217 54:190 55:168 56:159 57:164 58:196 59:255 60:255 61:255 62:255 63:227 64:198 65:169 66:135 67:112 68:109 69:121 70:154 71:184 72:204 73:201 74:172 75:138 76:119 77:131 78:182 79:255 80:255 81:255 82:255 83:229 84:192 85:156 86:116 87:81 88:70 89:81 90:119 91:160 92:186 93:184 94:161 95:121 96:97 97:114 98:176 99:255 100:255 101:255 102:255 103:233 104:191 105:149 106:105 107:65 108:46 109:55 110:90 111:138 112:167 113:168 114:147 115:110 116:87 117:106 118:172 119:255 120:255 121:255 122:255 123:236 124:195 125:145 126:96 127:55 128:34 129:36 130:66 131:110 132:142 133:150 134:129 135:95 136:78 137:101 138:168 139:255 140:255 141:255 142:255 143:239 144:201 145:143 146:87 147:49 148:27 149:21 150:37 151:77 152:110 153:123 154:107 155:80 156:70 157:96 158:164 159:255 160:255 161:255 162:255 163:243 164:205 165:145 166:87 167:47 168:19 169:11 170:22 171:48 172:78 173:90 174:86 175:64 176:57 177:90 178:162 179:255 180:255 181:255 182:255 183:243 184:205 185:145 186:88 187:47 188:21 189:15 190:16 191:31 192:48 193:64 194:57 195:40 196:41 197:78 198:158 199:255 200:255 201:255 202:255 203:243 204:205 205:153 206:100 207:58 208:34 209:31 210:31 211:32 212:25 213:31 214:33 215:27 216:36 217:78 218:158 219:255 220:255 221:255 222:255 223:239 224:200 225:151 226:100 227:63 228:51 229:56 230:55 231:39 232:24 233:18 234:14 235:14 236:32 237:78 238:158 239:255 240:255 241:255 242:255 243:238 244:199 245:151 246:100 247:66 248:64 249:81 250:82 251:68 252:35 253:15 254:6 255:7 256:29 257:78 258:158 259:255 260:255 261:255 262:255 263:238 264:199 265:151 266:100 267:70 268:77 269:100 270:116 271:94 272:57 273:22 274:6 275:6 276:28 277:78 278:158 279:255 280:255 281:255 282:255 283:241 284:203 285:152 286:100 287:72 288:84 289:111 290:140 291:124 292:85 293:39 294:13 295:8 296:25 297:69 298:149 299:255 300:255 301:255 302:255 303:245 304:208 305:156 306:103 307:75 308:89 309:125 310:155 311:152 312:117 313:68 314:32 315:17 316:28 317:66 318:143 319:255 320:255 321:255 322:255 323:249 324:213 325:165 326:115 327:87 328:102 329:144 330:170 331:173 332:148 333:106 334:66 335:45 336:50 337:79 338:144 339:255 340:255 341:255 342:255 343:251 344:222 345:182 346:141 347:117 348:129 349:165 350:190 351:200 352:180 353:147 354:116 355:96 356:93 357:106 358:152 359:255 360:255 361:255 362:255 363:252 364:236 365:206 366:180 367:168 368:173 369:192 370:216 371:227 372:216 373:189 374:170 375:156 376:144 377:140 378:170 379:255 380:255 381:255 382:255 383:255 384:251 385:237 386:222 387:214 388:217 389:227 390:245 391:249 392:246 393:229 394:214 395:196 396:176 397:156 398:170 399:255 400:255 
-1.430770804168365e-05 1:255 2:255 3:182 4:167 5:181 6:196 7:206 8:207 9:209 10:219 11:231 12:247 13:254 14:252 15:236 16:211 17:186 18:191 19:255 20:255 21:255 22:255 23:206 24:196 25:201 26:200 27:195 28:190 29:187 30:194 31:203 32:220 33:238 34:243 35:233 36:215 37:194 38:196 39:255 40:255 41:255 42:255 43:231 44:221 45:209 46:191 47:175 48:163 49:155 50:162 51:169 52:188 53:216 54:235 55:235 56:223 57:207 58:209 59:255 60:255 61:255 62:255 63:242 64:229 65:205 66:176 67:152 68:132 69:121 70:127 71:138 72:161 73:190 74:220 75:238 76:239 77:225 78:222 79:255 80:255 81:255 82:255 83:241 84:222 85:192 86:158 87:126 88:98 89:83 90:86 91:105 92:136 93:169 94:206 95:237 96:248 97:239 98:233 99:255 100:255 101:255 102:255 103:235 104:209 105:177 106:142 107:104 108:67 109:45 110:46 111:73 112:113 113:149 114:189 115:228 116:249 117:247 118:241 119:255 120:255 121:255 122:255 123:231 124:198 125:165 126:129 127:89 128:47 129:18 130:17 131:45 132:90 133:132 134:170 135:214 136:246 137:251 138:247 139:255 140:255 141:255 142:255 143:225 144:188 145:153 146:115 147:73 148:34 149:11 150:7 151:24 152:71 153:119 154:158 155:203 156:240 157:254 158:252 159:255 160:255 161:255 162:255 163:216 164:178 165:141 166:99 167:57 168:27 169:20 170:16 171:18 172:57 173:106 174:149 175:192 176:232 177:253 178:254 179:255 180:255 181:255 182:255 183:210 184:167 185:127 186:83 187:50 188:40 189:47 190:46 191:29 192:49 193:97 194:141 195:180 196:217 197:244 198:251 199:255 200:255 201:255 202:255 203:206 204:159 205:117 206:75 207:50 208:58 209:75 210:72 211:46 212:45 213:86 214:129 215:169 216:209 217:239 218:251 219:255 220:255 221:255 222:255 223:198 224:149 225:103 226:60 227:49 228:74 229:95 230:90 231:54 232:33 233:70 234:118 235:160 236:200 237:234 238:251 239:255 240:255 241:255 242:255 243:190 244:138 245:91 246:53 247:47 248:75 249:99 250:94 251:58 252:25 253:52 254:101 255:148 256:192 257:228 258:246 259:255 260:255 261:255 262:255 263:182 264:125 265:78 266:40 267:35 268:62 269:83 270:81 271:51 272:19 273:36 274:85 275:134 276:178 277:211 278:233 279:255 280:255 281:255 282:255 283:173 284:112 285:63 286:24 287:16 288:35 289:54 290:53 291:31 292:10 293:23 294:69 295:120 296:161 297:188 298:212 299:255 300:255 301:255 302:255 303:163 304:100 305:51 306:16 307:10 308:21 309:37 310:36 311:18 312:5 313:14 314:55 315:105 316:145 317:167 318:193 319:255 320:255 321:255 322:255 323:154 324:88 325:47 326:28 327:34 328:47 329:57 330:53 331:36 332:18 333:12 334:43 335:90 336:131 337:151 338:179 339:255 340:255 341:255 342:255 343:148 344:81 345:55 346:60 347:82 348:98 349:105 350:97 351:81 352:53 353:27 354:39 355:78 356:116 357:135 358:166 359:255 360:255 361:255 362:255 363:150 364:89 365:79 366:98 367:124 368:138 369:143 370:139 371:120 372:91 373:60 374:55 375:78 376:106 377:118 378:150 379:255 380:255 381:255 382:255 383:162 384:119 385:114 386:128 387:151 388:168 389:171 390:166 391:148 392:126 393:97 394:83 395:88 396:99 397:100 398:135 399:255 400:255 
-1.671379527898704e-05 1:255 2:255 3:227 4:217 5:213 6:203 7:190 8:183 9:184 10:193 11:206 12:225 13:236 14:245 15:251 16:253 17:246 18:239 19:255 20:255 21:255 22:255 23:236 24:220 25:202 26:180 27:160 28:150 29:148 30:155 31:170 32:195 33:222 34:240 35:250 36:254 37:251 38:246 39:255 40:255 41:255 42:255 43:238 44:214 45:187 46:158 47:130 48:110 49:103 50:113 51:138 52:167 53:202 54:232 55:248 56:254 57:253 58:250 59:255 60:255 61:255 62:255 63:236 64:207 65:175 66:140 67:102 68:68 69:52 70:68 71:103 72:143 73:181 74:218 75:241 76:249 77:249 78:249 79:255 80:255 81:255 82:255 83:229 84:197 85:161 86:121 87:75 88:32 89:16 90:30 91:73 92:121 93:162 94:202 95:231 96:245 97:247 98:246 99:255 100:255 101:255 102:255 103:222 104:184 105:147 106:104 107:54 108:13 109:4 110:10 111:50 112:101 113:146 114:187 115:219 116:239 117:243 118:243 119:255 120:255 121:255 122:255 123:216 124:174 125:134 126:88 127:42 128:14 129:12 130:12 131:34 132:81 133:131 134:172 135:207 136:231 137:239 138:241 139:255 140:255 141:255 142:255 143:207 144:165 145:122 146:73 147:38 148:32 149:37 150:31 151:29 152:66 153:117 154:160 155:196 156:224 157:235 158:239 159:255 160:255 161:255 162:255 163:198 164:152 165:106 166:61 167:44 168:60 169:73 170:62 171:35 172:56 173:104 174:149 175:187 176:217 177:231 178:237 179:255 180:255 181:255 182:255 183:192 184:140 185:91 186:50 187:48 188:84 189:103 190:84 191:46 192:43 193:87 194:137 195:178 196:210 197:228 198:234 199:255 200:255 201:255 202:255 203:183 204:128 205:77 206:44 207:55 208:93 209:112 210:94 211:50 212:24 213:60 214:117 215:166 216:202 217:221 218:230 219:255 220:255 221:255 222:255 223:173 224:112 225:59 226:30 227:44 228:78 229:96 230:83 231:43 232:16 233:48 234:103 235:152 236:190 237:209 238:221 239:255 240:255 241:255 242:255 243:164 244:96 245:45 246:17 247:26 248:52 249:69 250:57 251:24 252:8 253:34 254:87 255:138 256:174 257:191 258:207 259:255 260:255 261:255 262:255 263:154 264:83 265:38 266:16 267:22 268:38 269:49 270:37 271:14 272:4 273:20 274:68 275:120 276:157 277:173 278:193 279:255 280:255 281:255 282:255 283:141 284:71 285:40 286:36 287:50 288:62 289:66 290:55 291:34 292:14 293:16 294:55 295:104 296:142 297:157 298:179 299:255 300:255 301:255 302:255 303:133 304:67 305:55 306:71 307:95 308:107 309:109 310:100 311:78 312:44 313:26 314:49 315:92 316:127 317:138 318:164 319:255 320:255 321:255 322:255 323:137 324:81 325:83 326:109 327:135 328:147 329:149 330:143 331:123 332:88 333:54 334:58 335:87 336:112 337:116 338:144 339:255 340:255 341:255 342:255 343:156 344:112 345:120 346:144 347:166 348:179 349:181 350:175 351:155 352:128 353:97 354:86 355:93 356:101 357:94 358:122 359:255 360:255 361:255 362:255 363:179 364:150 365:157 366:172 367:190 368:204 369:208 370:198 371:181 372:159 373:136 374:121 375:108 376:92 377:68 378:98 379:255 380:255 381:255 382:255 383:205 384:183 385:187 386:200 387:214 388:221 389:219 390:210 391:200 392:180 393:162 394:137 395:109 396:79 397:44 398:77 399:255 400:255 
-1.382002367998129e-05 1:255 2:255 3:203 4:193 5:202 6:214 7:223 8:224 9:222 10:225 11:229 12:238 13:244 14:247 15:251 16:251 17:244 18:241 19:255 20:255 21:255 22:255 23:220 24:212 25:211 26:206 27:201 28:196 29:191 30:192 31:196 32:206 33:221 34:233 35:243 36:247 37:245 38:243 39:255 40:255 41:255 42:255 43:236 44:224 45:210 46:193 47:178 48:166 49:158 50:156 51:161 52:173 53:192 54:213 55:235 56:248 57:249 58:247 59:255 60:255 61:255 62:255 63:243 64:226 65:203 66:178 67:153 68:133 69:119 70:115 71:124 72:143 73:166 74:194 75:224 76:246 77:253 78:252 79:255 80:255 81:255 82:255 83:242 84:221 85:193 86:163 87:130 88:97 89:75 90:64 91:81 92:113 93:145 94:177 95:212 96:241 97:254 98:255 99:255 100:255 101:255 102:255 103:238 104:213 105:182 106:149 107:110 108:68 109:35 110:22 111:40 112:84 113:126 114:163 115:199 116:231 117:250 118:255 119:255 120:255 121:255 122:255 123:234 124:204 125:172 126:135 127:92 128:46 129:12 130:4 131:15 132:57 133:107 134:149 135:186 136:218 137:241 138:252 139:255 140:255 141:255 142:255 143:228 144:196 145:162 146:121 147:73 148:28 149:9 150:5 151:9 152:38 153:89 154:135 155:174 156:207 157:231 158:246 159:255 160:255 161:255 162:255 163:221 164:185 165:147 166:103 167:58 168:27 169:25 170:24 171:22 172:33 173:73 174:121 175:161 176:192 177:219 178:241 179:255 180:255 181:255 182:255 183:212 184:174 185:137 186:93 187:54 188:41 189:57 190:66 191:49 192:37 193:65 194:108 195:150 196:184 197:213 198:240 199:255 200:255 201:255 202:255 203:200 204:161 205:124 206:82 207:54 208:60 209:84 210:95 211:79 212:50 213:60 214:96 215:136 216:172 217:205 218:236 219:255 220:255 221:255 222:255 223:192 224:147 225:106 226:65 227:50 228:73 229:97 230:105 231:87 232:61 233:51 234:78 235:121 236:161 237:194 238:228 239:255 240:255 241:255 242:255 243:185 244:134 245:91 246:50 247:38 248:65 249:88 250:94 251:82 252:50 253:35 254:62 255:107 256:149 257:185 258:221 259:255 260:255 261:255 262:255 263:177 264:120 265:72 266:32 267:22 268:42 269:66 270:73 271:55 272:29 273:19 274:46 275:93 276:138 277:174 278:211 279:255 280:255 281:255 282:255 283:167 284:103 285:50 286:15 287:12 288:26 289:44 290:49 291:32 292:14 293:8 294:28 295:73 296:123 297:161 298:200 299:255 300:255 301:255 302:255 303:156 304:83 305:35 306:16 307:25 308:43 309:55 310:56 311:45 312:23 313:10 314:18 315:57 316:106 317:146 318:191 319:255 320:255 321:255 322:255 323:146 324:71 325:40 326:41 327:64 328:88 329:99 330:100 331:89 332:62 333:34 334:23 335:48 336:92 337:132 338:180 339:255 340:255 341:255 342:255 343:144 344:82 345:70 346:84 347:110 348:134 349:143 350:145 351:134 352:114 353:78 354:47 355:50 356:83 357:118 358:166 359:255 360:255 361:255 362:255 363:158 364:111 365:110 366:125 367:147 368:167 369:178 370:180 371:169 372:150 373:122 374:90 375:76 376:85 377:104 378:152 379:255 380:255 381:255 382:255 383:177 384:145 385:146 386:157 387:173 388:192 389:207 390:207 391:197 392:177 393:153 394:130 395:111 396:100 397:98 398:139 399:255 400:255 
-1.709939889558249e-07 1:255 2:255 3:234 4:234 5:239 6:243 7:248 8:250 9:245 10:239 11:231 12:225 13:224 14:226 15:231 16:237 17:244 18:252 19:255 20:255 21:255 22:255 23:246 24:247 25:247 26:243 27:235 28:225 29:218 30:208 31:200 32:195 33:192 34:195 35:203 36:213 37:225 38:239 39:255 40:255 41:255 42:255 43:246 44:246 45:242 46:231 47:217 48:196 49:167 50:143 51:124 52:118 53:116 54:120 55:138 56:163 57:191 58:225 59:255 60:255 61:255 62:255 63:241 64:237 65:228 66:209 67:179 68:142 69:103 70:78 71:63 72:60 73:64 74:70 75:85 76:114 77:157 78:211 79:255 80:255 81:255 82:255 83:234 84:225 85:210 86:175 87:128 88:85 89:55 90:45 91:51 92:61 93:68 94:73 95:80 96:102 97:143 98:199 99:255 100:255 101:255 102:255 103:226 104:211 105:183 106:133 107:80 108:45 109:39 110:53 111:81 112:104 113:114 114:117 115:118 116:129 117:158 118:203 119:255 120:255 121:255 122:255 123:220 124:192 125:146 126:88 127:44 128:29 129:52 130:86 131:123 132:148 133:164 134:167 135:164 136:168 137:185 138:217 139:255 140:255 141:255 142:255 143:214 144:170 145:112 146:54 147:24 148:34 149:77 150:118 151:147 152:165 153:176 154:177 155:177 156:184 157:198 158:221 159:255 160:255 161:255 162:255 163:209 164:153 165:90 166:36 167:21 168:52 169:97 170:135 171:142 172:142 173:139 174:136 175:140 176:157 177:182 178:215 179:255 180:255 181:255 182:255 183:207 184:145 185:77 186:26 187:24 188:68 189:111 190:137 191:129 192:98 193:78 194:72 195:77 196:99 197:144 198:202 199:255 200:255 201:255 202:255 203:198 204:135 205:71 206:26 207:30 208:78 209:127 210:140 211:121 212:83 213:42 214:21 215:18 216:44 217:97 218:171 219:255 220:255 221:255 222:255 223:195 224:135 225:78 226:34 227:34 228:83 229:132 230:153 231:139 232:105 233:68 234:28 235:9 236:24 237:72 238:153 239:255 240:255 241:255 242:255 243:204 244:149 245:91 246:44 247:38 248:79 249:128 250:162 251:169 252:147 253:103 254:56 255:20 256:17 257:57 258:143 259:255 260:255 261:255 262:255 263:212 264:163 265:104 266:51 267:33 268:60 269:110 270:153 271:171 272:161 273:120 274:70 275:26 276:15 277:53 278:141 279:255 280:255 281:255 282:255 283:217 284:182 285:127 286:68 287:35 288:42 289:81 290:119 291:143 292:137 293:104 294:57 295:19 296:14 297:53 298:141 299:255 300:255 301:255 302:255 303:224 304:202 305:160 306:102 307:56 308:39 309:53 310:76 311:94 312:89 313:61 314:29 315:9 316:17 317:59 318:145 319:255 320:255 321:255 322:255 323:233 324:219 325:193 326:149 327:99 328:61 329:48 330:50 331:51 332:45 333:22 334:10 335:10 336:32 337:79 338:156 339:255 340:255 341:255 342:255 343:244 344:236 345:221 346:194 347:154 348:111 349:83 350:62 351:52 352:41 353:32 354:30 355:40 356:69 357:111 358:170 359:255 360:255 361:255 362:255 363:252 364:252 365:242 366:226 367:205 368:177 369:147 370:123 371:108 372:95 373:93 374:97 375:109 376:128 377:148 378:184 379:255 380:255 381:255 382:255 383:254 384:255 385:254 386:246 387:231 388:217 389:207 390:197 391:187 392:172 393:166 394:168 395:172 396:174 397:171 398:187 399:255 400:255 
-8.225598759579768e-06 1:255 2:255 3:226 4:216 5:219 6:227 7:238 8:249 9:253 10:255 11:255 12:252 13:246 14:242 15:242 16:245 17:249 18:251 19:255 20:255 21:255 22:255 23:227 24:204 25:194 26:195 27:210 28:234 29:246 30:252 31:251 32:239 33:219 34:205 35:207 36:223 37:239 38:249 39:255 40:255 41:255 42:255 43:215 44:181 45:154 46:146 47:166 48:203 49:233 50:243 51:241 52:214 53:180 54:156 55:162 56:189 57:220 58:244 59:255 60:255 61:255 62:255 63:201 64:152 65:114 66:102 67:124 68:168 69:214 70:234 71:228 72:190 73:141 74:113 75:119 76:154 77:201 78:238 79:255 80:255 81:255 82:255 83:192 84:133 85:87 86:70 87:93 88:144 89:198 90:225 91:215 92:168 93:113 94:81 95:89 96:134 97:191 98:235 99:255 100:255 101:255 102:255 103:188 104:123 105:72 106:51 107:74 108:128 109:184 110:213 111:199 112:150 113:95 114:61 115:73 116:124 117:187 118:234 119:255 120:255 121:255 122:255 123:184 124:118 125:65 126:41 127:61 128:110 129:162 130:192 131:179 132:132 133:80 134:49 135:63 136:117 137:182 138:233 139:255 140:255 141:255 142:255 143:181 144:114 145:60 146:32 147:45 148:85 149:128 150:156 151:148 152:108 153:63 154:39 155:56 156:109 157:175 158:229 159:255 160:255 161:255 162:255 163:178 164:111 165:55 166:20 167:23 168:55 169:90 170:104 171:99 172:73 173:41 174:26 175:49 176:105 177:170 178:225 179:255 180:255 181:255 182:255 183:175 184:108 185:52 186:15 187:9 188:24 189:47 190:57 191:54 192:38 193:14 194:11 195:45 196:105 197:168 198:221 199:255 200:255 201:255 202:255 203:173 204:107 205:52 206:14 207:4 208:12 209:30 210:41 211:37 212:17 213:5 214:9 215:44 216:103 217:164 218:217 219:255 220:255 221:255 222:255 223:173 224:107 225:52 226:15 227:9 228:24 229:50 230:62 231:55 232:31 233:10 234:9 235:44 236:103 237:164 238:217 239:255 240:255 241:255 242:255 243:175 244:108 245:52 246:18 247:22 248:54 249:91 250:107 251:95 252:61 253:25 254:13 255:42 256:100 257:161 258:215 259:255 260:255 261:255 262:255 263:177 264:111 265:55 266:25 267:38 268:82 269:129 270:155 271:140 272:95 273:46 274:22 275:43 276:98 277:158 278:211 279:255 280:255 281:255 282:255 283:183 284:116 285:61 286:35 287:53 288:105 289:159 290:188 291:173 292:120 293:62 294:30 295:45 296:95 297:153 298:205 299:255 300:255 301:255 302:255 303:189 304:122 305:68 306:43 307:64 308:119 309:179 310:208 311:190 312:134 313:74 314:37 315:47 316:93 317:145 318:196 319:255 320:255 321:255 322:255 323:195 324:132 325:80 326:56 327:77 328:131 329:190 330:221 331:202 332:148 333:89 334:51 335:55 336:93 337:134 338:182 339:255 340:255 341:255 342:255 343:202 344:148 345:105 346:86 347:103 348:151 349:201 350:231 351:216 352:169 353:114 354:78 355:76 356:100 357:123 358:161 359:255 360:255 361:255 362:255 363:212 364:175 365:144 366:130 367:146 368:185 369:222 370:240 371:230 372:193 373:145 374:115 375:108 376:113 377:114 378:143 379:255 380:255 381:255 382:255 383:234 384:207 385:188 386:182 387:191 388:216 389:239 390:246 391:238 392:214 393:183 394:153 395:134 396:121 397:101 398:124 399:255 400:255 
-2.900740434234966e-06 1:255 2:255 3:186 4:175 5:190 6:210 7:227 8:237 9:246 10:253 11:255 12:254 13:253 14:252 15:250 16:249 17:247 18:248 19:255 20:255 21:255 22:255 23:210 24:201 25:208 26:217 27:225 28:231 29:242 30:249 31:251 32:249 33:244 34:242 35:239 36:235 37:235 38:243 39:255 40:255 41:255 42:255 43:224 44:209 45:203 46:202 47:206 48:215 49:229 50:234 51:241 52:235 53:230 54:220 55:211 56:209 57:216 58:232 59:255 60:255 61:255 62:255 63:224 64:200 65:183 66:171 67:171 68:186 69:204 70:216 71:225 72:215 73:200 74:182 75:170 76:172 77:186 78:214 79:255 80:255 81:255 82:255 83:215 84:180 85:154 86:134 87:130 88:146 89:171 90:194 91:204 92:190 93:166 94:140 95:125 96:130 97:152 98:192 99:255 100:255 101:255 102:255 103:206 104:161 105:124 106:96 107:88 108:107 109:137 110:166 111:178 112:162 113:131 114:100 115:82 116:91 117:122 118:175 119:255 120:255 121:255 122:255 123:201 124:152 125:105 126:67 127:55 128:73 129:102 130:135 131:151 132:132 133:97 134:65 135:50 136:61 137:99 138:165 139:255 140:255 141:255 142:255 143:198 144:148 145:95 146:52 147:36 148:43 149:67 150:99 151:119 152:98 153:67 154:40 155:31 156:43 157:80 158:153 159:255 160:255 161:255 162:255 163:194 164:142 165:87 166:43 167:25 168:24 169:40 170:61 171:77 172:61 173:41 174:22 175:16 176:28 177:61 178:136 179:255 180:255 181:255 182:255 183:190 184:135 185:81 186:40 187:22 188:18 189:23 190:34 191:40 192:29 193:16 194:10 195:8 196:17 197:45 198:122 199:255 200:255 201:255 202:255 203:186 204:128 205:78 206:44 207:30 208:20 209:16 210:12 211:10 212:9 213:8 214:8 215:10 216:17 217:38 218:112 219:255 220:255 221:255 222:255 223:182 224:123 225:78 226:50 227:41 228:37 229:29 230:11 231:2 232:7 233:16 234:27 235:31 236:34 237:46 238:112 239:255 240:255 241:255 242:255 243:185 244:126 245:88 246:66 247:60 248:59 249:44 250:23 251:11 252:18 253:36 254:54 255:55 256:48 257:56 258:120 259:255 260:255 261:255 262:255 263:188 264:131 265:95 266:78 267:79 268:83 269:76 270:59 271:37 272:56 273:75 274:88 275:84 276:71 277:67 278:122 279:255 280:255 281:255 282:255 283:189 284:134 285:99 286:86 287:96 288:112 289:117 290:108 291:91 292:105 293:119 294:123 295:112 296:90 297:77 298:122 299:255 300:255 301:255 302:255 303:191 304:138 305:103 306:94 307:112 308:138 309:155 310:157 311:150 312:156 313:160 314:155 315:135 316:106 317:83 318:122 319:255 320:255 321:255 322:255 323:193 324:141 325:107 326:101 327:123 328:155 329:182 330:195 331:196 332:198 333:195 334:182 335:155 336:118 337:88 338:122 339:255 340:255 341:255 342:255 343:194 344:144 345:113 346:107 347:130 348:167 349:200 350:218 351:227 352:223 353:216 354:200 355:170 356:129 357:94 358:123 359:255 360:255 361:255 362:255 363:197 364:152 365:121 366:117 367:141 368:178 369:210 370:229 371:239 372:236 373:229 374:211 375:183 376:145 377:109 378:131 379:255 380:255 381:255 382:255 383:207 384:164 385:140 386:137 387:155 388:186 389:217 390:235 391:244 392:245 393:240 394:226 395:200 396:167 397:138 398:157 399:255 400:255 
-3.917829813422526e-05 1:255 2:255 3:171 4:161 5:185 6:210 7:231 8:243 9:251 10:255 11:255 12:251 13:250 14:253 15:255 16:255 17:252 18:248 19:255 20:255 21:255 22:255 23:200 24:192 25:206 26:220 27:232 28:240 29:247 30:248 31:247 32:244 33:242 34:240 35:241 36:243 37:245 38:248 39:255 40:255 41:255 42:255 43:217 44:205 45:207 46:213 47:221 48:229 49:237 50:239 51:237 52:232 53:226 54:221 55:222 56:228 57:233 58:241 59:255 60:255 61:255 62:255 63:221 64:201 65:192 66:191 67:196 68:206 69:220 70:230 71:225 72:213 73:199 74:189 75:190 76:199 77:213 78:232 79:255 80:255 81:255 82:255 83:216 84:183 85:162 86:152 87:155 88:174 89:199 90:212 91:205 92:184 93:161 94:143 95:146 96:164 97:188 98:221 99:255 100:255 101:255 102:255 103:208 104:165 105:127 106:103 107:107 108:135 109:170 110:187 111:179 112:154 113:117 114:93 115:98 116:127 117:167 118:210 119:255 120:255 121:255 122:255 123:203 124:152 125:99 126:64 127:64 128:94 129:132 130:158 131:149 132:121 133:74 134:52 135:58 136:95 137:149 138:200 139:255 140:255 141:255 142:255 143:199 144:142 145:88 146:48 147:38 148:60 149:92 150:122 151:114 152:84 153:46 154:29 155:36 156:74 157:130 158:190 159:255 160:255 161:255 162:255 163:193 164:136 165:83 166:41 167:26 168:35 169:58 170:76 171:75 172:56 173:31 174:16 175:24 176:60 177:114 178:182 179:255 180:255 181:255 182:255 183:188 184:129 185:73 186:31 187:15 188:17 189:32 190:41 191:37 192:31 193:13 194:6 195:16 196:48 197:100 198:173 199:255 200:255 201:255 202:255 203:183 204:120 205:68 206:32 207:16 208:10 209:14 210:17 211:14 212:7 213:3 214:4 215:11 216:38 217:90 218:169 219:255 220:255 221:255 222:255 223:177 224:112 225:64 226:37 227:29 228:26 229:18 230:9 231:6 232:11 233:16 234:21 235:21 236:37 237:85 238:164 239:255 240:255 241:255 242:255 243:175 244:109 245:64 246:48 247:52 248:50 249:34 250:21 251:17 252:28 253:44 254:49 255:40 256:40 257:75 258:155 259:255 260:255 261:255 262:255 263:176 264:111 265:73 266:66 267:78 268:82 269:68 270:50 271:45 272:57 273:74 274:73 275:59 276:52 277:76 278:151 279:255 280:255 281:255 282:255 283:177 284:115 285:83 286:82 287:105 288:120 289:114 290:95 291:89 292:98 293:110 294:101 295:77 296:63 297:81 298:150 299:255 300:255 301:255 302:255 303:177 304:119 305:89 306:93 307:124 308:150 309:155 310:144 311:138 312:141 313:143 314:127 315:94 316:70 317:83 318:148 319:255 320:255 321:255 322:255 323:179 324:122 325:93 326:99 327:134 328:166 329:182 330:183 331:179 332:177 333:168 334:147 335:107 336:76 337:83 338:145 339:255 340:255 341:255 342:255 343:182 344:126 345:97 346:105 347:142 348:178 349:199 350:208 351:207 352:201 353:189 354:161 355:118 356:83 357:81 358:140 359:255 360:255 361:255 362:255 363:187 364:134 365:104 366:111 367:150 368:186 369:210 370:223 371:223 372:217 373:200 374:171 375:131 376:94 377:83 378:137 379:255 380:255 381:255 382:255 383:197 384:150 385:118 386:121 387:157 388:193 389:218 390:231 391:231 392:227 393:211 394:187 395:154 396:117 397:97 398:142 399:255 400:255 
-3.181190099967044e-05 1:255 2:255 3:170 4:160 5:183 6:204 7:224 8:237 9:241 10:245 11:250 12:246 13:249 14:252 15:253 16:254 17:255 18:255 19:255 20:255 21:255 22:255 23:203 24:196 25:208 26:220 27:227 28:228 29:223 30:222 31:217 32:221 33:229 34:237 35:243 36:248 37:252 38:254 39:255 40:255 41:255 42:255 43:228 44:217 45:212 46:206 47:198 48:187 49:177 50:170 51:163 52:169 53:178 54:188 55:205 56:226 57:243 58:252 59:255 60:255 61:255 62:255 63:237 64:218 65:196 66:173 67:151 68:131 69:115 70:106 71:100 72:106 73:118 74:134 75:159 76:191 77:223 78:246 79:255 80:255 81:255 82:255 83:229 84:199 85:165 86:131 87:101 88:76 89:61 90:57 91:59 92:66 93:77 94:96 95:124 96:162 97:206 98:241 99:255 100:255 101:255 102:255 103:215 104:172 105:130 106:93 107:64 108:44 109:42 110:50 111:59 112:69 113:78 114:93 115:117 116:154 117:199 118:237 119:255 120:255 121:255 122:255 123:201 124:148 125:102 126:66 127:45 128:42 129:58 130:79 131:92 132:102 133:112 134:122 135:139 136:167 137:203 138:236 139:255 140:255 141:255 142:255 143:191 144:134 145:86 146:50 147:38 148:51 149:76 150:107 151:125 152:136 153:145 154:157 155:171 156:189 157:213 158:239 159:255 160:255 161:255 162:255 163:189 164:131 165:83 166:45 167:28 168:38 169:68 170:100 171:120 172:144 173:158 174:170 175:184 176:200 177:218 178:238 179:255 180:255 181:255 182:255 183:197 184:142 185:92 186:47 187:21 188:19 189:32 190:59 191:85 192:107 193:124 194:148 195:170 196:191 197:213 198:234 199:255 200:255 201:255 202:255 203:212 204:163 205:119 206:74 207:35 208:14 209:9 210:14 211:30 212:56 213:74 214:100 215:129 216:161 217:193 218:223 219:255 220:255 221:255 222:255 223:237 224:198 225:153 226:114 227:77 228:41 229:18 230:15 231:14 232:21 233:29 234:52 235:87 236:123 237:159 238:205 239:255 240:255 241:255 242:255 243:246 244:226 245:195 246:161 247:129 248:98 249:76 250:54 251:38 252:22 253:13 254:21 255:44 256:82 257:125 258:180 259:255 260:255 261:255 262:255 263:250 264:241 265:226 266:205 267:179 268:156 269:137 270:108 271:85 272:52 273:22 274:10 275:16 276:45 277:92 278:161 279:255 280:255 281:255 282:255 283:247 284:235 285:224 286:211 287:197 288:185 289:173 290:151 291:124 292:83 293:37 294:11 295:6 296:25 297:69 298:147 299:255 300:255 301:255 302:255 303:236 304:213 305:194 306:181 307:175 308:174 309:169 310:156 311:132 312:88 313:41 314:12 315:5 316:21 317:63 318:142 319:255 320:255 321:255 322:255 323:222 324:187 325:157 326:138 327:130 328:131 329:130 330:119 331:103 332:68 333:34 334:13 335:10 336:31 337:74 338:147 339:255 340:255 341:255 342:255 343:214 344:171 345:132 346:103 347:88 348:80 349:78 350:72 351:59 352:45 353:27 354:22 355:30 356:56 357:98 358:163 359:255 360:255 361:255 362:255 363:221 364:181 365:138 366:99 367:73 368:60 369:53 370:51 371:44 372:41 373:42 374:57 375:75 376:101 377:135 378:181 379:255 380:255 381:255 382:255 383:235 384:203 385:170 386:139 387:113 388:95 389:81 390:81 391:81 392:88 393:98 394:111 395:125 396:145 397:164 398:191 399:255 400:255 
-1.715155941558579e-05 1:255 2:255 3:212 4:204 5:215 6:230 7:241 8:246 9:251 10:253 11:255 12:254 13:247 14:237 15:232 16:237 17:245 18:252 19:255 20:255 21:255 22:255 23:238 24:230 25:221 26:208 27:204 28:216 29:242 30:251 31:253 32:248 33:221 34:185 35:163 36:174 37:208 38:240 39:255 40:255 41:255 42:255 43:243 44:225 45:190 46:152 47:138 48:158 49:205 50:242 51:248 52:237 53:185 54:134 55:108 56:117 57:160 58:219 59:255 60:255 61:255 62:255 63:232 64:206 65:157 66:108 67:92 68:110 69:157 70:219 71:242 72:223 73:157 74:100 75:72 76:80 77:126 78:197 79:255 80:255 81:255 82:255 83:218 84:190 85:138 86:82 87:60 88:76 89:125 90:197 91:234 92:213 93:145 94:84 95:50 96:57 97:105 98:177 99:255 100:255 101:255 102:255 103:209 104:181 105:131 106:70 107:39 108:52 109:107 110:181 111:226 112:212 113:146 114:83 115:41 116:44 117:91 118:165 119:255 120:255 121:255 122:255 123:203 124:179 125:130 126:67 127:31 128:40 129:98 130:170 131:224 132:217 133:154 134:88 135:41 136:38 137:82 138:158 139:255 140:255 141:255 142:255 143:197 144:175 145:130 146:68 147:30 148:36 149:95 150:164 151:228 152:224 153:162 154:95 155:43 156:36 157:78 158:153 159:255 160:255 161:255 162:255 163:191 164:170 165:130 166:70 167:30 168:32 169:93 170:162 171:227 172:226 173:165 174:100 175:43 176:32 177:73 178:149 179:255 180:255 181:255 182:255 183:188 184:172 185:134 186:71 187:27 188:27 189:86 190:155 191:218 192:224 193:170 194:102 195:42 196:30 197:69 198:146 199:255 200:255 201:255 202:255 203:188 204:175 205:137 206:72 207:24 208:19 209:74 210:141 211:212 212:221 213:170 214:102 215:40 216:25 217:63 218:143 219:255 220:255 221:255 222:255 223:191 224:181 225:144 226:77 227:25 228:16 229:68 230:132 231:208 232:217 233:168 234:106 235:43 236:23 237:60 238:142 239:255 240:255 241:255 242:255 243:189 244:182 245:148 246:81 247:28 248:15 249:65 250:124 251:195 252:208 253:166 254:106 255:44 256:20 257:54 258:140 259:255 260:255 261:255 262:255 263:183 264:180 265:151 266:88 267:34 268:15 269:59 270:112 271:169 272:187 273:149 274:93 275:36 276:19 277:56 278:140 279:255 280:255 281:255 282:255 283:174 284:176 285:156 286:98 287:42 288:15 289:41 290:87 291:128 292:142 293:116 294:74 295:30 296:25 297:66 298:143 299:255 300:255 301:255 302:255 303:167 304:174 305:168 306:116 307:58 308:20 309:19 310:50 311:81 312:88 313:77 314:50 315:30 316:43 317:86 318:155 319:255 320:255 321:255 322:255 323:164 324:175 325:187 326:146 327:87 328:43 329:18 330:22 331:42 332:46 333:46 334:36 335:43 336:72 337:115 338:176 339:255 340:255 341:255 342:255 343:168 344:183 345:209 346:183 347:132 348:86 349:50 350:31 351:32 352:35 353:44 354:53 355:73 356:106 357:146 358:196 359:255 360:255 361:255 362:255 363:185 364:203 365:234 366:225 367:186 368:136 369:104 370:88 371:77 372:79 373:88 374:98 375:116 376:146 377:172 378:196 379:255 380:255 381:255 382:255 383:210 384:226 385:247 386:248 387:234 388:207 389:176 390:151 391:140 392:139 393:143 394:154 395:171 396:182 397:173 398:178 399:255 400:255 
-3.202564770674675e-05 1:255 2:255 3:223 4:209 5:208 6:212 7:219 8:228 9:236 10:242 11:249 12:253 13:255 14:254 15:250 16:244 17:240 18:242 19:255 20:255 21:255 22:255 23:228 24:212 25:201 26:197 27:205 28:220 29:231 30:242 31:249 32:253 33:253 34:248 35:239 36:230 37:226 38:233 39:255 40:255 41:255 42:255 43:219 44:193 45:174 46:163 47:175 48:203 49:225 50:238 51:247 52:250 53:249 54:239 55:219 56:198 57:191 58:210 59:255 60:255 61:255 62:255 63:209 64:173 65:144 66:129 67:143 68:177 69:212 70:233 71:243 72:246 73:242 74:229 75:198 76:165 77:151 78:182 79:255 80:255 81:255 82:255 83:203 84:162 85:126 86:106 87:120 88:161 89:202 90:228 91:236 92:239 93:234 94:215 95:179 96:138 97:120 98:159 99:255 100:255 101:255 102:255 103:199 104:156 105:118 106:94 107:108 108:151 109:193 110:217 111:223 112:224 113:220 114:203 115:166 116:123 117:101 118:145 119:255 120:255 121:255 122:255 123:196 124:153 125:112 126:87 127:100 128:140 129:176 130:194 131:195 132:194 133:194 134:184 135:153 136:111 137:90 138:137 139:255 140:255 141:255 142:255 143:194 144:151 145:108 146:82 147:93 148:129 149:152 150:157 151:151 152:147 153:155 154:154 155:133 156:98 157:81 158:133 159:255 160:255 161:255 162:255 163:194 164:151 165:105 166:77 167:86 168:113 169:126 170:117 171:105 172:101 173:115 174:125 175:116 176:89 177:77 178:132 179:255 180:255 181:255 182:255 183:194 184:151 185:104 186:70 187:70 188:88 189:95 190:76 191:58 192:59 193:83 194:101 195:98 196:78 197:71 198:128 199:255 200:255 201:255 202:255 203:194 204:151 205:101 206:63 207:57 208:62 209:60 210:43 211:30 212:31 213:53 214:71 215:72 216:64 217:68 218:128 219:255 220:255 221:255 222:255 223:194 224:151 225:101 226:58 227:41 228:38 229:33 230:25 231:17 232:22 233:35 234:48 235:52 236:51 237:63 238:128 239:255 240:255 241:255 242:255 243:196 244:153 245:104 246:58 247:33 248:24 249:17 250:12 251:10 252:12 253:22 254:31 255:33 256:38 257:61 258:134 259:255 260:255 261:255 262:255 263:201 264:159 265:115 266:65 267:28 268:13 269:12 270:18 271:19 272:19 273:17 274:16 275:20 276:32 277:65 278:144 279:255 280:255 281:255 282:255 283:207 284:168 285:127 286:73 287:28 288:10 289:15 290:32 291:42 292:40 293:26 294:13 295:12 296:29 297:70 298:151 299:255 300:255 301:255 302:255 303:210 304:177 305:137 306:81 307:33 308:17 309:28 310:55 311:77 312:73 313:49 314:24 315:13 316:29 317:76 318:155 319:255 320:255 321:255 322:255 323:214 324:186 325:146 326:90 327:47 328:35 329:53 330:89 331:116 332:113 333:82 334:47 335:27 336:38 337:82 338:159 339:255 340:255 341:255 342:255 343:222 344:197 345:159 346:110 347:74 348:68 349:88 350:129 351:155 352:152 353:121 354:82 355:57 356:62 357:98 358:166 359:255 360:255 361:255 362:255 363:231 364:212 365:183 366:148 367:124 368:121 369:139 370:169 371:192 372:188 373:162 374:130 375:106 376:106 377:130 378:176 379:255 380:255 381:255 382:255 383:239 384:228 385:213 386:192 387:175 388:173 389:189 390:209 391:220 392:217 393:200 394:177 395:160 396:154 397:158 398:186 399:255 400:255 
-2.043824431445346e-06 1:255 2:255 3:229 4:213 5:212 6:219 7:230 8:242 9:247 10:252 11:255 12:255 13:250 14:241 15:234 16:236 17:242 18:248 19:255 20:255 21:255 22:255 23:217 24:187 25:177 26:186 27:210 28:235 29:245 30:252 31:255 32:250 33:237 34:216 35:200 36:207 37:227 38:243 39:255 40:255 41:255 42:255 43:199 44:153 45:135 46:152 47:192 48:227 49:243 50:252 51:253 52:244 53:219 54:184 55:162 56:171 57:203 58:234 59:255 60:255 61:255 62:255 63:188 64:130 65:106 66:127 67:176 68:216 69:238 70:248 71:246 72:234 73:197 74:152 75:128 76:145 77:189 78:229 79:255 80:255 81:255 82:255 83:183 84:119 85:89 86:109 87:160 88:203 89:229 90:238 91:235 92:222 93:183 94:131 95:106 96:129 97:180 98:226 99:255 100:255 101:255 102:255 103:179 104:111 105:79 106:96 107:146 108:188 109:207 110:210 111:209 112:200 113:167 114:119 115:95 116:118 117:172 118:222 119:255 120:255 121:255 122:255 123:174 124:104 125:73 126:89 127:134 128:167 129:169 130:161 131:165 132:169 133:145 134:106 135:86 136:109 137:163 138:218 139:255 140:255 141:255 142:255 143:168 144:99 145:68 146:81 147:119 148:137 149:123 150:105 151:115 152:137 153:125 154:94 155:78 156:102 157:157 158:215 159:255 160:255 161:255 162:255 163:169 164:97 165:62 166:69 167:95 168:99 169:77 170:59 171:73 172:102 173:108 174:84 175:69 176:96 177:156 178:215 179:255 180:255 181:255 182:255 183:173 184:102 185:61 186:53 187:65 188:65 189:42 190:30 191:44 192:75 193:90 194:73 195:63 196:92 197:153 198:215 199:255 200:255 201:255 202:255 203:177 204:104 205:57 206:40 207:40 208:36 209:19 210:14 211:24 212:50 213:66 214:57 215:57 216:94 217:156 218:215 219:255 220:255 221:255 222:255 223:183 224:111 225:55 226:25 227:17 228:14 229:9 230:9 231:15 232:37 233:47 234:45 235:56 236:99 237:160 238:215 239:255 240:255 241:255 242:255 243:189 244:121 245:60 246:19 247:6 248:7 249:12 250:16 251:18 252:26 253:29 254:33 255:58 256:110 257:171 258:218 259:255 260:255 261:255 262:255 263:196 264:131 265:66 266:19 267:4 268:12 269:31 270:41 271:34 272:23 273:17 274:26 275:63 276:122 277:179 278:220 279:255 280:255 281:255 282:255 283:200 284:137 285:70 286:23 287:10 288:26 289:59 290:78 291:60 292:30 293:14 294:23 295:65 296:127 297:178 298:213 299:255 300:255 301:255 302:255 303:202 304:140 305:76 306:31 307:22 308:48 309:92 310:116 311:92 312:48 313:20 314:25 315:66 316:125 317:169 318:201 319:255 320:255 321:255 322:255 323:204 324:148 325:92 326:51 327:48 328:82 329:131 330:151 331:131 332:80 333:43 334:40 335:73 336:122 337:155 338:184 339:255 340:255 341:255 342:255 343:212 344:170 345:126 346:92 347:92 348:127 349:168 350:186 351:172 352:128 353:89 354:77 355:94 356:122 357:136 358:161 359:255 360:255 361:255 362:255 363:229 364:200 365:173 366:151 367:150 368:175 369:200 370:220 371:206 372:178 373:145 374:126 375:122 376:121 377:109 378:134 379:255 380:255 381:255 382:255 383:239 384:226 385:212 386:199 387:199 388:215 389:229 390:237 391:228 392:211 393:187 394:167 395:142 396:113 397:81 398:104 399:255 400:255 
-3.502506156638987e-05 1:255 2:255 3:230 4:214 5:212 6:220 7:231 8:241 9:247 10:252 11:255 12:255 13:251 14:242 15:235 16:235 17:241 18:248 19:255 20:255 21:255 22:255 23:214 24:186 25:177 26:186 27:210 28:235 29:246 30:252 31:253 32:250 33:238 34:217 35:201 36:207 37:226 38:242 39:255 40:255 41:255 42:255 43:199 44:154 45:137 46:152 47:191 48:228 49:243 50:250 51:252 52:244 53:220 54:184 55:164 56:175 57:206 58:235 59:255 60:255 61:255 62:255 63:188 64:131 65:107 66:125 67:172 68:216 69:239 70:245 71:247 72:236 73:201 74:154 75:130 76:147 77:190 78:231 79:255 80:255 81:255 82:255 83:182 84:119 85:90 86:108 87:156 88:202 89:228 90:233 91:235 92:223 93:185 94:133 95:107 96:129 97:180 98:227 99:255 100:255 101:255 102:255 103:178 104:111 105:80 106:96 107:144 108:187 109:205 110:205 111:208 112:201 113:169 114:121 115:94 116:117 117:171 118:221 119:255 120:255 121:255 122:255 123:174 124:104 125:72 126:86 127:132 128:166 129:168 130:159 131:164 132:169 133:148 134:108 135:84 136:107 137:162 138:217 139:255 140:255 141:255 142:255 143:170 144:99 145:65 146:78 147:117 148:136 149:122 150:103 151:113 152:137 153:125 154:95 155:76 156:99 157:157 158:215 159:255 160:255 161:255 162:255 163:168 164:97 165:62 166:69 167:95 168:98 169:76 170:57 171:76 172:104 173:107 174:84 175:69 176:95 177:155 178:215 179:255 180:255 181:255 182:255 183:168 184:97 185:58 186:55 187:69 188:65 189:42 190:29 191:44 192:76 193:90 194:72 195:61 196:92 197:154 198:212 199:255 200:255 201:255 202:255 203:176 204:100 205:54 206:40 207:41 208:35 209:20 210:11 211:23 212:50 213:66 214:56 215:55 216:93 217:155 218:212 219:255 220:255 221:255 222:255 223:182 224:110 225:55 226:27 227:21 228:15 229:9 230:8 231:14 232:33 233:46 234:45 235:56 236:101 237:162 238:215 239:255 240:255 241:255 242:255 243:189 244:121 245:59 246:21 247:10 248:9 249:12 250:17 251:18 252:22 253:31 254:37 255:61 256:113 257:174 258:220 259:255 260:255 261:255 262:255 263:194 264:128 265:64 266:19 267:4 268:13 269:31 270:41 271:34 272:22 273:19 274:29 275:65 276:124 277:181 278:221 279:255 280:255 281:255 282:255 283:198 284:134 285:69 286:22 287:8 288:25 289:58 290:77 291:62 292:32 293:15 294:24 295:66 296:127 297:179 298:214 299:255 300:255 301:255 302:255 303:201 304:140 305:77 306:31 307:21 308:47 309:91 310:116 311:94 312:50 313:21 314:24 315:63 316:122 317:169 318:202 319:255 320:255 321:255 322:255 323:204 324:151 325:96 326:54 327:48 328:81 329:129 330:151 331:131 332:80 333:42 334:37 335:68 336:118 337:153 338:185 339:255 340:255 341:255 342:255 343:211 344:172 345:131 346:97 347:95 348:126 349:167 350:185 351:172 352:128 353:85 354:72 355:91 356:119 357:133 358:161 359:255 360:255 361:255 362:255 363:229 364:201 365:174 366:151 367:151 368:174 369:199 370:219 371:203 372:177 373:143 374:125 375:122 376:120 377:110 378:135 379:255 380:255 381:255 382:255 383:241 384:227 385:213 386:200 387:199 388:214 389:227 390:236 391:230 392:213 393:188 394:169 395:144 396:116 397:84 398:107 399:255 400:255 
-2.747382900470641e-05 1:255 2:255 3:131 4:94 5:110 6:131 7:154 8:178 9:199 10:215 11:234 12:249 13:254 14:255 15:253 16:244 17:229 18:228 19:255 20:255 21:255 22:255 23:158 24:126 25:132 26:145 27:162 28:176 29:193 30:216 31:243 32:253 33:255 34:250 35:229 36:211 37:204 38:213 39:255 40:255 41:255 42:255 43:173 44:139 45:132 46:135 47:148 48:163 49:182 50:207 51:236 52:247 53:233 54:211 55:189 56:175 57:170 58:191 59:255 60:255 61:255 62:255 63:175 64:133 65:116 66:109 67:118 68:139 69:163 70:190 71:215 72:224 73:203 74:178 75:153 76:133 77:127 78:162 79:255 80:255 81:255 82:255 83:173 84:122 85:94 86:80 87:84 88:104 89:135 90:167 91:191 92:196 93:177 94:149 95:118 96:95 97:91 98:140 99:255 100:255 101:255 102:255 103:175 104:118 105:82 106:59 107:55 108:71 109:103 110:140 111:163 112:166 113:149 114:117 115:85 116:67 117:73 118:131 119:255 120:255 121:255 122:255 123:183 124:126 125:85 126:54 127:40 128:48 129:76 130:110 131:131 132:134 133:115 134:84 135:60 136:54 137:71 138:134 139:255 140:255 141:255 142:255 143:192 144:141 145:100 146:64 147:41 148:34 149:54 150:83 151:101 152:101 153:81 154:56 155:45 156:54 157:80 158:144 159:255 160:255 161:255 162:255 163:202 164:159 165:121 166:82 167:48 168:29 169:35 170:58 171:72 172:68 173:51 174:34 175:37 176:59 177:93 178:157 179:255 180:255 181:255 182:255 183:216 184:181 185:145 186:103 187:64 188:34 189:24 190:27 191:42 192:37 193:26 194:20 195:35 196:69 197:111 198:170 199:255 200:255 201:255 202:255 203:224 204:196 205:168 206:130 207:89 208:53 209:23 210:15 211:15 212:11 213:10 214:18 215:45 216:84 217:128 218:187 219:255 220:255 221:255 222:255 223:238 224:214 225:187 226:154 227:113 228:71 229:37 230:13 231:6 232:3 233:5 234:21 235:56 236:101 237:144 238:193 239:255 240:255 241:255 242:255 243:240 244:226 245:207 246:178 247:138 248:93 249:54 250:17 251:5 252:2 253:9 254:34 255:74 256:122 257:166 258:207 259:255 260:255 261:255 262:255 263:245 264:240 265:223 266:194 267:159 268:117 269:75 270:34 271:9 272:4 273:16 274:51 275:95 276:142 277:185 278:222 279:255 280:255 281:255 282:255 283:250 284:249 285:236 286:211 287:179 288:141 289:95 290:52 291:15 292:9 293:25 294:66 295:114 296:160 297:200 298:230 299:255 300:255 301:255 302:255 303:250 304:249 305:241 306:223 307:194 308:157 309:110 310:65 311:22 312:14 313:35 314:78 315:127 316:173 317:208 318:233 319:255 320:255 321:255 322:255 323:243 324:241 325:240 326:229 327:204 328:167 329:120 330:73 331:30 332:19 333:42 334:85 335:135 336:180 337:210 338:233 339:255 340:255 341:255 342:255 343:231 344:231 345:241 346:238 347:213 348:173 349:127 350:80 351:39 352:25 353:49 354:90 355:139 356:181 357:207 358:229 359:255 360:255 361:255 362:255 363:228 364:230 365:242 366:242 367:220 368:177 369:133 370:89 371:51 372:39 373:61 374:100 375:145 376:180 377:199 378:218 379:255 380:255 381:255 382:255 383:228 384:237 385:249 386:249 387:229 388:185 389:143 390:100 391:69 392:64 393:83 394:117 395:154 396:183 397:196 398:211 399:255 400:255 
