svm_type c_svc
kernel_type linear
nr_class 2
total_sv 19
rho 2.30428
label 6 -1
nr_sv 8 11
SV
4.770327358310269e-06 1:255 2:255 3:167 4:143 5:159 6:182 7:203 8:218 9:217 10:209 11:202 12:194 13:185 14:189 15:201 16:223 17:245 18:255 19:255 20:255 21:255 22:255 23:212 24:199 25:198 26:192 27:182 28:174 29:159 30:152 31:143 32:136 33:132 34:133 35:143 36:165 37:205 38:245 39:255 40:255 41:255 42:255 43:241 44:228 45:208 46:175 47:142 48:119 49:103 50:94 51:90 52:85 53:82 54:85 55:97 56:124 57:171 58:226 59:255 60:255 61:255 62:255 63:248 64:235 65:199 66:150 67:105 68:74 69:58 70:47 71:48 72:50 73:52 74:58 75:72 76:100 77:150 78:212 79:255 80:255 81:255 82:255 83:246 84:232 85:189 86:132 87:81 88:45 89:26 90:19 91:27 92:38 93:47 94:55 95:71 96:101 97:150 98:212 99:255 100:255 101:255 102:255 103:238 104:227 105:185 106:123 107:69 108:29 109:10 110:13 111:29 112:48 113:63 114:75 115:93 116:123 117:170 118:224 119:255 120:255 121:255 122:255 123:224 124:219 125:183 126:122 127:67 128:25 129:7 130:17 131:44 132:69 133:89 134:105 135:123 136:152 137:195 138:238 139:255 140:255 141:255 142:255 143:206 144:206 145:182 146:127 147:72 148:29 149:9 150:19 151:54 152:82 153:104 154:122 155:138 156:165 157:203 158:240 159:255 160:255 161:255 162:255 163:189 164:193 165:181 166:131 167:79 168:36 169:11 170:16 171:48 172:75 173:93 174:106 175:121 176:145 177:181 178:223 179:255 180:255 181:255 182:255 183:169 184:174 185:177 186:137 187:83 188:39 189:10 190:8 191:28 192:52 193:64 194:72 195:85 196:108 197:143 198:196 199:255 200:255 201:255 202:255 203:155 204:156 205:172 206:144 207:93 208:46 209:12 210:3 211:14 212:26 213:38 214:47 215:59 216:83 217:122 218:184 219:255 220:255 221:255 222:255 223:146 224:143 225:167 226:150 227:103 228:53 229:15 230:2 231:8 232:20 233:36 234:48 235:62 236:88 237:128 238:187 239:255 240:255 241:255 242:255 243:140 244:139 245:171 246:159 247:112 248:60 249:20 250:4 251:16 252:38 253:58 254:76 255:92 256:115 257:152 258:203 259:255 260:255 261:255 262:255 263:140 264:144 265:183 266:171 267:119 268:64 269:23 270:12 271:34 272:65 273:94 274:118 275:137 276:159 277:188 278:223 279:255 280:255 281:255 282:255 283:146 284:154 285:194 286:180 287:124 288:67 289:27 290:19 291:49 292:89 293:130 294:164 295:188 296:205 297:220 298:236 299:255 300:255 301:255 302:255 303:155 304:167 305:204 306:186 307:128 308:71 309:30 310:24 311:56 312:104 313:155 314:200 315:227 316:239 317:240 318:241 319:255 320:255 321:255 322:255 323:167 324:185 325:217 326:194 327:134 328:77 329:37 330:29 331:59 332:109 333:169 334:220 335:246 336:251 337:246 338:241 339:255 340:255 341:255 342:255 343:182 344:205 345:234 346:206 347:143 348:86 349:49 350:40 351:65 352:113 353:175 354:227 355:250 356:250 357:239 358:232 359:255 360:255 361:255 362:255 363:206 364:230 365:249 366:217 367:156 368:101 369:67 370:63 371:81 372:124 373:181 374:229 375:248 376:241 377:222 378:217 379:255 380:255 381:255 382:255 383:236 384:246 385:254 386:230 387:179 388:126 389:96 390:93 391:112 392:148 393:197 394:234 395:243 396:230 397:203 398:196 399:255 400:255 
3.177167108339948e-06 1:255 2:255 3:162 4:144 5:165 6:188 7:204 8:207 9:199 10:189 11:182 12:178 13:177 14:185 15:191 16:200 17:212 18:228 19:255 20:255 21:255 22:255 23:188 24:171 25:171 26:168 27:162 28:153 29:144 30:135 31:130 32:127 33:126 34:134 35:146 36:162 37:187 38:222 39:255 40:255 41:255 42:255 43:209 44:180 45:158 46:135 47:117 48:104 49:92 50:86 51:81 52:78 53:83 54:89 55:102 56:125 57:160 58:205 59:255 60:255 61:255 62:255 63:215 64:175 65:136 66:103 67:78 68:59 69:49 70:48 71:46 72:48 73:55 74:64 75:81 76:109 77:146 78:195 79:255 80:255 81:255 82:255 83:215 84:168 85:122 86:81 87:48 88:28 89:23 90:32 91:42 92:52 93:61 94:73 95:90 96:116 97:152 98:200 99:255 100:255 101:255 102:255 103:217 104:168 105:119 106:72 107:33 108:14 109:20 110:42 111:64 112:80 113:93 114:106 115:121 116:144 117:176 118:216 119:255 120:255 121:255 122:255 123:223 124:174 125:121 126:71 127:30 128:13 129:27 130:59 131:88 132:110 133:128 134:141 135:157 136:178 137:204 138:232 139:255 140:255 141:255 142:255 143:230 144:181 145:125 146:75 147:36 148:16 149:29 150:62 151:95 152:122 153:143 154:156 155:172 156:195 157:219 158:240 159:255 160:255 161:255 162:255 163:237 164:189 165:131 166:82 167:42 168:18 169:24 170:52 171:81 172:100 173:118 174:132 175:146 176:172 177:208 178:241 179:255 180:255 181:255 182:255 183:244 184:196 185:138 186:86 187:43 188:15 189:9 190:25 191:52 192:63 193:74 194:88 195:102 196:127 197:171 198:223 199:255 200:255 201:255 202:255 203:244 204:202 205:144 206:89 207:44 208:14 209:3 210:7 211:22 212:30 213:42 214:54 215:72 216:99 217:141 218:201 219:255 220:255 221:255 222:255 223:244 224:206 225:151 226:95 227:48 228:14 229:1 230:4 231:18 232:31 233:43 234:56 235:74 236:102 237:147 238:205 239:255 240:255 241:255 242:255 243:244 244:209 245:157 246:102 247:54 248:17 249:5 250:11 251:36 252:59 253:75 254:88 255:105 256:132 257:175 258:225 259:255 260:255 261:255 262:255 263:247 264:218 265:165 266:107 267:57 268:20 269:9 270:26 271:61 272:92 273:118 274:137 275:156 276:183 277:215 278:242 279:255 280:255 281:255 282:255 283:246 284:221 285:170 286:111 287:62 288:25 289:13 290:36 291:79 292:119 293:160 294:190 295:211 296:228 297:241 298:251 299:255 300:255 301:255 302:255 303:240 304:218 305:172 306:116 307:68 308:31 309:20 310:42 311:89 312:136 313:191 314:228 315:245 316:250 317:250 318:251 319:255 320:255 321:255 322:255 323:233 324:216 325:177 326:123 327:75 328:40 329:29 330:50 331:94 332:145 333:209 334:244 335:254 336:253 337:246 338:242 339:255 340:255 341:255 342:255 343:226 344:217 345:187 346:136 347:89 348:56 349:41 350:62 351:100 352:151 353:215 354:247 355:254 356:248 357:233 358:226 359:255 360:255 361:255 362:255 363:221 364:220 365:202 366:158 367:113 368:83 369:71 370:84 371:116 372:165 373:219 374:245 375:248 376:236 377:212 378:205 379:255 380:255 381:255 382:255 383:224 384:226 385:225 386:193 387:149 388:122 389:111 390:116 391:149 392:193 393:230 394:244 395:237 396:216 397:186 398:183 399:255 400:255 
3.894666992007353e-06 1:255 2:255 3:103 4:57 5:71 6:99 7:138 8:178 9:216 10:249 11:254 12:255 13:254 14:251 15:247 16:246 17:240 18:236 19:255 20:255 21:255 22:255 23:134 24:100 25:112 26:135 27:164 28:190 29:213 30:232 31:233 32:233 33:233 34:232 35:234 36:236 37:233 38:236 39:255 40:255 41:255 42:255 43:174 44:149 45:155 46:165 47:176 48:183 49:186 50:188 51:188 52:185 53:187 54:191 55:196 56:201 57:208 58:225 59:255 60:255 61:255 62:255 63:212 64:191 65:182 66:170 67:157 68:146 69:141 70:136 71:134 72:130 73:134 74:139 75:144 76:154 77:174 78:207 79:255 80:255 81:255 82:255 83:238 84:218 85:190 86:156 87:124 88:100 89:92 90:85 91:83 92:82 93:85 94:90 95:95 96:110 97:139 98:187 99:255 100:255 101:255 102:255 103:251 104:228 105:186 106:137 107:95 108:63 109:46 110:41 111:43 112:44 113:50 114:57 115:66 116:85 117:115 118:171 119:255 120:255 121:255 122:255 123:254 124:228 125:178 126:124 127:79 128:41 129:18 130:18 131:25 132:34 133:46 134:54 135:66 136:86 137:116 138:171 139:255 140:255 141:255 142:255 143:254 144:225 145:173 146:118 147:69 148:31 149:12 150:20 151:38 152:60 153:74 154:82 155:92 156:110 157:139 158:188 159:255 160:255 161:255 162:255 163:254 164:221 165:170 166:115 167:65 168:26 169:14 170:28 171:64 172:91 173:107 174:122 175:131 176:146 177:169 178:203 179:255 180:255 181:255 182:255 183:250 184:218 185:168 186:115 187:65 188:26 189:17 190:40 191:73 192:106 193:126 194:143 195:159 196:174 197:192 198:217 199:255 200:255 201:255 202:255 203:248 204:217 205:168 206:115 207:65 208:26 209:13 210:26 211:66 212:95 213:113 214:125 215:136 216:154 217:180 218:215 219:255 220:255 221:255 222:255 223:244 224:215 225:168 226:117 227:70 228:30 229:7 230:14 231:35 232:61 233:75 234:84 235:98 236:118 237:149 238:197 239:255 240:255 241:255 242:255 243:243 244:211 245:166 246:117 247:71 248:30 249:4 250:4 251:15 252:29 253:43 254:55 255:69 256:92 257:128 258:184 259:255 260:255 261:255 262:255 263:243 264:210 265:165 266:117 267:71 268:30 269:4 270:2 271:14 272:30 273:44 274:55 275:67 276:90 277:127 278:182 279:255 280:255 281:255 282:255 283:246 284:214 285:167 286:119 287:72 288:32 289:6 290:11 291:33 292:55 293:73 294:83 295:95 296:114 297:145 298:193 299:255 300:255 301:255 302:255 303:248 304:217 305:171 306:121 307:74 308:34 309:11 310:23 311:59 312:89 313:111 314:125 315:139 316:155 317:180 318:217 319:255 320:255 321:255 322:255 323:245 324:214 325:171 326:123 327:75 328:36 329:17 330:35 331:78 332:116 333:146 334:165 335:181 336:198 337:217 338:240 339:255 340:255 341:255 342:255 343:236 344:206 345:170 346:125 347:78 348:39 349:22 350:48 351:90 352:130 353:169 354:193 355:211 356:227 357:238 358:247 359:255 360:255 361:255 362:255 363:226 364:203 365:174 366:130 367:82 368:44 369:27 370:54 371:97 372:142 373:180 374:209 375:225 376:233 377:237 378:242 379:255 380:255 381:255 382:255 383:221 384:207 385:181 386:136 387:89 388:56 389:45 390:67 391:103 392:152 393:194 394:221 395:232 396:232 397:229 398:236 399:255 400:255 
8.198874859335186e-07 1:255 2:255 3:134 4:99 5:117 6:146 7:174 8:191 9:196 10:189 11:189 12:189 13:189 14:189 15:211 16:240 17:254 18:255 19:255 20:255 21:255 22:255 23:169 24:143 25:154 26:165 27:166 28:157 29:150 30:141 31:138 32:138 33:133 34:131 35:145 36:176 37:216 38:250 39:255 40:255 41:255 42:255 43:209 44:185 45:174 46:158 47:134 48:111 49:97 50:90 51:89 52:86 53:84 54:85 55:96 56:123 57:169 58:221 59:255 60:255 61:255 62:255 63:230 64:208 65:180 66:140 67:99 68:68 69:51 70:44 71:44 72:44 73:49 74:54 75:68 76:96 77:141 78:201 79:255 80:255 81:255 82:255 83:236 84:223 85:184 86:128 87:78 88:39 89:19 90:16 91:23 92:33 93:44 94:52 95:68 96:98 97:143 98:201 99:255 100:255 101:255 102:255 103:236 104:229 105:187 106:124 107:69 108:26 109:5 110:11 111:31 112:52 113:66 114:77 115:94 116:124 117:167 118:219 119:255 120:255 121:255 122:255 123:236 124:229 125:187 126:124 127:69 128:26 129:8 130:20 131:51 132:79 133:96 134:113 135:130 136:156 137:197 138:240 139:255 140:255 141:255 142:255 143:232 144:227 145:188 146:127 147:76 148:34 149:13 150:27 151:62 152:93 153:114 154:133 155:148 156:170 157:210 158:249 159:255 160:255 161:255 162:255 163:219 164:221 165:190 166:131 167:81 168:38 169:13 170:25 171:60 172:89 173:106 174:118 175:130 176:149 177:191 178:243 179:255 180:255 181:255 182:255 183:212 184:218 185:194 186:137 187:84 188:41 189:12 190:16 191:44 192:66 193:74 194:80 195:88 196:110 197:154 198:210 199:255 200:255 201:255 202:255 203:219 204:221 205:194 206:139 207:87 208:42 209:10 210:4 211:20 212:34 213:41 214:49 215:60 216:84 217:128 218:189 219:255 220:255 221:255 222:255 223:220 224:222 225:197 226:143 227:91 228:45 229:12 230:2 231:12 232:24 233:36 234:47 235:61 236:87 237:129 238:188 239:255 240:255 241:255 242:255 243:232 244:232 245:208 246:155 247:99 248:51 249:17 250:5 251:17 252:40 253:58 254:72 255:89 256:116 257:155 258:206 259:255 260:255 261:255 262:255 263:240 264:241 265:217 266:165 267:109 268:59 269:22 270:13 271:33 272:64 273:93 274:116 275:136 276:161 277:195 278:231 279:255 280:255 281:255 282:255 283:230 284:235 285:221 286:172 287:114 288:64 289:26 290:19 291:48 292:87 293:124 294:156 295:189 296:214 297:231 298:246 299:255 300:255 301:255 302:255 303:207 304:219 305:220 306:177 307:119 308:68 309:31 310:24 311:55 312:102 313:148 314:193 315:230 316:247 317:249 318:249 319:255 320:255 321:255 322:255 323:185 324:201 325:218 326:186 327:128 328:75 329:38 330:30 331:61 332:112 333:171 334:224 335:249 336:253 337:248 338:244 339:255 340:255 341:255 342:255 343:167 344:180 345:220 346:201 347:139 348:85 349:49 350:41 351:72 352:124 353:193 354:240 355:252 356:247 357:233 358:226 359:255 360:255 361:255 362:255 363:151 364:164 365:221 366:219 367:160 368:102 369:65 370:61 371:87 372:138 373:210 374:244 375:242 376:228 377:204 378:192 379:255 380:255 381:255 382:255 383:151 384:163 385:225 386:243 387:199 388:133 389:97 390:91 391:115 392:158 393:220 394:238 395:222 396:194 397:165 398:172 399:255 400:255 
5.086623806431993e-06 1:255 2:255 3:112 4:90 5:130 6:176 7:218 8:244 9:253 10:255 11:253 12:243 13:247 14:253 15:252 16:234 17:213 18:218 19:255 20:255 21:255 22:255 23:139 24:118 25:153 26:189 27:216 28:230 29:239 30:239 31:233 32:231 33:236 34:246 35:251 36:244 37:229 38:230 39:255 40:255 41:255 42:255 43:167 44:153 45:175 46:192 47:199 48:199 49:200 50:198 51:196 52:199 53:207 54:221 55:236 56:245 57:243 58:242 59:255 60:255 61:255 62:255 63:189 64:170 65:171 66:167 67:161 68:154 69:151 70:146 71:144 72:148 73:162 74:181 75:209 76:236 77:249 78:250 79:255 80:255 81:255 82:255 83:197 84:163 85:143 86:126 87:114 88:108 89:105 90:101 91:98 92:103 93:114 94:135 95:172 96:216 97:245 98:252 99:255 100:255 101:255 102:255 103:192 104:143 105:109 106:85 107:71 108:64 109:63 110:64 111:63 112:68 113:77 114:100 115:141 116:195 117:237 118:251 119:255 120:255 121:255 122:255 123:183 124:124 125:82 126:53 127:35 128:29 129:33 130:40 131:44 132:50 133:62 134:89 135:130 136:185 137:232 138:251 139:255 140:255 141:255 142:255 143:177 144:114 145:67 146:32 147:12 148:13 149:26 150:39 151:50 152:60 153:73 154:100 155:139 156:188 157:231 158:249 159:255 160:255 161:255 162:255 163:173 164:109 165:59 166:21 167:7 168:15 169:36 170:60 171:74 172:88 173:104 174:126 175:161 176:204 177:234 178:244 179:255 180:255 181:255 182:255 183:170 184:108 185:61 186:24 187:11 188:25 189:54 190:80 191:97 192:113 193:131 194:153 195:186 196:219 197:236 198:240 199:255 200:255 201:255 202:255 203:170 204:110 205:69 206:32 207:12 208:26 209:56 210:82 211:105 212:115 213:131 214:151 215:180 216:210 217:227 218:236 219:255 220:255 221:255 222:255 223:175 224:118 225:76 226:35 227:11 228:15 229:36 230:63 231:82 232:91 233:105 234:123 235:154 236:190 237:217 238:233 239:255 240:255 241:255 242:255 243:176 244:122 245:80 246:39 247:11 248:7 249:19 250:36 251:53 252:62 253:73 254:95 255:131 256:174 257:207 258:230 259:255 260:255 261:255 262:255 263:176 264:124 265:83 266:41 267:12 268:3 269:10 270:25 271:36 272:47 273:60 274:85 275:122 276:167 277:202 278:224 279:255 280:255 281:255 282:255 283:182 284:130 285:88 286:45 287:13 288:6 289:16 290:35 291:48 292:60 293:74 294:97 295:131 296:171 297:199 298:218 299:255 300:255 301:255 302:255 303:188 304:135 305:92 306:48 307:18 308:16 309:34 310:59 311:80 312:92 313:106 314:127 315:155 316:183 317:197 318:209 319:255 320:255 321:255 322:255 323:191 324:139 325:95 326:52 327:24 328:28 329:55 330:87 331:114 332:131 333:148 334:166 335:184 336:195 337:192 338:198 339:255 340:255 341:255 342:255 343:194 344:143 345:99 346:55 347:28 348:33 349:67 350:108 351:141 352:171 353:189 354:201 355:205 356:200 357:182 358:186 359:255 360:255 361:255 362:255 363:197 364:145 365:101 366:60 367:33 368:38 369:72 370:114 371:158 372:196 373:213 374:216 375:210 376:192 377:165 378:172 379:255 380:255 381:255 382:255 383:203 384:150 385:105 386:66 387:40 388:41 389:76 390:116 391:165 392:204 393:218 394:217 395:205 396:181 397:150 398:158 399:255 400:255 
1.248158546645574e-05 1:255 2:255 3:143 4:118 5:148 6:184 7:214 8:234 9:239 10:242 11:238 12:238 13:241 14:249 15:254 16:250 17:228 18:212 19:255 20:255 21:255 22:255 23:168 24:153 25:173 26:193 27:209 28:217 29:218 30:217 31:204 32:203 33:218 34:228 35:243 36:253 37:242 38:231 39:255 40:255 41:255 42:255 43:194 44:175 45:173 46:171 47:171 48:171 49:165 50:162 51:158 52:158 53:174 54:190 55:217 56:242 57:248 58:244 59:255 60:255 61:255 62:255 63:201 64:164 65:143 66:131 67:123 68:119 69:114 70:110 71:113 72:118 73:129 74:146 75:181 76:224 77:248 78:251 79:255 80:255 81:255 82:255 83:197 84:145 85:109 86:87 87:76 88:71 89:70 90:69 91:74 92:81 93:90 94:112 95:155 96:209 97:245 98:253 99:255 100:255 101:255 102:255 103:189 104:129 105:84 106:52 107:37 108:33 109:36 110:41 111:47 112:56 113:68 114:97 115:143 116:199 117:241 118:253 119:255 120:255 121:255 122:255 123:179 124:115 125:67 126:31 127:14 128:16 129:25 130:37 131:45 132:56 133:69 134:98 135:143 136:198 137:241 138:253 139:255 140:255 141:255 142:255 143:171 144:104 145:55 146:21 147:9 148:19 149:39 150:61 151:75 152:80 153:91 154:116 155:157 156:207 157:244 158:254 159:255 160:255 161:255 162:255 163:168 164:99 165:51 166:20 167:12 168:30 169:62 170:80 171:105 172:113 173:122 174:143 175:176 176:216 177:245 178:252 179:255 180:255 181:255 182:255 183:168 184:101 185:53 186:21 187:14 188:34 189:70 190:96 191:115 192:126 193:136 194:161 195:195 196:224 197:239 198:245 199:255 200:255 201:255 202:255 203:165 204:99 205:54 206:21 207:11 208:28 209:59 210:77 211:96 212:108 213:122 214:150 215:187 216:218 217:232 218:238 219:255 220:255 221:255 222:255 223:163 224:101 225:57 226:22 227:6 228:10 229:30 230:51 231:66 232:75 233:91 234:122 235:164 236:204 237:226 238:235 239:255 240:255 241:255 242:255 243:164 244:105 245:62 246:24 247:5 248:5 249:17 250:30 251:40 252:56 253:73 254:106 255:153 256:199 257:223 258:231 259:255 260:255 261:255 262:255 263:172 264:113 265:67 266:29 267:9 268:10 269:24 270:39 271:51 272:62 273:76 274:108 275:154 276:199 277:220 278:226 279:255 280:255 281:255 282:255 283:180 284:120 285:71 286:31 287:15 288:25 289:50 290:66 291:84 292:91 293:105 294:132 295:169 296:203 297:213 298:214 299:255 300:255 301:255 302:255 303:183 304:121 305:69 306:31 307:22 308:43 309:78 310:103 311:123 312:133 313:147 314:165 315:190 316:208 317:202 318:200 319:255 320:255 321:255 322:255 323:181 324:115 325:63 326:29 327:28 328:57 329:100 330:141 331:162 332:173 333:184 334:192 335:204 336:204 337:184 338:185 339:255 340:255 341:255 342:255 343:177 344:110 345:60 346:29 347:33 348:70 349:117 350:164 351:194 352:201 353:207 354:206 355:202 356:189 357:160 358:164 359:255 360:255 361:255 362:255 363:178 364:112 365:65 366:36 367:40 368:76 369:123 370:176 371:212 372:219 373:219 374:209 375:193 376:171 377:140 378:148 379:255 380:255 381:255 382:255 383:186 384:125 385:81 386:55 387:55 388:84 389:129 390:176 391:212 392:222 393:220 394:201 395:182 396:155 397:115 398:128 399:255 400:255 
9.835542549848266e-07 1:255 2:255 3:149 4:135 5:184 6:229 7:245 8:245 9:242 10:225 11:215 12:215 13:238 14:250 15:252 16:240 17:197 18:173 19:255 20:255 21:255 22:255 23:180 24:171 25:185 26:192 27:190 28:180 29:170 30:158 31:152 32:151 33:169 34:205 35:235 36:244 37:216 38:189 39:255 40:255 41:255 42:255 43:206 44:176 45:155 46:139 47:128 48:119 49:111 50:97 51:94 52:103 53:121 54:150 55:196 56:233 57:224 58:203 59:255 60:255 61:255 62:255 63:206 64:155 65:114 66:88 67:75 68:66 69:61 70:53 71:52 72:65 73:81 74:114 75:166 76:212 77:219 78:210 79:255 80:255 81:255 82:255 83:192 84:128 85:80 86:48 87:33 88:29 89:29 90:28 91:31 92:48 93:66 94:104 95:156 96:201 97:212 98:212 99:255 100:255 101:255 102:255 103:183 104:112 105:59 106:24 107:10 108:14 109:25 110:37 111:44 112:59 113:82 114:117 115:164 116:204 117:215 118:218 119:255 120:255 121:255 122:255 123:183 124:110 125:53 126:17 127:7 128:20 129:47 130:70 131:81 132:92 133:114 134:146 135:184 136:217 137:227 138:228 139:255 140:255 141:255 142:255 143:183 144:115 145:59 146:22 147:14 148:34 149:71 150:98 151:114 152:125 153:140 154:171 155:201 156:229 157:240 158:236 159:255 160:255 161:255 162:255 163:183 164:116 165:63 166:27 167:20 168:41 169:79 170:111 171:126 172:130 173:148 174:172 175:198 176:226 177:243 178:248 179:255 180:255 181:255 182:255 183:183 184:119 185:65 186:27 187:18 188:35 189:69 190:91 191:98 192:107 193:119 194:145 195:180 196:210 197:232 198:247 199:255 200:255 201:255 202:255 203:183 204:119 205:68 206:28 207:11 208:19 209:36 210:56 211:61 212:68 213:87 214:120 215:165 216:206 217:225 218:233 219:255 220:255 221:255 222:255 223:183 224:116 225:63 226:23 227:4 228:8 229:20 230:31 231:41 232:49 233:70 234:107 235:157 236:203 237:222 238:226 239:255 240:255 241:255 242:255 243:183 244:115 245:62 246:24 247:7 248:11 249:27 250:48 251:57 252:64 253:85 254:117 255:160 256:200 257:210 258:211 259:255 260:255 261:255 262:255 263:183 264:118 265:66 266:28 267:13 268:25 269:56 270:83 271:97 272:108 273:121 274:152 275:188 276:209 277:202 278:197 279:255 280:255 281:255 282:255 283:185 284:121 285:72 286:34 287:22 288:45 289:86 290:123 291:155 292:166 293:182 294:210 295:227 296:220 297:188 298:179 299:255 300:255 301:255 302:255 303:189 304:127 305:78 306:40 307:31 308:61 309:106 310:157 311:212 312:221 313:234 314:248 315:249 316:221 317:171 318:163 319:255 320:255 321:255 322:255 323:196 324:134 325:83 326:45 327:37 328:67 329:114 330:175 331:241 332:251 333:254 334:254 335:243 336:206 337:152 338:151 339:255 340:255 341:255 342:255 343:205 344:144 345:90 346:53 347:44 348:70 349:115 350:175 351:241 352:251 353:252 354:246 355:221 356:175 357:124 358:134 359:255 360:255 361:255 362:255 363:218 364:160 365:105 366:70 367:61 368:79 369:122 370:177 371:241 372:250 373:243 374:221 375:185 376:142 377:98 378:114 379:255 380:255 381:255 382:255 383:248 384:189 385:132 386:95 387:82 388:102 389:140 390:193 391:242 392:245 393:223 394:195 395:155 396:108 397:69 398:100 399:255 400:255 
6.371438613635205e-06 1:255 2:255 3:100 4:59 5:83 6:120 7:163 8:203 9:239 10:248 11:252 12:255 13:255 14:255 15:253 16:239 17:198 18:177 19:255 20:255 21:255 22:255 23:130 24:95 25:117 26:147 27:178 28:205 29:228 30:244 31:248 32:249 33:249 34:251 35:252 36:244 37:213 38:192 39:255 40:255 41:255 42:255 43:168 44:142 45:150 46:162 47:175 48:186 49:195 50:205 51:211 52:211 53:211 54:227 55:241 56:244 57:228 58:215 59:255 60:255 61:255 62:255 63:213 64:183 65:164 66:153 67:149 68:149 69:151 70:153 71:155 72:157 73:161 74:178 75:199 76:221 77:231 78:231 79:255 80:255 81:255 82:255 83:237 84:195 85:153 86:124 87:109 88:102 89:100 90:100 91:100 92:105 93:112 94:125 95:151 96:186 97:215 98:233 99:255 100:255 101:255 102:255 103:239 104:187 105:132 106:92 107:68 108:57 109:53 110:54 111:56 112:61 113:69 114:85 115:114 116:153 117:192 118:227 119:255 120:255 121:255 122:255 123:234 124:175 125:116 126:70 127:38 128:22 129:21 130:28 131:34 132:37 133:46 134:69 135:97 136:134 137:179 138:222 139:255 140:255 141:255 142:255 143:229 144:167 145:107 146:60 147:23 148:7 149:16 150:33 151:43 152:49 153:59 154:79 155:104 156:139 157:181 158:222 159:255 160:255 161:255 162:255 163:222 164:161 165:102 166:54 167:21 168:14 169:36 170:60 171:74 172:86 173:94 174:106 175:130 176:159 177:189 178:222 179:255 180:255 181:255 182:255 183:222 184:159 185:100 186:52 187:23 188:24 189:54 190:88 191:102 192:116 193:129 194:142 195:160 196:181 197:200 198:223 199:255 200:255 201:255 202:255 203:213 204:151 205:95 206:50 207:23 208:25 209:59 210:93 211:108 212:121 213:136 214:149 215:170 216:195 217:217 218:236 219:255 220:255 221:255 222:255 223:209 224:148 225:94 226:48 227:17 228:20 229:47 230:70 231:89 232:97 233:105 234:126 235:156 236:194 237:226 238:241 239:255 240:255 241:255 242:255 243:203 244:143 245:91 246:44 247:13 248:9 249:25 250:44 251:52 252:61 253:74 254:97 255:134 256:182 257:222 258:242 259:255 260:255 261:255 262:255 263:199 264:140 265:87 266:39 267:9 268:4 269:12 270:25 271:31 272:42 273:57 274:84 275:125 276:173 277:213 278:238 279:255 280:255 281:255 282:255 283:196 284:137 285:84 286:37 287:8 288:5 289:16 290:32 291:42 292:52 293:68 294:93 295:130 296:176 297:213 298:233 299:255 300:255 301:255 302:255 303:193 304:134 305:85 306:40 307:11 308:13 309:35 310:61 311:74 312:82 313:102 314:123 315:156 316:194 317:214 318:221 319:255 320:255 321:255 322:255 323:191 324:133 325:87 326:45 327:18 328:24 329:55 330:91 331:113 332:124 333:145 334:170 335:196 336:214 337:207 338:203 339:255 340:255 341:255 342:255 343:192 344:134 345:88 346:49 347:28 348:38 349:70 350:110 351:150 352:173 353:192 354:217 355:230 356:220 357:193 358:191 359:255 360:255 361:255 362:255 363:195 364:139 365:93 366:56 367:38 368:51 369:87 370:130 371:181 372:220 373:235 374:241 375:239 376:214 377:174 378:173 379:255 380:255 381:255 382:255 383:198 384:143 385:101 386:67 387:49 388:62 389:98 390:146 391:208 392:238 393:247 394:245 395:232 396:199 397:152 398:152 399:255 400:255 
-5.674846243929952e-06 1:255 2:255 3:152 4:134 5:162 6:198 7:227 8:239 9:245 10:251 11:251 12:251 13:251 14:251 15:253 16:253 17:237 18:222 19:255 20:255 21:255 22:255 23:190 24:173 25:181 26:190 27:203 28:215 29:214 30:207 31:216 32:208 33:214 34:223 35:234 36:242 37:237 38:231 39:255 40:255 41:255 42:255 43:222 44:194 45:180 46:174 47:172 48:173 49:169 50:162 51:165 52:162 53:171 54:183 55:204 56:227 57:237 58:239 59:255 60:255 61:255 62:255 63:234 64:196 65:160 66:136 67:124 68:118 69:114 70:110 71:110 72:111 73:119 74:133 75:165 76:206 77:234 78:245 79:255 80:255 81:255 82:255 83:234 84:187 85:135 86:96 87:75 88:65 89:61 90:60 91:61 92:66 93:76 94:99 95:138 96:184 97:222 98:247 99:255 100:255 101:255 102:255 103:228 104:173 105:116 106:68 107:39 108:31 109:34 110:38 111:43 112:50 113:63 114:90 115:131 116:174 117:214 118:247 119:255 120:255 121:255 122:255 123:217 124:160 125:102 126:53 127:24 128:23 129:40 130:55 131:64 132:70 133:82 134:105 135:142 136:183 137:220 138:249 139:255 140:255 141:255 142:255 143:209 144:152 145:95 146:47 147:24 148:33 149:62 150:89 151:101 152:109 153:119 154:136 155:165 156:202 157:235 158:252 159:255 160:255 161:255 162:255 163:209 164:152 165:96 166:48 167:26 168:40 169:76 170:107 171:121 172:131 173:147 174:165 175:188 176:217 177:243 178:254 179:255 180:255 181:255 182:255 183:209 184:153 185:99 186:50 187:22 188:32 189:66 190:97 191:112 192:120 193:136 194:161 195:192 196:225 197:247 198:255 199:255 200:255 201:255 202:255 203:221 204:161 205:100 206:47 207:12 208:13 209:35 210:59 211:79 212:86 213:103 214:129 215:164 216:205 217:239 218:254 219:255 220:255 221:255 222:255 223:222 224:164 225:102 226:46 227:11 228:4 229:9 230:24 231:41 232:53 233:74 234:105 235:147 236:194 237:231 238:248 239:255 240:255 241:255 242:255 243:225 244:167 245:105 246:46 247:8 248:3 249:9 250:29 251:48 252:59 253:79 254:107 255:148 256:194 257:228 258:243 259:255 260:255 261:255 262:255 263:226 264:170 265:107 266:47 267:10 268:10 269:33 270:65 271:86 272:95 273:109 274:135 275:166 276:202 277:230 278:242 279:255 280:255 281:255 282:255 283:224 284:170 285:108 286:51 287:16 288:21 289:58 290:98 291:123 292:137 293:147 294:164 295:187 296:213 297:230 298:238 299:255 300:255 301:255 302:255 303:222 304:169 305:110 306:54 307:21 308:27 309:67 310:108 311:131 312:148 313:158 314:169 315:188 316:210 317:219 318:221 319:255 320:255 321:255 322:255 323:217 324:166 325:110 326:55 327:20 328:23 329:55 330:89 331:108 332:121 333:133 334:145 335:165 336:189 337:195 338:199 339:255 340:255 341:255 342:255 343:209 344:161 345:110 346:57 347:21 348:14 349:32 350:55 351:72 352:81 353:92 354:107 355:135 356:163 357:168 358:182 359:255 360:255 361:255 362:255 363:211 364:166 365:116 366:66 367:30 368:16 369:21 370:32 371:43 372:48 373:59 374:82 375:111 376:137 377:141 378:156 379:255 380:255 381:255 382:255 383:226 384:182 385:134 386:91 387:60 388:47 389:42 390:44 391:50 392:53 393:60 394:80 395:102 396:115 397:110 398:137 399:255 400:255 
-1.022694615060729e-06 1:255 2:255 3:207 4:177 5:163 6:151 7:147 8:154 9:158 10:165 11:165 12:165 13:169 14:182 15:199 16:217 17:226 18:231 19:255 20:255 21:255 22:255 23:197 24:159 25:132 26:111 27:100 28:100 29:105 30:109 31:113 32:115 33:123 34:138 35:163 36:192 37:214 38:231 39:255 40:255 41:255 42:255 43:191 44:142 45:106 46:79 47:64 48:59 49:60 50:61 51:67 52:69 53:75 54:94 55:127 56:167 57:202 58:228 59:255 60:255 61:255 62:255 63:191 64:142 65:103 66:71 67:50 68:36 69:25 70:24 71:30 72:37 73:53 74:75 75:110 76:155 77:195 78:227 79:255 80:255 81:255 82:255 83:201 84:159 85:123 86:88 87:60 88:35 89:12 90:7 91:14 92:33 93:56 94:82 95:119 96:162 97:198 98:228 99:255 100:255 101:255 102:255 103:211 104:181 105:153 106:120 107:85 108:47 109:16 110:7 111:21 112:52 113:82 114:113 115:149 116:185 117:213 118:234 119:255 120:255 121:255 122:255 123:220 124:198 125:178 126:148 127:108 128:61 129:24 130:11 131:37 132:75 133:117 134:152 135:183 136:210 137:230 138:242 139:255 140:255 141:255 142:255 143:228 144:212 145:193 146:163 147:121 148:71 149:27 150:14 151:49 152:94 153:143 154:183 155:211 156:229 157:240 158:245 159:255 160:255 161:255 162:255 163:237 164:225 165:208 166:177 167:129 168:74 169:33 170:20 171:57 172:108 173:158 174:202 175:228 176:243 177:247 178:244 179:255 180:255 181:255 182:255 183:251 184:240 185:218 186:182 187:132 188:73 189:30 190:23 191:60 192:114 193:167 194:209 195:236 196:247 197:245 198:240 199:255 200:255 201:255 202:255 203:251 204:245 205:220 206:177 207:123 208:70 209:32 210:27 211:62 212:121 213:179 214:221 215:243 216:251 217:249 218:245 219:255 220:255 221:255 222:255 223:246 224:239 225:216 226:172 227:117 228:66 229:31 230:30 231:69 232:124 233:182 234:228 235:249 236:254 237:251 238:247 239:255 240:255 241:255 242:255 243:237 244:225 245:202 246:161 247:110 248:60 249:26 250:28 251:73 252:129 253:184 254:227 255:249 256:254 257:246 258:237 259:255 260:255 261:255 262:255 263:229 264:208 265:183 266:145 267:99 268:53 269:23 270:31 271:74 272:125 273:174 274:212 275:234 276:243 277:234 278:224 279:255 280:255 281:255 282:255 283:215 284:181 285:151 286:117 287:77 288:38 289:13 290:26 291:66 292:111 293:150 294:183 295:208 296:221 297:215 298:214 299:255 300:255 301:255 302:255 303:196 304:147 305:112 306:81 307:50 308:20 309:4 310:14 311:50 312:84 313:115 314:147 315:178 316:194 317:195 318:208 319:255 320:255 321:255 322:255 323:179 324:119 325:80 326:51 327:27 328:10 329:2 330:7 331:32 332:54 333:82 334:116 335:151 336:170 337:177 338:199 339:255 340:255 341:255 342:255 343:172 344:111 345:75 346:47 347:27 348:18 349:13 350:15 351:25 352:42 353:66 354:97 355:129 356:149 357:158 358:186 359:255 360:255 361:255 362:255 363:185 364:132 365:98 366:76 367:65 368:56 369:48 370:48 371:47 372:58 373:72 374:94 375:113 376:125 377:136 378:174 379:255 380:255 381:255 382:255 383:205 384:164 385:137 386:122 387:115 388:105 389:96 390:91 391:89 392:91 393:94 394:101 395:104 396:109 397:118 398:156 399:255 400:255 
-3.722493084838047e-07 1:255 2:255 3:212 4:197 5:197 6:197 7:201 8:212 9:227 10:251 11:255 12:254 13:245 14:230 15:215 16:210 17:216 18:231 19:255 20:255 21:255 22:255 23:224 24:211 25:196 26:174 27:160 28:164 29:187 30:222 31:237 32:229 33:205 34:178 35:162 36:162 37:179 38:214 39:255 40:255 41:255 42:255 43:230 44:210 45:180 46:145 47:121 48:117 49:149 50:186 51:208 52:184 53:157 54:125 55:110 56:122 57:155 58:202 59:255 60:255 61:255 62:255 63:237 64:210 65:168 66:122 67:89 68:86 69:116 70:157 71:172 72:149 73:112 74:86 75:81 76:104 77:147 78:199 79:255 80:255 81:255 82:255 83:243 84:209 85:161 86:109 87:71 88:68 89:96 90:136 91:141 92:112 93:79 94:68 95:77 96:109 97:156 98:207 99:255 100:255 101:255 102:255 103:248 104:209 105:155 106:101 107:62 108:56 109:83 110:111 111:107 112:79 113:60 114:65 115:92 116:132 117:177 118:223 119:255 120:255 121:255 122:255 123:253 124:213 125:153 126:95 127:53 128:44 129:67 130:81 131:72 132:54 133:55 134:76 135:116 136:161 137:202 138:237 139:255 140:255 141:255 142:255 143:254 144:214 145:153 146:90 147:44 148:30 149:46 150:55 151:44 152:35 153:61 154:100 155:142 156:185 157:223 158:247 159:255 160:255 161:255 162:255 163:250 164:206 165:147 166:87 167:39 168:18 169:20 170:24 171:21 172:34 173:75 174:125 175:169 176:205 177:234 178:252 179:255 180:255 181:255 182:255 183:240 184:199 185:142 186:81 187:32 188:11 189:6 190:6 191:16 192:49 193:94 194:140 195:186 196:220 197:241 198:252 199:255 200:255 201:255 202:255 203:245 204:198 205:140 206:84 207:37 208:11 209:4 210:5 211:13 212:49 213:98 214:143 215:191 216:224 217:241 218:252 219:255 220:255 221:255 222:255 223:245 224:201 225:142 226:81 227:33 228:11 229:4 230:4 231:13 232:36 233:83 234:134 235:184 236:221 237:238 238:246 239:255 240:255 241:255 242:255 243:250 244:205 245:142 246:77 247:29 248:13 249:14 250:14 251:13 252:24 253:66 254:119 255:168 256:207 257:234 258:250 259:255 260:255 261:255 262:255 263:244 264:199 265:139 266:75 267:30 268:20 269:28 270:33 271:23 272:19 273:49 274:94 275:142 276:187 277:223 278:244 279:255 280:255 281:255 282:255 283:240 284:195 285:135 286:73 287:32 288:30 289:50 290:61 291:49 292:26 293:35 294:69 295:115 296:160 297:198 298:231 299:255 300:255 301:255 302:255 303:240 304:195 305:135 306:74 307:36 308:39 309:71 310:90 311:79 312:47 313:32 314:51 315:89 316:130 317:167 318:207 319:255 320:255 321:255 322:255 323:242 324:198 325:141 326:85 327:49 328:56 329:92 330:119 331:110 332:76 333:47 334:47 335:69 336:106 337:141 338:181 339:255 340:255 341:255 342:255 343:247 344:206 345:153 346:106 347:80 348:90 349:122 350:150 351:143 352:108 353:78 354:63 355:70 356:96 357:124 358:166 359:255 360:255 361:255 362:255 363:252 364:221 365:177 366:139 367:123 368:132 369:157 370:179 371:169 372:149 373:117 374:98 375:94 376:105 377:117 378:151 379:255 380:255 381:255 382:255 383:254 384:235 385:210 386:187 387:171 388:171 389:192 390:212 391:208 392:184 393:159 394:144 395:132 396:123 397:108 398:131 399:255 400:255 
-2.663408271082802e-06 1:255 2:255 3:192 4:179 5:195 6:209 7:221 8:232 9:239 10:245 11:238 12:231 13:230 14:230 15:230 16:226 17:215 18:217 19:255 20:255 21:255 22:255 23:209 24:192 25:192 26:197 27:206 28:221 29:232 30:238 31:212 32:203 33:192 34:190 35:198 36:211 37:220 38:228 39:255 40:255 41:255 42:255 43:212 44:184 45:166 46:162 47:178 48:203 49:218 50:211 51:181 52:155 53:140 54:144 55:167 56:199 57:221 58:235 59:255 60:255 61:255 62:255 63:204 64:160 65:129 66:122 67:144 68:179 69:198 70:180 71:141 72:109 73:92 74:108 75:147 76:191 77:223 78:240 79:255 80:255 81:255 82:255 83:194 84:136 85:96 86:89 87:118 88:154 89:172 90:146 91:100 92:72 93:67 94:98 95:145 96:191 97:224 98:242 99:255 100:255 101:255 102:255 103:184 104:122 105:78 106:70 107:98 108:130 109:139 110:111 111:68 112:52 113:70 114:110 115:157 116:200 117:229 118:245 119:255 120:255 121:255 122:255 123:177 124:115 125:72 126:59 127:79 128:105 129:105 130:79 131:49 132:51 133:89 134:133 135:176 136:213 137:237 138:248 139:255 140:255 141:255 142:255 143:173 144:110 145:65 146:47 147:60 148:77 149:72 150:51 151:43 152:67 153:112 154:159 155:196 156:225 157:242 158:248 159:255 160:255 161:255 162:255 163:174 164:107 165:60 166:34 167:36 168:45 169:40 170:34 171:54 172:97 173:139 174:180 175:216 176:241 177:249 178:248 179:255 180:255 181:255 182:255 183:179 184:109 185:56 186:23 187:13 188:14 189:20 190:34 191:70 192:123 193:168 194:203 195:232 196:249 197:251 198:248 199:255 200:255 201:255 202:255 203:179 204:104 205:45 206:14 207:8 208:8 209:11 210:27 211:88 212:137 213:180 214:210 215:237 216:252 217:253 218:251 219:255 220:255 221:255 222:255 223:174 224:101 225:45 226:13 227:6 228:3 229:5 230:22 231:76 232:131 233:179 234:211 235:237 236:252 237:254 238:254 239:255 240:255 241:255 242:255 243:177 244:107 245:50 246:16 247:7 248:7 249:8 250:17 251:60 252:115 253:164 254:203 255:235 256:252 257:250 258:245 259:255 260:255 261:255 262:255 263:180 264:113 265:57 266:21 267:14 268:19 269:23 270:18 271:40 272:89 273:138 274:185 275:225 276:245 277:237 278:226 279:255 280:255 281:255 282:255 283:184 284:118 285:61 286:26 287:27 288:44 289:47 290:33 291:28 292:61 293:107 294:156 295:199 296:224 297:215 298:206 299:255 300:255 301:255 302:255 303:185 304:120 305:63 306:33 307:43 308:70 309:77 310:59 311:35 312:42 313:75 314:121 315:166 316:192 317:186 318:185 319:255 320:255 321:255 322:255 323:186 324:120 325:65 326:41 327:58 328:92 329:109 330:88 331:56 332:38 333:51 334:90 335:133 336:159 337:152 338:161 339:255 340:255 341:255 342:255 343:191 344:124 345:70 346:50 347:74 348:113 349:135 350:121 351:85 352:56 353:51 354:75 355:109 356:128 357:120 358:138 359:255 360:255 361:255 362:255 363:200 364:139 365:91 366:75 367:95 368:133 369:160 370:156 371:127 372:98 373:78 374:88 375:103 376:104 377:88 378:113 379:255 380:255 381:255 382:255 383:213 384:169 385:138 386:125 387:135 388:160 389:179 390:181 391:163 392:139 393:128 394:117 395:107 396:88 397:58 398:89 399:255 400:255 
-2.546917605363034e-06 1:255 2:255 3:161 4:147 5:173 6:201 7:222 8:232 9:239 10:245 11:247 12:250 13:251 14:251 15:248 16:236 17:206 18:193 19:255 20:255 21:255 22:255 23:182 24:163 25:175 26:186 27:193 28:199 29:206 30:214 31:221 32:231 33:238 34:244 35:246 36:242 37:222 38:210 39:255 40:255 41:255 42:255 43:189 44:165 45:161 46:158 47:157 48:158 49:162 50:169 51:178 52:191 53:205 54:222 55:235 56:242 57:232 58:223 59:255 60:255 61:255 62:255 63:185 64:149 65:131 66:119 67:114 68:111 69:114 70:122 71:129 72:150 73:170 74:191 75:216 76:233 77:232 78:230 79:255 80:255 81:255 82:255 83:176 84:126 85:97 86:77 87:68 88:64 89:66 90:75 91:86 92:108 93:130 94:158 95:190 96:217 97:228 98:233 99:255 100:255 101:255 102:255 103:167 104:106 105:66 106:40 107:30 108:32 109:37 110:40 111:48 112:65 113:91 114:127 115:164 116:199 117:222 118:233 119:255 120:255 121:255 122:255 123:159 124:92 125:45 126:16 127:18 128:34 129:45 130:37 131:30 132:31 133:60 134:101 135:142 136:181 137:209 138:228 139:255 140:255 141:255 142:255 143:152 144:84 145:36 146:16 147:35 148:67 149:79 150:69 151:46 152:21 153:39 154:80 155:125 156:165 157:195 158:221 159:255 160:255 161:255 162:255 163:153 164:85 165:38 166:27 167:59 168:94 169:108 170:102 171:75 172:34 173:30 174:67 175:115 176:154 177:186 178:219 179:255 180:255 181:255 182:255 183:159 184:89 185:41 186:34 187:69 188:105 189:124 190:112 191:85 192:42 193:29 194:60 195:109 196:150 197:183 198:219 199:255 200:255 201:255 202:255 203:159 204:89 205:41 206:31 207:62 208:96 209:111 210:103 211:77 212:39 213:34 214:69 215:115 216:154 217:186 218:219 219:255 220:255 221:255 222:255 223:159 224:89 225:38 226:20 227:41 228:71 229:87 230:78 231:56 232:31 233:45 234:82 235:125 236:162 237:191 238:219 239:255 240:255 241:255 242:255 243:159 244:88 245:34 246:8 247:16 248:34 249:48 250:46 251:37 252:40 253:68 254:105 255:143 256:176 257:199 258:219 259:255 260:255 261:255 262:255 263:159 264:85 265:30 266:3 267:5 268:18 269:36 270:47 271:54 272:71 273:95 274:128 275:161 276:188 277:202 278:211 279:255 280:255 281:255 282:255 283:159 284:82 285:29 286:4 287:13 288:36 289:60 290:77 291:89 292:111 293:132 294:156 295:182 296:201 297:199 298:203 299:255 300:255 301:255 302:255 303:160 304:82 305:30 306:12 307:34 308:72 309:98 310:120 311:133 312:151 313:171 314:189 315:206 316:210 317:194 318:196 319:255 320:255 321:255 322:255 323:162 324:88 325:37 326:26 327:59 328:103 329:133 330:161 331:179 332:193 333:210 334:221 335:225 336:212 337:186 338:188 339:255 340:255 341:255 342:255 343:165 344:96 345:51 346:45 347:78 348:123 349:163 350:197 351:218 352:234 353:245 354:242 355:231 356:208 357:176 358:180 359:255 360:255 361:255 362:255 363:167 364:105 365:70 366:65 367:96 368:140 369:181 370:226 371:245 372:254 373:255 374:247 375:227 376:195 377:160 378:166 379:255 380:255 381:255 382:255 383:173 384:118 385:90 386:86 387:110 388:152 389:191 390:234 391:250 392:254 393:255 394:241 395:211 396:176 397:140 398:146 399:255 400:255 
-6.836402631955961e-06 1:255 2:255 3:125 4:95 5:123 6:156 7:188 8:216 9:231 10:237 11:237 12:237 13:239 14:244 15:248 16:248 17:237 18:228 19:255 20:255 21:255 22:255 23:150 24:129 25:148 26:171 27:194 28:209 29:221 30:221 31:215 32:224 33:235 34:241 35:249 36:253 37:246 38:239 39:255 40:255 41:255 42:255 43:181 44:161 45:168 46:176 47:183 48:189 49:195 50:195 51:193 52:205 53:222 54:237 55:249 56:254 57:252 58:249 59:255 60:255 61:255 62:255 63:205 64:179 65:166 66:159 67:156 68:154 69:156 70:156 71:160 72:169 73:193 74:218 75:237 76:248 77:252 78:253 79:255 80:255 81:255 82:255 83:214 84:177 85:148 86:129 87:119 88:114 89:113 90:113 91:119 92:128 93:153 94:177 95:204 96:226 97:241 98:251 99:255 100:255 101:255 102:255 103:211 104:165 105:128 106:98 107:77 108:68 109:68 110:68 111:75 112:85 113:110 114:131 115:160 116:194 117:223 118:243 119:255 120:255 121:255 122:255 123:205 124:156 125:113 126:71 127:39 128:29 129:33 130:36 131:41 132:47 133:67 134:89 135:119 136:158 137:198 138:231 139:255 140:255 141:255 142:255 143:198 144:147 145:102 146:53 147:17 148:15 149:31 150:41 151:41 152:33 153:34 154:53 155:87 156:127 157:171 158:219 159:255 160:255 161:255 162:255 163:192 164:141 165:95 166:46 167:17 168:27 169:58 170:77 171:77 172:57 173:32 174:32 175:65 176:112 177:158 178:209 179:255 180:255 181:255 182:255 183:191 184:138 185:88 186:41 187:20 188:41 189:85 190:105 191:105 192:89 193:52 194:29 195:51 196:99 197:147 198:200 199:255 200:255 201:255 202:255 203:190 204:140 205:95 206:47 207:21 208:44 209:92 210:114 211:115 212:98 213:61 214:35 215:52 216:94 217:143 218:200 219:255 220:255 221:255 222:255 223:187 224:139 225:96 226:47 227:20 228:41 229:86 230:107 231:109 232:92 233:57 234:40 235:62 236:104 237:150 238:203 239:255 240:255 241:255 242:255 243:187 244:139 245:96 246:44 247:12 248:27 249:65 250:87 251:88 252:68 253:46 254:47 255:76 256:118 257:163 258:211 259:255 260:255 261:255 262:255 263:187 264:140 265:97 266:42 267:6 268:11 269:33 270:55 271:57 272:48 273:48 274:67 275:97 276:135 277:176 278:216 279:255 280:255 281:255 282:255 283:187 284:141 285:98 286:42 287:4 288:4 289:17 290:40 291:50 292:52 293:70 294:94 295:122 296:158 297:194 298:225 299:255 300:255 301:255 302:255 303:188 304:142 305:98 306:42 307:5 308:9 309:32 310:60 311:75 312:83 313:107 314:128 315:155 316:185 317:210 318:232 319:255 320:255 321:255 322:255 323:192 324:145 325:99 326:44 327:10 328:23 329:65 330:96 331:117 332:127 333:150 334:169 335:190 336:208 337:218 338:230 339:255 340:255 341:255 342:255 343:196 344:149 345:103 346:49 347:19 348:42 349:92 350:125 351:158 352:171 353:194 354:208 355:217 356:223 357:221 358:225 359:255 360:255 361:255 362:255 363:196 364:154 365:111 366:62 367:37 368:61 369:109 370:152 371:192 372:212 373:229 374:236 375:234 376:228 377:216 378:216 379:255 380:255 381:255 382:255 383:200 384:159 385:119 386:78 387:56 388:71 389:115 390:159 391:208 392:236 393:248 394:245 395:240 396:229 397:210 398:209 399:255 400:255 
-1.156710614472029e-05 1:255 2:255 3:146 4:116 5:133 6:163 7:200 8:230 9:244 10:249 11:249 12:249 13:252 14:254 15:255 16:254 17:244 18:235 19:255 20:255 21:255 22:255 23:176 24:152 25:160 26:172 27:189 28:207 29:212 30:217 31:217 32:217 33:231 34:245 35:252 36:253 37:249 38:244 39:255 40:255 41:255 42:255 43:201 44:177 45:168 46:162 47:163 48:167 49:168 50:169 51:169 52:175 53:195 54:218 55:232 56:241 57:245 58:246 59:255 60:255 61:255 62:255 63:213 64:180 65:154 66:134 67:123 68:120 69:118 70:118 71:121 72:128 73:150 74:174 75:196 76:216 77:230 78:241 79:255 80:255 81:255 82:255 83:211 84:169 85:133 86:100 87:78 88:70 89:62 90:62 91:72 92:82 93:107 94:131 95:158 96:187 97:211 98:232 99:255 100:255 101:255 102:255 103:206 104:158 105:115 106:72 107:38 108:25 109:20 110:21 111:29 112:42 113:68 114:92 115:120 116:155 117:190 118:223 119:255 120:255 121:255 122:255 123:201 124:151 125:105 126:56 127:18 128:6 129:16 130:23 131:25 132:28 133:39 134:58 135:89 136:129 137:170 138:214 139:255 140:255 141:255 142:255 143:196 144:147 145:101 146:52 147:18 148:18 149:44 150:66 151:68 152:50 153:30 154:36 155:69 156:113 157:156 158:205 159:255 160:255 161:255 162:255 163:194 164:146 165:100 166:51 167:23 168:36 169:74 170:103 171:106 172:78 173:45 174:29 175:52 176:98 177:146 178:196 179:255 180:255 181:255 182:255 183:194 184:146 185:100 186:51 187:28 188:52 189:95 190:122 191:123 192:100 193:64 194:33 195:44 196:88 197:137 198:191 199:255 200:255 201:255 202:255 203:194 204:146 205:97 206:48 207:28 208:52 209:94 210:119 211:115 212:94 213:62 214:39 215:50 216:91 217:140 218:193 219:255 220:255 221:255 222:255 223:197 224:147 225:97 226:44 227:17 228:35 229:71 230:97 231:94 232:68 233:47 234:47 235:70 236:107 237:151 238:202 239:255 240:255 241:255 242:255 243:198 244:149 245:100 246:46 247:11 248:16 249:39 250:58 251:58 252:46 253:45 254:61 255:89 256:127 257:169 258:212 259:255 260:255 261:255 262:255 263:205 264:154 265:104 266:48 267:9 268:7 269:20 270:35 271:46 272:50 273:64 274:87 275:117 276:153 277:189 278:224 279:255 280:255 281:255 282:255 283:212 284:160 285:108 286:53 287:13 288:13 289:37 290:51 291:71 292:81 293:98 294:124 295:153 296:184 297:210 298:230 299:255 300:255 301:255 302:255 303:218 304:165 305:111 306:57 307:23 308:33 309:71 310:93 311:112 312:125 313:139 314:165 315:192 316:212 317:223 318:230 319:255 320:255 321:255 322:255 323:222 324:167 325:110 326:59 327:36 328:56 329:98 330:133 331:154 332:170 333:185 334:207 335:225 336:230 337:225 338:226 339:255 340:255 341:255 342:255 343:220 344:165 345:109 346:64 347:48 348:70 349:116 350:160 351:192 352:211 353:226 354:239 355:244 356:237 357:222 358:219 359:255 360:255 361:255 362:255 363:215 364:164 365:116 366:76 367:61 368:81 369:125 370:173 371:217 372:240 373:244 374:247 375:244 376:232 377:210 378:206 379:255 380:255 381:255 382:255 383:215 384:171 385:128 386:92 387:81 388:103 389:138 390:180 391:223 392:240 393:243 394:243 395:235 396:216 397:189 398:187 399:255 400:255 
-3.201598423703233e-07 1:255 2:255 3:197 4:180 5:189 6:206 7:218 8:216 9:211 10:211 11:218 12:226 13:234 14:241 15:247 16:249 17:247 18:247 19:255 20:255 21:255 22:255 23:213 24:196 25:193 26:189 27:180 28:164 29:149 30:147 31:151 32:167 33:188 34:212 35:231 36:243 37:250 38:253 39:255 40:255 41:255 42:255 43:221 44:196 45:172 46:146 47:123 48:106 49:92 50:87 51:93 52:105 53:126 54:165 55:207 56:237 57:251 58:255 59:255 60:255 61:255 62:255 63:218 64:182 65:141 66:102 67:74 68:60 69:51 70:49 71:57 72:64 73:87 74:129 75:185 76:229 77:249 78:255 79:255 80:255 81:255 82:255 83:211 84:158 85:107 86:65 87:43 88:39 89:44 90:52 91:59 92:65 93:82 94:118 95:174 96:221 97:244 98:252 99:255 100:255 101:255 102:255 103:203 104:136 105:80 106:43 107:32 108:45 109:68 110:84 111:93 112:96 113:104 114:136 115:184 116:222 117:240 118:249 119:255 120:255 121:255 122:255 123:194 124:122 125:65 126:31 127:29 128:56 129:90 130:114 131:129 132:135 133:143 134:170 135:204 136:229 137:242 138:249 139:255 140:255 141:255 142:255 143:191 144:119 145:59 146:23 147:21 148:48 149:83 150:116 151:140 152:162 153:177 154:198 155:219 156:236 157:247 158:254 159:255 160:255 161:255 162:255 163:199 164:128 165:67 166:26 167:12 168:23 169:53 170:88 171:114 172:147 173:178 174:207 175:225 176:236 177:247 178:254 179:255 180:255 181:255 182:255 183:208 184:147 185:88 186:41 187:15 188:11 189:21 190:48 191:74 192:102 193:144 194:186 195:215 196:231 197:243 198:254 199:255 200:255 201:255 202:255 203:226 204:183 205:129 206:80 207:44 208:20 209:13 210:19 211:34 212:56 213:94 214:142 215:189 216:221 217:236 218:247 219:255 220:255 221:255 222:255 223:231 224:203 225:164 226:122 227:90 228:67 229:44 230:29 231:16 232:22 233:51 234:95 235:152 236:202 237:229 238:242 239:255 240:255 241:255 242:255 243:234 244:214 245:188 246:161 247:136 248:110 249:86 250:60 251:29 252:13 253:25 254:68 255:123 256:180 257:219 258:234 259:255 260:255 261:255 262:255 263:231 264:205 265:184 266:170 267:156 268:135 269:113 270:81 271:43 272:13 273:12 274:50 275:107 276:166 277:206 278:225 279:255 280:255 281:255 282:255 283:215 284:173 285:148 286:139 287:135 288:126 289:110 290:77 291:36 292:9 293:9 294:47 295:106 296:164 297:196 298:212 299:255 300:255 301:255 302:255 303:194 304:137 305:105 306:93 307:91 308:89 309:79 310:52 311:18 312:4 313:18 314:61 315:118 316:169 317:185 318:190 319:255 320:255 321:255 322:255 323:186 324:121 325:81 326:62 327:56 328:52 329:45 330:28 331:14 332:17 333:44 334:87 335:139 336:174 337:167 338:165 339:255 340:255 341:255 342:255 343:196 344:135 345:89 346:63 347:52 348:46 349:41 350:37 351:39 352:57 353:86 354:121 355:157 356:168 357:138 358:138 359:255 360:255 361:255 362:255 363:219 364:171 365:131 366:104 367:90 368:85 369:82 370:88 371:94 372:109 373:128 374:151 375:160 376:139 377:97 378:113 379:255 380:255 381:255 382:255 383:237 384:213 385:186 386:159 387:140 388:135 389:136 390:139 391:143 392:157 393:165 394:162 395:138 396:101 397:62 398:88 399:255 400:255 
-1.133951802303082e-06 1:255 2:255 3:179 4:169 5:190 6:205 7:214 8:218 9:218 10:219 11:228 12:235 13:241 14:251 15:253 16:238 17:207 18:197 19:255 20:255 21:255 22:255 23:205 24:190 25:193 26:191 27:184 28:179 29:180 30:183 31:189 32:201 33:213 34:235 35:250 36:248 37:226 38:214 39:255 40:255 41:255 42:255 43:215 44:194 45:177 46:155 47:137 48:124 49:119 50:125 51:131 52:146 53:172 54:206 55:237 56:251 57:238 58:228 59:255 60:255 61:255 62:255 63:209 64:171 65:137 66:108 67:87 68:73 69:69 70:74 71:81 72:95 73:133 74:182 75:224 76:246 77:244 78:237 79:255 80:255 81:255 82:255 83:191 84:135 85:96 86:68 87:51 88:47 89:51 90:53 91:58 92:74 93:115 94:170 95:214 96:241 97:244 98:238 99:255 100:255 101:255 102:255 103:167 104:102 105:65 106:44 107:42 108:55 109:68 110:72 111:74 112:90 113:126 114:174 115:213 116:237 117:242 118:238 119:255 120:255 121:255 122:255 123:150 124:80 125:44 126:35 127:54 128:82 129:102 130:113 131:116 132:130 133:157 134:191 135:219 136:238 137:244 138:245 139:255 140:255 141:255 142:255 143:144 144:69 145:34 146:33 147:60 148:94 149:124 150:140 151:155 152:169 153:188 154:207 155:227 156:244 157:252 158:253 159:255 160:255 161:255 162:255 163:146 164:67 165:32 166:26 167:43 168:76 169:107 170:129 171:158 172:180 173:197 174:215 175:233 176:248 177:254 178:254 179:255 180:255 181:255 182:255 183:158 184:86 185:41 186:19 187:20 188:37 189:64 190:83 191:115 192:145 193:178 194:206 195:227 196:242 197:248 198:246 199:255 200:255 201:255 202:255 203:180 204:108 205:54 206:21 207:11 208:14 209:20 210:34 211:65 212:95 213:132 214:177 215:211 216:233 217:241 218:241 219:255 220:255 221:255 222:255 223:205 224:145 225:90 226:48 227:26 228:19 229:16 230:15 231:28 232:46 233:84 234:134 235:183 236:218 237:231 238:236 239:255 240:255 241:255 242:255 243:219 244:174 245:130 246:92 247:70 248:60 249:47 250:24 251:10 252:17 253:50 254:99 255:157 256:204 257:223 258:229 259:255 260:255 261:255 262:255 263:223 264:187 265:157 266:134 267:119 268:107 269:86 270:51 271:14 272:7 273:26 274:72 275:136 276:192 277:213 278:220 279:255 280:255 281:255 282:255 283:210 284:173 285:154 286:147 287:142 288:131 289:108 290:68 291:19 292:4 293:12 294:58 295:125 296:181 297:201 298:208 299:255 300:255 301:255 302:255 303:189 304:143 305:123 306:121 307:124 308:116 309:94 310:55 311:13 312:3 313:13 314:61 315:126 316:176 317:185 318:189 319:255 320:255 321:255 322:255 323:171 324:114 325:88 326:81 327:82 328:76 329:56 330:31 331:8 332:10 333:33 334:82 335:139 336:174 337:165 338:166 339:255 340:255 341:255 342:255 343:169 344:106 345:76 346:62 347:55 348:46 349:32 350:27 351:24 352:37 353:71 354:118 355:156 356:165 357:140 358:143 359:255 360:255 361:255 362:255 363:188 364:133 365:97 366:77 367:66 368:57 369:51 370:53 371:71 372:88 373:118 374:150 375:164 376:149 377:110 378:120 379:255 380:255 381:255 382:255 383:212 384:173 385:143 386:121 387:107 388:102 389:108 390:115 391:124 392:144 393:164 394:174 395:161 396:125 397:81 398:102 399:255 400:255 
-1.869545062841828e-06 1:255 2:255 3:143 4:112 5:130 6:153 7:171 8:184 9:195 10:203 11:203 12:203 13:203 14:210 15:217 16:217 17:200 18:195 19:255 20:255 21:255 22:255 23:168 24:134 25:128 26:127 27:133 28:143 29:148 30:149 31:145 32:139 33:138 34:149 35:163 36:175 37:181 38:199 39:255 40:255 41:255 42:255 43:175 44:129 45:110 46:101 47:97 48:97 49:98 50:98 51:97 52:90 53:89 54:100 55:116 56:139 57:164 58:196 59:255 60:255 61:255 62:255 63:164 64:113 65:86 66:69 67:62 68:56 69:55 70:53 71:55 72:53 73:56 74:66 75:85 76:113 77:146 78:192 79:255 80:255 81:255 82:255 83:154 84:102 85:74 86:51 87:37 88:28 89:23 90:20 91:24 92:28 93:36 94:50 95:73 96:102 97:139 98:193 99:255 100:255 101:255 102:255 103:157 104:106 105:78 106:54 107:36 108:20 109:8 110:4 111:8 112:20 113:38 114:55 115:79 116:111 117:150 118:201 119:255 120:255 121:255 122:255 123:171 124:126 125:99 126:76 127:56 128:32 129:9 130:2 131:7 132:31 133:59 134:78 135:104 136:138 137:176 138:218 139:255 140:255 141:255 142:255 143:185 144:155 145:134 146:108 147:81 148:49 149:17 150:3 151:15 152:48 153:81 154:111 155:144 156:177 157:208 158:238 159:255 160:255 161:255 162:255 163:192 164:177 165:168 166:140 167:100 168:59 169:26 170:5 171:20 172:56 173:98 174:145 175:188 176:222 177:241 178:247 179:255 180:255 181:255 182:255 183:200 184:203 185:200 186:166 187:122 188:73 189:30 190:8 191:21 192:59 193:106 194:164 195:218 196:249 197:253 198:252 199:255 200:255 201:255 202:255 203:203 204:213 205:219 206:185 207:130 208:78 209:35 210:9 211:25 212:64 213:118 214:185 215:236 216:255 217:251 218:246 219:255 220:255 221:255 222:255 223:203 224:213 225:220 226:186 227:132 228:82 229:38 230:11 231:25 232:64 233:119 234:186 235:235 236:252 237:249 238:246 239:255 240:255 241:255 242:255 243:203 244:213 245:220 246:189 247:136 248:84 249:41 250:14 251:25 252:64 253:114 254:179 255:231 256:248 257:242 258:242 259:255 260:255 261:255 262:255 263:207 264:218 265:225 266:191 267:138 268:85 269:42 270:15 271:27 272:65 273:117 274:178 275:227 276:245 277:237 278:233 279:255 280:255 281:255 282:255 283:213 284:228 285:233 286:195 287:139 288:86 289:43 290:15 291:29 292:65 293:121 294:180 295:223 296:237 297:224 298:218 299:255 300:255 301:255 302:255 303:220 304:237 305:241 306:201 307:141 308:87 309:44 310:16 311:30 312:67 313:123 314:181 315:219 316:228 317:208 318:200 319:255 320:255 321:255 322:255 323:226 324:240 325:244 326:204 327:142 328:88 329:46 330:19 331:33 332:72 333:125 334:179 335:214 336:215 337:186 338:181 339:255 340:255 341:255 342:255 343:229 344:240 345:242 346:203 347:143 348:91 349:52 350:27 351:41 352:80 353:130 354:176 355:204 356:196 357:159 358:159 359:255 360:255 361:255 362:255 363:231 364:241 365:239 366:202 367:147 368:98 369:63 370:46 371:59 372:92 373:137 374:177 375:190 376:172 377:134 378:138 379:255 380:255 381:255 382:255 383:241 384:246 385:243 386:209 387:155 388:112 389:87 390:64 391:75 392:104 393:147 394:173 395:172 396:142 397:100 398:119 399:255 400:255 
-3.577969557987062e-06 1:255 2:255 3:143 4:112 5:130 6:151 7:167 8:180 9:196 10:202 11:202 12:202 13:202 14:214 15:224 16:219 17:199 18:197 19:255 20:255 21:255 22:255 23:169 24:135 25:129 26:127 27:130 28:136 29:145 30:149 31:145 32:139 33:137 34:150 35:165 36:176 37:179 38:197 39:255 40:255 41:255 42:255 43:174 44:127 45:110 46:100 47:94 48:94 49:95 50:96 51:92 52:88 53:92 54:104 55:117 56:138 57:162 58:196 59:255 60:255 61:255 62:255 63:162 64:110 65:85 66:68 67:61 68:56 69:54 70:52 71:50 72:51 73:57 74:68 75:86 76:113 77:145 78:192 79:255 80:255 81:255 82:255 83:153 84:99 85:72 86:50 87:37 88:29 89:23 90:19 91:21 92:26 93:36 94:51 95:74 96:104 97:140 98:193 99:255 100:255 101:255 102:255 103:157 104:104 105:76 106:53 107:35 108:19 109:8 110:3 111:6 112:19 113:37 114:56 115:81 116:114 117:155 118:204 119:255 120:255 121:255 122:255 123:172 124:126 125:97 126:73 127:55 128:31 129:9 130:2 131:8 132:30 133:58 134:80 135:106 136:143 137:184 138:224 139:255 140:255 141:255 142:255 143:188 144:156 145:134 146:108 147:81 148:49 149:18 150:3 151:15 152:48 153:82 154:114 155:149 156:185 157:217 158:241 159:255 160:255 161:255 162:255 163:196 164:181 165:172 166:143 167:102 168:60 169:27 170:6 171:20 172:56 173:99 174:149 175:195 176:228 177:243 178:245 179:255 180:255 181:255 182:255 183:205 184:203 185:199 186:170 187:126 188:75 189:32 190:9 191:23 192:58 193:109 194:171 195:225 196:250 197:248 198:245 199:255 200:255 201:255 202:255 203:205 204:212 205:216 206:184 207:132 208:80 209:39 210:12 211:27 212:65 213:119 214:190 215:239 216:255 217:250 218:245 219:255 220:255 221:255 222:255 223:205 224:213 225:217 226:185 227:134 228:83 229:39 230:12 231:27 232:65 233:122 234:192 235:240 236:255 237:250 238:245 239:255 240:255 241:255 242:255 243:205 244:210 245:212 246:181 247:134 248:84 249:40 250:14 251:24 252:65 253:123 254:193 255:238 256:251 257:245 258:241 259:255 260:255 261:255 262:255 263:205 264:209 265:211 266:180 267:134 268:85 269:41 270:15 271:26 272:62 273:120 274:187 275:233 276:247 277:239 278:235 279:255 280:255 281:255 282:255 283:208 284:215 285:220 286:187 287:136 288:86 289:43 290:15 291:28 292:64 293:119 294:178 295:225 296:242 297:228 298:220 299:255 300:255 301:255 302:255 303:215 304:227 305:233 306:197 307:139 308:87 309:44 310:17 311:31 312:67 313:120 314:174 315:219 316:234 317:212 318:200 319:255 320:255 321:255 322:255 323:221 324:235 325:242 326:204 327:142 328:89 329:47 330:20 331:34 332:71 333:122 334:173 335:213 336:220 337:191 338:181 339:255 340:255 341:255 342:255 343:223 344:237 345:245 346:207 347:144 348:92 349:53 350:28 351:43 352:79 353:128 354:172 355:202 356:198 357:163 358:162 359:255 360:255 361:255 362:255 363:230 364:239 365:240 366:204 367:147 368:97 369:63 370:48 371:60 372:93 373:136 374:173 375:185 376:169 377:133 378:139 379:255 380:255 381:255 382:255 383:233 384:240 385:240 386:207 387:155 388:110 389:86 390:65 391:76 392:103 393:146 394:169 395:168 396:140 397:100 398:119 399:255 400:255 
