svm_type c_svc
kernel_type linear
nr_class 2
total_sv 17
rho 1.9809
label 0 -1
nr_sv 5 12
SV
9.273886943220001e-06 1:255 2:255 3:218 4:230 5:246 6:246 7:240 8:234 9:234 10:234 11:228 12:228 13:228 14:213 15:189 16:162 17:139 18:161 19:255 20:255 21:255 22:255 23:236 24:242 25:246 26:238 27:224 28:212 29:212 30:209 31:201 32:199 33:200 34:199 35:189 36:176 37:166 38:186 39:255 40:255 41:255 42:255 43:248 44:245 45:233 46:212 47:191 48:177 49:172 50:168 51:162 52:157 53:157 54:160 55:161 56:161 57:167 58:194 59:255 60:255 61:255 62:255 63:248 64:233 65:207 66:175 67:149 68:133 69:127 70:122 71:117 72:111 73:109 74:113 75:119 76:126 77:141 78:183 79:255 80:255 81:255 82:255 83:240 84:213 85:175 86:138 87:110 88:91 89:84 90:80 91:75 92:66 93:63 94:66 95:74 96:88 97:110 98:163 99:255 100:255 101:255 102:255 103:231 104:197 105:154 106:113 107:81 108:59 109:50 110:47 111:41 112:31 113:27 114:26 115:37 116:60 117:91 118:151 119:255 120:255 121:255 122:255 123:230 124:195 125:152 126:110 127:77 128:55 129:45 130:42 131:35 132:21 133:10 134:6 135:18 136:49 137:89 138:151 139:255 140:255 141:255 142:255 143:238 144:204 145:165 146:129 147:102 148:84 149:79 150:74 151:61 152:37 153:15 154:6 155:22 156:58 157:98 158:158 159:255 160:255 161:255 162:255 163:247 164:221 165:190 166:162 167:139 168:124 169:117 170:104 171:81 172:54 173:23 174:12 175:37 176:77 177:116 178:171 179:255 180:255 181:255 182:255 183:251 184:240 185:219 186:197 187:179 188:162 189:147 190:122 191:90 192:59 193:24 194:21 195:53 196:95 197:135 198:188 199:255 200:255 201:255 202:255 203:252 204:249 205:236 206:222 207:208 208:185 209:159 210:126 211:86 212:45 213:22 214:41 215:79 216:118 217:154 218:201 219:255 220:255 221:255 222:255 223:255 224:253 225:246 226:231 227:209 228:184 229:151 230:114 231:73 232:36 233:31 234:62 235:104 236:144 237:179 238:215 239:255 240:255 241:255 242:255 243:255 244:254 245:248 246:232 247:205 248:171 249:133 250:91 251:55 252:32 253:50 254:87 255:130 256:172 257:206 258:230 259:255 260:255 261:255 262:255 263:253 264:251 265:241 266:219 267:188 268:153 269:114 270:75 271:39 272:34 273:66 274:107 275:152 276:193 277:219 278:235 279:255 280:255 281:255 282:255 283:249 284:243 285:227 286:201 287:170 288:133 289:93 290:57 291:28 292:45 293:80 294:122 295:165 296:197 297:213 298:227 299:255 300:255 301:255 302:255 303:238 304:229 305:210 306:183 307:152 308:114 309:73 310:36 311:22 312:54 313:88 314:124 315:157 316:178 317:186 318:205 319:255 320:255 321:255 322:255 323:219 324:209 325:192 326:164 327:132 328:93 329:53 330:17 331:17 332:51 333:82 334:109 335:128 336:138 337:144 338:176 339:255 340:255 341:255 342:255 343:200 344:185 345:175 346:146 347:108 348:67 349:27 350:6 351:11 352:36 353:61 354:81 355:91 356:95 357:103 358:149 359:255 360:255 361:255 362:255 363:180 364:164 365:157 366:129 367:90 368:49 369:13 370:2 371:5 372:18 373:36 374:50 375:57 376:63 377:76 378:131 379:255 380:255 381:255 382:255 383:157 384:141 385:141 386:118 387:83 388:46 389:16 390:9 391:17 392:26 393:33 394:39 395:49 396:63 397:79 398:132 399:255 400:255 
2.955580585701598e-06 1:255 2:255 3:248 4:245 5:242 6:237 7:231 8:224 9:220 10:217 11:210 12:206 13:195 14:183 15:178 16:182 17:190 18:211 19:255 20:255 21:255 22:255 23:233 24:213 25:199 26:188 27:180 28:172 29:161 30:156 31:153 32:150 33:143 34:139 35:146 36:166 37:194 38:224 39:255 40:255 41:255 42:255 43:213 44:176 45:149 46:131 47:119 48:111 49:101 50:95 51:92 52:89 53:85 54:89 55:108 56:142 57:181 58:220 59:255 60:255 61:255 62:255 63:198 64:149 65:113 66:88 67:74 68:63 69:54 70:44 71:38 72:36 73:38 74:52 75:82 76:124 77:170 78:215 79:255 80:255 81:255 82:255 83:194 84:141 85:102 86:76 87:62 88:52 89:42 90:30 91:15 92:11 93:13 94:35 95:74 96:121 97:169 98:215 99:255 100:255 101:255 102:255 103:205 104:159 105:123 106:99 107:87 108:78 109:65 110:48 111:24 112:9 113:10 114:38 115:83 116:131 117:178 118:222 119:255 120:255 121:255 122:255 123:224 124:192 125:164 126:145 127:133 128:120 129:101 130:75 131:44 132:15 133:19 134:54 135:101 136:149 137:193 138:230 139:255 140:255 141:255 142:255 143:240 144:220 145:202 146:188 147:175 148:156 149:127 150:88 151:49 152:21 153:34 154:72 155:121 156:170 157:211 158:239 159:255 160:255 161:255 162:255 163:251 164:241 165:229 166:217 167:199 168:172 169:133 170:85 171:42 172:27 173:52 174:94 175:145 176:193 177:229 178:249 179:255 180:255 181:255 182:255 183:255 184:251 185:241 186:228 187:206 188:168 189:121 190:72 191:36 192:38 193:74 194:120 195:169 196:212 197:242 198:255 199:255 200:255 201:255 202:255 203:255 204:255 205:246 206:226 207:195 208:152 209:99 210:55 211:29 212:54 213:96 214:146 215:194 216:229 217:248 218:255 219:255 220:255 221:255 222:255 223:255 224:252 225:240 226:215 227:176 228:126 229:75 230:37 231:36 232:73 233:122 234:172 235:211 236:236 237:247 238:251 239:255 240:255 241:255 242:255 243:249 244:244 245:230 246:199 247:151 248:98 249:56 250:28 251:47 252:89 253:139 254:182 255:211 256:228 257:236 258:245 259:255 260:255 261:255 262:255 263:245 264:234 265:212 266:175 267:125 268:74 269:34 270:25 271:58 272:100 273:142 274:172 275:189 276:201 277:212 278:229 279:255 280:255 281:255 282:255 283:237 284:220 285:190 286:146 287:98 288:52 289:16 290:20 291:58 292:93 293:123 294:140 295:147 296:157 297:175 298:207 299:255 300:255 301:255 302:255 303:227 304:202 305:165 306:119 307:72 308:31 309:7 310:12 311:39 312:67 313:87 314:95 315:99 316:113 317:139 318:186 319:255 320:255 321:255 322:255 323:215 324:183 325:145 326:98 327:53 328:17 329:3 330:6 331:16 332:33 333:46 334:53 335:62 336:82 337:116 338:174 339:255 340:255 341:255 342:255 343:198 344:169 345:136 346:91 347:49 348:20 349:12 350:11 351:13 352:18 353:27 354:37 355:53 356:78 357:114 358:174 359:255 360:255 361:255 362:255 363:181 364:154 365:135 366:101 367:69 368:51 369:46 370:43 371:43 372:49 373:58 374:69 375:83 376:105 377:137 378:188 379:255 380:255 381:255 382:255 383:162 384:141 385:141 386:126 387:108 388:97 389:94 390:94 391:96 392:100 393:108 394:116 395:128 396:147 397:173 398:210 399:255 400:255 
1.20492723047479e-05 1:255 2:255 3:231 4:220 5:214 6:208 7:201 8:194 9:192 10:193 11:204 12:210 13:207 14:194 15:184 16:177 17:172 18:191 19:255 20:255 21:255 22:255 23:211 24:183 25:167 26:156 27:149 28:143 29:142 30:142 31:149 32:155 33:156 34:155 35:158 36:169 37:186 38:213 39:255 40:255 41:255 42:255 43:198 44:153 45:121 46:103 47:96 48:90 49:87 50:87 51:91 52:94 53:98 54:103 55:118 56:146 57:182 58:219 59:255 60:255 61:255 62:255 63:193 64:139 65:103 66:78 67:63 68:54 69:48 70:43 71:39 72:40 73:46 74:62 75:89 76:128 77:174 78:218 79:255 80:255 81:255 82:255 83:198 84:150 85:115 86:88 87:70 88:58 89:46 90:32 91:15 92:11 93:18 94:43 95:79 96:124 97:174 98:219 99:255 100:255 101:255 102:255 103:216 104:179 105:148 106:125 107:109 108:91 109:70 110:47 111:18 112:6 113:15 114:47 115:89 116:135 117:182 118:222 119:255 120:255 121:255 122:255 123:236 124:211 125:190 126:172 127:153 128:128 129:97 130:66 131:28 132:12 133:27 134:65 135:111 136:156 137:196 138:229 139:255 140:255 141:255 142:255 143:246 144:236 145:223 146:205 147:182 148:150 149:109 150:69 151:30 152:20 153:48 154:89 155:136 156:180 157:213 158:238 159:255 160:255 161:255 162:255 163:252 164:245 165:236 166:218 167:187 168:147 169:98 170:56 171:27 172:38 173:76 174:121 175:166 176:208 177:235 178:245 179:255 180:255 181:255 182:255 183:255 184:250 185:237 186:207 187:166 188:124 189:78 190:40 191:31 192:60 193:103 194:151 195:197 196:232 197:248 198:250 199:255 200:255 201:255 202:255 203:255 204:246 205:224 206:185 207:138 208:93 209:55 210:33 211:47 212:86 213:135 214:184 215:223 216:247 217:252 218:250 219:255 220:255 221:255 222:255 223:251 224:234 225:201 226:156 227:108 228:66 229:36 230:38 231:77 232:117 233:163 234:208 235:239 236:252 237:253 238:250 239:255 240:255 241:255 242:255 243:241 244:212 245:175 246:129 247:79 248:41 249:27 250:51 251:97 252:145 253:187 254:220 255:241 256:250 257:249 258:246 259:255 260:255 261:255 262:255 263:225 264:185 265:142 266:95 267:51 268:23 269:29 270:65 271:111 272:156 273:185 274:207 275:224 276:237 277:242 278:241 279:255 280:255 281:255 282:255 283:203 284:154 285:107 286:62 287:26 288:14 289:29 290:67 291:105 292:138 293:157 294:172 295:188 296:211 297:228 298:237 299:255 300:255 301:255 302:255 303:184 304:125 305:78 306:36 307:11 308:7 309:20 310:51 311:79 312:98 313:112 314:124 315:146 316:178 317:210 318:233 319:255 320:255 321:255 322:255 323:170 324:108 325:62 326:26 327:7 328:4 329:10 330:25 331:42 332:53 333:65 334:80 335:110 336:152 337:193 338:229 339:255 340:255 341:255 342:255 343:165 344:107 345:70 346:40 347:23 348:18 349:17 350:19 351:22 352:29 353:41 354:62 355:96 356:140 357:186 358:226 359:255 360:255 361:255 362:255 363:168 364:120 365:99 366:81 367:67 368:61 369:56 370:54 371:54 372:56 373:64 374:84 375:112 376:151 377:193 378:229 379:255 380:255 381:255 382:255 383:170 384:140 385:131 386:123 387:118 388:112 389:106 390:102 391:102 392:106 393:112 394:123 395:147 396:181 397:215 398:239 399:255 400:255 
1.520046781336574e-05 1:255 2:255 3:192 4:205 5:235 6:248 7:253 8:253 9:253 10:255 11:255 12:253 13:243 14:225 15:205 16:187 17:168 18:179 19:255 20:255 21:255 22:255 23:203 24:216 25:243 26:249 27:242 28:235 29:228 30:232 31:228 32:223 33:212 34:199 35:190 36:184 37:178 38:193 39:255 40:255 41:255 42:255 43:217 44:224 45:234 46:225 47:206 48:189 49:181 50:180 51:176 52:170 53:164 54:156 55:152 56:154 57:159 58:187 59:255 60:255 61:255 62:255 63:221 64:218 65:210 66:187 67:162 68:142 69:130 70:126 71:122 72:118 73:116 74:111 75:111 76:115 77:124 78:165 79:255 80:255 81:255 82:255 83:221 84:207 85:187 86:154 87:123 88:99 89:83 90:78 91:74 92:71 93:67 94:62 95:64 96:73 97:88 98:142 99:255 100:255 101:255 102:255 103:221 104:199 105:172 106:136 107:100 108:71 109:52 110:45 111:41 112:36 113:29 114:22 115:24 116:39 117:64 118:128 119:255 120:255 121:255 122:255 123:221 124:200 125:172 126:136 127:101 128:73 129:55 130:46 131:42 132:35 133:19 134:8 135:7 136:25 137:59 138:128 139:255 140:255 141:255 142:255 143:223 144:208 145:186 146:154 147:125 148:104 149:92 150:84 151:78 152:63 153:35 154:15 155:10 156:32 157:71 158:137 159:255 160:255 161:255 162:255 163:228 164:219 165:204 166:182 167:161 168:141 169:133 170:123 171:109 172:81 173:50 174:24 175:21 176:48 177:88 178:151 179:255 180:255 181:255 182:255 183:235 184:232 185:229 186:215 187:197 188:178 189:163 190:142 191:119 192:86 193:50 194:26 195:39 196:73 197:109 198:166 199:255 200:255 201:255 202:255 203:243 204:242 205:243 206:236 207:218 208:195 209:170 210:139 211:110 212:75 213:38 214:31 215:54 216:91 217:129 218:180 219:255 220:255 221:255 222:255 223:246 224:249 225:252 226:243 227:223 228:195 229:164 230:129 231:92 232:60 233:34 234:45 235:77 236:113 237:148 238:195 239:255 240:255 241:255 242:255 243:241 244:247 245:253 246:246 247:226 248:192 249:153 250:114 251:75 252:43 253:41 254:65 255:100 256:137 257:170 258:207 259:255 260:255 261:255 262:255 263:231 264:237 265:244 266:238 267:218 268:179 269:135 270:95 271:60 272:33 273:51 274:84 275:120 276:156 277:188 278:218 279:255 280:255 281:255 282:255 283:218 284:222 285:230 286:221 287:197 288:159 289:116 290:77 291:40 292:35 293:61 294:98 295:134 296:165 297:190 298:215 299:255 300:255 301:255 302:255 303:202 304:204 305:212 306:199 307:171 308:136 309:95 310:58 311:23 312:35 313:66 314:102 315:133 316:156 317:172 318:200 319:255 320:255 321:255 322:255 323:185 324:182 325:191 326:176 327:147 328:112 329:72 330:34 331:12 332:25 333:58 334:89 335:112 336:127 337:139 338:174 339:255 340:255 341:255 342:255 343:168 344:158 345:170 346:157 347:127 348:91 349:51 350:11 351:4 352:13 353:39 354:63 355:79 356:90 357:100 358:145 359:255 360:255 361:255 362:255 363:152 364:136 365:148 366:140 367:112 368:74 369:36 370:5 371:3 372:6 373:16 374:32 375:47 376:58 377:71 378:126 379:255 380:255 381:255 382:255 383:134 384:114 385:129 386:125 387:104 388:71 389:37 390:14 391:10 392:13 393:20 394:29 395:43 396:56 397:68 398:125 399:255 400:255 
6.612277381200557e-06 1:255 2:255 3:255 4:252 5:249 6:247 7:244 8:240 9:235 10:230 11:219 12:209 13:194 14:179 15:171 16:165 17:164 18:191 19:255 20:255 21:255 22:255 23:254 24:249 25:239 26:228 27:219 28:208 29:196 30:192 31:177 32:169 33:161 34:154 35:154 36:163 37:175 38:201 39:255 40:255 41:255 42:255 43:247 44:222 45:196 46:176 47:161 48:149 49:139 50:132 51:124 52:122 53:118 54:115 55:121 56:139 57:163 58:199 59:255 60:255 61:255 62:255 63:228 64:183 65:145 66:120 67:103 68:93 69:83 70:73 71:68 72:68 73:70 74:74 75:88 76:117 77:152 78:197 79:255 80:255 81:255 82:255 83:210 84:153 85:109 86:79 87:59 88:48 89:38 90:30 91:25 92:27 93:31 94:41 95:67 96:106 97:150 98:201 99:255 100:255 101:255 102:255 103:206 104:145 105:99 106:69 107:51 108:40 109:32 110:21 111:12 112:10 113:15 114:33 115:66 116:110 117:156 118:206 119:255 120:255 121:255 122:255 123:216 124:162 125:118 126:93 127:81 128:74 129:67 130:48 131:25 132:11 133:17 134:45 135:83 136:124 137:167 138:213 139:255 140:255 141:255 142:255 143:232 144:196 145:160 146:136 147:125 148:118 149:107 150:81 151:41 152:18 153:26 154:60 155:102 156:143 157:182 158:221 159:255 160:255 161:255 162:255 163:246 164:229 165:207 166:185 167:168 168:151 169:128 170:91 171:48 172:25 173:43 174:79 175:121 176:164 177:200 178:229 179:255 180:255 181:255 182:255 183:252 184:248 185:234 186:213 187:192 188:168 189:130 190:86 191:47 192:32 193:61 194:103 195:147 196:187 197:216 198:237 199:255 200:255 201:255 202:255 203:254 204:249 205:238 206:220 207:195 208:161 209:117 210:75 211:36 212:43 213:79 214:124 215:173 216:209 217:228 218:241 219:255 220:255 221:255 222:255 223:254 224:249 225:234 226:212 227:181 228:141 229:100 230:58 231:31 232:59 233:99 234:148 235:194 236:222 237:232 238:241 239:255 240:255 241:255 242:255 243:253 244:246 245:230 246:203 247:164 248:118 249:78 250:39 251:34 252:74 253:119 254:169 255:208 256:226 257:233 258:241 259:255 260:255 261:255 262:255 263:251 264:242 265:223 266:190 267:145 268:98 269:56 270:29 271:50 272:93 273:136 274:178 275:206 276:216 277:221 278:235 279:255 280:255 281:255 282:255 283:247 284:235 285:211 286:171 287:123 288:77 289:35 290:27 291:60 292:102 293:136 294:162 295:177 296:184 297:195 298:221 299:255 300:255 301:255 302:255 303:241 304:223 305:192 306:147 307:98 308:52 309:17 310:21 311:54 312:90 313:113 314:126 315:132 316:139 317:159 318:200 319:255 320:255 321:255 322:255 323:231 324:209 325:172 326:124 327:74 328:29 329:5 330:10 331:35 332:58 333:75 334:85 335:89 336:98 337:124 338:178 339:255 340:255 341:255 342:255 343:217 344:193 345:156 346:105 347:55 348:15 349:2 350:5 351:15 352:26 353:43 354:54 355:62 356:77 357:108 358:168 359:255 360:255 361:255 362:255 363:199 364:177 365:147 366:100 367:55 368:21 369:12 370:15 371:20 372:31 373:41 374:56 375:71 376:89 377:119 378:176 379:255 380:255 381:255 382:255 383:172 384:155 385:142 386:110 387:80 388:62 389:57 390:60 391:68 392:75 393:83 394:92 395:106 396:125 397:155 398:203 399:255 400:255 
-3.607915296422969e-06 1:255 2:255 3:201 4:199 5:220 6:236 7:247 8:254 9:254 10:254 11:254 12:255 13:254 14:224 15:179 16:135 17:99 18:123 19:255 20:255 21:255 22:255 23:211 24:209 25:224 26:236 27:246 28:250 29:253 30:249 31:246 32:249 33:249 34:234 35:208 36:176 37:145 38:158 39:255 40:255 41:255 42:255 43:223 44:222 45:229 46:234 47:240 48:239 49:233 50:217 51:199 52:205 53:206 54:199 55:194 56:190 57:184 58:201 59:255 60:255 61:255 62:255 63:237 64:236 65:237 66:228 67:211 68:195 69:182 70:156 71:142 72:143 73:144 74:145 75:155 76:171 77:193 78:228 79:255 80:255 81:255 82:255 83:242 84:242 85:232 86:206 87:173 88:143 89:126 90:101 91:94 92:89 93:92 94:97 95:112 96:136 97:170 98:217 99:255 100:255 101:255 102:255 103:244 104:239 105:212 106:171 107:132 108:101 109:81 110:61 111:55 112:48 113:53 114:58 115:73 116:101 117:139 118:194 119:255 120:255 121:255 122:255 123:243 124:221 125:180 126:133 127:95 128:66 129:44 130:36 131:34 132:33 133:37 134:40 135:53 136:80 137:120 138:182 139:255 140:255 141:255 142:255 143:230 144:188 145:141 146:100 147:67 148:40 149:22 150:32 151:45 152:54 153:59 154:57 155:64 156:83 157:116 158:176 159:255 160:255 161:255 162:255 163:210 164:162 165:118 166:78 167:44 168:27 169:31 170:52 171:78 172:88 173:98 174:97 175:97 176:109 177:137 178:189 179:255 180:255 181:255 182:255 183:191 184:135 185:94 186:54 187:22 188:18 189:45 190:79 191:110 192:124 193:143 194:144 195:141 196:152 197:175 198:209 199:255 200:255 201:255 202:255 203:176 204:119 205:77 206:40 207:17 208:24 209:60 210:98 211:135 212:164 213:184 214:184 215:186 216:193 217:204 218:226 219:255 220:255 221:255 222:255 223:174 224:112 225:70 226:33 227:16 228:35 229:72 230:110 231:150 232:177 233:199 234:210 235:213 236:214 237:219 238:235 239:255 240:255 241:255 242:255 243:173 244:113 245:71 246:34 247:16 248:37 249:75 250:115 251:159 252:185 253:203 254:214 255:217 256:221 257:230 258:241 259:255 260:255 261:255 262:255 263:178 264:118 265:74 266:35 267:16 268:32 269:72 270:113 271:155 272:182 273:198 274:208 275:219 276:228 277:233 278:242 279:255 280:255 281:255 282:255 283:180 284:122 285:77 286:36 287:12 288:23 289:65 290:104 291:139 292:170 293:182 294:188 295:201 296:213 297:225 298:242 299:255 300:255 301:255 302:255 303:183 304:127 305:85 306:43 307:13 308:14 309:49 310:87 311:118 312:146 313:154 314:157 315:163 316:178 317:200 318:229 319:255 320:255 321:255 322:255 323:187 324:136 325:96 326:56 327:22 328:9 329:27 330:62 331:91 332:110 333:116 334:118 335:120 336:134 337:162 338:204 339:255 340:255 341:255 342:255 343:188 344:145 345:109 346:71 347:38 348:14 349:9 350:31 351:56 352:69 353:76 354:77 355:81 356:96 357:127 358:183 359:255 360:255 361:255 362:255 363:184 364:152 365:129 366:98 367:65 368:33 369:7 370:8 371:22 372:35 373:43 374:45 375:53 376:76 377:111 378:169 379:255 380:255 381:255 382:255 383:173 384:152 385:141 386:118 387:91 388:59 389:30 390:15 391:6 392:14 393:23 394:31 395:47 396:75 397:113 398:173 399:255 400:255 
-1.594220494104218e-06 1:255 2:255 3:250 4:252 5:255 6:255 7:252 8:248 9:249 10:252 11:252 12:249 13:233 14:199 15:160 16:123 17:93 18:121 19:255 20:255 21:255 22:255 23:250 24:251 25:252 26:251 27:244 28:232 29:225 30:231 31:222 32:216 33:210 34:198 35:180 36:156 37:132 38:153 39:255 40:255 41:255 42:255 43:250 44:249 45:245 46:238 47:227 48:211 49:196 50:184 51:171 52:166 53:161 54:162 55:165 56:165 57:168 58:197 59:255 60:255 61:255 62:255 63:245 64:242 65:236 66:222 67:199 68:172 69:150 70:128 71:117 72:113 73:111 74:116 75:127 76:143 77:169 78:211 79:255 80:255 81:255 82:255 83:243 84:232 85:219 86:195 87:161 88:129 89:104 90:83 91:72 92:65 93:67 94:73 95:87 96:109 97:143 98:196 99:255 100:255 101:255 102:255 103:241 104:221 105:195 106:159 107:120 108:90 109:64 110:47 111:38 112:34 113:38 114:42 115:58 116:84 117:119 118:177 119:255 120:255 121:255 122:255 123:234 124:206 125:168 126:126 127:88 128:56 129:31 130:25 131:28 132:36 133:41 134:45 135:58 136:80 137:111 138:168 139:255 140:255 141:255 142:255 143:223 144:184 145:141 146:100 147:64 148:31 149:15 150:27 151:49 152:68 153:78 154:82 155:88 156:99 157:120 158:171 159:255 160:255 161:255 162:255 163:215 164:166 165:120 166:78 167:44 168:22 169:25 170:50 171:82 172:106 173:120 174:128 175:130 176:137 177:151 178:186 179:255 180:255 181:255 182:255 183:206 184:154 185:105 186:59 187:22 188:11 189:37 190:76 191:113 192:144 193:170 194:180 195:182 196:186 197:191 198:207 199:255 200:255 201:255 202:255 203:199 204:142 205:94 206:52 207:21 208:19 209:54 210:95 211:141 212:184 213:205 214:212 215:216 216:214 217:206 218:212 219:255 220:255 221:255 222:255 223:201 224:141 225:90 226:47 227:18 228:24 229:65 230:106 231:156 232:200 233:221 234:229 235:234 236:231 237:217 238:215 239:255 240:255 241:255 242:255 243:194 244:135 245:87 246:42 247:13 248:23 249:67 250:109 251:160 252:202 253:223 254:234 255:242 256:239 257:221 258:215 259:255 260:255 261:255 262:255 263:191 264:133 265:86 266:43 267:14 268:19 269:62 270:102 271:150 272:194 273:216 274:228 275:235 276:232 277:216 278:215 279:255 280:255 281:255 282:255 283:191 284:136 285:90 286:46 287:14 288:12 289:48 290:89 291:130 292:168 293:191 294:203 295:210 296:208 297:199 298:207 299:255 300:255 301:255 302:255 303:193 304:143 305:100 306:55 307:18 308:7 309:29 310:69 311:104 312:132 313:150 314:160 315:164 316:166 317:168 318:192 319:255 320:255 321:255 322:255 323:197 324:153 325:113 326:70 327:32 328:9 329:12 330:42 331:72 332:93 333:105 334:111 335:113 336:119 337:133 338:174 339:255 340:255 341:255 342:255 343:200 344:164 345:131 346:92 347:55 348:24 349:9 350:19 351:38 352:54 353:64 354:69 355:75 356:86 357:109 358:163 359:255 360:255 361:255 362:255 363:193 364:169 365:151 366:120 367:84 368:51 369:25 370:16 371:16 372:25 373:34 374:40 375:53 376:75 377:104 378:161 379:255 380:255 381:255 382:255 383:183 384:173 385:171 386:147 387:115 388:86 389:65 390:50 391:37 392:36 393:40 394:46 395:61 396:86 397:116 398:170 399:255 400:255 
-1.166419675976726e-06 1:255 2:255 3:215 4:217 5:240 6:253 7:255 8:253 9:248 10:245 11:248 12:251 13:254 14:253 15:234 16:201 17:167 18:173 19:255 20:255 21:255 22:255 23:219 24:227 25:243 26:250 27:250 28:241 29:223 30:214 31:229 32:239 33:241 34:231 35:215 36:200 37:186 38:194 39:255 40:255 41:255 42:255 43:230 44:233 45:243 46:238 47:220 48:199 49:178 50:176 51:180 52:183 53:186 54:181 55:172 56:171 57:182 58:207 59:255 60:255 61:255 62:255 63:240 64:237 65:229 66:206 67:177 68:148 69:127 70:123 71:118 72:118 73:121 74:123 75:123 76:135 77:161 78:202 79:255 80:255 81:255 82:255 83:243 84:234 85:216 86:183 87:140 88:100 89:73 90:65 91:58 92:61 93:63 94:67 95:76 96:96 97:131 98:186 99:255 100:255 101:255 102:255 103:243 104:229 105:208 106:171 107:120 108:69 109:32 110:23 111:23 112:31 113:35 114:40 115:51 116:76 117:115 118:177 119:255 120:255 121:255 122:255 123:243 124:227 125:203 126:163 127:112 128:60 129:18 130:15 131:29 132:45 133:52 134:57 135:66 136:88 137:125 138:181 139:255 140:255 141:255 142:255 143:244 144:227 145:199 146:157 147:107 148:61 149:27 150:32 151:62 152:86 153:96 154:100 155:107 156:124 157:151 158:196 159:255 160:255 161:255 162:255 163:248 164:229 165:200 166:154 167:103 168:61 169:31 170:46 171:81 172:107 173:126 174:133 175:141 176:155 177:177 178:213 179:255 180:255 181:255 182:255 183:248 184:233 185:202 186:154 187:103 188:60 189:26 190:37 191:74 192:97 193:108 194:115 195:132 196:153 197:177 198:214 199:255 200:255 201:255 202:255 203:248 204:241 205:213 206:163 207:109 208:62 209:23 210:11 211:37 212:56 213:70 214:79 215:94 216:123 217:160 218:201 219:255 220:255 221:255 222:255 223:244 224:239 225:213 226:164 227:109 228:58 229:14 230:2 231:7 232:14 233:28 234:42 235:66 236:98 237:136 238:192 239:255 240:255 241:255 242:255 243:243 244:233 245:209 246:164 247:109 248:58 249:14 250:7 251:19 252:31 253:40 254:51 255:72 256:105 257:144 258:192 259:255 260:255 261:255 262:255 263:234 264:224 265:206 266:164 267:109 268:59 269:22 270:28 271:58 272:73 273:82 274:89 275:107 276:135 277:167 278:206 279:255 280:255 281:255 282:255 283:222 284:213 285:202 286:164 287:109 288:60 289:27 290:44 291:82 292:108 293:121 294:128 295:142 296:165 297:192 298:222 299:255 300:255 301:255 302:255 303:213 304:204 305:198 306:164 307:107 308:55 309:24 310:46 311:84 312:115 313:128 314:137 315:151 316:171 317:199 318:229 319:255 320:255 321:255 322:255 323:201 324:195 325:194 326:159 327:102 328:48 329:16 330:34 331:68 332:89 333:102 334:112 335:126 336:147 337:181 338:221 339:255 340:255 341:255 342:255 343:184 344:182 345:184 346:150 347:99 348:49 349:12 350:14 351:37 352:50 353:62 354:71 355:85 356:111 357:150 358:203 359:255 360:255 361:255 362:255 363:169 364:162 365:170 366:147 367:106 368:64 369:29 370:15 371:20 372:28 373:32 374:40 375:60 376:89 377:128 378:188 379:255 380:255 381:255 382:255 383:144 384:135 385:152 386:147 387:124 388:88 389:69 390:52 391:52 392:52 393:52 394:55 395:70 396:94 397:129 398:188 399:255 400:255 
-5.3196197059898e-07 1:255 2:255 3:196 4:201 5:225 6:241 7:250 8:248 9:240 10:240 11:234 12:229 13:218 14:204 15:184 16:162 17:138 18:152 19:255 20:255 21:255 22:255 23:210 24:211 25:224 26:227 27:220 28:209 29:199 30:195 31:194 32:191 33:187 34:180 35:170 36:162 37:156 38:177 39:255 40:255 41:255 42:255 43:217 44:211 45:210 46:196 47:179 48:165 49:150 50:145 51:144 52:143 53:142 54:138 55:135 56:137 57:146 58:182 59:255 60:255 61:255 62:255 63:218 64:202 65:188 66:164 67:139 68:119 69:104 70:97 71:95 72:96 73:96 74:96 75:98 76:104 77:118 78:163 79:255 80:255 81:255 82:255 83:218 84:195 85:174 86:144 87:109 88:81 89:63 90:52 91:49 92:50 93:51 94:54 95:61 96:74 97:94 98:149 99:255 100:255 101:255 102:255 103:221 104:197 105:172 106:136 107:96 108:63 109:40 110:24 111:18 112:16 113:17 114:23 115:38 116:59 117:86 118:146 119:255 120:255 121:255 122:255 123:226 124:204 125:177 126:139 127:101 128:70 129:46 130:25 131:10 132:4 133:5 134:18 135:41 136:67 137:95 138:153 139:255 140:255 141:255 142:255 143:230 144:214 145:188 146:154 147:122 148:96 149:72 150:50 151:21 152:7 153:12 154:35 155:64 156:93 157:122 158:172 159:255 160:255 161:255 162:255 163:235 164:224 165:209 166:184 167:155 168:126 169:99 170:72 171:38 172:17 173:26 174:54 175:90 176:125 177:158 178:201 179:255 180:255 181:255 182:255 183:239 184:235 185:231 186:213 187:183 188:152 189:116 190:86 191:51 192:26 193:40 194:72 195:107 196:147 197:191 198:229 199:255 200:255 201:255 202:255 203:244 204:246 205:244 206:227 207:199 208:163 209:130 210:91 211:58 212:33 213:47 214:77 215:118 216:166 217:212 218:243 219:255 220:255 221:255 222:255 223:250 224:252 225:251 226:235 227:205 228:170 229:135 230:95 231:62 232:37 233:51 234:82 235:126 236:178 237:224 238:250 239:255 240:255 241:255 242:255 243:251 244:253 245:252 246:239 247:211 248:174 249:141 250:101 251:64 252:39 253:53 254:83 255:127 256:180 257:228 258:254 259:255 260:255 261:255 262:255 263:251 264:253 265:252 266:240 267:213 268:175 269:142 270:103 271:65 272:40 273:52 274:81 275:125 276:177 277:225 278:255 279:255 280:255 281:255 282:255 283:245 284:245 285:244 286:230 287:203 288:169 289:136 290:98 291:64 292:38 293:49 294:78 295:117 296:163 297:209 298:244 299:255 300:255 301:255 302:255 303:227 304:229 305:227 306:208 307:182 308:154 309:122 310:88 311:57 312:31 313:42 314:71 315:105 316:144 317:182 318:219 319:255 320:255 321:255 322:255 323:204 324:206 325:206 326:183 327:156 328:129 329:101 330:73 331:43 332:21 333:29 334:56 335:87 336:119 337:148 338:189 339:255 340:255 341:255 342:255 343:186 344:178 345:181 346:160 347:128 348:98 349:74 350:48 351:23 352:10 353:13 354:36 355:63 356:88 357:113 358:164 359:255 360:255 361:255 362:255 363:172 364:158 365:161 366:138 367:102 368:72 369:47 370:21 371:8 372:3 373:7 374:20 375:40 376:62 377:88 378:148 379:255 380:255 381:255 382:255 383:152 384:140 385:146 386:126 387:94 388:61 389:37 390:18 391:12 392:10 393:13 394:19 395:35 396:55 397:81 398:143 399:255 400:255 
-1.396197769130558e-05 1:255 2:255 3:248 4:245 5:241 6:232 7:223 8:216 9:211 10:211 11:218 12:212 13:200 14:190 15:182 16:165 17:147 18:169 19:255 20:255 21:255 22:255 23:246 24:231 25:210 26:192 27:181 28:171 29:166 30:166 31:167 32:166 33:156 34:155 35:159 36:165 37:172 38:196 39:255 40:255 41:255 42:255 43:240 44:209 45:172 46:143 47:128 48:119 49:117 50:115 51:115 52:111 53:112 54:116 55:126 56:142 57:165 58:201 59:255 60:255 61:255 62:255 63:231 64:187 65:143 66:108 67:86 68:74 69:67 70:63 71:63 72:61 73:67 74:79 75:93 76:117 77:151 78:196 79:255 80:255 81:255 82:255 83:222 84:171 85:126 86:90 87:61 88:39 89:30 90:23 91:23 92:26 93:34 94:54 95:76 96:104 97:141 98:190 99:255 100:255 101:255 102:255 103:222 104:173 105:128 106:92 107:61 108:35 109:18 110:8 111:5 112:13 113:29 114:55 115:82 116:110 117:144 118:192 119:255 120:255 121:255 122:255 123:231 124:192 125:151 126:115 127:85 128:59 129:32 130:11 131:6 132:20 133:48 134:78 135:105 136:133 137:162 138:200 139:255 140:255 141:255 142:255 143:240 144:216 145:186 146:154 147:120 148:86 149:57 150:20 151:15 152:35 153:71 154:106 155:135 156:164 157:185 158:206 159:255 160:255 161:255 162:255 163:248 164:241 165:223 166:194 167:156 168:111 169:72 170:33 171:20 172:48 173:86 174:125 175:164 176:191 177:200 178:214 179:255 180:255 181:255 182:255 183:253 184:250 185:242 186:219 187:176 188:124 189:78 190:42 191:26 192:58 193:97 194:141 195:179 196:208 197:219 198:222 199:255 200:255 201:255 202:255 203:255 204:253 205:246 206:225 207:183 208:130 209:84 210:48 211:32 212:62 213:102 214:147 215:190 216:220 217:228 218:230 219:255 220:255 221:255 222:255 223:255 224:253 225:247 226:225 227:185 228:137 229:92 230:51 231:33 232:65 233:104 234:151 235:198 236:229 237:235 238:233 239:255 240:255 241:255 242:255 243:254 244:253 245:244 246:221 247:183 248:138 249:95 250:55 251:35 252:65 253:104 254:151 255:197 256:229 257:238 258:237 259:255 260:255 261:255 262:255 263:251 264:250 265:239 266:213 267:175 268:133 269:92 270:56 271:34 272:64 273:100 274:144 275:188 276:221 277:233 278:235 279:255 280:255 281:255 282:255 283:245 284:240 285:224 286:197 287:162 288:121 289:82 290:48 291:29 292:57 293:89 294:128 295:170 296:203 297:219 298:230 299:255 300:255 301:255 302:255 303:233 304:219 305:198 306:169 307:136 308:101 309:69 310:31 311:20 312:40 313:72 314:106 315:140 316:172 317:195 318:218 319:255 320:255 321:255 322:255 323:215 324:192 325:168 326:134 327:101 328:73 329:46 330:14 331:9 332:20 333:49 334:78 335:104 336:134 337:167 338:203 339:255 340:255 341:255 342:255 343:194 344:167 345:141 346:105 347:73 348:46 349:19 350:5 351:2 352:11 353:25 354:50 355:75 356:106 357:145 358:195 359:255 360:255 361:255 362:255 363:170 364:139 365:123 366:94 367:62 368:34 369:18 370:13 371:10 372:17 373:24 374:42 375:68 376:99 377:137 378:189 379:255 380:255 381:255 382:255 383:155 384:125 385:118 386:96 387:74 388:60 389:48 390:42 391:42 392:45 393:56 394:69 395:86 396:112 397:149 398:199 399:255 400:255 
-2.075292071439429e-07 1:255 2:255 3:251 4:252 5:253 6:252 7:249 8:246 9:246 10:244 11:237 12:229 13:200 14:164 15:129 16:106 17:93 18:127 19:255 20:255 21:255 22:255 23:247 24:245 25:242 26:236 27:232 28:230 29:227 30:223 31:219 32:212 33:204 34:188 35:173 36:157 37:140 38:162 39:255 40:255 41:255 42:255 43:233 44:214 45:200 46:188 47:180 48:175 49:169 50:160 51:155 52:153 53:160 54:171 55:180 56:187 57:187 58:200 59:255 60:255 61:255 62:255 63:209 64:166 65:140 66:127 67:120 68:115 69:111 70:102 71:98 72:100 73:112 74:129 75:154 76:184 77:203 78:216 79:255 80:255 81:255 82:255 83:182 84:127 85:97 86:80 87:71 88:67 89:61 90:57 91:55 92:61 93:74 94:94 95:124 96:164 97:192 98:209 99:255 100:255 101:255 102:255 103:166 104:111 105:80 106:56 107:41 108:31 109:24 110:22 111:25 112:34 113:52 114:79 115:109 116:150 117:180 118:198 119:255 120:255 121:255 122:255 123:172 124:116 125:84 126:58 127:35 128:16 129:7 130:4 131:13 132:29 133:53 134:82 135:116 136:156 137:181 138:196 139:255 140:255 141:255 142:255 143:195 144:143 145:108 146:81 147:54 148:26 149:9 150:7 151:22 152:50 153:76 154:106 155:142 156:177 157:188 158:195 159:255 160:255 161:255 162:255 163:220 164:185 165:149 166:113 167:80 168:45 169:18 170:15 171:42 172:71 173:103 174:140 175:175 176:199 177:195 178:192 179:255 180:255 181:255 182:255 183:242 184:227 185:195 186:145 187:96 188:60 189:30 190:21 191:54 192:92 193:126 194:169 195:206 196:215 197:191 198:183 199:255 200:255 201:255 202:255 203:254 204:247 205:214 206:159 207:104 208:65 209:37 210:27 211:63 212:97 213:145 214:194 215:221 216:222 217:192 218:176 219:255 220:255 221:255 222:255 223:255 224:248 225:217 226:162 227:106 228:66 229:39 230:32 231:65 232:100 233:155 234:205 235:228 236:224 237:192 238:176 239:255 240:255 241:255 242:255 243:254 244:247 245:220 246:167 247:109 248:70 249:43 250:33 251:64 252:99 253:156 254:208 255:230 256:225 257:192 258:176 259:255 260:255 261:255 262:255 263:252 264:246 265:223 266:171 267:111 268:71 269:44 270:33 271:62 272:98 273:156 274:207 275:230 276:225 277:192 278:176 279:255 280:255 281:255 282:255 283:251 284:244 285:219 286:168 287:111 288:71 289:43 290:29 291:58 292:95 293:147 294:195 295:221 296:219 297:186 298:172 299:255 300:255 301:255 302:255 303:246 304:234 305:205 306:156 307:105 308:68 309:40 310:25 311:52 312:89 313:128 314:169 315:199 316:204 317:177 318:169 319:255 320:255 321:255 322:255 323:231 324:208 325:175 326:132 327:92 328:59 329:31 330:19 331:42 332:74 333:103 334:135 335:165 336:182 337:170 338:168 339:255 340:255 341:255 342:255 343:210 344:168 345:128 346:96 347:71 348:44 349:17 350:11 351:25 352:53 353:77 354:100 355:129 356:159 357:162 358:168 359:255 360:255 361:255 362:255 363:189 364:133 365:95 366:67 367:44 368:24 369:8 370:2 371:10 372:28 373:51 374:75 375:102 376:136 377:153 378:169 379:255 380:255 381:255 382:255 383:161 384:110 385:81 386:51 387:26 388:12 389:7 390:4 391:9 392:17 393:41 394:62 395:91 396:130 397:153 398:176 399:255 400:255 
-1.0804132573767e-05 1:255 2:255 3:220 4:230 5:243 6:243 7:237 8:227 9:221 10:217 11:208 12:204 13:196 14:188 15:182 16:180 17:179 18:196 19:255 20:255 21:255 22:255 23:225 24:226 25:226 26:212 27:195 28:180 29:172 30:166 31:165 32:164 33:156 34:150 35:150 36:159 37:172 38:198 39:255 40:255 41:255 42:255 43:229 44:220 45:204 46:177 47:153 48:133 49:120 50:113 51:113 52:113 53:111 54:109 55:112 56:124 57:145 58:186 59:255 60:255 61:255 62:255 63:230 64:213 65:189 66:155 67:119 68:91 69:76 70:65 71:61 72:65 73:65 74:67 75:75 76:90 77:114 78:168 79:255 80:255 81:255 82:255 83:233 84:211 85:183 86:145 87:104 88:70 89:47 90:31 91:23 92:25 93:29 94:34 95:50 96:72 97:100 98:160 99:255 100:255 101:255 102:255 103:236 104:214 105:185 106:148 107:109 108:75 109:48 110:23 111:10 112:7 113:13 114:28 115:52 116:80 117:110 118:165 119:255 120:255 121:255 122:255 123:236 124:217 125:194 126:165 127:132 128:101 129:77 130:44 131:16 132:8 133:17 134:44 135:76 136:107 137:136 138:182 139:255 140:255 141:255 142:255 143:238 144:225 145:211 146:192 147:167 148:137 149:106 150:73 151:32 152:17 153:29 154:63 155:102 156:136 157:165 158:203 159:255 160:255 161:255 162:255 163:246 164:239 165:234 166:221 167:197 168:166 169:129 170:87 171:52 172:25 173:41 174:74 175:115 176:155 177:188 178:218 179:255 180:255 181:255 182:255 183:248 184:249 185:249 186:241 187:220 188:183 189:143 190:100 191:62 192:30 193:45 194:77 195:119 196:164 197:201 198:231 199:255 200:255 201:255 202:255 203:252 204:253 205:254 206:248 207:226 208:188 209:152 210:105 211:65 212:34 213:50 214:85 215:127 216:171 217:208 218:235 219:255 220:255 221:255 222:255 223:252 224:254 225:254 226:248 227:227 228:189 229:152 230:106 231:66 232:34 233:50 234:86 235:132 236:179 237:216 238:239 239:255 240:255 241:255 242:255 243:247 244:249 245:252 246:245 247:223 248:189 249:153 250:109 251:68 252:34 253:50 254:85 255:132 256:180 257:220 258:245 259:255 260:255 261:255 262:255 263:233 264:238 265:245 266:237 267:214 268:184 269:151 270:110 271:68 272:35 273:47 274:79 275:122 276:168 277:210 278:242 279:255 280:255 281:255 282:255 283:212 284:218 285:228 286:219 287:197 288:171 289:140 290:102 291:65 292:30 293:39 294:70 295:109 296:150 297:187 298:221 299:255 300:255 301:255 302:255 303:194 304:193 305:203 306:194 307:173 308:146 309:117 310:85 311:49 312:22 313:26 314:56 315:90 316:123 317:153 318:192 319:255 320:255 321:255 322:255 323:179 324:170 325:179 326:170 327:145 328:114 329:87 330:57 331:26 332:11 333:12 334:35 335:63 336:90 337:118 338:169 339:255 340:255 341:255 342:255 343:159 344:148 345:161 346:149 347:118 348:84 349:55 350:26 351:10 352:3 353:4 354:14 355:37 356:64 357:94 358:153 359:255 360:255 361:255 362:255 363:142 364:124 365:137 366:129 367:104 368:67 369:35 370:17 371:10 372:9 373:13 374:20 375:32 376:56 377:89 378:149 379:255 380:255 381:255 382:255 383:123 384:103 385:122 386:122 387:105 388:77 389:60 390:40 391:38 392:38 393:46 394:54 395:65 396:78 397:100 398:158 399:255 400:255 
-1.417504298502851e-06 1:255 2:255 3:193 4:198 5:226 6:243 7:248 8:248 9:246 10:238 11:232 12:227 13:222 14:208 15:190 16:169 17:141 18:152 19:255 20:255 21:255 22:255 23:206 24:209 25:224 26:226 27:222 28:213 29:200 30:195 31:194 32:191 33:190 34:186 35:174 36:164 37:157 38:177 39:255 40:255 41:255 42:255 43:214 44:209 45:207 46:193 47:179 48:166 49:151 50:145 51:145 52:144 53:141 54:140 55:137 56:138 57:146 58:180 59:255 60:255 61:255 62:255 63:220 64:204 65:186 66:161 67:138 68:119 69:104 70:98 71:97 72:97 73:95 74:96 75:99 76:105 77:118 78:163 79:255 80:255 81:255 82:255 83:223 84:200 85:175 86:142 87:108 88:81 89:64 90:54 91:51 92:51 93:51 94:54 95:62 96:75 97:95 98:150 99:255 100:255 101:255 102:255 103:225 104:201 105:173 106:137 107:97 108:63 109:41 110:25 111:18 112:17 113:18 114:24 115:39 116:60 117:87 118:148 119:255 120:255 121:255 122:255 123:230 124:207 125:179 126:142 127:103 128:71 129:45 130:24 131:8 132:4 133:7 134:20 135:42 136:67 137:95 138:154 139:255 140:255 141:255 142:255 143:233 144:220 145:195 146:159 147:124 148:97 149:74 150:49 151:20 152:7 153:14 154:38 155:66 156:93 157:121 158:171 159:255 160:255 161:255 162:255 163:234 164:231 165:215 166:184 167:154 168:125 169:102 170:70 171:37 172:17 173:27 174:55 175:89 176:123 177:155 178:197 179:255 180:255 181:255 182:255 183:238 184:236 185:232 186:209 187:179 188:151 189:116 190:86 191:50 192:25 193:39 194:71 195:105 196:145 197:187 198:224 199:255 200:255 201:255 202:255 203:242 204:244 205:239 206:218 207:191 208:163 209:131 210:92 211:59 212:33 213:46 214:76 215:117 216:163 217:208 218:241 219:255 220:255 221:255 222:255 223:249 224:250 225:249 226:233 227:204 228:170 229:135 230:96 231:62 232:34 233:48 234:80 235:122 236:171 237:218 238:252 239:255 240:255 241:255 242:255 243:250 244:252 245:253 246:239 247:210 248:174 249:139 250:101 251:64 252:39 253:51 254:81 255:126 256:178 257:225 258:254 259:255 260:255 261:255 262:255 263:252 264:254 265:252 266:237 267:208 268:173 269:141 270:103 271:65 272:40 273:53 274:81 275:124 276:175 277:221 278:251 279:255 280:255 281:255 282:255 283:247 284:249 285:245 286:226 287:198 288:168 289:137 290:99 291:64 292:38 293:50 294:79 295:118 296:163 297:205 298:238 299:255 300:255 301:255 302:255 303:233 304:236 305:231 306:208 307:181 308:155 309:123 310:90 311:57 312:32 313:44 314:72 315:107 316:145 317:180 318:214 319:255 320:255 321:255 322:255 323:213 324:214 325:210 326:185 327:156 328:131 329:100 330:74 331:41 332:21 333:31 334:59 335:88 336:119 337:147 338:185 339:255 340:255 341:255 342:255 343:191 344:186 345:184 346:159 347:128 348:98 349:73 350:48 351:21 352:11 353:16 354:38 355:63 356:87 357:112 358:162 359:255 360:255 361:255 362:255 363:175 364:162 365:162 366:138 367:103 368:73 369:45 370:20 371:8 372:5 373:7 374:18 375:39 376:61 377:86 378:146 379:255 380:255 381:255 382:255 383:152 384:141 385:147 386:128 387:96 388:61 389:35 390:17 391:12 392:12 393:14 394:21 395:35 396:53 397:79 398:143 399:255 400:255 
-6.858112982822472e-06 1:255 2:255 3:230 4:228 5:229 6:222 7:214 8:208 9:204 10:204 11:204 12:208 13:214 14:208 15:196 16:175 17:151 18:167 19:255 20:255 21:255 22:255 23:230 24:222 25:211 26:194 27:178 28:163 29:154 30:150 31:152 32:158 33:165 34:174 35:181 36:182 37:181 38:198 39:255 40:255 41:255 42:255 43:233 44:214 45:188 46:158 47:132 48:113 49:105 50:102 51:102 52:108 53:114 54:124 55:139 56:160 57:181 58:208 59:255 60:255 61:255 62:255 63:234 64:208 65:168 66:126 67:94 68:71 69:61 70:57 71:57 72:60 73:67 74:79 75:101 76:131 77:164 78:206 79:255 80:255 81:255 82:255 83:236 84:207 85:161 86:113 87:75 88:47 89:30 90:23 91:21 92:20 93:24 94:40 95:71 96:110 97:152 98:200 99:255 100:255 101:255 102:255 103:238 104:212 105:168 106:119 107:82 108:54 109:34 110:26 111:13 112:5 113:3 114:16 115:52 116:99 117:145 118:197 119:255 120:255 121:255 122:255 123:241 124:223 125:189 126:145 127:111 128:89 129:71 130:59 131:36 132:17 133:6 134:11 135:44 136:91 137:140 138:196 139:255 140:255 141:255 142:255 143:244 144:237 145:218 146:188 147:158 148:135 149:112 150:96 151:71 152:42 153:17 154:16 155:45 156:87 157:134 158:193 159:255 160:255 161:255 162:255 163:248 164:246 165:242 166:229 167:210 168:184 169:154 170:129 171:97 172:64 173:29 174:25 175:51 176:90 177:134 178:191 179:255 180:255 181:255 182:255 183:248 184:249 185:251 186:249 187:240 188:220 189:189 190:149 191:107 192:70 193:39 194:34 195:59 196:95 197:134 198:187 199:255 200:255 201:255 202:255 203:248 204:252 205:255 206:253 207:245 208:229 209:207 210:166 211:116 212:82 213:46 214:36 215:59 216:94 217:131 218:186 219:255 220:255 221:255 222:255 223:248 224:252 225:255 226:253 227:246 228:232 229:211 230:174 231:124 232:84 233:49 234:37 235:59 236:94 237:131 238:186 239:255 240:255 241:255 242:255 243:244 244:248 245:250 246:248 247:243 248:231 249:210 250:175 251:126 252:84 253:44 254:33 255:54 256:90 257:131 258:186 259:255 260:255 261:255 262:255 263:237 264:235 265:233 266:228 267:221 268:208 269:193 270:160 271:114 272:75 273:38 274:28 275:50 276:90 277:134 278:189 279:255 280:255 281:255 282:255 283:227 284:216 285:207 286:191 287:177 288:166 289:156 290:135 291:101 292:64 293:31 294:24 295:52 296:95 297:139 298:192 299:255 300:255 301:255 302:255 303:214 304:196 305:177 306:149 307:128 308:120 309:114 310:105 311:80 312:47 313:21 314:25 315:57 316:101 317:145 318:197 319:255 320:255 321:255 322:255 323:201 324:178 325:152 326:117 327:93 328:81 329:76 330:68 331:47 332:23 333:13 334:31 335:67 336:109 337:154 338:204 339:255 340:255 341:255 342:255 343:187 344:162 345:137 346:103 347:74 348:52 349:40 350:32 351:18 352:10 353:19 354:47 355:85 356:125 357:167 358:213 359:255 360:255 361:255 362:255 363:171 364:148 365:134 366:104 367:73 368:46 369:24 370:17 371:16 372:20 373:44 374:74 375:111 376:151 377:187 378:223 379:255 380:255 381:255 382:255 383:159 384:139 385:139 386:120 387:93 388:71 389:53 390:48 391:50 392:58 393:80 394:100 395:135 396:176 397:208 398:234 399:255 400:255 
-1.251824678047678e-07 1:255 2:255 3:239 4:242 5:248 6:249 7:251 8:254 9:254 10:249 11:246 12:237 13:227 14:215 15:194 16:168 17:148 18:167 19:255 20:255 21:255 22:255 23:242 24:243 25:243 26:238 27:235 28:234 29:232 30:223 31:221 32:220 33:218 34:213 35:203 36:191 37:181 38:196 39:255 40:255 41:255 42:255 43:240 44:234 45:223 46:205 47:192 48:185 49:181 50:170 51:165 52:169 53:177 54:185 55:188 56:194 57:204 58:220 59:255 60:255 61:255 62:255 63:233 64:213 65:189 66:163 67:142 68:129 69:122 70:117 71:112 72:118 73:131 74:145 75:160 76:178 77:201 78:227 79:255 80:255 81:255 82:255 83:228 84:196 85:161 86:126 87:98 88:80 89:67 90:68 91:67 92:71 93:84 94:100 95:125 96:156 97:188 98:224 99:255 100:255 101:255 102:255 103:224 104:185 105:143 106:100 107:64 108:40 109:27 110:35 111:40 112:40 113:44 114:58 115:89 116:128 117:168 118:212 119:255 120:255 121:255 122:255 123:220 124:177 125:131 126:86 127:46 128:20 129:20 130:40 131:50 132:44 133:32 134:35 135:62 136:102 137:145 138:195 139:255 140:255 141:255 142:255 143:215 144:170 145:126 146:81 147:41 148:26 149:44 150:74 151:89 152:77 153:55 154:36 155:50 156:88 157:130 158:182 159:255 160:255 161:255 162:255 163:209 164:164 165:124 166:81 167:43 168:36 169:73 170:98 171:118 172:102 173:79 174:45 175:39 176:70 177:114 178:170 179:255 180:255 181:255 182:255 183:206 184:163 185:125 186:83 187:48 188:45 189:84 190:117 191:129 192:111 193:83 194:45 195:35 196:62 197:106 198:167 199:255 200:255 201:255 202:255 203:206 204:166 205:127 206:83 207:47 208:41 209:77 210:105 211:121 212:96 213:63 214:28 215:25 216:60 217:108 218:169 219:255 220:255 221:255 222:255 223:213 224:172 225:134 226:89 227:42 228:23 229:50 230:81 231:87 232:65 233:35 234:17 235:39 236:84 237:127 238:178 239:255 240:255 241:255 242:255 243:217 244:178 245:138 246:92 247:44 248:11 249:16 250:29 251:36 252:31 253:23 254:33 255:63 256:105 257:145 258:192 259:255 260:255 261:255 262:255 263:215 264:177 265:138 266:93 267:44 268:5 269:3 270:7 271:20 272:34 273:50 274:71 275:101 276:136 277:169 278:205 279:255 280:255 281:255 282:255 283:214 284:176 285:138 286:93 287:43 288:5 289:8 290:24 291:51 292:70 293:95 294:115 295:143 296:172 297:194 298:219 299:255 300:255 301:255 302:255 303:214 304:177 305:139 306:94 307:44 308:10 309:26 310:61 311:97 312:114 313:139 314:158 315:183 316:205 317:216 318:229 319:255 320:255 321:255 322:255 323:212 324:179 325:142 326:96 327:47 328:20 329:48 330:92 331:128 332:151 333:178 334:197 335:218 336:232 337:233 338:234 339:255 340:255 341:255 342:255 343:206 344:176 345:144 346:99 347:54 348:34 349:65 350:110 351:143 352:178 353:206 354:227 355:242 356:248 357:243 358:240 359:255 360:255 361:255 362:255 363:192 364:164 365:141 366:103 367:66 368:53 369:82 370:125 371:159 372:190 373:218 374:239 375:250 376:254 377:249 378:243 379:255 380:255 381:255 382:255 383:172 384:145 385:135 386:109 387:84 388:82 389:95 390:134 391:173 392:200 393:224 394:240 395:250 396:254 397:251 398:248 399:255 400:255 
-3.712704305778079e-06 1:255 2:255 3:250 4:251 5:254 6:255 7:254 8:253 9:251 10:248 11:244 12:241 13:224 14:198 15:172 16:149 17:132 18:158 19:255 20:255 21:255 22:255 23:234 24:228 25:234 26:241 27:248 28:252 29:251 30:244 31:241 32:229 33:211 34:194 35:183 36:179 37:175 38:192 39:255 40:255 41:255 42:255 43:206 44:183 45:182 46:196 47:220 48:242 49:248 50:243 51:229 52:205 53:181 54:163 55:159 56:170 57:185 58:209 59:255 60:255 61:255 62:255 63:175 64:134 65:129 66:146 67:180 68:216 69:239 70:237 71:212 72:177 73:142 74:119 75:119 76:140 77:169 78:206 79:255 80:255 81:255 82:255 83:152 84:99 85:89 86:106 87:141 88:182 89:216 90:220 91:192 92:151 93:110 94:82 95:84 96:111 97:147 98:194 99:255 100:255 101:255 102:255 103:142 104:79 105:63 106:76 107:111 108:152 109:188 110:199 111:172 112:127 113:85 114:56 115:63 116:95 117:132 118:182 119:255 120:255 121:255 122:255 123:142 124:76 125:51 126:56 127:88 128:130 129:168 130:180 131:157 132:110 133:66 134:42 135:55 136:90 137:125 138:175 139:255 140:255 141:255 142:255 143:151 144:86 145:52 146:44 147:71 148:114 149:153 150:168 151:145 152:98 153:55 154:36 155:54 156:92 157:129 158:175 159:255 160:255 161:255 162:255 163:162 164:98 165:57 166:41 167:59 168:99 169:138 170:161 171:132 172:87 173:44 174:34 175:62 176:106 177:141 178:181 179:255 180:255 181:255 182:255 183:167 184:107 185:66 186:40 187:47 188:85 189:120 190:144 191:116 192:73 193:35 194:39 195:75 196:121 197:158 198:193 199:255 200:255 201:255 202:255 203:183 204:126 205:79 206:40 207:32 208:63 209:99 210:122 211:98 212:59 213:28 214:47 215:94 216:146 217:185 218:212 219:255 220:255 221:255 222:255 223:196 224:144 225:96 226:46 227:19 228:38 229:79 230:97 231:85 232:47 233:33 234:64 235:112 236:163 237:203 238:226 239:255 240:255 241:255 242:255 243:206 244:155 245:107 246:59 247:24 248:24 249:56 250:73 251:63 252:38 253:44 254:79 255:131 256:184 257:220 258:237 259:255 260:255 261:255 262:255 263:214 264:169 265:124 266:75 267:34 268:16 269:29 270:44 271:36 272:29 273:51 274:93 275:148 276:201 277:231 278:240 279:255 280:255 281:255 282:255 283:217 284:178 285:137 286:90 287:44 288:13 289:12 290:19 291:17 292:24 293:59 294:106 295:161 296:210 297:233 298:235 299:255 300:255 301:255 302:255 303:217 304:186 305:149 306:104 307:56 308:16 309:5 310:5 311:8 312:27 313:68 314:119 315:172 316:216 317:232 318:230 319:255 320:255 321:255 322:255 323:220 324:196 325:163 326:119 327:70 328:25 329:3 330:2 331:8 332:37 333:81 334:133 335:183 336:221 337:231 338:226 339:255 340:255 341:255 342:255 343:224 344:205 345:179 346:136 347:88 348:42 349:7 350:5 351:12 352:51 353:97 354:148 355:195 356:226 357:228 358:224 359:255 360:255 361:255 362:255 363:227 364:211 365:193 366:158 367:112 368:65 369:22 370:17 371:26 372:69 373:113 374:162 375:211 376:238 377:234 378:230 379:255 380:255 381:255 382:255 383:222 384:216 385:205 386:175 387:135 388:91 389:60 390:52 391:62 392:89 393:134 394:177 395:219 396:244 397:243 398:240 399:255 400:255 
-2.103824064008201e-06 1:255 2:255 3:246 4:251 5:255 6:255 7:255 8:254 9:249 10:243 11:243 12:243 13:235 14:224 15:210 16:193 17:174 18:182 19:255 20:255 21:255 22:255 23:250 24:248 25:238 26:226 27:220 28:219 29:225 30:227 31:233 32:234 33:227 34:217 35:206 36:197 37:188 38:198 39:255 40:255 41:255 42:255 43:249 44:234 45:212 46:191 47:178 48:175 49:187 50:203 51:216 52:219 53:213 54:199 55:185 56:176 57:172 58:193 59:255 60:255 61:255 62:255 63:243 64:219 65:186 66:156 67:134 68:128 69:141 70:167 71:186 72:195 73:187 74:170 75:151 76:137 77:138 78:173 79:255 80:255 81:255 82:255 83:239 84:210 85:171 86:131 87:100 88:86 89:97 90:125 91:152 92:164 93:155 94:134 95:110 96:97 97:105 98:153 99:255 100:255 101:255 102:255 103:239 104:209 105:168 106:123 107:83 108:58 109:59 110:84 111:113 112:128 113:117 114:95 115:73 116:67 117:86 118:145 119:255 120:255 121:255 122:255 123:241 124:212 125:174 126:130 127:86 128:51 129:33 130:47 131:73 132:86 133:77 134:59 135:49 136:58 137:88 138:152 139:255 140:255 141:255 142:255 143:242 144:219 145:186 146:145 147:102 148:60 149:27 150:20 151:37 152:45 153:42 154:35 155:44 156:70 157:107 158:168 159:255 160:255 161:255 162:255 163:247 164:230 165:204 166:169 167:126 168:81 169:38 170:13 171:11 172:14 173:19 174:28 175:56 176:94 177:131 178:182 179:255 180:255 181:255 182:255 183:251 184:239 185:218 186:190 187:152 188:105 189:59 190:20 191:6 192:5 193:17 194:44 195:82 196:123 197:158 198:196 199:255 200:255 201:255 202:255 203:255 204:247 205:230 206:204 207:169 208:124 209:74 210:27 211:6 212:7 213:23 214:61 215:104 216:144 217:177 218:209 219:255 220:255 221:255 222:255 223:252 224:242 225:228 226:206 227:174 228:131 229:82 230:32 231:8 232:9 233:32 234:72 235:117 236:158 237:188 238:214 239:255 240:255 241:255 242:255 243:249 244:238 245:222 246:199 247:167 248:125 249:75 250:26 251:7 252:9 253:32 254:71 255:116 256:158 257:191 258:218 259:255 260:255 261:255 262:255 263:247 264:233 265:213 266:186 267:149 268:106 269:59 270:18 271:6 272:9 273:25 274:60 275:104 276:148 277:183 278:214 279:255 280:255 281:255 282:255 283:241 284:224 285:200 286:167 287:127 288:81 289:41 290:16 291:11 292:15 293:21 294:48 295:87 296:130 297:167 298:204 299:255 300:255 301:255 302:255 303:232 304:210 305:182 306:144 307:102 308:60 309:31 310:27 311:32 312:35 313:29 314:40 315:68 316:106 317:144 318:190 319:255 320:255 321:255 322:255 323:220 324:190 325:159 326:119 327:78 328:47 329:40 330:54 331:69 332:67 333:50 334:41 335:52 336:81 337:119 338:175 339:255 340:255 341:255 342:255 343:206 344:171 345:137 346:97 347:64 348:50 349:66 350:92 351:111 352:104 353:80 354:54 355:46 356:64 357:100 358:162 359:255 360:255 361:255 362:255 363:191 364:157 365:128 366:94 367:72 368:74 369:98 370:130 371:147 372:139 373:111 374:78 375:57 376:61 377:89 378:152 379:255 380:255 381:255 382:255 383:179 384:148 385:132 386:110 387:100 388:110 389:131 390:162 391:178 392:166 393:141 394:109 395:84 396:78 397:97 398:156 399:255 400:255 
