svm_type c_svc
kernel_type linear
nr_class 2
total_sv 14
rho 1.46446
label 21 -1
nr_sv 4 10
SV
6.342388636741874e-06 1:255 2:255 3:255 4:254 5:250 6:244 7:239 8:237 9:242 10:252 11:255 12:252 13:250 14:246 15:238 16:228 17:221 18:227 19:255 20:255 21:255 22:255 23:253 24:248 25:236 26:220 27:205 28:200 29:221 30:236 31:246 32:246 33:239 34:227 35:205 36:188 37:193 38:220 39:255 40:255 41:255 42:255 43:251 44:238 45:206 46:173 47:153 48:147 49:170 50:199 51:230 52:235 53:222 54:189 55:155 56:140 57:150 58:192 59:255 60:255 61:255 62:255 63:249 64:230 65:184 66:132 67:100 68:98 69:126 70:171 71:216 72:224 73:194 74:148 75:110 76:95 77:108 78:162 79:255 80:255 81:255 82:255 83:246 84:222 85:171 86:111 87:70 88:63 89:98 90:153 91:199 92:215 93:179 94:124 95:77 96:59 97:79 98:147 99:255 100:255 101:255 102:255 103:244 104:218 105:166 106:103 107:56 108:44 109:83 110:141 111:185 112:207 113:175 114:117 115:63 116:42 117:66 118:142 119:255 120:255 121:255 122:255 123:245 124:220 125:167 126:100 127:47 128:36 129:75 130:133 131:177 132:200 133:172 134:116 135:63 136:41 137:63 138:139 139:255 140:255 141:255 142:255 143:246 144:221 145:168 146:99 147:43 148:30 149:69 150:129 151:177 152:198 153:172 154:116 155:61 156:40 157:64 158:140 159:255 160:255 161:255 162:255 163:240 164:215 165:168 166:102 167:43 168:25 169:67 170:129 171:180 172:207 173:174 174:113 175:57 176:36 177:62 178:140 179:255 180:255 181:255 182:255 183:236 184:205 185:162 186:107 187:52 188:32 189:70 190:129 191:178 192:206 193:172 194:112 195:55 196:31 197:56 198:138 199:255 200:255 201:255 202:255 203:236 204:205 205:162 206:109 207:57 208:38 209:76 210:129 211:178 212:196 213:165 214:111 215:60 216:39 217:59 218:136 219:255 220:255 221:255 222:255 223:238 224:217 225:172 226:109 227:51 228:29 229:72 230:134 231:176 232:191 233:162 234:108 235:56 236:36 237:59 238:136 239:255 240:255 241:255 242:255 243:235 244:211 245:168 246:108 247:50 248:27 249:67 250:124 251:173 252:186 253:157 254:105 255:50 256:28 257:53 258:134 259:255 260:255 261:255 262:255 263:232 264:204 265:163 266:107 267:50 268:26 269:61 270:115 271:159 272:171 273:146 274:99 275:44 276:20 277:48 278:133 279:255 280:255 281:255 282:255 283:229 284:204 285:165 286:110 287:51 288:17 289:43 290:95 291:130 292:138 293:119 294:80 295:35 296:23 297:58 298:139 299:255 300:255 301:255 302:255 303:224 304:206 305:172 306:117 307:55 308:10 309:19 310:58 311:91 312:95 313:80 314:48 315:23 316:34 317:78 318:151 319:255 320:255 321:255 322:255 323:209 324:198 325:178 326:129 327:70 328:21 329:5 330:21 331:45 332:46 333:36 334:20 335:22 336:54 337:103 338:168 339:255 340:255 341:255 342:255 343:186 344:178 345:177 346:148 347:103 348:55 349:20 350:12 351:12 352:11 353:15 354:24 355:49 356:88 357:136 358:193 359:255 360:255 361:255 362:255 363:166 364:157 365:172 366:165 367:140 368:107 369:77 370:52 371:40 372:40 373:53 374:76 375:103 376:135 377:174 378:216 379:255 380:255 381:255 382:255 383:136 384:130 385:162 386:173 387:169 388:151 389:124 390:109 391:100 392:103 393:110 394:129 395:153 396:180 397:208 398:234 399:255 400:255 
7.860366425630153e-06 1:255 2:255 3:248 4:245 5:245 6:248 7:252 8:254 9:255 10:255 11:252 12:250 13:248 14:242 15:231 16:209 17:183 18:193 19:255 20:255 21:255 22:255 23:241 24:231 25:225 26:228 27:237 28:243 29:249 30:250 31:245 32:238 33:232 34:228 35:225 36:220 37:216 38:225 39:255 40:255 41:255 42:255 43:225 44:193 45:170 46:171 47:195 48:222 49:240 50:244 51:235 52:206 53:181 54:168 55:176 56:195 57:214 58:234 59:255 60:255 61:255 62:255 63:202 64:150 65:118 66:117 67:145 68:190 69:227 70:233 71:208 72:163 73:130 74:117 75:128 76:159 77:197 78:230 79:255 80:255 81:255 82:255 83:182 84:116 85:77 86:75 87:108 88:161 89:209 90:222 91:185 92:132 93:89 94:74 95:94 96:137 97:182 98:221 99:255 100:255 101:255 102:255 103:170 104:99 105:56 106:51 107:86 108:142 109:195 110:213 111:173 112:116 113:65 114:45 115:73 116:125 117:173 118:215 119:255 120:255 121:255 122:255 123:166 124:95 125:49 126:41 127:77 128:133 129:186 130:204 131:167 132:112 133:59 134:37 135:63 136:116 137:170 138:217 139:255 140:255 141:255 142:255 143:163 144:90 145:42 146:37 147:78 148:133 149:183 150:196 151:164 152:111 153:59 154:38 155:62 156:113 157:168 158:219 159:255 160:255 161:255 162:255 163:162 164:87 165:37 166:36 167:82 168:137 169:188 170:201 171:163 172:108 173:56 174:38 175:65 176:118 177:171 178:215 179:255 180:255 181:255 182:255 183:162 184:90 185:44 186:38 187:79 188:139 189:192 190:206 191:163 192:107 193:49 194:33 195:63 196:118 197:169 198:212 199:255 200:255 201:255 202:255 203:158 204:88 205:48 206:46 207:82 208:135 209:184 210:196 211:158 212:107 213:49 214:27 215:55 216:114 217:173 218:220 219:255 220:255 221:255 222:255 223:161 224:90 225:44 226:41 227:82 228:135 229:181 230:191 231:156 232:106 233:56 234:35 235:62 236:118 237:173 238:221 239:255 240:255 241:255 242:255 243:159 244:86 245:38 246:35 247:79 248:135 249:181 250:190 251:156 252:104 253:53 254:37 255:67 256:123 257:177 258:222 259:255 260:255 261:255 262:255 263:158 264:87 265:44 266:40 267:77 268:129 269:173 270:179 271:146 272:94 273:38 274:26 275:64 276:126 277:182 278:223 279:255 280:255 281:255 282:255 283:162 284:91 285:47 286:38 287:69 288:113 289:146 290:152 291:125 292:81 293:30 294:28 295:70 296:130 297:184 298:224 299:255 300:255 301:255 302:255 303:171 304:100 305:47 306:27 307:45 308:81 309:105 310:111 311:92 312:58 313:23 314:39 315:83 316:137 317:188 318:226 319:255 320:255 321:255 322:255 323:183 324:116 325:59 326:22 327:17 328:37 329:55 330:61 331:47 332:26 333:21 334:55 335:103 336:156 337:201 338:230 339:255 340:255 341:255 342:255 343:194 344:137 345:88 346:42 347:12 348:5 349:11 350:18 351:7 352:12 353:39 354:84 355:136 356:187 357:220 358:236 359:255 360:255 361:255 362:255 363:203 364:161 365:127 366:87 367:46 368:21 369:17 370:16 371:16 372:48 373:80 374:122 375:171 376:214 377:236 378:242 379:255 380:255 381:255 382:255 383:206 384:184 385:161 386:131 387:105 388:85 389:74 390:72 391:76 392:101 393:130 394:169 395:210 396:235 397:242 398:245 399:255 400:255 
2.774965071955508e-06 1:255 2:255 3:243 4:239 5:242 6:246 7:251 8:254 9:253 10:249 11:244 12:235 13:223 14:194 15:155 16:120 17:99 18:131 19:255 20:255 21:255 22:255 23:243 24:239 25:241 26:246 27:252 28:255 29:253 30:249 31:243 32:233 33:228 34:215 35:197 36:179 37:164 38:179 39:255 40:255 41:255 42:255 43:238 44:229 45:229 46:234 47:241 48:249 49:251 50:246 51:236 52:227 53:218 54:211 55:211 56:212 57:208 58:215 59:255 60:255 61:255 62:255 63:221 64:195 65:187 66:195 67:215 68:236 69:245 70:241 71:225 72:197 73:179 74:178 75:191 76:209 77:219 78:228 79:255 80:255 81:255 82:255 83:196 84:149 85:132 86:140 87:172 88:214 89:234 90:231 91:200 92:154 93:129 94:128 95:149 96:183 97:209 98:224 99:255 100:255 101:255 102:255 103:170 104:110 105:87 106:96 107:135 108:190 109:222 110:217 111:174 112:121 113:88 114:84 115:110 116:154 117:189 118:212 119:255 120:255 121:255 122:255 123:153 124:86 125:59 126:71 127:117 128:174 129:210 130:204 131:158 132:103 133:64 134:58 135:86 136:134 137:171 138:200 139:255 140:255 141:255 142:255 143:150 144:75 145:43 146:55 147:107 148:166 149:204 150:199 151:154 152:93 153:51 154:45 155:77 156:126 157:163 158:194 159:255 160:255 161:255 162:255 163:150 164:73 165:35 166:45 167:101 168:164 169:204 170:199 171:154 172:89 173:41 174:38 175:72 176:121 177:159 178:192 179:255 180:255 181:255 182:255 183:153 184:78 185:38 186:44 187:94 188:155 189:205 190:202 191:155 192:89 193:34 194:30 195:67 196:120 197:160 198:195 199:255 200:255 201:255 202:255 203:153 204:80 205:46 206:53 207:97 208:154 209:198 210:197 211:154 212:92 213:37 214:31 215:67 216:120 217:160 218:195 219:255 220:255 221:255 222:255 223:150 224:79 225:47 226:54 227:96 228:148 229:193 230:195 231:147 232:91 233:42 234:38 235:72 236:118 237:152 238:189 239:255 240:255 241:255 242:255 243:148 244:74 245:42 246:49 247:91 248:144 249:190 250:189 251:138 252:87 253:43 254:39 255:71 256:115 257:149 258:188 259:255 260:255 261:255 262:255 263:146 264:70 265:33 266:41 267:87 268:141 269:187 270:184 271:136 272:85 273:36 274:31 275:65 276:112 277:148 278:188 279:255 280:255 281:255 282:255 283:146 284:71 285:32 286:38 287:84 288:136 289:180 290:180 291:131 292:79 293:27 294:20 295:57 296:110 297:151 298:192 299:255 300:255 301:255 302:255 303:148 304:74 305:33 306:34 307:75 308:122 309:158 310:165 311:119 312:70 313:21 314:18 315:58 316:113 317:158 318:197 319:255 320:255 321:255 322:255 323:152 324:79 325:34 326:24 327:55 328:96 329:121 330:131 331:93 332:54 333:17 334:27 335:70 336:124 337:169 338:204 339:255 340:255 341:255 342:255 343:158 344:89 345:42 346:17 347:27 348:57 349:78 350:79 351:54 352:29 353:18 354:45 355:91 356:143 357:185 358:214 359:255 360:255 361:255 362:255 363:171 364:110 365:64 366:27 367:11 368:17 369:27 370:26 371:15 372:13 373:41 374:78 375:122 376:170 377:204 378:223 379:255 380:255 381:255 382:255 383:188 384:135 385:95 386:61 387:34 388:11 389:1 390:4 391:13 392:42 393:75 394:111 395:156 396:198 397:221 398:232 399:255 400:255 
4.658751758997548e-06 1:255 2:255 3:209 4:218 5:233 6:237 7:245 8:253 9:252 10:248 11:248 12:254 13:255 14:250 15:239 16:205 17:158 18:161 19:255 20:255 21:255 22:255 23:219 24:223 25:236 26:240 27:244 28:249 29:249 30:248 31:252 32:253 33:253 34:250 35:243 36:226 37:200 38:199 39:255 40:255 41:255 42:255 43:224 44:225 45:234 46:233 47:230 48:232 49:236 50:238 51:244 52:244 53:244 54:231 55:220 56:214 57:213 58:226 59:255 60:255 61:255 62:255 63:230 64:225 65:219 66:203 67:189 68:186 69:197 70:213 71:230 72:231 73:218 74:190 75:172 76:169 77:182 78:215 79:255 80:255 81:255 82:255 83:235 84:220 85:194 86:162 87:138 88:132 89:151 90:183 91:214 92:216 93:188 94:150 95:123 96:117 97:137 98:189 99:255 100:255 101:255 102:255 103:235 104:210 105:171 106:127 107:96 108:89 109:115 110:160 111:200 112:205 113:167 114:120 115:85 116:78 117:102 118:165 119:255 120:255 121:255 122:255 123:230 124:199 125:155 126:106 127:69 128:62 129:94 130:143 131:190 132:197 133:158 134:105 135:61 136:50 137:79 138:149 139:255 140:255 141:255 142:255 143:226 144:192 145:145 146:93 147:54 148:49 149:85 150:130 151:185 152:192 153:155 154:101 155:51 156:36 157:67 158:143 159:255 160:255 161:255 162:255 163:225 164:188 165:141 166:88 167:48 168:43 169:80 170:125 171:177 172:188 173:154 174:101 175:56 176:42 177:69 178:142 179:255 180:255 181:255 182:255 183:221 184:186 185:138 186:83 187:40 188:30 189:73 190:123 191:176 192:188 193:154 194:104 195:57 196:40 197:64 198:139 199:255 200:255 201:255 202:255 203:221 204:181 205:135 206:85 207:45 208:34 209:69 210:118 211:164 212:181 213:154 214:102 215:50 216:32 217:60 218:137 219:255 220:255 221:255 222:255 223:225 224:191 225:145 226:92 227:48 228:34 229:69 230:117 231:159 232:173 233:147 234:102 235:56 236:37 237:60 238:137 239:255 240:255 241:255 242:255 243:231 244:205 245:160 246:101 247:49 248:29 249:66 250:117 251:159 252:176 253:147 254:102 255:57 256:38 257:59 258:134 259:255 260:255 261:255 262:255 263:225 264:203 265:165 266:107 267:52 268:30 269:62 270:114 271:162 272:179 273:150 274:101 275:50 276:30 277:57 278:133 279:255 280:255 281:255 282:255 283:217 284:194 285:161 286:109 287:58 288:36 289:59 290:109 291:157 292:175 293:149 294:98 295:42 296:21 297:51 298:132 299:255 300:255 301:255 302:255 303:210 304:186 305:155 306:106 307:58 308:33 309:56 310:102 311:146 312:160 313:135 314:89 315:37 316:20 317:51 318:131 319:255 320:255 321:255 322:255 323:202 324:178 325:150 326:104 327:54 328:21 329:43 330:86 331:125 332:132 333:111 334:70 335:29 336:23 337:58 338:133 339:255 340:255 341:255 342:255 343:190 344:165 345:146 346:107 347:56 348:16 349:21 350:60 351:87 352:92 353:77 354:43 355:16 356:26 357:69 358:142 359:255 360:255 361:255 362:255 363:175 364:153 365:146 366:116 367:73 368:32 369:7 370:23 371:44 372:48 373:36 374:14 375:10 376:39 377:90 378:159 379:255 380:255 381:255 382:255 383:161 384:145 385:152 386:132 387:95 388:56 389:16 390:7 391:11 392:8 393:7 394:14 395:39 396:75 397:118 398:179 399:255 400:255 
-4.976755052159326e-07 1:255 2:255 3:251 4:252 5:255 6:254 7:252 8:253 9:254 10:252 11:249 12:246 13:244 14:237 15:226 16:211 17:194 18:200 19:255 20:255 21:255 22:255 23:251 24:249 25:246 26:238 27:232 28:230 29:230 30:227 31:227 32:230 33:232 34:237 35:240 36:236 37:228 38:230 39:255 40:255 41:255 42:255 43:246 44:234 45:217 46:200 47:189 48:183 49:180 50:180 51:182 52:191 53:202 54:218 55:233 56:241 57:241 58:242 59:255 60:255 61:255 62:255 63:234 64:206 65:175 66:148 67:131 68:123 69:118 70:123 71:127 72:137 73:158 74:181 75:207 76:228 77:237 78:241 79:255 80:255 81:255 82:255 83:219 84:177 85:134 86:93 87:64 88:52 89:48 90:58 91:69 92:82 93:108 94:135 95:168 96:202 97:223 98:233 99:255 100:255 101:255 102:255 103:207 104:153 105:101 106:50 107:17 108:10 109:16 110:34 111:44 112:45 113:60 114:88 115:126 116:167 117:199 118:222 119:255 120:255 121:255 122:255 123:202 124:141 125:80 126:29 127:7 128:19 129:45 130:69 131:68 132:49 133:38 134:51 135:87 136:133 137:174 138:209 139:255 140:255 141:255 142:255 143:203 144:141 145:76 146:27 147:18 148:53 149:100 150:122 151:119 152:91 153:53 154:31 155:55 156:105 157:151 158:196 159:255 160:255 161:255 162:255 163:205 164:145 165:82 166:33 167:32 168:84 169:133 170:166 171:165 172:130 173:83 174:34 175:34 176:78 177:128 178:184 179:255 180:255 181:255 182:255 183:206 184:151 185:91 186:43 187:45 188:104 189:159 190:191 191:193 192:166 193:116 194:51 195:23 196:57 197:118 198:178 199:255 200:255 201:255 202:255 203:211 204:157 205:98 206:52 207:54 208:108 209:163 210:209 211:213 212:183 213:129 214:74 215:36 216:52 217:104 218:164 219:255 220:255 221:255 222:255 223:213 224:159 225:100 226:56 227:59 228:111 229:167 230:212 231:224 232:192 233:140 234:82 235:42 236:52 237:99 238:161 239:255 240:255 241:255 242:255 243:215 244:164 245:105 246:59 247:60 248:111 249:164 250:211 251:221 252:192 253:141 254:85 255:44 256:54 257:102 258:163 259:255 260:255 261:255 262:255 263:219 264:170 265:110 266:61 267:58 268:106 269:160 270:199 271:213 272:183 273:133 274:79 275:44 276:60 277:110 278:170 279:255 280:255 281:255 282:255 283:221 284:173 285:112 286:59 287:50 288:96 289:148 290:181 291:190 292:163 293:115 294:62 295:44 296:72 297:121 298:179 299:255 300:255 301:255 302:255 303:219 304:172 305:112 306:53 307:36 308:77 309:124 310:151 311:152 312:129 313:85 314:39 315:44 316:88 317:138 318:190 319:255 320:255 321:255 322:255 323:212 324:167 325:111 326:49 327:19 328:46 329:86 330:105 331:102 332:83 333:49 334:32 335:58 336:112 337:161 338:204 339:255 340:255 341:255 342:255 343:199 344:157 345:108 346:47 347:7 348:13 349:40 350:54 351:56 352:46 353:37 354:56 355:97 356:145 357:186 358:219 359:255 360:255 361:255 362:255 363:185 364:145 365:107 366:55 367:15 368:10 369:16 370:26 371:43 372:61 373:76 374:105 375:145 376:184 377:211 378:231 379:255 380:255 381:255 382:255 383:169 384:135 385:117 386:87 387:63 388:56 389:61 390:76 391:95 392:109 393:131 394:160 395:193 396:219 397:233 398:242 399:255 400:255 
-1.211720048576108e-06 1:255 2:255 3:254 4:252 5:246 6:239 7:237 8:237 9:238 10:241 11:241 12:244 13:247 14:248 15:246 16:243 17:238 18:238 19:255 20:255 21:255 22:255 23:238 24:227 25:217 26:209 27:202 28:196 29:196 30:197 31:207 32:214 33:224 34:232 35:242 36:249 37:248 38:246 39:255 40:255 41:255 42:255 43:226 44:195 45:168 46:146 47:130 48:119 49:116 50:122 51:138 52:155 53:170 54:199 55:224 56:236 57:239 58:241 59:255 60:255 61:255 62:255 63:217 64:167 65:121 66:81 67:53 68:42 69:41 70:54 71:75 72:94 73:109 74:147 75:186 76:212 77:226 78:235 79:255 80:255 81:255 82:255 83:205 84:144 85:82 86:35 87:14 88:15 89:29 90:43 91:46 92:45 93:58 94:92 95:138 96:179 97:207 98:227 99:255 100:255 101:255 102:255 103:192 104:127 105:63 106:19 107:17 108:43 109:68 110:82 111:63 112:47 113:34 114:51 115:91 116:140 117:183 118:218 119:255 120:255 121:255 122:255 123:188 124:122 125:62 126:27 127:39 128:85 129:119 130:133 131:113 132:91 133:50 134:34 135:59 136:108 137:158 138:206 139:255 140:255 141:255 142:255 143:192 144:125 145:68 146:43 147:61 148:109 149:158 150:174 151:165 152:128 153:84 154:40 155:49 156:95 157:141 158:191 159:255 160:255 161:255 162:255 163:194 164:128 165:74 166:54 167:78 168:129 169:179 170:212 171:205 172:160 173:103 174:51 175:48 176:87 177:133 178:183 179:255 180:255 181:255 182:255 183:197 184:129 185:75 186:56 187:83 188:139 189:194 190:223 191:218 192:178 193:120 194:69 195:55 196:85 197:132 198:183 199:255 200:255 201:255 202:255 203:199 204:134 205:77 206:54 207:81 208:140 209:199 210:225 211:223 212:184 213:126 214:71 215:51 216:78 217:126 218:182 219:255 220:255 221:255 222:255 223:208 224:143 225:81 226:51 227:75 228:135 229:188 230:218 231:218 232:179 233:118 234:56 235:37 236:69 237:122 238:182 239:255 240:255 241:255 242:255 243:212 244:148 245:87 246:57 247:72 248:122 249:174 250:212 251:210 252:165 253:104 254:45 255:32 256:71 257:128 258:185 259:255 260:255 261:255 262:255 263:213 264:151 265:93 266:60 267:66 268:107 269:159 270:188 271:175 272:139 273:90 274:37 275:41 276:91 277:143 278:195 279:255 280:255 281:255 282:255 283:211 284:154 285:96 286:53 287:50 288:91 289:130 290:149 291:132 292:103 293:61 294:35 295:57 296:109 297:162 298:210 299:255 300:255 301:255 302:255 303:210 304:155 305:98 306:44 307:25 308:55 309:85 310:97 311:84 312:54 313:31 314:46 315:86 316:138 317:186 318:223 319:255 320:255 321:255 322:255 323:210 324:157 325:100 326:41 327:6 328:14 329:35 330:42 331:37 332:19 333:35 334:79 335:129 336:176 337:211 338:231 339:255 340:255 341:255 342:255 343:208 344:160 345:109 346:54 347:16 348:9 349:12 350:19 351:27 352:37 353:81 354:129 355:171 356:208 357:231 358:241 359:255 360:255 361:255 362:255 363:200 364:163 365:127 366:93 367:66 368:46 369:56 370:71 371:88 372:100 373:139 374:176 375:211 376:237 377:248 378:252 379:255 380:255 381:255 382:255 383:192 384:171 385:159 386:143 387:132 388:129 389:135 390:141 391:149 392:168 393:198 394:221 395:241 396:252 397:254 398:255 399:255 400:255 
-9.565691974625105e-07 1:255 2:255 3:248 4:247 5:251 6:254 7:255 8:254 9:252 10:252 11:252 12:252 13:248 14:239 15:225 16:206 17:190 18:203 19:255 20:255 21:255 22:255 23:246 24:245 25:247 26:248 27:246 28:244 29:244 30:244 31:244 32:240 33:236 34:231 35:223 36:219 37:220 38:231 39:255 40:255 41:255 42:255 43:242 44:234 45:227 46:222 47:224 48:229 49:234 50:237 51:235 52:222 53:200 54:184 55:183 56:198 57:217 58:236 59:255 60:255 61:255 62:255 63:233 64:201 65:177 66:168 67:173 68:190 69:215 70:230 71:225 72:192 73:155 74:131 75:135 76:162 77:197 78:230 79:255 80:255 81:255 82:255 83:219 84:171 85:129 86:111 87:119 88:148 89:191 90:220 91:213 92:167 93:120 94:93 95:97 96:129 97:175 98:221 99:255 100:255 101:255 102:255 103:207 104:149 105:101 106:76 107:85 108:122 109:172 110:210 111:203 112:155 113:102 114:68 115:74 116:112 117:162 118:212 119:255 120:255 121:255 122:255 123:200 124:136 125:87 126:61 127:69 128:111 129:162 130:201 131:192 132:148 133:95 134:53 135:60 136:102 137:151 138:203 139:255 140:255 141:255 142:255 143:196 144:132 145:80 146:52 147:60 148:102 149:149 150:180 151:173 152:134 153:85 154:44 155:51 156:91 157:138 158:193 159:255 160:255 161:255 162:255 163:196 164:133 165:81 166:46 167:48 168:84 169:120 170:144 171:141 172:108 173:65 174:33 175:40 176:80 177:129 178:185 179:255 180:255 181:255 182:255 183:199 184:137 185:82 186:40 187:25 188:45 189:79 190:90 191:89 192:75 193:40 194:20 195:30 196:71 197:125 198:182 199:255 200:255 201:255 202:255 203:202 204:139 205:83 206:39 207:14 208:13 209:23 210:33 211:33 212:23 213:10 214:6 215:22 216:65 217:120 218:180 219:255 220:255 221:255 222:255 223:208 224:148 225:91 226:40 227:8 228:3 229:6 230:12 231:18 232:12 233:6 234:7 235:24 236:65 237:119 238:179 239:255 240:255 241:255 242:255 243:211 244:154 245:95 246:42 247:14 248:15 249:26 250:40 251:51 252:40 253:24 254:16 255:29 256:67 257:119 258:180 259:255 260:255 261:255 262:255 263:212 264:156 265:98 266:46 267:23 268:39 269:71 270:98 271:112 272:90 273:63 274:36 275:34 276:68 277:121 278:183 279:255 280:255 281:255 282:255 283:210 284:151 285:95 286:47 287:34 288:69 289:112 290:150 291:166 292:136 293:94 294:51 295:40 296:71 297:123 298:187 299:255 300:255 301:255 302:255 303:207 304:146 305:90 306:46 307:41 308:87 309:138 310:185 311:200 312:164 313:111 314:61 315:46 316:73 317:127 318:192 319:255 320:255 321:255 322:255 323:205 324:148 325:94 326:49 327:41 328:86 329:147 330:202 331:216 332:179 333:121 334:71 335:51 336:74 337:130 338:197 339:255 340:255 341:255 342:255 343:200 344:151 345:102 346:55 347:44 348:83 349:144 350:202 351:223 352:194 353:136 354:86 355:63 356:82 357:136 358:201 359:255 360:255 361:255 362:255 363:190 364:150 365:108 366:64 367:54 368:90 369:146 370:203 371:227 372:207 373:158 374:108 375:90 376:107 377:151 378:209 379:255 380:255 381:255 382:255 383:179 384:147 385:117 386:88 387:84 388:105 389:154 390:208 391:232 392:219 393:175 394:138 395:130 396:145 397:178 398:224 399:255 400:255 
-1.714372920126786e-06 1:255 2:255 3:209 4:204 5:218 6:226 7:232 8:242 9:245 10:240 11:240 12:245 13:248 14:243 15:210 16:166 17:127 18:138 19:255 20:255 21:255 22:255 23:219 24:209 25:207 26:199 27:194 28:199 29:194 30:194 31:200 32:201 33:206 34:217 35:213 36:191 37:162 38:170 39:255 40:255 41:255 42:255 43:221 44:202 45:184 46:165 47:153 48:149 49:145 50:145 51:146 52:148 53:155 54:163 55:176 56:186 57:189 58:205 59:255 60:255 61:255 62:255 63:217 64:189 65:164 66:134 67:110 68:103 69:96 70:93 71:97 72:99 73:103 74:110 75:128 76:155 77:182 78:215 79:255 80:255 81:255 82:255 83:218 84:182 85:147 86:111 87:81 88:64 89:57 90:49 91:51 92:52 93:59 94:68 95:90 96:124 97:161 98:204 99:255 100:255 101:255 102:255 103:224 104:185 105:144 106:106 107:73 108:48 109:40 110:28 111:19 112:17 113:22 114:40 115:69 116:105 117:142 118:190 119:255 120:255 121:255 122:255 123:230 124:195 125:157 126:119 127:86 128:65 129:57 130:41 131:22 132:7 133:3 134:25 135:59 136:95 137:130 138:182 139:255 140:255 141:255 142:255 143:233 144:210 145:179 146:146 147:120 148:106 149:98 150:76 151:60 152:27 153:9 154:21 155:53 156:90 157:126 158:180 159:255 160:255 161:255 162:255 163:235 164:228 165:216 166:197 167:178 168:162 169:148 170:117 171:93 172:56 173:22 174:27 175:56 176:91 177:128 178:181 179:255 180:255 181:255 182:255 183:244 184:240 185:240 186:243 187:246 188:240 189:212 190:159 191:105 192:64 193:36 194:37 195:62 196:97 197:135 198:188 199:255 200:255 201:255 202:255 203:244 204:240 205:243 206:248 207:251 208:254 209:245 210:203 211:126 212:73 213:38 214:32 215:59 216:99 217:139 218:190 219:255 220:255 221:255 222:255 223:234 224:227 225:235 226:245 227:252 228:255 229:247 230:206 231:134 232:75 233:30 234:26 235:54 236:96 237:139 238:191 239:255 240:255 241:255 242:255 243:229 244:221 245:231 246:244 247:250 248:252 249:239 250:188 251:125 252:75 253:39 254:32 255:53 256:90 257:134 258:191 259:255 260:255 261:255 262:255 263:228 264:219 265:225 266:236 267:243 268:241 269:220 270:169 271:116 272:73 273:40 274:33 275:52 276:87 277:130 278:186 279:255 280:255 281:255 282:255 283:221 284:209 285:208 286:208 287:210 288:206 289:189 290:151 291:106 292:66 293:32 294:28 295:48 296:82 297:125 298:182 299:255 300:255 301:255 302:255 303:207 304:188 305:178 306:167 307:161 308:158 309:147 310:123 311:93 312:58 313:23 314:20 315:44 316:80 317:122 318:180 319:255 320:255 321:255 322:255 323:191 324:164 325:146 326:127 327:116 328:112 329:105 330:87 331:74 332:42 333:15 334:19 335:50 336:87 337:124 338:181 339:255 340:255 341:255 342:255 343:178 344:146 345:123 346:96 347:78 348:70 349:67 350:55 351:41 352:15 353:7 354:31 355:65 356:99 357:136 358:187 359:255 360:255 361:255 362:255 363:166 364:136 365:113 366:79 367:54 368:43 369:37 370:26 371:12 372:11 373:15 374:43 375:78 376:118 377:159 378:201 379:255 380:255 381:255 382:255 383:142 384:122 385:113 386:85 387:60 388:41 389:27 390:17 391:17 392:37 393:51 394:74 395:103 396:139 397:181 398:221 399:255 400:255 
-1.881596919997715e-06 1:255 2:255 3:255 4:255 5:254 6:250 7:247 8:248 9:252 10:250 11:221 12:188 13:170 14:145 15:121 16:103 17:92 18:128 19:255 20:255 21:255 22:255 23:253 24:250 25:229 26:200 27:189 28:208 29:239 30:246 31:220 32:205 33:201 34:197 35:183 36:160 37:138 38:159 39:255 40:255 41:255 42:255 43:243 44:208 45:164 46:133 47:125 48:139 49:172 50:216 51:219 52:208 53:213 54:224 55:218 56:202 57:183 58:186 59:255 60:255 61:255 62:255 63:226 64:164 65:113 66:88 67:83 68:94 69:123 70:170 71:208 72:223 73:228 74:226 75:222 76:208 77:185 78:190 79:255 80:255 81:255 82:255 83:205 84:136 85:88 86:63 87:54 88:65 89:95 90:136 91:193 92:235 93:242 94:233 95:219 96:200 97:175 98:180 99:255 100:255 101:255 102:255 103:191 104:123 105:76 106:47 107:36 108:49 109:81 110:121 111:185 112:234 113:246 114:239 115:219 116:196 117:169 118:170 119:255 120:255 121:255 122:255 123:183 124:115 125:71 126:39 127:27 128:43 129:76 130:116 131:183 132:228 133:244 134:239 135:219 136:193 137:161 138:163 139:255 140:255 141:255 142:255 143:172 144:109 145:70 146:38 147:23 148:40 149:72 150:112 151:175 152:229 153:246 154:242 155:220 156:188 157:151 158:158 159:255 160:255 161:255 162:255 163:164 164:105 165:70 166:39 167:23 168:38 169:68 170:106 171:160 172:233 173:250 174:249 175:224 176:188 177:153 178:159 179:255 180:255 181:255 182:255 183:159 184:101 185:71 186:43 187:25 188:33 189:63 190:98 191:150 192:222 193:247 194:248 195:225 196:192 197:160 198:165 199:255 200:255 201:255 202:255 203:165 204:107 205:74 206:44 207:23 208:28 209:59 210:93 211:145 212:209 213:240 214:240 215:226 216:202 217:170 218:174 219:255 220:255 221:255 222:255 223:169 224:114 225:80 226:48 227:25 228:24 229:55 230:89 231:139 232:207 233:232 234:236 235:220 236:197 237:172 238:178 239:255 240:255 241:255 242:255 243:173 244:118 245:82 246:51 247:27 248:24 249:55 250:92 251:138 252:199 253:229 254:227 255:214 256:196 257:176 258:185 259:255 260:255 261:255 262:255 263:183 264:124 265:84 266:53 267:28 268:23 269:52 270:87 271:134 272:186 273:225 274:225 275:206 276:190 277:177 278:188 279:255 280:255 281:255 282:255 283:188 284:128 285:86 286:52 287:25 288:19 289:48 290:81 291:121 292:160 293:192 294:196 295:180 296:171 297:168 298:183 299:255 300:255 301:255 302:255 303:190 304:132 305:89 306:52 307:23 308:13 309:37 310:70 311:97 312:119 313:136 314:141 315:137 316:140 317:147 318:174 319:255 320:255 321:255 322:255 323:196 324:137 325:91 326:54 327:22 328:7 329:19 330:47 331:65 332:76 333:83 334:86 335:93 336:107 337:124 338:164 339:255 340:255 341:255 342:255 343:198 344:139 345:94 346:56 347:22 348:3 349:6 350:21 351:33 352:38 353:42 354:52 355:65 356:84 357:107 358:154 359:255 360:255 361:255 362:255 363:185 364:136 365:98 366:62 367:30 368:8 369:4 370:7 371:10 372:12 373:17 374:32 375:53 376:75 377:99 378:153 379:255 380:255 381:255 382:255 383:170 384:131 385:104 386:73 387:50 388:30 389:15 390:15 391:25 392:33 393:39 394:46 395:63 396:86 397:110 398:158 399:255 400:255 
-4.721341572268058e-06 1:255 2:255 3:239 4:245 5:253 6:255 7:255 8:254 9:252 10:251 11:247 12:245 13:244 14:237 15:230 16:218 17:201 18:203 19:255 20:255 21:255 22:255 23:242 24:246 25:251 26:250 27:247 28:243 29:237 30:232 31:229 32:229 33:229 34:229 35:229 36:226 37:219 38:222 39:255 40:255 41:255 42:255 43:245 44:245 45:246 46:241 47:231 48:216 49:204 50:194 51:191 52:193 53:198 54:206 55:214 56:222 57:227 58:235 59:255 60:255 61:255 62:255 63:244 64:241 65:233 66:220 67:201 68:176 69:158 70:142 71:137 72:140 73:149 74:163 75:182 76:202 77:218 78:235 79:255 80:255 81:255 82:255 83:242 84:234 85:219 86:194 87:161 88:128 89:104 90:84 91:78 92:80 93:93 94:113 95:139 96:167 97:194 98:224 99:255 100:255 101:255 102:255 103:240 104:224 105:200 106:163 107:120 108:80 109:50 110:42 111:45 112:45 113:51 114:65 115:91 116:125 117:161 118:206 119:255 120:255 121:255 122:255 123:234 124:211 125:176 126:131 127:84 128:44 129:29 130:46 131:60 132:59 133:50 134:42 135:52 136:84 137:126 138:183 139:255 140:255 141:255 142:255 143:225 144:196 145:155 146:106 147:59 148:34 149:58 150:93 151:110 152:106 153:87 154:55 155:34 156:49 157:92 158:160 159:255 160:255 161:255 162:255 163:221 164:180 165:134 166:83 167:46 168:50 169:95 170:135 171:156 172:149 173:121 174:82 175:37 176:26 177:63 178:141 179:255 180:255 181:255 182:255 183:216 184:170 185:122 186:68 187:41 188:69 189:120 190:164 191:190 192:182 193:151 194:108 195:51 196:18 197:43 198:130 199:255 200:255 201:255 202:255 203:211 204:164 205:113 206:58 207:41 208:83 209:136 210:182 211:204 212:195 213:164 214:120 215:64 216:24 217:37 218:124 219:255 220:255 221:255 222:255 223:204 224:156 225:104 226:50 227:38 228:87 229:142 230:191 231:209 232:201 233:169 234:124 235:72 236:30 237:36 238:124 239:255 240:255 241:255 242:255 243:199 244:150 245:98 246:45 247:34 248:86 249:142 250:188 251:208 252:202 253:169 254:123 255:70 256:33 257:45 258:129 259:255 260:255 261:255 262:255 263:196 264:146 265:96 266:42 267:27 268:75 269:132 270:180 271:203 272:196 273:162 274:118 275:65 276:36 277:57 278:135 279:255 280:255 281:255 282:255 283:195 284:147 285:99 286:43 287:18 288:56 289:114 290:159 291:185 292:177 293:147 294:105 295:56 296:40 297:73 298:146 299:255 300:255 301:255 302:255 303:195 304:152 305:109 306:52 307:13 308:30 309:85 310:126 311:153 312:145 313:120 314:81 315:45 316:50 317:93 318:160 319:255 320:255 321:255 322:255 323:194 324:159 325:125 326:72 327:21 328:10 329:43 330:84 331:107 332:102 333:80 334:51 335:42 336:68 337:115 338:175 339:255 340:255 341:255 342:255 343:190 344:164 345:142 346:100 347:49 348:13 349:10 350:37 351:53 352:50 353:40 354:35 355:55 356:95 357:140 358:191 359:255 360:255 361:255 362:255 363:180 364:165 365:160 366:132 367:93 368:53 369:23 370:16 371:15 372:21 373:32 374:55 375:91 376:132 377:171 378:212 379:255 380:255 381:255 382:255 383:167 384:159 385:171 386:160 387:134 388:106 389:86 390:69 391:62 392:70 393:86 394:109 395:138 396:171 397:200 398:225 399:255 400:255 
-2.41657151543008e-06 1:255 2:255 3:253 4:254 5:254 6:253 7:252 8:252 9:252 10:252 11:252 12:246 13:235 14:215 15:183 16:146 17:121 18:149 19:255 20:255 21:255 22:255 23:253 24:253 25:250 26:245 27:241 28:238 29:238 30:235 31:238 32:240 33:238 34:229 35:212 36:193 37:177 38:192 39:255 40:255 41:255 42:255 43:249 44:247 45:244 46:235 47:224 48:216 49:212 50:207 51:212 52:215 53:222 54:224 55:223 56:219 57:213 58:221 59:255 60:255 61:255 62:255 63:246 64:240 65:232 66:214 67:191 68:171 69:158 70:152 71:158 72:167 73:182 74:196 75:211 76:222 77:226 78:234 79:255 80:255 81:255 82:255 83:240 84:229 85:210 86:178 87:144 88:118 89:99 90:95 91:99 92:109 93:129 94:149 95:179 96:207 97:223 98:236 99:255 100:255 101:255 102:255 103:232 104:210 105:176 106:134 107:95 108:68 109:51 110:55 111:56 112:61 113:77 114:100 115:136 116:178 117:209 118:232 119:255 120:255 121:255 122:255 123:219 124:183 125:139 126:92 127:56 128:37 129:40 130:54 131:53 132:46 133:46 134:61 135:97 136:144 137:188 138:224 139:255 140:255 141:255 142:255 143:204 144:155 145:107 146:60 147:33 148:45 149:79 150:96 151:94 152:74 153:47 154:37 155:66 156:115 157:164 158:214 159:255 160:255 161:255 162:255 163:191 164:133 165:82 166:38 167:36 168:82 169:122 170:141 171:138 172:115 173:75 174:33 175:41 176:87 177:142 178:200 179:255 180:255 181:255 182:255 183:179 184:117 185:61 186:32 187:55 188:108 189:151 190:182 191:176 192:146 193:100 194:51 195:39 196:70 197:126 198:190 199:255 200:255 201:255 202:255 203:173 204:104 205:46 206:31 207:70 208:122 209:168 210:196 211:196 212:165 213:116 214:64 215:37 216:60 217:116 218:181 219:255 220:255 221:255 222:255 223:167 224:98 225:42 226:32 227:74 228:128 229:175 230:204 231:204 232:173 233:123 234:70 235:36 236:55 237:113 238:179 239:255 240:255 241:255 242:255 243:167 244:97 245:42 246:33 247:76 248:130 249:176 250:205 251:205 252:174 253:127 254:72 255:36 256:54 257:112 258:179 259:255 260:255 261:255 262:255 263:168 264:98 265:39 266:29 267:73 268:125 269:171 270:200 271:200 272:169 273:122 274:71 275:39 276:59 277:117 278:181 279:255 280:255 281:255 282:255 283:172 284:103 285:43 286:22 287:58 288:112 289:159 290:190 291:190 292:159 293:113 294:63 295:41 296:67 297:123 298:187 299:255 300:255 301:255 302:255 303:179 304:114 305:56 306:20 307:36 308:91 309:136 310:164 311:168 312:140 313:96 314:47 315:40 316:78 317:133 318:195 319:255 320:255 321:255 322:255 323:187 324:129 325:76 326:27 327:16 328:57 329:100 330:123 331:129 332:106 333:65 334:30 335:45 336:94 337:148 338:204 339:255 340:255 341:255 342:255 343:198 344:147 345:100 346:48 347:12 348:18 349:53 350:74 351:76 352:57 353:30 354:31 355:66 356:116 357:165 358:215 359:255 360:255 361:255 362:255 363:206 364:169 365:131 366:89 367:48 368:16 369:16 370:25 371:25 372:15 373:21 374:58 375:105 376:150 377:191 378:226 379:255 380:255 381:255 382:255 383:208 384:185 385:161 386:131 387:100 388:70 389:50 390:32 391:32 392:47 393:69 394:104 395:144 396:183 397:214 398:234 399:255 400:255 
-4.701297332360917e-06 1:255 2:255 3:248 4:250 5:254 6:255 7:255 8:254 9:249 10:246 11:239 12:239 13:232 14:220 15:197 16:172 17:153 18:170 19:255 20:255 21:255 22:255 23:244 24:242 25:245 26:249 27:251 28:252 29:251 30:248 31:245 32:241 33:234 34:223 35:209 36:195 37:186 38:201 39:255 40:255 41:255 42:255 43:227 44:212 45:210 46:216 47:227 48:236 49:243 50:246 51:241 52:232 53:216 54:196 55:182 56:181 57:190 58:214 59:255 60:255 61:255 62:255 63:199 64:166 65:157 66:162 67:180 68:203 69:228 70:237 71:230 72:207 73:180 74:155 75:143 76:148 77:170 78:208 79:255 80:255 81:255 82:255 83:173 84:125 85:108 86:112 87:135 88:169 89:204 90:220 91:211 92:179 93:141 94:114 95:105 96:116 97:146 98:194 99:255 100:255 101:255 102:255 103:156 104:99 105:75 106:77 107:103 108:140 109:179 110:201 111:189 112:153 113:113 114:83 115:77 116:95 117:130 118:184 119:255 120:255 121:255 122:255 123:150 124:89 125:59 126:56 127:81 128:119 129:160 130:184 131:171 132:134 133:96 134:65 135:61 136:85 137:124 138:179 139:255 140:255 141:255 142:255 143:155 144:93 145:57 146:45 147:65 148:104 149:144 150:167 151:158 152:119 153:81 154:54 155:56 156:85 157:124 158:178 159:255 160:255 161:255 162:255 163:165 164:103 165:62 166:41 167:52 168:90 169:130 170:151 171:142 172:105 173:66 174:45 175:56 176:91 177:132 178:184 179:255 180:255 181:255 182:255 183:175 184:115 185:71 186:41 187:41 188:75 189:111 190:133 191:124 192:91 193:50 194:39 195:61 196:102 197:142 198:188 199:255 200:255 201:255 202:255 203:188 204:128 205:82 206:45 207:34 208:58 209:93 210:113 211:106 212:74 213:38 214:37 215:70 216:115 217:152 218:193 219:255 220:255 221:255 222:255 223:196 224:141 225:95 226:52 227:28 228:40 229:73 230:95 231:87 232:58 233:33 234:46 235:82 236:124 237:158 238:195 239:255 240:255 241:255 242:255 243:205 244:153 245:106 246:60 247:28 248:25 249:46 250:68 251:62 252:40 253:30 254:56 255:96 256:138 257:169 258:199 259:255 260:255 261:255 262:255 263:211 264:165 265:120 266:74 267:36 268:17 269:24 270:36 271:34 272:25 273:34 274:68 275:112 276:154 277:181 278:206 279:255 280:255 281:255 282:255 283:218 284:177 285:135 286:91 287:48 288:16 289:12 290:14 291:15 292:17 293:40 294:79 295:125 296:168 297:194 298:213 299:255 300:255 301:255 302:255 303:226 304:190 305:151 306:109 307:62 308:20 309:7 310:5 311:7 312:14 313:48 314:90 315:138 316:181 317:205 318:219 319:255 320:255 321:255 322:255 323:231 324:203 325:168 326:125 327:76 328:31 329:7 330:2 331:4 332:15 333:57 334:104 335:153 336:195 337:214 338:224 339:255 340:255 341:255 342:255 343:231 344:213 345:183 346:139 347:91 348:47 349:11 350:3 351:6 352:25 353:70 354:121 355:172 356:209 357:223 358:230 359:255 360:255 361:255 362:255 363:228 364:217 365:195 366:154 367:109 368:65 369:23 370:11 371:16 372:46 373:90 374:144 375:192 376:221 377:231 378:237 379:255 380:255 381:255 382:255 383:217 384:214 385:205 386:172 387:129 388:89 389:57 390:35 391:46 392:74 393:117 394:166 395:209 396:232 397:239 398:243 399:255 400:255 
-2.145918308394531e-06 1:255 2:255 3:248 4:250 5:249 6:249 7:253 8:254 9:252 10:252 11:255 12:255 13:248 14:239 15:228 16:214 17:203 18:214 19:255 20:255 21:255 22:255 23:239 24:231 25:226 26:225 27:231 28:239 29:243 30:244 31:252 32:252 33:244 34:233 35:224 36:216 37:212 38:225 39:255 40:255 41:255 42:255 43:231 44:210 45:192 46:188 47:201 48:222 49:235 50:242 51:247 52:244 53:234 54:218 55:201 56:194 57:200 58:221 59:255 60:255 61:255 62:255 63:220 64:184 65:156 66:151 67:174 68:207 69:229 70:238 71:242 72:238 73:222 74:195 75:166 76:156 77:172 78:210 79:255 80:255 81:255 82:255 83:214 84:168 85:133 86:125 87:152 88:194 89:223 90:233 91:237 92:231 93:212 94:173 95:135 96:122 97:145 98:194 99:255 100:255 101:255 102:255 103:211 104:159 105:119 106:110 107:138 108:181 109:213 110:225 111:227 112:219 113:198 114:156 115:114 116:102 117:127 118:183 119:255 120:255 121:255 122:255 123:209 124:154 125:109 126:100 127:129 128:168 129:197 130:204 131:202 132:194 133:177 134:141 135:102 136:91 137:120 138:180 139:255 140:255 141:255 142:255 143:207 144:151 145:104 146:93 147:119 148:153 149:170 150:166 151:160 152:154 153:148 154:125 155:94 156:86 157:115 158:177 159:255 160:255 161:255 162:255 163:205 164:146 165:99 166:85 167:103 168:127 169:129 170:112 171:105 172:110 173:115 174:106 175:86 176:83 177:111 178:174 179:255 180:255 181:255 182:255 183:202 184:143 185:94 186:74 187:84 188:99 189:87 190:63 191:56 192:69 193:87 194:84 195:74 196:77 197:106 198:172 199:255 200:255 201:255 202:255 203:198 204:136 205:84 206:59 207:61 208:64 209:55 210:33 211:31 212:46 213:66 214:71 215:65 216:72 217:104 218:168 219:255 220:255 221:255 222:255 223:193 224:128 225:74 226:43 227:38 228:40 229:31 230:18 231:17 232:30 233:46 234:52 235:55 236:70 237:104 238:168 239:255 240:255 241:255 242:255 243:189 244:122 245:68 246:34 247:22 248:20 249:17 250:6 251:6 252:20 253:33 254:41 255:48 256:69 257:110 258:173 259:255 260:255 261:255 262:255 263:188 264:121 265:65 266:27 267:10 268:8 269:10 270:11 271:11 272:16 273:22 274:30 275:45 276:78 277:123 278:179 279:255 280:255 281:255 282:255 283:190 284:122 285:66 286:25 287:6 288:9 289:21 290:30 291:28 292:19 293:17 294:25 295:47 296:88 297:138 298:190 299:255 300:255 301:255 302:255 303:193 304:126 305:70 306:30 307:13 308:21 309:44 310:57 311:50 312:31 313:20 314:25 315:50 316:98 317:151 318:202 319:255 320:255 321:255 322:255 323:195 324:133 325:77 326:39 327:29 328:44 329:77 330:92 331:80 332:52 333:32 334:32 335:57 336:106 337:162 338:210 339:255 340:255 341:255 342:255 343:197 344:140 345:91 346:58 347:56 348:81 349:117 350:135 351:121 352:82 353:53 354:49 355:72 356:120 357:173 358:216 359:255 360:255 361:255 362:255 363:202 364:156 365:120 366:96 367:97 368:125 369:158 370:176 371:161 372:122 373:88 374:79 375:101 376:144 377:188 378:222 379:255 380:255 381:255 382:255 383:206 384:180 385:163 386:149 387:150 388:169 389:197 390:208 391:200 392:166 393:140 394:132 395:145 396:174 397:207 398:233 399:255 400:255 
-1.389408573492448e-06 1:255 2:255 3:255 4:252 5:248 6:244 7:244 8:251 9:255 10:255 11:255 12:250 13:244 14:238 15:233 16:225 17:215 18:219 19:255 20:255 21:255 22:255 23:251 24:241 25:230 26:221 27:220 28:230 29:241 30:250 31:252 32:247 33:239 34:232 35:220 36:206 37:198 38:213 39:255 40:255 41:255 42:255 43:245 44:227 45:204 46:181 47:178 48:203 49:227 50:242 51:246 52:242 53:233 54:217 55:194 56:170 57:161 58:192 59:255 60:255 61:255 62:255 63:238 64:211 65:175 66:146 67:144 68:173 69:212 70:235 71:241 72:236 73:225 74:203 75:168 76:137 77:130 78:171 79:255 80:255 81:255 82:255 83:233 84:198 85:155 86:123 87:124 88:158 89:202 90:228 91:234 92:229 93:215 94:187 95:149 96:113 97:105 98:157 99:255 100:255 101:255 102:255 103:230 104:191 105:146 106:113 107:115 108:153 109:196 110:218 111:220 112:213 113:201 114:171 115:135 116:99 117:90 118:147 119:255 120:255 121:255 122:255 123:228 124:188 125:143 126:109 127:109 128:144 129:183 130:199 131:190 132:181 133:175 134:155 135:124 136:91 137:83 138:141 139:255 140:255 141:255 142:255 143:227 144:187 145:141 146:103 147:98 148:130 149:158 150:169 151:147 152:137 153:137 154:134 155:111 156:83 157:80 158:138 159:255 160:255 161:255 162:255 163:225 164:185 165:138 166:96 167:86 168:113 169:133 170:125 171:105 172:94 173:104 174:109 175:91 176:71 177:76 178:137 179:255 180:255 181:255 182:255 183:223 184:179 185:130 186:88 187:71 188:83 189:101 190:86 191:62 192:53 193:66 194:78 195:75 196:65 197:68 198:130 199:255 200:255 201:255 202:255 203:223 204:177 205:123 206:76 207:57 208:65 209:68 210:54 211:33 212:28 213:44 214:60 215:62 216:54 217:60 218:126 219:255 220:255 221:255 222:255 223:220 224:173 225:119 226:68 227:40 228:38 229:37 230:29 231:15 232:13 233:25 234:37 235:42 236:44 237:60 238:130 239:255 240:255 241:255 242:255 243:217 244:174 245:124 246:70 247:31 248:18 249:15 250:9 251:11 252:11 253:16 254:21 255:28 256:39 257:65 258:137 259:255 260:255 261:255 262:255 263:214 264:176 265:132 266:76 267:30 268:10 269:5 270:9 271:20 272:21 273:17 274:16 275:22 276:41 277:77 278:149 279:255 280:255 281:255 282:255 283:211 284:179 285:139 286:83 287:33 288:9 289:5 290:23 291:42 292:44 293:31 294:19 295:21 296:43 297:85 298:158 299:255 300:255 301:255 302:255 303:208 304:181 305:144 306:88 307:37 308:14 309:18 310:44 311:70 312:72 313:53 314:31 315:26 316:46 317:90 318:163 319:255 320:255 321:255 322:255 323:206 324:179 325:146 326:94 327:46 328:26 329:37 330:68 331:101 332:104 333:81 334:50 335:37 336:53 337:95 338:168 339:255 340:255 341:255 342:255 343:203 344:179 345:151 346:108 347:68 348:49 349:62 350:97 351:135 352:142 353:114 354:79 355:60 356:71 357:109 358:175 359:255 360:255 361:255 362:255 363:200 364:181 365:163 366:134 367:107 368:91 369:108 370:142 371:166 372:174 373:154 374:122 375:105 376:115 377:146 378:192 379:255 380:255 381:255 382:255 383:197 384:178 385:174 386:162 387:149 388:148 389:159 390:187 391:196 392:200 393:191 394:168 395:154 396:163 397:186 398:215 399:255 400:255 
