svm_type c_svc
kernel_type linear
nr_class 2
total_sv 17
rho 3.19086
label 22 -1
nr_sv 6 11
SV
4.408012937466854e-06 1:255 2:255 3:238 4:237 5:245 6:251 7:254 8:255 9:253 10:250 11:244 12:234 13:217 14:201 15:190 16:186 17:189 18:210 19:255 20:255 21:255 22:255 23:214 24:203 25:215 26:230 27:243 28:251 29:249 30:240 31:223 32:197 33:177 34:165 35:166 36:179 37:195 38:217 39:255 40:255 41:255 42:255 43:177 44:151 45:163 46:187 47:215 48:235 49:238 50:224 51:192 52:155 53:129 54:121 55:131 56:156 57:180 58:205 59:255 60:255 61:255 62:255 63:144 64:103 65:115 66:142 67:178 68:211 69:222 70:206 71:162 72:116 73:86 74:81 75:102 76:134 77:160 78:189 79:255 80:255 81:255 82:255 83:123 84:69 85:78 86:108 87:146 88:185 89:205 90:186 91:140 92:93 93:56 94:55 95:83 96:121 97:148 98:179 99:255 100:255 101:255 102:255 103:119 104:54 105:55 106:83 107:122 108:160 109:185 110:168 111:126 112:80 113:41 114:45 115:78 116:119 117:146 118:178 119:255 120:255 121:255 122:255 123:126 124:55 125:44 126:65 127:103 128:141 129:166 130:154 131:114 132:68 133:35 134:47 135:85 136:126 137:153 138:184 139:255 140:255 141:255 142:255 143:134 144:63 145:40 146:52 147:88 148:125 149:149 150:139 151:101 152:55 153:31 154:54 155:97 156:139 157:165 158:190 159:255 160:255 161:255 162:255 163:142 164:73 165:37 166:36 167:70 168:107 169:132 170:124 171:88 172:42 173:30 174:63 175:108 176:151 177:173 178:192 179:255 180:255 181:255 182:255 183:154 184:86 185:42 186:27 187:50 188:88 189:112 190:106 191:75 192:36 193:39 194:75 195:120 196:159 197:176 198:192 199:255 200:255 201:255 202:255 203:166 204:104 205:60 206:33 207:39 208:70 209:92 210:88 211:60 212:33 213:48 214:85 215:128 216:168 217:185 218:197 219:255 220:255 221:255 222:255 223:181 224:123 225:78 226:39 227:27 228:49 229:69 230:67 231:45 232:31 233:56 234:98 235:144 236:184 237:197 238:202 239:255 240:255 241:255 242:255 243:195 244:139 245:92 246:47 247:19 248:24 249:37 250:42 251:25 252:32 253:67 254:113 255:161 256:199 257:208 258:211 259:255 260:255 261:255 262:255 263:209 264:156 265:106 266:56 267:18 268:9 269:15 270:18 271:14 272:37 273:79 274:129 275:179 276:212 277:215 278:213 279:255 280:255 281:255 282:255 283:222 284:173 285:124 286:73 287:28 288:6 289:5 290:5 291:12 292:46 293:93 294:145 295:194 296:223 297:221 298:216 299:255 300:255 301:255 302:255 303:230 304:188 305:141 306:92 307:44 308:9 309:3 310:3 311:13 312:58 313:106 314:159 315:207 316:231 317:227 318:220 319:255 320:255 321:255 322:255 323:235 324:203 325:159 326:110 327:63 328:21 329:7 330:6 331:21 332:70 333:118 334:174 335:219 336:239 337:232 338:225 339:255 340:255 341:255 342:255 343:237 344:217 345:180 346:132 347:87 348:48 349:22 350:19 351:43 352:87 353:135 354:191 355:231 356:245 357:237 358:232 359:255 360:255 361:255 362:255 363:233 364:224 365:201 366:159 367:117 368:84 369:62 370:58 371:80 372:114 373:160 374:209 375:241 376:249 377:242 378:239 379:255 380:255 381:255 382:255 383:221 384:220 385:217 386:189 387:152 388:126 389:111 390:111 391:120 392:151 393:194 394:231 395:250 396:254 397:250 398:247 399:255 400:255 
5.218826505627913e-06 1:255 2:255 3:233 4:226 5:232 6:240 7:246 8:252 9:255 10:254 11:251 12:239 13:218 14:197 15:184 16:175 17:162 18:178 19:255 20:255 21:255 22:255 23:199 24:174 25:177 26:191 27:216 28:243 29:253 30:253 31:248 32:216 33:186 34:168 35:167 36:177 37:189 38:210 39:255 40:255 41:255 42:255 43:169 44:128 45:126 46:144 47:177 48:220 49:250 50:250 51:232 52:181 53:146 54:131 55:135 56:156 57:184 58:218 59:255 60:255 61:255 62:255 63:145 64:91 65:86 66:105 67:143 68:194 69:238 70:244 71:208 72:152 73:111 74:93 75:101 76:130 77:169 78:211 79:255 80:255 81:255 82:255 83:136 84:72 85:58 86:75 87:117 88:170 89:217 90:227 91:183 92:128 93:84 94:66 95:78 96:114 97:157 98:203 99:255 100:255 101:255 102:255 103:137 104:69 105:44 106:55 107:97 108:147 109:191 110:202 111:160 112:109 113:66 114:51 115:71 116:112 117:154 118:199 119:255 120:255 121:255 122:255 123:144 124:76 125:44 126:46 127:82 128:127 129:166 130:176 131:139 132:93 133:53 134:47 135:75 136:118 137:158 138:200 139:255 140:255 141:255 142:255 143:153 144:85 145:46 146:39 147:69 148:112 149:146 150:151 151:119 152:78 153:43 154:49 155:83 156:125 157:163 158:202 159:255 160:255 161:255 162:255 163:159 164:94 165:48 166:30 167:53 168:98 169:130 170:133 171:100 172:62 173:37 174:54 175:93 176:135 177:170 178:206 179:255 180:255 181:255 182:255 183:165 184:99 185:53 186:28 187:41 188:83 189:110 190:115 191:84 192:47 193:36 194:64 195:107 196:149 197:178 198:205 199:255 200:255 201:255 202:255 203:173 204:109 205:59 206:26 207:31 208:65 209:92 210:94 211:68 212:37 213:43 214:77 215:121 216:160 217:181 218:201 219:255 220:255 221:255 222:255 223:181 224:121 225:73 226:34 227:23 228:43 229:71 230:76 231:51 232:29 233:50 234:92 235:135 236:171 237:189 238:205 239:255 240:255 241:255 242:255 243:195 244:138 245:87 246:41 247:16 248:23 249:45 250:49 251:31 252:29 253:63 254:110 255:155 256:190 257:203 258:209 259:255 260:255 261:255 262:255 263:209 264:157 265:102 266:49 267:14 268:11 269:20 270:24 271:19 272:35 273:76 274:125 275:174 276:207 277:213 278:216 279:255 280:255 281:255 282:255 283:221 284:172 285:118 286:62 287:21 288:6 289:6 290:11 291:16 292:45 293:93 294:146 295:195 296:224 297:223 298:221 299:255 300:255 301:255 302:255 303:230 304:186 305:135 306:81 307:34 308:6 309:2 310:5 311:17 312:60 313:112 314:168 315:214 316:235 317:230 318:224 319:255 320:255 321:255 322:255 323:234 324:200 325:154 326:102 327:50 328:12 329:4 330:7 331:29 332:79 333:132 334:187 335:226 336:240 337:231 338:225 339:255 340:255 341:255 342:255 343:236 344:210 345:173 346:124 347:72 348:32 349:18 350:23 351:58 352:105 353:155 354:206 355:236 356:242 357:230 358:223 359:255 360:255 361:255 362:255 363:235 364:219 365:191 366:150 367:108 368:76 369:56 370:62 371:88 372:132 373:182 374:224 375:242 376:241 377:229 378:224 379:255 380:255 381:255 382:255 383:227 384:220 385:211 386:179 387:142 388:119 389:105 390:109 391:125 392:162 393:209 394:238 395:247 396:244 397:234 398:230 399:255 400:255 
1.187093749634632e-06 1:255 2:255 3:245 4:247 5:251 6:254 7:255 8:254 9:253 10:251 11:248 12:248 13:241 14:224 15:202 16:183 17:176 18:198 19:255 20:255 21:255 22:255 23:243 24:240 25:239 26:239 27:240 28:239 29:244 30:248 31:248 32:244 33:230 34:199 35:170 36:156 37:157 38:188 39:255 40:255 41:255 42:255 43:226 44:204 45:188 46:179 47:181 48:191 49:211 50:236 51:243 52:238 53:208 54:166 55:131 56:116 57:124 58:169 59:255 60:255 61:255 62:255 63:211 64:170 65:141 66:124 67:123 68:142 69:172 70:208 71:230 72:220 73:181 74:138 75:100 76:83 77:95 78:153 79:255 80:255 81:255 82:255 83:202 84:151 85:112 86:85 87:80 88:101 89:136 90:174 91:207 92:201 93:163 94:117 95:77 96:62 97:78 98:142 99:255 100:255 101:255 102:255 103:202 104:148 105:103 106:67 107:54 108:71 109:107 110:147 111:182 112:184 113:151 114:103 115:63 116:51 117:72 118:139 119:255 120:255 121:255 122:255 123:209 124:158 125:109 126:67 127:44 128:50 129:83 130:127 131:161 132:166 133:138 134:93 135:53 136:45 137:74 138:144 139:255 140:255 141:255 142:255 143:216 144:171 145:123 146:79 147:47 148:38 149:64 150:107 151:144 152:152 153:124 154:80 155:43 156:42 157:79 158:150 159:255 160:255 161:255 162:255 163:227 164:187 165:142 166:96 167:54 168:30 169:46 170:85 171:126 172:135 173:109 174:67 175:34 176:42 177:86 178:156 179:255 180:255 181:255 182:255 183:231 184:202 185:161 186:114 187:67 188:32 189:31 190:66 191:100 192:116 193:93 194:55 195:32 196:48 197:96 198:166 199:255 200:255 201:255 202:255 203:231 204:206 205:174 206:131 207:87 208:46 209:24 210:42 211:77 212:89 213:75 214:44 215:32 216:58 217:108 218:173 219:255 220:255 221:255 222:255 223:231 224:210 225:184 226:148 227:106 228:64 229:31 230:29 231:55 232:67 233:57 234:33 235:34 236:67 237:115 238:178 239:255 240:255 241:255 242:255 243:231 244:216 245:195 246:164 247:125 248:80 249:42 250:18 251:32 252:40 253:32 254:21 255:37 256:78 257:126 258:184 259:255 260:255 261:255 262:255 263:228 264:220 265:205 266:178 267:144 268:101 269:58 270:19 271:16 272:18 273:13 274:13 275:38 276:85 277:135 278:191 279:255 280:255 281:255 282:255 283:222 284:220 285:213 286:191 287:162 288:122 289:75 290:30 291:9 292:6 293:5 294:10 295:42 296:92 297:144 298:201 299:255 300:255 301:255 302:255 303:215 304:217 305:222 306:208 307:181 308:144 309:95 310:47 311:11 312:3 313:4 314:12 315:48 316:101 317:155 318:211 319:255 320:255 321:255 322:255 323:202 324:206 325:225 326:224 327:203 328:167 329:118 330:66 331:20 332:6 333:6 334:21 335:60 336:115 337:172 338:224 339:255 340:255 341:255 342:255 343:183 344:183 345:213 346:229 347:221 348:189 349:140 350:89 351:42 352:19 353:18 354:40 355:80 356:134 357:194 358:242 359:255 360:255 361:255 362:255 363:162 364:156 365:192 366:218 367:223 368:204 369:162 370:117 371:78 372:51 373:52 374:74 375:110 376:160 377:214 378:250 379:255 380:255 381:255 382:255 383:141 384:126 385:161 386:190 387:208 388:208 389:177 390:144 391:113 392:94 393:94 394:113 395:145 396:190 397:233 398:252 399:255 400:255 
2.087058465182416e-05 1:255 2:255 3:242 4:247 5:252 6:251 7:250 8:249 9:246 10:246 11:246 12:246 13:246 14:234 15:223 16:201 17:172 18:179 19:255 20:255 21:255 22:255 23:247 24:246 25:234 26:212 27:199 28:202 29:215 30:238 31:238 32:245 33:240 34:226 35:206 36:188 37:176 38:189 39:255 40:255 41:255 42:255 43:243 44:224 45:192 46:162 47:148 48:153 49:175 50:203 51:222 52:231 53:225 54:202 55:175 56:158 57:150 58:176 59:255 60:255 61:255 62:255 63:237 64:201 65:158 66:123 67:104 68:110 69:136 70:168 71:198 72:211 73:203 74:173 75:142 76:120 77:114 78:153 79:255 80:255 81:255 82:255 83:231 84:187 85:141 86:100 87:73 88:74 89:104 90:137 91:171 92:189 93:180 94:150 95:112 96:85 97:82 98:135 99:255 100:255 101:255 102:255 103:223 104:181 105:137 106:93 107:58 108:51 109:79 110:113 111:149 112:170 113:161 114:130 115:90 116:62 117:65 118:127 119:255 120:255 121:255 122:255 123:221 124:182 125:141 126:97 127:58 128:41 129:59 130:97 131:134 132:155 133:145 134:113 135:73 136:51 137:63 138:130 139:255 140:255 141:255 142:255 143:229 144:192 145:151 146:107 147:65 148:37 149:43 150:82 151:119 152:140 153:130 154:97 155:59 156:45 157:67 158:137 159:255 160:255 161:255 162:255 163:235 164:204 165:165 166:120 167:73 168:34 169:28 170:66 171:103 172:124 173:115 174:82 175:50 176:45 177:73 178:143 179:255 180:255 181:255 182:255 183:235 184:209 185:176 186:134 187:85 188:42 189:23 190:50 191:92 192:109 193:99 194:71 195:47 196:50 197:85 198:154 199:255 200:255 201:255 202:255 203:241 204:224 205:191 206:146 207:98 208:50 209:21 210:31 211:71 212:92 213:82 214:54 215:39 216:58 217:101 218:165 219:255 220:255 221:255 222:255 223:247 224:233 225:205 226:163 227:113 228:61 229:21 230:22 231:59 232:73 233:65 234:41 235:39 236:69 237:115 238:177 239:255 240:255 241:255 242:255 243:243 244:236 245:213 246:175 247:130 248:78 249:30 250:15 251:35 252:52 253:46 254:33 255:44 256:82 257:131 258:188 259:255 260:255 261:255 262:255 263:237 264:235 265:218 266:184 267:142 268:93 269:42 270:9 271:17 272:28 273:26 274:27 275:50 276:95 277:149 278:204 279:255 280:255 281:255 282:255 283:225 284:226 285:221 286:193 287:152 288:105 289:53 290:10 291:7 292:11 293:14 294:27 295:60 296:108 297:167 298:224 299:255 300:255 301:255 302:255 303:209 304:213 305:220 306:201 307:164 308:118 309:65 310:15 311:4 312:4 313:10 314:33 315:75 316:126 317:186 318:242 319:255 320:255 321:255 322:255 323:193 324:197 325:215 326:206 327:176 328:132 329:80 330:26 331:6 332:4 333:12 334:44 335:92 336:146 337:205 338:252 339:255 340:255 341:255 342:255 343:176 344:176 345:204 346:207 347:183 348:144 349:97 350:46 351:14 352:10 353:23 354:61 355:110 356:167 357:222 358:254 359:255 360:255 361:255 362:255 363:155 364:150 365:185 366:200 367:187 368:156 369:116 370:72 371:38 372:31 373:52 374:90 375:135 376:191 377:240 378:255 379:255 380:255 381:255 382:255 383:135 384:125 385:163 386:192 387:197 388:173 389:141 390:106 391:85 392:78 393:93 394:121 395:160 396:212 397:251 398:254 399:255 400:255 
2.10052891095219e-05 1:255 2:255 3:233 4:238 5:248 6:253 7:255 8:255 9:255 10:255 11:251 12:248 13:245 14:239 15:227 16:211 17:198 18:208 19:255 20:255 21:255 22:255 23:240 24:240 25:241 26:239 27:240 28:241 29:246 30:249 31:251 32:248 33:244 34:224 35:202 36:184 37:176 38:196 39:255 40:255 41:255 42:255 43:235 44:217 45:201 46:188 47:183 48:188 49:204 50:227 51:243 52:244 53:225 54:195 55:167 56:148 57:141 58:172 59:255 60:255 61:255 62:255 63:223 64:191 65:163 66:141 67:131 68:138 69:158 70:190 71:220 72:226 73:203 74:169 75:135 76:110 77:103 78:145 79:255 80:255 81:255 82:255 83:212 84:172 85:136 86:105 87:90 88:96 89:122 90:159 91:195 92:205 93:183 94:148 95:109 96:80 97:74 98:127 99:255 100:255 101:255 102:255 103:208 104:166 105:125 106:86 107:62 108:64 109:95 110:136 111:174 112:187 113:168 114:131 115:90 116:61 117:60 118:122 119:255 120:255 121:255 122:255 123:210 124:171 125:130 126:86 127:52 128:45 129:72 130:116 131:155 132:173 133:156 134:118 135:77 136:52 137:58 138:123 139:255 140:255 141:255 142:255 143:216 144:181 145:143 146:98 147:57 148:37 149:54 150:97 151:137 152:156 153:143 154:106 155:67 156:47 157:59 158:127 159:255 160:255 161:255 162:255 163:224 164:194 165:158 166:114 167:70 168:37 169:38 170:76 171:117 172:139 173:130 174:97 175:58 176:43 177:62 178:132 179:255 180:255 181:255 182:255 183:233 184:206 185:171 186:129 187:83 188:42 189:27 190:56 191:97 192:120 193:110 194:82 195:49 196:41 197:69 198:140 199:255 200:255 201:255 202:255 203:235 204:217 205:184 206:143 207:98 208:51 209:20 210:29 211:71 212:92 213:91 214:68 215:43 216:45 217:77 218:147 219:255 220:255 221:255 222:255 223:236 224:222 225:195 226:155 227:111 228:63 229:23 230:17 231:44 232:69 233:68 234:49 235:36 236:50 237:89 238:156 239:255 240:255 241:255 242:255 243:236 244:225 245:203 246:167 247:127 248:82 249:37 250:13 251:22 252:39 253:44 254:32 255:32 256:57 257:101 258:164 259:255 260:255 261:255 262:255 263:234 264:231 265:215 266:181 267:143 268:100 269:52 270:15 271:11 272:17 273:20 274:20 275:33 276:68 277:114 278:175 279:255 280:255 281:255 282:255 283:225 284:231 285:227 286:197 287:159 288:118 289:70 290:21 291:7 292:6 293:8 294:13 295:36 296:77 297:124 298:180 299:255 300:255 301:255 302:255 303:209 304:221 305:233 306:212 307:175 308:135 309:90 310:37 311:8 312:3 313:4 314:12 315:42 316:87 317:133 318:187 319:255 320:255 321:255 322:255 323:190 324:201 325:229 326:224 327:192 328:153 329:110 330:61 331:16 332:5 333:6 334:18 335:52 336:99 337:145 338:197 339:255 340:255 341:255 342:255 343:169 344:174 345:212 346:225 347:206 348:171 349:129 350:83 351:35 352:16 353:16 354:32 355:69 356:115 357:159 358:208 359:255 360:255 361:255 362:255 363:148 364:143 365:182 366:207 367:208 368:184 369:150 370:108 371:72 372:46 373:45 374:63 375:97 376:136 377:176 378:220 379:255 380:255 381:255 382:255 383:126 384:113 385:150 386:180 387:197 388:194 389:169 390:139 391:116 392:95 393:92 394:107 395:131 396:160 397:193 398:228 399:255 400:255 
1.569143497496251e-05 1:255 2:255 3:245 4:239 5:242 6:247 7:251 8:255 9:255 10:255 11:255 12:252 13:247 14:233 15:198 16:157 17:124 18:142 19:255 20:255 21:255 22:255 23:225 24:206 25:208 26:220 27:233 28:242 29:248 30:250 31:252 32:248 33:240 34:224 35:202 36:179 37:159 38:173 39:255 40:255 41:255 42:255 43:192 44:157 45:153 46:166 47:191 48:220 49:238 50:243 51:243 52:236 53:216 54:194 55:179 56:174 57:175 58:195 59:255 60:255 61:255 62:255 63:168 64:119 65:106 66:117 67:148 68:189 69:221 70:234 71:233 72:210 73:176 74:150 75:140 76:146 77:164 78:199 79:255 80:255 81:255 82:255 83:153 84:93 85:74 86:83 87:118 88:161 89:200 90:222 91:214 92:176 93:134 94:108 95:101 96:115 97:145 98:191 99:255 100:255 101:255 102:255 103:146 104:81 105:55 106:61 107:97 108:142 109:181 110:204 111:187 112:144 113:101 114:74 115:72 116:95 117:132 118:184 119:255 120:255 121:255 122:255 123:149 124:80 125:46 126:47 127:81 128:126 129:166 130:185 131:161 132:119 133:76 134:51 135:58 136:91 137:133 138:185 139:255 140:255 141:255 142:255 143:156 144:85 145:44 146:37 147:67 148:111 149:151 150:168 151:140 152:98 153:56 154:41 155:60 156:101 157:144 158:193 159:255 160:255 161:255 162:255 163:162 164:94 165:48 166:32 167:54 168:99 169:137 170:147 171:122 172:78 173:42 174:42 175:73 176:118 177:159 178:203 179:255 180:255 181:255 182:255 183:169 184:103 185:56 186:30 187:42 188:83 189:117 190:129 191:100 192:62 193:39 194:51 195:86 196:131 197:174 198:215 199:255 200:255 201:255 202:255 203:174 204:112 205:62 206:29 207:33 208:69 209:99 210:106 211:85 212:50 213:39 214:62 215:104 216:150 217:188 218:219 219:255 220:255 221:255 222:255 223:181 224:119 225:70 226:32 227:26 228:55 229:84 230:89 231:64 232:39 233:44 234:77 235:121 236:166 237:198 238:219 239:255 240:255 241:255 242:255 243:190 244:128 245:77 246:35 247:18 248:35 249:61 250:63 251:45 252:35 253:56 254:94 255:141 256:183 257:206 258:219 259:255 260:255 261:255 262:255 263:196 264:139 265:86 266:38 267:13 268:18 269:31 270:33 271:28 272:38 273:74 274:116 275:161 276:199 277:213 278:219 279:255 280:255 281:255 282:255 283:203 284:150 285:97 286:44 287:12 288:8 289:11 290:14 291:19 292:49 293:92 294:138 295:183 296:213 297:216 298:217 299:255 300:255 301:255 302:255 303:211 304:160 305:109 306:55 307:14 308:4 309:4 310:8 311:24 312:66 313:112 314:161 315:203 316:223 317:216 318:211 319:255 320:255 321:255 322:255 323:217 324:169 325:121 326:68 327:24 328:4 329:2 330:10 331:39 332:85 333:134 334:184 335:218 336:227 337:212 338:205 339:255 340:255 341:255 342:255 343:222 344:179 345:133 346:85 347:40 348:10 349:6 350:18 351:58 352:103 353:155 354:205 355:230 356:229 357:208 358:201 359:255 360:255 361:255 362:255 363:226 364:193 365:154 366:109 367:65 368:31 369:24 370:42 371:83 372:129 373:182 374:222 375:237 376:233 377:212 378:202 379:255 380:255 381:255 382:255 383:229 384:208 385:174 386:133 387:101 388:79 389:70 390:82 391:111 392:155 393:210 394:238 395:245 396:239 397:217 398:208 399:255 400:255 
-1.481907432955385e-06 1:255 2:255 3:218 4:228 5:244 6:247 7:247 8:247 9:247 10:250 11:247 12:241 13:236 14:220 15:200 16:179 17:158 18:173 19:255 20:255 21:255 22:255 23:228 24:233 25:238 26:237 27:235 28:229 29:224 30:218 31:217 32:211 33:200 34:192 35:185 36:178 37:172 38:191 39:255 40:255 41:255 42:255 43:230 44:231 45:230 46:215 47:200 48:188 49:174 50:164 51:157 52:149 53:142 54:137 55:137 56:142 57:152 58:185 59:255 60:255 61:255 62:255 63:233 64:229 65:214 66:185 67:157 68:136 69:120 70:108 71:98 72:92 73:89 74:87 75:90 76:101 77:121 78:169 79:255 80:255 81:255 82:255 83:238 84:227 85:199 86:158 87:120 88:92 89:70 90:59 91:50 92:47 93:49 94:53 95:61 96:77 97:103 98:157 99:255 100:255 101:255 102:255 103:238 104:220 105:186 106:140 107:96 108:62 109:35 110:25 111:21 112:29 113:38 114:48 115:60 116:79 117:106 118:159 119:255 120:255 121:255 122:255 123:233 124:212 125:179 126:132 127:86 128:46 129:18 130:12 131:24 132:43 133:59 134:73 135:87 136:105 137:129 138:176 139:255 140:255 141:255 142:255 143:231 144:211 145:180 146:134 147:85 148:43 149:15 150:19 151:48 152:72 153:92 154:110 155:126 156:143 157:162 158:196 159:255 160:255 161:255 162:255 163:236 164:214 165:184 166:139 167:90 168:48 169:19 170:28 171:60 172:90 173:112 174:134 175:153 176:169 177:182 178:208 179:255 180:255 181:255 182:255 183:240 184:220 185:189 186:143 187:93 188:51 189:19 190:23 191:56 192:85 193:103 194:120 195:135 196:149 197:167 198:201 199:255 200:255 201:255 202:255 203:240 204:220 205:189 206:145 207:98 208:54 209:17 210:12 211:34 212:55 213:70 214:82 215:91 216:104 217:126 218:176 219:255 220:255 221:255 222:255 223:236 224:214 225:186 226:149 227:105 228:59 229:19 230:4 231:9 232:19 233:35 234:46 235:57 236:75 237:105 238:163 239:255 240:255 241:255 242:255 243:231 244:211 245:190 246:156 247:112 248:66 249:22 250:2 251:3 252:10 253:24 254:39 255:52 256:73 257:105 258:163 259:255 260:255 261:255 262:255 263:222 264:207 265:193 266:162 267:118 268:72 269:27 270:3 271:7 272:25 273:45 274:63 275:78 276:98 277:129 278:179 279:255 280:255 281:255 282:255 283:213 284:203 285:194 286:166 287:124 288:78 289:35 290:8 291:19 292:48 293:76 294:101 295:121 296:144 297:172 298:211 299:255 300:255 301:255 302:255 303:202 304:198 305:195 306:170 307:130 308:83 309:41 310:14 311:31 312:65 313:101 314:137 315:168 316:194 317:218 318:238 319:255 320:255 321:255 322:255 323:185 324:184 325:193 326:174 327:136 328:89 329:46 330:20 331:36 332:73 333:115 334:162 335:203 336:232 337:245 338:250 339:255 340:255 341:255 342:255 343:163 344:158 345:181 346:176 347:143 348:96 349:54 350:26 351:39 352:75 353:122 354:176 355:222 356:246 357:251 358:252 359:255 360:255 361:255 362:255 363:141 364:129 365:161 366:170 367:146 368:101 369:63 370:37 371:45 372:79 373:128 374:189 375:233 376:250 377:253 378:254 379:255 380:255 381:255 382:255 383:121 384:99 385:134 386:154 387:142 388:105 389:72 390:48 391:51 392:88 393:138 394:201 395:241 396:253 397:254 398:255 399:255 400:255 
-5.973630860693967e-06 1:255 2:255 3:253 4:229 5:199 6:181 7:179 8:184 9:191 10:208 11:223 12:233 13:227 14:219 15:203 16:186 17:171 18:185 19:255 20:255 21:255 22:255 23:230 24:188 25:152 26:132 27:129 28:138 29:155 30:193 31:222 32:238 33:240 34:239 35:224 36:203 37:184 38:192 39:255 40:255 41:255 42:255 43:207 44:155 45:114 46:90 47:86 48:100 49:126 50:165 51:209 52:233 53:246 54:250 55:239 56:214 57:184 58:187 59:255 60:255 61:255 62:255 63:187 64:128 65:87 66:62 67:56 68:70 69:103 70:142 71:192 72:223 73:238 74:244 75:242 76:219 77:182 78:181 79:255 80:255 81:255 82:255 83:174 84:113 85:73 86:48 87:41 88:55 89:89 90:132 91:179 92:210 93:225 94:235 95:238 96:222 97:184 98:177 99:255 100:255 101:255 102:255 103:172 104:111 105:70 106:42 107:34 108:48 109:81 110:124 111:167 112:196 113:215 114:230 115:235 116:222 117:186 118:175 119:255 120:255 121:255 122:255 123:178 124:116 125:73 126:41 127:30 128:45 129:75 130:115 131:154 132:188 133:215 134:235 135:239 136:224 137:187 138:176 139:255 140:255 141:255 142:255 143:186 144:124 145:78 146:44 147:29 148:40 149:69 150:109 151:146 152:189 153:227 154:247 155:248 156:229 157:191 158:182 159:255 160:255 161:255 162:255 163:190 164:128 165:82 166:46 167:27 168:34 169:67 170:107 171:147 172:198 173:234 174:251 175:253 176:236 177:199 178:190 179:255 180:255 181:255 182:255 183:190 184:129 185:82 186:46 187:24 188:28 189:63 190:103 191:151 192:199 193:241 194:254 195:253 196:235 197:201 198:194 199:255 200:255 201:255 202:255 203:190 204:131 205:85 206:47 207:23 208:25 209:60 210:101 211:151 212:199 213:241 214:254 215:244 216:223 217:197 218:196 219:255 220:255 221:255 222:255 223:190 224:133 225:87 226:50 227:26 228:23 229:55 230:96 231:146 232:205 233:243 234:252 235:243 236:222 237:198 238:200 239:255 240:255 241:255 242:255 243:193 244:139 245:93 246:53 247:26 248:20 249:53 250:93 251:135 252:190 253:223 254:231 255:229 256:218 257:199 258:202 259:255 260:255 261:255 262:255 263:194 264:141 265:95 266:54 267:25 268:18 269:48 270:85 271:123 272:154 273:177 274:186 275:189 276:192 277:189 278:201 279:255 280:255 281:255 282:255 283:189 284:137 285:93 286:51 287:22 288:12 289:31 290:65 291:95 292:110 293:121 294:128 295:139 296:153 297:166 298:194 299:255 300:255 301:255 302:255 303:178 304:129 305:89 306:49 307:19 308:6 309:13 310:34 311:56 312:66 313:70 314:78 315:94 316:117 317:140 318:181 319:255 320:255 321:255 322:255 323:167 324:122 325:89 326:51 327:21 328:4 329:4 330:9 331:22 332:28 333:32 334:44 335:64 336:93 337:123 338:167 339:255 340:255 341:255 342:255 343:161 344:118 345:93 346:60 347:31 348:12 349:6 350:6 351:8 352:13 353:19 354:35 355:57 356:87 357:118 358:165 359:255 360:255 361:255 362:255 363:153 364:114 365:98 366:74 367:53 368:39 369:27 370:25 371:27 372:38 373:48 374:59 375:78 376:105 377:132 378:174 379:255 380:255 381:255 382:255 383:135 384:102 385:101 386:93 387:84 388:78 389:74 390:74 391:75 392:79 393:86 394:99 395:119 396:138 397:160 398:200 399:255 400:255 
-1.471380269273061e-06 1:255 2:255 3:255 4:254 5:252 6:250 7:248 8:245 9:243 10:240 11:236 12:231 13:227 14:227 15:232 16:235 17:230 18:233 19:255 20:255 21:255 22:255 23:254 24:253 25:251 26:246 27:238 28:221 29:198 30:188 31:179 32:177 33:186 34:200 35:218 36:230 37:233 38:238 39:255 40:255 41:255 42:255 43:253 44:250 45:246 46:231 47:202 48:165 49:135 50:124 51:112 52:120 53:129 54:150 55:177 56:204 57:223 58:236 59:255 60:255 61:255 62:255 63:250 64:245 65:228 66:194 67:151 68:111 69:75 70:50 71:44 72:55 73:70 74:97 75:130 76:165 77:198 78:227 79:255 80:255 81:255 82:255 83:247 84:234 85:200 86:149 87:101 88:61 89:27 90:19 91:24 92:23 93:26 94:46 95:83 96:125 97:166 98:209 99:255 100:255 101:255 102:255 103:241 104:214 105:167 106:110 107:62 108:32 109:29 110:49 111:61 112:50 113:32 114:25 115:48 116:91 117:135 118:188 119:255 120:255 121:255 122:255 123:233 124:192 125:137 126:83 127:44 128:39 129:75 130:107 131:120 132:107 133:79 134:43 135:33 136:61 137:108 138:169 139:255 140:255 141:255 142:255 143:224 144:173 145:117 146:67 147:46 148:69 149:117 150:153 151:168 152:152 153:119 154:73 155:34 156:40 157:86 158:154 159:255 160:255 161:255 162:255 163:210 164:158 165:104 166:60 167:52 168:86 169:134 170:182 171:204 172:185 173:146 174:95 175:45 176:36 177:73 178:146 179:255 180:255 181:255 182:255 183:205 184:151 185:95 186:55 187:54 188:93 189:147 190:190 191:218 192:197 193:160 194:110 195:57 196:38 197:69 198:144 199:255 200:255 201:255 202:255 203:205 204:151 205:95 206:55 207:54 208:94 209:151 210:198 211:221 212:209 213:169 214:120 215:67 216:41 217:62 218:140 219:255 220:255 221:255 222:255 223:207 224:154 225:96 226:51 227:47 228:90 229:145 230:194 231:221 232:210 233:168 234:115 235:59 236:36 237:63 238:143 239:255 240:255 241:255 242:255 243:211 244:157 245:97 246:45 247:35 248:79 249:134 250:186 251:216 252:197 253:158 254:106 255:50 256:30 257:65 258:145 259:255 260:255 261:255 262:255 263:214 264:163 265:103 266:43 267:23 268:63 269:116 270:163 271:190 272:176 273:138 274:88 275:40 276:33 277:74 278:149 279:255 280:255 281:255 282:255 283:220 284:174 285:119 286:57 287:19 288:33 289:83 290:128 291:148 292:139 293:108 294:63 295:33 296:46 297:94 298:162 299:255 300:255 301:255 302:255 303:224 304:187 305:141 306:85 307:34 308:14 309:39 310:82 311:95 312:90 313:70 314:42 315:39 316:71 317:120 318:180 319:255 320:255 321:255 322:255 323:222 324:199 325:165 326:117 327:69 328:32 329:21 330:38 331:45 332:45 333:44 334:44 335:65 336:105 337:152 338:203 339:255 340:255 341:255 342:255 343:210 344:203 345:189 346:152 347:113 348:81 349:54 350:33 351:32 352:35 353:55 354:76 355:106 356:147 357:190 358:227 359:255 360:255 361:255 362:255 363:188 364:190 365:200 366:184 367:158 368:132 369:111 370:93 371:89 372:93 373:106 374:124 375:153 376:192 377:224 378:242 379:255 380:255 381:255 382:255 383:164 384:163 385:192 386:200 387:191 388:175 389:161 390:151 391:149 392:153 393:162 394:177 395:204 396:229 397:241 398:247 399:255 400:255 
-2.874546887453661e-06 1:255 2:255 3:227 4:228 5:238 6:244 7:245 8:242 9:243 10:247 11:247 12:239 13:230 14:221 15:205 16:185 17:169 18:183 19:255 20:255 21:255 22:255 23:233 24:231 25:237 26:237 27:232 28:221 29:211 30:212 31:222 32:208 33:199 34:197 35:198 36:200 37:198 38:209 39:255 40:255 41:255 42:255 43:234 44:228 45:226 46:213 47:194 48:177 49:170 50:169 51:171 52:167 53:166 54:170 55:182 56:201 57:218 58:231 59:255 60:255 61:255 62:255 63:231 64:214 65:196 66:173 67:151 68:136 69:128 70:122 71:118 72:120 73:128 74:137 75:153 76:178 77:204 78:231 79:255 80:255 81:255 82:255 83:228 84:200 85:171 86:141 87:113 88:91 89:82 90:75 91:69 92:69 93:82 94:98 95:120 96:146 97:174 98:212 99:255 100:255 101:255 102:255 103:227 104:192 105:157 106:121 107:82 108:49 109:37 110:36 111:38 112:39 113:46 114:60 115:83 116:111 117:143 118:190 119:255 120:255 121:255 122:255 123:227 124:188 125:151 126:110 127:64 128:24 129:14 130:29 131:45 132:48 133:44 134:43 135:54 136:81 137:118 138:172 139:255 140:255 141:255 142:255 143:227 144:187 145:148 146:106 147:60 148:23 149:23 150:60 151:79 152:87 153:74 154:56 155:47 156:63 157:98 158:159 159:255 160:255 161:255 162:255 163:228 164:188 165:147 166:106 167:62 168:33 169:44 170:81 171:108 172:117 173:100 174:73 175:52 176:53 177:84 178:152 179:255 180:255 181:255 182:255 183:234 184:193 185:151 186:109 187:64 188:35 189:50 190:89 191:119 192:123 193:108 194:77 195:48 196:47 197:80 198:149 199:255 200:255 201:255 202:255 203:237 204:199 205:156 206:112 207:66 208:32 209:40 210:80 211:107 212:116 213:97 214:66 215:33 216:36 217:77 218:149 219:255 220:255 221:255 222:255 223:234 224:198 225:158 226:115 227:65 228:21 229:16 230:53 231:75 232:83 233:65 234:38 235:24 236:42 237:85 238:155 239:255 240:255 241:255 242:255 243:231 244:196 245:159 246:118 247:67 248:18 249:6 250:17 251:29 252:36 253:24 254:18 255:35 256:68 257:105 258:164 259:255 260:255 261:255 262:255 263:228 264:195 265:161 266:120 267:71 268:24 269:3 270:4 271:10 272:21 273:25 274:40 275:68 276:100 277:131 278:178 279:255 280:255 281:255 282:255 283:222 284:194 285:162 286:122 287:76 288:31 289:5 290:11 291:34 292:52 293:66 294:87 295:110 296:135 297:160 298:197 299:255 300:255 301:255 302:255 303:216 304:192 305:164 306:125 307:80 308:36 309:12 310:37 311:75 312:101 313:119 314:135 315:153 316:175 317:196 318:221 319:255 320:255 321:255 322:255 323:211 324:190 325:166 326:128 327:83 328:41 329:25 330:68 331:108 332:141 333:166 334:183 335:199 336:216 337:230 338:241 339:255 340:255 341:255 342:255 343:204 344:184 345:166 346:131 347:88 348:51 349:44 350:84 351:127 352:167 353:203 354:229 355:240 356:243 357:246 358:250 359:255 360:255 361:255 362:255 363:194 364:173 365:161 366:133 367:96 368:64 369:61 370:95 371:136 372:184 373:228 374:249 375:254 376:254 377:252 378:251 379:255 380:255 381:255 382:255 383:188 384:163 385:154 386:136 387:108 388:83 389:83 390:110 391:146 392:192 393:235 394:252 395:254 396:252 397:250 398:251 399:255 400:255 
-5.559090332496148e-06 1:255 2:255 3:251 4:248 5:245 6:244 7:247 8:253 9:254 10:255 11:254 12:252 13:250 14:245 15:235 16:217 17:192 18:192 19:255 20:255 21:255 22:255 23:245 24:237 25:229 26:225 27:230 28:240 29:247 30:252 31:248 32:241 33:236 34:230 35:225 36:222 37:221 38:228 39:255 40:255 41:255 42:255 43:234 44:206 45:178 46:166 47:178 48:206 49:234 50:241 51:237 52:220 53:194 54:175 55:175 56:196 57:220 58:237 59:255 60:255 61:255 62:255 63:214 64:163 65:122 66:109 67:126 68:165 69:211 70:229 71:223 72:183 73:142 74:119 75:126 76:155 77:194 78:230 79:255 80:255 81:255 82:255 83:195 84:131 85:80 86:64 87:89 88:138 89:194 90:220 91:206 92:149 93:97 94:74 95:84 96:118 97:167 98:218 99:255 100:255 101:255 102:255 103:184 104:116 105:61 106:41 107:68 108:124 109:181 110:215 111:195 112:133 113:75 114:44 115:55 116:98 117:152 118:209 119:255 120:255 121:255 122:255 123:179 124:110 125:57 126:37 127:63 128:117 129:172 130:211 131:188 132:130 133:73 134:33 135:45 136:93 137:150 138:208 139:255 140:255 141:255 142:255 143:177 144:106 145:52 146:36 147:66 148:117 149:168 150:203 151:181 152:126 153:71 154:37 155:49 156:95 157:152 158:210 159:255 160:255 161:255 162:255 163:181 164:105 165:46 166:32 167:67 168:122 169:175 170:206 171:175 172:120 173:66 174:35 175:51 176:99 177:153 178:206 179:255 180:255 181:255 182:255 183:181 184:109 185:55 186:41 187:72 188:129 189:187 190:214 191:183 192:116 193:61 194:27 195:50 196:104 197:159 198:212 199:255 200:255 201:255 202:255 203:181 204:112 205:62 206:48 207:76 208:130 209:186 210:208 211:173 212:115 213:57 214:21 215:44 216:104 217:162 218:214 219:255 220:255 221:255 222:255 223:177 224:107 225:58 226:47 227:80 228:134 229:185 230:203 231:166 232:112 233:60 234:32 235:51 236:101 237:158 238:212 239:255 240:255 241:255 242:255 243:172 244:98 245:45 246:36 247:76 248:135 249:185 250:199 251:161 252:108 253:54 254:31 255:52 256:101 257:157 258:212 259:255 260:255 261:255 262:255 263:167 264:92 265:40 266:32 267:72 268:126 269:171 270:186 271:150 272:100 273:41 274:17 275:47 276:105 277:162 278:215 279:255 280:255 281:255 282:255 283:166 284:91 285:40 286:27 287:59 288:106 289:142 290:153 291:127 292:82 293:28 294:16 295:54 296:114 297:171 298:219 299:255 300:255 301:255 302:255 303:173 304:99 305:45 306:21 307:35 308:73 309:101 310:112 311:92 312:57 313:19 314:28 315:71 316:127 317:180 318:223 319:255 320:255 321:255 322:255 323:184 324:118 325:64 326:23 327:12 328:33 329:54 330:68 331:46 332:28 333:20 334:49 335:95 336:148 337:195 338:227 339:255 340:255 341:255 342:255 343:192 344:142 345:95 346:47 347:14 348:11 349:21 350:30 351:14 352:17 353:42 354:82 355:128 356:180 357:217 358:233 359:255 360:255 361:255 362:255 363:203 364:163 365:127 366:90 367:58 368:38 369:37 370:37 371:38 372:62 373:92 374:125 375:173 376:217 377:236 378:241 379:255 380:255 381:255 382:255 383:203 384:183 385:160 386:132 387:112 388:97 389:94 390:91 391:98 392:118 393:143 394:183 395:218 396:236 397:241 398:245 399:255 400:255 
-5.942203301581644e-06 1:255 2:255 3:245 4:241 5:238 6:237 7:241 8:248 9:251 10:254 11:255 12:254 13:248 14:238 15:228 16:217 17:209 18:223 19:255 20:255 21:255 22:255 23:241 24:233 25:226 26:221 27:225 28:235 29:244 30:252 31:252 32:250 33:240 34:223 35:201 36:186 37:185 38:207 39:255 40:255 41:255 42:255 43:236 44:213 45:193 46:183 47:190 48:212 49:236 50:247 51:250 52:247 53:233 54:204 55:167 56:142 57:148 58:191 59:255 60:255 61:255 62:255 63:231 64:197 65:160 66:141 67:156 68:192 69:229 70:243 71:247 72:242 73:226 74:188 75:140 76:109 77:119 78:175 79:255 80:255 81:255 82:255 83:226 84:186 85:140 86:117 87:133 88:174 89:214 90:235 91:238 92:232 93:210 94:172 95:124 96:93 97:102 98:163 99:255 100:255 101:255 102:255 103:220 104:177 105:132 106:107 107:119 108:159 109:196 110:215 111:214 112:208 113:189 114:156 115:114 116:85 117:94 118:157 119:255 120:255 121:255 122:255 123:217 124:174 125:132 126:102 127:107 128:144 129:175 130:182 131:174 132:167 133:160 134:140 135:104 136:79 137:90 138:153 139:255 140:255 141:255 142:255 143:217 144:177 145:133 146:97 147:95 148:125 149:146 150:144 151:125 152:118 153:123 154:116 155:92 156:72 157:85 158:150 159:255 160:255 161:255 162:255 163:217 164:178 165:130 166:89 167:83 168:105 169:120 170:108 171:72 172:66 173:82 174:88 175:75 176:63 177:78 178:146 179:255 180:255 181:255 182:255 183:220 184:179 185:124 186:78 187:66 188:79 189:87 190:67 191:34 192:35 193:57 194:67 195:63 196:59 197:76 198:142 199:255 200:255 201:255 202:255 203:220 204:179 205:124 206:75 207:56 208:57 209:56 210:37 211:17 212:22 213:35 214:50 215:52 216:53 217:73 218:138 219:255 220:255 221:255 222:255 223:222 224:182 225:129 226:76 227:45 228:35 229:30 230:18 231:8 232:11 233:25 234:34 235:37 236:46 237:72 238:141 239:255 240:255 241:255 242:255 243:226 244:189 245:140 246:83 247:40 248:22 249:14 250:8 251:9 252:13 253:21 254:24 255:26 256:37 257:70 258:145 259:255 260:255 261:255 262:255 263:228 264:195 265:152 266:96 267:43 268:14 269:5 270:9 271:24 272:29 273:27 274:17 275:12 276:26 277:69 278:150 279:255 280:255 281:255 282:255 283:229 284:200 285:161 286:106 287:50 288:15 289:5 290:21 291:49 292:58 293:47 294:25 295:13 296:25 297:68 298:152 299:255 300:255 301:255 302:255 303:224 304:201 305:167 306:113 307:57 308:22 309:15 310:39 311:75 312:92 313:75 314:44 315:25 316:33 317:72 318:152 319:255 320:255 321:255 322:255 323:212 324:195 325:170 326:122 327:70 328:36 329:33 330:61 331:104 332:124 333:108 334:73 335:49 336:52 337:86 338:159 339:255 340:255 341:255 342:255 343:195 344:182 345:169 346:133 347:92 348:63 349:62 350:94 351:140 352:155 353:147 354:116 355:93 356:91 357:115 358:176 359:255 360:255 361:255 362:255 363:171 364:162 365:168 366:151 367:123 368:105 369:113 370:142 371:174 372:188 373:184 374:164 375:149 376:148 377:164 378:202 379:255 380:255 381:255 382:255 383:147 384:132 385:157 386:166 387:161 388:156 389:165 390:180 391:199 392:215 393:211 394:200 395:192 396:194 397:208 398:232 399:255 400:255 
-1.707736774096642e-06 1:255 2:255 3:248 4:250 5:249 6:249 7:253 8:254 9:252 10:252 11:255 12:255 13:248 14:239 15:228 16:214 17:203 18:214 19:255 20:255 21:255 22:255 23:239 24:231 25:226 26:225 27:231 28:239 29:243 30:244 31:252 32:252 33:244 34:233 35:224 36:216 37:212 38:225 39:255 40:255 41:255 42:255 43:231 44:210 45:192 46:188 47:201 48:222 49:235 50:242 51:247 52:244 53:234 54:218 55:201 56:194 57:200 58:221 59:255 60:255 61:255 62:255 63:220 64:184 65:156 66:151 67:174 68:207 69:229 70:238 71:242 72:238 73:222 74:195 75:166 76:156 77:172 78:210 79:255 80:255 81:255 82:255 83:214 84:168 85:133 86:125 87:152 88:194 89:223 90:233 91:237 92:231 93:212 94:173 95:135 96:122 97:145 98:194 99:255 100:255 101:255 102:255 103:211 104:159 105:119 106:110 107:138 108:181 109:213 110:225 111:227 112:219 113:198 114:156 115:114 116:102 117:127 118:183 119:255 120:255 121:255 122:255 123:209 124:154 125:109 126:100 127:129 128:168 129:197 130:204 131:202 132:194 133:177 134:141 135:102 136:91 137:120 138:180 139:255 140:255 141:255 142:255 143:207 144:151 145:104 146:93 147:119 148:153 149:170 150:166 151:160 152:154 153:148 154:125 155:94 156:86 157:115 158:177 159:255 160:255 161:255 162:255 163:205 164:146 165:99 166:85 167:103 168:127 169:129 170:112 171:105 172:110 173:115 174:106 175:86 176:83 177:111 178:174 179:255 180:255 181:255 182:255 183:202 184:143 185:94 186:74 187:84 188:99 189:87 190:63 191:56 192:69 193:87 194:84 195:74 196:77 197:106 198:172 199:255 200:255 201:255 202:255 203:198 204:136 205:84 206:59 207:61 208:64 209:55 210:33 211:31 212:46 213:66 214:71 215:65 216:72 217:104 218:168 219:255 220:255 221:255 222:255 223:193 224:128 225:74 226:43 227:38 228:40 229:31 230:18 231:17 232:30 233:46 234:52 235:55 236:70 237:104 238:168 239:255 240:255 241:255 242:255 243:189 244:122 245:68 246:34 247:22 248:20 249:17 250:6 251:6 252:20 253:33 254:41 255:48 256:69 257:110 258:173 259:255 260:255 261:255 262:255 263:188 264:121 265:65 266:27 267:10 268:8 269:10 270:11 271:11 272:16 273:22 274:30 275:45 276:78 277:123 278:179 279:255 280:255 281:255 282:255 283:190 284:122 285:66 286:25 287:6 288:9 289:21 290:30 291:28 292:19 293:17 294:25 295:47 296:88 297:138 298:190 299:255 300:255 301:255 302:255 303:193 304:126 305:70 306:30 307:13 308:21 309:44 310:57 311:50 312:31 313:20 314:25 315:50 316:98 317:151 318:202 319:255 320:255 321:255 322:255 323:195 324:133 325:77 326:39 327:29 328:44 329:77 330:92 331:80 332:52 333:32 334:32 335:57 336:106 337:162 338:210 339:255 340:255 341:255 342:255 343:197 344:140 345:91 346:58 347:56 348:81 349:117 350:135 351:121 352:82 353:53 354:49 355:72 356:120 357:173 358:216 359:255 360:255 361:255 362:255 363:202 364:156 365:120 366:96 367:97 368:125 369:158 370:176 371:161 372:122 373:88 374:79 375:101 376:144 377:188 378:222 379:255 380:255 381:255 382:255 383:206 384:180 385:163 386:149 387:150 388:169 389:197 390:208 391:200 392:166 393:140 394:132 395:145 396:174 397:207 398:233 399:255 400:255 
-6.610464920776836e-06 1:255 2:255 3:255 4:255 5:253 6:251 7:251 8:251 9:252 10:255 11:255 12:245 13:236 14:228 15:222 16:219 17:218 18:229 19:255 20:255 21:255 22:255 23:244 24:238 25:234 26:234 27:238 28:242 29:245 30:252 31:252 32:239 33:228 34:213 35:206 36:209 37:219 38:233 39:255 40:255 41:255 42:255 43:234 44:216 45:206 46:210 47:224 48:235 49:242 50:251 51:245 52:232 53:211 54:181 55:164 56:176 57:205 58:230 59:255 60:255 61:255 62:255 63:221 64:181 65:162 66:174 67:204 68:226 69:239 70:251 71:242 72:227 73:197 74:154 75:132 76:147 77:184 78:223 79:255 80:255 81:255 82:255 83:208 84:156 85:130 86:142 87:177 88:212 89:232 90:241 91:235 92:219 93:183 94:135 95:109 96:122 97:164 98:213 99:255 100:255 101:255 102:255 103:197 104:141 105:110 106:117 107:156 108:199 109:219 110:225 111:221 112:204 113:166 114:122 115:94 116:107 117:151 118:204 119:255 120:255 121:255 122:255 123:191 124:134 125:97 126:101 127:142 128:181 129:199 130:196 131:189 132:178 133:149 134:113 135:88 136:99 137:143 138:198 139:255 140:255 141:255 142:255 143:192 144:133 145:94 146:92 147:124 148:156 149:168 150:150 151:137 152:140 153:134 154:105 155:81 156:92 157:134 158:190 159:255 160:255 161:255 162:255 163:195 164:131 165:85 166:77 167:102 168:130 169:126 170:106 171:85 172:110 173:119 174:96 175:74 176:82 177:122 178:185 179:255 180:255 181:255 182:255 183:201 184:134 185:79 186:63 187:84 188:102 189:88 190:60 191:50 192:75 193:95 194:87 195:72 196:81 197:120 198:181 199:255 200:255 201:255 202:255 203:201 204:139 205:82 206:56 207:63 208:72 209:59 210:34 211:29 212:49 213:70 214:73 215:66 216:77 217:115 218:178 219:255 220:255 221:255 222:255 223:201 224:142 225:84 226:49 227:42 228:41 229:32 230:17 231:13 232:30 233:49 234:54 235:53 236:70 237:112 238:178 239:255 240:255 241:255 242:255 243:203 244:145 245:86 246:42 247:24 248:19 249:14 250:9 251:8 252:17 253:31 254:39 255:47 256:69 257:113 258:181 259:255 260:255 261:255 262:255 263:207 264:152 265:92 266:39 267:12 268:7 269:6 270:12 271:16 272:18 273:23 274:29 275:38 276:68 277:119 278:184 279:255 280:255 281:255 282:255 283:215 284:161 285:100 286:43 287:9 288:4 289:8 290:25 291:33 292:29 293:23 294:23 295:33 296:67 297:124 298:189 299:255 300:255 301:255 302:255 303:221 304:169 305:108 306:51 307:15 308:8 309:21 310:48 311:60 312:50 313:33 314:25 315:34 316:70 317:127 318:191 319:255 320:255 321:255 322:255 323:219 324:174 325:116 326:60 327:25 328:19 329:42 330:79 331:97 332:85 333:58 334:39 335:42 336:77 337:131 338:192 339:255 340:255 341:255 342:255 343:214 344:177 345:128 346:74 347:42 348:42 349:68 350:112 351:139 352:126 353:93 354:66 355:66 356:95 357:141 358:197 359:255 360:255 361:255 362:255 363:207 364:179 365:146 366:104 367:77 368:78 369:105 370:148 371:174 372:158 373:136 374:113 375:111 376:131 377:163 378:208 379:255 380:255 381:255 382:255 383:194 384:180 385:166 386:143 387:130 388:131 389:150 390:190 391:203 392:199 393:187 394:170 395:169 396:183 397:201 398:224 399:255 400:255 
-1.407351739885535e-06 1:255 2:255 3:255 4:252 5:248 6:244 7:244 8:251 9:255 10:255 11:255 12:250 13:244 14:238 15:233 16:225 17:215 18:219 19:255 20:255 21:255 22:255 23:251 24:241 25:230 26:221 27:220 28:230 29:241 30:250 31:252 32:247 33:239 34:232 35:220 36:206 37:198 38:213 39:255 40:255 41:255 42:255 43:245 44:227 45:204 46:181 47:178 48:203 49:227 50:242 51:246 52:242 53:233 54:217 55:194 56:170 57:161 58:192 59:255 60:255 61:255 62:255 63:238 64:211 65:175 66:146 67:144 68:173 69:212 70:235 71:241 72:236 73:225 74:203 75:168 76:137 77:130 78:171 79:255 80:255 81:255 82:255 83:233 84:198 85:155 86:123 87:124 88:158 89:202 90:228 91:234 92:229 93:215 94:187 95:149 96:113 97:105 98:157 99:255 100:255 101:255 102:255 103:230 104:191 105:146 106:113 107:115 108:153 109:196 110:218 111:220 112:213 113:201 114:171 115:135 116:99 117:90 118:147 119:255 120:255 121:255 122:255 123:228 124:188 125:143 126:109 127:109 128:144 129:183 130:199 131:190 132:181 133:175 134:155 135:124 136:91 137:83 138:141 139:255 140:255 141:255 142:255 143:227 144:187 145:141 146:103 147:98 148:130 149:158 150:169 151:147 152:137 153:137 154:134 155:111 156:83 157:80 158:138 159:255 160:255 161:255 162:255 163:225 164:185 165:138 166:96 167:86 168:113 169:133 170:125 171:105 172:94 173:104 174:109 175:91 176:71 177:76 178:137 179:255 180:255 181:255 182:255 183:223 184:179 185:130 186:88 187:71 188:83 189:101 190:86 191:62 192:53 193:66 194:78 195:75 196:65 197:68 198:130 199:255 200:255 201:255 202:255 203:223 204:177 205:123 206:76 207:57 208:65 209:68 210:54 211:33 212:28 213:44 214:60 215:62 216:54 217:60 218:126 219:255 220:255 221:255 222:255 223:220 224:173 225:119 226:68 227:40 228:38 229:37 230:29 231:15 232:13 233:25 234:37 235:42 236:44 237:60 238:130 239:255 240:255 241:255 242:255 243:217 244:174 245:124 246:70 247:31 248:18 249:15 250:9 251:11 252:11 253:16 254:21 255:28 256:39 257:65 258:137 259:255 260:255 261:255 262:255 263:214 264:176 265:132 266:76 267:30 268:10 269:5 270:9 271:20 272:21 273:17 274:16 275:22 276:41 277:77 278:149 279:255 280:255 281:255 282:255 283:211 284:179 285:139 286:83 287:33 288:9 289:5 290:23 291:42 292:44 293:31 294:19 295:21 296:43 297:85 298:158 299:255 300:255 301:255 302:255 303:208 304:181 305:144 306:88 307:37 308:14 309:18 310:44 311:70 312:72 313:53 314:31 315:26 316:46 317:90 318:163 319:255 320:255 321:255 322:255 323:206 324:179 325:146 326:94 327:46 328:26 329:37 330:68 331:101 332:104 333:81 334:50 335:37 336:53 337:95 338:168 339:255 340:255 341:255 342:255 343:203 344:179 345:151 346:108 347:68 348:49 349:62 350:97 351:135 352:142 353:114 354:79 355:60 356:71 357:109 358:175 359:255 360:255 361:255 362:255 363:200 364:181 365:163 366:134 367:107 368:91 369:108 370:142 371:166 372:174 373:154 374:122 375:105 376:115 377:146 378:192 379:255 380:255 381:255 382:255 383:197 384:178 385:174 386:162 387:149 388:148 389:159 390:187 391:196 392:200 393:191 394:168 395:154 396:163 397:186 398:215 399:255 400:255 
-2.966744736594224e-05 1:255 2:255 3:227 4:238 5:251 6:251 7:245 8:241 9:250 10:255 11:255 12:241 13:222 14:202 15:182 16:160 17:138 18:159 19:255 20:255 21:255 22:255 23:237 24:235 25:237 26:227 27:214 28:215 29:227 30:253 31:253 32:237 33:216 34:197 35:181 36:164 37:150 38:173 39:255 40:255 41:255 42:255 43:225 44:201 45:185 46:171 47:165 48:171 49:189 50:221 51:248 52:236 53:203 54:175 55:155 56:141 57:135 58:168 59:255 60:255 61:255 62:255 63:207 64:168 65:140 66:122 67:118 68:126 69:148 70:181 71:215 72:209 73:176 74:143 75:120 76:107 77:106 78:149 79:255 80:255 81:255 82:255 83:193 84:145 85:110 86:85 87:76 88:85 89:111 90:145 91:176 92:176 93:148 94:114 95:87 96:73 97:78 98:132 99:255 100:255 101:255 102:255 103:190 104:137 105:98 106:67 107:49 108:54 109:79 110:115 111:147 112:148 113:123 114:88 115:61 116:52 117:65 118:128 119:255 120:255 121:255 122:255 123:197 124:145 125:103 126:67 127:41 128:34 129:54 130:89 131:120 132:122 133:97 134:64 135:43 136:44 137:68 138:134 139:255 140:255 141:255 142:255 143:206 144:160 145:118 146:77 147:43 148:26 149:37 150:66 151:92 152:92 153:71 154:45 155:33 156:47 157:79 158:144 159:255 160:255 161:255 162:255 163:215 164:176 165:135 166:94 167:57 168:30 169:23 170:44 171:62 172:62 173:46 174:27 175:30 176:57 177:95 178:154 179:255 180:255 181:255 182:255 183:227 184:194 185:156 186:115 187:75 188:40 189:18 190:22 191:32 192:30 193:17 194:16 195:37 196:73 197:112 198:169 199:255 200:255 201:255 202:255 203:239 204:207 205:170 206:131 207:91 208:52 209:21 210:11 211:9 212:7 213:8 214:20 215:52 216:91 217:128 218:182 219:255 220:255 221:255 222:255 223:239 224:216 225:186 226:151 227:113 228:73 229:35 230:11 231:3 232:2 233:8 234:33 235:72 236:114 237:154 238:201 239:255 240:255 241:255 242:255 243:239 244:221 245:198 246:166 247:130 248:91 249:50 250:15 251:3 252:3 253:18 254:52 255:92 256:133 257:175 258:216 259:255 260:255 261:255 262:255 263:239 264:230 265:210 266:181 267:150 268:113 269:71 270:30 271:7 272:9 273:34 274:74 275:115 276:157 277:198 278:232 279:255 280:255 281:255 282:255 283:239 284:239 285:229 286:201 287:167 288:131 289:90 290:49 291:15 292:16 293:49 294:90 295:132 296:175 297:214 298:241 299:255 300:255 301:255 302:255 303:230 304:240 305:244 306:219 307:179 308:144 309:102 310:64 311:25 312:23 313:57 314:98 315:144 316:191 317:228 318:246 319:255 320:255 321:255 322:255 323:211 324:227 325:247 326:229 327:192 328:154 329:111 330:73 331:34 332:28 333:61 334:102 335:150 336:203 337:239 338:251 339:255 340:255 341:255 342:255 343:188 344:202 345:233 346:230 347:202 348:163 349:121 350:77 351:38 352:34 353:64 354:105 355:152 356:203 357:239 358:251 359:255 360:255 361:255 362:255 363:167 364:166 365:199 366:214 367:201 368:167 369:126 370:81 371:48 372:45 373:71 374:112 375:156 376:204 377:240 378:251 379:255 380:255 381:255 382:255 383:146 384:137 385:173 386:194 387:193 388:170 389:132 390:95 391:68 392:64 393:84 394:122 395:167 396:212 397:243 398:254 399:255 400:255 
-5.685482043882843e-06 1:255 2:255 3:242 4:242 5:248 6:252 7:253 8:255 9:255 10:252 11:244 12:238 13:224 14:205 15:181 16:154 17:129 18:149 19:255 20:255 21:255 22:255 23:242 24:231 25:222 26:221 27:225 28:229 29:240 30:239 31:238 32:237 33:227 34:211 35:188 36:162 37:144 38:168 39:255 40:255 41:255 42:255 43:225 44:199 45:179 46:168 47:170 48:182 49:200 50:214 51:224 52:227 53:215 54:189 55:163 56:142 57:130 58:162 59:255 60:255 61:255 62:255 63:204 64:165 65:138 66:122 67:123 68:136 69:160 70:185 71:204 72:206 73:188 74:155 75:127 76:108 77:102 78:145 79:255 80:255 81:255 82:255 83:190 84:142 85:110 86:88 87:82 88:94 89:122 90:154 91:180 92:181 93:157 94:122 95:92 96:74 97:75 98:129 99:255 100:255 101:255 102:255 103:189 104:136 105:99 106:69 107:54 108:61 109:87 110:122 111:149 112:152 113:128 114:94 115:65 116:52 117:60 118:122 119:255 120:255 121:255 122:255 123:196 124:144 125:102 126:66 127:42 128:38 129:58 130:90 131:116 132:119 133:99 134:70 135:47 136:43 137:60 138:123 139:255 140:255 141:255 142:255 143:206 144:158 145:115 146:75 147:42 148:25 149:34 150:61 151:83 152:84 153:69 154:49 155:36 156:44 157:70 158:133 159:255 160:255 161:255 162:255 163:220 164:175 165:132 166:92 167:54 168:26 169:20 170:35 171:51 172:52 173:41 174:30 175:34 176:56 177:87 178:145 179:255 180:255 181:255 182:255 183:229 184:195 185:153 186:111 187:73 188:38 189:12 190:12 191:21 192:21 193:17 194:20 195:40 196:71 197:103 198:157 199:255 200:255 201:255 202:255 203:241 204:210 205:169 206:128 207:88 208:48 209:16 210:6 211:7 212:7 213:9 214:25 215:56 216:91 217:123 218:171 219:255 220:255 221:255 222:255 223:246 224:221 225:187 226:147 227:106 228:66 229:26 230:7 231:2 232:2 233:12 234:37 235:73 236:112 237:141 238:181 239:255 240:255 241:255 242:255 243:251 244:237 245:203 246:163 247:126 248:86 249:45 250:13 251:3 252:6 253:22 254:56 255:93 256:128 257:158 258:195 259:255 260:255 261:255 262:255 263:254 264:246 265:218 266:178 267:140 268:105 269:68 270:31 271:9 272:12 273:36 274:74 275:114 276:149 277:175 278:205 279:255 280:255 281:255 282:255 283:254 284:250 285:227 286:192 287:158 288:125 289:89 290:49 291:18 292:21 293:49 294:89 295:129 296:163 297:184 298:208 299:255 300:255 301:255 302:255 303:250 304:251 305:236 306:209 307:178 308:143 309:104 310:63 311:27 312:27 313:57 314:98 315:138 316:171 317:189 318:208 319:255 320:255 321:255 322:255 323:240 324:246 325:245 326:227 327:196 328:157 329:115 330:73 331:34 332:30 333:59 334:101 335:143 336:176 337:192 338:208 339:255 340:255 341:255 342:255 343:224 344:236 345:246 346:234 347:208 348:170 349:123 350:80 351:43 352:38 353:63 354:100 355:141 356:176 357:194 358:210 359:255 360:255 361:255 362:255 363:204 364:217 365:238 366:235 367:215 368:181 369:135 370:90 371:57 372:51 373:74 374:107 375:143 376:177 377:201 378:219 379:255 380:255 381:255 382:255 383:182 384:191 385:224 386:237 387:226 388:193 389:148 390:110 391:83 392:76 393:92 394:120 395:154 396:187 397:208 398:223 399:255 400:255 
