svm_type c_svc
kernel_type linear
nr_class 2
total_sv 17
rho 3.94205
label 24 -1
nr_sv 7 10
SV
9.417219358073496e-06 1:255 2:255 3:254 4:253 5:250 6:248 7:250 8:253 9:253 10:255 11:254 12:253 13:241 14:217 15:184 16:151 17:123 18:142 19:255 20:255 21:255 22:255 23:236 24:226 25:215 26:209 27:213 28:225 29:241 30:249 31:249 32:244 33:235 34:217 35:197 36:180 37:163 38:176 39:255 40:255 41:255 42:255 43:216 44:189 45:167 46:151 47:153 48:171 49:199 50:224 51:235 52:225 53:213 54:193 55:178 56:174 57:179 58:201 59:255 60:255 61:255 62:255 63:208 64:167 65:130 66:102 67:99 68:121 69:154 70:187 71:206 72:194 73:169 74:148 75:137 76:141 77:161 78:197 79:255 80:255 81:255 82:255 83:213 84:164 85:114 86:73 87:59 88:80 89:114 90:151 91:168 92:152 93:123 94:101 95:96 96:109 97:135 98:183 99:255 100:255 101:255 102:255 103:225 104:173 105:117 106:65 107:37 108:48 109:82 110:116 111:125 112:108 113:82 114:67 115:72 116:96 117:128 118:180 119:255 120:255 121:255 122:255 123:236 124:189 125:131 126:74 127:33 128:27 129:51 130:80 131:84 132:66 133:49 134:51 135:71 136:107 137:146 138:191 139:255 140:255 141:255 142:255 143:242 144:206 145:153 146:94 147:46 148:20 149:23 150:42 151:48 152:37 153:33 154:54 155:89 156:132 157:172 158:208 159:255 160:255 161:255 162:255 163:245 164:221 165:176 166:118 167:62 168:23 169:9 170:10 171:17 172:25 173:41 174:77 175:119 176:160 177:188 178:210 179:255 180:255 181:255 182:255 183:250 184:234 185:194 186:139 187:83 188:35 189:8 190:5 191:14 192:30 193:64 194:106 195:148 196:183 197:200 198:210 199:255 200:255 201:255 202:255 203:250 204:240 205:211 206:161 207:103 208:48 209:10 210:5 211:17 212:51 213:91 214:136 215:179 216:207 217:210 218:215 219:255 220:255 221:255 222:255 223:250 224:238 225:206 226:159 227:104 228:50 229:12 230:5 231:21 232:61 233:110 234:158 235:198 236:220 237:220 238:224 239:255 240:255 241:255 242:255 243:246 244:227 245:188 246:137 247:85 248:38 249:9 250:5 251:18 252:59 253:109 254:161 255:205 256:229 257:230 258:231 259:255 260:255 261:255 262:255 263:237 264:205 265:159 266:108 267:60 268:24 269:9 270:8 271:15 272:50 273:97 274:150 275:201 276:231 277:236 278:239 279:255 280:255 281:255 282:255 283:219 284:172 285:125 286:77 287:39 288:22 289:21 290:25 291:22 292:41 293:82 294:134 295:187 296:222 297:234 298:239 299:255 300:255 301:255 302:255 303:192 304:136 305:92 306:53 307:33 308:40 309:52 310:58 311:45 312:39 313:67 314:110 315:160 316:202 317:221 318:230 319:255 320:255 321:255 322:255 323:168 324:105 325:66 326:43 327:47 328:71 329:91 330:96 331:72 332:47 333:52 334:84 335:130 336:174 337:199 338:214 339:255 340:255 341:255 342:255 343:154 344:89 345:57 346:52 347:74 348:105 349:126 350:128 351:95 352:62 353:48 354:67 355:105 356:146 357:174 358:198 359:255 360:255 361:255 362:255 363:153 364:95 365:78 366:84 367:110 368:142 369:164 370:158 371:117 372:81 373:61 374:64 375:88 376:125 377:156 378:189 379:255 380:255 381:255 382:255 383:169 384:124 385:115 386:125 387:152 388:184 389:204 390:189 391:150 392:112 393:90 394:84 395:96 396:126 397:158 398:191 399:255 400:255 
8.70628795912465e-06 1:255 2:255 3:235 4:245 5:255 6:255 7:253 8:250 9:247 10:247 11:247 12:237 13:224 14:199 15:170 16:141 17:117 18:143 19:255 20:255 21:255 22:255 23:247 24:249 25:252 26:250 27:248 28:247 29:247 30:247 31:247 32:237 33:224 34:202 35:184 36:167 37:149 38:170 39:255 40:255 41:255 42:255 43:242 44:235 45:227 46:217 47:212 48:218 49:228 50:233 51:238 52:231 53:213 54:195 55:180 56:167 57:160 58:184 59:255 60:255 61:255 62:255 63:237 64:214 65:192 66:175 67:169 68:175 69:190 70:205 71:219 72:214 73:195 74:173 75:154 76:143 77:146 78:179 79:255 80:255 81:255 82:255 83:231 84:198 85:163 86:136 87:124 88:128 89:145 90:171 91:191 92:186 93:166 94:138 95:116 96:109 97:119 98:163 99:255 100:255 101:255 102:255 103:226 104:188 105:146 106:109 107:87 108:84 109:102 110:134 111:157 112:155 113:131 114:100 115:78 116:78 117:98 118:152 119:255 120:255 121:255 122:255 123:225 124:188 125:145 126:103 127:70 128:56 129:66 130:96 131:122 132:122 133:99 134:68 135:52 136:62 137:92 138:153 139:255 140:255 141:255 142:255 143:230 144:197 145:158 146:116 147:76 148:47 149:39 150:60 151:83 152:86 153:69 154:46 155:42 156:64 157:100 158:161 159:255 160:255 161:255 162:255 163:236 164:206 165:173 166:136 167:95 168:54 169:25 170:22 171:42 172:50 173:40 174:32 175:47 176:81 177:122 178:177 179:255 180:255 181:255 182:255 183:240 184:215 185:189 186:158 187:118 188:74 189:36 190:12 191:11 192:17 193:18 194:36 195:67 196:106 197:146 198:192 199:255 200:255 201:255 202:255 203:249 204:224 205:200 206:176 207:141 208:97 209:52 210:12 211:2 212:7 213:19 214:50 215:89 216:130 217:167 218:206 219:255 220:255 221:255 222:255 223:249 224:229 225:207 226:186 227:158 228:119 229:72 230:25 231:8 232:8 233:29 234:66 235:107 236:148 237:183 238:215 239:255 240:255 241:255 242:255 243:251 244:238 245:219 246:196 247:168 248:129 249:84 250:35 251:9 252:8 253:31 254:72 255:116 256:159 257:193 258:221 259:255 260:255 261:255 262:255 263:253 264:241 265:222 266:199 267:167 268:127 269:81 270:31 271:9 272:8 273:23 274:63 275:111 276:156 277:193 278:223 279:255 280:255 281:255 282:255 283:251 284:238 285:216 286:189 287:155 288:113 289:67 290:22 291:11 292:10 293:18 294:50 295:94 296:140 297:179 298:215 299:255 300:255 301:255 302:255 303:243 304:229 305:206 306:174 307:135 308:92 309:50 310:18 311:19 312:23 313:23 314:41 315:74 316:114 317:155 318:201 319:255 320:255 321:255 322:255 323:228 324:215 325:193 326:156 327:114 328:71 329:35 330:26 331:42 332:51 333:42 334:41 335:56 336:87 337:127 338:183 339:255 340:255 341:255 342:255 343:212 344:196 345:175 346:136 347:92 348:52 349:30 350:49 351:78 352:85 353:71 354:51 355:47 356:66 357:102 358:162 359:255 360:255 361:255 362:255 363:196 364:179 365:158 366:119 367:78 368:47 369:47 370:77 371:109 372:117 373:101 374:74 375:56 376:60 377:84 378:146 379:255 380:255 381:255 382:255 383:175 384:155 385:139 386:105 387:72 388:53 389:66 390:101 391:133 392:146 393:127 394:101 395:77 396:68 397:81 398:138 399:255 400:255 
1.859204981151852e-05 1:255 2:255 3:218 4:236 5:254 6:255 7:255 8:254 9:252 10:251 11:242 12:241 13:227 14:211 15:190 16:169 17:148 18:162 19:255 20:255 21:255 22:255 23:228 24:241 25:247 26:239 27:235 28:234 29:235 30:243 31:241 32:241 33:227 34:211 35:193 36:176 37:164 38:181 39:255 40:255 41:255 42:255 43:235 44:234 45:224 46:206 47:194 48:193 49:200 50:215 51:226 52:227 53:215 54:198 55:182 56:168 57:159 58:182 59:255 60:255 61:255 62:255 63:237 64:220 65:197 66:170 67:151 68:147 69:157 70:177 71:196 72:204 73:196 74:176 75:155 76:138 77:133 78:167 79:255 80:255 81:255 82:255 83:233 84:209 85:180 86:146 87:117 88:105 89:112 90:135 91:159 92:175 93:167 94:145 95:120 96:101 97:100 98:146 99:255 100:255 101:255 102:255 103:230 104:205 105:175 106:135 107:97 108:73 109:71 110:94 111:121 112:142 113:135 114:111 115:84 116:68 117:76 118:134 119:255 120:255 121:255 122:255 123:233 124:208 125:178 126:139 127:96 128:61 129:44 130:58 131:86 132:105 133:101 134:78 135:53 136:48 137:69 138:136 139:255 140:255 141:255 142:255 143:239 144:218 145:190 146:153 147:111 148:71 149:38 150:33 151:51 152:66 153:63 154:47 155:34 156:45 157:81 158:147 159:255 160:255 161:255 162:255 163:246 164:230 165:203 166:168 167:130 168:90 169:49 170:20 171:18 172:30 173:26 174:24 175:34 176:63 177:105 178:164 179:255 180:255 181:255 182:255 183:253 184:239 185:217 186:190 187:156 188:115 189:69 190:24 191:6 192:7 193:13 194:22 195:47 196:86 197:126 198:176 199:255 200:255 201:255 202:255 203:253 204:245 205:223 206:197 207:170 208:133 209:90 210:47 211:9 212:5 213:13 214:34 215:70 216:111 217:149 218:193 219:255 220:255 221:255 222:255 223:253 224:245 225:229 226:208 227:183 228:151 229:108 230:63 231:20 232:7 233:13 234:42 235:86 236:129 237:165 238:204 239:255 240:255 241:255 242:255 243:253 244:250 245:234 246:210 247:185 248:154 249:114 250:69 251:23 252:7 253:13 254:44 255:88 256:134 257:173 258:209 259:255 260:255 261:255 262:255 263:253 264:252 265:236 266:208 267:180 268:149 269:108 270:62 271:19 272:7 273:13 274:38 275:78 276:124 277:166 278:207 279:255 280:255 281:255 282:255 283:244 284:244 285:229 286:199 287:168 288:133 289:90 290:45 291:17 292:11 293:16 294:32 295:64 296:106 297:149 298:198 299:255 300:255 301:255 302:255 303:229 304:228 305:216 306:186 307:151 308:109 309:68 310:30 311:25 312:28 313:31 314:34 315:51 316:84 317:125 318:180 319:255 320:255 321:255 322:255 323:212 324:210 325:202 326:171 327:130 328:84 329:48 330:29 331:46 332:59 333:60 334:48 335:44 336:63 337:100 338:160 339:255 340:255 341:255 342:255 343:192 344:188 345:184 346:153 347:109 348:65 349:37 350:44 351:75 352:97 353:95 354:72 355:50 356:51 357:79 358:144 359:255 360:255 361:255 362:255 363:171 364:161 365:163 366:136 367:93 368:56 369:45 370:70 371:104 372:128 373:124 374:101 375:71 376:56 377:69 378:133 379:255 380:255 381:255 382:255 383:153 384:137 385:142 386:122 387:91 388:72 389:72 390:98 391:131 392:157 393:150 394:127 395:99 396:80 397:80 398:133 399:255 400:255 
3.22142499984973e-07 1:255 2:255 3:236 4:237 5:239 6:233 7:228 8:225 9:226 10:231 11:237 12:237 13:233 14:227 15:216 16:201 17:188 18:200 19:255 20:255 21:255 22:255 23:236 24:228 25:219 26:204 27:192 28:189 29:195 30:207 31:215 32:222 33:217 34:209 35:197 36:184 37:175 38:193 39:255 40:255 41:255 42:255 43:230 44:215 45:195 46:169 47:148 48:139 49:149 50:168 51:188 52:199 53:195 54:178 55:160 56:147 57:142 58:172 59:255 60:255 61:255 62:255 63:231 64:211 65:182 66:145 67:112 68:95 69:101 70:123 71:153 72:168 73:165 74:143 75:116 76:100 77:103 78:148 79:255 80:255 81:255 82:255 83:237 84:214 85:181 86:139 87:97 88:70 89:63 90:83 91:110 92:129 93:126 94:104 95:77 96:65 97:77 98:136 99:255 100:255 101:255 102:255 103:245 104:223 105:191 106:150 107:105 108:66 109:43 110:49 111:69 112:86 113:83 114:65 115:47 116:49 117:75 118:139 119:255 120:255 121:255 122:255 123:250 124:235 125:208 126:171 127:127 128:81 129:46 130:28 131:37 132:48 133:43 134:34 135:32 136:51 137:89 138:153 139:255 140:255 141:255 142:255 143:254 144:247 145:226 146:194 147:153 148:107 149:63 150:27 151:18 152:18 153:17 154:20 155:36 156:67 157:109 158:171 159:255 160:255 161:255 162:255 163:255 164:251 165:239 166:214 167:178 168:134 169:81 170:36 171:11 172:5 173:6 174:19 175:52 176:95 177:136 178:186 179:255 180:255 181:255 182:255 183:255 184:254 185:247 186:227 187:195 188:153 189:102 190:51 191:12 192:4 193:8 194:31 195:72 196:121 197:162 198:202 199:255 200:255 201:255 202:255 203:254 204:253 205:249 206:234 207:206 208:166 209:113 210:61 211:18 212:5 213:13 214:44 215:90 216:137 217:175 218:210 219:255 220:255 221:255 222:255 223:250 224:252 225:248 226:230 227:200 228:161 229:111 230:56 231:15 232:4 233:13 234:45 235:91 236:138 237:176 238:211 239:255 240:255 241:255 242:255 243:247 244:247 245:243 246:223 247:189 248:145 249:93 250:40 251:12 252:5 253:11 254:36 255:78 256:127 257:168 258:207 259:255 260:255 261:255 262:255 263:243 264:241 265:231 266:207 267:171 268:124 269:75 270:30 271:17 272:15 273:15 274:27 275:61 276:108 277:151 278:197 279:255 280:255 281:255 282:255 283:234 284:229 285:215 286:186 287:147 288:100 289:57 290:31 291:35 292:37 293:29 294:26 295:46 296:85 297:128 298:182 299:255 300:255 301:255 302:255 303:223 304:211 305:195 306:162 307:120 308:77 309:46 310:47 311:63 312:70 313:57 314:38 315:38 316:63 317:103 318:164 319:255 320:255 321:255 322:255 323:210 324:191 325:172 326:137 327:95 328:62 329:50 330:72 331:99 332:109 333:91 334:61 335:41 336:48 337:79 338:144 339:255 340:255 341:255 342:255 343:194 344:172 345:154 346:119 347:82 348:63 349:70 350:102 351:136 352:144 353:122 354:89 355:59 356:50 357:67 358:131 359:255 360:255 361:255 362:255 363:174 364:153 365:145 366:120 367:96 368:88 369:103 370:139 371:168 372:173 373:157 374:123 375:92 376:77 377:82 378:137 379:255 380:255 381:255 382:255 383:154 384:137 385:146 386:140 387:129 388:127 389:144 390:170 391:194 392:201 393:186 394:160 395:133 396:115 397:117 398:161 399:255 400:255 
4.002448641459752e-06 1:255 2:255 3:255 4:255 5:253 6:250 7:248 8:249 9:251 10:253 11:253 12:251 13:247 14:235 15:216 16:195 17:174 18:183 19:255 20:255 21:255 22:255 23:246 24:232 25:218 26:210 27:210 28:222 29:238 30:246 31:247 32:243 33:232 34:216 35:200 36:191 37:190 38:208 39:255 40:255 41:255 42:255 43:228 44:192 45:165 46:152 47:153 48:172 49:199 50:224 51:233 52:218 53:190 54:169 55:160 56:162 57:176 58:208 59:255 60:255 61:255 62:255 63:213 64:166 65:128 66:104 67:103 68:124 69:157 70:188 71:198 72:174 73:139 74:117 75:114 76:128 77:155 78:197 79:255 80:255 81:255 82:255 83:208 84:158 85:112 86:76 87:66 88:86 89:120 90:150 91:155 92:129 93:97 94:79 95:82 96:106 97:144 98:193 99:255 100:255 101:255 102:255 103:213 104:164 105:114 106:70 107:47 108:55 109:86 110:109 111:110 112:89 113:64 114:56 115:73 116:108 117:149 118:197 119:255 120:255 121:255 122:255 123:224 124:180 125:130 126:82 127:46 128:35 129:52 130:67 131:67 132:53 133:42 134:52 135:85 136:126 137:166 138:208 139:255 140:255 141:255 142:255 143:236 144:198 145:151 146:102 147:59 148:28 149:22 150:30 151:30 152:28 153:39 154:68 155:108 156:150 157:187 158:220 159:255 160:255 161:255 162:255 163:243 164:214 165:173 166:124 167:75 168:33 169:11 170:8 171:11 172:22 173:53 174:93 175:137 176:179 177:208 178:228 179:255 180:255 181:255 182:255 183:248 184:227 185:190 186:142 187:93 188:49 189:14 190:4 191:9 192:34 193:74 194:123 195:167 196:205 197:227 198:236 199:255 200:255 201:255 202:255 203:248 204:232 205:201 206:156 207:105 208:57 209:16 210:5 211:15 212:52 213:95 214:143 215:189 216:222 217:235 218:239 219:255 220:255 221:255 222:255 223:245 224:228 225:197 226:151 227:101 228:54 229:14 230:5 231:17 232:58 233:106 234:155 235:199 236:227 237:236 238:239 239:255 240:255 241:255 242:255 243:241 244:215 245:178 246:133 247:84 248:39 249:10 250:5 251:16 252:54 253:99 254:149 255:196 256:226 257:236 258:239 259:255 260:255 261:255 262:255 263:227 264:190 265:148 266:105 267:61 268:23 269:8 270:5 271:15 272:43 273:84 274:133 275:178 276:213 277:229 278:235 279:255 280:255 281:255 282:255 283:209 284:164 285:120 286:77 287:42 288:20 289:17 290:18 291:19 292:32 293:66 294:107 295:151 296:192 297:216 298:227 299:255 300:255 301:255 302:255 303:190 304:138 305:94 306:57 307:37 308:36 309:46 310:49 311:36 312:30 313:48 314:79 315:120 316:166 317:197 318:218 319:255 320:255 321:255 322:255 323:171 324:111 325:72 326:49 327:48 328:67 329:86 330:88 331:66 332:41 333:37 334:58 335:95 336:140 337:177 338:209 339:255 340:255 341:255 342:255 343:155 344:94 345:65 346:57 347:73 348:104 349:125 350:128 351:102 352:67 353:44 354:53 355:82 356:123 357:162 358:201 359:255 360:255 361:255 362:255 363:151 364:98 365:83 366:87 367:111 368:144 369:166 370:165 371:139 372:103 373:76 374:69 375:86 376:121 377:157 378:197 379:255 380:255 381:255 382:255 383:162 384:123 385:119 386:129 387:152 388:181 389:206 390:204 391:174 392:141 393:113 394:102 395:111 396:135 397:165 398:203 399:255 400:255 
6.561624942364005e-06 1:255 2:255 3:248 4:245 5:241 6:241 7:247 8:251 9:255 10:251 11:235 12:205 13:183 14:176 15:180 16:195 17:212 18:229 19:255 20:255 21:255 22:255 23:221 24:203 25:199 26:205 27:218 28:232 29:239 30:230 31:200 32:169 33:148 34:148 35:161 36:187 37:216 38:237 39:255 40:255 41:255 42:255 43:189 44:153 45:145 46:154 47:174 48:194 49:206 50:192 51:158 52:121 53:102 54:110 55:138 56:175 57:206 58:230 59:255 60:255 61:255 62:255 63:163 64:114 65:100 66:107 67:128 68:152 69:167 70:151 71:117 72:83 73:68 74:85 75:124 76:166 77:197 78:222 79:255 80:255 81:255 82:255 83:152 84:94 85:72 86:71 87:88 88:110 89:124 90:111 91:82 92:52 93:51 94:80 95:126 96:170 97:198 98:219 99:255 100:255 101:255 102:255 103:158 104:97 105:64 106:49 107:55 108:71 109:83 110:73 111:50 112:32 113:52 114:93 115:141 116:183 117:207 118:222 119:255 120:255 121:255 122:255 123:175 124:117 125:76 126:45 127:33 128:39 129:46 130:39 131:25 132:28 133:66 134:115 135:162 136:200 137:219 138:229 139:255 140:255 141:255 142:255 143:198 144:148 145:103 146:61 147:31 148:19 149:17 150:17 151:14 152:39 153:86 154:138 155:185 156:219 157:233 158:236 159:255 160:255 161:255 162:255 163:226 164:184 165:136 166:90 167:48 168:18 169:7 170:7 171:15 172:59 173:107 174:155 175:198 176:228 177:237 178:239 179:255 180:255 181:255 182:255 183:251 184:217 185:170 186:119 187:69 188:29 189:7 190:5 191:22 192:70 193:118 194:164 195:206 196:234 197:243 198:243 199:255 200:255 201:255 202:255 203:255 204:235 205:191 206:140 207:91 208:42 209:10 210:5 211:24 212:71 213:122 214:168 215:207 216:236 217:247 218:247 219:255 220:255 221:255 222:255 223:255 224:240 225:200 226:147 227:93 228:43 229:10 230:5 231:20 232:61 233:108 234:155 235:198 236:231 237:247 238:250 239:255 240:255 241:255 242:255 243:253 244:233 245:191 246:137 247:82 248:36 249:10 250:4 251:13 252:40 253:84 254:133 255:178 256:215 257:241 258:251 259:255 260:255 261:255 262:255 263:249 264:220 265:173 266:118 267:67 268:29 269:16 270:14 271:13 272:26 273:59 274:103 275:148 276:189 277:220 278:240 279:255 280:255 281:255 282:255 283:237 284:198 285:148 286:97 287:54 288:31 289:33 290:40 291:33 292:27 293:41 294:73 295:113 296:155 297:192 298:224 299:255 300:255 301:255 302:255 303:220 304:173 305:123 306:76 307:46 308:43 309:60 310:74 311:67 312:47 313:36 314:50 315:83 316:123 317:164 318:209 319:255 320:255 321:255 322:255 323:202 324:151 325:102 326:61 327:45 328:62 329:92 330:110 331:103 332:77 333:51 334:45 335:66 336:103 337:146 338:198 339:255 340:255 341:255 342:255 343:185 344:133 345:92 346:61 347:58 348:86 349:124 350:150 351:137 352:111 353:83 354:64 355:72 356:104 357:146 358:197 359:255 360:255 361:255 362:255 363:174 364:125 365:95 366:79 367:88 368:119 369:160 370:188 371:178 372:151 373:123 374:105 375:106 376:129 377:164 378:207 379:255 380:255 381:255 382:255 383:167 384:128 385:116 386:112 387:126 388:158 389:197 390:224 391:212 392:189 393:168 394:155 395:156 396:170 397:194 398:227 399:255 400:255 
2.721585036041113e-06 1:255 2:255 3:247 4:246 5:247 6:248 7:250 8:252 9:254 10:255 11:252 12:248 13:236 14:213 15:190 16:168 17:151 18:173 19:255 20:255 21:255 22:255 23:235 24:219 25:212 26:214 27:225 28:239 29:250 30:254 31:251 32:243 33:227 34:205 35:188 36:181 37:181 38:201 39:255 40:255 41:255 42:255 43:210 44:176 45:158 46:158 47:174 48:198 49:230 50:243 51:237 52:212 53:185 54:162 55:154 56:162 57:179 58:208 59:255 60:255 61:255 62:255 63:188 64:141 65:114 66:108 67:123 68:151 69:188 70:209 71:198 72:162 73:131 74:114 75:116 76:135 77:165 78:203 79:255 80:255 81:255 82:255 83:181 84:125 85:90 86:74 87:82 88:107 89:143 90:163 91:150 92:113 93:85 94:77 95:90 96:120 97:156 98:200 99:255 100:255 101:255 102:255 103:187 104:129 105:85 106:57 107:53 108:71 109:102 110:118 111:104 112:76 113:55 114:60 115:87 116:125 117:162 118:203 119:255 120:255 121:255 122:255 123:201 124:147 125:98 126:58 127:38 128:41 129:62 130:76 131:64 132:47 133:44 134:66 135:105 136:148 137:180 138:208 139:255 140:255 141:255 142:255 143:219 144:171 145:121 146:75 147:39 148:21 149:28 150:36 151:31 152:27 153:51 154:89 155:134 156:175 157:199 158:215 159:255 160:255 161:255 162:255 163:235 164:196 165:149 166:100 167:53 168:19 169:11 170:11 171:13 172:32 173:68 174:114 175:161 176:201 177:217 178:221 179:255 180:255 181:255 182:255 183:244 184:217 185:175 186:125 187:75 188:30 189:7 190:4 191:15 192:52 193:96 194:146 195:193 196:221 197:223 198:225 199:255 200:255 201:255 202:255 203:246 204:227 205:189 206:138 207:88 208:43 209:10 210:4 211:20 212:68 213:118 214:173 215:215 216:235 217:233 218:230 219:255 220:255 221:255 222:255 223:244 224:224 225:187 226:137 227:85 228:40 229:11 230:8 231:28 232:73 233:128 234:184 235:224 236:240 237:237 238:233 239:255 240:255 241:255 242:255 243:240 244:213 245:171 246:119 247:68 248:24 249:6 250:8 251:23 252:68 253:119 254:175 255:218 256:239 257:237 258:233 259:255 260:255 261:255 262:255 263:233 264:195 265:147 266:96 267:50 268:15 269:6 270:11 271:19 272:55 273:100 274:153 275:200 276:228 277:231 278:230 279:255 280:255 281:255 282:255 283:217 284:169 285:119 286:71 287:34 288:19 289:24 290:27 291:23 292:38 293:75 294:123 295:172 296:208 297:219 298:224 299:255 300:255 301:255 302:255 303:192 304:137 305:90 306:50 307:31 308:40 309:57 310:56 311:40 312:32 313:53 314:95 315:142 316:182 317:202 318:215 319:255 320:255 321:255 322:255 323:167 324:105 325:66 326:41 327:45 328:75 329:97 330:93 331:68 332:40 333:42 334:72 335:116 336:156 337:182 338:205 339:255 340:255 341:255 342:255 343:147 344:84 345:55 346:50 347:73 348:111 349:135 350:131 351:95 352:57 353:43 354:57 355:93 356:135 357:165 358:196 359:255 360:255 361:255 362:255 363:142 364:86 365:73 366:79 367:108 368:146 369:173 370:167 371:127 372:85 373:61 374:63 375:87 376:122 377:154 378:190 379:255 380:255 381:255 382:255 383:156 384:114 385:109 386:119 387:146 388:183 389:207 390:198 391:156 392:121 393:99 394:94 395:106 396:132 397:160 398:194 399:255 400:255 
-5.98423898217575e-06 1:255 2:255 3:255 4:252 5:253 6:255 7:254 8:251 9:250 10:246 11:246 12:246 13:246 14:228 15:203 16:184 17:175 18:191 19:255 20:255 21:255 22:255 23:255 24:252 25:249 26:239 27:222 28:209 29:205 30:205 31:208 32:213 33:224 34:234 35:225 36:211 37:205 38:215 39:255 40:255 41:255 42:255 43:253 44:246 45:234 46:212 47:190 48:175 49:165 50:164 51:169 52:181 53:196 54:216 55:226 56:227 57:226 58:233 59:255 60:255 61:255 62:255 63:247 64:233 65:213 66:189 67:163 68:140 69:127 70:123 71:131 72:150 73:172 74:198 75:218 76:231 77:235 78:237 79:255 80:255 81:255 82:255 83:240 84:221 85:198 86:170 87:139 88:108 89:86 90:76 91:89 92:120 93:150 94:180 95:205 96:228 97:239 98:241 99:255 100:255 101:255 102:255 103:237 104:214 105:188 106:156 107:119 108:81 109:49 110:35 111:52 112:92 113:129 114:163 115:191 116:219 117:238 118:245 119:255 120:255 121:255 122:255 123:235 124:209 125:179 126:144 127:104 128:62 129:26 130:11 131:25 132:65 133:110 134:148 135:179 136:208 137:232 138:245 139:255 140:255 141:255 142:255 143:231 144:200 145:169 146:134 147:95 148:53 149:18 150:7 151:9 152:41 153:90 154:133 155:167 156:198 157:225 158:245 159:255 160:255 161:255 162:255 163:227 164:195 165:162 166:125 167:85 168:48 169:25 170:18 171:13 172:29 173:74 174:119 175:157 176:188 177:218 178:245 179:255 180:255 181:255 182:255 183:222 184:188 185:155 186:118 187:79 188:50 189:46 190:46 191:36 192:25 193:60 194:105 195:145 196:179 197:212 198:244 199:255 200:255 201:255 202:255 203:216 204:181 205:145 206:107 207:75 208:60 209:73 210:81 211:66 212:38 213:47 214:90 215:133 216:167 217:200 218:232 219:255 220:255 221:255 222:255 223:208 224:170 225:136 226:98 227:71 228:72 229:92 230:98 231:82 232:44 233:39 234:74 235:117 236:155 237:188 238:222 239:255 240:255 241:255 242:255 243:203 244:162 245:125 246:85 247:60 248:67 249:93 250:101 251:85 252:45 253:27 254:56 255:102 256:145 257:180 258:216 259:255 260:255 261:255 262:255 263:197 264:153 265:113 266:70 267:43 268:50 269:77 270:85 271:74 272:33 273:13 274:36 275:84 276:132 277:171 278:211 279:255 280:255 281:255 282:255 283:191 284:142 285:99 286:53 287:23 288:27 289:50 290:56 291:44 292:16 293:4 294:20 295:65 296:117 297:160 298:204 299:255 300:255 301:255 302:255 303:183 304:129 305:84 306:38 307:12 308:16 309:30 310:37 311:28 312:13 313:6 314:13 315:50 316:101 317:145 318:195 319:255 320:255 321:255 322:255 323:173 324:116 325:71 326:34 327:22 328:32 329:44 330:55 331:55 332:44 333:30 334:23 335:43 336:86 337:131 338:183 339:255 340:255 341:255 342:255 343:163 344:103 345:62 346:42 347:51 348:73 349:92 350:106 351:106 352:97 353:74 354:52 355:51 356:81 357:123 358:174 359:255 360:255 361:255 362:255 363:156 364:95 365:64 366:61 367:85 368:114 369:136 370:148 371:149 372:137 373:114 374:89 375:79 376:94 377:125 378:174 379:255 380:255 381:255 382:255 383:154 384:104 385:89 386:94 387:116 388:141 389:162 390:179 391:182 392:168 393:146 394:124 395:114 396:121 397:139 398:182 399:255 400:255 
-2.266206878932512e-06 1:255 2:255 3:248 4:245 5:241 6:232 7:223 8:216 9:211 10:211 11:218 12:212 13:200 14:190 15:182 16:165 17:147 18:169 19:255 20:255 21:255 22:255 23:246 24:231 25:210 26:192 27:181 28:171 29:166 30:166 31:167 32:166 33:156 34:155 35:159 36:165 37:172 38:196 39:255 40:255 41:255 42:255 43:240 44:209 45:172 46:143 47:128 48:119 49:117 50:115 51:115 52:111 53:112 54:116 55:126 56:142 57:165 58:201 59:255 60:255 61:255 62:255 63:231 64:187 65:143 66:108 67:86 68:74 69:67 70:63 71:63 72:61 73:67 74:79 75:93 76:117 77:151 78:196 79:255 80:255 81:255 82:255 83:222 84:171 85:126 86:90 87:61 88:39 89:30 90:23 91:23 92:26 93:34 94:54 95:76 96:104 97:141 98:190 99:255 100:255 101:255 102:255 103:222 104:173 105:128 106:92 107:61 108:35 109:18 110:8 111:5 112:13 113:29 114:55 115:82 116:110 117:144 118:192 119:255 120:255 121:255 122:255 123:231 124:192 125:151 126:115 127:85 128:59 129:32 130:11 131:6 132:20 133:48 134:78 135:105 136:133 137:162 138:200 139:255 140:255 141:255 142:255 143:240 144:216 145:186 146:154 147:120 148:86 149:57 150:20 151:15 152:35 153:71 154:106 155:135 156:164 157:185 158:206 159:255 160:255 161:255 162:255 163:248 164:241 165:223 166:194 167:156 168:111 169:72 170:33 171:20 172:48 173:86 174:125 175:164 176:191 177:200 178:214 179:255 180:255 181:255 182:255 183:253 184:250 185:242 186:219 187:176 188:124 189:78 190:42 191:26 192:58 193:97 194:141 195:179 196:208 197:219 198:222 199:255 200:255 201:255 202:255 203:255 204:253 205:246 206:225 207:183 208:130 209:84 210:48 211:32 212:62 213:102 214:147 215:190 216:220 217:228 218:230 219:255 220:255 221:255 222:255 223:255 224:253 225:247 226:225 227:185 228:137 229:92 230:51 231:33 232:65 233:104 234:151 235:198 236:229 237:235 238:233 239:255 240:255 241:255 242:255 243:254 244:253 245:244 246:221 247:183 248:138 249:95 250:55 251:35 252:65 253:104 254:151 255:197 256:229 257:238 258:237 259:255 260:255 261:255 262:255 263:251 264:250 265:239 266:213 267:175 268:133 269:92 270:56 271:34 272:64 273:100 274:144 275:188 276:221 277:233 278:235 279:255 280:255 281:255 282:255 283:245 284:240 285:224 286:197 287:162 288:121 289:82 290:48 291:29 292:57 293:89 294:128 295:170 296:203 297:219 298:230 299:255 300:255 301:255 302:255 303:233 304:219 305:198 306:169 307:136 308:101 309:69 310:31 311:20 312:40 313:72 314:106 315:140 316:172 317:195 318:218 319:255 320:255 321:255 322:255 323:215 324:192 325:168 326:134 327:101 328:73 329:46 330:14 331:9 332:20 333:49 334:78 335:104 336:134 337:167 338:203 339:255 340:255 341:255 342:255 343:194 344:167 345:141 346:105 347:73 348:46 349:19 350:5 351:2 352:11 353:25 354:50 355:75 356:106 357:145 358:195 359:255 360:255 361:255 362:255 363:170 364:139 365:123 366:94 367:62 368:34 369:18 370:13 371:10 372:17 373:24 374:42 375:68 376:99 377:137 378:189 379:255 380:255 381:255 382:255 383:155 384:125 385:118 386:96 387:74 388:60 389:48 390:42 391:42 392:45 393:56 394:69 395:86 396:112 397:149 398:199 399:255 400:255 
-4.915660234599256e-07 1:255 2:255 3:252 4:254 5:253 6:249 7:244 8:239 9:233 10:215 11:199 12:184 13:175 14:168 15:155 16:139 17:126 18:153 19:255 20:255 21:255 22:255 23:245 24:240 25:225 26:208 27:198 28:188 29:182 30:177 31:166 32:157 33:151 34:152 35:156 36:159 37:158 38:179 39:255 40:255 41:255 42:255 43:235 44:213 45:184 46:158 47:142 48:132 49:124 50:121 51:116 52:112 53:112 54:119 55:131 56:146 57:165 58:200 59:255 60:255 61:255 62:255 63:224 64:186 65:150 66:117 67:95 68:84 69:76 70:73 71:74 72:73 73:76 74:84 75:99 76:122 77:155 78:201 79:255 80:255 81:255 82:255 83:223 84:175 85:129 86:92 87:65 88:47 89:35 90:31 91:34 92:37 93:46 94:58 95:78 96:109 97:149 98:200 99:255 100:255 101:255 102:255 103:226 104:176 105:127 106:89 107:61 108:36 109:17 110:9 111:10 112:18 113:36 114:56 115:80 116:113 117:155 118:204 119:255 120:255 121:255 122:255 123:228 124:187 125:145 126:109 127:80 128:54 129:28 130:8 131:8 132:22 133:50 134:78 135:103 136:136 137:173 138:211 139:255 140:255 141:255 142:255 143:236 144:207 145:173 146:139 147:109 148:82 149:51 150:17 151:13 152:37 153:71 154:105 155:138 156:172 157:197 158:217 159:255 160:255 161:255 162:255 163:249 164:229 165:205 166:176 167:142 168:107 169:69 170:30 171:19 172:50 173:87 174:129 175:171 176:199 177:212 178:227 179:255 180:255 181:255 182:255 183:255 184:246 185:228 186:201 187:165 188:121 189:78 190:39 191:24 192:58 193:98 194:147 195:189 196:216 197:226 198:233 199:255 200:255 201:255 202:255 203:255 204:252 205:242 206:216 207:174 208:126 209:82 210:41 211:29 212:63 213:106 214:159 215:204 216:229 217:235 218:240 219:255 220:255 221:255 222:255 223:255 224:250 225:241 226:217 227:174 228:126 229:84 230:48 231:35 232:66 233:108 234:163 235:213 236:235 237:236 238:241 239:255 240:255 241:255 242:255 243:253 244:248 245:241 246:218 247:176 248:126 249:84 250:49 251:36 252:65 253:107 254:161 255:207 256:228 257:228 258:235 259:255 260:255 261:255 262:255 263:252 264:248 265:241 266:219 267:176 268:123 269:81 270:44 271:32 272:62 273:101 274:153 275:196 276:216 277:219 278:228 279:255 280:255 281:255 282:255 283:250 284:245 285:230 286:203 287:164 288:116 289:77 290:39 291:25 292:55 293:92 294:137 295:176 296:199 297:206 298:219 299:255 300:255 301:255 302:255 303:241 304:229 305:206 306:174 307:137 308:100 309:67 310:29 311:17 312:44 313:79 314:113 315:144 316:169 317:186 318:210 319:255 320:255 321:255 322:255 323:224 324:201 325:173 326:137 327:105 328:75 329:46 330:15 331:8 332:28 333:60 334:84 335:107 336:132 337:159 338:199 339:255 340:255 341:255 342:255 343:204 344:173 345:140 346:104 347:76 348:48 349:21 350:5 351:3 352:14 353:36 354:58 355:79 356:104 357:136 358:186 359:255 360:255 361:255 362:255 363:185 364:154 365:125 366:91 367:61 368:31 369:10 370:6 371:10 372:15 373:24 374:44 375:68 376:96 377:129 378:181 379:255 380:255 381:255 382:255 383:167 384:141 385:127 386:99 387:70 388:45 389:29 390:29 391:35 392:39 393:49 394:61 395:79 396:103 397:137 398:188 399:255 400:255 
-9.287294542804551e-08 1:255 2:255 3:209 4:204 5:218 6:226 7:232 8:242 9:245 10:240 11:240 12:245 13:248 14:243 15:210 16:166 17:127 18:138 19:255 20:255 21:255 22:255 23:219 24:209 25:207 26:199 27:194 28:199 29:194 30:194 31:200 32:201 33:206 34:217 35:213 36:191 37:162 38:170 39:255 40:255 41:255 42:255 43:221 44:202 45:184 46:165 47:153 48:149 49:145 50:145 51:146 52:148 53:155 54:163 55:176 56:186 57:189 58:205 59:255 60:255 61:255 62:255 63:217 64:189 65:164 66:134 67:110 68:103 69:96 70:93 71:97 72:99 73:103 74:110 75:128 76:155 77:182 78:215 79:255 80:255 81:255 82:255 83:218 84:182 85:147 86:111 87:81 88:64 89:57 90:49 91:51 92:52 93:59 94:68 95:90 96:124 97:161 98:204 99:255 100:255 101:255 102:255 103:224 104:185 105:144 106:106 107:73 108:48 109:40 110:28 111:19 112:17 113:22 114:40 115:69 116:105 117:142 118:190 119:255 120:255 121:255 122:255 123:230 124:195 125:157 126:119 127:86 128:65 129:57 130:41 131:22 132:7 133:3 134:25 135:59 136:95 137:130 138:182 139:255 140:255 141:255 142:255 143:233 144:210 145:179 146:146 147:120 148:106 149:98 150:76 151:60 152:27 153:9 154:21 155:53 156:90 157:126 158:180 159:255 160:255 161:255 162:255 163:235 164:228 165:216 166:197 167:178 168:162 169:148 170:117 171:93 172:56 173:22 174:27 175:56 176:91 177:128 178:181 179:255 180:255 181:255 182:255 183:244 184:240 185:240 186:243 187:246 188:240 189:212 190:159 191:105 192:64 193:36 194:37 195:62 196:97 197:135 198:188 199:255 200:255 201:255 202:255 203:244 204:240 205:243 206:248 207:251 208:254 209:245 210:203 211:126 212:73 213:38 214:32 215:59 216:99 217:139 218:190 219:255 220:255 221:255 222:255 223:234 224:227 225:235 226:245 227:252 228:255 229:247 230:206 231:134 232:75 233:30 234:26 235:54 236:96 237:139 238:191 239:255 240:255 241:255 242:255 243:229 244:221 245:231 246:244 247:250 248:252 249:239 250:188 251:125 252:75 253:39 254:32 255:53 256:90 257:134 258:191 259:255 260:255 261:255 262:255 263:228 264:219 265:225 266:236 267:243 268:241 269:220 270:169 271:116 272:73 273:40 274:33 275:52 276:87 277:130 278:186 279:255 280:255 281:255 282:255 283:221 284:209 285:208 286:208 287:210 288:206 289:189 290:151 291:106 292:66 293:32 294:28 295:48 296:82 297:125 298:182 299:255 300:255 301:255 302:255 303:207 304:188 305:178 306:167 307:161 308:158 309:147 310:123 311:93 312:58 313:23 314:20 315:44 316:80 317:122 318:180 319:255 320:255 321:255 322:255 323:191 324:164 325:146 326:127 327:116 328:112 329:105 330:87 331:74 332:42 333:15 334:19 335:50 336:87 337:124 338:181 339:255 340:255 341:255 342:255 343:178 344:146 345:123 346:96 347:78 348:70 349:67 350:55 351:41 352:15 353:7 354:31 355:65 356:99 357:136 358:187 359:255 360:255 361:255 362:255 363:166 364:136 365:113 366:79 367:54 368:43 369:37 370:26 371:12 372:11 373:15 374:43 375:78 376:118 377:159 378:201 379:255 380:255 381:255 382:255 383:142 384:122 385:113 386:85 387:60 388:41 389:27 390:17 391:17 392:37 393:51 394:74 395:103 396:139 397:181 398:221 399:255 400:255 
-9.233392448753956e-06 1:255 2:255 3:215 4:219 5:235 6:244 7:250 8:253 9:253 10:255 11:255 12:253 13:248 14:234 15:215 16:196 17:175 18:182 19:255 20:255 21:255 22:255 23:229 24:232 25:242 26:246 27:247 28:247 29:247 30:249 31:253 32:253 33:244 34:230 35:214 36:199 37:188 38:201 39:255 40:255 41:255 42:255 43:237 44:240 45:240 46:229 47:215 48:206 49:208 50:221 51:237 52:242 53:228 54:206 55:189 56:178 57:175 58:195 59:255 60:255 61:255 62:255 63:242 64:241 65:229 66:204 67:177 68:162 69:163 70:176 71:202 72:213 73:198 74:173 75:154 76:145 77:144 78:177 79:255 80:255 81:255 82:255 83:244 84:237 85:215 86:179 87:145 88:121 89:118 90:134 91:165 92:179 93:165 94:138 95:116 96:106 97:112 98:159 99:255 100:255 101:255 102:255 103:241 104:232 105:204 106:164 107:124 108:90 109:81 110:103 111:137 112:149 113:133 114:104 115:81 116:78 117:97 118:153 119:255 120:255 121:255 122:255 123:237 124:227 125:199 126:158 127:114 128:73 129:57 130:81 131:112 132:121 133:103 134:75 135:60 136:71 137:102 138:161 139:255 140:255 141:255 142:255 143:235 144:224 145:198 146:156 147:110 148:66 149:41 150:61 151:86 152:90 153:74 154:53 155:56 156:82 157:117 158:172 159:255 160:255 161:255 162:255 163:234 164:220 165:195 166:156 167:109 168:61 169:30 170:39 171:59 172:60 173:48 174:47 175:69 176:105 177:139 178:185 179:255 180:255 181:255 182:255 183:231 184:215 185:190 186:152 187:105 188:56 189:23 190:23 191:28 192:28 193:33 194:60 195:94 196:128 197:162 198:203 199:255 200:255 201:255 202:255 203:227 204:208 205:184 206:148 207:104 208:54 209:18 210:10 211:14 212:19 213:38 214:77 215:118 216:156 217:187 218:217 219:255 220:255 221:255 222:255 223:227 224:207 225:181 226:142 227:96 228:49 229:12 230:4 231:6 232:17 233:46 234:88 235:132 236:170 237:201 238:230 239:255 240:255 241:255 242:255 243:227 244:207 245:181 246:141 247:93 248:45 249:9 250:3 251:5 252:15 253:42 254:84 255:130 256:171 257:204 258:232 259:255 260:255 261:255 262:255 263:224 264:206 265:181 266:141 267:91 268:40 269:8 270:3 271:7 272:15 273:33 274:72 275:118 276:159 277:193 278:225 279:255 280:255 281:255 282:255 283:218 284:203 285:182 286:143 287:93 288:42 289:11 290:9 291:16 292:20 293:29 294:53 295:92 296:133 297:171 298:211 299:255 300:255 301:255 302:255 303:209 304:199 305:184 306:147 307:97 308:46 309:15 310:19 311:37 312:39 313:33 314:37 315:64 316:103 317:142 318:191 319:255 320:255 321:255 322:255 323:195 324:189 325:182 326:149 327:101 328:48 329:20 330:32 331:63 332:68 333:53 334:38 335:46 336:75 337:112 338:168 339:255 340:255 341:255 342:255 343:179 344:170 345:172 346:147 347:103 348:54 349:29 350:48 351:85 352:98 353:85 354:60 355:44 356:54 357:85 358:146 359:255 360:255 361:255 362:255 363:162 364:151 365:159 366:143 367:108 368:67 369:45 370:72 371:103 372:125 373:113 374:89 375:61 376:52 377:71 378:133 379:255 380:255 381:255 382:255 383:141 384:130 385:149 386:144 387:119 388:88 389:79 390:94 391:132 392:148 393:143 394:119 395:95 396:82 397:85 398:137 399:255 400:255 
-4.123816283644812e-07 1:255 2:255 3:255 4:255 5:252 6:249 7:250 8:252 9:254 10:251 11:246 12:242 13:231 14:215 15:189 16:160 17:137 18:155 19:255 20:255 21:255 22:255 23:255 24:249 25:237 26:228 27:229 28:239 29:246 30:249 31:245 32:231 33:215 34:197 35:182 36:172 37:168 38:189 39:255 40:255 41:255 42:255 43:250 44:231 45:204 46:184 47:181 48:195 49:220 50:239 51:227 52:201 53:175 54:155 55:146 56:154 57:171 58:202 59:255 60:255 61:255 62:255 63:242 64:209 65:168 66:138 67:129 68:146 69:183 70:208 71:193 72:157 73:126 74:108 75:108 76:129 77:162 78:204 79:255 80:255 81:255 82:255 83:233 84:191 85:143 86:104 87:93 88:111 89:146 90:171 91:150 92:114 93:84 94:72 95:87 96:120 97:160 98:206 99:255 100:255 101:255 102:255 103:226 104:182 105:131 106:86 107:70 108:87 109:117 110:133 111:112 112:79 113:58 114:61 115:88 116:130 117:173 118:213 119:255 120:255 121:255 122:255 123:224 124:179 125:126 126:78 127:56 128:68 129:94 130:98 131:81 132:52 133:50 134:72 135:108 136:152 137:192 138:222 139:255 140:255 141:255 142:255 143:223 144:176 145:123 146:74 147:46 148:50 149:66 150:68 151:49 152:40 153:59 154:95 155:139 156:180 157:209 158:229 159:255 160:255 161:255 162:255 163:220 164:171 165:119 166:71 167:37 168:28 169:38 170:37 171:32 172:48 173:83 174:124 175:168 176:204 177:223 178:235 179:255 180:255 181:255 182:255 183:220 184:170 185:114 186:63 187:28 188:14 189:14 190:14 191:26 192:67 193:107 194:155 195:197 196:225 197:236 198:239 199:255 200:255 201:255 202:255 203:220 204:168 205:112 206:58 207:19 208:6 209:5 210:11 211:34 212:81 213:130 214:176 215:215 216:237 217:238 218:239 219:255 220:255 221:255 222:255 223:220 224:167 225:110 226:55 227:16 228:3 229:4 230:9 231:32 232:77 233:126 234:175 235:217 236:239 237:239 238:239 239:255 240:255 241:255 242:255 243:220 244:166 245:107 246:53 247:16 248:5 249:6 250:10 251:23 252:59 253:104 254:157 255:204 256:231 257:237 258:239 259:255 260:255 261:255 262:255 263:216 264:162 265:106 266:52 267:17 268:9 269:12 270:14 271:18 272:44 273:82 274:131 275:179 276:215 277:230 278:236 279:255 280:255 281:255 282:255 283:213 284:158 285:103 286:51 287:18 288:16 289:25 290:30 291:26 292:35 293:61 294:102 295:149 296:190 297:216 298:230 299:255 300:255 301:255 302:255 303:209 304:153 305:97 306:49 307:23 308:29 309:48 310:58 311:47 312:38 313:47 314:76 315:116 316:158 317:194 318:221 319:255 320:255 321:255 322:255 323:204 324:146 325:92 326:49 327:31 328:48 329:76 330:89 331:76 332:53 333:45 334:58 335:88 336:129 337:170 338:209 339:255 340:255 341:255 342:255 343:197 344:142 345:96 346:58 347:47 348:69 349:102 350:120 351:112 352:79 353:58 354:54 355:77 356:114 357:152 358:200 359:255 360:255 361:255 362:255 363:192 364:147 365:112 366:83 367:75 368:95 369:127 370:156 371:148 372:119 373:92 374:78 375:89 376:117 377:152 378:200 379:255 380:255 381:255 382:255 383:185 384:153 385:132 386:114 387:114 388:131 389:165 390:187 391:182 392:161 393:132 394:119 395:125 396:146 397:176 398:212 399:255 400:255 
-1.30833204431161e-05 1:255 2:255 3:233 4:238 5:249 6:254 7:255 8:255 9:253 10:250 11:245 12:242 13:229 14:211 15:191 16:169 17:147 18:163 19:255 20:255 21:255 22:255 23:243 24:247 25:251 26:249 27:245 28:243 29:243 30:242 31:242 32:241 33:229 34:213 35:196 36:183 37:175 38:190 39:255 40:255 41:255 42:255 43:250 44:250 45:243 46:230 47:218 48:209 49:211 50:224 51:230 52:229 53:214 54:193 55:179 56:174 57:174 58:196 59:255 60:255 61:255 62:255 63:251 64:242 65:224 66:200 67:176 68:162 69:169 70:189 71:205 72:202 73:185 74:161 75:144 76:141 77:149 78:183 79:255 80:255 81:255 82:255 83:249 84:235 85:206 86:169 87:138 88:122 89:131 90:154 91:178 92:175 93:151 94:122 95:104 96:105 97:123 98:169 99:255 100:255 101:255 102:255 103:246 104:229 105:194 106:150 107:111 108:90 109:98 110:126 111:150 112:145 113:116 114:88 115:74 116:84 117:113 118:166 119:255 120:255 121:255 122:255 123:242 124:224 125:189 126:142 127:97 128:68 129:72 130:101 131:120 132:111 133:85 134:64 135:62 136:85 137:121 138:174 139:255 140:255 141:255 142:255 143:238 144:220 145:184 146:137 147:92 148:58 149:53 150:73 151:90 152:79 153:61 154:52 155:65 156:99 157:140 158:189 159:255 160:255 161:255 162:255 163:239 164:217 165:180 166:133 167:88 168:48 169:34 170:50 171:58 172:52 173:40 174:52 175:84 176:123 177:158 178:201 179:255 180:255 181:255 182:255 183:244 184:224 185:186 186:136 187:84 188:39 189:17 190:20 191:24 192:25 193:35 194:65 195:107 196:149 197:181 198:213 199:255 200:255 201:255 202:255 203:238 204:221 205:186 206:136 207:82 208:34 209:13 210:10 211:13 212:19 213:51 214:92 215:130 216:166 217:197 218:224 219:255 220:255 221:255 222:255 223:235 224:215 225:180 226:131 227:78 228:28 229:6 230:3 231:9 232:22 233:57 234:101 235:144 236:181 237:206 238:225 239:255 240:255 241:255 242:255 243:233 244:209 245:173 246:126 247:74 248:27 249:5 250:2 251:9 252:19 253:55 254:98 255:142 256:178 257:201 258:221 259:255 260:255 261:255 262:255 263:230 264:204 265:168 266:122 267:71 268:24 269:6 270:5 271:11 272:17 273:45 274:83 275:125 276:164 277:190 278:213 279:255 280:255 281:255 282:255 283:228 284:200 285:164 286:120 287:71 288:26 289:10 290:11 291:19 292:21 293:33 294:63 295:104 296:146 297:177 298:205 299:255 300:255 301:255 302:255 303:226 304:200 305:166 306:122 307:73 308:30 309:16 310:26 311:41 312:39 313:33 314:48 315:82 316:121 317:155 318:194 319:255 320:255 321:255 322:255 323:222 324:200 325:169 326:125 327:76 328:34 329:25 330:50 331:71 332:66 333:48 334:42 335:59 336:91 337:126 338:177 339:255 340:255 341:255 342:255 343:212 344:194 345:169 346:128 347:81 348:41 349:38 350:71 351:95 352:92 353:71 354:48 355:47 356:67 357:99 358:157 359:255 360:255 361:255 362:255 363:197 364:181 365:165 366:130 367:89 368:57 369:56 370:85 371:118 372:120 373:97 374:70 375:55 376:60 377:85 378:147 379:255 380:255 381:255 382:255 383:180 384:168 385:164 386:138 387:104 388:77 389:79 390:107 391:133 392:139 393:126 394:101 395:81 396:78 397:94 398:149 399:255 400:255 
-2.496426055267641e-07 1:255 2:255 3:251 4:245 5:240 6:236 7:234 8:236 9:242 10:250 11:253 12:255 13:255 14:249 15:239 16:229 17:221 18:227 19:255 20:255 21:255 22:255 23:249 24:238 25:225 26:212 27:204 28:212 29:232 30:244 31:251 32:253 33:251 34:239 35:218 36:201 37:196 38:213 39:255 40:255 41:255 42:255 43:245 44:222 45:192 46:168 47:165 48:187 49:221 50:240 51:247 52:250 53:243 54:227 55:191 56:161 57:156 58:185 59:255 60:255 61:255 62:255 63:240 64:209 65:169 66:138 67:135 68:165 69:206 70:232 71:240 72:244 73:235 74:211 75:170 76:131 77:121 78:166 79:255 80:255 81:255 82:255 83:234 84:198 85:153 86:116 87:113 88:151 89:194 90:224 91:230 92:232 93:224 94:195 95:153 96:111 97:100 98:155 99:255 100:255 101:255 102:255 103:230 104:190 105:144 106:104 107:101 108:141 109:181 110:209 111:210 112:208 113:200 114:175 115:137 116:100 117:90 118:147 119:255 120:255 121:255 122:255 123:228 124:186 125:139 126:100 127:94 128:129 129:164 130:181 131:176 132:171 133:165 134:151 135:122 136:92 137:86 138:141 139:255 140:255 141:255 142:255 143:227 144:184 145:136 146:95 147:85 148:111 149:144 150:147 151:132 152:124 153:125 154:126 155:106 156:82 157:82 158:138 159:255 160:255 161:255 162:255 163:225 164:181 165:134 166:92 167:75 168:93 169:120 170:117 171:83 172:71 173:80 174:95 175:90 176:75 177:78 178:137 179:255 180:255 181:255 182:255 183:225 184:181 185:131 186:87 187:67 188:74 189:84 190:78 191:52 192:36 193:55 194:74 195:75 196:67 197:73 198:133 199:255 200:255 201:255 202:255 203:225 204:181 205:128 206:76 207:48 208:52 209:62 210:48 211:27 212:18 213:33 214:55 215:60 216:57 217:69 218:133 219:255 220:255 221:255 222:255 223:219 224:181 225:133 226:78 227:43 228:34 229:33 230:28 231:13 232:7 233:22 234:36 235:40 236:46 237:68 238:137 239:255 240:255 241:255 242:255 243:223 244:186 245:139 246:83 247:37 248:17 249:11 250:14 251:10 252:9 253:15 254:24 255:29 256:38 257:68 258:141 259:255 260:255 261:255 262:255 263:225 264:190 265:147 266:90 267:37 268:9 269:4 270:14 271:21 272:24 273:22 274:20 275:23 276:35 277:69 278:145 279:255 280:255 281:255 282:255 283:221 284:191 285:153 286:96 287:39 288:8 289:6 290:25 291:46 292:50 293:37 294:25 295:23 296:37 297:74 298:150 299:255 300:255 301:255 302:255 303:215 304:190 305:156 306:101 307:44 308:12 309:15 310:48 311:78 312:85 313:63 314:38 315:29 316:42 317:81 318:155 319:255 320:255 321:255 322:255 323:209 324:187 325:158 326:107 327:54 328:26 329:36 330:78 331:113 332:123 333:99 334:61 335:42 336:52 337:90 338:162 339:255 340:255 341:255 342:255 343:197 344:181 345:162 346:120 347:76 348:56 349:74 350:114 351:151 352:157 353:136 354:100 355:75 356:77 357:109 358:175 359:255 360:255 361:255 362:255 363:178 364:168 365:166 366:144 367:118 368:107 369:129 370:157 371:183 372:190 373:171 374:150 375:130 376:129 377:151 378:194 379:255 380:255 381:255 382:255 383:165 384:150 385:166 386:168 387:160 388:160 389:176 390:196 391:217 392:221 393:206 394:194 395:182 396:182 397:195 398:218 399:255 400:255 
-1.204289235188268e-05 1:255 2:255 3:231 4:234 5:240 6:240 7:245 8:253 9:253 10:253 11:247 12:233 13:221 14:202 15:180 16:163 17:160 18:188 19:255 20:255 21:255 22:255 23:221 24:207 25:203 26:201 27:208 28:227 29:244 30:252 31:242 32:222 33:195 34:167 35:144 36:130 37:131 38:171 39:255 40:255 41:255 42:255 43:205 44:179 45:163 46:154 47:158 48:175 49:199 50:226 51:223 52:200 53:167 54:131 55:104 56:92 57:100 58:153 59:255 60:255 61:255 62:255 63:190 64:151 65:124 66:107 67:108 68:122 69:154 70:184 71:192 72:173 73:140 74:102 75:73 76:65 77:81 78:141 79:255 80:255 81:255 82:255 83:179 84:127 85:94 86:72 87:66 88:79 89:113 90:143 91:162 92:150 93:117 94:81 95:54 96:50 97:72 98:138 99:255 100:255 101:255 102:255 103:178 104:120 105:82 106:53 107:39 108:46 109:75 110:110 111:132 112:126 113:96 114:63 115:43 116:46 117:73 118:139 119:255 120:255 121:255 122:255 123:185 124:132 125:91 126:55 127:30 128:26 129:45 130:78 131:104 132:102 133:77 134:49 135:36 136:49 137:79 138:143 139:255 140:255 141:255 142:255 143:196 144:153 145:114 146:73 147:40 148:21 149:25 150:48 151:76 152:78 153:59 154:36 155:33 156:53 157:88 158:151 159:255 160:255 161:255 162:255 163:211 164:173 165:135 166:97 167:62 168:30 169:16 170:23 171:42 172:45 173:35 174:24 175:33 176:65 177:104 178:162 179:255 180:255 181:255 182:255 183:220 184:190 185:160 186:124 187:86 188:50 189:18 190:9 191:13 192:16 193:14 194:21 195:43 196:79 197:118 198:171 199:255 200:255 201:255 202:255 203:230 204:211 205:187 206:155 207:119 208:77 209:36 210:9 211:3 212:4 213:6 214:25 215:58 216:101 217:143 218:189 219:255 220:255 221:255 222:255 223:242 224:231 225:210 226:181 227:148 228:107 229:63 230:22 231:5 232:2 233:7 234:33 235:72 236:118 237:162 238:203 239:255 240:255 241:255 242:255 243:248 244:244 245:232 246:207 247:174 248:137 249:93 250:52 251:16 252:6 253:11 254:43 255:89 256:138 257:180 258:216 259:255 260:255 261:255 262:255 263:246 264:249 265:246 266:227 267:196 268:163 269:124 270:80 271:38 272:15 273:18 274:52 275:102 276:153 277:197 278:231 279:255 280:255 281:255 282:255 283:237 284:246 285:252 286:237 287:210 288:184 289:152 290:107 291:61 292:29 293:27 294:57 295:106 296:158 297:205 298:241 299:255 300:255 301:255 302:255 303:220 304:236 305:252 306:241 307:218 308:196 309:168 310:127 311:81 312:42 313:32 314:57 315:101 316:152 317:202 318:241 319:255 320:255 321:255 322:255 323:194 324:211 325:242 326:243 327:226 328:203 329:176 330:139 331:94 332:53 333:36 334:55 335:94 336:143 337:194 338:235 339:255 340:255 341:255 342:255 343:164 344:170 345:216 346:237 347:231 348:212 349:186 350:150 351:103 352:66 353:48 354:61 355:96 356:142 357:191 358:233 359:255 360:255 361:255 362:255 363:138 364:134 365:179 366:212 367:225 368:217 369:197 370:166 371:123 372:90 373:76 374:82 375:113 376:156 377:201 378:239 379:255 380:255 381:255 382:255 383:119 384:100 385:142 386:181 387:206 388:217 389:213 390:187 391:154 392:128 393:111 394:118 395:142 396:180 397:221 398:249 399:255 400:255 
-6.466843940926296e-06 1:255 2:255 3:247 4:250 5:252 6:248 7:243 8:245 9:252 10:252 11:252 12:244 13:219 14:186 15:152 16:126 17:115 18:148 19:255 20:255 21:255 22:255 23:242 24:237 25:234 26:227 27:219 28:219 29:227 30:231 31:231 32:222 33:210 34:197 35:186 36:176 37:166 38:183 39:255 40:255 41:255 42:255 43:224 44:200 45:182 46:169 47:161 48:157 49:159 50:160 51:165 52:163 53:160 54:163 55:176 56:189 57:193 58:209 59:255 60:255 61:255 62:255 63:195 64:151 65:128 66:115 67:109 68:105 69:104 70:102 71:104 72:106 73:108 74:117 75:137 76:168 77:193 78:213 79:255 80:255 81:255 82:255 83:172 84:117 85:90 86:77 87:70 88:64 89:60 90:55 91:52 92:50 93:60 94:76 95:105 96:144 97:179 98:209 99:255 100:255 101:255 102:255 103:167 104:110 105:81 106:65 107:57 108:49 109:39 110:26 111:19 112:14 113:25 114:52 115:91 116:133 117:169 118:204 119:255 120:255 121:255 122:255 123:184 124:130 125:100 126:84 127:75 128:65 129:49 130:27 131:9 132:6 133:14 134:49 135:92 136:137 137:172 138:201 139:255 140:255 141:255 142:255 143:214 144:172 145:146 146:129 147:114 148:97 149:75 150:48 151:12 152:7 153:24 154:62 155:105 156:152 157:183 158:201 159:255 160:255 161:255 162:255 163:241 164:223 165:205 166:184 167:155 168:124 169:93 170:57 171:17 172:15 173:49 174:86 175:127 176:170 177:190 178:200 179:255 180:255 181:255 182:255 183:253 184:246 185:238 186:221 187:185 188:135 189:94 190:55 191:19 192:34 193:70 194:108 195:155 196:190 197:192 198:193 199:255 200:255 201:255 202:255 203:255 204:253 205:244 206:220 207:174 208:119 209:81 210:45 211:27 212:58 213:95 214:135 215:178 216:205 217:195 218:189 219:255 220:255 221:255 222:255 223:255 224:253 225:240 226:202 227:146 228:97 229:60 230:35 231:47 232:83 233:120 234:168 235:205 236:218 237:199 238:189 239:255 240:255 241:255 242:255 243:253 244:245 245:219 246:171 247:116 248:76 249:48 250:43 251:70 252:108 253:158 254:203 255:227 256:228 257:204 258:192 259:255 260:255 261:255 262:255 263:248 264:229 265:188 266:136 267:91 268:58 269:40 270:59 271:93 272:134 273:187 274:221 275:234 276:232 277:208 278:196 279:255 280:255 281:255 282:255 283:239 284:203 285:154 286:105 287:66 288:40 289:42 290:72 291:110 292:153 293:196 294:220 295:228 296:225 297:207 298:198 299:255 300:255 301:255 302:255 303:223 304:170 305:120 306:76 307:40 308:25 309:44 310:76 311:114 312:146 313:174 314:192 315:203 316:209 317:198 318:196 319:255 320:255 321:255 322:255 323:198 324:138 325:89 326:48 327:19 328:13 329:34 330:67 331:95 332:113 333:128 334:141 335:158 336:179 337:183 338:190 339:255 340:255 341:255 342:255 343:173 344:112 345:67 346:28 347:5 348:5 349:18 350:43 351:58 352:71 353:80 354:92 355:112 356:143 357:163 358:182 359:255 360:255 361:255 362:255 363:157 364:97 365:57 366:24 367:7 368:5 369:9 370:17 371:27 372:35 373:47 374:63 375:92 376:126 377:151 378:182 379:255 380:255 381:255 382:255 383:152 384:98 385:71 386:43 387:24 388:19 389:22 390:27 391:33 392:40 393:53 394:69 395:96 396:131 397:159 398:194 399:255 400:255 
