svm_type c_svc
kernel_type linear
nr_class 2
total_sv 19
rho -0.353629
label 25 -1
nr_sv 9 10
SV
9.894949077553376e-06 1:255 2:255 3:224 4:223 5:235 6:240 7:240 8:240 9:240 10:239 11:225 12:204 13:189 14:171 15:154 16:141 17:135 18:163 19:255 20:255 21:255 22:255 23:208 24:193 25:200 26:208 27:217 28:230 29:240 30:239 31:217 32:198 33:178 34:161 35:153 36:152 37:156 38:183 39:255 40:255 41:255 42:255 43:177 44:150 45:155 46:169 47:188 48:210 49:227 50:219 51:194 52:166 53:140 54:124 55:124 56:136 57:150 58:183 59:255 60:255 61:255 62:255 63:148 64:107 65:111 66:127 67:152 68:183 69:203 70:191 71:159 72:124 73:99 74:88 75:96 76:116 77:138 78:176 79:255 80:255 81:255 82:255 83:128 84:74 85:73 86:89 87:117 88:151 89:173 90:161 91:125 92:92 93:67 94:62 95:77 96:105 97:132 98:173 99:255 100:255 101:255 102:255 103:120 104:56 105:46 106:58 107:87 108:120 109:141 110:132 111:97 112:68 113:46 114:50 115:75 116:108 117:137 118:178 119:255 120:255 121:255 122:255 123:123 124:55 125:34 126:37 127:62 128:93 129:110 130:104 131:74 132:47 133:36 134:52 135:84 136:121 137:151 138:188 139:255 140:255 141:255 142:255 143:133 144:67 145:36 146:25 147:40 148:66 149:82 150:75 151:50 152:30 153:36 154:62 155:97 156:135 157:167 158:200 159:255 160:255 161:255 162:255 163:144 164:81 165:47 166:23 167:22 168:37 169:49 170:46 171:28 172:21 173:44 174:77 175:116 176:154 177:184 178:211 179:255 180:255 181:255 182:255 183:160 184:100 185:61 186:29 187:13 188:13 189:18 190:15 191:10 192:23 193:57 194:96 195:137 196:175 197:200 198:220 199:255 200:255 201:255 202:255 203:176 204:119 205:81 206:46 207:17 208:6 209:5 210:5 211:8 212:35 213:79 214:122 215:161 216:195 217:218 218:234 219:255 220:255 221:255 222:255 223:194 224:144 225:106 226:68 227:31 228:7 229:2 230:3 231:17 232:57 233:101 234:146 235:185 236:218 237:239 238:247 239:255 240:255 241:255 242:255 243:208 244:167 245:130 246:92 247:52 248:18 249:5 250:7 251:35 252:79 253:124 254:169 255:207 256:235 257:251 258:253 259:255 260:255 261:255 262:255 263:217 264:185 265:151 266:112 267:72 268:32 269:10 270:15 271:51 272:95 273:143 274:186 275:221 276:242 277:250 278:251 279:255 280:255 281:255 282:255 283:222 284:196 285:166 286:127 287:86 288:46 289:19 290:22 291:60 292:105 293:156 294:201 295:232 296:246 297:246 298:246 299:255 300:255 301:255 302:255 303:228 304:205 305:177 306:138 307:97 308:59 309:28 310:27 311:62 312:109 313:161 314:207 315:237 316:248 317:243 318:238 319:255 320:255 321:255 322:255 323:229 324:209 325:185 326:148 327:106 328:67 329:34 330:30 331:60 332:107 333:158 334:206 335:238 336:250 337:241 338:233 339:255 340:255 341:255 342:255 343:221 344:207 345:189 346:155 347:113 348:73 349:40 350:34 351:62 352:105 353:156 354:205 355:240 356:254 357:246 358:237 359:255 360:255 361:255 362:255 363:209 364:197 365:190 366:163 367:123 368:86 369:55 370:48 371:72 372:112 373:161 374:207 375:240 376:254 377:250 378:244 379:255 380:255 381:255 382:255 383:189 384:181 385:186 386:170 387:137 388:103 389:80 390:78 391:94 392:126 393:170 394:209 395:237 396:251 397:249 398:244 399:255 400:255 
1.248910259930131e-05 1:255 2:255 3:215 4:230 5:248 6:252 7:254 8:255 9:253 10:250 11:245 12:245 13:233 14:208 15:184 16:169 17:157 18:174 19:255 20:255 21:255 22:255 23:226 24:235 25:238 26:229 27:227 28:233 29:233 30:233 31:244 32:245 33:220 34:195 35:171 36:151 37:138 38:163 39:255 40:255 41:255 42:255 43:222 44:209 45:195 46:177 47:169 48:173 49:180 50:191 51:212 52:217 53:197 54:173 55:146 56:122 57:108 58:142 59:255 60:255 61:255 62:255 63:214 64:185 65:156 66:131 67:119 68:117 69:129 70:146 71:171 72:182 73:173 74:148 75:117 76:92 77:80 78:122 79:255 80:255 81:255 82:255 83:209 84:170 85:135 86:103 87:82 88:75 89:85 90:105 91:135 92:152 93:149 94:125 95:94 96:67 97:57 98:111 99:255 100:255 101:255 102:255 103:211 104:170 105:132 106:94 107:63 108:47 109:51 110:74 111:105 112:127 113:125 114:103 115:74 116:49 117:47 118:111 119:255 120:255 121:255 122:255 123:222 124:184 125:143 126:102 127:66 128:40 129:32 130:51 131:82 132:101 133:101 134:80 135:52 136:37 137:48 138:117 139:255 140:255 141:255 142:255 143:239 144:205 145:163 146:121 147:83 148:51 149:26 150:30 151:59 152:73 153:74 154:58 155:36 156:32 157:54 158:123 159:255 160:255 161:255 162:255 163:248 164:222 165:185 166:144 167:104 168:67 169:32 170:20 171:31 172:47 173:49 174:34 175:23 176:34 177:64 178:133 179:255 180:255 181:255 182:255 183:248 184:229 185:197 186:161 187:124 188:87 189:49 190:15 191:9 192:16 193:17 194:14 195:19 196:42 197:80 198:147 199:255 200:255 201:255 202:255 203:248 204:244 205:223 206:188 207:149 208:106 209:66 210:24 211:6 212:3 213:4 214:8 215:25 216:55 217:93 218:156 219:255 220:255 221:255 222:255 223:251 224:251 225:245 226:216 227:171 228:129 229:91 230:48 231:12 232:3 233:4 234:11 235:37 236:76 237:115 238:169 239:255 240:255 241:255 242:255 243:251 244:253 245:249 246:224 247:186 248:151 249:112 250:72 251:31 252:9 253:6 254:18 255:50 256:91 257:132 258:185 259:255 260:255 261:255 262:255 263:241 264:246 265:248 266:231 267:201 268:170 269:139 270:99 271:56 272:20 273:10 274:26 275:60 276:103 277:144 278:193 279:255 280:255 281:255 282:255 283:217 284:223 285:240 286:236 287:214 288:187 289:161 290:122 291:75 292:34 293:17 294:32 295:69 296:112 297:153 298:199 299:255 300:255 301:255 302:255 303:191 304:193 305:221 306:235 307:227 308:202 309:173 310:136 311:88 312:46 313:23 314:35 315:72 316:117 317:158 318:204 319:255 320:255 321:255 322:255 323:168 324:168 325:199 326:227 327:237 328:213 329:180 330:143 331:96 332:53 333:28 334:38 335:74 336:117 337:160 338:207 339:255 340:255 341:255 342:255 343:147 344:141 345:178 346:215 347:235 348:220 349:186 350:147 351:104 352:61 353:36 354:46 355:79 356:121 357:162 358:208 359:255 360:255 361:255 362:255 363:127 364:111 365:150 366:190 367:219 368:220 369:192 370:158 371:118 372:82 373:59 374:67 375:95 376:131 377:170 378:213 379:255 380:255 381:255 382:255 383:110 384:88 385:125 386:165 387:201 388:216 389:203 390:173 391:136 392:111 393:94 394:97 395:116 396:146 397:187 398:228 399:255 400:255 
5.937079027984409e-06 1:255 2:255 3:237 4:224 5:220 6:230 7:245 8:251 9:250 10:241 11:232 12:231 13:231 14:206 15:170 16:137 17:112 18:137 19:255 20:255 21:255 22:255 23:205 24:168 25:152 26:156 27:176 28:203 29:226 30:232 31:222 32:210 33:200 34:181 35:158 36:139 37:129 38:159 39:255 40:255 41:255 42:255 43:180 44:128 45:104 46:100 47:117 48:149 49:185 50:206 51:204 52:189 53:165 54:139 55:118 56:110 57:118 58:163 59:255 60:255 61:255 62:255 63:166 64:105 65:76 66:66 67:75 68:106 69:145 70:180 71:187 72:166 73:131 74:98 75:80 76:81 77:101 78:158 79:255 80:255 81:255 82:255 83:164 84:100 85:64 86:44 87:46 88:73 89:110 90:149 91:161 92:138 93:103 94:71 95:57 96:66 97:95 98:156 99:255 100:255 101:255 102:255 103:171 104:108 105:67 106:37 107:28 108:48 109:83 110:119 111:131 112:108 113:78 114:52 115:48 116:68 117:102 118:163 119:255 120:255 121:255 122:255 123:184 124:124 125:81 126:43 127:21 128:30 129:60 130:92 131:99 132:80 133:55 134:38 135:48 136:79 137:116 138:172 139:255 140:255 141:255 142:255 143:197 144:143 145:96 146:54 147:25 148:20 149:37 150:62 151:65 152:54 153:33 154:32 155:55 156:92 157:131 158:179 159:255 160:255 161:255 162:255 163:205 164:160 165:116 166:71 167:35 168:16 169:18 170:32 171:34 172:25 173:23 174:38 175:70 176:110 177:144 178:185 179:255 180:255 181:255 182:255 183:218 184:182 185:141 186:93 187:49 188:15 189:5 190:7 191:14 192:10 193:25 194:55 195:94 196:132 197:156 198:185 199:255 200:255 201:255 202:255 203:236 204:204 205:163 206:114 207:65 208:25 209:4 210:2 211:5 212:13 213:40 214:75 215:114 216:152 217:171 218:190 219:255 220:255 221:255 222:255 223:244 224:224 225:190 226:139 227:86 228:44 229:12 230:2 231:8 232:29 233:61 234:102 235:144 236:175 237:184 238:194 239:255 240:255 241:255 242:255 243:250 244:241 245:212 246:164 247:108 248:59 249:23 250:6 251:17 252:52 253:92 254:133 255:169 256:193 257:193 258:198 259:255 260:255 261:255 262:255 263:254 264:246 265:220 266:178 267:127 268:75 269:34 270:13 271:30 272:73 273:118 274:160 275:195 276:212 277:203 278:200 279:255 280:255 281:255 282:255 283:255 284:247 285:226 286:188 287:138 288:86 289:43 290:20 291:42 292:84 293:135 294:177 295:208 296:220 297:206 298:200 299:255 300:255 301:255 302:255 303:255 304:249 305:228 306:189 307:141 308:91 309:50 310:25 311:48 312:87 313:141 314:183 315:210 316:220 317:207 318:201 319:255 320:255 321:255 322:255 323:254 324:252 325:228 326:189 327:144 328:95 329:55 330:30 331:51 332:90 333:145 334:190 335:218 336:226 337:212 338:206 339:255 340:255 341:255 342:255 343:249 344:250 345:235 346:200 347:153 348:104 349:62 350:41 351:60 352:98 353:154 354:204 355:235 356:240 357:223 358:216 359:255 360:255 361:255 362:255 363:231 364:239 365:240 366:213 367:168 368:119 369:83 370:66 371:76 372:111 373:162 374:213 375:243 376:248 377:236 378:231 379:255 380:255 381:255 382:255 383:200 384:214 385:237 386:225 387:189 388:151 389:116 390:98 391:107 392:136 393:179 394:225 395:247 396:251 397:248 398:245 399:255 400:255 
1.426115506281239e-06 1:255 2:255 3:245 4:248 5:251 6:247 7:242 8:242 9:242 10:242 11:242 12:228 13:215 14:184 15:159 16:150 17:151 18:180 19:255 20:255 21:255 22:255 23:225 24:204 25:194 26:192 27:195 28:205 29:225 30:228 31:228 32:215 33:189 34:156 35:128 36:116 37:125 38:169 39:255 40:255 41:255 42:255 43:197 44:156 45:136 46:131 47:141 48:161 49:186 50:203 51:203 52:190 53:154 54:118 55:92 56:85 57:97 58:149 59:255 60:255 61:255 62:255 63:178 64:124 65:96 66:86 67:93 68:115 69:145 70:173 71:182 72:163 73:123 74:86 75:63 76:62 77:81 78:140 79:255 80:255 81:255 82:255 83:172 84:112 85:76 86:57 87:57 88:77 89:108 90:140 91:154 92:131 93:96 94:61 95:44 96:52 97:79 98:140 99:255 100:255 101:255 102:255 103:175 104:115 105:75 106:46 107:37 108:49 109:76 110:106 111:118 112:99 113:71 114:45 115:38 116:56 117:87 118:145 119:255 120:255 121:255 122:255 123:186 124:130 125:89 126:54 127:32 128:30 129:49 130:73 131:82 132:71 133:48 134:34 135:41 136:66 137:99 138:155 139:255 140:255 141:255 142:255 143:199 144:151 145:111 146:73 147:41 148:21 149:26 150:42 151:49 152:42 153:29 154:28 155:47 156:80 157:114 158:165 159:255 160:255 161:255 162:255 163:210 164:172 165:134 166:95 167:58 168:25 169:10 170:14 171:17 172:16 173:15 174:29 175:59 176:97 177:131 178:177 179:255 180:255 181:255 182:255 183:226 184:196 185:161 186:118 187:75 188:38 189:9 190:4 191:4 192:6 193:13 194:38 195:73 196:113 197:147 198:185 199:255 200:255 201:255 202:255 203:236 204:211 205:178 206:139 207:99 208:57 209:18 210:4 211:1 212:5 213:17 214:50 215:89 216:129 217:164 218:201 219:255 220:255 221:255 222:255 223:250 224:231 225:200 226:162 227:121 228:79 229:41 230:11 231:6 232:8 233:30 234:68 235:112 236:153 237:180 238:204 239:255 240:255 241:255 242:255 243:254 244:238 245:212 246:179 247:141 248:104 249:66 250:30 251:12 252:15 253:45 254:84 255:129 256:168 257:190 258:209 259:255 260:255 261:255 262:255 263:255 264:244 265:223 266:195 267:163 268:128 269:87 270:50 271:24 272:24 273:54 274:96 275:141 276:177 277:198 278:218 279:255 280:255 281:255 282:255 283:255 284:250 285:234 286:211 287:181 288:147 289:106 290:67 291:33 292:30 293:57 294:100 295:146 296:181 297:201 298:222 299:255 300:255 301:255 302:255 303:251 304:252 305:246 306:227 307:198 308:164 309:122 310:77 311:39 312:32 313:56 314:99 315:146 316:182 317:203 318:222 319:255 320:255 321:255 322:255 323:235 324:243 325:251 326:239 327:213 328:179 329:134 330:86 331:48 332:38 333:59 334:99 335:144 336:184 337:208 338:225 339:255 340:255 341:255 342:255 343:209 344:221 345:243 346:243 347:226 348:194 349:149 350:103 351:67 352:56 353:72 354:106 355:148 356:189 357:216 358:231 359:255 360:255 361:255 362:255 363:184 364:192 365:226 366:244 367:242 368:213 369:174 370:129 371:101 372:89 373:99 374:126 375:164 376:200 377:224 378:239 379:255 380:255 381:255 382:255 383:158 384:158 385:201 386:235 387:248 388:234 389:205 390:169 391:145 392:132 393:144 394:167 395:195 396:220 397:238 398:252 399:255 400:255 
9.672806833901452e-07 1:255 2:255 3:233 4:238 5:248 6:251 7:251 8:251 9:250 10:244 11:227 12:197 13:178 14:152 15:130 16:116 17:111 18:149 19:255 20:255 21:255 22:255 23:233 24:231 25:241 26:246 27:246 28:247 29:250 30:244 31:232 32:209 33:189 34:170 35:156 36:149 37:149 38:177 39:255 40:255 41:255 42:255 43:220 44:215 45:226 46:231 47:232 48:238 49:246 50:244 51:228 52:201 53:176 54:155 55:142 56:143 57:155 58:186 59:255 60:255 61:255 62:255 63:201 64:183 65:187 66:193 67:200 68:214 69:225 70:224 71:205 72:173 73:142 74:119 75:111 76:120 77:138 78:177 79:255 80:255 81:255 82:255 83:173 84:137 85:136 86:143 87:159 88:181 89:196 90:197 91:176 92:139 93:105 94:84 95:81 96:97 97:121 98:167 99:255 100:255 101:255 102:255 103:146 104:97 105:90 106:97 107:117 108:145 109:167 110:173 111:147 112:107 113:75 114:56 115:61 116:85 117:115 118:165 119:255 120:255 121:255 122:255 123:132 124:75 125:59 126:60 127:80 128:110 129:137 130:147 131:119 132:82 133:52 134:39 135:54 136:87 137:122 138:173 139:255 140:255 141:255 142:255 143:133 144:72 145:46 146:37 147:53 148:80 149:104 150:115 151:96 152:63 153:36 154:35 155:60 156:98 157:136 158:185 159:255 160:255 161:255 162:255 163:145 164:83 165:51 166:31 167:34 168:55 169:76 170:85 171:72 172:41 173:28 174:41 175:71 176:110 177:150 178:197 179:255 180:255 181:255 182:255 183:161 184:103 185:69 186:39 187:22 188:30 189:47 190:57 191:46 192:24 193:24 194:50 195:86 196:128 197:169 198:208 199:255 200:255 201:255 202:255 203:175 204:123 205:88 206:52 207:23 208:13 209:16 210:19 211:16 212:11 213:27 214:62 215:103 216:146 217:183 218:215 219:255 220:255 221:255 222:255 223:191 224:145 225:108 226:74 227:41 228:14 229:7 230:6 231:6 232:9 233:41 234:80 235:120 236:160 237:197 238:231 239:255 240:255 241:255 242:255 243:200 244:166 245:135 246:98 247:61 248:27 249:7 250:2 251:2 252:16 253:55 254:97 255:142 256:182 257:212 258:237 259:255 260:255 261:255 262:255 263:217 264:190 265:161 266:125 267:88 268:50 269:18 270:4 271:5 272:27 273:67 274:112 275:156 276:196 277:227 278:244 279:255 280:255 281:255 282:255 283:232 284:212 285:185 286:151 287:113 288:75 289:40 290:11 291:11 292:40 293:79 294:124 295:169 296:208 297:236 298:250 299:255 300:255 301:255 302:255 303:236 304:223 305:203 306:172 307:136 308:96 309:59 310:23 311:17 312:48 313:86 314:131 315:176 316:216 317:243 318:253 319:255 320:255 321:255 322:255 323:228 324:224 325:213 326:188 327:154 328:113 329:72 330:37 331:23 332:49 333:86 334:129 335:176 336:220 337:248 338:254 339:255 340:255 341:255 342:255 343:216 344:216 345:215 346:195 347:165 348:126 349:84 350:49 351:27 352:47 353:81 354:125 355:174 356:220 357:248 358:255 359:255 360:255 361:255 362:255 363:206 364:205 365:213 366:201 367:174 368:139 369:96 370:59 371:31 372:46 373:78 374:122 375:173 376:220 377:248 378:255 379:255 380:255 381:255 382:255 383:194 384:192 385:205 386:200 387:181 388:149 389:108 390:69 391:42 392:56 393:82 394:123 395:173 396:220 397:248 398:254 399:255 400:255 
4.039098733070984e-06 1:255 2:255 3:224 4:235 5:251 6:254 7:254 8:248 9:237 10:224 11:214 12:206 13:188 14:168 15:145 16:122 17:104 18:137 19:255 20:255 21:255 22:255 23:240 24:245 25:252 26:254 27:253 28:248 29:237 30:224 31:223 32:214 33:200 34:180 35:161 36:146 37:136 38:164 39:255 40:255 41:255 42:255 43:243 44:245 45:248 46:250 47:250 48:246 49:238 50:229 51:224 52:210 53:194 54:176 55:156 56:142 57:138 58:170 59:255 60:255 61:255 62:255 63:236 64:220 65:211 66:208 67:209 68:212 69:217 70:220 71:212 72:198 73:179 74:155 75:131 76:115 77:115 78:156 79:255 80:255 81:255 82:255 83:214 84:183 85:164 86:155 87:154 88:163 89:176 90:190 91:192 92:181 93:158 94:127 95:100 96:84 97:87 98:138 99:255 100:255 101:255 102:255 103:195 104:152 105:125 106:108 107:105 108:113 109:130 110:154 111:168 112:161 113:135 114:103 115:74 116:61 117:69 118:128 119:255 120:255 121:255 122:255 123:189 124:137 125:101 126:77 127:67 128:72 129:92 130:121 131:141 132:139 133:113 134:81 135:55 136:47 137:64 138:129 139:255 140:255 141:255 142:255 143:191 144:137 145:98 146:65 147:45 148:43 149:62 150:90 151:114 152:116 153:92 154:61 155:40 156:42 157:68 158:135 159:255 160:255 161:255 162:255 163:198 164:152 165:110 166:72 167:43 168:29 169:39 170:65 171:87 172:90 173:72 174:46 175:32 176:43 177:75 178:142 179:255 180:255 181:255 182:255 183:213 184:173 185:133 186:94 187:58 188:31 189:21 190:38 191:58 192:63 193:48 194:28 195:28 196:52 197:88 198:151 199:255 200:255 201:255 202:255 203:236 204:198 205:158 206:118 207:78 208:42 209:14 210:14 211:23 212:29 213:23 214:16 215:29 216:60 217:100 218:163 219:255 220:255 221:255 222:255 223:242 224:214 225:181 226:142 227:101 228:63 229:28 230:9 231:8 232:8 233:9 234:15 235:38 236:74 237:113 238:171 239:255 240:255 241:255 242:255 243:248 244:236 245:206 246:166 247:127 248:87 249:49 250:16 251:3 252:2 253:5 254:22 255:53 256:91 257:129 258:181 259:255 260:255 261:255 262:255 263:249 264:245 265:227 266:192 267:152 268:114 269:72 270:36 271:9 272:4 273:8 274:31 275:68 276:107 277:144 278:190 279:255 280:255 281:255 282:255 283:246 284:245 285:236 286:210 287:176 288:142 289:101 290:63 291:26 292:11 293:14 294:40 295:79 296:119 297:157 298:199 299:255 300:255 301:255 302:255 303:238 304:237 305:235 306:219 307:194 308:164 309:127 310:87 311:47 312:20 313:20 314:47 315:86 316:127 317:164 318:205 319:255 320:255 321:255 322:255 323:221 324:220 325:228 326:225 327:207 328:179 329:147 330:106 331:64 332:31 333:25 334:50 335:89 336:130 337:168 338:209 339:255 340:255 341:255 342:255 343:194 344:196 345:220 346:228 347:217 348:192 349:161 350:118 351:77 352:41 353:28 354:50 355:88 356:130 357:171 358:212 359:255 360:255 361:255 362:255 363:173 364:173 365:206 366:225 367:222 368:198 369:167 370:125 371:85 372:48 373:33 374:51 375:87 376:130 377:172 378:214 379:255 380:255 381:255 382:255 383:153 384:150 385:188 386:214 387:221 388:205 389:171 390:138 391:95 392:60 393:45 394:59 395:92 396:133 397:179 398:224 399:255 400:255 
3.39232976860021e-06 1:255 2:255 3:184 4:186 5:212 6:229 7:242 8:251 9:251 10:251 11:251 12:254 13:255 14:243 15:208 16:169 17:140 18:157 19:255 20:255 21:255 22:255 23:200 24:193 25:195 26:192 27:194 28:198 29:210 30:227 31:238 32:240 33:240 34:218 35:183 36:154 37:136 38:157 39:255 40:255 41:255 42:255 43:214 44:193 45:172 46:150 47:141 48:145 49:160 50:177 51:197 52:211 53:210 54:184 55:148 56:120 57:107 58:141 59:255 60:255 61:255 62:255 63:226 64:187 65:148 66:117 67:99 68:96 69:111 70:132 71:160 72:179 73:178 74:151 75:116 76:88 77:75 78:122 79:255 80:255 81:255 82:255 83:236 84:187 85:136 86:97 87:69 88:58 89:72 90:97 91:128 92:154 93:154 94:126 95:90 96:62 97:53 98:109 99:255 100:255 101:255 102:255 103:242 104:191 105:136 106:92 107:57 108:38 109:44 110:69 111:103 112:131 113:130 114:102 115:67 116:44 117:45 118:109 119:255 120:255 121:255 122:255 123:245 124:202 125:149 126:103 127:64 128:35 129:26 130:45 131:80 132:104 133:101 134:77 135:49 136:36 137:50 138:118 139:255 140:255 141:255 142:255 143:253 144:222 145:173 146:124 147:81 148:43 149:20 150:24 151:52 152:76 153:75 154:55 155:35 156:36 157:60 158:128 159:255 160:255 161:255 162:255 163:255 164:233 165:189 166:140 167:97 168:60 169:27 170:12 171:25 172:45 173:47 174:32 175:26 176:40 177:73 178:141 179:255 180:255 181:255 182:255 183:252 184:233 185:197 186:158 187:119 188:79 189:40 190:11 191:8 192:15 193:16 194:13 195:22 196:49 197:87 198:150 199:255 200:255 201:255 202:255 203:252 204:241 205:216 206:177 207:136 208:97 209:59 210:18 211:4 212:4 213:6 214:13 215:35 216:70 217:110 218:168 219:255 220:255 221:255 222:255 223:243 224:238 225:219 226:190 227:159 228:123 229:78 230:34 231:7 232:3 233:7 234:24 235:54 236:92 237:130 238:182 239:255 240:255 241:255 242:255 243:242 244:244 245:237 246:213 247:178 248:138 249:97 250:58 251:18 252:7 253:12 254:39 255:76 256:117 257:158 258:206 259:255 260:255 261:255 262:255 263:234 264:243 265:243 266:222 267:190 268:154 269:118 270:79 271:38 272:16 273:21 274:53 275:95 276:139 277:183 278:224 279:255 280:255 281:255 282:255 283:221 284:237 285:243 286:223 287:196 288:169 289:136 290:97 291:56 292:27 293:29 294:61 295:106 296:152 297:201 298:242 299:255 300:255 301:255 302:255 303:200 304:218 305:237 306:226 307:206 308:183 309:149 310:111 311:69 312:36 313:34 314:63 315:109 316:160 317:212 318:252 319:255 320:255 321:255 322:255 323:174 324:184 325:219 326:227 327:214 328:191 329:160 330:124 331:82 332:45 333:38 334:64 335:109 336:161 337:214 338:252 339:255 340:255 341:255 342:255 343:151 344:145 345:188 346:214 347:214 348:198 349:172 350:141 351:95 352:57 353:48 354:71 355:112 356:160 357:211 358:252 359:255 360:255 361:255 362:255 363:130 364:114 365:151 366:184 367:209 368:217 369:196 370:153 371:110 372:77 373:66 374:85 375:122 376:171 377:220 378:252 379:255 380:255 381:255 382:255 383:107 384:84 385:122 386:156 387:191 388:222 389:215 390:173 391:136 392:106 393:97 394:108 395:139 396:188 397:234 398:255 399:255 400:255 
7.994744941206704e-06 1:255 2:255 3:254 4:254 5:255 6:254 7:250 8:242 9:231 10:231 11:223 12:200 13:173 14:142 15:110 16:81 17:61 18:103 19:255 20:255 21:255 22:255 23:250 24:252 25:253 26:253 27:249 28:242 29:240 30:240 31:239 32:216 33:190 34:166 35:142 36:120 37:106 38:139 39:255 40:255 41:255 42:255 43:231 44:217 45:220 46:227 47:232 48:236 49:242 50:242 51:234 52:213 53:191 54:173 55:158 56:149 57:147 58:175 59:255 60:255 61:255 62:255 63:194 64:164 65:164 66:175 67:190 68:207 69:226 70:234 71:216 72:192 73:170 74:152 75:144 76:145 77:157 78:191 79:255 80:255 81:255 82:255 83:162 84:118 85:112 86:122 87:143 88:169 89:197 90:211 91:190 92:162 93:136 94:116 95:110 96:121 97:145 98:189 99:255 100:255 101:255 102:255 103:142 104:87 105:75 106:81 107:103 108:133 109:164 110:177 111:160 112:130 113:101 114:81 115:79 116:96 117:128 118:180 119:255 120:255 121:255 122:255 123:136 124:74 125:53 126:52 127:71 128:102 129:133 130:144 131:131 132:100 133:73 134:57 135:63 136:88 137:121 138:175 139:255 140:255 141:255 142:255 143:143 144:78 145:48 146:36 147:48 148:79 149:108 150:116 151:103 152:77 153:52 154:45 155:63 156:95 157:130 158:180 159:255 160:255 161:255 162:255 163:154 164:92 165:55 166:32 167:34 168:58 169:83 170:90 171:77 172:52 173:38 174:43 175:70 176:108 177:145 178:189 179:255 180:255 181:255 182:255 183:167 184:108 185:67 186:33 187:22 188:37 189:55 190:63 191:47 192:29 193:31 194:52 195:84 196:125 197:162 198:199 199:255 200:255 201:255 202:255 203:184 204:129 205:83 206:41 207:15 208:14 209:23 210:28 211:19 212:15 213:31 214:65 215:103 216:144 217:181 218:210 219:255 220:255 221:255 222:255 223:200 224:149 225:103 226:57 227:22 228:8 229:8 230:10 231:9 232:18 233:48 234:84 235:122 236:162 237:193 238:218 239:255 240:255 241:255 242:255 243:212 244:165 245:120 246:75 247:35 248:8 249:2 250:4 251:8 252:31 253:67 254:107 255:144 256:177 257:196 258:213 259:255 260:255 261:255 262:255 263:221 264:179 265:137 266:95 267:54 268:19 269:4 270:5 271:17 272:51 273:89 274:129 275:164 276:191 277:199 278:207 279:255 280:255 281:255 282:255 283:228 284:192 285:154 286:114 287:72 288:35 289:9 290:11 291:33 292:72 293:112 294:150 295:185 296:209 297:208 298:208 299:255 300:255 301:255 302:255 303:237 304:208 305:171 306:130 307:88 308:47 309:17 310:18 311:50 312:89 313:131 314:169 315:205 316:224 317:217 318:212 319:255 320:255 321:255 322:255 323:247 324:224 325:187 326:143 327:98 328:56 329:25 330:24 331:61 332:101 333:144 334:185 335:219 336:235 337:223 338:215 339:255 340:255 341:255 342:255 343:249 344:231 345:197 346:150 347:102 348:61 349:31 350:30 351:67 352:109 353:155 354:196 355:228 356:241 357:225 358:214 359:255 360:255 361:255 362:255 363:245 364:229 365:198 366:153 367:105 368:62 369:34 370:38 371:73 372:115 373:162 374:208 375:237 376:240 377:220 378:211 379:255 380:255 381:255 382:255 383:231 384:218 385:195 386:156 387:112 388:69 389:41 390:47 391:81 392:123 393:171 394:222 395:245 396:245 397:228 398:215 399:255 400:255 
9.040526610220798e-06 1:255 2:255 3:245 4:248 5:246 6:236 7:229 8:229 9:231 10:241 11:251 12:243 13:241 14:225 15:204 16:180 17:154 18:169 19:255 20:255 21:255 22:255 23:232 24:216 25:197 26:181 27:176 28:180 29:190 30:211 31:231 32:231 33:223 34:205 35:181 36:157 37:139 38:162 39:255 40:255 41:255 42:255 43:220 44:185 45:154 46:133 47:127 48:132 49:147 50:174 51:201 52:214 53:199 54:174 55:146 56:123 57:110 58:143 59:255 60:255 61:255 62:255 63:208 64:163 65:127 66:100 67:89 68:91 69:107 70:138 71:169 72:186 73:173 74:145 75:113 76:89 77:79 78:123 79:255 80:255 81:255 82:255 83:203 84:156 85:116 86:83 87:62 88:58 89:73 90:105 91:138 92:156 93:144 94:116 95:85 96:62 97:57 98:113 99:255 100:255 101:255 102:255 103:207 104:161 105:120 106:83 107:53 108:38 109:48 110:76 111:107 112:125 113:114 114:90 115:62 116:45 117:49 118:113 119:255 120:255 121:255 122:255 123:215 124:172 125:133 126:94 127:59 128:33 129:31 130:50 131:78 132:93 133:85 134:65 135:44 136:38 137:54 138:120 139:255 140:255 141:255 142:255 143:225 144:189 145:151 146:110 147:72 148:39 149:20 150:29 151:51 152:63 153:57 154:41 155:32 156:41 157:68 158:131 159:255 160:255 161:255 162:255 163:232 164:207 165:170 166:130 167:90 168:51 169:20 170:14 171:18 172:29 173:27 174:21 175:28 176:52 177:86 178:146 179:255 180:255 181:255 182:255 183:245 184:223 185:188 186:147 187:107 188:67 189:29 190:9 191:6 192:8 193:10 194:14 195:34 196:66 197:102 198:160 199:255 200:255 201:255 202:255 203:254 204:237 205:204 206:164 207:123 208:81 209:41 210:11 211:3 212:2 213:5 214:17 215:48 216:86 217:122 218:174 219:255 220:255 221:255 222:255 223:255 224:245 225:218 226:181 227:140 228:101 229:63 230:25 231:5 232:3 233:9 234:32 235:68 236:107 237:142 238:188 239:255 240:255 241:255 242:255 243:255 244:251 245:227 246:191 247:155 248:120 249:83 250:44 251:13 252:8 253:17 254:50 255:90 256:128 257:162 258:200 259:255 260:255 261:255 262:255 263:253 264:251 265:233 266:204 267:174 268:140 269:103 270:64 271:25 272:14 273:30 274:64 275:106 276:146 277:178 278:208 279:255 280:255 281:255 282:255 283:248 284:251 285:242 286:220 287:191 288:155 289:118 290:78 291:39 292:21 293:40 294:75 295:117 296:156 297:186 298:214 299:255 300:255 301:255 302:255 303:236 304:245 305:249 306:232 307:203 308:168 309:130 310:86 311:49 312:28 313:45 314:82 315:124 316:160 317:188 318:217 319:255 320:255 321:255 322:255 323:215 324:229 325:248 326:243 327:219 328:183 329:140 330:95 331:57 332:34 333:49 334:84 335:126 336:162 337:189 338:217 339:255 340:255 341:255 342:255 343:190 344:202 345:236 346:250 347:238 348:200 349:149 350:105 351:68 352:46 353:58 354:88 355:128 356:167 357:194 358:217 359:255 360:255 361:255 362:255 363:168 364:172 365:215 366:242 367:241 368:211 369:163 370:121 371:87 372:71 373:79 374:102 375:137 376:174 377:200 378:219 379:255 380:255 381:255 382:255 383:148 384:145 385:189 386:225 387:241 388:229 389:187 390:148 391:120 392:106 393:110 394:127 395:155 396:190 397:215 398:230 399:255 400:255 
-1.01178271946836e-05 1:255 2:255 3:248 4:246 5:249 6:251 7:251 8:251 9:251 10:254 11:254 12:243 13:233 14:226 15:219 16:211 17:208 18:219 19:255 20:255 21:255 22:255 23:248 24:243 25:239 26:233 27:226 28:225 29:233 30:241 31:246 32:238 33:214 34:197 35:185 36:185 37:196 38:218 39:255 40:255 41:255 42:255 43:244 44:234 45:218 46:196 47:181 48:179 49:190 50:212 51:228 52:215 53:184 54:160 55:146 56:151 57:170 58:202 59:255 60:255 61:255 62:255 63:240 64:221 65:192 66:160 67:137 68:130 69:146 70:176 71:196 72:184 73:155 74:124 75:104 76:109 77:138 78:187 79:255 80:255 81:255 82:255 83:238 84:210 85:174 86:133 87:99 88:85 89:103 90:137 91:162 92:155 93:126 94:91 95:69 96:77 97:113 98:174 99:255 100:255 101:255 102:255 103:236 104:205 105:165 106:117 107:73 108:53 109:67 110:99 111:128 112:125 113:97 114:65 115:48 116:59 117:96 118:163 119:255 120:255 121:255 122:255 123:234 124:203 125:161 126:109 127:59 128:35 129:40 130:63 131:89 132:90 133:69 134:47 135:36 136:49 137:84 138:154 139:255 140:255 141:255 142:255 143:230 144:197 145:157 146:104 147:52 148:24 149:21 150:33 151:51 152:54 153:41 154:28 155:26 156:41 157:75 158:146 159:255 160:255 161:255 162:255 163:224 164:190 165:150 166:96 167:46 168:18 169:9 170:14 171:24 172:24 173:16 174:15 175:19 176:33 177:65 178:139 179:255 180:255 181:255 182:255 183:224 184:187 185:142 186:87 187:38 188:13 189:5 190:4 191:9 192:5 193:8 194:14 195:20 196:33 197:61 198:133 199:255 200:255 201:255 202:255 203:224 204:187 205:141 206:86 207:40 208:21 209:14 210:9 211:4 212:8 213:19 214:26 215:30 216:37 217:60 218:131 219:255 220:255 221:255 222:255 223:227 224:189 225:143 226:88 227:44 228:32 229:34 230:28 231:21 232:21 233:32 234:48 235:56 236:54 237:64 238:131 239:255 240:255 241:255 242:255 243:227 244:194 245:151 246:97 247:54 248:47 249:61 250:61 251:44 252:36 253:51 254:77 255:84 256:74 257:73 258:131 259:255 260:255 261:255 262:255 263:227 264:197 265:157 266:104 267:64 268:64 269:90 270:97 271:83 272:70 273:86 274:107 275:109 276:91 277:80 278:131 279:255 280:255 281:255 282:255 283:226 284:199 285:161 286:110 287:72 288:75 289:113 290:135 291:130 292:120 293:130 294:141 295:134 296:108 297:87 298:128 299:255 300:255 301:255 302:255 303:220 304:198 305:164 306:114 307:77 308:82 309:126 310:161 311:172 312:169 313:173 314:173 315:157 316:123 317:92 318:127 319:255 320:255 321:255 322:255 323:210 324:190 325:163 326:118 327:83 328:87 329:133 330:175 331:204 332:208 333:207 334:197 335:172 336:133 337:99 338:130 339:255 340:255 341:255 342:255 343:196 344:175 345:159 346:124 347:91 348:95 349:139 350:187 351:224 352:234 353:232 354:216 355:185 356:146 357:114 358:141 359:255 360:255 361:255 362:255 363:176 364:159 365:156 366:131 367:106 368:111 369:147 370:196 371:234 372:246 373:244 374:232 375:204 376:169 377:141 378:158 379:255 380:255 381:255 382:255 383:151 384:141 385:154 386:144 387:129 388:133 389:165 390:204 391:243 392:253 393:254 394:242 395:220 396:194 397:174 398:188 399:255 400:255 
-6.282654711881286e-07 1:255 2:255 3:253 4:253 5:252 6:250 7:249 8:252 9:252 10:255 11:255 12:249 13:243 14:236 15:226 16:209 17:189 18:195 19:255 20:255 21:255 22:255 23:250 24:246 25:241 26:237 27:237 28:241 29:245 30:249 31:246 32:242 33:235 34:229 35:225 36:220 37:212 38:217 39:255 40:255 41:255 42:255 43:245 44:233 45:219 46:207 47:205 48:214 49:227 50:235 51:234 52:226 53:213 54:203 55:202 56:206 57:211 58:224 59:255 60:255 61:255 62:255 63:238 64:215 65:189 66:167 67:160 68:174 69:194 70:215 71:215 72:196 73:176 74:159 75:160 76:173 77:191 78:218 79:255 80:255 81:255 82:255 83:232 84:200 85:157 86:121 87:109 88:124 89:157 90:184 91:186 92:163 93:130 94:106 95:108 96:135 97:169 98:207 99:255 100:255 101:255 102:255 103:229 104:188 105:135 106:88 107:67 108:80 109:119 110:153 111:157 112:130 113:88 114:63 115:69 116:104 117:149 118:196 119:255 120:255 121:255 122:255 123:226 124:181 125:126 126:74 127:44 128:50 129:83 130:119 131:127 132:98 133:60 134:41 135:50 136:85 137:133 138:189 139:255 140:255 141:255 142:255 143:219 144:175 145:119 146:65 147:32 148:29 149:49 150:75 151:86 152:67 153:42 154:31 155:42 156:78 157:126 158:184 159:255 160:255 161:255 162:255 163:216 164:168 165:110 166:56 167:24 168:16 169:23 170:38 171:44 172:37 173:25 174:22 175:36 176:72 177:121 178:180 179:255 180:255 181:255 182:255 183:209 184:156 185:96 186:45 187:18 188:8 189:9 190:14 191:16 192:15 193:15 194:15 195:30 196:63 197:110 198:174 199:255 200:255 201:255 202:255 203:203 204:145 205:87 206:44 207:23 208:13 209:7 210:4 211:4 212:8 213:13 214:16 215:24 216:52 217:96 218:159 219:255 220:255 221:255 222:255 223:206 224:146 225:86 226:48 227:35 228:29 229:22 230:7 231:3 232:18 233:28 234:30 235:34 236:53 237:89 238:153 239:255 240:255 241:255 242:255 243:209 244:147 245:88 246:54 247:49 248:53 249:44 250:22 251:18 252:36 253:52 254:52 255:45 256:55 257:87 258:152 259:255 260:255 261:255 262:255 263:208 264:151 265:96 266:68 267:72 268:85 269:79 270:55 271:48 272:65 273:82 274:76 275:58 276:58 277:87 278:152 279:255 280:255 281:255 282:255 283:207 284:155 285:105 286:81 287:93 288:115 289:123 290:104 291:93 292:107 293:113 294:98 295:71 296:64 297:87 298:149 299:255 300:255 301:255 302:255 303:205 304:156 305:111 306:92 307:110 308:142 309:159 310:154 311:144 312:148 313:142 314:116 315:82 316:70 317:88 318:147 319:255 320:255 321:255 322:255 323:202 324:155 325:115 326:100 327:123 328:164 329:186 330:191 331:187 332:181 333:166 334:129 335:91 336:77 337:93 338:151 339:255 340:255 341:255 342:255 343:201 344:156 345:119 346:105 347:129 348:175 349:208 350:217 351:215 352:205 353:179 354:139 355:100 356:85 357:105 358:163 359:255 360:255 361:255 362:255 363:199 364:161 365:128 366:116 367:142 368:187 369:219 370:235 371:230 372:216 373:189 374:152 375:115 376:103 377:125 378:178 379:255 380:255 381:255 382:255 383:199 384:167 385:149 386:146 387:167 388:200 389:228 390:240 391:237 392:226 393:202 394:170 395:140 396:134 397:151 398:188 399:255 400:255 
-2.131220808861403e-05 1:255 2:255 3:194 4:212 5:233 6:227 7:220 8:223 9:235 10:246 11:234 12:211 13:190 14:161 15:125 16:96 17:77 18:114 19:255 20:255 21:255 22:255 23:207 24:211 25:222 26:216 27:209 28:212 29:224 30:235 31:233 32:220 33:199 34:176 35:149 36:127 37:112 38:139 39:255 40:255 41:255 42:255 43:217 44:208 45:205 46:196 47:190 48:191 49:193 50:196 51:189 52:184 53:172 54:157 55:143 56:134 57:133 58:165 59:255 60:255 61:255 62:255 63:208 64:187 65:174 66:160 67:150 68:146 69:145 70:142 71:135 72:129 73:121 74:112 75:109 76:114 77:130 78:173 79:255 80:255 81:255 82:255 83:194 84:159 85:137 86:117 87:104 88:97 89:94 90:91 91:85 92:78 93:72 94:69 95:71 96:85 97:111 98:165 99:255 100:255 101:255 102:255 103:183 104:137 105:107 106:81 107:64 108:56 109:50 110:45 111:40 112:37 113:35 114:39 115:47 116:67 117:98 118:156 119:255 120:255 121:255 122:255 123:179 124:127 125:93 126:63 127:40 128:30 129:20 130:13 131:9 132:10 133:17 134:30 135:45 136:67 137:98 138:157 139:255 140:255 141:255 142:255 143:179 144:128 145:96 146:67 147:45 148:30 149:14 150:4 151:2 152:6 153:26 154:46 155:66 156:86 157:113 158:167 159:255 160:255 161:255 162:255 163:186 164:145 165:116 166:94 167:76 168:55 169:36 170:9 171:3 172:11 173:41 174:73 175:96 176:119 177:146 178:189 179:255 180:255 181:255 182:255 183:203 184:173 185:153 186:133 187:112 188:84 189:55 190:23 191:5 192:21 193:56 194:90 195:127 196:158 197:185 198:220 199:255 200:255 201:255 202:255 203:227 204:218 205:210 206:185 207:148 208:111 209:72 210:34 211:8 212:27 213:61 214:103 215:147 216:186 217:214 218:238 219:255 220:255 221:255 222:255 223:246 224:247 225:245 226:218 227:169 228:118 229:76 230:38 231:10 232:29 233:63 234:104 235:148 236:187 237:216 238:239 239:255 240:255 241:255 242:255 243:254 244:254 245:251 246:228 247:180 248:124 249:78 250:40 251:13 252:30 253:63 254:100 255:141 256:178 257:206 258:231 259:255 260:255 261:255 262:255 263:251 264:253 265:251 266:229 267:183 268:126 269:80 270:44 271:16 272:30 273:61 274:97 275:138 276:175 277:203 278:229 279:255 280:255 281:255 282:255 283:243 284:250 285:251 286:229 287:185 288:131 289:85 290:48 291:18 292:30 293:58 294:92 295:134 296:173 297:203 298:229 299:255 300:255 301:255 302:255 303:234 304:243 305:251 306:236 307:196 308:139 309:91 310:52 311:22 312:26 313:52 314:87 315:130 316:172 317:205 318:233 319:255 320:255 321:255 322:255 323:219 324:233 325:251 326:247 327:212 328:149 329:98 330:57 331:26 332:22 333:47 334:83 335:127 336:170 337:209 338:242 339:255 340:255 341:255 342:255 343:196 344:216 345:247 346:251 347:221 348:156 349:104 350:63 351:30 352:21 353:45 354:81 355:124 356:168 357:213 358:249 359:255 360:255 361:255 362:255 363:173 364:182 365:229 366:250 367:222 368:161 369:110 370:69 371:34 372:26 373:47 374:80 375:122 376:166 377:211 378:247 379:255 380:255 381:255 382:255 383:149 384:147 385:202 386:239 387:225 388:169 389:117 390:74 391:41 392:38 393:55 394:84 395:123 396:163 397:201 398:239 399:255 400:255 
-3.044261739223273e-06 1:255 2:255 3:184 4:212 5:248 6:255 7:250 8:232 9:209 10:209 11:209 12:209 13:209 14:185 15:150 16:120 17:93 18:118 19:255 20:255 21:255 22:255 23:198 24:219 25:241 26:242 27:225 28:188 29:178 30:177 31:168 32:176 33:178 34:163 35:147 36:134 37:117 38:140 39:255 40:255 41:255 42:255 43:216 44:212 45:201 46:179 47:157 48:137 49:128 50:132 51:129 52:136 53:133 54:126 55:121 56:121 57:121 58:154 59:255 60:255 61:255 62:255 63:236 64:205 65:166 66:130 67:105 68:87 69:80 70:82 71:86 72:88 73:86 74:84 75:84 76:88 77:99 78:148 79:255 80:255 81:255 82:255 83:231 84:189 85:143 86:103 87:71 88:48 89:41 90:36 91:44 92:44 93:44 94:44 95:46 96:55 97:76 98:134 99:255 100:255 101:255 102:255 103:221 104:177 105:136 106:96 107:61 108:37 109:23 110:10 111:15 112:15 113:16 114:18 115:25 116:41 117:66 118:127 119:255 120:255 121:255 122:255 123:229 124:186 125:145 126:108 127:75 128:51 129:32 130:13 131:5 132:3 133:7 134:16 135:32 136:51 137:73 138:132 139:255 140:255 141:255 142:255 143:246 144:213 145:171 146:134 147:104 148:79 149:59 150:33 151:12 152:5 153:14 154:34 155:59 156:79 157:96 158:148 159:255 160:255 161:255 162:255 163:252 164:245 165:206 166:164 167:136 168:111 169:85 170:58 171:29 172:11 173:27 174:57 175:88 176:112 177:129 178:167 179:255 180:255 181:255 182:255 183:252 184:251 185:229 186:193 187:162 188:135 189:107 190:70 191:33 192:16 193:39 194:71 195:107 196:138 197:161 198:194 199:255 200:255 201:255 202:255 203:255 204:255 205:246 206:213 207:172 208:145 209:117 210:76 211:37 212:26 213:41 214:74 215:118 216:159 217:190 218:219 219:255 220:255 221:255 222:255 223:252 224:252 225:250 226:229 227:192 228:159 229:122 230:81 231:47 232:28 233:43 234:80 235:130 236:191 237:233 238:240 239:255 240:255 241:255 242:255 243:252 244:251 245:251 246:243 247:221 248:185 249:131 250:84 251:49 252:28 253:44 254:81 255:132 256:196 257:243 258:250 259:255 260:255 261:255 262:255 263:247 264:244 265:244 266:242 267:229 268:194 269:139 270:86 271:49 272:22 273:45 274:83 275:136 276:200 277:244 278:252 279:255 280:255 281:255 282:255 283:231 284:234 285:240 286:240 287:229 288:195 289:143 290:92 291:49 292:18 293:42 294:82 295:135 296:199 297:242 298:247 299:255 300:255 301:255 302:255 303:208 304:223 305:240 306:240 307:229 308:195 309:144 310:96 311:51 312:23 313:40 314:78 315:128 316:188 317:231 318:244 319:255 320:255 321:255 322:255 323:182 324:198 325:225 326:229 327:219 328:188 329:144 330:98 331:54 332:29 333:38 334:72 335:121 336:176 337:220 338:244 339:255 340:255 341:255 342:255 343:158 344:159 345:195 346:209 347:200 348:175 349:142 350:97 351:58 352:30 353:35 354:68 355:116 356:172 357:220 358:244 359:255 360:255 361:255 362:255 363:141 364:137 365:182 366:207 367:200 368:173 369:137 370:97 371:59 372:33 373:44 374:73 375:118 376:173 377:220 378:244 379:255 380:255 381:255 382:255 383:122 384:109 385:157 386:195 387:200 388:175 389:145 390:103 391:64 392:49 393:55 394:84 395:128 396:178 397:220 398:244 399:255 400:255 
-6.04463951387701e-06 1:255 2:255 3:242 4:235 5:231 6:231 7:236 8:244 9:252 10:255 11:254 12:250 13:234 14:209 15:189 16:180 17:182 18:204 19:255 20:255 21:255 22:255 23:225 24:198 25:180 26:174 27:182 28:206 29:235 30:253 31:254 32:245 33:214 34:180 35:156 36:149 37:159 38:194 39:255 40:255 41:255 42:255 43:209 44:163 45:133 46:120 47:127 48:159 49:204 50:244 51:250 52:235 53:189 54:144 55:115 56:108 57:126 58:177 59:255 60:255 61:255 62:255 63:194 64:139 65:101 66:81 67:86 68:121 69:171 70:221 71:241 72:214 73:165 74:117 75:83 76:77 77:102 78:162 79:255 80:255 81:255 82:255 83:189 84:131 85:88 86:60 87:61 88:93 89:139 90:189 91:220 92:190 93:143 94:96 95:62 96:60 97:90 98:154 99:255 100:255 101:255 102:255 103:193 104:137 105:91 106:55 107:46 108:72 109:115 110:163 111:194 112:168 113:125 114:80 115:50 116:53 117:88 118:154 119:255 120:255 121:255 122:255 123:202 124:151 125:103 126:60 127:40 128:56 129:99 130:144 131:172 132:152 133:112 134:67 135:42 136:53 137:94 138:160 139:255 140:255 141:255 142:255 143:212 144:164 145:114 146:68 147:39 148:43 149:83 150:126 151:154 152:139 153:99 154:56 155:39 156:59 157:102 158:167 159:255 160:255 161:255 162:255 163:221 164:174 165:124 166:75 167:38 168:30 169:64 170:106 171:136 172:120 173:85 174:46 175:40 176:69 177:113 178:176 179:255 180:255 181:255 182:255 183:227 184:186 185:136 186:84 187:39 188:22 189:48 190:90 191:114 192:103 193:68 194:37 195:42 196:79 197:127 198:185 199:255 200:255 201:255 202:255 203:235 204:201 205:153 206:97 207:45 208:15 209:27 210:75 211:94 212:86 213:57 214:37 215:53 216:95 217:140 218:192 219:255 220:255 221:255 222:255 223:236 224:206 225:165 226:114 227:60 228:19 229:18 230:48 231:67 232:62 233:40 234:38 235:64 236:109 237:155 238:202 239:255 240:255 241:255 242:255 243:236 244:213 245:178 246:130 247:78 248:35 249:14 250:23 251:35 252:35 253:27 254:42 255:78 256:125 257:171 258:213 259:255 260:255 261:255 262:255 263:238 264:220 265:192 266:148 267:98 268:51 269:14 270:8 271:13 272:17 273:21 274:50 275:92 276:141 277:188 278:224 279:255 280:255 281:255 282:255 283:241 284:228 285:204 286:165 287:117 288:66 289:19 290:3 291:4 292:8 293:21 294:59 295:107 296:158 297:204 298:236 299:255 300:255 301:255 302:255 303:241 304:232 305:212 306:179 307:135 308:83 309:33 310:5 311:2 312:6 313:29 314:71 315:123 316:176 317:220 318:244 319:255 320:255 321:255 322:255 323:235 324:226 325:214 326:191 327:153 328:104 329:55 330:16 331:6 332:11 333:44 334:89 335:142 336:196 337:233 338:247 339:255 340:255 341:255 342:255 343:224 344:213 345:213 346:203 347:173 348:128 349:82 350:42 351:25 352:30 353:66 354:113 355:166 356:216 357:244 358:248 359:255 360:255 361:255 362:255 363:214 364:198 365:208 366:212 367:191 368:154 369:114 370:86 371:71 372:78 373:102 374:140 375:189 376:229 377:247 378:249 379:255 380:255 381:255 382:255 383:204 384:182 385:195 386:212 387:208 388:184 389:157 390:134 391:125 392:129 393:145 394:177 395:215 396:241 397:250 398:253 399:255 400:255 
-3.641410646613564e-06 1:255 2:255 3:249 4:241 5:237 6:239 7:242 8:241 9:235 10:228 11:236 12:229 13:221 14:206 15:186 16:164 17:145 18:162 19:255 20:255 21:255 22:255 23:232 24:207 25:195 26:199 27:213 28:225 29:229 30:228 31:236 32:229 33:212 34:197 35:184 36:174 37:170 38:189 39:255 40:255 41:255 42:255 43:203 44:160 45:140 46:145 47:168 48:197 49:222 50:228 51:236 52:223 53:194 54:170 55:156 56:156 57:167 58:197 59:255 60:255 61:255 62:255 63:179 64:123 65:98 66:100 67:125 68:163 69:200 70:222 71:224 72:201 73:162 74:133 75:118 76:123 77:146 78:189 79:255 80:255 81:255 82:255 83:168 84:105 85:73 86:69 87:94 88:134 89:175 90:205 91:203 92:172 93:128 94:93 95:79 96:94 97:128 98:179 99:255 100:255 101:255 102:255 103:168 104:102 105:62 106:50 107:72 108:111 109:151 110:183 111:179 112:145 113:101 114:64 115:56 116:82 117:124 118:177 119:255 120:255 121:255 122:255 123:173 124:109 125:64 126:42 127:55 128:91 129:130 130:160 131:158 132:124 133:81 134:50 135:53 136:87 137:130 138:183 139:255 140:255 141:255 142:255 143:180 144:118 145:73 146:42 147:43 148:77 149:114 150:141 151:140 152:108 153:66 154:45 155:60 156:98 157:141 158:191 159:255 160:255 161:255 162:255 163:186 164:130 165:83 166:45 167:36 168:63 169:100 170:124 171:119 172:88 173:54 174:46 175:71 176:112 177:157 178:204 179:255 180:255 181:255 182:255 183:190 184:136 185:92 186:51 187:31 188:49 189:84 190:112 191:101 192:70 193:40 194:47 195:80 196:127 197:173 198:214 199:255 200:255 201:255 202:255 203:202 204:152 205:103 206:55 207:26 208:35 209:75 210:98 211:89 212:60 213:38 214:53 215:92 216:141 217:189 218:227 219:255 220:255 221:255 222:255 223:209 224:165 225:115 226:62 227:26 228:26 229:57 230:79 231:73 232:46 233:39 234:67 235:110 236:159 237:204 238:234 239:255 240:255 241:255 242:255 243:216 244:175 245:129 246:76 247:32 248:18 249:34 250:56 251:47 252:30 253:44 254:84 255:132 256:178 257:216 258:240 259:255 260:255 261:255 262:255 263:219 264:183 265:138 266:86 267:38 268:11 269:15 270:26 271:24 272:23 273:52 274:98 275:152 276:201 277:231 278:244 279:255 280:255 281:255 282:255 283:224 284:192 285:148 286:96 287:47 288:10 289:5 290:9 291:13 292:23 293:64 294:114 295:170 296:218 297:241 298:247 299:255 300:255 301:255 302:255 303:227 304:199 305:159 306:109 307:56 308:12 309:3 310:4 311:10 312:32 313:81 314:134 315:191 316:232 317:247 318:249 319:255 320:255 321:255 322:255 323:227 324:204 325:170 326:122 327:67 328:18 329:3 330:4 331:12 332:48 333:99 334:156 335:213 336:246 337:251 338:249 339:255 340:255 341:255 342:255 343:225 344:206 345:178 346:135 347:83 348:33 349:10 350:10 351:23 352:68 353:119 354:180 355:229 356:251 357:253 358:250 359:255 360:255 361:255 362:255 363:215 364:204 365:187 366:150 367:105 368:61 369:31 370:28 371:52 372:93 373:146 374:202 375:239 376:253 377:254 378:253 379:255 380:255 381:255 382:255 383:203 384:198 385:197 386:173 387:137 388:101 389:78 390:77 391:93 392:125 393:176 394:220 395:245 396:253 397:254 398:253 399:255 400:255 
-2.356214575578092e-06 1:255 2:255 3:243 4:239 5:236 6:234 7:237 8:244 9:249 10:254 11:255 12:252 13:239 14:209 15:187 16:179 17:183 18:206 19:255 20:255 21:255 22:255 23:225 24:201 25:184 26:175 27:180 28:202 29:230 30:252 31:254 32:249 33:218 34:179 35:154 36:150 37:160 38:194 39:255 40:255 41:255 42:255 43:208 44:164 45:134 46:121 47:128 48:158 49:202 50:245 51:252 52:240 53:192 54:143 55:114 56:108 57:125 58:176 59:255 60:255 61:255 62:255 63:193 64:139 65:102 66:82 67:87 68:120 69:170 70:218 71:242 72:218 73:168 74:118 75:83 76:76 77:100 78:161 79:255 80:255 81:255 82:255 83:188 84:131 85:89 86:60 87:60 88:93 89:138 90:187 91:218 92:194 93:145 94:98 95:65 96:62 97:91 98:157 99:255 100:255 101:255 102:255 103:193 104:137 105:92 106:57 107:48 108:73 109:114 110:163 111:191 112:173 113:126 114:81 115:51 116:56 117:92 118:158 119:255 120:255 121:255 122:255 123:202 124:151 125:105 126:64 127:44 128:59 129:99 130:144 131:170 132:155 133:113 134:67 135:41 136:53 137:96 138:160 139:255 140:255 141:255 142:255 143:212 144:165 145:116 146:70 147:43 148:46 149:84 150:126 151:151 152:138 153:100 154:55 155:35 156:55 157:102 158:165 159:255 160:255 161:255 162:255 163:220 164:176 165:127 166:77 167:39 168:31 169:64 170:105 171:132 172:118 173:86 174:47 175:34 176:62 177:112 178:174 179:255 180:255 181:255 182:255 183:222 184:184 185:136 186:84 187:40 188:22 189:46 190:87 191:113 192:103 193:68 194:36 195:40 196:76 197:122 198:182 199:255 200:255 201:255 202:255 203:230 204:198 205:153 206:98 207:46 208:15 209:29 210:73 211:94 212:86 213:57 214:35 215:51 216:94 217:139 218:191 219:255 220:255 221:255 222:255 223:233 224:204 225:164 226:113 227:62 228:23 229:20 230:52 231:68 232:61 233:40 234:37 235:66 236:111 237:155 238:202 239:255 240:255 241:255 242:255 243:234 244:212 245:176 246:128 247:79 248:35 249:13 250:24 251:37 252:33 253:25 254:41 255:79 256:125 257:170 258:213 259:255 260:255 261:255 262:255 263:237 264:220 265:190 266:147 267:98 268:51 269:13 270:9 271:15 272:15 273:19 274:47 275:90 276:140 277:187 278:225 279:255 280:255 281:255 282:255 283:239 284:226 285:204 286:165 287:118 288:67 289:20 290:4 291:4 292:7 293:21 294:56 295:104 296:155 297:203 298:237 299:255 300:255 301:255 302:255 303:239 304:229 305:213 306:181 307:136 308:84 309:34 310:5 311:2 312:6 313:29 314:71 315:121 316:173 317:217 318:245 319:255 320:255 321:255 322:255 323:236 324:225 325:216 326:194 327:154 328:103 329:54 330:13 331:5 332:11 333:45 334:89 335:141 336:193 337:231 338:247 339:255 340:255 341:255 342:255 343:228 344:215 345:215 346:207 347:176 348:127 349:80 350:36 351:23 352:31 353:67 354:112 355:163 356:213 357:242 358:248 359:255 360:255 361:255 362:255 363:218 364:201 365:211 366:216 367:195 368:155 369:114 370:84 371:69 372:78 373:100 374:139 375:184 376:223 377:245 378:250 379:255 380:255 381:255 382:255 383:206 384:183 385:197 386:216 387:212 388:186 389:158 390:136 391:125 392:129 393:145 394:176 395:210 396:236 397:248 398:251 399:255 400:255 
-4.711588991663616e-06 1:255 2:255 3:243 4:231 5:223 6:223 7:232 8:244 9:252 10:255 11:255 12:250 13:232 14:207 15:190 16:184 17:186 18:206 19:255 20:255 21:255 22:255 23:225 24:195 25:178 26:172 27:181 28:207 29:238 30:252 31:253 32:247 33:213 34:179 35:157 36:151 37:161 38:194 39:255 40:255 41:255 42:255 43:207 44:162 45:132 46:119 47:127 48:160 49:207 50:245 51:251 52:234 53:189 54:144 55:115 56:108 57:124 58:176 59:255 60:255 61:255 62:255 63:194 64:140 65:103 66:82 67:86 68:121 69:171 70:221 71:242 72:216 73:167 74:116 75:83 76:77 77:101 78:163 79:255 80:255 81:255 82:255 83:190 84:132 85:89 86:60 87:58 88:91 89:138 90:189 91:220 92:195 93:146 94:97 95:64 96:61 97:91 98:156 99:255 100:255 101:255 102:255 103:193 104:138 105:92 106:55 107:44 108:70 109:114 110:163 111:195 112:174 113:128 114:82 115:52 116:55 117:90 118:156 119:255 120:255 121:255 122:255 123:201 124:151 125:105 126:62 127:42 128:56 129:99 130:145 131:174 132:158 133:115 134:69 135:44 136:55 137:95 138:160 139:255 140:255 141:255 142:255 143:211 144:163 145:115 146:70 147:41 148:45 149:84 150:126 151:153 152:140 153:102 154:58 155:40 156:60 157:104 158:167 159:255 160:255 161:255 162:255 163:218 164:172 165:123 166:75 167:39 168:32 169:65 170:106 171:131 172:120 173:86 174:46 175:39 176:68 177:115 178:176 179:255 180:255 181:255 182:255 183:225 184:185 185:136 186:85 187:40 188:23 189:50 190:89 191:112 192:103 193:68 194:36 195:41 196:77 197:125 198:185 199:255 200:255 201:255 202:255 203:233 204:194 205:149 206:98 207:47 208:16 209:29 210:74 211:94 212:86 213:55 214:35 215:52 216:95 217:141 218:192 219:255 220:255 221:255 222:255 223:238 224:205 225:163 226:114 227:61 228:21 229:20 230:52 231:68 232:61 233:39 234:35 235:63 236:110 237:157 238:204 239:255 240:255 241:255 242:255 243:239 244:212 245:174 246:127 247:78 248:35 249:14 250:24 251:38 252:33 253:25 254:40 255:77 256:126 257:172 258:214 259:255 260:255 261:255 262:255 263:239 264:219 265:188 266:146 267:99 268:51 269:12 270:9 271:14 272:15 273:19 274:47 275:91 276:141 277:187 278:225 279:255 280:255 281:255 282:255 283:241 284:229 285:205 286:166 287:118 288:66 289:20 290:4 291:3 292:7 293:19 294:57 295:107 296:158 297:203 298:237 299:255 300:255 301:255 302:255 303:243 304:235 305:216 306:182 307:136 308:83 309:35 310:6 311:2 312:6 313:27 314:70 315:123 316:177 317:220 318:245 319:255 320:255 321:255 322:255 323:238 324:230 325:219 326:195 327:154 328:104 329:56 330:16 331:6 332:12 333:44 334:88 335:141 336:195 337:234 338:248 339:255 340:255 341:255 342:255 343:226 344:217 345:217 346:204 347:172 348:127 349:83 350:41 351:24 352:31 353:68 354:111 355:162 356:212 357:242 358:248 359:255 360:255 361:255 362:255 363:215 364:201 365:211 366:213 367:192 368:154 369:113 370:85 371:68 372:79 373:102 374:140 375:187 376:226 377:244 378:248 379:255 380:255 381:255 382:255 383:206 384:182 385:194 386:211 387:207 388:183 389:151 390:133 391:122 392:128 393:145 394:176 395:214 396:240 397:248 398:250 399:255 400:255 
-1.090323047249499e-07 1:255 2:255 3:250 4:251 5:254 6:255 7:254 8:253 9:251 10:248 11:244 12:241 13:224 14:198 15:172 16:149 17:132 18:158 19:255 20:255 21:255 22:255 23:234 24:228 25:234 26:241 27:248 28:252 29:251 30:244 31:241 32:229 33:211 34:194 35:183 36:179 37:175 38:192 39:255 40:255 41:255 42:255 43:206 44:183 45:182 46:196 47:220 48:242 49:248 50:243 51:229 52:205 53:181 54:163 55:159 56:170 57:185 58:209 59:255 60:255 61:255 62:255 63:175 64:134 65:129 66:146 67:180 68:216 69:239 70:237 71:212 72:177 73:142 74:119 75:119 76:140 77:169 78:206 79:255 80:255 81:255 82:255 83:152 84:99 85:89 86:106 87:141 88:182 89:216 90:220 91:192 92:151 93:110 94:82 95:84 96:111 97:147 98:194 99:255 100:255 101:255 102:255 103:142 104:79 105:63 106:76 107:111 108:152 109:188 110:199 111:172 112:127 113:85 114:56 115:63 116:95 117:132 118:182 119:255 120:255 121:255 122:255 123:142 124:76 125:51 126:56 127:88 128:130 129:168 130:180 131:157 132:110 133:66 134:42 135:55 136:90 137:125 138:175 139:255 140:255 141:255 142:255 143:151 144:86 145:52 146:44 147:71 148:114 149:153 150:168 151:145 152:98 153:55 154:36 155:54 156:92 157:129 158:175 159:255 160:255 161:255 162:255 163:162 164:98 165:57 166:41 167:59 168:99 169:138 170:161 171:132 172:87 173:44 174:34 175:62 176:106 177:141 178:181 179:255 180:255 181:255 182:255 183:167 184:107 185:66 186:40 187:47 188:85 189:120 190:144 191:116 192:73 193:35 194:39 195:75 196:121 197:158 198:193 199:255 200:255 201:255 202:255 203:183 204:126 205:79 206:40 207:32 208:63 209:99 210:122 211:98 212:59 213:28 214:47 215:94 216:146 217:185 218:212 219:255 220:255 221:255 222:255 223:196 224:144 225:96 226:46 227:19 228:38 229:79 230:97 231:85 232:47 233:33 234:64 235:112 236:163 237:203 238:226 239:255 240:255 241:255 242:255 243:206 244:155 245:107 246:59 247:24 248:24 249:56 250:73 251:63 252:38 253:44 254:79 255:131 256:184 257:220 258:237 259:255 260:255 261:255 262:255 263:214 264:169 265:124 266:75 267:34 268:16 269:29 270:44 271:36 272:29 273:51 274:93 275:148 276:201 277:231 278:240 279:255 280:255 281:255 282:255 283:217 284:178 285:137 286:90 287:44 288:13 289:12 290:19 291:17 292:24 293:59 294:106 295:161 296:210 297:233 298:235 299:255 300:255 301:255 302:255 303:217 304:186 305:149 306:104 307:56 308:16 309:5 310:5 311:8 312:27 313:68 314:119 315:172 316:216 317:232 318:230 319:255 320:255 321:255 322:255 323:220 324:196 325:163 326:119 327:70 328:25 329:3 330:2 331:8 332:37 333:81 334:133 335:183 336:221 337:231 338:226 339:255 340:255 341:255 342:255 343:224 344:205 345:179 346:136 347:88 348:42 349:7 350:5 351:12 352:51 353:97 354:148 355:195 356:226 357:228 358:224 359:255 360:255 361:255 362:255 363:227 364:211 365:193 366:158 367:112 368:65 369:22 370:17 371:26 372:69 373:113 374:162 375:211 376:238 377:234 378:230 379:255 380:255 381:255 382:255 383:222 384:216 385:205 386:175 387:135 388:91 389:60 390:52 391:62 392:89 393:134 394:177 395:219 396:244 397:243 398:240 399:255 400:255 
-3.215778421442911e-06 1:255 2:255 3:235 4:217 5:207 6:209 7:224 8:241 9:252 10:255 11:254 12:251 13:240 14:222 15:206 16:204 17:215 18:232 19:255 20:255 21:255 22:255 23:225 24:186 25:159 26:166 27:199 28:230 29:248 30:254 31:252 32:246 33:227 34:191 35:159 36:154 37:181 38:223 39:255 40:255 41:255 42:255 43:211 44:159 45:122 46:128 47:171 48:218 49:241 50:249 51:249 52:240 53:215 54:166 55:122 56:119 57:157 58:209 59:255 60:255 61:255 62:255 63:204 64:143 65:103 66:109 67:156 68:204 69:230 70:238 71:238 72:227 73:199 74:150 75:106 76:103 77:142 78:198 79:255 80:255 81:255 82:255 83:200 84:137 85:97 86:103 87:147 88:192 89:214 90:217 91:213 92:204 93:174 94:129 95:95 96:98 97:134 98:190 99:255 100:255 101:255 102:255 103:199 104:135 105:95 106:98 107:134 108:169 109:180 110:176 111:170 112:166 113:145 114:109 115:85 116:94 117:131 118:186 119:255 120:255 121:255 122:255 123:197 124:135 125:93 126:89 127:114 128:136 129:135 130:120 131:116 132:119 133:116 134:96 135:78 136:88 137:127 138:186 139:255 140:255 141:255 142:255 143:195 144:132 145:88 146:75 147:91 148:106 149:96 150:73 151:67 152:79 153:87 154:81 155:73 156:84 157:123 158:185 159:255 160:255 161:255 162:255 163:194 164:126 165:79 166:63 167:68 168:72 169:59 170:40 171:36 172:53 173:69 174:68 175:64 176:80 177:121 178:182 179:255 180:255 181:255 182:255 183:190 184:119 185:69 186:48 187:46 188:43 189:32 190:19 191:22 192:35 193:51 194:53 195:54 196:75 197:123 198:190 199:255 200:255 201:255 202:255 203:195 204:122 205:66 206:37 207:27 208:22 209:15 210:6 211:9 212:22 213:33 214:38 215:47 216:79 217:134 218:198 219:255 220:255 221:255 222:255 223:195 224:124 225:68 226:29 227:9 228:6 229:8 230:14 231:15 232:12 233:19 234:26 235:42 236:84 237:142 238:200 239:255 240:255 241:255 242:255 243:191 244:129 245:73 246:28 247:7 248:5 249:17 250:27 251:26 252:16 253:10 254:19 255:44 256:92 257:150 258:204 259:255 260:255 261:255 262:255 263:187 264:131 265:76 266:31 267:13 268:17 269:38 270:52 271:47 272:29 273:16 274:21 275:49 276:99 277:155 278:206 279:255 280:255 281:255 282:255 283:181 284:132 285:81 286:38 287:24 288:35 289:66 290:89 291:77 292:51 293:29 294:29 295:56 296:106 297:161 298:210 299:255 300:255 301:255 302:255 303:176 304:134 305:91 306:51 307:42 308:62 309:102 310:128 311:117 312:84 313:53 314:45 315:69 316:116 317:169 318:217 319:255 320:255 321:255 322:255 323:175 324:140 325:111 326:82 327:79 328:104 329:145 330:168 331:164 332:127 333:94 334:83 335:100 336:140 337:185 338:224 339:255 340:255 341:255 342:255 343:180 344:154 345:145 346:136 347:139 348:158 349:189 350:209 351:204 352:176 353:150 354:141 355:152 356:181 357:212 358:234 359:255 360:255 361:255 362:255 363:189 364:171 365:180 366:189 367:197 368:208 369:221 370:230 371:229 372:220 373:206 374:199 375:207 376:221 377:234 378:246 379:255 380:255 381:255 382:255 383:186 384:163 385:185 386:211 387:223 388:231 389:237 390:244 391:244 392:241 393:235 394:233 395:237 396:243 397:247 398:251 399:255 400:255 
